svm_type epsilon_svr
kernel_type rbf
gamma 0.01
nr_class 2
total_sv 693
rho 0.13008233917081946
probA 0.15883134957489944
SV
-0.1651890984771425 1:1 5:1 9:1 16:1 19:1 22:1 27:1 31:1 34:1 40:1 41:1 45:1 49:1 65:1 84:1 111:1 122:1 135:1 155:1 170:1 184:1 205:1 209:1 225:1 292:1 367:1 474:1 519:1 571:1 650:1 712:1 765:1 849:1 
1 1:1 5:1 9:1 16:1 19:1 22:1 27:1 31:1 34:1 40:1 43:1 46:1 49:1 65:1 84:1 111:1 122:1 135:1 155:1 170:1 184:1 207:1 218:1 225:1 292:1 367:1 474:1 519:1 571:1 650:1 712:1 767:1 858:1 
-0.069828139827892072 1:1 5:1 9:1 16:1 19:1 22:1 27:1 31:1 34:1 40:1 43:1 48:1 49:1 65:1 84:1 111:1 122:1 135:1 155:1 170:1 184:1 207:1 220:1 225:1 292:1 367:1 474:1 519:1 571:1 650:1 712:1 767:1 860:1 
1 1:1 5:1 9:1 16:1 19:1 22:1 27:1 31:1 34:1 40:1 44:1 45:1 49:1 65:1 84:1 111:1 122:1 135:1 155:1 170:1 184:1 208:1 221:1 225:1 292:1 367:1 474:1 519:1 571:1 650:1 712:1 768:1 861:1 
-1 1:1 5:1 9:1 16:1 19:1 22:1 27:1 31:1 34:1 40:1 44:1 47:1 49:1 65:1 84:1 111:1 122:1 135:1 155:1 170:1 184:1 208:1 223:1 225:1 292:1 367:1 474:1 519:1 571:1 650:1 712:1 768:1 863:1 
1 1:1 5:1 10:1 16:1 19:1 22:1 27:1 31:1 34:1 37:1 41:1 45:1 49:1 66:1 88:1 111:1 122:1 135:1 155:1 170:1 181:1 193:1 209:1 226:1 296:1 383:1 474:1 519:1 571:1 650:1 709:1 753:1 801:1 
-1 1:1 5:1 10:1 16:1 19:1 22:1 27:1 31:1 34:1 37:1 42:1 45:1 49:1 66:1 88:1 111:1 122:1 135:1 155:1 170:1 181:1 194:1 213:1 226:1 296:1 383:1 474:1 519:1 571:1 650:1 709:1 754:1 805:1 
-1 1:1 5:1 10:1 16:1 19:1 22:1 27:1 31:1 34:1 37:1 43:1 45:1 49:1 66:1 88:1 111:1 122:1 135:1 155:1 170:1 181:1 195:1 217:1 226:1 296:1 383:1 474:1 519:1 571:1 650:1 709:1 755:1 809:1 
1 1:1 5:1 10:1 16:1 19:1 22:1 27:1 31:1 34:1 38:1 41:1 45:1 49:1 66:1 88:1 111:1 122:1 135:1 155:1 170:1 182:1 197:1 209:1 226:1 296:1 383:1 474:1 519:1 571:1 650:1 710:1 757:1 817:1 
1 1:1 5:1 10:1 16:1 19:1 22:1 27:1 31:1 34:1 38:1 42:1 45:1 49:1 66:1 88:1 111:1 122:1 135:1 155:1 170:1 182:1 198:1 213:1 226:1 296:1 383:1 474:1 519:1 571:1 650:1 710:1 758:1 821:1 
-1 1:1 5:1 10:1 16:1 19:1 22:1 27:1 31:1 34:1 38:1 42:1 46:1 49:1 66:1 88:1 111:1 122:1 135:1 155:1 170:1 182:1 198:1 214:1 226:1 296:1 383:1 474:1 519:1 571:1 650:1 710:1 758:1 822:1 
1 1:1 5:1 10:1 16:1 19:1 22:1 27:1 31:1 34:1 38:1 42:1 47:1 49:1 66:1 88:1 111:1 122:1 135:1 155:1 170:1 182:1 198:1 215:1 226:1 296:1 383:1 474:1 519:1 571:1 650:1 710:1 758:1 823:1 
-1 1:1 5:1 10:1 16:1 19:1 22:1 27:1 31:1 34:1 38:1 43:1 48:1 49:1 66:1 88:1 111:1 122:1 135:1 155:1 170:1 182:1 199:1 220:1 226:1 296:1 383:1 474:1 519:1 571:1 650:1 710:1 759:1 828:1 
-1 1:1 5:1 10:1 16:1 19:1 22:1 27:1 31:1 34:1 38:1 44:1 47:1 49:1 66:1 88:1 111:1 122:1 135:1 155:1 170:1 182:1 200:1 223:1 226:1 296:1 383:1 474:1 519:1 571:1 650:1 710:1 760:1 831:1 
1 1:1 5:1 10:1 16:1 19:1 22:1 27:1 31:1 34:1 38:1 44:1 48:1 49:1 66:1 88:1 111:1 122:1 135:1 155:1 170:1 182:1 200:1 224:1 226:1 296:1 383:1 474:1 519:1 571:1 650:1 710:1 760:1 832:1 
-1 1:1 5:1 10:1 16:1 19:1 22:1 27:1 31:1 34:1 39:1 42:1 47:1 49:1 66:1 88:1 111:1 122:1 135:1 155:1 170:1 183:1 202:1 215:1 226:1 296:1 383:1 474:1 519:1 571:1 650:1 711:1 762:1 839:1 
-1 1:1 5:1 10:1 16:1 19:1 22:1 27:1 31:1 34:1 39:1 43:1 45:1 49:1 66:1 88:1 111:1 122:1 135:1 155:1 170:1 183:1 203:1 217:1 226:1 296:1 383:1 474:1 519:1 571:1 650:1 711:1 763:1 841:1 
-1 1:1 5:1 10:1 16:1 19:1 22:1 27:1 31:1 34:1 39:1 43:1 46:1 49:1 66:1 88:1 111:1 122:1 135:1 155:1 170:1 183:1 203:1 218:1 226:1 296:1 383:1 474:1 519:1 571:1 650:1 711:1 763:1 842:1 
1 1:1 5:1 10:1 16:1 19:1 22:1 27:1 31:1 34:1 39:1 43:1 48:1 49:1 66:1 88:1 111:1 122:1 135:1 155:1 170:1 183:1 203:1 220:1 226:1 296:1 383:1 474:1 519:1 571:1 650:1 711:1 763:1 844:1 
1 1:1 5:1 10:1 16:1 19:1 22:1 27:1 31:1 34:1 40:1 42:1 47:1 49:1 66:1 88:1 111:1 122:1 135:1 155:1 170:1 184:1 206:1 215:1 226:1 296:1 383:1 474:1 519:1 571:1 650:1 712:1 766:1 855:1 
-1 1:1 5:1 10:1 16:1 19:1 22:1 27:1 31:1 34:1 40:1 42:1 48:1 49:1 66:1 88:1 111:1 122:1 135:1 155:1 170:1 184:1 206:1 216:1 226:1 296:1 383:1 474:1 519:1 571:1 650:1 712:1 766:1 856:1 
0.14382718937676672 1:1 5:1 10:1 16:1 19:1 22:1 27:1 31:1 34:1 40:1 43:1 48:1 49:1 66:1 88:1 111:1 122:1 135:1 155:1 170:1 184:1 207:1 220:1 226:1 296:1 383:1 474:1 519:1 571:1 650:1 712:1 767:1 860:1 
1 1:1 5:1 10:1 16:1 19:1 22:1 27:1 31:1 34:1 40:1 44:1 48:1 49:1 66:1 88:1 111:1 122:1 135:1 155:1 170:1 184:1 208:1 224:1 226:1 296:1 383:1 474:1 519:1 571:1 650:1 712:1 768:1 864:1 
1 1:1 5:1 12:1 16:1 19:1 22:1 27:1 31:1 34:1 40:1 41:1 46:1 49:1 68:1 96:1 111:1 122:1 135:1 155:1 170:1 184:1 205:1 210:1 228:1 304:1 415:1 474:1 519:1 571:1 650:1 712:1 765:1 850:1 
-1 1:1 5:1 12:1 16:1 19:1 22:1 27:1 31:1 34:1 40:1 42:1 46:1 49:1 68:1 96:1 111:1 122:1 135:1 155:1 170:1 184:1 206:1 214:1 228:1 304:1 415:1 474:1 519:1 571:1 650:1 712:1 766:1 854:1 
0.20381265907224258 1:1 5:1 12:1 16:1 19:1 22:1 27:1 31:1 34:1 40:1 43:1 45:1 49:1 68:1 96:1 111:1 122:1 135:1 155:1 170:1 184:1 207:1 217:1 228:1 304:1 415:1 474:1 519:1 571:1 650:1 712:1 767:1 857:1 
1 1:1 6:1 9:1 16:1 19:1 22:1 27:1 31:1 34:1 40:1 43:1 45:1 50:1 69:1 84:1 111:1 122:1 135:1 155:1 170:1 184:1 207:1 217:1 229:1 308:1 367:1 474:1 519:1 571:1 650:1 712:1 767:1 857:1 
-1 1:1 6:1 9:1 16:1 19:1 22:1 27:1 31:1 34:1 40:1 43:1 46:1 50:1 69:1 84:1 111:1 122:1 135:1 155:1 170:1 184:1 207:1 218:1 229:1 308:1 367:1 474:1 519:1 571:1 650:1 712:1 767:1 858:1 
-1 1:1 6:1 9:1 16:1 19:1 22:1 27:1 31:1 34:1 40:1 43:1 47:1 50:1 69:1 84:1 111:1 122:1 135:1 155:1 170:1 184:1 207:1 219:1 229:1 308:1 367:1 474:1 519:1 571:1 650:1 712:1 767:1 859:1 
1 1:1 6:1 9:1 16:1 19:1 22:1 27:1 31:1 34:1 40:1 43:1 48:1 50:1 69:1 84:1 111:1 122:1 135:1 155:1 170:1 184:1 207:1 220:1 229:1 308:1 367:1 474:1 519:1 571:1 650:1 712:1 767:1 860:1 
-1 1:1 6:1 9:1 16:1 19:1 22:1 27:1 31:1 34:1 40:1 44:1 47:1 50:1 69:1 84:1 111:1 122:1 135:1 155:1 170:1 184:1 208:1 223:1 229:1 308:1 367:1 474:1 519:1 571:1 650:1 712:1 768:1 863:1 
-1 1:1 6:1 10:1 16:1 19:1 22:1 27:1 31:1 34:1 37:1 43:1 45:1 50:1 70:1 88:1 111:1 122:1 135:1 155:1 170:1 181:1 195:1 217:1 230:1 312:1 383:1 474:1 519:1 571:1 650:1 709:1 755:1 809:1 
1 1:1 6:1 10:1 16:1 19:1 22:1 27:1 31:1 34:1 37:1 43:1 47:1 50:1 70:1 88:1 111:1 122:1 135:1 155:1 170:1 181:1 195:1 219:1 230:1 312:1 383:1 474:1 519:1 571:1 650:1 709:1 755:1 811:1 
-0.45273957649495739 1:1 6:1 10:1 16:1 19:1 22:1 27:1 31:1 34:1 38:1 41:1 45:1 50:1 70:1 88:1 111:1 122:1 135:1 155:1 170:1 182:1 197:1 209:1 230:1 312:1 383:1 474:1 519:1 571:1 650:1 710:1 757:1 817:1 
-1 1:1 6:1 10:1 16:1 19:1 22:1 27:1 31:1 34:1 38:1 41:1 46:1 50:1 70:1 88:1 111:1 122:1 135:1 155:1 170:1 182:1 197:1 210:1 230:1 312:1 383:1 474:1 519:1 571:1 650:1 710:1 757:1 818:1 
1 1:1 6:1 10:1 16:1 19:1 22:1 27:1 31:1 34:1 38:1 41:1 47:1 50:1 70:1 88:1 111:1 122:1 135:1 155:1 170:1 182:1 197:1 211:1 230:1 312:1 383:1 474:1 519:1 571:1 650:1 710:1 757:1 819:1 
1 1:1 6:1 10:1 16:1 19:1 22:1 27:1 31:1 34:1 38:1 42:1 46:1 50:1 70:1 88:1 111:1 122:1 135:1 155:1 170:1 182:1 198:1 214:1 230:1 312:1 383:1 474:1 519:1 571:1 650:1 710:1 758:1 822:1 
-1 1:1 6:1 10:1 16:1 19:1 22:1 27:1 31:1 34:1 38:1 42:1 47:1 50:1 70:1 88:1 111:1 122:1 135:1 155:1 170:1 182:1 198:1 215:1 230:1 312:1 383:1 474:1 519:1 571:1 650:1 710:1 758:1 823:1 
-1 1:1 6:1 10:1 16:1 19:1 22:1 27:1 31:1 34:1 38:1 43:1 46:1 50:1 70:1 88:1 111:1 122:1 135:1 155:1 170:1 182:1 199:1 218:1 230:1 312:1 383:1 474:1 519:1 571:1 650:1 710:1 759:1 826:1 
0.039330460361975302 1:1 6:1 10:1 16:1 19:1 22:1 27:1 31:1 34:1 38:1 43:1 47:1 50:1 70:1 88:1 111:1 122:1 135:1 155:1 170:1 182:1 199:1 219:1 230:1 312:1 383:1 474:1 519:1 571:1 650:1 710:1 759:1 827:1 
-1 1:1 6:1 10:1 16:1 19:1 22:1 27:1 31:1 34:1 39:1 41:1 46:1 50:1 70:1 88:1 111:1 122:1 135:1 155:1 170:1 183:1 201:1 210:1 230:1 312:1 383:1 474:1 519:1 571:1 650:1 711:1 761:1 834:1 
0.073677780040546662 1:1 6:1 10:1 16:1 19:1 22:1 27:1 31:1 34:1 39:1 42:1 47:1 50:1 70:1 88:1 111:1 122:1 135:1 155:1 170:1 183:1 202:1 215:1 230:1 312:1 383:1 474:1 519:1 571:1 650:1 711:1 762:1 839:1 
-1 1:1 6:1 10:1 16:1 19:1 22:1 27:1 31:1 34:1 39:1 43:1 46:1 50:1 70:1 88:1 111:1 122:1 135:1 155:1 170:1 183:1 203:1 218:1 230:1 312:1 383:1 474:1 519:1 571:1 650:1 711:1 763:1 842:1 
1 1:1 6:1 10:1 16:1 19:1 22:1 27:1 31:1 34:1 39:1 44:1 47:1 50:1 70:1 88:1 111:1 122:1 135:1 155:1 170:1 183:1 204:1 223:1 230:1 312:1 383:1 474:1 519:1 571:1 650:1 711:1 764:1 847:1 
-0.35340350350452521 1:1 6:1 10:1 16:1 19:1 22:1 27:1 31:1 34:1 40:1 41:1 47:1 50:1 70:1 88:1 111:1 122:1 135:1 155:1 170:1 184:1 205:1 211:1 230:1 312:1 383:1 474:1 519:1 571:1 650:1 712:1 765:1 851:1 
1 1:1 6:1 10:1 16:1 19:1 22:1 27:1 31:1 34:1 40:1 42:1 46:1 50:1 70:1 88:1 111:1 122:1 135:1 155:1 170:1 184:1 206:1 214:1 230:1 312:1 383:1 474:1 519:1 571:1 650:1 712:1 766:1 854:1 
1 1:1 6:1 10:1 16:1 19:1 22:1 27:1 31:1 34:1 40:1 43:1 47:1 50:1 70:1 88:1 111:1 122:1 135:1 155:1 170:1 184:1 207:1 219:1 230:1 312:1 383:1 474:1 519:1 571:1 650:1 712:1 767:1 859:1 
1 1:1 6:1 10:1 16:1 19:1 22:1 27:1 31:1 34:1 40:1 44:1 46:1 50:1 70:1 88:1 111:1 122:1 135:1 155:1 170:1 184:1 208:1 222:1 230:1 312:1 383:1 474:1 519:1 571:1 650:1 712:1 768:1 862:1 
-1 1:1 6:1 10:1 16:1 19:1 22:1 27:1 31:1 34:1 40:1 44:1 47:1 50:1 70:1 88:1 111:1 122:1 135:1 155:1 170:1 184:1 208:1 223:1 230:1 312:1 383:1 474:1 519:1 571:1 650:1 712:1 768:1 863:1 
0.26199888820311595 1:1 6:1 12:1 16:1 19:1 22:1 27:1 31:1 34:1 37:1 44:1 47:1 50:1 72:1 96:1 111:1 122:1 135:1 155:1 170:1 181:1 196:1 223:1 232:1 320:1 415:1 474:1 519:1 571:1 650:1 709:1 756:1 815:1 
1 1:1 6:1 12:1 16:1 19:1 22:1 27:1 31:1 34:1 38:1 41:1 46:1 50:1 72:1 96:1 111:1 122:1 135:1 155:1 170:1 182:1 197:1 210:1 232:1 320:1 415:1 474:1 519:1 571:1 650:1 710:1 757:1 818:1 
0.78858979581626076 1:1 6:1 12:1 16:1 19:1 22:1 27:1 31:1 34:1 38:1 41:1 47:1 50:1 72:1 96:1 111:1 122:1 135:1 155:1 170:1 182:1 197:1 211:1 232:1 320:1 415:1 474:1 519:1 571:1 650:1 710:1 757:1 819:1 
-0.39310599563521503 1:1 6:1 12:1 16:1 19:1 22:1 27:1 31:1 34:1 38:1 42:1 47:1 50:1 72:1 96:1 111:1 122:1 135:1 155:1 170:1 182:1 198:1 215:1 232:1 320:1 415:1 474:1 519:1 571:1 650:1 710:1 758:1 823:1 
1 1:1 6:1 12:1 16:1 19:1 22:1 27:1 31:1 34:1 39:1 41:1 45:1 50:1 72:1 96:1 111:1 122:1 135:1 155:1 170:1 183:1 201:1 209:1 232:1 320:1 415:1 474:1 519:1 571:1 650:1 711:1 761:1 833:1 
-0.93809025559141024 1:1 6:1 12:1 16:1 19:1 22:1 27:1 31:1 34:1 39:1 42:1 46:1 50:1 72:1 96:1 111:1 122:1 135:1 155:1 170:1 183:1 202:1 214:1 232:1 320:1 415:1 474:1 519:1 571:1 650:1 711:1 762:1 838:1 
-1 1:1 6:1 12:1 16:1 19:1 22:1 27:1 31:1 34:1 39:1 42:1 47:1 50:1 72:1 96:1 111:1 122:1 135:1 155:1 170:1 183:1 202:1 215:1 232:1 320:1 415:1 474:1 519:1 571:1 650:1 711:1 762:1 839:1 
-1 1:1 6:1 12:1 16:1 19:1 22:1 27:1 31:1 34:1 39:1 43:1 45:1 50:1 72:1 96:1 111:1 122:1 135:1 155:1 170:1 183:1 203:1 217:1 232:1 320:1 415:1 474:1 519:1 571:1 650:1 711:1 763:1 841:1 
-1 1:1 6:1 12:1 16:1 19:1 22:1 27:1 31:1 34:1 40:1 43:1 46:1 50:1 72:1 96:1 111:1 122:1 135:1 155:1 170:1 184:1 207:1 218:1 232:1 320:1 415:1 474:1 519:1 571:1 650:1 712:1 767:1 858:1 
0.72979631645144483 1:1 6:1 12:1 16:1 19:1 22:1 27:1 31:1 34:1 40:1 43:1 47:1 50:1 72:1 96:1 111:1 122:1 135:1 155:1 170:1 184:1 207:1 219:1 232:1 320:1 415:1 474:1 519:1 571:1 650:1 712:1 767:1 859:1 
1 1:1 6:1 12:1 16:1 19:1 22:1 27:1 31:1 34:1 40:1 44:1 45:1 50:1 72:1 96:1 111:1 122:1 135:1 155:1 170:1 184:1 208:1 221:1 232:1 320:1 415:1 474:1 519:1 571:1 650:1 712:1 768:1 861:1 
1 1:1 6:1 12:1 16:1 19:1 22:1 27:1 31:1 34:1 40:1 44:1 47:1 50:1 72:1 96:1 111:1 122:1 135:1 155:1 170:1 184:1 208:1 223:1 232:1 320:1 415:1 474:1 519:1 571:1 650:1 712:1 768:1 863:1 
-0.54712495652418069 1:1 6:1 12:1 16:1 19:1 22:1 27:1 31:1 34:1 40:1 44:1 48:1 50:1 72:1 96:1 111:1 122:1 135:1 155:1 170:1 184:1 208:1 224:1 232:1 320:1 415:1 474:1 519:1 571:1 650:1 712:1 768:1 864:1 
0.08626008593034086 1:1 7:1 9:1 16:1 19:1 22:1 27:1 31:1 34:1 40:1 41:1 45:1 51:1 73:1 84:1 111:1 122:1 135:1 155:1 170:1 184:1 205:1 209:1 233:1 324:1 367:1 474:1 519:1 571:1 650:1 712:1 765:1 849:1 
1 1:1 7:1 9:1 16:1 19:1 22:1 27:1 31:1 34:1 40:1 41:1 46:1 51:1 73:1 84:1 111:1 122:1 135:1 155:1 170:1 184:1 205:1 210:1 233:1 324:1 367:1 474:1 519:1 571:1 650:1 712:1 765:1 850:1 
0.63499254418515316 1:1 7:1 9:1 16:1 19:1 22:1 27:1 31:1 34:1 40:1 41:1 48:1 51:1 73:1 84:1 111:1 122:1 135:1 155:1 170:1 184:1 205:1 212:1 233:1 324:1 367:1 474:1 519:1 571:1 650:1 712:1 765:1 852:1 
-1 1:1 7:1 9:1 16:1 19:1 22:1 27:1 31:1 34:1 40:1 43:1 46:1 51:1 73:1 84:1 111:1 122:1 135:1 155:1 170:1 184:1 207:1 218:1 233:1 324:1 367:1 474:1 519:1 571:1 650:1 712:1 767:1 858:1 
-1 1:1 7:1 9:1 16:1 19:1 22:1 27:1 31:1 34:1 40:1 43:1 47:1 51:1 73:1 84:1 111:1 122:1 135:1 155:1 170:1 184:1 207:1 219:1 233:1 324:1 367:1 474:1 519:1 571:1 650:1 712:1 767:1 859:1 
-1 1:1 7:1 9:1 16:1 19:1 22:1 27:1 31:1 34:1 40:1 44:1 46:1 51:1 73:1 84:1 111:1 122:1 135:1 155:1 170:1 184:1 208:1 222:1 233:1 324:1 367:1 474:1 519:1 571:1 650:1 712:1 768:1 862:1 
-0.19071976780328823 1:1 7:1 9:1 16:1 19:1 22:1 27:1 31:1 34:1 40:1 44:1 47:1 51:1 73:1 84:1 111:1 122:1 135:1 155:1 170:1 184:1 208:1 223:1 233:1 324:1 367:1 474:1 519:1 571:1 650:1 712:1 768:1 863:1 
1 1:1 7:1 10:1 16:1 19:1 22:1 27:1 31:1 34:1 37:1 42:1 45:1 51:1 74:1 88:1 111:1 122:1 135:1 155:1 170:1 181:1 194:1 213:1 234:1 328:1 383:1 474:1 519:1 571:1 650:1 709:1 754:1 805:1 
-1 1:1 7:1 10:1 16:1 19:1 22:1 27:1 31:1 34:1 37:1 42:1 47:1 51:1 74:1 88:1 111:1 122:1 135:1 155:1 170:1 181:1 194:1 215:1 234:1 328:1 383:1 474:1 519:1 571:1 650:1 709:1 754:1 807:1 
-1 1:1 7:1 10:1 16:1 19:1 22:1 27:1 31:1 34:1 37:1 43:1 47:1 51:1 74:1 88:1 111:1 122:1 135:1 155:1 170:1 181:1 195:1 219:1 234:1 328:1 383:1 474:1 519:1 571:1 650:1 709:1 755:1 811:1 
1 1:1 7:1 10:1 16:1 19:1 22:1 27:1 31:1 34:1 37:1 43:1 48:1 51:1 74:1 88:1 111:1 122:1 135:1 155:1 170:1 181:1 195:1 220:1 234:1 328:1 383:1 474:1 519:1 571:1 650:1 709:1 755:1 812:1 
0.068737784992248738 1:1 7:1 10:1 16:1 19:1 22:1 27:1 31:1 34:1 37:1 44:1 46:1 51:1 74:1 88:1 111:1 122:1 135:1 155:1 170:1 181:1 196:1 222:1 234:1 328:1 383:1 474:1 519:1 571:1 650:1 709:1 756:1 814:1 
0.037282808036986123 1:1 7:1 10:1 16:1 19:1 22:1 27:1 31:1 34:1 38:1 41:1 47:1 51:1 74:1 88:1 111:1 122:1 135:1 155:1 170:1 182:1 197:1 211:1 234:1 328:1 383:1 474:1 519:1 571:1 650:1 710:1 757:1 819:1 
-0.50003570452643953 1:1 7:1 10:1 16:1 19:1 22:1 27:1 31:1 34:1 38:1 42:1 45:1 51:1 74:1 88:1 111:1 122:1 135:1 155:1 170:1 182:1 198:1 213:1 234:1 328:1 383:1 474:1 519:1 571:1 650:1 710:1 758:1 821:1 
1 1:1 7:1 10:1 16:1 19:1 22:1 27:1 31:1 34:1 38:1 42:1 47:1 51:1 74:1 88:1 111:1 122:1 135:1 155:1 170:1 182:1 198:1 215:1 234:1 328:1 383:1 474:1 519:1 571:1 650:1 710:1 758:1 823:1 
1 1:1 7:1 10:1 16:1 19:1 22:1 27:1 31:1 34:1 38:1 42:1 48:1 51:1 74:1 88:1 111:1 122:1 135:1 155:1 170:1 182:1 198:1 216:1 234:1 328:1 383:1 474:1 519:1 571:1 650:1 710:1 758:1 824:1 
-1 1:1 7:1 10:1 16:1 19:1 22:1 27:1 31:1 34:1 38:1 43:1 45:1 51:1 74:1 88:1 111:1 122:1 135:1 155:1 170:1 182:1 199:1 217:1 234:1 328:1 383:1 474:1 519:1 571:1 650:1 710:1 759:1 825:1 
0.15421136621666506 1:1 7:1 10:1 16:1 19:1 22:1 27:1 31:1 34:1 38:1 43:1 46:1 51:1 74:1 88:1 111:1 122:1 135:1 155:1 170:1 182:1 199:1 218:1 234:1 328:1 383:1 474:1 519:1 571:1 650:1 710:1 759:1 826:1 
1 1:1 7:1 10:1 16:1 19:1 22:1 27:1 31:1 34:1 38:1 43:1 47:1 51:1 74:1 88:1 111:1 122:1 135:1 155:1 170:1 182:1 199:1 219:1 234:1 328:1 383:1 474:1 519:1 571:1 650:1 710:1 759:1 827:1 
1 1:1 7:1 10:1 16:1 19:1 22:1 27:1 31:1 34:1 39:1 41:1 45:1 51:1 74:1 88:1 111:1 122:1 135:1 155:1 170:1 183:1 201:1 209:1 234:1 328:1 383:1 474:1 519:1 571:1 650:1 711:1 761:1 833:1 
-1 1:1 7:1 10:1 16:1 19:1 22:1 27:1 31:1 34:1 39:1 41:1 47:1 51:1 74:1 88:1 111:1 122:1 135:1 155:1 170:1 183:1 201:1 211:1 234:1 328:1 383:1 474:1 519:1 571:1 650:1 711:1 761:1 835:1 
1 1:1 7:1 10:1 16:1 19:1 22:1 27:1 31:1 34:1 39:1 42:1 47:1 51:1 74:1 88:1 111:1 122:1 135:1 155:1 170:1 183:1 202:1 215:1 234:1 328:1 383:1 474:1 519:1 571:1 650:1 711:1 762:1 839:1 
-0.36987678268109636 1:1 7:1 10:1 16:1 19:1 22:1 27:1 31:1 34:1 39:1 43:1 45:1 51:1 74:1 88:1 111:1 122:1 135:1 155:1 170:1 183:1 203:1 217:1 234:1 328:1 383:1 474:1 519:1 571:1 650:1 711:1 763:1 841:1 
1 1:1 7:1 10:1 16:1 19:1 22:1 27:1 31:1 34:1 39:1 43:1 46:1 51:1 74:1 88:1 111:1 122:1 135:1 155:1 170:1 183:1 203:1 218:1 234:1 328:1 383:1 474:1 519:1 571:1 650:1 711:1 763:1 842:1 
-1 1:1 7:1 10:1 16:1 19:1 22:1 27:1 31:1 34:1 39:1 43:1 47:1 51:1 74:1 88:1 111:1 122:1 135:1 155:1 170:1 183:1 203:1 219:1 234:1 328:1 383:1 474:1 519:1 571:1 650:1 711:1 763:1 843:1 
-1 1:1 7:1 10:1 16:1 19:1 22:1 27:1 31:1 34:1 39:1 43:1 48:1 51:1 74:1 88:1 111:1 122:1 135:1 155:1 170:1 183:1 203:1 220:1 234:1 328:1 383:1 474:1 519:1 571:1 650:1 711:1 763:1 844:1 
-1 1:1 7:1 10:1 16:1 19:1 22:1 27:1 31:1 34:1 39:1 44:1 47:1 51:1 74:1 88:1 111:1 122:1 135:1 155:1 170:1 183:1 204:1 223:1 234:1 328:1 383:1 474:1 519:1 571:1 650:1 711:1 764:1 847:1 
-0.13634739979751889 1:1 7:1 10:1 16:1 19:1 22:1 27:1 31:1 34:1 39:1 44:1 48:1 51:1 74:1 88:1 111:1 122:1 135:1 155:1 170:1 183:1 204:1 224:1 234:1 328:1 383:1 474:1 519:1 571:1 650:1 711:1 764:1 848:1 
-1 1:1 7:1 10:1 16:1 19:1 22:1 27:1 31:1 34:1 40:1 42:1 45:1 51:1 74:1 88:1 111:1 122:1 135:1 155:1 170:1 184:1 206:1 213:1 234:1 328:1 383:1 474:1 519:1 571:1 650:1 712:1 766:1 853:1 
-1 1:1 7:1 10:1 16:1 19:1 22:1 27:1 31:1 34:1 40:1 42:1 46:1 51:1 74:1 88:1 111:1 122:1 135:1 155:1 170:1 184:1 206:1 214:1 234:1 328:1 383:1 474:1 519:1 571:1 650:1 712:1 766:1 854:1 
1 1:1 7:1 10:1 16:1 19:1 22:1 27:1 31:1 34:1 40:1 42:1 47:1 51:1 74:1 88:1 111:1 122:1 135:1 155:1 170:1 184:1 206:1 215:1 234:1 328:1 383:1 474:1 519:1 571:1 650:1 712:1 766:1 855:1 
-1 1:1 7:1 10:1 16:1 19:1 22:1 27:1 31:1 34:1 40:1 42:1 48:1 51:1 74:1 88:1 111:1 122:1 135:1 155:1 170:1 184:1 206:1 216:1 234:1 328:1 383:1 474:1 519:1 571:1 650:1 712:1 766:1 856:1 
1 1:1 7:1 10:1 16:1 19:1 22:1 27:1 31:1 34:1 40:1 43:1 45:1 51:1 74:1 88:1 111:1 122:1 135:1 155:1 170:1 184:1 207:1 217:1 234:1 328:1 383:1 474:1 519:1 571:1 650:1 712:1 767:1 857:1 
1 1:1 7:1 10:1 16:1 19:1 22:1 27:1 31:1 34:1 40:1 43:1 46:1 51:1 74:1 88:1 111:1 122:1 135:1 155:1 170:1 184:1 207:1 218:1 234:1 328:1 383:1 474:1 519:1 571:1 650:1 712:1 767:1 858:1 
1 1:1 7:1 10:1 16:1 19:1 22:1 27:1 31:1 34:1 40:1 43:1 47:1 51:1 74:1 88:1 111:1 122:1 135:1 155:1 170:1 184:1 207:1 219:1 234:1 328:1 383:1 474:1 519:1 571:1 650:1 712:1 767:1 859:1 
-1 1:1 7:1 10:1 16:1 19:1 22:1 27:1 31:1 34:1 40:1 43:1 48:1 51:1 74:1 88:1 111:1 122:1 135:1 155:1 170:1 184:1 207:1 220:1 234:1 328:1 383:1 474:1 519:1 571:1 650:1 712:1 767:1 860:1 
-1 1:1 7:1 10:1 16:1 19:1 22:1 27:1 31:1 34:1 40:1 44:1 45:1 51:1 74:1 88:1 111:1 122:1 135:1 155:1 170:1 184:1 208:1 221:1 234:1 328:1 383:1 474:1 519:1 571:1 650:1 712:1 768:1 861:1 
0.12443975658949501 1:1 7:1 10:1 16:1 19:1 22:1 27:1 31:1 34:1 40:1 44:1 46:1 51:1 74:1 88:1 111:1 122:1 135:1 155:1 170:1 184:1 208:1 222:1 234:1 328:1 383:1 474:1 519:1 571:1 650:1 712:1 768:1 862:1 
0.37156504970103871 1:1 7:1 10:1 16:1 19:1 22:1 27:1 31:1 34:1 40:1 44:1 47:1 51:1 74:1 88:1 111:1 122:1 135:1 155:1 170:1 184:1 208:1 223:1 234:1 328:1 383:1 474:1 519:1 571:1 650:1 712:1 768:1 863:1 
1 1:1 7:1 10:1 16:1 19:1 22:1 27:1 31:1 34:1 40:1 44:1 48:1 51:1 74:1 88:1 111:1 122:1 135:1 155:1 170:1 184:1 208:1 224:1 234:1 328:1 383:1 474:1 519:1 571:1 650:1 712:1 768:1 864:1 
1 1:1 7:1 12:1 16:1 19:1 22:1 27:1 31:1 34:1 37:1 41:1 47:1 51:1 76:1 96:1 111:1 122:1 135:1 155:1 170:1 181:1 193:1 211:1 236:1 336:1 415:1 474:1 519:1 571:1 650:1 709:1 753:1 803:1 
1 1:1 7:1 12:1 16:1 19:1 22:1 27:1 31:1 34:1 38:1 41:1 46:1 51:1 76:1 96:1 111:1 122:1 135:1 155:1 170:1 182:1 197:1 210:1 236:1 336:1 415:1 474:1 519:1 571:1 650:1 710:1 757:1 818:1 
-1 1:1 7:1 12:1 16:1 19:1 22:1 27:1 31:1 34:1 38:1 42:1 45:1 51:1 76:1 96:1 111:1 122:1 135:1 155:1 170:1 182:1 198:1 213:1 236:1 336:1 415:1 474:1 519:1 571:1 650:1 710:1 758:1 821:1 
-1 1:1 7:1 12:1 16:1 19:1 22:1 27:1 31:1 34:1 38:1 42:1 46:1 51:1 76:1 96:1 111:1 122:1 135:1 155:1 170:1 182:1 198:1 214:1 236:1 336:1 415:1 474:1 519:1 571:1 650:1 710:1 758:1 822:1 
1 1:1 7:1 12:1 16:1 19:1 22:1 27:1 31:1 34:1 38:1 43:1 46:1 51:1 76:1 96:1 111:1 122:1 135:1 155:1 170:1 182:1 199:1 218:1 236:1 336:1 415:1 474:1 519:1 571:1 650:1 710:1 759:1 826:1 
1 1:1 7:1 12:1 16:1 19:1 22:1 27:1 31:1 34:1 38:1 43:1 47:1 51:1 76:1 96:1 111:1 122:1 135:1 155:1 170:1 182:1 199:1 219:1 236:1 336:1 415:1 474:1 519:1 571:1 650:1 710:1 759:1 827:1 
1 1:1 7:1 12:1 16:1 19:1 22:1 27:1 31:1 34:1 38:1 43:1 48:1 51:1 76:1 96:1 111:1 122:1 135:1 155:1 170:1 182:1 199:1 220:1 236:1 336:1 415:1 474:1 519:1 571:1 650:1 710:1 759:1 828:1 
0.94097005022690172 1:1 7:1 12:1 16:1 19:1 22:1 27:1 31:1 34:1 38:1 44:1 47:1 51:1 76:1 96:1 111:1 122:1 135:1 155:1 170:1 182:1 200:1 223:1 236:1 336:1 415:1 474:1 519:1 571:1 650:1 710:1 760:1 831:1 
-1 1:1 7:1 12:1 16:1 19:1 22:1 27:1 31:1 34:1 38:1 44:1 48:1 51:1 76:1 96:1 111:1 122:1 135:1 155:1 170:1 182:1 200:1 224:1 236:1 336:1 415:1 474:1 519:1 571:1 650:1 710:1 760:1 832:1 
-1 1:1 7:1 12:1 16:1 19:1 22:1 27:1 31:1 34:1 39:1 43:1 46:1 51:1 76:1 96:1 111:1 122:1 135:1 155:1 170:1 183:1 203:1 218:1 236:1 336:1 415:1 474:1 519:1 571:1 650:1 711:1 763:1 842:1 
1 1:1 7:1 12:1 16:1 19:1 22:1 27:1 31:1 34:1 39:1 43:1 48:1 51:1 76:1 96:1 111:1 122:1 135:1 155:1 170:1 183:1 203:1 220:1 236:1 336:1 415:1 474:1 519:1 571:1 650:1 711:1 763:1 844:1 
1 1:1 7:1 12:1 16:1 19:1 22:1 27:1 31:1 34:1 40:1 42:1 48:1 51:1 76:1 96:1 111:1 122:1 135:1 155:1 170:1 184:1 206:1 216:1 236:1 336:1 415:1 474:1 519:1 571:1 650:1 712:1 766:1 856:1 
-1 1:1 7:1 12:1 16:1 19:1 22:1 27:1 31:1 34:1 40:1 43:1 46:1 51:1 76:1 96:1 111:1 122:1 135:1 155:1 170:1 184:1 207:1 218:1 236:1 336:1 415:1 474:1 519:1 571:1 650:1 712:1 767:1 858:1 
-1 1:1 7:1 12:1 16:1 19:1 22:1 27:1 31:1 34:1 40:1 44:1 45:1 51:1 76:1 96:1 111:1 122:1 135:1 155:1 170:1 184:1 208:1 221:1 236:1 336:1 415:1 474:1 519:1 571:1 650:1 712:1 768:1 861:1 
0.26683478640670893 1:1 7:1 12:1 16:1 19:1 22:1 27:1 31:1 34:1 40:1 44:1 46:1 51:1 76:1 96:1 111:1 122:1 135:1 155:1 170:1 184:1 208:1 222:1 236:1 336:1 415:1 474:1 519:1 571:1 650:1 712:1 768:1 862:1 
-1 1:1 7:1 12:1 16:1 19:1 22:1 27:1 31:1 34:1 40:1 44:1 47:1 51:1 76:1 96:1 111:1 122:1 135:1 155:1 170:1 184:1 208:1 223:1 236:1 336:1 415:1 474:1 519:1 571:1 650:1 712:1 768:1 863:1 
1 1:1 8:1 10:1 16:1 19:1 22:1 27:1 31:1 34:1 37:1 42:1 45:1 52:1 78:1 88:1 111:1 122:1 135:1 155:1 170:1 181:1 194:1 213:1 238:1 344:1 383:1 474:1 519:1 571:1 650:1 709:1 754:1 805:1 
1 1:1 8:1 10:1 16:1 19:1 22:1 27:1 31:1 34:1 37:1 44:1 46:1 52:1 78:1 88:1 111:1 122:1 135:1 155:1 170:1 181:1 196:1 222:1 238:1 344:1 383:1 474:1 519:1 571:1 650:1 709:1 756:1 814:1 
1 1:1 8:1 10:1 16:1 19:1 22:1 27:1 31:1 34:1 37:1 44:1 47:1 52:1 78:1 88:1 111:1 122:1 135:1 155:1 170:1 181:1 196:1 223:1 238:1 344:1 383:1 474:1 519:1 571:1 650:1 709:1 756:1 815:1 
1 1:1 8:1 10:1 16:1 19:1 22:1 27:1 31:1 34:1 38:1 43:1 45:1 52:1 78:1 88:1 111:1 122:1 135:1 155:1 170:1 182:1 199:1 217:1 238:1 344:1 383:1 474:1 519:1 571:1 650:1 710:1 759:1 825:1 
-1 1:1 8:1 10:1 16:1 19:1 22:1 27:1 31:1 34:1 38:1 43:1 46:1 52:1 78:1 88:1 111:1 122:1 135:1 155:1 170:1 182:1 199:1 218:1 238:1 344:1 383:1 474:1 519:1 571:1 650:1 710:1 759:1 826:1 
-1 1:1 8:1 10:1 16:1 19:1 22:1 27:1 31:1 34:1 38:1 43:1 47:1 52:1 78:1 88:1 111:1 122:1 135:1 155:1 170:1 182:1 199:1 219:1 238:1 344:1 383:1 474:1 519:1 571:1 650:1 710:1 759:1 827:1 
1 1:1 8:1 10:1 16:1 19:1 22:1 27:1 31:1 34:1 38:1 44:1 46:1 52:1 78:1 88:1 111:1 122:1 135:1 155:1 170:1 182:1 200:1 222:1 238:1 344:1 383:1 474:1 519:1 571:1 650:1 710:1 760:1 830:1 
-1 1:1 8:1 10:1 16:1 19:1 22:1 27:1 31:1 34:1 39:1 41:1 47:1 52:1 78:1 88:1 111:1 122:1 135:1 155:1 170:1 183:1 201:1 211:1 238:1 344:1 383:1 474:1 519:1 571:1 650:1 711:1 761:1 835:1 
1 1:1 8:1 10:1 16:1 19:1 22:1 27:1 31:1 34:1 39:1 43:1 46:1 52:1 78:1 88:1 111:1 122:1 135:1 155:1 170:1 183:1 203:1 218:1 238:1 344:1 383:1 474:1 519:1 571:1 650:1 711:1 763:1 842:1 
1 1:1 8:1 10:1 16:1 19:1 22:1 27:1 31:1 34:1 40:1 41:1 47:1 52:1 78:1 88:1 111:1 122:1 135:1 155:1 170:1 184:1 205:1 211:1 238:1 344:1 383:1 474:1 519:1 571:1 650:1 712:1 765:1 851:1 
-1 1:1 8:1 10:1 16:1 19:1 22:1 27:1 31:1 34:1 40:1 42:1 46:1 52:1 78:1 88:1 111:1 122:1 135:1 155:1 170:1 184:1 206:1 214:1 238:1 344:1 383:1 474:1 519:1 571:1 650:1 712:1 766:1 854:1 
-1 1:1 8:1 10:1 16:1 19:1 22:1 27:1 31:1 34:1 40:1 42:1 48:1 52:1 78:1 88:1 111:1 122:1 135:1 155:1 170:1 184:1 206:1 216:1 238:1 344:1 383:1 474:1 519:1 571:1 650:1 712:1 766:1 856:1 
-1 1:1 8:1 10:1 16:1 19:1 22:1 27:1 31:1 34:1 40:1 44:1 46:1 52:1 78:1 88:1 111:1 122:1 135:1 155:1 170:1 184:1 208:1 222:1 238:1 344:1 383:1 474:1 519:1 571:1 650:1 712:1 768:1 862:1 
1 1:1 8:1 12:1 16:1 19:1 22:1 27:1 31:1 34:1 37:1 43:1 45:1 52:1 80:1 96:1 111:1 122:1 135:1 155:1 170:1 181:1 195:1 217:1 240:1 352:1 415:1 474:1 519:1 571:1 650:1 709:1 755:1 809:1 
-1 1:1 8:1 12:1 16:1 19:1 22:1 27:1 31:1 34:1 37:1 43:1 47:1 52:1 80:1 96:1 111:1 122:1 135:1 155:1 170:1 181:1 195:1 219:1 240:1 352:1 415:1 474:1 519:1 571:1 650:1 709:1 755:1 811:1 
-1 1:1 8:1 12:1 16:1 19:1 22:1 27:1 31:1 34:1 37:1 44:1 47:1 52:1 80:1 96:1 111:1 122:1 135:1 155:1 170:1 181:1 196:1 223:1 240:1 352:1 415:1 474:1 519:1 571:1 650:1 709:1 756:1 815:1 
-1 1:1 8:1 12:1 16:1 19:1 22:1 27:1 31:1 34:1 38:1 41:1 48:1 52:1 80:1 96:1 111:1 122:1 135:1 155:1 170:1 182:1 197:1 212:1 240:1 352:1 415:1 474:1 519:1 571:1 650:1 710:1 757:1 820:1 
1 1:1 8:1 12:1 16:1 19:1 22:1 27:1 31:1 34:1 38:1 43:1 45:1 52:1 80:1 96:1 111:1 122:1 135:1 155:1 170:1 182:1 199:1 217:1 240:1 352:1 415:1 474:1 519:1 571:1 650:1 710:1 759:1 825:1 
0.29129965968564175 1:1 8:1 12:1 16:1 19:1 22:1 27:1 31:1 34:1 38:1 44:1 46:1 52:1 80:1 96:1 111:1 122:1 135:1 155:1 170:1 182:1 200:1 222:1 240:1 352:1 415:1 474:1 519:1 571:1 650:1 710:1 760:1 830:1 
1 1:1 8:1 12:1 16:1 19:1 22:1 27:1 31:1 34:1 39:1 42:1 47:1 52:1 80:1 96:1 111:1 122:1 135:1 155:1 170:1 183:1 202:1 215:1 240:1 352:1 415:1 474:1 519:1 571:1 650:1 711:1 762:1 839:1 
-1 1:1 8:1 12:1 16:1 19:1 22:1 27:1 31:1 34:1 39:1 42:1 48:1 52:1 80:1 96:1 111:1 122:1 135:1 155:1 170:1 183:1 202:1 216:1 240:1 352:1 415:1 474:1 519:1 571:1 650:1 711:1 762:1 840:1 
-1 1:1 8:1 12:1 16:1 19:1 22:1 27:1 31:1 34:1 39:1 44:1 48:1 52:1 80:1 96:1 111:1 122:1 135:1 155:1 170:1 183:1 204:1 224:1 240:1 352:1 415:1 474:1 519:1 571:1 650:1 711:1 764:1 848:1 
1 1:1 8:1 12:1 16:1 19:1 22:1 27:1 31:1 34:1 40:1 42:1 46:1 52:1 80:1 96:1 111:1 122:1 135:1 155:1 170:1 184:1 206:1 214:1 240:1 352:1 415:1 474:1 519:1 571:1 650:1 712:1 766:1 854:1 
-1 1:1 8:1 12:1 16:1 19:1 22:1 27:1 31:1 34:1 40:1 44:1 48:1 52:1 80:1 96:1 111:1 122:1 135:1 155:1 170:1 184:1 208:1 224:1 240:1 352:1 415:1 474:1 519:1 571:1 650:1 712:1 768:1 864:1 
-0.37007472445277712 2:1 5:1 9:1 16:1 19:1 22:1 27:1 31:1 34:1 40:1 41:1 47:1 53:1 65:1 84:1 111:1 122:1 135:1 155:1 170:1 184:1 205:1 211:1 241:1 292:1 367:1 474:1 519:1 571:1 650:1 712:1 765:1 851:1 
1 2:1 5:1 9:1 16:1 19:1 22:1 27:1 31:1 34:1 40:1 41:1 48:1 53:1 65:1 84:1 111:1 122:1 135:1 155:1 170:1 184:1 205:1 212:1 241:1 292:1 367:1 474:1 519:1 571:1 650:1 712:1 765:1 852:1 
-1 2:1 5:1 9:1 16:1 19:1 22:1 27:1 31:1 34:1 40:1 43:1 48:1 53:1 65:1 84:1 111:1 122:1 135:1 155:1 170:1 184:1 207:1 220:1 241:1 292:1 367:1 474:1 519:1 571:1 650:1 712:1 767:1 860:1 
1 2:1 5:1 10:1 14:1 19:1 22:1 27:1 31:1 34:1 40:1 41:1 46:1 53:1 66:1 86:1 103:1 122:1 135:1 155:1 170:1 184:1 205:1 210:1 242:1 294:1 375:1 442:1 519:1 571:1 650:1 712:1 765:1 850:1 
-0.11991043229575279 2:1 5:1 10:1 14:1 19:1 22:1 27:1 31:1 34:1 40:1 43:1 48:1 53:1 66:1 86:1 103:1 122:1 135:1 155:1 170:1 184:1 207:1 220:1 242:1 294:1 375:1 442:1 519:1 571:1 650:1 712:1 767:1 860:1 
0.12266488187659566 2:1 5:1 10:1 14:1 19:1 22:1 27:1 31:1 34:1 40:1 44:1 45:1 53:1 66:1 86:1 103:1 122:1 135:1 155:1 170:1 184:1 208:1 221:1 242:1 294:1 375:1 442:1 519:1 571:1 650:1 712:1 768:1 861:1 
-1 2:1 5:1 10:1 14:1 19:1 22:1 27:1 31:1 34:1 40:1 44:1 46:1 53:1 66:1 86:1 103:1 122:1 135:1 155:1 170:1 184:1 208:1 222:1 242:1 294:1 375:1 442:1 519:1 571:1 650:1 712:1 768:1 862:1 
-1 2:1 5:1 10:1 14:1 19:1 22:1 27:1 31:1 34:1 40:1 44:1 47:1 53:1 66:1 86:1 103:1 122:1 135:1 155:1 170:1 184:1 208:1 223:1 242:1 294:1 375:1 442:1 519:1 571:1 650:1 712:1 768:1 863:1 
1 2:1 5:1 10:1 14:1 19:1 22:1 27:1 31:1 34:1 40:1 44:1 48:1 53:1 66:1 86:1 103:1 122:1 135:1 155:1 170:1 184:1 208:1 224:1 242:1 294:1 375:1 442:1 519:1 571:1 650:1 712:1 768:1 864:1 
1 2:1 5:1 10:1 16:1 19:1 22:1 27:1 31:1 34:1 37:1 41:1 45:1 53:1 66:1 88:1 111:1 122:1 135:1 155:1 170:1 181:1 193:1 209:1 242:1 296:1 383:1 474:1 519:1 571:1 650:1 709:1 753:1 801:1 
1 2:1 5:1 10:1 16:1 19:1 22:1 27:1 31:1 34:1 37:1 43:1 46:1 53:1 66:1 88:1 111:1 122:1 135:1 155:1 170:1 181:1 195:1 218:1 242:1 296:1 383:1 474:1 519:1 571:1 650:1 709:1 755:1 810:1 
-1 2:1 5:1 10:1 16:1 19:1 22:1 27:1 31:1 34:1 37:1 43:1 47:1 53:1 66:1 88:1 111:1 122:1 135:1 155:1 170:1 181:1 195:1 219:1 242:1 296:1 383:1 474:1 519:1 571:1 650:1 709:1 755:1 811:1 
-1 2:1 5:1 10:1 16:1 19:1 22:1 27:1 31:1 34:1 37:1 44:1 46:1 53:1 66:1 88:1 111:1 122:1 135:1 155:1 170:1 181:1 196:1 222:1 242:1 296:1 383:1 474:1 519:1 571:1 650:1 709:1 756:1 814:1 
-1 2:1 5:1 10:1 16:1 19:1 22:1 27:1 31:1 34:1 38:1 41:1 47:1 53:1 66:1 88:1 111:1 122:1 135:1 155:1 170:1 182:1 197:1 211:1 242:1 296:1 383:1 474:1 519:1 571:1 650:1 710:1 757:1 819:1 
-1 2:1 5:1 10:1 16:1 19:1 22:1 27:1 31:1 34:1 38:1 42:1 45:1 53:1 66:1 88:1 111:1 122:1 135:1 155:1 170:1 182:1 198:1 213:1 242:1 296:1 383:1 474:1 519:1 571:1 650:1 710:1 758:1 821:1 
-0.54108856157658713 2:1 5:1 10:1 16:1 19:1 22:1 27:1 31:1 34:1 38:1 42:1 46:1 53:1 66:1 88:1 111:1 122:1 135:1 155:1 170:1 182:1 198:1 214:1 242:1 296:1 383:1 474:1 519:1 571:1 650:1 710:1 758:1 822:1 
1 2:1 5:1 10:1 16:1 19:1 22:1 27:1 31:1 34:1 38:1 42:1 47:1 53:1 66:1 88:1 111:1 122:1 135:1 155:1 170:1 182:1 198:1 215:1 242:1 296:1 383:1 474:1 519:1 571:1 650:1 710:1 758:1 823:1 
1 2:1 5:1 10:1 16:1 19:1 22:1 27:1 31:1 34:1 38:1 43:1 46:1 53:1 66:1 88:1 111:1 122:1 135:1 155:1 170:1 182:1 199:1 218:1 242:1 296:1 383:1 474:1 519:1 571:1 650:1 710:1 759:1 826:1 
-1 2:1 5:1 10:1 16:1 19:1 22:1 27:1 31:1 34:1 38:1 43:1 47:1 53:1 66:1 88:1 111:1 122:1 135:1 155:1 170:1 182:1 199:1 219:1 242:1 296:1 383:1 474:1 519:1 571:1 650:1 710:1 759:1 827:1 
-1 2:1 5:1 10:1 16:1 19:1 22:1 27:1 31:1 34:1 38:1 44:1 46:1 53:1 66:1 88:1 111:1 122:1 135:1 155:1 170:1 182:1 200:1 222:1 242:1 296:1 383:1 474:1 519:1 571:1 650:1 710:1 760:1 830:1 
1 2:1 5:1 10:1 16:1 19:1 22:1 27:1 31:1 34:1 38:1 44:1 47:1 53:1 66:1 88:1 111:1 122:1 135:1 155:1 170:1 182:1 200:1 223:1 242:1 296:1 383:1 474:1 519:1 571:1 650:1 710:1 760:1 831:1 
-1 2:1 5:1 10:1 16:1 19:1 22:1 27:1 31:1 34:1 38:1 44:1 48:1 53:1 66:1 88:1 111:1 122:1 135:1 155:1 170:1 182:1 200:1 224:1 242:1 296:1 383:1 474:1 519:1 571:1 650:1 710:1 760:1 832:1 
1 2:1 5:1 10:1 16:1 19:1 22:1 27:1 31:1 34:1 39:1 42:1 46:1 53:1 66:1 88:1 111:1 122:1 135:1 155:1 170:1 183:1 202:1 214:1 242:1 296:1 383:1 474:1 519:1 571:1 650:1 711:1 762:1 838:1 
-1 2:1 5:1 10:1 16:1 19:1 22:1 27:1 31:1 34:1 39:1 42:1 48:1 53:1 66:1 88:1 111:1 122:1 135:1 155:1 170:1 183:1 202:1 216:1 242:1 296:1 383:1 474:1 519:1 571:1 650:1 711:1 762:1 840:1 
1 2:1 5:1 10:1 16:1 19:1 22:1 27:1 31:1 34:1 39:1 43:1 45:1 53:1 66:1 88:1 111:1 122:1 135:1 155:1 170:1 183:1 203:1 217:1 242:1 296:1 383:1 474:1 519:1 571:1 650:1 711:1 763:1 841:1 
1 2:1 5:1 10:1 16:1 19:1 22:1 27:1 31:1 34:1 39:1 43:1 46:1 53:1 66:1 88:1 111:1 122:1 135:1 155:1 170:1 183:1 203:1 218:1 242:1 296:1 383:1 474:1 519:1 571:1 650:1 711:1 763:1 842:1 
1 2:1 5:1 10:1 16:1 19:1 22:1 27:1 31:1 34:1 39:1 44:1 48:1 53:1 66:1 88:1 111:1 122:1 135:1 155:1 170:1 183:1 204:1 224:1 242:1 296:1 383:1 474:1 519:1 571:1 650:1 711:1 764:1 848:1 
-1 2:1 5:1 10:1 16:1 19:1 22:1 27:1 31:1 34:1 40:1 42:1 45:1 53:1 66:1 88:1 111:1 122:1 135:1 155:1 170:1 184:1 206:1 213:1 242:1 296:1 383:1 474:1 519:1 571:1 650:1 712:1 766:1 853:1 
-1 2:1 5:1 10:1 16:1 19:1 22:1 27:1 31:1 34:1 40:1 42:1 46:1 53:1 66:1 88:1 111:1 122:1 135:1 155:1 170:1 184:1 206:1 214:1 242:1 296:1 383:1 474:1 519:1 571:1 650:1 712:1 766:1 854:1 
-1 2:1 5:1 10:1 16:1 19:1 22:1 27:1 31:1 34:1 40:1 42:1 48:1 53:1 66:1 88:1 111:1 122:1 135:1 155:1 170:1 184:1 206:1 216:1 242:1 296:1 383:1 474:1 519:1 571:1 650:1 712:1 766:1 856:1 
1 2:1 5:1 10:1 16:1 19:1 22:1 27:1 31:1 34:1 40:1 43:1 46:1 53:1 66:1 88:1 111:1 122:1 135:1 155:1 170:1 184:1 207:1 218:1 242:1 296:1 383:1 474:1 519:1 571:1 650:1 712:1 767:1 858:1 
1 2:1 5:1 10:1 16:1 19:1 22:1 27:1 31:1 34:1 40:1 44:1 46:1 53:1 66:1 88:1 111:1 122:1 135:1 155:1 170:1 184:1 208:1 222:1 242:1 296:1 383:1 474:1 519:1 571:1 650:1 712:1 768:1 862:1 
-1 2:1 5:1 10:1 16:1 19:1 22:1 27:1 31:1 34:1 40:1 44:1 48:1 53:1 66:1 88:1 111:1 122:1 135:1 155:1 170:1 184:1 208:1 224:1 242:1 296:1 383:1 474:1 519:1 571:1 650:1 712:1 768:1 864:1 
0.88322893018319226 2:1 5:1 12:1 16:1 19:1 22:1 27:1 31:1 34:1 37:1 43:1 46:1 53:1 68:1 96:1 111:1 122:1 135:1 155:1 170:1 181:1 195:1 218:1 244:1 304:1 415:1 474:1 519:1 571:1 650:1 709:1 755:1 810:1 
1 2:1 5:1 12:1 16:1 19:1 22:1 27:1 31:1 34:1 38:1 41:1 46:1 53:1 68:1 96:1 111:1 122:1 135:1 155:1 170:1 182:1 197:1 210:1 244:1 304:1 415:1 474:1 519:1 571:1 650:1 710:1 757:1 818:1 
-1 2:1 5:1 12:1 16:1 19:1 22:1 27:1 31:1 34:1 38:1 44:1 47:1 53:1 68:1 96:1 111:1 122:1 135:1 155:1 170:1 182:1 200:1 223:1 244:1 304:1 415:1 474:1 519:1 571:1 650:1 710:1 760:1 831:1 
1 2:1 5:1 12:1 16:1 19:1 22:1 27:1 31:1 34:1 40:1 42:1 46:1 53:1 68:1 96:1 111:1 122:1 135:1 155:1 170:1 184:1 206:1 214:1 244:1 304:1 415:1 474:1 519:1 571:1 650:1 712:1 766:1 854:1 
-1 2:1 5:1 12:1 16:1 19:1 22:1 27:1 31:1 34:1 40:1 42:1 48:1 53:1 68:1 96:1 111:1 122:1 135:1 155:1 170:1 184:1 206:1 216:1 244:1 304:1 415:1 474:1 519:1 571:1 650:1 712:1 766:1 856:1 
1 2:1 5:1 12:1 16:1 19:1 22:1 27:1 31:1 34:1 40:1 43:1 48:1 53:1 68:1 96:1 111:1 122:1 135:1 155:1 170:1 184:1 207:1 220:1 244:1 304:1 415:1 474:1 519:1 571:1 650:1 712:1 767:1 860:1 
-1 2:1 5:1 12:1 16:1 19:1 22:1 27:1 31:1 34:1 40:1 44:1 45:1 53:1 68:1 96:1 111:1 122:1 135:1 155:1 170:1 184:1 208:1 221:1 244:1 304:1 415:1 474:1 519:1 571:1 650:1 712:1 768:1 861:1 
1 2:1 5:1 12:1 16:1 19:1 22:1 27:1 31:1 34:1 40:1 44:1 46:1 53:1 68:1 96:1 111:1 122:1 135:1 155:1 170:1 184:1 208:1 222:1 244:1 304:1 415:1 474:1 519:1 571:1 650:1 712:1 768:1 862:1 
-1 2:1 6:1 9:1 16:1 19:1 22:1 27:1 31:1 34:1 40:1 41:1 47:1 54:1 69:1 84:1 111:1 122:1 135:1 155:1 170:1 184:1 205:1 211:1 245:1 308:1 367:1 474:1 519:1 571:1 650:1 712:1 765:1 851:1 
-1 2:1 6:1 9:1 16:1 19:1 22:1 27:1 31:1 34:1 40:1 43:1 47:1 54:1 69:1 84:1 111:1 122:1 135:1 155:1 170:1 184:1 207:1 219:1 245:1 308:1 367:1 474:1 519:1 571:1 650:1 712:1 767:1 859:1 
0.16851135406855547 2:1 6:1 9:1 16:1 19:1 22:1 27:1 31:1 34:1 40:1 44:1 46:1 54:1 69:1 84:1 111:1 122:1 135:1 155:1 170:1 184:1 208:1 222:1 245:1 308:1 367:1 474:1 519:1 571:1 650:1 712:1 768:1 862:1 
1 2:1 6:1 10:1 16:1 19:1 22:1 27:1 31:1 34:1 37:1 42:1 45:1 54:1 70:1 88:1 111:1 122:1 135:1 155:1 170:1 181:1 194:1 213:1 246:1 312:1 383:1 474:1 519:1 571:1 650:1 709:1 754:1 805:1 
-1 2:1 6:1 10:1 16:1 19:1 22:1 27:1 31:1 34:1 37:1 42:1 46:1 54:1 70:1 88:1 111:1 122:1 135:1 155:1 170:1 181:1 194:1 214:1 246:1 312:1 383:1 474:1 519:1 571:1 650:1 709:1 754:1 806:1 
1 2:1 6:1 10:1 16:1 19:1 22:1 27:1 31:1 34:1 37:1 43:1 45:1 54:1 70:1 88:1 111:1 122:1 135:1 155:1 170:1 181:1 195:1 217:1 246:1 312:1 383:1 474:1 519:1 571:1 650:1 709:1 755:1 809:1 
-0.7129801891033245 2:1 6:1 10:1 16:1 19:1 22:1 27:1 31:1 34:1 37:1 43:1 46:1 54:1 70:1 88:1 111:1 122:1 135:1 155:1 170:1 181:1 195:1 218:1 246:1 312:1 383:1 474:1 519:1 571:1 650:1 709:1 755:1 810:1 
-1 2:1 6:1 10:1 16:1 19:1 22:1 27:1 31:1 34:1 37:1 43:1 47:1 54:1 70:1 88:1 111:1 122:1 135:1 155:1 170:1 181:1 195:1 219:1 246:1 312:1 383:1 474:1 519:1 571:1 650:1 709:1 755:1 811:1 
-1 2:1 6:1 10:1 16:1 19:1 22:1 27:1 31:1 34:1 37:1 44:1 46:1 54:1 70:1 88:1 111:1 122:1 135:1 155:1 170:1 181:1 196:1 222:1 246:1 312:1 383:1 474:1 519:1 571:1 650:1 709:1 756:1 814:1 
-1 2:1 6:1 10:1 16:1 19:1 22:1 27:1 31:1 34:1 37:1 44:1 47:1 54:1 70:1 88:1 111:1 122:1 135:1 155:1 170:1 181:1 196:1 223:1 246:1 312:1 383:1 474:1 519:1 571:1 650:1 709:1 756:1 815:1 
-0.84297804092518025 2:1 6:1 10:1 16:1 19:1 22:1 27:1 31:1 34:1 38:1 41:1 46:1 54:1 70:1 88:1 111:1 122:1 135:1 155:1 170:1 182:1 197:1 210:1 246:1 312:1 383:1 474:1 519:1 571:1 650:1 710:1 757:1 818:1 
1 2:1 6:1 10:1 16:1 19:1 22:1 27:1 31:1 34:1 38:1 41:1 47:1 54:1 70:1 88:1 111:1 122:1 135:1 155:1 170:1 182:1 197:1 211:1 246:1 312:1 383:1 474:1 519:1 571:1 650:1 710:1 757:1 819:1 
-1 2:1 6:1 10:1 16:1 19:1 22:1 27:1 31:1 34:1 38:1 42:1 45:1 54:1 70:1 88:1 111:1 122:1 135:1 155:1 170:1 182:1 198:1 213:1 246:1 312:1 383:1 474:1 519:1 571:1 650:1 710:1 758:1 821:1 
-1 2:1 6:1 10:1 16:1 19:1 22:1 27:1 31:1 34:1 38:1 42:1 46:1 54:1 70:1 88:1 111:1 122:1 135:1 155:1 170:1 182:1 198:1 214:1 246:1 312:1 383:1 474:1 519:1 571:1 650:1 710:1 758:1 822:1 
-1 2:1 6:1 10:1 16:1 19:1 22:1 27:1 31:1 34:1 38:1 42:1 47:1 54:1 70:1 88:1 111:1 122:1 135:1 155:1 170:1 182:1 198:1 215:1 246:1 312:1 383:1 474:1 519:1 571:1 650:1 710:1 758:1 823:1 
1 2:1 6:1 10:1 16:1 19:1 22:1 27:1 31:1 34:1 38:1 42:1 48:1 54:1 70:1 88:1 111:1 122:1 135:1 155:1 170:1 182:1 198:1 216:1 246:1 312:1 383:1 474:1 519:1 571:1 650:1 710:1 758:1 824:1 
-0.89566273147361675 2:1 6:1 10:1 16:1 19:1 22:1 27:1 31:1 34:1 38:1 43:1 45:1 54:1 70:1 88:1 111:1 122:1 135:1 155:1 170:1 182:1 199:1 217:1 246:1 312:1 383:1 474:1 519:1 571:1 650:1 710:1 759:1 825:1 
1 2:1 6:1 10:1 16:1 19:1 22:1 27:1 31:1 34:1 38:1 43:1 46:1 54:1 70:1 88:1 111:1 122:1 135:1 155:1 170:1 182:1 199:1 218:1 246:1 312:1 383:1 474:1 519:1 571:1 650:1 710:1 759:1 826:1 
1 2:1 6:1 10:1 16:1 19:1 22:1 27:1 31:1 34:1 38:1 43:1 48:1 54:1 70:1 88:1 111:1 122:1 135:1 155:1 170:1 182:1 199:1 220:1 246:1 312:1 383:1 474:1 519:1 571:1 650:1 710:1 759:1 828:1 
1 2:1 6:1 10:1 16:1 19:1 22:1 27:1 31:1 34:1 38:1 44:1 45:1 54:1 70:1 88:1 111:1 122:1 135:1 155:1 170:1 182:1 200:1 221:1 246:1 312:1 383:1 474:1 519:1 571:1 650:1 710:1 760:1 829:1 
-1 2:1 6:1 10:1 16:1 19:1 22:1 27:1 31:1 34:1 38:1 44:1 47:1 54:1 70:1 88:1 111:1 122:1 135:1 155:1 170:1 182:1 200:1 223:1 246:1 312:1 383:1 474:1 519:1 571:1 650:1 710:1 760:1 831:1 
-0.84064143183186779 2:1 6:1 10:1 16:1 19:1 22:1 27:1 31:1 34:1 39:1 41:1 46:1 54:1 70:1 88:1 111:1 122:1 135:1 155:1 170:1 183:1 201:1 210:1 246:1 312:1 383:1 474:1 519:1 571:1 650:1 711:1 761:1 834:1 
1 2:1 6:1 10:1 16:1 19:1 22:1 27:1 31:1 34:1 39:1 42:1 46:1 54:1 70:1 88:1 111:1 122:1 135:1 155:1 170:1 183:1 202:1 214:1 246:1 312:1 383:1 474:1 519:1 571:1 650:1 711:1 762:1 838:1 
1 2:1 6:1 10:1 16:1 19:1 22:1 27:1 31:1 34:1 39:1 43:1 46:1 54:1 70:1 88:1 111:1 122:1 135:1 155:1 170:1 183:1 203:1 218:1 246:1 312:1 383:1 474:1 519:1 571:1 650:1 711:1 763:1 842:1 
1 2:1 6:1 10:1 16:1 19:1 22:1 27:1 31:1 34:1 39:1 43:1 47:1 54:1 70:1 88:1 111:1 122:1 135:1 155:1 170:1 183:1 203:1 219:1 246:1 312:1 383:1 474:1 519:1 571:1 650:1 711:1 763:1 843:1 
-1 2:1 6:1 10:1 16:1 19:1 22:1 27:1 31:1 34:1 39:1 44:1 46:1 54:1 70:1 88:1 111:1 122:1 135:1 155:1 170:1 183:1 204:1 222:1 246:1 312:1 383:1 474:1 519:1 571:1 650:1 711:1 764:1 846:1 
-1 2:1 6:1 10:1 16:1 19:1 22:1 27:1 31:1 34:1 40:1 41:1 45:1 54:1 70:1 88:1 111:1 122:1 135:1 155:1 170:1 184:1 205:1 209:1 246:1 312:1 383:1 474:1 519:1 571:1 650:1 712:1 765:1 849:1 
1 2:1 6:1 10:1 16:1 19:1 22:1 27:1 31:1 34:1 40:1 42:1 46:1 54:1 70:1 88:1 111:1 122:1 135:1 155:1 170:1 184:1 206:1 214:1 246:1 312:1 383:1 474:1 519:1 571:1 650:1 712:1 766:1 854:1 
-1 2:1 6:1 10:1 16:1 19:1 22:1 27:1 31:1 34:1 40:1 42:1 47:1 54:1 70:1 88:1 111:1 122:1 135:1 155:1 170:1 184:1 206:1 215:1 246:1 312:1 383:1 474:1 519:1 571:1 650:1 712:1 766:1 855:1 
1 2:1 6:1 10:1 16:1 19:1 22:1 27:1 31:1 34:1 40:1 42:1 48:1 54:1 70:1 88:1 111:1 122:1 135:1 155:1 170:1 184:1 206:1 216:1 246:1 312:1 383:1 474:1 519:1 571:1 650:1 712:1 766:1 856:1 
-1 2:1 6:1 10:1 16:1 19:1 22:1 27:1 31:1 34:1 40:1 43:1 46:1 54:1 70:1 88:1 111:1 122:1 135:1 155:1 170:1 184:1 207:1 218:1 246:1 312:1 383:1 474:1 519:1 571:1 650:1 712:1 767:1 858:1 
1 2:1 6:1 10:1 16:1 19:1 22:1 27:1 31:1 34:1 40:1 43:1 47:1 54:1 70:1 88:1 111:1 122:1 135:1 155:1 170:1 184:1 207:1 219:1 246:1 312:1 383:1 474:1 519:1 571:1 650:1 712:1 767:1 859:1 
-1 2:1 6:1 10:1 16:1 19:1 22:1 27:1 31:1 34:1 40:1 43:1 48:1 54:1 70:1 88:1 111:1 122:1 135:1 155:1 170:1 184:1 207:1 220:1 246:1 312:1 383:1 474:1 519:1 571:1 650:1 712:1 767:1 860:1 
1 2:1 6:1 10:1 16:1 19:1 22:1 27:1 31:1 34:1 40:1 44:1 46:1 54:1 70:1 88:1 111:1 122:1 135:1 155:1 170:1 184:1 208:1 222:1 246:1 312:1 383:1 474:1 519:1 571:1 650:1 712:1 768:1 862:1 
1 2:1 6:1 10:1 16:1 19:1 22:1 27:1 31:1 34:1 40:1 44:1 47:1 54:1 70:1 88:1 111:1 122:1 135:1 155:1 170:1 184:1 208:1 223:1 246:1 312:1 383:1 474:1 519:1 571:1 650:1 712:1 768:1 863:1 
1 2:1 6:1 10:1 16:1 19:1 22:1 27:1 31:1 34:1 40:1 44:1 48:1 54:1 70:1 88:1 111:1 122:1 135:1 155:1 170:1 184:1 208:1 224:1 246:1 312:1 383:1 474:1 519:1 571:1 650:1 712:1 768:1 864:1 
1 2:1 6:1 12:1 16:1 19:1 22:1 27:1 31:1 34:1 37:1 42:1 46:1 54:1 72:1 96:1 111:1 122:1 135:1 155:1 170:1 181:1 194:1 214:1 248:1 320:1 415:1 474:1 519:1 571:1 650:1 709:1 754:1 806:1 
1 2:1 6:1 12:1 16:1 19:1 22:1 27:1 31:1 34:1 37:1 43:1 46:1 54:1 72:1 96:1 111:1 122:1 135:1 155:1 170:1 181:1 195:1 218:1 248:1 320:1 415:1 474:1 519:1 571:1 650:1 709:1 755:1 810:1 
-1 2:1 6:1 12:1 16:1 19:1 22:1 27:1 31:1 34:1 38:1 41:1 47:1 54:1 72:1 96:1 111:1 122:1 135:1 155:1 170:1 182:1 197:1 211:1 248:1 320:1 415:1 474:1 519:1 571:1 650:1 710:1 757:1 819:1 
-1 2:1 6:1 12:1 16:1 19:1 22:1 27:1 31:1 34:1 38:1 41:1 48:1 54:1 72:1 96:1 111:1 122:1 135:1 155:1 170:1 182:1 197:1 212:1 248:1 320:1 415:1 474:1 519:1 571:1 650:1 710:1 757:1 820:1 
1 2:1 6:1 12:1 16:1 19:1 22:1 27:1 31:1 34:1 38:1 42:1 46:1 54:1 72:1 96:1 111:1 122:1 135:1 155:1 170:1 182:1 198:1 214:1 248:1 320:1 415:1 474:1 519:1 571:1 650:1 710:1 758:1 822:1 
-1 2:1 6:1 12:1 16:1 19:1 22:1 27:1 31:1 34:1 38:1 42:1 48:1 54:1 72:1 96:1 111:1 122:1 135:1 155:1 170:1 182:1 198:1 216:1 248:1 320:1 415:1 474:1 519:1 571:1 650:1 710:1 758:1 824:1 
1 2:1 6:1 12:1 16:1 19:1 22:1 27:1 31:1 34:1 38:1 44:1 46:1 54:1 72:1 96:1 111:1 122:1 135:1 155:1 170:1 182:1 200:1 222:1 248:1 320:1 415:1 474:1 519:1 571:1 650:1 710:1 760:1 830:1 
-1 2:1 6:1 12:1 16:1 19:1 22:1 27:1 31:1 34:1 38:1 44:1 47:1 54:1 72:1 96:1 111:1 122:1 135:1 155:1 170:1 182:1 200:1 223:1 248:1 320:1 415:1 474:1 519:1 571:1 650:1 710:1 760:1 831:1 
-0.22543332955979678 2:1 6:1 12:1 16:1 19:1 22:1 27:1 31:1 34:1 38:1 44:1 48:1 54:1 72:1 96:1 111:1 122:1 135:1 155:1 170:1 182:1 200:1 224:1 248:1 320:1 415:1 474:1 519:1 571:1 650:1 710:1 760:1 832:1 
1 2:1 6:1 12:1 16:1 19:1 22:1 27:1 31:1 34:1 39:1 41:1 45:1 54:1 72:1 96:1 111:1 122:1 135:1 155:1 170:1 183:1 201:1 209:1 248:1 320:1 415:1 474:1 519:1 571:1 650:1 711:1 761:1 833:1 
1 2:1 6:1 12:1 16:1 19:1 22:1 27:1 31:1 34:1 39:1 41:1 47:1 54:1 72:1 96:1 111:1 122:1 135:1 155:1 170:1 183:1 201:1 211:1 248:1 320:1 415:1 474:1 519:1 571:1 650:1 711:1 761:1 835:1 
-0.14970405828284244 2:1 6:1 12:1 16:1 19:1 22:1 27:1 31:1 34:1 39:1 44:1 48:1 54:1 72:1 96:1 111:1 122:1 135:1 155:1 170:1 183:1 204:1 224:1 248:1 320:1 415:1 474:1 519:1 571:1 650:1 711:1 764:1 848:1 
-1 2:1 6:1 12:1 16:1 19:1 22:1 27:1 31:1 34:1 40:1 41:1 46:1 54:1 72:1 96:1 111:1 122:1 135:1 155:1 170:1 184:1 205:1 210:1 248:1 320:1 415:1 474:1 519:1 571:1 650:1 712:1 765:1 850:1 
1 2:1 6:1 12:1 16:1 19:1 22:1 27:1 31:1 34:1 40:1 42:1 48:1 54:1 72:1 96:1 111:1 122:1 135:1 155:1 170:1 184:1 206:1 216:1 248:1 320:1 415:1 474:1 519:1 571:1 650:1 712:1 766:1 856:1 
-0.018709126117996355 2:1 6:1 12:1 16:1 19:1 22:1 27:1 31:1 34:1 40:1 43:1 45:1 54:1 72:1 96:1 111:1 122:1 135:1 155:1 170:1 184:1 207:1 217:1 248:1 320:1 415:1 474:1 519:1 571:1 650:1 712:1 767:1 857:1 
-1 2:1 6:1 12:1 16:1 19:1 22:1 27:1 31:1 34:1 40:1 43:1 46:1 54:1 72:1 96:1 111:1 122:1 135:1 155:1 170:1 184:1 207:1 218:1 248:1 320:1 415:1 474:1 519:1 571:1 650:1 712:1 767:1 858:1 
-1 2:1 6:1 12:1 16:1 19:1 22:1 27:1 31:1 34:1 40:1 43:1 47:1 54:1 72:1 96:1 111:1 122:1 135:1 155:1 170:1 184:1 207:1 219:1 248:1 320:1 415:1 474:1 519:1 571:1 650:1 712:1 767:1 859:1 
1 2:1 6:1 12:1 16:1 19:1 22:1 27:1 31:1 34:1 40:1 43:1 48:1 54:1 72:1 96:1 111:1 122:1 135:1 155:1 170:1 184:1 207:1 220:1 248:1 320:1 415:1 474:1 519:1 571:1 650:1 712:1 767:1 860:1 
1 2:1 6:1 12:1 16:1 19:1 22:1 27:1 31:1 34:1 40:1 44:1 47:1 54:1 72:1 96:1 111:1 122:1 135:1 155:1 170:1 184:1 208:1 223:1 248:1 320:1 415:1 474:1 519:1 571:1 650:1 712:1 768:1 863:1 
-1 2:1 6:1 12:1 16:1 19:1 22:1 27:1 31:1 34:1 40:1 44:1 48:1 54:1 72:1 96:1 111:1 122:1 135:1 155:1 170:1 184:1 208:1 224:1 248:1 320:1 415:1 474:1 519:1 571:1 650:1 712:1 768:1 864:1 
1 2:1 7:1 9:1 16:1 19:1 22:1 27:1 31:1 34:1 40:1 43:1 47:1 55:1 73:1 84:1 111:1 122:1 135:1 155:1 170:1 184:1 207:1 219:1 249:1 324:1 367:1 474:1 519:1 571:1 650:1 712:1 767:1 859:1 
1 2:1 7:1 10:1 16:1 19:1 22:1 27:1 31:1 34:1 37:1 41:1 47:1 55:1 74:1 88:1 111:1 122:1 135:1 155:1 170:1 181:1 193:1 211:1 250:1 328:1 383:1 474:1 519:1 571:1 650:1 709:1 753:1 803:1 
1 2:1 7:1 10:1 16:1 19:1 22:1 27:1 31:1 34:1 37:1 42:1 45:1 55:1 74:1 88:1 111:1 122:1 135:1 155:1 170:1 181:1 194:1 213:1 250:1 328:1 383:1 474:1 519:1 571:1 650:1 709:1 754:1 805:1 
-1 2:1 7:1 10:1 16:1 19:1 22:1 27:1 31:1 34:1 37:1 42:1 47:1 55:1 74:1 88:1 111:1 122:1 135:1 155:1 170:1 181:1 194:1 215:1 250:1 328:1 383:1 474:1 519:1 571:1 650:1 709:1 754:1 807:1 
-1 2:1 7:1 10:1 16:1 19:1 22:1 27:1 31:1 34:1 37:1 42:1 48:1 55:1 74:1 88:1 111:1 122:1 135:1 155:1 170:1 181:1 194:1 216:1 250:1 328:1 383:1 474:1 519:1 571:1 650:1 709:1 754:1 808:1 
1 2:1 7:1 10:1 16:1 19:1 22:1 27:1 31:1 34:1 37:1 43:1 45:1 55:1 74:1 88:1 111:1 122:1 135:1 155:1 170:1 181:1 195:1 217:1 250:1 328:1 383:1 474:1 519:1 571:1 650:1 709:1 755:1 809:1 
-1 2:1 7:1 10:1 16:1 19:1 22:1 27:1 31:1 34:1 37:1 43:1 46:1 55:1 74:1 88:1 111:1 122:1 135:1 155:1 170:1 181:1 195:1 218:1 250:1 328:1 383:1 474:1 519:1 571:1 650:1 709:1 755:1 810:1 
1 2:1 7:1 10:1 16:1 19:1 22:1 27:1 31:1 34:1 37:1 43:1 47:1 55:1 74:1 88:1 111:1 122:1 135:1 155:1 170:1 181:1 195:1 219:1 250:1 328:1 383:1 474:1 519:1 571:1 650:1 709:1 755:1 811:1 
-1 2:1 7:1 10:1 16:1 19:1 22:1 27:1 31:1 34:1 37:1 43:1 48:1 55:1 74:1 88:1 111:1 122:1 135:1 155:1 170:1 181:1 195:1 220:1 250:1 328:1 383:1 474:1 519:1 571:1 650:1 709:1 755:1 812:1 
-1 2:1 7:1 10:1 16:1 19:1 22:1 27:1 31:1 34:1 38:1 41:1 46:1 55:1 74:1 88:1 111:1 122:1 135:1 155:1 170:1 182:1 197:1 210:1 250:1 328:1 383:1 474:1 519:1 571:1 650:1 710:1 757:1 818:1 
-1 2:1 7:1 10:1 16:1 19:1 22:1 27:1 31:1 34:1 38:1 41:1 47:1 55:1 74:1 88:1 111:1 122:1 135:1 155:1 170:1 182:1 197:1 211:1 250:1 328:1 383:1 474:1 519:1 571:1 650:1 710:1 757:1 819:1 
1 2:1 7:1 10:1 16:1 19:1 22:1 27:1 31:1 34:1 38:1 41:1 48:1 55:1 74:1 88:1 111:1 122:1 135:1 155:1 170:1 182:1 197:1 212:1 250:1 328:1 383:1 474:1 519:1 571:1 650:1 710:1 757:1 820:1 
1 2:1 7:1 10:1 16:1 19:1 22:1 27:1 31:1 34:1 38:1 42:1 45:1 55:1 74:1 88:1 111:1 122:1 135:1 155:1 170:1 182:1 198:1 213:1 250:1 328:1 383:1 474:1 519:1 571:1 650:1 710:1 758:1 821:1 
1 2:1 7:1 10:1 16:1 19:1 22:1 27:1 31:1 34:1 38:1 42:1 46:1 55:1 74:1 88:1 111:1 122:1 135:1 155:1 170:1 182:1 198:1 214:1 250:1 328:1 383:1 474:1 519:1 571:1 650:1 710:1 758:1 822:1 
-1 2:1 7:1 10:1 16:1 19:1 22:1 27:1 31:1 34:1 38:1 42:1 47:1 55:1 74:1 88:1 111:1 122:1 135:1 155:1 170:1 182:1 198:1 215:1 250:1 328:1 383:1 474:1 519:1 571:1 650:1 710:1 758:1 823:1 
1 2:1 7:1 10:1 16:1 19:1 22:1 27:1 31:1 34:1 38:1 43:1 46:1 55:1 74:1 88:1 111:1 122:1 135:1 155:1 170:1 182:1 199:1 218:1 250:1 328:1 383:1 474:1 519:1 571:1 650:1 710:1 759:1 826:1 
-1 2:1 7:1 10:1 16:1 19:1 22:1 27:1 31:1 34:1 38:1 43:1 47:1 55:1 74:1 88:1 111:1 122:1 135:1 155:1 170:1 182:1 199:1 219:1 250:1 328:1 383:1 474:1 519:1 571:1 650:1 710:1 759:1 827:1 
-1 2:1 7:1 10:1 16:1 19:1 22:1 27:1 31:1 34:1 38:1 43:1 48:1 55:1 74:1 88:1 111:1 122:1 135:1 155:1 170:1 182:1 199:1 220:1 250:1 328:1 383:1 474:1 519:1 571:1 650:1 710:1 759:1 828:1 
-1 2:1 7:1 10:1 16:1 19:1 22:1 27:1 31:1 34:1 38:1 44:1 45:1 55:1 74:1 88:1 111:1 122:1 135:1 155:1 170:1 182:1 200:1 221:1 250:1 328:1 383:1 474:1 519:1 571:1 650:1 710:1 760:1 829:1 
1 2:1 7:1 10:1 16:1 19:1 22:1 27:1 31:1 34:1 38:1 44:1 46:1 55:1 74:1 88:1 111:1 122:1 135:1 155:1 170:1 182:1 200:1 222:1 250:1 328:1 383:1 474:1 519:1 571:1 650:1 710:1 760:1 830:1 
1 2:1 7:1 10:1 16:1 19:1 22:1 27:1 31:1 34:1 38:1 44:1 47:1 55:1 74:1 88:1 111:1 122:1 135:1 155:1 170:1 182:1 200:1 223:1 250:1 328:1 383:1 474:1 519:1 571:1 650:1 710:1 760:1 831:1 
1 2:1 7:1 10:1 16:1 19:1 22:1 27:1 31:1 34:1 39:1 41:1 46:1 55:1 74:1 88:1 111:1 122:1 135:1 155:1 170:1 183:1 201:1 210:1 250:1 328:1 383:1 474:1 519:1 571:1 650:1 711:1 761:1 834:1 
1 2:1 7:1 10:1 16:1 19:1 22:1 27:1 31:1 34:1 39:1 41:1 47:1 55:1 74:1 88:1 111:1 122:1 135:1 155:1 170:1 183:1 201:1 211:1 250:1 328:1 383:1 474:1 519:1 571:1 650:1 711:1 761:1 835:1 
1 2:1 7:1 10:1 16:1 19:1 22:1 27:1 31:1 34:1 39:1 42:1 47:1 55:1 74:1 88:1 111:1 122:1 135:1 155:1 170:1 183:1 202:1 215:1 250:1 328:1 383:1 474:1 519:1 571:1 650:1 711:1 762:1 839:1 
-1 2:1 7:1 10:1 16:1 19:1 22:1 27:1 31:1 34:1 39:1 43:1 45:1 55:1 74:1 88:1 111:1 122:1 135:1 155:1 170:1 183:1 203:1 217:1 250:1 328:1 383:1 474:1 519:1 571:1 650:1 711:1 763:1 841:1 
-1 2:1 7:1 10:1 16:1 19:1 22:1 27:1 31:1 34:1 39:1 43:1 46:1 55:1 74:1 88:1 111:1 122:1 135:1 155:1 170:1 183:1 203:1 218:1 250:1 328:1 383:1 474:1 519:1 571:1 650:1 711:1 763:1 842:1 
0.81405770185059889 2:1 7:1 10:1 16:1 19:1 22:1 27:1 31:1 34:1 39:1 43:1 47:1 55:1 74:1 88:1 111:1 122:1 135:1 155:1 170:1 183:1 203:1 219:1 250:1 328:1 383:1 474:1 519:1 571:1 650:1 711:1 763:1 843:1 
-1 2:1 7:1 10:1 16:1 19:1 22:1 27:1 31:1 34:1 39:1 43:1 48:1 55:1 74:1 88:1 111:1 122:1 135:1 155:1 170:1 183:1 203:1 220:1 250:1 328:1 383:1 474:1 519:1 571:1 650:1 711:1 763:1 844:1 
-1 2:1 7:1 10:1 16:1 19:1 22:1 27:1 31:1 34:1 39:1 44:1 48:1 55:1 74:1 88:1 111:1 122:1 135:1 155:1 170:1 183:1 204:1 224:1 250:1 328:1 383:1 474:1 519:1 571:1 650:1 711:1 764:1 848:1 
-1 2:1 7:1 10:1 16:1 19:1 22:1 27:1 31:1 34:1 40:1 41:1 45:1 55:1 74:1 88:1 111:1 122:1 135:1 155:1 170:1 184:1 205:1 209:1 250:1 328:1 383:1 474:1 519:1 571:1 650:1 712:1 765:1 849:1 
1 2:1 7:1 10:1 16:1 19:1 22:1 27:1 31:1 34:1 40:1 42:1 45:1 55:1 74:1 88:1 111:1 122:1 135:1 155:1 170:1 184:1 206:1 213:1 250:1 328:1 383:1 474:1 519:1 571:1 650:1 712:1 766:1 853:1 
0.64974945765067293 2:1 7:1 10:1 16:1 19:1 22:1 27:1 31:1 34:1 40:1 42:1 46:1 55:1 74:1 88:1 111:1 122:1 135:1 155:1 170:1 184:1 206:1 214:1 250:1 328:1 383:1 474:1 519:1 571:1 650:1 712:1 766:1 854:1 
0.78476260786534924 2:1 7:1 10:1 16:1 19:1 22:1 27:1 31:1 34:1 40:1 42:1 47:1 55:1 74:1 88:1 111:1 122:1 135:1 155:1 170:1 184:1 206:1 215:1 250:1 328:1 383:1 474:1 519:1 571:1 650:1 712:1 766:1 855:1 
-0.2681952912444478 2:1 7:1 10:1 16:1 19:1 22:1 27:1 31:1 34:1 40:1 42:1 48:1 55:1 74:1 88:1 111:1 122:1 135:1 155:1 170:1 184:1 206:1 216:1 250:1 328:1 383:1 474:1 519:1 571:1 650:1 712:1 766:1 856:1 
-0.36959021169623379 2:1 7:1 10:1 16:1 19:1 22:1 27:1 31:1 34:1 40:1 43:1 46:1 55:1 74:1 88:1 111:1 122:1 135:1 155:1 170:1 184:1 207:1 218:1 250:1 328:1 383:1 474:1 519:1 571:1 650:1 712:1 767:1 858:1 
-1 2:1 7:1 10:1 16:1 19:1 22:1 27:1 31:1 34:1 40:1 43:1 47:1 55:1 74:1 88:1 111:1 122:1 135:1 155:1 170:1 184:1 207:1 219:1 250:1 328:1 383:1 474:1 519:1 571:1 650:1 712:1 767:1 859:1 
1 2:1 7:1 10:1 16:1 19:1 22:1 27:1 31:1 34:1 40:1 44:1 46:1 55:1 74:1 88:1 111:1 122:1 135:1 155:1 170:1 184:1 208:1 222:1 250:1 328:1 383:1 474:1 519:1 571:1 650:1 712:1 768:1 862:1 
-1 2:1 7:1 10:1 16:1 19:1 22:1 27:1 31:1 34:1 40:1 44:1 47:1 55:1 74:1 88:1 111:1 122:1 135:1 155:1 170:1 184:1 208:1 223:1 250:1 328:1 383:1 474:1 519:1 571:1 650:1 712:1 768:1 863:1 
-1 2:1 7:1 12:1 16:1 19:1 22:1 27:1 31:1 34:1 37:1 43:1 46:1 55:1 76:1 96:1 111:1 122:1 135:1 155:1 170:1 181:1 195:1 218:1 252:1 336:1 415:1 474:1 519:1 571:1 650:1 709:1 755:1 810:1 
1 2:1 7:1 12:1 16:1 19:1 22:1 27:1 31:1 34:1 38:1 44:1 48:1 55:1 76:1 96:1 111:1 122:1 135:1 155:1 170:1 182:1 200:1 224:1 252:1 336:1 415:1 474:1 519:1 571:1 650:1 710:1 760:1 832:1 
-1 2:1 7:1 12:1 16:1 19:1 22:1 27:1 31:1 34:1 39:1 42:1 47:1 55:1 76:1 96:1 111:1 122:1 135:1 155:1 170:1 183:1 202:1 215:1 252:1 336:1 415:1 474:1 519:1 571:1 650:1 711:1 762:1 839:1 
-1 2:1 7:1 12:1 16:1 19:1 22:1 27:1 31:1 34:1 40:1 43:1 46:1 55:1 76:1 96:1 111:1 122:1 135:1 155:1 170:1 184:1 207:1 218:1 252:1 336:1 415:1 474:1 519:1 571:1 650:1 712:1 767:1 858:1 
1 2:1 7:1 12:1 16:1 19:1 22:1 27:1 31:1 34:1 40:1 43:1 47:1 55:1 76:1 96:1 111:1 122:1 135:1 155:1 170:1 184:1 207:1 219:1 252:1 336:1 415:1 474:1 519:1 571:1 650:1 712:1 767:1 859:1 
-0.23076315480018098 2:1 7:1 12:1 16:1 19:1 22:1 27:1 31:1 34:1 40:1 43:1 48:1 55:1 76:1 96:1 111:1 122:1 135:1 155:1 170:1 184:1 207:1 220:1 252:1 336:1 415:1 474:1 519:1 571:1 650:1 712:1 767:1 860:1 
-0.63274028987178998 2:1 8:1 9:1 16:1 19:1 22:1 27:1 31:1 34:1 40:1 44:1 48:1 56:1 77:1 84:1 111:1 122:1 135:1 155:1 170:1 184:1 208:1 224:1 253:1 340:1 367:1 474:1 519:1 571:1 650:1 712:1 768:1 864:1 
1 2:1 8:1 10:1 16:1 19:1 22:1 27:1 31:1 34:1 37:1 41:1 47:1 56:1 78:1 88:1 111:1 122:1 135:1 155:1 170:1 181:1 193:1 211:1 254:1 344:1 383:1 474:1 519:1 571:1 650:1 709:1 753:1 803:1 
1 2:1 8:1 10:1 16:1 19:1 22:1 27:1 31:1 34:1 37:1 41:1 48:1 56:1 78:1 88:1 111:1 122:1 135:1 155:1 170:1 181:1 193:1 212:1 254:1 344:1 383:1 474:1 519:1 571:1 650:1 709:1 753:1 804:1 
-1 2:1 8:1 10:1 16:1 19:1 22:1 27:1 31:1 34:1 37:1 42:1 45:1 56:1 78:1 88:1 111:1 122:1 135:1 155:1 170:1 181:1 194:1 213:1 254:1 344:1 383:1 474:1 519:1 571:1 650:1 709:1 754:1 805:1 
-1 2:1 8:1 10:1 16:1 19:1 22:1 27:1 31:1 34:1 37:1 43:1 45:1 56:1 78:1 88:1 111:1 122:1 135:1 155:1 170:1 181:1 195:1 217:1 254:1 344:1 383:1 474:1 519:1 571:1 650:1 709:1 755:1 809:1 
-1 2:1 8:1 10:1 16:1 19:1 22:1 27:1 31:1 34:1 37:1 43:1 46:1 56:1 78:1 88:1 111:1 122:1 135:1 155:1 170:1 181:1 195:1 218:1 254:1 344:1 383:1 474:1 519:1 571:1 650:1 709:1 755:1 810:1 
1 2:1 8:1 10:1 16:1 19:1 22:1 27:1 31:1 34:1 37:1 44:1 46:1 56:1 78:1 88:1 111:1 122:1 135:1 155:1 170:1 181:1 196:1 222:1 254:1 344:1 383:1 474:1 519:1 571:1 650:1 709:1 756:1 814:1 
1 2:1 8:1 10:1 16:1 19:1 22:1 27:1 31:1 34:1 37:1 44:1 48:1 56:1 78:1 88:1 111:1 122:1 135:1 155:1 170:1 181:1 196:1 224:1 254:1 344:1 383:1 474:1 519:1 571:1 650:1 709:1 756:1 816:1 
-1 2:1 8:1 10:1 16:1 19:1 22:1 27:1 31:1 34:1 38:1 41:1 45:1 56:1 78:1 88:1 111:1 122:1 135:1 155:1 170:1 182:1 197:1 209:1 254:1 344:1 383:1 474:1 519:1 571:1 650:1 710:1 757:1 817:1 
-1 2:1 8:1 10:1 16:1 19:1 22:1 27:1 31:1 34:1 38:1 41:1 46:1 56:1 78:1 88:1 111:1 122:1 135:1 155:1 170:1 182:1 197:1 210:1 254:1 344:1 383:1 474:1 519:1 571:1 650:1 710:1 757:1 818:1 
1 2:1 8:1 10:1 16:1 19:1 22:1 27:1 31:1 34:1 38:1 41:1 48:1 56:1 78:1 88:1 111:1 122:1 135:1 155:1 170:1 182:1 197:1 212:1 254:1 344:1 383:1 474:1 519:1 571:1 650:1 710:1 757:1 820:1 
1 2:1 8:1 10:1 16:1 19:1 22:1 27:1 31:1 34:1 38:1 42:1 46:1 56:1 78:1 88:1 111:1 122:1 135:1 155:1 170:1 182:1 198:1 214:1 254:1 344:1 383:1 474:1 519:1 571:1 650:1 710:1 758:1 822:1 
-1 2:1 8:1 10:1 16:1 19:1 22:1 27:1 31:1 34:1 38:1 42:1 48:1 56:1 78:1 88:1 111:1 122:1 135:1 155:1 170:1 182:1 198:1 216:1 254:1 344:1 383:1 474:1 519:1 571:1 650:1 710:1 758:1 824:1 
-0.055222713441896949 2:1 8:1 10:1 16:1 19:1 22:1 27:1 31:1 34:1 38:1 43:1 46:1 56:1 78:1 88:1 111:1 122:1 135:1 155:1 170:1 182:1 199:1 218:1 254:1 344:1 383:1 474:1 519:1 571:1 650:1 710:1 759:1 826:1 
0.30382219372339364 2:1 8:1 10:1 16:1 19:1 22:1 27:1 31:1 34:1 38:1 43:1 48:1 56:1 78:1 88:1 111:1 122:1 135:1 155:1 170:1 182:1 199:1 220:1 254:1 344:1 383:1 474:1 519:1 571:1 650:1 710:1 759:1 828:1 
1 2:1 8:1 10:1 16:1 19:1 22:1 27:1 31:1 34:1 38:1 44:1 45:1 56:1 78:1 88:1 111:1 122:1 135:1 155:1 170:1 182:1 200:1 221:1 254:1 344:1 383:1 474:1 519:1 571:1 650:1 710:1 760:1 829:1 
-1 2:1 8:1 10:1 16:1 19:1 22:1 27:1 31:1 34:1 38:1 44:1 46:1 56:1 78:1 88:1 111:1 122:1 135:1 155:1 170:1 182:1 200:1 222:1 254:1 344:1 383:1 474:1 519:1 571:1 650:1 710:1 760:1 830:1 
1 2:1 8:1 10:1 16:1 19:1 22:1 27:1 31:1 34:1 38:1 44:1 47:1 56:1 78:1 88:1 111:1 122:1 135:1 155:1 170:1 182:1 200:1 223:1 254:1 344:1 383:1 474:1 519:1 571:1 650:1 710:1 760:1 831:1 
-1 2:1 8:1 10:1 16:1 19:1 22:1 27:1 31:1 34:1 39:1 41:1 46:1 56:1 78:1 88:1 111:1 122:1 135:1 155:1 170:1 183:1 201:1 210:1 254:1 344:1 383:1 474:1 519:1 571:1 650:1 711:1 761:1 834:1 
1 2:1 8:1 10:1 16:1 19:1 22:1 27:1 31:1 34:1 39:1 42:1 45:1 56:1 78:1 88:1 111:1 122:1 135:1 155:1 170:1 183:1 202:1 213:1 254:1 344:1 383:1 474:1 519:1 571:1 650:1 711:1 762:1 837:1 
-1 2:1 8:1 10:1 16:1 19:1 22:1 27:1 31:1 34:1 39:1 42:1 46:1 56:1 78:1 88:1 111:1 122:1 135:1 155:1 170:1 183:1 202:1 214:1 254:1 344:1 383:1 474:1 519:1 571:1 650:1 711:1 762:1 838:1 
-1 2:1 8:1 10:1 16:1 19:1 22:1 27:1 31:1 34:1 39:1 42:1 47:1 56:1 78:1 88:1 111:1 122:1 135:1 155:1 170:1 183:1 202:1 215:1 254:1 344:1 383:1 474:1 519:1 571:1 650:1 711:1 762:1 839:1 
1 2:1 8:1 10:1 16:1 19:1 22:1 27:1 31:1 34:1 40:1 41:1 45:1 56:1 78:1 88:1 111:1 122:1 135:1 155:1 170:1 184:1 205:1 209:1 254:1 344:1 383:1 474:1 519:1 571:1 650:1 712:1 765:1 849:1 
1 2:1 8:1 10:1 16:1 19:1 22:1 27:1 31:1 34:1 40:1 41:1 46:1 56:1 78:1 88:1 111:1 122:1 135:1 155:1 170:1 184:1 205:1 210:1 254:1 344:1 383:1 474:1 519:1 571:1 650:1 712:1 765:1 850:1 
-1 2:1 8:1 10:1 16:1 19:1 22:1 27:1 31:1 34:1 40:1 41:1 47:1 56:1 78:1 88:1 111:1 122:1 135:1 155:1 170:1 184:1 205:1 211:1 254:1 344:1 383:1 474:1 519:1 571:1 650:1 712:1 765:1 851:1 
1 2:1 8:1 10:1 16:1 19:1 22:1 27:1 31:1 34:1 40:1 42:1 46:1 56:1 78:1 88:1 111:1 122:1 135:1 155:1 170:1 184:1 206:1 214:1 254:1 344:1 383:1 474:1 519:1 571:1 650:1 712:1 766:1 854:1 
-0.76573784953481372 2:1 8:1 10:1 16:1 19:1 22:1 27:1 31:1 34:1 40:1 42:1 47:1 56:1 78:1 88:1 111:1 122:1 135:1 155:1 170:1 184:1 206:1 215:1 254:1 344:1 383:1 474:1 519:1 571:1 650:1 712:1 766:1 855:1 
-1 2:1 8:1 10:1 16:1 19:1 22:1 27:1 31:1 34:1 40:1 42:1 48:1 56:1 78:1 88:1 111:1 122:1 135:1 155:1 170:1 184:1 206:1 216:1 254:1 344:1 383:1 474:1 519:1 571:1 650:1 712:1 766:1 856:1 
-1 2:1 8:1 10:1 16:1 19:1 22:1 27:1 31:1 34:1 40:1 43:1 45:1 56:1 78:1 88:1 111:1 122:1 135:1 155:1 170:1 184:1 207:1 217:1 254:1 344:1 383:1 474:1 519:1 571:1 650:1 712:1 767:1 857:1 
1 2:1 8:1 10:1 16:1 19:1 22:1 27:1 31:1 34:1 40:1 43:1 46:1 56:1 78:1 88:1 111:1 122:1 135:1 155:1 170:1 184:1 207:1 218:1 254:1 344:1 383:1 474:1 519:1 571:1 650:1 712:1 767:1 858:1 
1 2:1 8:1 10:1 16:1 19:1 22:1 27:1 31:1 34:1 40:1 43:1 47:1 56:1 78:1 88:1 111:1 122:1 135:1 155:1 170:1 184:1 207:1 219:1 254:1 344:1 383:1 474:1 519:1 571:1 650:1 712:1 767:1 859:1 
-1 2:1 8:1 10:1 16:1 19:1 22:1 27:1 31:1 34:1 40:1 43:1 48:1 56:1 78:1 88:1 111:1 122:1 135:1 155:1 170:1 184:1 207:1 220:1 254:1 344:1 383:1 474:1 519:1 571:1 650:1 712:1 767:1 860:1 
-1 2:1 8:1 10:1 16:1 19:1 22:1 27:1 31:1 34:1 40:1 44:1 47:1 56:1 78:1 88:1 111:1 122:1 135:1 155:1 170:1 184:1 208:1 223:1 254:1 344:1 383:1 474:1 519:1 571:1 650:1 712:1 768:1 863:1 
0.78570274366757309 2:1 8:1 10:1 16:1 19:1 22:1 27:1 31:1 34:1 40:1 44:1 48:1 56:1 78:1 88:1 111:1 122:1 135:1 155:1 170:1 184:1 208:1 224:1 254:1 344:1 383:1 474:1 519:1 571:1 650:1 712:1 768:1 864:1 
-0.95742678242775026 2:1 8:1 12:1 16:1 19:1 22:1 27:1 31:1 34:1 37:1 41:1 45:1 56:1 80:1 96:1 111:1 122:1 135:1 155:1 170:1 181:1 193:1 209:1 256:1 352:1 415:1 474:1 519:1 571:1 650:1 709:1 753:1 801:1 
-1 2:1 8:1 12:1 16:1 19:1 22:1 27:1 31:1 34:1 37:1 41:1 46:1 56:1 80:1 96:1 111:1 122:1 135:1 155:1 170:1 181:1 193:1 210:1 256:1 352:1 415:1 474:1 519:1 571:1 650:1 709:1 753:1 802:1 
-1 2:1 8:1 12:1 16:1 19:1 22:1 27:1 31:1 34:1 37:1 42:1 45:1 56:1 80:1 96:1 111:1 122:1 135:1 155:1 170:1 181:1 194:1 213:1 256:1 352:1 415:1 474:1 519:1 571:1 650:1 709:1 754:1 805:1 
1 2:1 8:1 12:1 16:1 19:1 22:1 27:1 31:1 34:1 37:1 42:1 46:1 56:1 80:1 96:1 111:1 122:1 135:1 155:1 170:1 181:1 194:1 214:1 256:1 352:1 415:1 474:1 519:1 571:1 650:1 709:1 754:1 806:1 
-0.26324318378338929 2:1 8:1 12:1 16:1 19:1 22:1 27:1 31:1 34:1 37:1 44:1 48:1 56:1 80:1 96:1 111:1 122:1 135:1 155:1 170:1 181:1 196:1 224:1 256:1 352:1 415:1 474:1 519:1 571:1 650:1 709:1 756:1 816:1 
1 2:1 8:1 12:1 16:1 19:1 22:1 27:1 31:1 34:1 38:1 41:1 45:1 56:1 80:1 96:1 111:1 122:1 135:1 155:1 170:1 182:1 197:1 209:1 256:1 352:1 415:1 474:1 519:1 571:1 650:1 710:1 757:1 817:1 
-0.54152171640453461 2:1 8:1 12:1 16:1 19:1 22:1 27:1 31:1 34:1 38:1 41:1 46:1 56:1 80:1 96:1 111:1 122:1 135:1 155:1 170:1 182:1 197:1 210:1 256:1 352:1 415:1 474:1 519:1 571:1 650:1 710:1 757:1 818:1 
1 2:1 8:1 12:1 16:1 19:1 22:1 27:1 31:1 34:1 38:1 41:1 47:1 56:1 80:1 96:1 111:1 122:1 135:1 155:1 170:1 182:1 197:1 211:1 256:1 352:1 415:1 474:1 519:1 571:1 650:1 710:1 757:1 819:1 
-1 2:1 8:1 12:1 16:1 19:1 22:1 27:1 31:1 34:1 38:1 42:1 45:1 56:1 80:1 96:1 111:1 122:1 135:1 155:1 170:1 182:1 198:1 213:1 256:1 352:1 415:1 474:1 519:1 571:1 650:1 710:1 758:1 821:1 
0.28631962930986588 2:1 8:1 12:1 16:1 19:1 22:1 27:1 31:1 34:1 38:1 42:1 47:1 56:1 80:1 96:1 111:1 122:1 135:1 155:1 170:1 182:1 198:1 215:1 256:1 352:1 415:1 474:1 519:1 571:1 650:1 710:1 758:1 823:1 
1 2:1 8:1 12:1 16:1 19:1 22:1 27:1 31:1 34:1 38:1 44:1 47:1 56:1 80:1 96:1 111:1 122:1 135:1 155:1 170:1 182:1 200:1 223:1 256:1 352:1 415:1 474:1 519:1 571:1 650:1 710:1 760:1 831:1 
0.13418304675825382 2:1 8:1 12:1 16:1 19:1 22:1 27:1 31:1 34:1 39:1 41:1 45:1 56:1 80:1 96:1 111:1 122:1 135:1 155:1 170:1 183:1 201:1 209:1 256:1 352:1 415:1 474:1 519:1 571:1 650:1 711:1 761:1 833:1 
1 2:1 8:1 12:1 16:1 19:1 22:1 27:1 31:1 34:1 39:1 42:1 47:1 56:1 80:1 96:1 111:1 122:1 135:1 155:1 170:1 183:1 202:1 215:1 256:1 352:1 415:1 474:1 519:1 571:1 650:1 711:1 762:1 839:1 
1 2:1 8:1 12:1 16:1 19:1 22:1 27:1 31:1 34:1 39:1 43:1 45:1 56:1 80:1 96:1 111:1 122:1 135:1 155:1 170:1 183:1 203:1 217:1 256:1 352:1 415:1 474:1 519:1 571:1 650:1 711:1 763:1 841:1 
-1 2:1 8:1 12:1 16:1 19:1 22:1 27:1 31:1 34:1 39:1 43:1 46:1 56:1 80:1 96:1 111:1 122:1 135:1 155:1 170:1 183:1 203:1 218:1 256:1 352:1 415:1 474:1 519:1 571:1 650:1 711:1 763:1 842:1 
0.49679788964316518 2:1 8:1 12:1 16:1 19:1 22:1 27:1 31:1 34:1 39:1 44:1 48:1 56:1 80:1 96:1 111:1 122:1 135:1 155:1 170:1 183:1 204:1 224:1 256:1 352:1 415:1 474:1 519:1 571:1 650:1 711:1 764:1 848:1 
-1 2:1 8:1 12:1 16:1 19:1 22:1 27:1 31:1 34:1 40:1 42:1 46:1 56:1 80:1 96:1 111:1 122:1 135:1 155:1 170:1 184:1 206:1 214:1 256:1 352:1 415:1 474:1 519:1 571:1 650:1 712:1 766:1 854:1 
1 2:1 8:1 12:1 16:1 19:1 22:1 27:1 31:1 34:1 40:1 44:1 45:1 56:1 80:1 96:1 111:1 122:1 135:1 155:1 170:1 184:1 208:1 221:1 256:1 352:1 415:1 474:1 519:1 571:1 650:1 712:1 768:1 861:1 
-1 2:1 8:1 12:1 16:1 19:1 22:1 27:1 31:1 34:1 40:1 44:1 46:1 56:1 80:1 96:1 111:1 122:1 135:1 155:1 170:1 184:1 208:1 222:1 256:1 352:1 415:1 474:1 519:1 571:1 650:1 712:1 768:1 862:1 
1 2:1 8:1 12:1 16:1 19:1 22:1 27:1 31:1 34:1 40:1 44:1 47:1 56:1 80:1 96:1 111:1 122:1 135:1 155:1 170:1 184:1 208:1 223:1 256:1 352:1 415:1 474:1 519:1 571:1 650:1 712:1 768:1 863:1 
1 2:1 8:1 12:1 16:1 19:1 22:1 27:1 31:1 34:1 40:1 44:1 48:1 56:1 80:1 96:1 111:1 122:1 135:1 155:1 170:1 184:1 208:1 224:1 256:1 352:1 415:1 474:1 519:1 571:1 650:1 712:1 768:1 864:1 
0.092596329687963427 3:1 5:1 9:1 16:1 19:1 22:1 27:1 31:1 34:1 40:1 43:1 47:1 57:1 65:1 84:1 111:1 122:1 135:1 155:1 170:1 184:1 207:1 219:1 257:1 292:1 367:1 474:1 519:1 571:1 650:1 712:1 767:1 859:1 
-1 3:1 5:1 9:1 16:1 19:1 22:1 27:1 31:1 34:1 40:1 44:1 46:1 57:1 65:1 84:1 111:1 122:1 135:1 155:1 170:1 184:1 208:1 222:1 257:1 292:1 367:1 474:1 519:1 571:1 650:1 712:1 768:1 862:1 
1 3:1 5:1 9:1 16:1 19:1 22:1 27:1 31:1 34:1 40:1 44:1 48:1 57:1 65:1 84:1 111:1 122:1 135:1 155:1 170:1 184:1 208:1 224:1 257:1 292:1 367:1 474:1 519:1 571:1 650:1 712:1 768:1 864:1 
-1 3:1 5:1 10:1 14:1 19:1 22:1 27:1 31:1 34:1 40:1 44:1 47:1 57:1 66:1 86:1 103:1 122:1 135:1 155:1 170:1 184:1 208:1 223:1 258:1 294:1 375:1 442:1 519:1 571:1 650:1 712:1 768:1 863:1 
-0.78345551857619133 3:1 5:1 10:1 16:1 19:1 22:1 27:1 31:1 34:1 37:1 41:1 48:1 57:1 66:1 88:1 111:1 122:1 135:1 155:1 170:1 181:1 193:1 212:1 258:1 296:1 383:1 474:1 519:1 571:1 650:1 709:1 753:1 804:1 
-1 3:1 5:1 10:1 16:1 19:1 22:1 27:1 31:1 34:1 37:1 43:1 45:1 57:1 66:1 88:1 111:1 122:1 135:1 155:1 170:1 181:1 195:1 217:1 258:1 296:1 383:1 474:1 519:1 571:1 650:1 709:1 755:1 809:1 
1 3:1 5:1 10:1 16:1 19:1 22:1 27:1 31:1 34:1 37:1 43:1 47:1 57:1 66:1 88:1 111:1 122:1 135:1 155:1 170:1 181:1 195:1 219:1 258:1 296:1 383:1 474:1 519:1 571:1 650:1 709:1 755:1 811:1 
-1 3:1 5:1 10:1 16:1 19:1 22:1 27:1 31:1 34:1 38:1 41:1 45:1 57:1 66:1 88:1 111:1 122:1 135:1 155:1 170:1 182:1 197:1 209:1 258:1 296:1 383:1 474:1 519:1 571:1 650:1 710:1 757:1 817:1 
1 3:1 5:1 10:1 16:1 19:1 22:1 27:1 31:1 34:1 38:1 41:1 46:1 57:1 66:1 88:1 111:1 122:1 135:1 155:1 170:1 182:1 197:1 210:1 258:1 296:1 383:1 474:1 519:1 571:1 650:1 710:1 757:1 818:1 
1 3:1 5:1 10:1 16:1 19:1 22:1 27:1 31:1 34:1 38:1 41:1 47:1 57:1 66:1 88:1 111:1 122:1 135:1 155:1 170:1 182:1 197:1 211:1 258:1 296:1 383:1 474:1 519:1 571:1 650:1 710:1 757:1 819:1 
-1 3:1 5:1 10:1 16:1 19:1 22:1 27:1 31:1 34:1 38:1 42:1 45:1 57:1 66:1 88:1 111:1 122:1 135:1 155:1 170:1 182:1 198:1 213:1 258:1 296:1 383:1 474:1 519:1 571:1 650:1 710:1 758:1 821:1 
1 3:1 5:1 10:1 16:1 19:1 22:1 27:1 31:1 34:1 38:1 42:1 46:1 57:1 66:1 88:1 111:1 122:1 135:1 155:1 170:1 182:1 198:1 214:1 258:1 296:1 383:1 474:1 519:1 571:1 650:1 710:1 758:1 822:1 
0.52504206917531615 3:1 5:1 10:1 16:1 19:1 22:1 27:1 31:1 34:1 38:1 42:1 47:1 57:1 66:1 88:1 111:1 122:1 135:1 155:1 170:1 182:1 198:1 215:1 258:1 296:1 383:1 474:1 519:1 571:1 650:1 710:1 758:1 823:1 
1 3:1 5:1 10:1 16:1 19:1 22:1 27:1 31:1 34:1 38:1 42:1 48:1 57:1 66:1 88:1 111:1 122:1 135:1 155:1 170:1 182:1 198:1 216:1 258:1 296:1 383:1 474:1 519:1 571:1 650:1 710:1 758:1 824:1 
-1 3:1 5:1 10:1 16:1 19:1 22:1 27:1 31:1 34:1 38:1 43:1 47:1 57:1 66:1 88:1 111:1 122:1 135:1 155:1 170:1 182:1 199:1 219:1 258:1 296:1 383:1 474:1 519:1 571:1 650:1 710:1 759:1 827:1 
1 3:1 5:1 10:1 16:1 19:1 22:1 27:1 31:1 34:1 39:1 41:1 46:1 57:1 66:1 88:1 111:1 122:1 135:1 155:1 170:1 183:1 201:1 210:1 258:1 296:1 383:1 474:1 519:1 571:1 650:1 711:1 761:1 834:1 
-1 3:1 5:1 10:1 16:1 19:1 22:1 27:1 31:1 34:1 39:1 42:1 45:1 57:1 66:1 88:1 111:1 122:1 135:1 155:1 170:1 183:1 202:1 213:1 258:1 296:1 383:1 474:1 519:1 571:1 650:1 711:1 762:1 837:1 
-1 3:1 5:1 10:1 16:1 19:1 22:1 27:1 31:1 34:1 39:1 42:1 47:1 57:1 66:1 88:1 111:1 122:1 135:1 155:1 170:1 183:1 202:1 215:1 258:1 296:1 383:1 474:1 519:1 571:1 650:1 711:1 762:1 839:1 
-1 3:1 5:1 10:1 16:1 19:1 22:1 27:1 31:1 34:1 39:1 43:1 46:1 57:1 66:1 88:1 111:1 122:1 135:1 155:1 170:1 183:1 203:1 218:1 258:1 296:1 383:1 474:1 519:1 571:1 650:1 711:1 763:1 842:1 
1 3:1 5:1 10:1 16:1 19:1 22:1 27:1 31:1 34:1 39:1 43:1 47:1 57:1 66:1 88:1 111:1 122:1 135:1 155:1 170:1 183:1 203:1 219:1 258:1 296:1 383:1 474:1 519:1 571:1 650:1 711:1 763:1 843:1 
-1 3:1 5:1 10:1 16:1 19:1 22:1 27:1 31:1 34:1 40:1 42:1 45:1 57:1 66:1 88:1 111:1 122:1 135:1 155:1 170:1 184:1 206:1 213:1 258:1 296:1 383:1 474:1 519:1 571:1 650:1 712:1 766:1 853:1 
-1 3:1 5:1 10:1 16:1 19:1 22:1 27:1 31:1 34:1 40:1 42:1 46:1 57:1 66:1 88:1 111:1 122:1 135:1 155:1 170:1 184:1 206:1 214:1 258:1 296:1 383:1 474:1 519:1 571:1 650:1 712:1 766:1 854:1 
1 3:1 5:1 10:1 16:1 19:1 22:1 27:1 31:1 34:1 40:1 42:1 48:1 57:1 66:1 88:1 111:1 122:1 135:1 155:1 170:1 184:1 206:1 216:1 258:1 296:1 383:1 474:1 519:1 571:1 650:1 712:1 766:1 856:1 
1 3:1 5:1 10:1 16:1 19:1 22:1 27:1 31:1 34:1 40:1 43:1 45:1 57:1 66:1 88:1 111:1 122:1 135:1 155:1 170:1 184:1 207:1 217:1 258:1 296:1 383:1 474:1 519:1 571:1 650:1 712:1 767:1 857:1 
-1 3:1 5:1 10:1 16:1 19:1 22:1 27:1 31:1 34:1 40:1 43:1 46:1 57:1 66:1 88:1 111:1 122:1 135:1 155:1 170:1 184:1 207:1 218:1 258:1 296:1 383:1 474:1 519:1 571:1 650:1 712:1 767:1 858:1 
-1 3:1 5:1 10:1 16:1 19:1 22:1 27:1 31:1 34:1 40:1 44:1 46:1 57:1 66:1 88:1 111:1 122:1 135:1 155:1 170:1 184:1 208:1 222:1 258:1 296:1 383:1 474:1 519:1 571:1 650:1 712:1 768:1 862:1 
1 3:1 5:1 10:1 16:1 19:1 22:1 27:1 31:1 34:1 40:1 44:1 47:1 57:1 66:1 88:1 111:1 122:1 135:1 155:1 170:1 184:1 208:1 223:1 258:1 296:1 383:1 474:1 519:1 571:1 650:1 712:1 768:1 863:1 
1 3:1 5:1 10:1 16:1 19:1 22:1 27:1 31:1 34:1 40:1 44:1 48:1 57:1 66:1 88:1 111:1 122:1 135:1 155:1 170:1 184:1 208:1 224:1 258:1 296:1 383:1 474:1 519:1 571:1 650:1 712:1 768:1 864:1 
1 3:1 5:1 12:1 16:1 19:1 22:1 27:1 31:1 34:1 37:1 44:1 45:1 57:1 68:1 96:1 111:1 122:1 135:1 155:1 170:1 181:1 196:1 221:1 260:1 304:1 415:1 474:1 519:1 571:1 650:1 709:1 756:1 813:1 
-0.56432816439632294 3:1 5:1 12:1 16:1 19:1 22:1 27:1 31:1 34:1 38:1 42:1 48:1 57:1 68:1 96:1 111:1 122:1 135:1 155:1 170:1 182:1 198:1 216:1 260:1 304:1 415:1 474:1 519:1 571:1 650:1 710:1 758:1 824:1 
-1 3:1 5:1 12:1 16:1 19:1 22:1 27:1 31:1 34:1 40:1 43:1 47:1 57:1 68:1 96:1 111:1 122:1 135:1 155:1 170:1 184:1 207:1 219:1 260:1 304:1 415:1 474:1 519:1 571:1 650:1 712:1 767:1 859:1 
-1 3:1 6:1 9:1 16:1 19:1 22:1 27:1 31:1 34:1 40:1 41:1 48:1 58:1 69:1 84:1 111:1 122:1 135:1 155:1 170:1 184:1 205:1 212:1 261:1 308:1 367:1 474:1 519:1 571:1 650:1 712:1 765:1 852:1 
-1 3:1 6:1 9:1 16:1 19:1 22:1 27:1 31:1 34:1 40:1 43:1 46:1 58:1 69:1 84:1 111:1 122:1 135:1 155:1 170:1 184:1 207:1 218:1 261:1 308:1 367:1 474:1 519:1 571:1 650:1 712:1 767:1 858:1 
-0.43818756744219289 3:1 6:1 9:1 16:1 19:1 22:1 27:1 31:1 34:1 40:1 43:1 47:1 58:1 69:1 84:1 111:1 122:1 135:1 155:1 170:1 184:1 207:1 219:1 261:1 308:1 367:1 474:1 519:1 571:1 650:1 712:1 767:1 859:1 
1 3:1 6:1 9:1 16:1 19:1 22:1 27:1 31:1 34:1 40:1 43:1 48:1 58:1 69:1 84:1 111:1 122:1 135:1 155:1 170:1 184:1 207:1 220:1 261:1 308:1 367:1 474:1 519:1 571:1 650:1 712:1 767:1 860:1 
-1 3:1 6:1 10:1 16:1 19:1 22:1 27:1 31:1 34:1 37:1 41:1 47:1 58:1 70:1 88:1 111:1 122:1 135:1 155:1 170:1 181:1 193:1 211:1 262:1 312:1 383:1 474:1 519:1 571:1 650:1 709:1 753:1 803:1 
1 3:1 6:1 10:1 16:1 19:1 22:1 27:1 31:1 34:1 37:1 42:1 47:1 58:1 70:1 88:1 111:1 122:1 135:1 155:1 170:1 181:1 194:1 215:1 262:1 312:1 383:1 474:1 519:1 571:1 650:1 709:1 754:1 807:1 
1 3:1 6:1 10:1 16:1 19:1 22:1 27:1 31:1 34:1 37:1 43:1 45:1 58:1 70:1 88:1 111:1 122:1 135:1 155:1 170:1 181:1 195:1 217:1 262:1 312:1 383:1 474:1 519:1 571:1 650:1 709:1 755:1 809:1 
-1 3:1 6:1 10:1 16:1 19:1 22:1 27:1 31:1 34:1 37:1 43:1 46:1 58:1 70:1 88:1 111:1 122:1 135:1 155:1 170:1 181:1 195:1 218:1 262:1 312:1 383:1 474:1 519:1 571:1 650:1 709:1 755:1 810:1 
-1 3:1 6:1 10:1 16:1 19:1 22:1 27:1 31:1 34:1 37:1 44:1 46:1 58:1 70:1 88:1 111:1 122:1 135:1 155:1 170:1 181:1 196:1 222:1 262:1 312:1 383:1 474:1 519:1 571:1 650:1 709:1 756:1 814:1 
-1 3:1 6:1 10:1 16:1 19:1 22:1 27:1 31:1 34:1 37:1 44:1 47:1 58:1 70:1 88:1 111:1 122:1 135:1 155:1 170:1 181:1 196:1 223:1 262:1 312:1 383:1 474:1 519:1 571:1 650:1 709:1 756:1 815:1 
1 3:1 6:1 10:1 16:1 19:1 22:1 27:1 31:1 34:1 37:1 44:1 48:1 58:1 70:1 88:1 111:1 122:1 135:1 155:1 170:1 181:1 196:1 224:1 262:1 312:1 383:1 474:1 519:1 571:1 650:1 709:1 756:1 816:1 
1 3:1 6:1 10:1 16:1 19:1 22:1 27:1 31:1 34:1 38:1 41:1 47:1 58:1 70:1 88:1 111:1 122:1 135:1 155:1 170:1 182:1 197:1 211:1 262:1 312:1 383:1 474:1 519:1 571:1 650:1 710:1 757:1 819:1 
1 3:1 6:1 10:1 16:1 19:1 22:1 27:1 31:1 34:1 38:1 42:1 45:1 58:1 70:1 88:1 111:1 122:1 135:1 155:1 170:1 182:1 198:1 213:1 262:1 312:1 383:1 474:1 519:1 571:1 650:1 710:1 758:1 821:1 
-1 3:1 6:1 10:1 16:1 19:1 22:1 27:1 31:1 34:1 38:1 42:1 46:1 58:1 70:1 88:1 111:1 122:1 135:1 155:1 170:1 182:1 198:1 214:1 262:1 312:1 383:1 474:1 519:1 571:1 650:1 710:1 758:1 822:1 
-1 3:1 6:1 10:1 16:1 19:1 22:1 27:1 31:1 34:1 38:1 42:1 47:1 58:1 70:1 88:1 111:1 122:1 135:1 155:1 170:1 182:1 198:1 215:1 262:1 312:1 383:1 474:1 519:1 571:1 650:1 710:1 758:1 823:1 
-1 3:1 6:1 10:1 16:1 19:1 22:1 27:1 31:1 34:1 38:1 42:1 48:1 58:1 70:1 88:1 111:1 122:1 135:1 155:1 170:1 182:1 198:1 216:1 262:1 312:1 383:1 474:1 519:1 571:1 650:1 710:1 758:1 824:1 
1 3:1 6:1 10:1 16:1 19:1 22:1 27:1 31:1 34:1 38:1 43:1 46:1 58:1 70:1 88:1 111:1 122:1 135:1 155:1 170:1 182:1 199:1 218:1 262:1 312:1 383:1 474:1 519:1 571:1 650:1 710:1 759:1 826:1 
-1 3:1 6:1 10:1 16:1 19:1 22:1 27:1 31:1 34:1 38:1 43:1 48:1 58:1 70:1 88:1 111:1 122:1 135:1 155:1 170:1 182:1 199:1 220:1 262:1 312:1 383:1 474:1 519:1 571:1 650:1 710:1 759:1 828:1 
-1 3:1 6:1 10:1 16:1 19:1 22:1 27:1 31:1 34:1 38:1 44:1 46:1 58:1 70:1 88:1 111:1 122:1 135:1 155:1 170:1 182:1 200:1 222:1 262:1 312:1 383:1 474:1 519:1 571:1 650:1 710:1 760:1 830:1 
-1 3:1 6:1 10:1 16:1 19:1 22:1 27:1 31:1 34:1 38:1 44:1 47:1 58:1 70:1 88:1 111:1 122:1 135:1 155:1 170:1 182:1 200:1 223:1 262:1 312:1 383:1 474:1 519:1 571:1 650:1 710:1 760:1 831:1 
1 3:1 6:1 10:1 16:1 19:1 22:1 27:1 31:1 34:1 38:1 44:1 48:1 58:1 70:1 88:1 111:1 122:1 135:1 155:1 170:1 182:1 200:1 224:1 262:1 312:1 383:1 474:1 519:1 571:1 650:1 710:1 760:1 832:1 
-1 3:1 6:1 10:1 16:1 19:1 22:1 27:1 31:1 34:1 39:1 41:1 46:1 58:1 70:1 88:1 111:1 122:1 135:1 155:1 170:1 183:1 201:1 210:1 262:1 312:1 383:1 474:1 519:1 571:1 650:1 711:1 761:1 834:1 
1 3:1 6:1 10:1 16:1 19:1 22:1 27:1 31:1 34:1 39:1 41:1 47:1 58:1 70:1 88:1 111:1 122:1 135:1 155:1 170:1 183:1 201:1 211:1 262:1 312:1 383:1 474:1 519:1 571:1 650:1 711:1 761:1 835:1 
1 3:1 6:1 10:1 16:1 19:1 22:1 27:1 31:1 34:1 39:1 41:1 48:1 58:1 70:1 88:1 111:1 122:1 135:1 155:1 170:1 183:1 201:1 212:1 262:1 312:1 383:1 474:1 519:1 571:1 650:1 711:1 761:1 836:1 
-0.20702591593499312 3:1 6:1 10:1 16:1 19:1 22:1 27:1 31:1 34:1 39:1 42:1 46:1 58:1 70:1 88:1 111:1 122:1 135:1 155:1 170:1 183:1 202:1 214:1 262:1 312:1 383:1 474:1 519:1 571:1 650:1 711:1 762:1 838:1 
1 3:1 6:1 10:1 16:1 19:1 22:1 27:1 31:1 34:1 39:1 43:1 46:1 58:1 70:1 88:1 111:1 122:1 135:1 155:1 170:1 183:1 203:1 218:1 262:1 312:1 383:1 474:1 519:1 571:1 650:1 711:1 763:1 842:1 
1 3:1 6:1 10:1 16:1 19:1 22:1 27:1 31:1 34:1 39:1 43:1 47:1 58:1 70:1 88:1 111:1 122:1 135:1 155:1 170:1 183:1 203:1 219:1 262:1 312:1 383:1 474:1 519:1 571:1 650:1 711:1 763:1 843:1 
1 3:1 6:1 10:1 16:1 19:1 22:1 27:1 31:1 34:1 40:1 41:1 45:1 58:1 70:1 88:1 111:1 122:1 135:1 155:1 170:1 184:1 205:1 209:1 262:1 312:1 383:1 474:1 519:1 571:1 650:1 712:1 765:1 849:1 
1 3:1 6:1 10:1 16:1 19:1 22:1 27:1 31:1 34:1 40:1 41:1 46:1 58:1 70:1 88:1 111:1 122:1 135:1 155:1 170:1 184:1 205:1 210:1 262:1 312:1 383:1 474:1 519:1 571:1 650:1 712:1 765:1 850:1 
-1 3:1 6:1 10:1 16:1 19:1 22:1 27:1 31:1 34:1 40:1 41:1 48:1 58:1 70:1 88:1 111:1 122:1 135:1 155:1 170:1 184:1 205:1 212:1 262:1 312:1 383:1 474:1 519:1 571:1 650:1 712:1 765:1 852:1 
-1 3:1 6:1 10:1 16:1 19:1 22:1 27:1 31:1 34:1 40:1 42:1 45:1 58:1 70:1 88:1 111:1 122:1 135:1 155:1 170:1 184:1 206:1 213:1 262:1 312:1 383:1 474:1 519:1 571:1 650:1 712:1 766:1 853:1 
-1 3:1 6:1 10:1 16:1 19:1 22:1 27:1 31:1 34:1 40:1 42:1 46:1 58:1 70:1 88:1 111:1 122:1 135:1 155:1 170:1 184:1 206:1 214:1 262:1 312:1 383:1 474:1 519:1 571:1 650:1 712:1 766:1 854:1 
-1 3:1 6:1 10:1 16:1 19:1 22:1 27:1 31:1 34:1 40:1 43:1 45:1 58:1 70:1 88:1 111:1 122:1 135:1 155:1 170:1 184:1 207:1 217:1 262:1 312:1 383:1 474:1 519:1 571:1 650:1 712:1 767:1 857:1 
0.41104506464171908 3:1 6:1 10:1 16:1 19:1 22:1 27:1 31:1 34:1 40:1 43:1 46:1 58:1 70:1 88:1 111:1 122:1 135:1 155:1 170:1 184:1 207:1 218:1 262:1 312:1 383:1 474:1 519:1 571:1 650:1 712:1 767:1 858:1 
1 3:1 6:1 10:1 16:1 19:1 22:1 27:1 31:1 34:1 40:1 43:1 47:1 58:1 70:1 88:1 111:1 122:1 135:1 155:1 170:1 184:1 207:1 219:1 262:1 312:1 383:1 474:1 519:1 571:1 650:1 712:1 767:1 859:1 
1 3:1 6:1 10:1 16:1 19:1 22:1 27:1 31:1 34:1 40:1 43:1 48:1 58:1 70:1 88:1 111:1 122:1 135:1 155:1 170:1 184:1 207:1 220:1 262:1 312:1 383:1 474:1 519:1 571:1 650:1 712:1 767:1 860:1 
1 3:1 6:1 10:1 16:1 19:1 22:1 27:1 31:1 34:1 40:1 44:1 45:1 58:1 70:1 88:1 111:1 122:1 135:1 155:1 170:1 184:1 208:1 221:1 262:1 312:1 383:1 474:1 519:1 571:1 650:1 712:1 768:1 861:1 
-1 3:1 6:1 10:1 16:1 19:1 22:1 27:1 31:1 34:1 40:1 44:1 46:1 58:1 70:1 88:1 111:1 122:1 135:1 155:1 170:1 184:1 208:1 222:1 262:1 312:1 383:1 474:1 519:1 571:1 650:1 712:1 768:1 862:1 
1 3:1 6:1 10:1 16:1 19:1 22:1 27:1 31:1 34:1 40:1 44:1 47:1 58:1 70:1 88:1 111:1 122:1 135:1 155:1 170:1 184:1 208:1 223:1 262:1 312:1 383:1 474:1 519:1 571:1 650:1 712:1 768:1 863:1 
-1 3:1 6:1 12:1 16:1 19:1 22:1 27:1 31:1 34:1 37:1 41:1 45:1 58:1 72:1 96:1 111:1 122:1 135:1 155:1 170:1 181:1 193:1 209:1 264:1 320:1 415:1 474:1 519:1 571:1 650:1 709:1 753:1 801:1 
-0.071393281271139045 3:1 6:1 12:1 16:1 19:1 22:1 27:1 31:1 34:1 37:1 42:1 46:1 58:1 72:1 96:1 111:1 122:1 135:1 155:1 170:1 181:1 194:1 214:1 264:1 320:1 415:1 474:1 519:1 571:1 650:1 709:1 754:1 806:1 
1 3:1 6:1 12:1 16:1 19:1 22:1 27:1 31:1 34:1 37:1 42:1 48:1 58:1 72:1 96:1 111:1 122:1 135:1 155:1 170:1 181:1 194:1 216:1 264:1 320:1 415:1 474:1 519:1 571:1 650:1 709:1 754:1 808:1 
-1 3:1 6:1 12:1 16:1 19:1 22:1 27:1 31:1 34:1 37:1 43:1 47:1 58:1 72:1 96:1 111:1 122:1 135:1 155:1 170:1 181:1 195:1 219:1 264:1 320:1 415:1 474:1 519:1 571:1 650:1 709:1 755:1 811:1 
1 3:1 6:1 12:1 16:1 19:1 22:1 27:1 31:1 34:1 38:1 42:1 45:1 58:1 72:1 96:1 111:1 122:1 135:1 155:1 170:1 182:1 198:1 213:1 264:1 320:1 415:1 474:1 519:1 571:1 650:1 710:1 758:1 821:1 
1 3:1 6:1 12:1 16:1 19:1 22:1 27:1 31:1 34:1 38:1 42:1 46:1 58:1 72:1 96:1 111:1 122:1 135:1 155:1 170:1 182:1 198:1 214:1 264:1 320:1 415:1 474:1 519:1 571:1 650:1 710:1 758:1 822:1 
-1 3:1 6:1 12:1 16:1 19:1 22:1 27:1 31:1 34:1 38:1 42:1 47:1 58:1 72:1 96:1 111:1 122:1 135:1 155:1 170:1 182:1 198:1 215:1 264:1 320:1 415:1 474:1 519:1 571:1 650:1 710:1 758:1 823:1 
-0.43917972084843793 3:1 6:1 12:1 16:1 19:1 22:1 27:1 31:1 34:1 38:1 42:1 48:1 58:1 72:1 96:1 111:1 122:1 135:1 155:1 170:1 182:1 198:1 216:1 264:1 320:1 415:1 474:1 519:1 571:1 650:1 710:1 758:1 824:1 
0.38317976357142203 3:1 6:1 12:1 16:1 19:1 22:1 27:1 31:1 34:1 38:1 43:1 46:1 58:1 72:1 96:1 111:1 122:1 135:1 155:1 170:1 182:1 199:1 218:1 264:1 320:1 415:1 474:1 519:1 571:1 650:1 710:1 759:1 826:1 
1 3:1 6:1 12:1 16:1 19:1 22:1 27:1 31:1 34:1 38:1 43:1 47:1 58:1 72:1 96:1 111:1 122:1 135:1 155:1 170:1 182:1 199:1 219:1 264:1 320:1 415:1 474:1 519:1 571:1 650:1 710:1 759:1 827:1 
0.69685918967687877 3:1 6:1 12:1 16:1 19:1 22:1 27:1 31:1 34:1 39:1 41:1 47:1 58:1 72:1 96:1 111:1 122:1 135:1 155:1 170:1 183:1 201:1 211:1 264:1 320:1 415:1 474:1 519:1 571:1 650:1 711:1 761:1 835:1 
-1 3:1 6:1 12:1 16:1 19:1 22:1 27:1 31:1 34:1 39:1 42:1 46:1 58:1 72:1 96:1 111:1 122:1 135:1 155:1 170:1 183:1 202:1 214:1 264:1 320:1 415:1 474:1 519:1 571:1 650:1 711:1 762:1 838:1 
0.34603793762557317 3:1 6:1 12:1 16:1 19:1 22:1 27:1 31:1 34:1 39:1 42:1 47:1 58:1 72:1 96:1 111:1 122:1 135:1 155:1 170:1 183:1 202:1 215:1 264:1 320:1 415:1 474:1 519:1 571:1 650:1 711:1 762:1 839:1 
-1 3:1 6:1 12:1 16:1 19:1 22:1 27:1 31:1 34:1 39:1 43:1 47:1 58:1 72:1 96:1 111:1 122:1 135:1 155:1 170:1 183:1 203:1 219:1 264:1 320:1 415:1 474:1 519:1 571:1 650:1 711:1 763:1 843:1 
-1 3:1 6:1 12:1 16:1 19:1 22:1 27:1 31:1 34:1 40:1 43:1 45:1 58:1 72:1 96:1 111:1 122:1 135:1 155:1 170:1 184:1 207:1 217:1 264:1 320:1 415:1 474:1 519:1 571:1 650:1 712:1 767:1 857:1 
1 3:1 6:1 12:1 16:1 19:1 22:1 27:1 31:1 34:1 40:1 43:1 46:1 58:1 72:1 96:1 111:1 122:1 135:1 155:1 170:1 184:1 207:1 218:1 264:1 320:1 415:1 474:1 519:1 571:1 650:1 712:1 767:1 858:1 
-1 3:1 6:1 12:1 16:1 19:1 22:1 27:1 31:1 34:1 40:1 43:1 47:1 58:1 72:1 96:1 111:1 122:1 135:1 155:1 170:1 184:1 207:1 219:1 264:1 320:1 415:1 474:1 519:1 571:1 650:1 712:1 767:1 859:1 
-0.64125493651256038 3:1 6:1 12:1 16:1 19:1 22:1 27:1 31:1 34:1 40:1 44:1 45:1 58:1 72:1 96:1 111:1 122:1 135:1 155:1 170:1 184:1 208:1 221:1 264:1 320:1 415:1 474:1 519:1 571:1 650:1 712:1 768:1 861:1 
1 3:1 6:1 12:1 16:1 19:1 22:1 27:1 31:1 34:1 40:1 44:1 48:1 58:1 72:1 96:1 111:1 122:1 135:1 155:1 170:1 184:1 208:1 224:1 264:1 320:1 415:1 474:1 519:1 571:1 650:1 712:1 768:1 864:1 
-0.21455830810125673 3:1 7:1 9:1 16:1 19:1 22:1 27:1 31:1 34:1 40:1 43:1 45:1 59:1 73:1 84:1 111:1 122:1 135:1 155:1 170:1 184:1 207:1 217:1 265:1 324:1 367:1 474:1 519:1 571:1 650:1 712:1 767:1 857:1 
-0.04153043492895761 3:1 7:1 9:1 16:1 19:1 22:1 27:1 31:1 34:1 40:1 43:1 46:1 59:1 73:1 84:1 111:1 122:1 135:1 155:1 170:1 184:1 207:1 218:1 265:1 324:1 367:1 474:1 519:1 571:1 650:1 712:1 767:1 858:1 
1 3:1 7:1 9:1 16:1 19:1 22:1 27:1 31:1 34:1 40:1 43:1 47:1 59:1 73:1 84:1 111:1 122:1 135:1 155:1 170:1 184:1 207:1 219:1 265:1 324:1 367:1 474:1 519:1 571:1 650:1 712:1 767:1 859:1 
-1 3:1 7:1 9:1 16:1 19:1 22:1 27:1 31:1 34:1 40:1 44:1 46:1 59:1 73:1 84:1 111:1 122:1 135:1 155:1 170:1 184:1 208:1 222:1 265:1 324:1 367:1 474:1 519:1 571:1 650:1 712:1 768:1 862:1 
-1 3:1 7:1 9:1 16:1 19:1 22:1 27:1 31:1 34:1 40:1 44:1 47:1 59:1 73:1 84:1 111:1 122:1 135:1 155:1 170:1 184:1 208:1 223:1 265:1 324:1 367:1 474:1 519:1 571:1 650:1 712:1 768:1 863:1 
1 3:1 7:1 9:1 16:1 19:1 22:1 27:1 31:1 34:1 40:1 44:1 48:1 59:1 73:1 84:1 111:1 122:1 135:1 155:1 170:1 184:1 208:1 224:1 265:1 324:1 367:1 474:1 519:1 571:1 650:1 712:1 768:1 864:1 
-1 3:1 7:1 10:1 16:1 19:1 22:1 27:1 31:1 34:1 37:1 42:1 45:1 59:1 74:1 88:1 111:1 122:1 135:1 155:1 170:1 181:1 194:1 213:1 266:1 328:1 383:1 474:1 519:1 571:1 650:1 709:1 754:1 805:1 
-1 3:1 7:1 10:1 16:1 19:1 22:1 27:1 31:1 34:1 37:1 42:1 46:1 59:1 74:1 88:1 111:1 122:1 135:1 155:1 170:1 181:1 194:1 214:1 266:1 328:1 383:1 474:1 519:1 571:1 650:1 709:1 754:1 806:1 
1 3:1 7:1 10:1 16:1 19:1 22:1 27:1 31:1 34:1 37:1 42:1 47:1 59:1 74:1 88:1 111:1 122:1 135:1 155:1 170:1 181:1 194:1 215:1 266:1 328:1 383:1 474:1 519:1 571:1 650:1 709:1 754:1 807:1 
-0.86628982663864751 3:1 7:1 10:1 16:1 19:1 22:1 27:1 31:1 34:1 37:1 42:1 48:1 59:1 74:1 88:1 111:1 122:1 135:1 155:1 170:1 181:1 194:1 216:1 266:1 328:1 383:1 474:1 519:1 571:1 650:1 709:1 754:1 808:1 
-1 3:1 7:1 10:1 16:1 19:1 22:1 27:1 31:1 34:1 37:1 43:1 45:1 59:1 74:1 88:1 111:1 122:1 135:1 155:1 170:1 181:1 195:1 217:1 266:1 328:1 383:1 474:1 519:1 571:1 650:1 709:1 755:1 809:1 
-1 3:1 7:1 10:1 16:1 19:1 22:1 27:1 31:1 34:1 37:1 43:1 46:1 59:1 74:1 88:1 111:1 122:1 135:1 155:1 170:1 181:1 195:1 218:1 266:1 328:1 383:1 474:1 519:1 571:1 650:1 709:1 755:1 810:1 
-1 3:1 7:1 10:1 16:1 19:1 22:1 27:1 31:1 34:1 37:1 43:1 47:1 59:1 74:1 88:1 111:1 122:1 135:1 155:1 170:1 181:1 195:1 219:1 266:1 328:1 383:1 474:1 519:1 571:1 650:1 709:1 755:1 811:1 
-1 3:1 7:1 10:1 16:1 19:1 22:1 27:1 31:1 34:1 37:1 43:1 48:1 59:1 74:1 88:1 111:1 122:1 135:1 155:1 170:1 181:1 195:1 220:1 266:1 328:1 383:1 474:1 519:1 571:1 650:1 709:1 755:1 812:1 
-1 3:1 7:1 10:1 16:1 19:1 22:1 27:1 31:1 34:1 38:1 41:1 45:1 59:1 74:1 88:1 111:1 122:1 135:1 155:1 170:1 182:1 197:1 209:1 266:1 328:1 383:1 474:1 519:1 571:1 650:1 710:1 757:1 817:1 
-1 3:1 7:1 10:1 16:1 19:1 22:1 27:1 31:1 34:1 38:1 41:1 47:1 59:1 74:1 88:1 111:1 122:1 135:1 155:1 170:1 182:1 197:1 211:1 266:1 328:1 383:1 474:1 519:1 571:1 650:1 710:1 757:1 819:1 
1 3:1 7:1 10:1 16:1 19:1 22:1 27:1 31:1 34:1 38:1 41:1 48:1 59:1 74:1 88:1 111:1 122:1 135:1 155:1 170:1 182:1 197:1 212:1 266:1 328:1 383:1 474:1 519:1 571:1 650:1 710:1 757:1 820:1 
-1 3:1 7:1 10:1 16:1 19:1 22:1 27:1 31:1 34:1 38:1 42:1 45:1 59:1 74:1 88:1 111:1 122:1 135:1 155:1 170:1 182:1 198:1 213:1 266:1 328:1 383:1 474:1 519:1 571:1 650:1 710:1 758:1 821:1 
-0.28296283299019814 3:1 7:1 10:1 16:1 19:1 22:1 27:1 31:1 34:1 38:1 42:1 46:1 59:1 74:1 88:1 111:1 122:1 135:1 155:1 170:1 182:1 198:1 214:1 266:1 328:1 383:1 474:1 519:1 571:1 650:1 710:1 758:1 822:1 
-1 3:1 7:1 10:1 16:1 19:1 22:1 27:1 31:1 34:1 38:1 42:1 47:1 59:1 74:1 88:1 111:1 122:1 135:1 155:1 170:1 182:1 198:1 215:1 266:1 328:1 383:1 474:1 519:1 571:1 650:1 710:1 758:1 823:1 
1 3:1 7:1 10:1 16:1 19:1 22:1 27:1 31:1 34:1 38:1 42:1 48:1 59:1 74:1 88:1 111:1 122:1 135:1 155:1 170:1 182:1 198:1 216:1 266:1 328:1 383:1 474:1 519:1 571:1 650:1 710:1 758:1 824:1 
1 3:1 7:1 10:1 16:1 19:1 22:1 27:1 31:1 34:1 38:1 43:1 45:1 59:1 74:1 88:1 111:1 122:1 135:1 155:1 170:1 182:1 199:1 217:1 266:1 328:1 383:1 474:1 519:1 571:1 650:1 710:1 759:1 825:1 
1 3:1 7:1 10:1 16:1 19:1 22:1 27:1 31:1 34:1 38:1 43:1 46:1 59:1 74:1 88:1 111:1 122:1 135:1 155:1 170:1 182:1 199:1 218:1 266:1 328:1 383:1 474:1 519:1 571:1 650:1 710:1 759:1 826:1 
0.43963662679265531 3:1 7:1 10:1 16:1 19:1 22:1 27:1 31:1 34:1 38:1 43:1 47:1 59:1 74:1 88:1 111:1 122:1 135:1 155:1 170:1 182:1 199:1 219:1 266:1 328:1 383:1 474:1 519:1 571:1 650:1 710:1 759:1 827:1 
-1 3:1 7:1 10:1 16:1 19:1 22:1 27:1 31:1 34:1 38:1 43:1 48:1 59:1 74:1 88:1 111:1 122:1 135:1 155:1 170:1 182:1 199:1 220:1 266:1 328:1 383:1 474:1 519:1 571:1 650:1 710:1 759:1 828:1 
-1 3:1 7:1 10:1 16:1 19:1 22:1 27:1 31:1 34:1 38:1 44:1 46:1 59:1 74:1 88:1 111:1 122:1 135:1 155:1 170:1 182:1 200:1 222:1 266:1 328:1 383:1 474:1 519:1 571:1 650:1 710:1 760:1 830:1 
1 3:1 7:1 10:1 16:1 19:1 22:1 27:1 31:1 34:1 38:1 44:1 47:1 59:1 74:1 88:1 111:1 122:1 135:1 155:1 170:1 182:1 200:1 223:1 266:1 328:1 383:1 474:1 519:1 571:1 650:1 710:1 760:1 831:1 
1 3:1 7:1 10:1 16:1 19:1 22:1 27:1 31:1 34:1 39:1 41:1 46:1 59:1 74:1 88:1 111:1 122:1 135:1 155:1 170:1 183:1 201:1 210:1 266:1 328:1 383:1 474:1 519:1 571:1 650:1 711:1 761:1 834:1 
-1 3:1 7:1 10:1 16:1 19:1 22:1 27:1 31:1 34:1 39:1 41:1 47:1 59:1 74:1 88:1 111:1 122:1 135:1 155:1 170:1 183:1 201:1 211:1 266:1 328:1 383:1 474:1 519:1 571:1 650:1 711:1 761:1 835:1 
-1 3:1 7:1 10:1 16:1 19:1 22:1 27:1 31:1 34:1 39:1 41:1 48:1 59:1 74:1 88:1 111:1 122:1 135:1 155:1 170:1 183:1 201:1 212:1 266:1 328:1 383:1 474:1 519:1 571:1 650:1 711:1 761:1 836:1 
-1 3:1 7:1 10:1 16:1 19:1 22:1 27:1 31:1 34:1 39:1 42:1 46:1 59:1 74:1 88:1 111:1 122:1 135:1 155:1 170:1 183:1 202:1 214:1 266:1 328:1 383:1 474:1 519:1 571:1 650:1 711:1 762:1 838:1 
1 3:1 7:1 10:1 16:1 19:1 22:1 27:1 31:1 34:1 39:1 42:1 47:1 59:1 74:1 88:1 111:1 122:1 135:1 155:1 170:1 183:1 202:1 215:1 266:1 328:1 383:1 474:1 519:1 571:1 650:1 711:1 762:1 839:1 
1 3:1 7:1 10:1 16:1 19:1 22:1 27:1 31:1 34:1 39:1 43:1 45:1 59:1 74:1 88:1 111:1 122:1 135:1 155:1 170:1 183:1 203:1 217:1 266:1 328:1 383:1 474:1 519:1 571:1 650:1 711:1 763:1 841:1 
1 3:1 7:1 10:1 16:1 19:1 22:1 27:1 31:1 34:1 39:1 43:1 46:1 59:1 74:1 88:1 111:1 122:1 135:1 155:1 170:1 183:1 203:1 218:1 266:1 328:1 383:1 474:1 519:1 571:1 650:1 711:1 763:1 842:1 
0.91788293914964669 3:1 7:1 10:1 16:1 19:1 22:1 27:1 31:1 34:1 39:1 43:1 47:1 59:1 74:1 88:1 111:1 122:1 135:1 155:1 170:1 183:1 203:1 219:1 266:1 328:1 383:1 474:1 519:1 571:1 650:1 711:1 763:1 843:1 
1 3:1 7:1 10:1 16:1 19:1 22:1 27:1 31:1 34:1 39:1 43:1 48:1 59:1 74:1 88:1 111:1 122:1 135:1 155:1 170:1 183:1 203:1 220:1 266:1 328:1 383:1 474:1 519:1 571:1 650:1 711:1 763:1 844:1 
1 3:1 7:1 10:1 16:1 19:1 22:1 27:1 31:1 34:1 39:1 44:1 45:1 59:1 74:1 88:1 111:1 122:1 135:1 155:1 170:1 183:1 204:1 221:1 266:1 328:1 383:1 474:1 519:1 571:1 650:1 711:1 764:1 845:1 
-0.34865828542622623 3:1 7:1 10:1 16:1 19:1 22:1 27:1 31:1 34:1 39:1 44:1 46:1 59:1 74:1 88:1 111:1 122:1 135:1 155:1 170:1 183:1 204:1 222:1 266:1 328:1 383:1 474:1 519:1 571:1 650:1 711:1 764:1 846:1 
1 3:1 7:1 10:1 16:1 19:1 22:1 27:1 31:1 34:1 39:1 44:1 47:1 59:1 74:1 88:1 111:1 122:1 135:1 155:1 170:1 183:1 204:1 223:1 266:1 328:1 383:1 474:1 519:1 571:1 650:1 711:1 764:1 847:1 
-1 3:1 7:1 10:1 16:1 19:1 22:1 27:1 31:1 34:1 40:1 41:1 46:1 59:1 74:1 88:1 111:1 122:1 135:1 155:1 170:1 184:1 205:1 210:1 266:1 328:1 383:1 474:1 519:1 571:1 650:1 712:1 765:1 850:1 
1 3:1 7:1 10:1 16:1 19:1 22:1 27:1 31:1 34:1 40:1 41:1 47:1 59:1 74:1 88:1 111:1 122:1 135:1 155:1 170:1 184:1 205:1 211:1 266:1 328:1 383:1 474:1 519:1 571:1 650:1 712:1 765:1 851:1 
1 3:1 7:1 10:1 16:1 19:1 22:1 27:1 31:1 34:1 40:1 42:1 46:1 59:1 74:1 88:1 111:1 122:1 135:1 155:1 170:1 184:1 206:1 214:1 266:1 328:1 383:1 474:1 519:1 571:1 650:1 712:1 766:1 854:1 
-1 3:1 7:1 10:1 16:1 19:1 22:1 27:1 31:1 34:1 40:1 42:1 47:1 59:1 74:1 88:1 111:1 122:1 135:1 155:1 170:1 184:1 206:1 215:1 266:1 328:1 383:1 474:1 519:1 571:1 650:1 712:1 766:1 855:1 
1 3:1 7:1 10:1 16:1 19:1 22:1 27:1 31:1 34:1 40:1 42:1 48:1 59:1 74:1 88:1 111:1 122:1 135:1 155:1 170:1 184:1 206:1 216:1 266:1 328:1 383:1 474:1 519:1 571:1 650:1 712:1 766:1 856:1 
1 3:1 7:1 10:1 16:1 19:1 22:1 27:1 31:1 34:1 40:1 43:1 45:1 59:1 74:1 88:1 111:1 122:1 135:1 155:1 170:1 184:1 207:1 217:1 266:1 328:1 383:1 474:1 519:1 571:1 650:1 712:1 767:1 857:1 
-1 3:1 7:1 10:1 16:1 19:1 22:1 27:1 31:1 34:1 40:1 43:1 46:1 59:1 74:1 88:1 111:1 122:1 135:1 155:1 170:1 184:1 207:1 218:1 266:1 328:1 383:1 474:1 519:1 571:1 650:1 712:1 767:1 858:1 
0.64065131730848257 3:1 7:1 10:1 16:1 19:1 22:1 27:1 31:1 34:1 40:1 43:1 47:1 59:1 74:1 88:1 111:1 122:1 135:1 155:1 170:1 184:1 207:1 219:1 266:1 328:1 383:1 474:1 519:1 571:1 650:1 712:1 767:1 859:1 
-1 3:1 7:1 10:1 16:1 19:1 22:1 27:1 31:1 34:1 40:1 44:1 45:1 59:1 74:1 88:1 111:1 122:1 135:1 155:1 170:1 184:1 208:1 221:1 266:1 328:1 383:1 474:1 519:1 571:1 650:1 712:1 768:1 861:1 
1 3:1 7:1 10:1 16:1 19:1 22:1 27:1 31:1 34:1 40:1 44:1 46:1 59:1 74:1 88:1 111:1 122:1 135:1 155:1 170:1 184:1 208:1 222:1 266:1 328:1 383:1 474:1 519:1 571:1 650:1 712:1 768:1 862:1 
1 3:1 7:1 10:1 16:1 19:1 22:1 27:1 31:1 34:1 40:1 44:1 47:1 59:1 74:1 88:1 111:1 122:1 135:1 155:1 170:1 184:1 208:1 223:1 266:1 328:1 383:1 474:1 519:1 571:1 650:1 712:1 768:1 863:1 
1 3:1 7:1 10:1 16:1 19:1 22:1 27:1 31:1 34:1 40:1 44:1 48:1 59:1 74:1 88:1 111:1 122:1 135:1 155:1 170:1 184:1 208:1 224:1 266:1 328:1 383:1 474:1 519:1 571:1 650:1 712:1 768:1 864:1 
1 3:1 7:1 12:1 16:1 19:1 22:1 27:1 31:1 34:1 37:1 41:1 45:1 59:1 76:1 96:1 111:1 122:1 135:1 155:1 170:1 181:1 193:1 209:1 268:1 336:1 415:1 474:1 519:1 571:1 650:1 709:1 753:1 801:1 
0.17830070944147264 3:1 7:1 12:1 16:1 19:1 22:1 27:1 31:1 34:1 37:1 43:1 45:1 59:1 76:1 96:1 111:1 122:1 135:1 155:1 170:1 181:1 195:1 217:1 268:1 336:1 415:1 474:1 519:1 571:1 650:1 709:1 755:1 809:1 
-1 3:1 7:1 12:1 16:1 19:1 22:1 27:1 31:1 34:1 37:1 43:1 48:1 59:1 76:1 96:1 111:1 122:1 135:1 155:1 170:1 181:1 195:1 220:1 268:1 336:1 415:1 474:1 519:1 571:1 650:1 709:1 755:1 812:1 
-1 3:1 7:1 12:1 16:1 19:1 22:1 27:1 31:1 34:1 38:1 41:1 48:1 59:1 76:1 96:1 111:1 122:1 135:1 155:1 170:1 182:1 197:1 212:1 268:1 336:1 415:1 474:1 519:1 571:1 650:1 710:1 757:1 820:1 
-1 3:1 7:1 12:1 16:1 19:1 22:1 27:1 31:1 34:1 38:1 42:1 46:1 59:1 76:1 96:1 111:1 122:1 135:1 155:1 170:1 182:1 198:1 214:1 268:1 336:1 415:1 474:1 519:1 571:1 650:1 710:1 758:1 822:1 
-1 3:1 7:1 12:1 16:1 19:1 22:1 27:1 31:1 34:1 38:1 42:1 48:1 59:1 76:1 96:1 111:1 122:1 135:1 155:1 170:1 182:1 198:1 216:1 268:1 336:1 415:1 474:1 519:1 571:1 650:1 710:1 758:1 824:1 
1 3:1 7:1 12:1 16:1 19:1 22:1 27:1 31:1 34:1 38:1 43:1 47:1 59:1 76:1 96:1 111:1 122:1 135:1 155:1 170:1 182:1 199:1 219:1 268:1 336:1 415:1 474:1 519:1 571:1 650:1 710:1 759:1 827:1 
-1 3:1 7:1 12:1 16:1 19:1 22:1 27:1 31:1 34:1 38:1 44:1 46:1 59:1 76:1 96:1 111:1 122:1 135:1 155:1 170:1 182:1 200:1 222:1 268:1 336:1 415:1 474:1 519:1 571:1 650:1 710:1 760:1 830:1 
-1 3:1 7:1 12:1 16:1 19:1 22:1 27:1 31:1 34:1 39:1 41:1 47:1 59:1 76:1 96:1 111:1 122:1 135:1 155:1 170:1 183:1 201:1 211:1 268:1 336:1 415:1 474:1 519:1 571:1 650:1 711:1 761:1 835:1 
1 3:1 7:1 12:1 16:1 19:1 22:1 27:1 31:1 34:1 39:1 42:1 45:1 59:1 76:1 96:1 111:1 122:1 135:1 155:1 170:1 183:1 202:1 213:1 268:1 336:1 415:1 474:1 519:1 571:1 650:1 711:1 762:1 837:1 
-1 3:1 7:1 12:1 16:1 19:1 22:1 27:1 31:1 34:1 39:1 43:1 45:1 59:1 76:1 96:1 111:1 122:1 135:1 155:1 170:1 183:1 203:1 217:1 268:1 336:1 415:1 474:1 519:1 571:1 650:1 711:1 763:1 841:1 
1 3:1 7:1 12:1 16:1 19:1 22:1 27:1 31:1 34:1 39:1 43:1 46:1 59:1 76:1 96:1 111:1 122:1 135:1 155:1 170:1 183:1 203:1 218:1 268:1 336:1 415:1 474:1 519:1 571:1 650:1 711:1 763:1 842:1 
1 3:1 7:1 12:1 16:1 19:1 22:1 27:1 31:1 34:1 39:1 43:1 47:1 59:1 76:1 96:1 111:1 122:1 135:1 155:1 170:1 183:1 203:1 219:1 268:1 336:1 415:1 474:1 519:1 571:1 650:1 711:1 763:1 843:1 
-0.31576202775154621 3:1 7:1 12:1 16:1 19:1 22:1 27:1 31:1 34:1 39:1 44:1 46:1 59:1 76:1 96:1 111:1 122:1 135:1 155:1 170:1 183:1 204:1 222:1 268:1 336:1 415:1 474:1 519:1 571:1 650:1 711:1 764:1 846:1 
1 3:1 7:1 12:1 16:1 19:1 22:1 27:1 31:1 34:1 40:1 42:1 45:1 59:1 76:1 96:1 111:1 122:1 135:1 155:1 170:1 184:1 206:1 213:1 268:1 336:1 415:1 474:1 519:1 571:1 650:1 712:1 766:1 853:1 
1 3:1 7:1 12:1 16:1 19:1 22:1 27:1 31:1 34:1 40:1 42:1 46:1 59:1 76:1 96:1 111:1 122:1 135:1 155:1 170:1 184:1 206:1 214:1 268:1 336:1 415:1 474:1 519:1 571:1 650:1 712:1 766:1 854:1 
-1 3:1 7:1 12:1 16:1 19:1 22:1 27:1 31:1 34:1 40:1 42:1 48:1 59:1 76:1 96:1 111:1 122:1 135:1 155:1 170:1 184:1 206:1 216:1 268:1 336:1 415:1 474:1 519:1 571:1 650:1 712:1 766:1 856:1 
1 3:1 7:1 12:1 16:1 19:1 22:1 27:1 31:1 34:1 40:1 43:1 45:1 59:1 76:1 96:1 111:1 122:1 135:1 155:1 170:1 184:1 207:1 217:1 268:1 336:1 415:1 474:1 519:1 571:1 650:1 712:1 767:1 857:1 
1 3:1 7:1 12:1 16:1 19:1 22:1 27:1 31:1 34:1 40:1 43:1 46:1 59:1 76:1 96:1 111:1 122:1 135:1 155:1 170:1 184:1 207:1 218:1 268:1 336:1 415:1 474:1 519:1 571:1 650:1 712:1 767:1 858:1 
-1 3:1 7:1 12:1 16:1 19:1 22:1 27:1 31:1 34:1 40:1 43:1 47:1 59:1 76:1 96:1 111:1 122:1 135:1 155:1 170:1 184:1 207:1 219:1 268:1 336:1 415:1 474:1 519:1 571:1 650:1 712:1 767:1 859:1 
1 3:1 7:1 12:1 16:1 19:1 22:1 27:1 31:1 34:1 40:1 44:1 48:1 59:1 76:1 96:1 111:1 122:1 135:1 155:1 170:1 184:1 208:1 224:1 268:1 336:1 415:1 474:1 519:1 571:1 650:1 712:1 768:1 864:1 
1 3:1 8:1 9:1 16:1 19:1 22:1 27:1 31:1 34:1 40:1 41:1 45:1 60:1 77:1 84:1 111:1 122:1 135:1 155:1 170:1 184:1 205:1 209:1 269:1 340:1 367:1 474:1 519:1 571:1 650:1 712:1 765:1 849:1 
-0.21883908249710529 3:1 8:1 9:1 16:1 19:1 22:1 27:1 31:1 34:1 40:1 43:1 47:1 60:1 77:1 84:1 111:1 122:1 135:1 155:1 170:1 184:1 207:1 219:1 269:1 340:1 367:1 474:1 519:1 571:1 650:1 712:1 767:1 859:1 
1 3:1 8:1 10:1 16:1 19:1 22:1 27:1 31:1 34:1 37:1 41:1 47:1 60:1 78:1 88:1 111:1 122:1 135:1 155:1 170:1 181:1 193:1 211:1 270:1 344:1 383:1 474:1 519:1 571:1 650:1 709:1 753:1 803:1 
-1 3:1 8:1 10:1 16:1 19:1 22:1 27:1 31:1 34:1 37:1 41:1 48:1 60:1 78:1 88:1 111:1 122:1 135:1 155:1 170:1 181:1 193:1 212:1 270:1 344:1 383:1 474:1 519:1 571:1 650:1 709:1 753:1 804:1 
-0.8046486286466985 3:1 8:1 10:1 16:1 19:1 22:1 27:1 31:1 34:1 37:1 43:1 45:1 60:1 78:1 88:1 111:1 122:1 135:1 155:1 170:1 181:1 195:1 217:1 270:1 344:1 383:1 474:1 519:1 571:1 650:1 709:1 755:1 809:1 
-1 3:1 8:1 10:1 16:1 19:1 22:1 27:1 31:1 34:1 37:1 43:1 46:1 60:1 78:1 88:1 111:1 122:1 135:1 155:1 170:1 181:1 195:1 218:1 270:1 344:1 383:1 474:1 519:1 571:1 650:1 709:1 755:1 810:1 
1 3:1 8:1 10:1 16:1 19:1 22:1 27:1 31:1 34:1 37:1 43:1 47:1 60:1 78:1 88:1 111:1 122:1 135:1 155:1 170:1 181:1 195:1 219:1 270:1 344:1 383:1 474:1 519:1 571:1 650:1 709:1 755:1 811:1 
1 3:1 8:1 10:1 16:1 19:1 22:1 27:1 31:1 34:1 38:1 41:1 46:1 60:1 78:1 88:1 111:1 122:1 135:1 155:1 170:1 182:1 197:1 210:1 270:1 344:1 383:1 474:1 519:1 571:1 650:1 710:1 757:1 818:1 
1 3:1 8:1 10:1 16:1 19:1 22:1 27:1 31:1 34:1 38:1 42:1 46:1 60:1 78:1 88:1 111:1 122:1 135:1 155:1 170:1 182:1 198:1 214:1 270:1 344:1 383:1 474:1 519:1 571:1 650:1 710:1 758:1 822:1 
1 3:1 8:1 10:1 16:1 19:1 22:1 27:1 31:1 34:1 38:1 43:1 48:1 60:1 78:1 88:1 111:1 122:1 135:1 155:1 170:1 182:1 199:1 220:1 270:1 344:1 383:1 474:1 519:1 571:1 650:1 710:1 759:1 828:1 
-1 3:1 8:1 10:1 16:1 19:1 22:1 27:1 31:1 34:1 38:1 44:1 47:1 60:1 78:1 88:1 111:1 122:1 135:1 155:1 170:1 182:1 200:1 223:1 270:1 344:1 383:1 474:1 519:1 571:1 650:1 710:1 760:1 831:1 
-1 3:1 8:1 10:1 16:1 19:1 22:1 27:1 31:1 34:1 38:1 44:1 48:1 60:1 78:1 88:1 111:1 122:1 135:1 155:1 170:1 182:1 200:1 224:1 270:1 344:1 383:1 474:1 519:1 571:1 650:1 710:1 760:1 832:1 
-1 3:1 8:1 10:1 16:1 19:1 22:1 27:1 31:1 34:1 39:1 41:1 45:1 60:1 78:1 88:1 111:1 122:1 135:1 155:1 170:1 183:1 201:1 209:1 270:1 344:1 383:1 474:1 519:1 571:1 650:1 711:1 761:1 833:1 
1 3:1 8:1 10:1 16:1 19:1 22:1 27:1 31:1 34:1 39:1 41:1 47:1 60:1 78:1 88:1 111:1 122:1 135:1 155:1 170:1 183:1 201:1 211:1 270:1 344:1 383:1 474:1 519:1 571:1 650:1 711:1 761:1 835:1 
-1 3:1 8:1 10:1 16:1 19:1 22:1 27:1 31:1 34:1 39:1 42:1 46:1 60:1 78:1 88:1 111:1 122:1 135:1 155:1 170:1 183:1 202:1 214:1 270:1 344:1 383:1 474:1 519:1 571:1 650:1 711:1 762:1 838:1 
-1 3:1 8:1 10:1 16:1 19:1 22:1 27:1 31:1 34:1 39:1 43:1 45:1 60:1 78:1 88:1 111:1 122:1 135:1 155:1 170:1 183:1 203:1 217:1 270:1 344:1 383:1 474:1 519:1 571:1 650:1 711:1 763:1 841:1 
1 3:1 8:1 10:1 16:1 19:1 22:1 27:1 31:1 34:1 39:1 43:1 46:1 60:1 78:1 88:1 111:1 122:1 135:1 155:1 170:1 183:1 203:1 218:1 270:1 344:1 383:1 474:1 519:1 571:1 650:1 711:1 763:1 842:1 
1 3:1 8:1 10:1 16:1 19:1 22:1 27:1 31:1 34:1 39:1 44:1 46:1 60:1 78:1 88:1 111:1 122:1 135:1 155:1 170:1 183:1 204:1 222:1 270:1 344:1 383:1 474:1 519:1 571:1 650:1 711:1 764:1 846:1 
-1 3:1 8:1 10:1 16:1 19:1 22:1 27:1 31:1 34:1 40:1 41:1 46:1 60:1 78:1 88:1 111:1 122:1 135:1 155:1 170:1 184:1 205:1 210:1 270:1 344:1 383:1 474:1 519:1 571:1 650:1 712:1 765:1 850:1 
1 3:1 8:1 10:1 16:1 19:1 22:1 27:1 31:1 34:1 40:1 42:1 45:1 60:1 78:1 88:1 111:1 122:1 135:1 155:1 170:1 184:1 206:1 213:1 270:1 344:1 383:1 474:1 519:1 571:1 650:1 712:1 766:1 853:1 
-1 3:1 8:1 10:1 16:1 19:1 22:1 27:1 31:1 34:1 40:1 42:1 46:1 60:1 78:1 88:1 111:1 122:1 135:1 155:1 170:1 184:1 206:1 214:1 270:1 344:1 383:1 474:1 519:1 571:1 650:1 712:1 766:1 854:1 
1 3:1 8:1 10:1 16:1 19:1 22:1 27:1 31:1 34:1 40:1 42:1 48:1 60:1 78:1 88:1 111:1 122:1 135:1 155:1 170:1 184:1 206:1 216:1 270:1 344:1 383:1 474:1 519:1 571:1 650:1 712:1 766:1 856:1 
1 3:1 8:1 10:1 16:1 19:1 22:1 27:1 31:1 34:1 40:1 43:1 46:1 60:1 78:1 88:1 111:1 122:1 135:1 155:1 170:1 184:1 207:1 218:1 270:1 344:1 383:1 474:1 519:1 571:1 650:1 712:1 767:1 858:1 
-1 3:1 8:1 10:1 16:1 19:1 22:1 27:1 31:1 34:1 40:1 43:1 47:1 60:1 78:1 88:1 111:1 122:1 135:1 155:1 170:1 184:1 207:1 219:1 270:1 344:1 383:1 474:1 519:1 571:1 650:1 712:1 767:1 859:1 
0.35203176652155288 3:1 8:1 10:1 16:1 19:1 22:1 27:1 31:1 34:1 40:1 44:1 46:1 60:1 78:1 88:1 111:1 122:1 135:1 155:1 170:1 184:1 208:1 222:1 270:1 344:1 383:1 474:1 519:1 571:1 650:1 712:1 768:1 862:1 
-1 3:1 8:1 10:1 16:1 19:1 22:1 27:1 31:1 34:1 40:1 44:1 47:1 60:1 78:1 88:1 111:1 122:1 135:1 155:1 170:1 184:1 208:1 223:1 270:1 344:1 383:1 474:1 519:1 571:1 650:1 712:1 768:1 863:1 
1 3:1 8:1 10:1 16:1 19:1 22:1 27:1 31:1 34:1 40:1 44:1 48:1 60:1 78:1 88:1 111:1 122:1 135:1 155:1 170:1 184:1 208:1 224:1 270:1 344:1 383:1 474:1 519:1 571:1 650:1 712:1 768:1 864:1 
1 3:1 8:1 12:1 16:1 19:1 22:1 27:1 31:1 34:1 37:1 41:1 46:1 60:1 80:1 96:1 111:1 122:1 135:1 155:1 170:1 181:1 193:1 210:1 272:1 352:1 415:1 474:1 519:1 571:1 650:1 709:1 753:1 802:1 
-1 3:1 8:1 12:1 16:1 19:1 22:1 27:1 31:1 34:1 37:1 42:1 45:1 60:1 80:1 96:1 111:1 122:1 135:1 155:1 170:1 181:1 194:1 213:1 272:1 352:1 415:1 474:1 519:1 571:1 650:1 709:1 754:1 805:1 
1 3:1 8:1 12:1 16:1 19:1 22:1 27:1 31:1 34:1 37:1 42:1 48:1 60:1 80:1 96:1 111:1 122:1 135:1 155:1 170:1 181:1 194:1 216:1 272:1 352:1 415:1 474:1 519:1 571:1 650:1 709:1 754:1 808:1 
1 3:1 8:1 12:1 16:1 19:1 22:1 27:1 31:1 34:1 37:1 43:1 45:1 60:1 80:1 96:1 111:1 122:1 135:1 155:1 170:1 181:1 195:1 217:1 272:1 352:1 415:1 474:1 519:1 571:1 650:1 709:1 755:1 809:1 
1 3:1 8:1 12:1 16:1 19:1 22:1 27:1 31:1 34:1 37:1 43:1 47:1 60:1 80:1 96:1 111:1 122:1 135:1 155:1 170:1 181:1 195:1 219:1 272:1 352:1 415:1 474:1 519:1 571:1 650:1 709:1 755:1 811:1 
-1 3:1 8:1 12:1 16:1 19:1 22:1 27:1 31:1 34:1 38:1 43:1 45:1 60:1 80:1 96:1 111:1 122:1 135:1 155:1 170:1 182:1 199:1 217:1 272:1 352:1 415:1 474:1 519:1 571:1 650:1 710:1 759:1 825:1 
-1 3:1 8:1 12:1 16:1 19:1 22:1 27:1 31:1 34:1 38:1 43:1 46:1 60:1 80:1 96:1 111:1 122:1 135:1 155:1 170:1 182:1 199:1 218:1 272:1 352:1 415:1 474:1 519:1 571:1 650:1 710:1 759:1 826:1 
