svm_type epsilon_svr
kernel_type rbf
gamma 0.01
nr_class 2
total_sv 337
rho 0.043970395943176151
probA 0.13882506557468005
SV
-1 1:1 5:1 10:1 16:1 19:1 21:1 27:1 31:1 36:1 40:1 41:1 45:1 49:1 66:1 88:1 111:1 121:1 131:1 155:1 172:1 192:1 205:1 209:1 226:1 296:1 383:1 473:1 515:1 555:1 652:1 720:1 797:1 849:1 
0.44997883568617791 1:1 5:1 10:1 16:1 19:1 21:1 27:1 31:1 36:1 40:1 41:1 47:1 49:1 66:1 88:1 111:1 121:1 131:1 155:1 172:1 192:1 205:1 211:1 226:1 296:1 383:1 473:1 515:1 555:1 652:1 720:1 797:1 851:1 
-1 1:1 5:1 10:1 16:1 19:1 21:1 27:1 31:1 36:1 40:1 44:1 45:1 49:1 66:1 88:1 111:1 121:1 131:1 155:1 172:1 192:1 208:1 221:1 226:1 296:1 383:1 473:1 515:1 555:1 652:1 720:1 800:1 861:1 
-1 1:1 5:1 10:1 16:1 19:1 21:1 27:1 31:1 36:1 40:1 44:1 47:1 49:1 66:1 88:1 111:1 121:1 131:1 155:1 172:1 192:1 208:1 223:1 226:1 296:1 383:1 473:1 515:1 555:1 652:1 720:1 800:1 863:1 
1 1:1 5:1 10:1 16:1 19:1 21:1 27:1 31:1 36:1 40:1 44:1 48:1 49:1 66:1 88:1 111:1 121:1 131:1 155:1 172:1 192:1 208:1 224:1 226:1 296:1 383:1 473:1 515:1 555:1 652:1 720:1 800:1 864:1 
1 1:1 5:1 12:1 16:1 19:1 21:1 27:1 31:1 36:1 38:1 41:1 46:1 49:1 68:1 96:1 111:1 121:1 131:1 155:1 172:1 190:1 197:1 210:1 228:1 304:1 415:1 473:1 515:1 555:1 652:1 718:1 789:1 818:1 
1 1:1 5:1 12:1 16:1 19:1 21:1 27:1 31:1 36:1 38:1 41:1 47:1 49:1 68:1 96:1 111:1 121:1 131:1 155:1 172:1 190:1 197:1 211:1 228:1 304:1 415:1 473:1 515:1 555:1 652:1 718:1 789:1 819:1 
-0.80404380006343923 1:1 5:1 12:1 16:1 19:1 21:1 27:1 31:1 36:1 38:1 41:1 48:1 49:1 68:1 96:1 111:1 121:1 131:1 155:1 172:1 190:1 197:1 212:1 228:1 304:1 415:1 473:1 515:1 555:1 652:1 718:1 789:1 820:1 
1 1:1 5:1 12:1 16:1 19:1 21:1 27:1 31:1 36:1 40:1 41:1 45:1 49:1 68:1 96:1 111:1 121:1 131:1 155:1 172:1 192:1 205:1 209:1 228:1 304:1 415:1 473:1 515:1 555:1 652:1 720:1 797:1 849:1 
-1 1:1 5:1 12:1 16:1 19:1 21:1 27:1 31:1 36:1 40:1 44:1 45:1 49:1 68:1 96:1 111:1 121:1 131:1 155:1 172:1 192:1 208:1 221:1 228:1 304:1 415:1 473:1 515:1 555:1 652:1 720:1 800:1 861:1 
-1 1:1 5:1 12:1 16:1 19:1 21:1 27:1 31:1 36:1 40:1 44:1 46:1 49:1 68:1 96:1 111:1 121:1 131:1 155:1 172:1 192:1 208:1 222:1 228:1 304:1 415:1 473:1 515:1 555:1 652:1 720:1 800:1 862:1 
-1 1:1 5:1 12:1 16:1 19:1 21:1 27:1 31:1 36:1 40:1 44:1 47:1 49:1 68:1 96:1 111:1 121:1 131:1 155:1 172:1 192:1 208:1 223:1 228:1 304:1 415:1 473:1 515:1 555:1 652:1 720:1 800:1 863:1 
1 1:1 5:1 12:1 16:1 19:1 21:1 27:1 31:1 36:1 40:1 44:1 48:1 49:1 68:1 96:1 111:1 121:1 131:1 155:1 172:1 192:1 208:1 224:1 228:1 304:1 415:1 473:1 515:1 555:1 652:1 720:1 800:1 864:1 
-1 1:1 6:1 10:1 16:1 19:1 21:1 27:1 31:1 36:1 40:1 41:1 46:1 50:1 70:1 88:1 111:1 121:1 131:1 155:1 172:1 192:1 205:1 210:1 230:1 312:1 383:1 473:1 515:1 555:1 652:1 720:1 797:1 850:1 
-1 1:1 6:1 10:1 16:1 19:1 21:1 27:1 31:1 36:1 40:1 41:1 47:1 50:1 70:1 88:1 111:1 121:1 131:1 155:1 172:1 192:1 205:1 211:1 230:1 312:1 383:1 473:1 515:1 555:1 652:1 720:1 797:1 851:1 
-0.19168192521114077 1:1 6:1 10:1 16:1 19:1 21:1 27:1 31:1 36:1 40:1 44:1 45:1 50:1 70:1 88:1 111:1 121:1 131:1 155:1 172:1 192:1 208:1 221:1 230:1 312:1 383:1 473:1 515:1 555:1 652:1 720:1 800:1 861:1 
0.86900293126003092 1:1 6:1 10:1 16:1 19:1 21:1 27:1 31:1 36:1 40:1 44:1 48:1 50:1 70:1 88:1 111:1 121:1 131:1 155:1 172:1 192:1 208:1 224:1 230:1 312:1 383:1 473:1 515:1 555:1 652:1 720:1 800:1 864:1 
-1 1:1 6:1 12:1 16:1 19:1 21:1 27:1 31:1 36:1 38:1 41:1 45:1 50:1 72:1 96:1 111:1 121:1 131:1 155:1 172:1 190:1 197:1 209:1 232:1 320:1 415:1 473:1 515:1 555:1 652:1 718:1 789:1 817:1 
1 1:1 6:1 12:1 16:1 19:1 21:1 27:1 31:1 36:1 38:1 41:1 46:1 50:1 72:1 96:1 111:1 121:1 131:1 155:1 172:1 190:1 197:1 210:1 232:1 320:1 415:1 473:1 515:1 555:1 652:1 718:1 789:1 818:1 
-1 1:1 6:1 12:1 16:1 19:1 21:1 27:1 31:1 36:1 38:1 41:1 47:1 50:1 72:1 96:1 111:1 121:1 131:1 155:1 172:1 190:1 197:1 211:1 232:1 320:1 415:1 473:1 515:1 555:1 652:1 718:1 789:1 819:1 
-1 1:1 6:1 12:1 16:1 19:1 21:1 27:1 31:1 36:1 38:1 41:1 48:1 50:1 72:1 96:1 111:1 121:1 131:1 155:1 172:1 190:1 197:1 212:1 232:1 320:1 415:1 473:1 515:1 555:1 652:1 718:1 789:1 820:1 
-1 1:1 6:1 12:1 16:1 19:1 21:1 27:1 31:1 36:1 40:1 41:1 45:1 50:1 72:1 96:1 111:1 121:1 131:1 155:1 172:1 192:1 205:1 209:1 232:1 320:1 415:1 473:1 515:1 555:1 652:1 720:1 797:1 849:1 
1 1:1 6:1 12:1 16:1 19:1 21:1 27:1 31:1 36:1 40:1 41:1 46:1 50:1 72:1 96:1 111:1 121:1 131:1 155:1 172:1 192:1 205:1 210:1 232:1 320:1 415:1 473:1 515:1 555:1 652:1 720:1 797:1 850:1 
1 1:1 6:1 12:1 16:1 19:1 21:1 27:1 31:1 36:1 40:1 41:1 47:1 50:1 72:1 96:1 111:1 121:1 131:1 155:1 172:1 192:1 205:1 211:1 232:1 320:1 415:1 473:1 515:1 555:1 652:1 720:1 797:1 851:1 
0.68388719353036742 1:1 6:1 12:1 16:1 19:1 21:1 27:1 31:1 36:1 40:1 41:1 48:1 50:1 72:1 96:1 111:1 121:1 131:1 155:1 172:1 192:1 205:1 212:1 232:1 320:1 415:1 473:1 515:1 555:1 652:1 720:1 797:1 852:1 
1 1:1 6:1 12:1 16:1 19:1 21:1 27:1 31:1 36:1 40:1 44:1 46:1 50:1 72:1 96:1 111:1 121:1 131:1 155:1 172:1 192:1 208:1 222:1 232:1 320:1 415:1 473:1 515:1 555:1 652:1 720:1 800:1 862:1 
1 1:1 6:1 12:1 16:1 19:1 21:1 27:1 31:1 36:1 40:1 44:1 48:1 50:1 72:1 96:1 111:1 121:1 131:1 155:1 172:1 192:1 208:1 224:1 232:1 320:1 415:1 473:1 515:1 555:1 652:1 720:1 800:1 864:1 
1 1:1 7:1 10:1 16:1 19:1 21:1 27:1 31:1 36:1 40:1 41:1 45:1 51:1 74:1 88:1 111:1 121:1 131:1 155:1 172:1 192:1 205:1 209:1 234:1 328:1 383:1 473:1 515:1 555:1 652:1 720:1 797:1 849:1 
-0.30552056743491118 1:1 7:1 10:1 16:1 19:1 21:1 27:1 31:1 36:1 40:1 41:1 46:1 51:1 74:1 88:1 111:1 121:1 131:1 155:1 172:1 192:1 205:1 210:1 234:1 328:1 383:1 473:1 515:1 555:1 652:1 720:1 797:1 850:1 
-1 1:1 7:1 10:1 16:1 19:1 21:1 27:1 31:1 36:1 40:1 41:1 47:1 51:1 74:1 88:1 111:1 121:1 131:1 155:1 172:1 192:1 205:1 211:1 234:1 328:1 383:1 473:1 515:1 555:1 652:1 720:1 797:1 851:1 
-1 1:1 7:1 10:1 16:1 19:1 21:1 27:1 31:1 36:1 40:1 41:1 48:1 51:1 74:1 88:1 111:1 121:1 131:1 155:1 172:1 192:1 205:1 212:1 234:1 328:1 383:1 473:1 515:1 555:1 652:1 720:1 797:1 852:1 
1 1:1 7:1 10:1 16:1 19:1 21:1 27:1 31:1 36:1 40:1 44:1 45:1 51:1 74:1 88:1 111:1 121:1 131:1 155:1 172:1 192:1 208:1 221:1 234:1 328:1 383:1 473:1 515:1 555:1 652:1 720:1 800:1 861:1 
0.56257060029403738 1:1 7:1 10:1 16:1 19:1 21:1 27:1 31:1 36:1 40:1 44:1 46:1 51:1 74:1 88:1 111:1 121:1 131:1 155:1 172:1 192:1 208:1 222:1 234:1 328:1 383:1 473:1 515:1 555:1 652:1 720:1 800:1 862:1 
-1 1:1 7:1 10:1 16:1 19:1 21:1 27:1 31:1 36:1 40:1 44:1 47:1 51:1 74:1 88:1 111:1 121:1 131:1 155:1 172:1 192:1 208:1 223:1 234:1 328:1 383:1 473:1 515:1 555:1 652:1 720:1 800:1 863:1 
0.16609699599215649 1:1 7:1 10:1 16:1 19:1 21:1 27:1 31:1 36:1 40:1 44:1 48:1 51:1 74:1 88:1 111:1 121:1 131:1 155:1 172:1 192:1 208:1 224:1 234:1 328:1 383:1 473:1 515:1 555:1 652:1 720:1 800:1 864:1 
-1 1:1 7:1 12:1 16:1 19:1 21:1 27:1 31:1 36:1 38:1 41:1 45:1 51:1 76:1 96:1 111:1 121:1 131:1 155:1 172:1 190:1 197:1 209:1 236:1 336:1 415:1 473:1 515:1 555:1 652:1 718:1 789:1 817:1 
0.42374759163480841 1:1 7:1 12:1 16:1 19:1 21:1 27:1 31:1 36:1 38:1 41:1 46:1 51:1 76:1 96:1 111:1 121:1 131:1 155:1 172:1 190:1 197:1 210:1 236:1 336:1 415:1 473:1 515:1 555:1 652:1 718:1 789:1 818:1 
1 1:1 7:1 12:1 16:1 19:1 21:1 27:1 31:1 36:1 38:1 41:1 47:1 51:1 76:1 96:1 111:1 121:1 131:1 155:1 172:1 190:1 197:1 211:1 236:1 336:1 415:1 473:1 515:1 555:1 652:1 718:1 789:1 819:1 
1 1:1 7:1 12:1 16:1 19:1 21:1 27:1 31:1 36:1 38:1 41:1 48:1 51:1 76:1 96:1 111:1 121:1 131:1 155:1 172:1 190:1 197:1 212:1 236:1 336:1 415:1 473:1 515:1 555:1 652:1 718:1 789:1 820:1 
0.55236337149966241 1:1 7:1 12:1 16:1 19:1 21:1 27:1 31:1 36:1 38:1 42:1 45:1 51:1 76:1 96:1 111:1 121:1 131:1 155:1 172:1 190:1 198:1 213:1 236:1 336:1 415:1 473:1 515:1 555:1 652:1 718:1 790:1 821:1 
1 1:1 7:1 12:1 16:1 19:1 21:1 27:1 31:1 36:1 38:1 42:1 46:1 51:1 76:1 96:1 111:1 121:1 131:1 155:1 172:1 190:1 198:1 214:1 236:1 336:1 415:1 473:1 515:1 555:1 652:1 718:1 790:1 822:1 
-1 1:1 7:1 12:1 16:1 19:1 21:1 27:1 31:1 36:1 38:1 42:1 48:1 51:1 76:1 96:1 111:1 121:1 131:1 155:1 172:1 190:1 198:1 216:1 236:1 336:1 415:1 473:1 515:1 555:1 652:1 718:1 790:1 824:1 
-1 1:1 7:1 12:1 16:1 19:1 21:1 27:1 31:1 36:1 38:1 43:1 48:1 51:1 76:1 96:1 111:1 121:1 131:1 155:1 172:1 190:1 199:1 220:1 236:1 336:1 415:1 473:1 515:1 555:1 652:1 718:1 791:1 828:1 
1 1:1 7:1 12:1 16:1 19:1 21:1 27:1 31:1 36:1 38:1 44:1 47:1 51:1 76:1 96:1 111:1 121:1 131:1 155:1 172:1 190:1 200:1 223:1 236:1 336:1 415:1 473:1 515:1 555:1 652:1 718:1 792:1 831:1 
-1 1:1 7:1 12:1 16:1 19:1 21:1 27:1 31:1 36:1 38:1 44:1 48:1 51:1 76:1 96:1 111:1 121:1 131:1 155:1 172:1 190:1 200:1 224:1 236:1 336:1 415:1 473:1 515:1 555:1 652:1 718:1 792:1 832:1 
1 1:1 7:1 12:1 16:1 19:1 21:1 27:1 31:1 36:1 40:1 41:1 45:1 51:1 76:1 96:1 111:1 121:1 131:1 155:1 172:1 192:1 205:1 209:1 236:1 336:1 415:1 473:1 515:1 555:1 652:1 720:1 797:1 849:1 
1 1:1 7:1 12:1 16:1 19:1 21:1 27:1 31:1 36:1 40:1 41:1 46:1 51:1 76:1 96:1 111:1 121:1 131:1 155:1 172:1 192:1 205:1 210:1 236:1 336:1 415:1 473:1 515:1 555:1 652:1 720:1 797:1 850:1 
-1 1:1 7:1 12:1 16:1 19:1 21:1 27:1 31:1 36:1 40:1 41:1 47:1 51:1 76:1 96:1 111:1 121:1 131:1 155:1 172:1 192:1 205:1 211:1 236:1 336:1 415:1 473:1 515:1 555:1 652:1 720:1 797:1 851:1 
1 1:1 7:1 12:1 16:1 19:1 21:1 27:1 31:1 36:1 40:1 41:1 48:1 51:1 76:1 96:1 111:1 121:1 131:1 155:1 172:1 192:1 205:1 212:1 236:1 336:1 415:1 473:1 515:1 555:1 652:1 720:1 797:1 852:1 
-1 1:1 7:1 12:1 16:1 19:1 21:1 27:1 31:1 36:1 40:1 42:1 45:1 51:1 76:1 96:1 111:1 121:1 131:1 155:1 172:1 192:1 206:1 213:1 236:1 336:1 415:1 473:1 515:1 555:1 652:1 720:1 798:1 853:1 
-1 1:1 7:1 12:1 16:1 19:1 21:1 27:1 31:1 36:1 40:1 42:1 46:1 51:1 76:1 96:1 111:1 121:1 131:1 155:1 172:1 192:1 206:1 214:1 236:1 336:1 415:1 473:1 515:1 555:1 652:1 720:1 798:1 854:1 
1 1:1 7:1 12:1 16:1 19:1 21:1 27:1 31:1 36:1 40:1 42:1 48:1 51:1 76:1 96:1 111:1 121:1 131:1 155:1 172:1 192:1 206:1 216:1 236:1 336:1 415:1 473:1 515:1 555:1 652:1 720:1 798:1 856:1 
1 1:1 7:1 12:1 16:1 19:1 21:1 27:1 31:1 36:1 40:1 43:1 47:1 51:1 76:1 96:1 111:1 121:1 131:1 155:1 172:1 192:1 207:1 219:1 236:1 336:1 415:1 473:1 515:1 555:1 652:1 720:1 799:1 859:1 
-1 1:1 7:1 12:1 16:1 19:1 21:1 27:1 31:1 36:1 40:1 43:1 48:1 51:1 76:1 96:1 111:1 121:1 131:1 155:1 172:1 192:1 207:1 220:1 236:1 336:1 415:1 473:1 515:1 555:1 652:1 720:1 799:1 860:1 
-1 1:1 7:1 12:1 16:1 19:1 21:1 27:1 31:1 36:1 40:1 44:1 45:1 51:1 76:1 96:1 111:1 121:1 131:1 155:1 172:1 192:1 208:1 221:1 236:1 336:1 415:1 473:1 515:1 555:1 652:1 720:1 800:1 861:1 
0.61895907895482072 1:1 7:1 12:1 16:1 19:1 21:1 27:1 31:1 36:1 40:1 44:1 46:1 51:1 76:1 96:1 111:1 121:1 131:1 155:1 172:1 192:1 208:1 222:1 236:1 336:1 415:1 473:1 515:1 555:1 652:1 720:1 800:1 862:1 
-1 1:1 7:1 12:1 16:1 19:1 21:1 27:1 31:1 36:1 40:1 44:1 47:1 51:1 76:1 96:1 111:1 121:1 131:1 155:1 172:1 192:1 208:1 223:1 236:1 336:1 415:1 473:1 515:1 555:1 652:1 720:1 800:1 863:1 
1 1:1 7:1 12:1 16:1 19:1 21:1 27:1 31:1 36:1 40:1 44:1 48:1 51:1 76:1 96:1 111:1 121:1 131:1 155:1 172:1 192:1 208:1 224:1 236:1 336:1 415:1 473:1 515:1 555:1 652:1 720:1 800:1 864:1 
-1 1:1 8:1 10:1 16:1 19:1 21:1 27:1 31:1 36:1 40:1 41:1 46:1 52:1 78:1 88:1 111:1 121:1 131:1 155:1 172:1 192:1 205:1 210:1 238:1 344:1 383:1 473:1 515:1 555:1 652:1 720:1 797:1 850:1 
-1 1:1 8:1 10:1 16:1 19:1 21:1 27:1 31:1 36:1 40:1 41:1 47:1 52:1 78:1 88:1 111:1 121:1 131:1 155:1 172:1 192:1 205:1 211:1 238:1 344:1 383:1 473:1 515:1 555:1 652:1 720:1 797:1 851:1 
-1 1:1 8:1 10:1 16:1 19:1 21:1 27:1 31:1 36:1 40:1 41:1 48:1 52:1 78:1 88:1 111:1 121:1 131:1 155:1 172:1 192:1 205:1 212:1 238:1 344:1 383:1 473:1 515:1 555:1 652:1 720:1 797:1 852:1 
1 1:1 8:1 10:1 16:1 19:1 21:1 27:1 31:1 36:1 40:1 44:1 45:1 52:1 78:1 88:1 111:1 121:1 131:1 155:1 172:1 192:1 208:1 221:1 238:1 344:1 383:1 473:1 515:1 555:1 652:1 720:1 800:1 861:1 
-0.29980162732894017 1:1 8:1 10:1 16:1 19:1 21:1 27:1 31:1 36:1 40:1 44:1 46:1 52:1 78:1 88:1 111:1 121:1 131:1 155:1 172:1 192:1 208:1 222:1 238:1 344:1 383:1 473:1 515:1 555:1 652:1 720:1 800:1 862:1 
1 1:1 8:1 10:1 16:1 19:1 21:1 27:1 31:1 36:1 40:1 44:1 47:1 52:1 78:1 88:1 111:1 121:1 131:1 155:1 172:1 192:1 208:1 223:1 238:1 344:1 383:1 473:1 515:1 555:1 652:1 720:1 800:1 863:1 
1 1:1 8:1 10:1 16:1 19:1 21:1 27:1 31:1 36:1 40:1 44:1 48:1 52:1 78:1 88:1 111:1 121:1 131:1 155:1 172:1 192:1 208:1 224:1 238:1 344:1 383:1 473:1 515:1 555:1 652:1 720:1 800:1 864:1 
1 1:1 8:1 12:1 16:1 19:1 21:1 27:1 31:1 36:1 38:1 41:1 45:1 52:1 80:1 96:1 111:1 121:1 131:1 155:1 172:1 190:1 197:1 209:1 240:1 352:1 415:1 473:1 515:1 555:1 652:1 718:1 789:1 817:1 
1 1:1 8:1 12:1 16:1 19:1 21:1 27:1 31:1 36:1 38:1 41:1 46:1 52:1 80:1 96:1 111:1 121:1 131:1 155:1 172:1 190:1 197:1 210:1 240:1 352:1 415:1 473:1 515:1 555:1 652:1 718:1 789:1 818:1 
-0.97777988367728319 1:1 8:1 12:1 16:1 19:1 21:1 27:1 31:1 36:1 38:1 41:1 47:1 52:1 80:1 96:1 111:1 121:1 131:1 155:1 172:1 190:1 197:1 211:1 240:1 352:1 415:1 473:1 515:1 555:1 652:1 718:1 789:1 819:1 
1 1:1 8:1 12:1 16:1 19:1 21:1 27:1 31:1 36:1 38:1 41:1 48:1 52:1 80:1 96:1 111:1 121:1 131:1 155:1 172:1 190:1 197:1 212:1 240:1 352:1 415:1 473:1 515:1 555:1 652:1 718:1 789:1 820:1 
-1 1:1 8:1 12:1 16:1 19:1 21:1 27:1 31:1 36:1 38:1 42:1 45:1 52:1 80:1 96:1 111:1 121:1 131:1 155:1 172:1 190:1 198:1 213:1 240:1 352:1 415:1 473:1 515:1 555:1 652:1 718:1 790:1 821:1 
-1 1:1 8:1 12:1 16:1 19:1 21:1 27:1 31:1 36:1 38:1 42:1 46:1 52:1 80:1 96:1 111:1 121:1 131:1 155:1 172:1 190:1 198:1 214:1 240:1 352:1 415:1 473:1 515:1 555:1 652:1 718:1 790:1 822:1 
0.73939636580193413 1:1 8:1 12:1 16:1 19:1 21:1 27:1 31:1 36:1 38:1 42:1 48:1 52:1 80:1 96:1 111:1 121:1 131:1 155:1 172:1 190:1 198:1 216:1 240:1 352:1 415:1 473:1 515:1 555:1 652:1 718:1 790:1 824:1 
-1 1:1 8:1 12:1 16:1 19:1 21:1 27:1 31:1 36:1 38:1 43:1 48:1 52:1 80:1 96:1 111:1 121:1 131:1 155:1 172:1 190:1 199:1 220:1 240:1 352:1 415:1 473:1 515:1 555:1 652:1 718:1 791:1 828:1 
-0.88218104009351084 1:1 8:1 12:1 16:1 19:1 21:1 27:1 31:1 36:1 38:1 44:1 47:1 52:1 80:1 96:1 111:1 121:1 131:1 155:1 172:1 190:1 200:1 223:1 240:1 352:1 415:1 473:1 515:1 555:1 652:1 718:1 792:1 831:1 
1 1:1 8:1 12:1 16:1 19:1 21:1 27:1 31:1 36:1 38:1 44:1 48:1 52:1 80:1 96:1 111:1 121:1 131:1 155:1 172:1 190:1 200:1 224:1 240:1 352:1 415:1 473:1 515:1 555:1 652:1 718:1 792:1 832:1 
1 1:1 8:1 12:1 16:1 19:1 21:1 27:1 31:1 36:1 40:1 41:1 45:1 52:1 80:1 96:1 111:1 121:1 131:1 155:1 172:1 192:1 205:1 209:1 240:1 352:1 415:1 473:1 515:1 555:1 652:1 720:1 797:1 849:1 
1 1:1 8:1 12:1 16:1 19:1 21:1 27:1 31:1 36:1 40:1 41:1 46:1 52:1 80:1 96:1 111:1 121:1 131:1 155:1 172:1 192:1 205:1 210:1 240:1 352:1 415:1 473:1 515:1 555:1 652:1 720:1 797:1 850:1 
-1 1:1 8:1 12:1 16:1 19:1 21:1 27:1 31:1 36:1 40:1 41:1 47:1 52:1 80:1 96:1 111:1 121:1 131:1 155:1 172:1 192:1 205:1 211:1 240:1 352:1 415:1 473:1 515:1 555:1 652:1 720:1 797:1 851:1 
-1 1:1 8:1 12:1 16:1 19:1 21:1 27:1 31:1 36:1 40:1 41:1 48:1 52:1 80:1 96:1 111:1 121:1 131:1 155:1 172:1 192:1 205:1 212:1 240:1 352:1 415:1 473:1 515:1 555:1 652:1 720:1 797:1 852:1 
1 1:1 8:1 12:1 16:1 19:1 21:1 27:1 31:1 36:1 40:1 42:1 45:1 52:1 80:1 96:1 111:1 121:1 131:1 155:1 172:1 192:1 206:1 213:1 240:1 352:1 415:1 473:1 515:1 555:1 652:1 720:1 798:1 853:1 
-1 1:1 8:1 12:1 16:1 19:1 21:1 27:1 31:1 36:1 40:1 42:1 46:1 52:1 80:1 96:1 111:1 121:1 131:1 155:1 172:1 192:1 206:1 214:1 240:1 352:1 415:1 473:1 515:1 555:1 652:1 720:1 798:1 854:1 
-1 1:1 8:1 12:1 16:1 19:1 21:1 27:1 31:1 36:1 40:1 42:1 48:1 52:1 80:1 96:1 111:1 121:1 131:1 155:1 172:1 192:1 206:1 216:1 240:1 352:1 415:1 473:1 515:1 555:1 652:1 720:1 798:1 856:1 
-0.37347436440001647 1:1 8:1 12:1 16:1 19:1 21:1 27:1 31:1 36:1 40:1 43:1 45:1 52:1 80:1 96:1 111:1 121:1 131:1 155:1 172:1 192:1 207:1 217:1 240:1 352:1 415:1 473:1 515:1 555:1 652:1 720:1 799:1 857:1 
-1 1:1 8:1 12:1 16:1 19:1 21:1 27:1 31:1 36:1 40:1 43:1 46:1 52:1 80:1 96:1 111:1 121:1 131:1 155:1 172:1 192:1 207:1 218:1 240:1 352:1 415:1 473:1 515:1 555:1 652:1 720:1 799:1 858:1 
-1 1:1 8:1 12:1 16:1 19:1 21:1 27:1 31:1 36:1 40:1 44:1 45:1 52:1 80:1 96:1 111:1 121:1 131:1 155:1 172:1 192:1 208:1 221:1 240:1 352:1 415:1 473:1 515:1 555:1 652:1 720:1 800:1 861:1 
1 1:1 8:1 12:1 16:1 19:1 21:1 27:1 31:1 36:1 40:1 44:1 46:1 52:1 80:1 96:1 111:1 121:1 131:1 155:1 172:1 192:1 208:1 222:1 240:1 352:1 415:1 473:1 515:1 555:1 652:1 720:1 800:1 862:1 
1 1:1 8:1 12:1 16:1 19:1 21:1 27:1 31:1 36:1 40:1 44:1 47:1 52:1 80:1 96:1 111:1 121:1 131:1 155:1 172:1 192:1 208:1 223:1 240:1 352:1 415:1 473:1 515:1 555:1 652:1 720:1 800:1 863:1 
1 1:1 8:1 12:1 16:1 19:1 21:1 27:1 31:1 36:1 40:1 44:1 48:1 52:1 80:1 96:1 111:1 121:1 131:1 155:1 172:1 192:1 208:1 224:1 240:1 352:1 415:1 473:1 515:1 555:1 652:1 720:1 800:1 864:1 
1 2:1 5:1 10:1 16:1 19:1 21:1 27:1 31:1 36:1 40:1 41:1 45:1 53:1 66:1 88:1 111:1 121:1 131:1 155:1 172:1 192:1 205:1 209:1 242:1 296:1 383:1 473:1 515:1 555:1 652:1 720:1 797:1 849:1 
1 2:1 5:1 10:1 16:1 19:1 21:1 27:1 31:1 36:1 40:1 41:1 46:1 53:1 66:1 88:1 111:1 121:1 131:1 155:1 172:1 192:1 205:1 210:1 242:1 296:1 383:1 473:1 515:1 555:1 652:1 720:1 797:1 850:1 
-1 2:1 5:1 10:1 16:1 19:1 21:1 27:1 31:1 36:1 40:1 41:1 47:1 53:1 66:1 88:1 111:1 121:1 131:1 155:1 172:1 192:1 205:1 211:1 242:1 296:1 383:1 473:1 515:1 555:1 652:1 720:1 797:1 851:1 
1 2:1 5:1 10:1 16:1 19:1 21:1 27:1 31:1 36:1 40:1 44:1 45:1 53:1 66:1 88:1 111:1 121:1 131:1 155:1 172:1 192:1 208:1 221:1 242:1 296:1 383:1 473:1 515:1 555:1 652:1 720:1 800:1 861:1 
-1 2:1 5:1 10:1 16:1 19:1 21:1 27:1 31:1 36:1 40:1 44:1 46:1 53:1 66:1 88:1 111:1 121:1 131:1 155:1 172:1 192:1 208:1 222:1 242:1 296:1 383:1 473:1 515:1 555:1 652:1 720:1 800:1 862:1 
-0.10679675949349832 2:1 5:1 10:1 16:1 19:1 21:1 27:1 31:1 36:1 40:1 44:1 47:1 53:1 66:1 88:1 111:1 121:1 131:1 155:1 172:1 192:1 208:1 223:1 242:1 296:1 383:1 473:1 515:1 555:1 652:1 720:1 800:1 863:1 
-0.35294221951892663 2:1 5:1 10:1 16:1 19:1 21:1 27:1 31:1 36:1 40:1 44:1 48:1 53:1 66:1 88:1 111:1 121:1 131:1 155:1 172:1 192:1 208:1 224:1 242:1 296:1 383:1 473:1 515:1 555:1 652:1 720:1 800:1 864:1 
0.97726075207248331 2:1 5:1 12:1 16:1 19:1 21:1 27:1 31:1 36:1 38:1 41:1 45:1 53:1 68:1 96:1 111:1 121:1 131:1 155:1 172:1 190:1 197:1 209:1 244:1 304:1 415:1 473:1 515:1 555:1 652:1 718:1 789:1 817:1 
-1 2:1 5:1 12:1 16:1 19:1 21:1 27:1 31:1 36:1 38:1 41:1 47:1 53:1 68:1 96:1 111:1 121:1 131:1 155:1 172:1 190:1 197:1 211:1 244:1 304:1 415:1 473:1 515:1 555:1 652:1 718:1 789:1 819:1 
1 2:1 5:1 12:1 16:1 19:1 21:1 27:1 31:1 36:1 40:1 41:1 45:1 53:1 68:1 96:1 111:1 121:1 131:1 155:1 172:1 192:1 205:1 209:1 244:1 304:1 415:1 473:1 515:1 555:1 652:1 720:1 797:1 849:1 
-1 2:1 5:1 12:1 16:1 19:1 21:1 27:1 31:1 36:1 40:1 41:1 47:1 53:1 68:1 96:1 111:1 121:1 131:1 155:1 172:1 192:1 205:1 211:1 244:1 304:1 415:1 473:1 515:1 555:1 652:1 720:1 797:1 851:1 
1 2:1 5:1 12:1 16:1 19:1 21:1 27:1 31:1 36:1 40:1 44:1 45:1 53:1 68:1 96:1 111:1 121:1 131:1 155:1 172:1 192:1 208:1 221:1 244:1 304:1 415:1 473:1 515:1 555:1 652:1 720:1 800:1 861:1 
-1 2:1 5:1 12:1 16:1 19:1 21:1 27:1 31:1 36:1 40:1 44:1 46:1 53:1 68:1 96:1 111:1 121:1 131:1 155:1 172:1 192:1 208:1 222:1 244:1 304:1 415:1 473:1 515:1 555:1 652:1 720:1 800:1 862:1 
1 2:1 5:1 12:1 16:1 19:1 21:1 27:1 31:1 36:1 40:1 44:1 47:1 53:1 68:1 96:1 111:1 121:1 131:1 155:1 172:1 192:1 208:1 223:1 244:1 304:1 415:1 473:1 515:1 555:1 652:1 720:1 800:1 863:1 
-1 2:1 5:1 12:1 16:1 19:1 21:1 27:1 31:1 36:1 40:1 44:1 48:1 53:1 68:1 96:1 111:1 121:1 131:1 155:1 172:1 192:1 208:1 224:1 244:1 304:1 415:1 473:1 515:1 555:1 652:1 720:1 800:1 864:1 
-1 2:1 6:1 10:1 16:1 19:1 21:1 27:1 31:1 36:1 40:1 41:1 45:1 54:1 70:1 88:1 111:1 121:1 131:1 155:1 172:1 192:1 205:1 209:1 246:1 312:1 383:1 473:1 515:1 555:1 652:1 720:1 797:1 849:1 
0.29312058497110571 2:1 6:1 10:1 16:1 19:1 21:1 27:1 31:1 36:1 40:1 41:1 46:1 54:1 70:1 88:1 111:1 121:1 131:1 155:1 172:1 192:1 205:1 210:1 246:1 312:1 383:1 473:1 515:1 555:1 652:1 720:1 797:1 850:1 
-1 2:1 6:1 10:1 16:1 19:1 21:1 27:1 31:1 36:1 40:1 41:1 47:1 54:1 70:1 88:1 111:1 121:1 131:1 155:1 172:1 192:1 205:1 211:1 246:1 312:1 383:1 473:1 515:1 555:1 652:1 720:1 797:1 851:1 
1 2:1 6:1 10:1 16:1 19:1 21:1 27:1 31:1 36:1 40:1 44:1 45:1 54:1 70:1 88:1 111:1 121:1 131:1 155:1 172:1 192:1 208:1 221:1 246:1 312:1 383:1 473:1 515:1 555:1 652:1 720:1 800:1 861:1 
-1 2:1 6:1 10:1 16:1 19:1 21:1 27:1 31:1 36:1 40:1 44:1 46:1 54:1 70:1 88:1 111:1 121:1 131:1 155:1 172:1 192:1 208:1 222:1 246:1 312:1 383:1 473:1 515:1 555:1 652:1 720:1 800:1 862:1 
1 2:1 6:1 10:1 16:1 19:1 21:1 27:1 31:1 36:1 40:1 44:1 47:1 54:1 70:1 88:1 111:1 121:1 131:1 155:1 172:1 192:1 208:1 223:1 246:1 312:1 383:1 473:1 515:1 555:1 652:1 720:1 800:1 863:1 
-1 2:1 6:1 10:1 16:1 19:1 21:1 27:1 31:1 36:1 40:1 44:1 48:1 54:1 70:1 88:1 111:1 121:1 131:1 155:1 172:1 192:1 208:1 224:1 246:1 312:1 383:1 473:1 515:1 555:1 652:1 720:1 800:1 864:1 
-1 2:1 6:1 12:1 16:1 19:1 21:1 27:1 31:1 36:1 38:1 41:1 47:1 54:1 72:1 96:1 111:1 121:1 131:1 155:1 172:1 190:1 197:1 211:1 248:1 320:1 415:1 473:1 515:1 555:1 652:1 718:1 789:1 819:1 
0.072025566634692409 2:1 6:1 12:1 16:1 19:1 21:1 27:1 31:1 36:1 38:1 41:1 48:1 54:1 72:1 96:1 111:1 121:1 131:1 155:1 172:1 190:1 197:1 212:1 248:1 320:1 415:1 473:1 515:1 555:1 652:1 718:1 789:1 820:1 
1 2:1 6:1 12:1 16:1 19:1 21:1 27:1 31:1 36:1 40:1 41:1 45:1 54:1 72:1 96:1 111:1 121:1 131:1 155:1 172:1 192:1 205:1 209:1 248:1 320:1 415:1 473:1 515:1 555:1 652:1 720:1 797:1 849:1 
-1 2:1 6:1 12:1 16:1 19:1 21:1 27:1 31:1 36:1 40:1 41:1 47:1 54:1 72:1 96:1 111:1 121:1 131:1 155:1 172:1 192:1 205:1 211:1 248:1 320:1 415:1 473:1 515:1 555:1 652:1 720:1 797:1 851:1 
1 2:1 6:1 12:1 16:1 19:1 21:1 27:1 31:1 36:1 40:1 44:1 45:1 54:1 72:1 96:1 111:1 121:1 131:1 155:1 172:1 192:1 208:1 221:1 248:1 320:1 415:1 473:1 515:1 555:1 652:1 720:1 800:1 861:1 
-1 2:1 6:1 12:1 16:1 19:1 21:1 27:1 31:1 36:1 40:1 44:1 46:1 54:1 72:1 96:1 111:1 121:1 131:1 155:1 172:1 192:1 208:1 222:1 248:1 320:1 415:1 473:1 515:1 555:1 652:1 720:1 800:1 862:1 
1 2:1 6:1 12:1 16:1 19:1 21:1 27:1 31:1 36:1 40:1 44:1 48:1 54:1 72:1 96:1 111:1 121:1 131:1 155:1 172:1 192:1 208:1 224:1 248:1 320:1 415:1 473:1 515:1 555:1 652:1 720:1 800:1 864:1 
-1 2:1 7:1 10:1 16:1 19:1 21:1 27:1 31:1 36:1 40:1 44:1 45:1 55:1 74:1 88:1 111:1 121:1 131:1 155:1 172:1 192:1 208:1 221:1 250:1 328:1 383:1 473:1 515:1 555:1 652:1 720:1 800:1 861:1 
-1 2:1 7:1 10:1 16:1 19:1 21:1 27:1 31:1 36:1 40:1 44:1 48:1 55:1 74:1 88:1 111:1 121:1 131:1 155:1 172:1 192:1 208:1 224:1 250:1 328:1 383:1 473:1 515:1 555:1 652:1 720:1 800:1 864:1 
-0.27593262559831744 2:1 7:1 12:1 16:1 19:1 21:1 27:1 31:1 36:1 38:1 41:1 46:1 55:1 76:1 96:1 111:1 121:1 131:1 155:1 172:1 190:1 197:1 210:1 252:1 336:1 415:1 473:1 515:1 555:1 652:1 718:1 789:1 818:1 
-1 2:1 7:1 12:1 16:1 19:1 21:1 27:1 31:1 36:1 38:1 44:1 46:1 55:1 76:1 96:1 111:1 121:1 131:1 155:1 172:1 190:1 200:1 222:1 252:1 336:1 415:1 473:1 515:1 555:1 652:1 718:1 792:1 830:1 
-1 2:1 7:1 12:1 16:1 19:1 21:1 27:1 31:1 36:1 40:1 41:1 45:1 55:1 76:1 96:1 111:1 121:1 131:1 155:1 172:1 192:1 205:1 209:1 252:1 336:1 415:1 473:1 515:1 555:1 652:1 720:1 797:1 849:1 
1 2:1 7:1 12:1 16:1 19:1 21:1 27:1 31:1 36:1 40:1 41:1 47:1 55:1 76:1 96:1 111:1 121:1 131:1 155:1 172:1 192:1 205:1 211:1 252:1 336:1 415:1 473:1 515:1 555:1 652:1 720:1 797:1 851:1 
-0.61662755310753248 2:1 7:1 12:1 16:1 19:1 21:1 27:1 31:1 36:1 40:1 43:1 48:1 55:1 76:1 96:1 111:1 121:1 131:1 155:1 172:1 192:1 207:1 220:1 252:1 336:1 415:1 473:1 515:1 555:1 652:1 720:1 799:1 860:1 
1 2:1 7:1 12:1 16:1 19:1 21:1 27:1 31:1 36:1 40:1 44:1 46:1 55:1 76:1 96:1 111:1 121:1 131:1 155:1 172:1 192:1 208:1 222:1 252:1 336:1 415:1 473:1 515:1 555:1 652:1 720:1 800:1 862:1 
1 2:1 8:1 10:1 16:1 19:1 21:1 27:1 31:1 36:1 40:1 41:1 45:1 56:1 78:1 88:1 111:1 121:1 131:1 155:1 172:1 192:1 205:1 209:1 254:1 344:1 383:1 473:1 515:1 555:1 652:1 720:1 797:1 849:1 
-1 2:1 8:1 10:1 16:1 19:1 21:1 27:1 31:1 36:1 40:1 41:1 46:1 56:1 78:1 88:1 111:1 121:1 131:1 155:1 172:1 192:1 205:1 210:1 254:1 344:1 383:1 473:1 515:1 555:1 652:1 720:1 797:1 850:1 
0.11738642087087806 2:1 8:1 10:1 16:1 19:1 21:1 27:1 31:1 36:1 40:1 41:1 47:1 56:1 78:1 88:1 111:1 121:1 131:1 155:1 172:1 192:1 205:1 211:1 254:1 344:1 383:1 473:1 515:1 555:1 652:1 720:1 797:1 851:1 
1 2:1 8:1 10:1 16:1 19:1 21:1 27:1 31:1 36:1 40:1 41:1 48:1 56:1 78:1 88:1 111:1 121:1 131:1 155:1 172:1 192:1 205:1 212:1 254:1 344:1 383:1 473:1 515:1 555:1 652:1 720:1 797:1 852:1 
1 2:1 8:1 10:1 16:1 19:1 21:1 27:1 31:1 36:1 40:1 44:1 45:1 56:1 78:1 88:1 111:1 121:1 131:1 155:1 172:1 192:1 208:1 221:1 254:1 344:1 383:1 473:1 515:1 555:1 652:1 720:1 800:1 861:1 
1 2:1 8:1 10:1 16:1 19:1 21:1 27:1 31:1 36:1 40:1 44:1 46:1 56:1 78:1 88:1 111:1 121:1 131:1 155:1 172:1 192:1 208:1 222:1 254:1 344:1 383:1 473:1 515:1 555:1 652:1 720:1 800:1 862:1 
-1 2:1 8:1 10:1 16:1 19:1 21:1 27:1 31:1 36:1 40:1 44:1 47:1 56:1 78:1 88:1 111:1 121:1 131:1 155:1 172:1 192:1 208:1 223:1 254:1 344:1 383:1 473:1 515:1 555:1 652:1 720:1 800:1 863:1 
-1 2:1 8:1 10:1 16:1 19:1 21:1 27:1 31:1 36:1 40:1 44:1 48:1 56:1 78:1 88:1 111:1 121:1 131:1 155:1 172:1 192:1 208:1 224:1 254:1 344:1 383:1 473:1 515:1 555:1 652:1 720:1 800:1 864:1 
-0.51642891630814824 2:1 8:1 12:1 16:1 19:1 21:1 27:1 31:1 36:1 38:1 41:1 45:1 56:1 80:1 96:1 111:1 121:1 131:1 155:1 172:1 190:1 197:1 209:1 256:1 352:1 415:1 473:1 515:1 555:1 652:1 718:1 789:1 817:1 
-0.5262815887228226 2:1 8:1 12:1 16:1 19:1 21:1 27:1 31:1 36:1 38:1 41:1 46:1 56:1 80:1 96:1 111:1 121:1 131:1 155:1 172:1 190:1 197:1 210:1 256:1 352:1 415:1 473:1 515:1 555:1 652:1 718:1 789:1 818:1 
1 2:1 8:1 12:1 16:1 19:1 21:1 27:1 31:1 36:1 38:1 41:1 47:1 56:1 80:1 96:1 111:1 121:1 131:1 155:1 172:1 190:1 197:1 211:1 256:1 352:1 415:1 473:1 515:1 555:1 652:1 718:1 789:1 819:1 
1 2:1 8:1 12:1 16:1 19:1 21:1 27:1 31:1 36:1 38:1 42:1 45:1 56:1 80:1 96:1 111:1 121:1 131:1 155:1 172:1 190:1 198:1 213:1 256:1 352:1 415:1 473:1 515:1 555:1 652:1 718:1 790:1 821:1 
-1 2:1 8:1 12:1 16:1 19:1 21:1 27:1 31:1 36:1 38:1 42:1 47:1 56:1 80:1 96:1 111:1 121:1 131:1 155:1 172:1 190:1 198:1 215:1 256:1 352:1 415:1 473:1 515:1 555:1 652:1 718:1 790:1 823:1 
-1 2:1 8:1 12:1 16:1 19:1 21:1 27:1 31:1 36:1 38:1 42:1 48:1 56:1 80:1 96:1 111:1 121:1 131:1 155:1 172:1 190:1 198:1 216:1 256:1 352:1 415:1 473:1 515:1 555:1 652:1 718:1 790:1 824:1 
1 2:1 8:1 12:1 16:1 19:1 21:1 27:1 31:1 36:1 38:1 43:1 45:1 56:1 80:1 96:1 111:1 121:1 131:1 155:1 172:1 190:1 199:1 217:1 256:1 352:1 415:1 473:1 515:1 555:1 652:1 718:1 791:1 825:1 
1 2:1 8:1 12:1 16:1 19:1 21:1 27:1 31:1 36:1 38:1 43:1 47:1 56:1 80:1 96:1 111:1 121:1 131:1 155:1 172:1 190:1 199:1 219:1 256:1 352:1 415:1 473:1 515:1 555:1 652:1 718:1 791:1 827:1 
1 2:1 8:1 12:1 16:1 19:1 21:1 27:1 31:1 36:1 38:1 44:1 45:1 56:1 80:1 96:1 111:1 121:1 131:1 155:1 172:1 190:1 200:1 221:1 256:1 352:1 415:1 473:1 515:1 555:1 652:1 718:1 792:1 829:1 
-1 2:1 8:1 12:1 16:1 19:1 21:1 27:1 31:1 36:1 38:1 44:1 46:1 56:1 80:1 96:1 111:1 121:1 131:1 155:1 172:1 190:1 200:1 222:1 256:1 352:1 415:1 473:1 515:1 555:1 652:1 718:1 792:1 830:1 
1 2:1 8:1 12:1 16:1 19:1 21:1 27:1 31:1 36:1 38:1 44:1 47:1 56:1 80:1 96:1 111:1 121:1 131:1 155:1 172:1 190:1 200:1 223:1 256:1 352:1 415:1 473:1 515:1 555:1 652:1 718:1 792:1 831:1 
-1 2:1 8:1 12:1 16:1 19:1 21:1 27:1 31:1 36:1 38:1 44:1 48:1 56:1 80:1 96:1 111:1 121:1 131:1 155:1 172:1 190:1 200:1 224:1 256:1 352:1 415:1 473:1 515:1 555:1 652:1 718:1 792:1 832:1 
-1 2:1 8:1 12:1 16:1 19:1 21:1 27:1 31:1 36:1 40:1 41:1 45:1 56:1 80:1 96:1 111:1 121:1 131:1 155:1 172:1 192:1 205:1 209:1 256:1 352:1 415:1 473:1 515:1 555:1 652:1 720:1 797:1 849:1 
-1 2:1 8:1 12:1 16:1 19:1 21:1 27:1 31:1 36:1 40:1 41:1 46:1 56:1 80:1 96:1 111:1 121:1 131:1 155:1 172:1 192:1 205:1 210:1 256:1 352:1 415:1 473:1 515:1 555:1 652:1 720:1 797:1 850:1 
0.10000946915006297 2:1 8:1 12:1 16:1 19:1 21:1 27:1 31:1 36:1 40:1 41:1 47:1 56:1 80:1 96:1 111:1 121:1 131:1 155:1 172:1 192:1 205:1 211:1 256:1 352:1 415:1 473:1 515:1 555:1 652:1 720:1 797:1 851:1 
1 2:1 8:1 12:1 16:1 19:1 21:1 27:1 31:1 36:1 40:1 41:1 48:1 56:1 80:1 96:1 111:1 121:1 131:1 155:1 172:1 192:1 205:1 212:1 256:1 352:1 415:1 473:1 515:1 555:1 652:1 720:1 797:1 852:1 
0.6039259386922784 2:1 8:1 12:1 16:1 19:1 21:1 27:1 31:1 36:1 40:1 42:1 45:1 56:1 80:1 96:1 111:1 121:1 131:1 155:1 172:1 192:1 206:1 213:1 256:1 352:1 415:1 473:1 515:1 555:1 652:1 720:1 798:1 853:1 
0.25201416945442728 2:1 8:1 12:1 16:1 19:1 21:1 27:1 31:1 36:1 40:1 42:1 46:1 56:1 80:1 96:1 111:1 121:1 131:1 155:1 172:1 192:1 206:1 214:1 256:1 352:1 415:1 473:1 515:1 555:1 652:1 720:1 798:1 854:1 
-1 2:1 8:1 12:1 16:1 19:1 21:1 27:1 31:1 36:1 40:1 42:1 48:1 56:1 80:1 96:1 111:1 121:1 131:1 155:1 172:1 192:1 206:1 216:1 256:1 352:1 415:1 473:1 515:1 555:1 652:1 720:1 798:1 856:1 
-1 2:1 8:1 12:1 16:1 19:1 21:1 27:1 31:1 36:1 40:1 43:1 45:1 56:1 80:1 96:1 111:1 121:1 131:1 155:1 172:1 192:1 207:1 217:1 256:1 352:1 415:1 473:1 515:1 555:1 652:1 720:1 799:1 857:1 
1 2:1 8:1 12:1 16:1 19:1 21:1 27:1 31:1 36:1 40:1 43:1 47:1 56:1 80:1 96:1 111:1 121:1 131:1 155:1 172:1 192:1 207:1 219:1 256:1 352:1 415:1 473:1 515:1 555:1 652:1 720:1 799:1 859:1 
1 2:1 8:1 12:1 16:1 19:1 21:1 27:1 31:1 36:1 40:1 43:1 48:1 56:1 80:1 96:1 111:1 121:1 131:1 155:1 172:1 192:1 207:1 220:1 256:1 352:1 415:1 473:1 515:1 555:1 652:1 720:1 799:1 860:1 
0.1728271586297436 2:1 8:1 12:1 16:1 19:1 21:1 27:1 31:1 36:1 40:1 44:1 45:1 56:1 80:1 96:1 111:1 121:1 131:1 155:1 172:1 192:1 208:1 221:1 256:1 352:1 415:1 473:1 515:1 555:1 652:1 720:1 800:1 861:1 
-1 2:1 8:1 12:1 16:1 19:1 21:1 27:1 31:1 36:1 40:1 44:1 46:1 56:1 80:1 96:1 111:1 121:1 131:1 155:1 172:1 192:1 208:1 222:1 256:1 352:1 415:1 473:1 515:1 555:1 652:1 720:1 800:1 862:1 
1 2:1 8:1 12:1 16:1 19:1 21:1 27:1 31:1 36:1 40:1 44:1 47:1 56:1 80:1 96:1 111:1 121:1 131:1 155:1 172:1 192:1 208:1 223:1 256:1 352:1 415:1 473:1 515:1 555:1 652:1 720:1 800:1 863:1 
-0.82328623521091648 2:1 8:1 12:1 16:1 19:1 21:1 27:1 31:1 36:1 40:1 44:1 48:1 56:1 80:1 96:1 111:1 121:1 131:1 155:1 172:1 192:1 208:1 224:1 256:1 352:1 415:1 473:1 515:1 555:1 652:1 720:1 800:1 864:1 
-1 3:1 5:1 10:1 16:1 19:1 21:1 27:1 31:1 36:1 40:1 41:1 45:1 57:1 66:1 88:1 111:1 121:1 131:1 155:1 172:1 192:1 205:1 209:1 258:1 296:1 383:1 473:1 515:1 555:1 652:1 720:1 797:1 849:1 
1 3:1 5:1 10:1 16:1 19:1 21:1 27:1 31:1 36:1 40:1 41:1 47:1 57:1 66:1 88:1 111:1 121:1 131:1 155:1 172:1 192:1 205:1 211:1 258:1 296:1 383:1 473:1 515:1 555:1 652:1 720:1 797:1 851:1 
-1 3:1 5:1 10:1 16:1 19:1 21:1 27:1 31:1 36:1 40:1 41:1 48:1 57:1 66:1 88:1 111:1 121:1 131:1 155:1 172:1 192:1 205:1 212:1 258:1 296:1 383:1 473:1 515:1 555:1 652:1 720:1 797:1 852:1 
1 3:1 5:1 10:1 16:1 19:1 21:1 27:1 31:1 36:1 40:1 44:1 46:1 57:1 66:1 88:1 111:1 121:1 131:1 155:1 172:1 192:1 208:1 222:1 258:1 296:1 383:1 473:1 515:1 555:1 652:1 720:1 800:1 862:1 
-1 3:1 5:1 10:1 16:1 19:1 21:1 27:1 31:1 36:1 40:1 44:1 47:1 57:1 66:1 88:1 111:1 121:1 131:1 155:1 172:1 192:1 208:1 223:1 258:1 296:1 383:1 473:1 515:1 555:1 652:1 720:1 800:1 863:1 
0.1271221692825858 3:1 5:1 10:1 16:1 19:1 21:1 27:1 31:1 36:1 40:1 44:1 48:1 57:1 66:1 88:1 111:1 121:1 131:1 155:1 172:1 192:1 208:1 224:1 258:1 296:1 383:1 473:1 515:1 555:1 652:1 720:1 800:1 864:1 
-1 3:1 5:1 12:1 16:1 19:1 21:1 27:1 31:1 36:1 38:1 41:1 46:1 57:1 68:1 96:1 111:1 121:1 131:1 155:1 172:1 190:1 197:1 210:1 260:1 304:1 415:1 473:1 515:1 555:1 652:1 718:1 789:1 818:1 
1 3:1 5:1 12:1 16:1 19:1 21:1 27:1 31:1 36:1 38:1 41:1 47:1 57:1 68:1 96:1 111:1 121:1 131:1 155:1 172:1 190:1 197:1 211:1 260:1 304:1 415:1 473:1 515:1 555:1 652:1 718:1 789:1 819:1 
0.93496617734573984 3:1 5:1 12:1 16:1 19:1 21:1 27:1 31:1 36:1 38:1 41:1 48:1 57:1 68:1 96:1 111:1 121:1 131:1 155:1 172:1 190:1 197:1 212:1 260:1 304:1 415:1 473:1 515:1 555:1 652:1 718:1 789:1 820:1 
1 3:1 5:1 12:1 16:1 19:1 21:1 27:1 31:1 36:1 40:1 41:1 45:1 57:1 68:1 96:1 111:1 121:1 131:1 155:1 172:1 192:1 205:1 209:1 260:1 304:1 415:1 473:1 515:1 555:1 652:1 720:1 797:1 849:1 
-1 3:1 5:1 12:1 16:1 19:1 21:1 27:1 31:1 36:1 40:1 41:1 46:1 57:1 68:1 96:1 111:1 121:1 131:1 155:1 172:1 192:1 205:1 210:1 260:1 304:1 415:1 473:1 515:1 555:1 652:1 720:1 797:1 850:1 
1 3:1 5:1 12:1 16:1 19:1 21:1 27:1 31:1 36:1 40:1 41:1 47:1 57:1 68:1 96:1 111:1 121:1 131:1 155:1 172:1 192:1 205:1 211:1 260:1 304:1 415:1 473:1 515:1 555:1 652:1 720:1 797:1 851:1 
-1 3:1 5:1 12:1 16:1 19:1 21:1 27:1 31:1 36:1 40:1 41:1 48:1 57:1 68:1 96:1 111:1 121:1 131:1 155:1 172:1 192:1 205:1 212:1 260:1 304:1 415:1 473:1 515:1 555:1 652:1 720:1 797:1 852:1 
0.010160737625143676 3:1 5:1 12:1 16:1 19:1 21:1 27:1 31:1 36:1 40:1 44:1 45:1 57:1 68:1 96:1 111:1 121:1 131:1 155:1 172:1 192:1 208:1 221:1 260:1 304:1 415:1 473:1 515:1 555:1 652:1 720:1 800:1 861:1 
1 3:1 5:1 12:1 16:1 19:1 21:1 27:1 31:1 36:1 40:1 44:1 46:1 57:1 68:1 96:1 111:1 121:1 131:1 155:1 172:1 192:1 208:1 222:1 260:1 304:1 415:1 473:1 515:1 555:1 652:1 720:1 800:1 862:1 
-1 3:1 5:1 12:1 16:1 19:1 21:1 27:1 31:1 36:1 40:1 44:1 48:1 57:1 68:1 96:1 111:1 121:1 131:1 155:1 172:1 192:1 208:1 224:1 260:1 304:1 415:1 473:1 515:1 555:1 652:1 720:1 800:1 864:1 
1 3:1 6:1 10:1 16:1 19:1 21:1 27:1 31:1 36:1 40:1 41:1 45:1 58:1 70:1 88:1 111:1 121:1 131:1 155:1 172:1 192:1 205:1 209:1 262:1 312:1 383:1 473:1 515:1 555:1 652:1 720:1 797:1 849:1 
1 3:1 6:1 10:1 16:1 19:1 21:1 27:1 31:1 36:1 40:1 41:1 46:1 58:1 70:1 88:1 111:1 121:1 131:1 155:1 172:1 192:1 205:1 210:1 262:1 312:1 383:1 473:1 515:1 555:1 652:1 720:1 797:1 850:1 
-1 3:1 6:1 10:1 16:1 19:1 21:1 27:1 31:1 36:1 40:1 44:1 45:1 58:1 70:1 88:1 111:1 121:1 131:1 155:1 172:1 192:1 208:1 221:1 262:1 312:1 383:1 473:1 515:1 555:1 652:1 720:1 800:1 861:1 
-1 3:1 6:1 10:1 16:1 19:1 21:1 27:1 31:1 36:1 40:1 44:1 46:1 58:1 70:1 88:1 111:1 121:1 131:1 155:1 172:1 192:1 208:1 222:1 262:1 312:1 383:1 473:1 515:1 555:1 652:1 720:1 800:1 862:1 
0.064016309979388952 3:1 6:1 10:1 16:1 19:1 21:1 27:1 31:1 36:1 40:1 44:1 47:1 58:1 70:1 88:1 111:1 121:1 131:1 155:1 172:1 192:1 208:1 223:1 262:1 312:1 383:1 473:1 515:1 555:1 652:1 720:1 800:1 863:1 
-1 3:1 6:1 12:1 16:1 19:1 21:1 27:1 31:1 36:1 38:1 41:1 45:1 58:1 72:1 96:1 111:1 121:1 131:1 155:1 172:1 190:1 197:1 209:1 264:1 320:1 415:1 473:1 515:1 555:1 652:1 718:1 789:1 817:1 
-1 3:1 6:1 12:1 16:1 19:1 21:1 27:1 31:1 36:1 38:1 41:1 46:1 58:1 72:1 96:1 111:1 121:1 131:1 155:1 172:1 190:1 197:1 210:1 264:1 320:1 415:1 473:1 515:1 555:1 652:1 718:1 789:1 818:1 
1 3:1 6:1 12:1 16:1 19:1 21:1 27:1 31:1 36:1 38:1 41:1 47:1 58:1 72:1 96:1 111:1 121:1 131:1 155:1 172:1 190:1 197:1 211:1 264:1 320:1 415:1 473:1 515:1 555:1 652:1 718:1 789:1 819:1 
-1 3:1 6:1 12:1 16:1 19:1 21:1 27:1 31:1 36:1 40:1 41:1 45:1 58:1 72:1 96:1 111:1 121:1 131:1 155:1 172:1 192:1 205:1 209:1 264:1 320:1 415:1 473:1 515:1 555:1 652:1 720:1 797:1 849:1 
1 3:1 6:1 12:1 16:1 19:1 21:1 27:1 31:1 36:1 40:1 44:1 45:1 58:1 72:1 96:1 111:1 121:1 131:1 155:1 172:1 192:1 208:1 221:1 264:1 320:1 415:1 473:1 515:1 555:1 652:1 720:1 800:1 861:1 
1 3:1 6:1 12:1 16:1 19:1 21:1 27:1 31:1 36:1 40:1 44:1 46:1 58:1 72:1 96:1 111:1 121:1 131:1 155:1 172:1 192:1 208:1 222:1 264:1 320:1 415:1 473:1 515:1 555:1 652:1 720:1 800:1 862:1 
1 3:1 6:1 12:1 16:1 19:1 21:1 27:1 31:1 36:1 40:1 44:1 47:1 58:1 72:1 96:1 111:1 121:1 131:1 155:1 172:1 192:1 208:1 223:1 264:1 320:1 415:1 473:1 515:1 555:1 652:1 720:1 800:1 863:1 
-1 3:1 6:1 12:1 16:1 19:1 21:1 27:1 31:1 36:1 40:1 44:1 48:1 58:1 72:1 96:1 111:1 121:1 131:1 155:1 172:1 192:1 208:1 224:1 264:1 320:1 415:1 473:1 515:1 555:1 652:1 720:1 800:1 864:1 
-1 3:1 7:1 10:1 16:1 19:1 21:1 27:1 31:1 36:1 40:1 41:1 45:1 59:1 74:1 88:1 111:1 121:1 131:1 155:1 172:1 192:1 205:1 209:1 266:1 328:1 383:1 473:1 515:1 555:1 652:1 720:1 797:1 849:1 
1 3:1 7:1 10:1 16:1 19:1 21:1 27:1 31:1 36:1 40:1 41:1 46:1 59:1 74:1 88:1 111:1 121:1 131:1 155:1 172:1 192:1 205:1 210:1 266:1 328:1 383:1 473:1 515:1 555:1 652:1 720:1 797:1 850:1 
1 3:1 7:1 10:1 16:1 19:1 21:1 27:1 31:1 36:1 40:1 41:1 47:1 59:1 74:1 88:1 111:1 121:1 131:1 155:1 172:1 192:1 205:1 211:1 266:1 328:1 383:1 473:1 515:1 555:1 652:1 720:1 797:1 851:1 
1 3:1 7:1 10:1 16:1 19:1 21:1 27:1 31:1 36:1 40:1 41:1 48:1 59:1 74:1 88:1 111:1 121:1 131:1 155:1 172:1 192:1 205:1 212:1 266:1 328:1 383:1 473:1 515:1 555:1 652:1 720:1 797:1 852:1 
-1 3:1 7:1 10:1 16:1 19:1 21:1 27:1 31:1 36:1 40:1 44:1 45:1 59:1 74:1 88:1 111:1 121:1 131:1 155:1 172:1 192:1 208:1 221:1 266:1 328:1 383:1 473:1 515:1 555:1 652:1 720:1 800:1 861:1 
-0.23323580653033524 3:1 7:1 10:1 16:1 19:1 21:1 27:1 31:1 36:1 40:1 44:1 46:1 59:1 74:1 88:1 111:1 121:1 131:1 155:1 172:1 192:1 208:1 222:1 266:1 328:1 383:1 473:1 515:1 555:1 652:1 720:1 800:1 862:1 
1 3:1 7:1 10:1 16:1 19:1 21:1 27:1 31:1 36:1 40:1 44:1 47:1 59:1 74:1 88:1 111:1 121:1 131:1 155:1 172:1 192:1 208:1 223:1 266:1 328:1 383:1 473:1 515:1 555:1 652:1 720:1 800:1 863:1 
1 3:1 7:1 10:1 16:1 19:1 21:1 27:1 31:1 36:1 40:1 44:1 48:1 59:1 74:1 88:1 111:1 121:1 131:1 155:1 172:1 192:1 208:1 224:1 266:1 328:1 383:1 473:1 515:1 555:1 652:1 720:1 800:1 864:1 
-1 3:1 7:1 12:1 16:1 19:1 21:1 27:1 31:1 36:1 38:1 41:1 45:1 59:1 76:1 96:1 111:1 121:1 131:1 155:1 172:1 190:1 197:1 209:1 268:1 336:1 415:1 473:1 515:1 555:1 652:1 718:1 789:1 817:1 
-0.35074961437254543 3:1 7:1 12:1 16:1 19:1 21:1 27:1 31:1 36:1 38:1 41:1 46:1 59:1 76:1 96:1 111:1 121:1 131:1 155:1 172:1 190:1 197:1 210:1 268:1 336:1 415:1 473:1 515:1 555:1 652:1 718:1 789:1 818:1 
0.43755534369654991 3:1 7:1 12:1 16:1 19:1 21:1 27:1 31:1 36:1 38:1 41:1 47:1 59:1 76:1 96:1 111:1 121:1 131:1 155:1 172:1 190:1 197:1 211:1 268:1 336:1 415:1 473:1 515:1 555:1 652:1 718:1 789:1 819:1 
-1 3:1 7:1 12:1 16:1 19:1 21:1 27:1 31:1 36:1 38:1 43:1 47:1 59:1 76:1 96:1 111:1 121:1 131:1 155:1 172:1 190:1 199:1 219:1 268:1 336:1 415:1 473:1 515:1 555:1 652:1 718:1 791:1 827:1 
1 3:1 7:1 12:1 16:1 19:1 21:1 27:1 31:1 36:1 38:1 44:1 46:1 59:1 76:1 96:1 111:1 121:1 131:1 155:1 172:1 190:1 200:1 222:1 268:1 336:1 415:1 473:1 515:1 555:1 652:1 718:1 792:1 830:1 
-1 3:1 7:1 12:1 16:1 19:1 21:1 27:1 31:1 36:1 38:1 44:1 48:1 59:1 76:1 96:1 111:1 121:1 131:1 155:1 172:1 190:1 200:1 224:1 268:1 336:1 415:1 473:1 515:1 555:1 652:1 718:1 792:1 832:1 
1 3:1 7:1 12:1 16:1 19:1 21:1 27:1 31:1 36:1 40:1 41:1 46:1 59:1 76:1 96:1 111:1 121:1 131:1 155:1 172:1 192:1 205:1 210:1 268:1 336:1 415:1 473:1 515:1 555:1 652:1 720:1 797:1 850:1 
1 3:1 7:1 12:1 16:1 19:1 21:1 27:1 31:1 36:1 40:1 41:1 47:1 59:1 76:1 96:1 111:1 121:1 131:1 155:1 172:1 192:1 205:1 211:1 268:1 336:1 415:1 473:1 515:1 555:1 652:1 720:1 797:1 851:1 
0.71970223460158478 3:1 7:1 12:1 16:1 19:1 21:1 27:1 31:1 36:1 40:1 42:1 45:1 59:1 76:1 96:1 111:1 121:1 131:1 155:1 172:1 192:1 206:1 213:1 268:1 336:1 415:1 473:1 515:1 555:1 652:1 720:1 798:1 853:1 
1 3:1 7:1 12:1 16:1 19:1 21:1 27:1 31:1 36:1 40:1 43:1 45:1 59:1 76:1 96:1 111:1 121:1 131:1 155:1 172:1 192:1 207:1 217:1 268:1 336:1 415:1 473:1 515:1 555:1 652:1 720:1 799:1 857:1 
-1 3:1 7:1 12:1 16:1 19:1 21:1 27:1 31:1 36:1 40:1 43:1 46:1 59:1 76:1 96:1 111:1 121:1 131:1 155:1 172:1 192:1 207:1 218:1 268:1 336:1 415:1 473:1 515:1 555:1 652:1 720:1 799:1 858:1 
-1 3:1 7:1 12:1 16:1 19:1 21:1 27:1 31:1 36:1 40:1 43:1 47:1 59:1 76:1 96:1 111:1 121:1 131:1 155:1 172:1 192:1 207:1 219:1 268:1 336:1 415:1 473:1 515:1 555:1 652:1 720:1 799:1 859:1 
-1 3:1 7:1 12:1 16:1 19:1 21:1 27:1 31:1 36:1 40:1 43:1 48:1 59:1 76:1 96:1 111:1 121:1 131:1 155:1 172:1 192:1 207:1 220:1 268:1 336:1 415:1 473:1 515:1 555:1 652:1 720:1 799:1 860:1 
-0.79160655125866752 3:1 7:1 12:1 16:1 19:1 21:1 27:1 31:1 36:1 40:1 44:1 45:1 59:1 76:1 96:1 111:1 121:1 131:1 155:1 172:1 192:1 208:1 221:1 268:1 336:1 415:1 473:1 515:1 555:1 652:1 720:1 800:1 861:1 
1 3:1 7:1 12:1 16:1 19:1 21:1 27:1 31:1 36:1 40:1 44:1 46:1 59:1 76:1 96:1 111:1 121:1 131:1 155:1 172:1 192:1 208:1 222:1 268:1 336:1 415:1 473:1 515:1 555:1 652:1 720:1 800:1 862:1 
-1 3:1 7:1 12:1 16:1 19:1 21:1 27:1 31:1 36:1 40:1 44:1 47:1 59:1 76:1 96:1 111:1 121:1 131:1 155:1 172:1 192:1 208:1 223:1 268:1 336:1 415:1 473:1 515:1 555:1 652:1 720:1 800:1 863:1 
1 3:1 7:1 12:1 16:1 19:1 21:1 27:1 31:1 36:1 40:1 44:1 48:1 59:1 76:1 96:1 111:1 121:1 131:1 155:1 172:1 192:1 208:1 224:1 268:1 336:1 415:1 473:1 515:1 555:1 652:1 720:1 800:1 864:1 
1 3:1 8:1 10:1 16:1 19:1 21:1 27:1 31:1 36:1 40:1 41:1 45:1 60:1 78:1 88:1 111:1 121:1 131:1 155:1 172:1 192:1 205:1 209:1 270:1 344:1 383:1 473:1 515:1 555:1 652:1 720:1 797:1 849:1 
-1 3:1 8:1 10:1 16:1 19:1 21:1 27:1 31:1 36:1 40:1 44:1 46:1 60:1 78:1 88:1 111:1 121:1 131:1 155:1 172:1 192:1 208:1 222:1 270:1 344:1 383:1 473:1 515:1 555:1 652:1 720:1 800:1 862:1 
1 3:1 8:1 10:1 16:1 19:1 21:1 27:1 31:1 36:1 40:1 44:1 47:1 60:1 78:1 88:1 111:1 121:1 131:1 155:1 172:1 192:1 208:1 223:1 270:1 344:1 383:1 473:1 515:1 555:1 652:1 720:1 800:1 863:1 
-1 3:1 8:1 10:1 16:1 19:1 21:1 27:1 31:1 36:1 40:1 44:1 48:1 60:1 78:1 88:1 111:1 121:1 131:1 155:1 172:1 192:1 208:1 224:1 270:1 344:1 383:1 473:1 515:1 555:1 652:1 720:1 800:1 864:1 
1 3:1 8:1 12:1 16:1 19:1 21:1 27:1 31:1 36:1 38:1 41:1 45:1 60:1 80:1 96:1 111:1 121:1 131:1 155:1 172:1 190:1 197:1 209:1 272:1 352:1 415:1 473:1 515:1 555:1 652:1 718:1 789:1 817:1 
1 3:1 8:1 12:1 16:1 19:1 21:1 27:1 31:1 36:1 38:1 41:1 47:1 60:1 80:1 96:1 111:1 121:1 131:1 155:1 172:1 190:1 197:1 211:1 272:1 352:1 415:1 473:1 515:1 555:1 652:1 718:1 789:1 819:1 
1 3:1 8:1 12:1 16:1 19:1 21:1 27:1 31:1 36:1 38:1 41:1 48:1 60:1 80:1 96:1 111:1 121:1 131:1 155:1 172:1 190:1 197:1 212:1 272:1 352:1 415:1 473:1 515:1 555:1 652:1 718:1 789:1 820:1 
-1 3:1 8:1 12:1 16:1 19:1 21:1 27:1 31:1 36:1 38:1 42:1 46:1 60:1 80:1 96:1 111:1 121:1 131:1 155:1 172:1 190:1 198:1 214:1 272:1 352:1 415:1 473:1 515:1 555:1 652:1 718:1 790:1 822:1 
-1 3:1 8:1 12:1 16:1 19:1 21:1 27:1 31:1 36:1 38:1 42:1 48:1 60:1 80:1 96:1 111:1 121:1 131:1 155:1 172:1 190:1 198:1 216:1 272:1 352:1 415:1 473:1 515:1 555:1 652:1 718:1 790:1 824:1 
-1 3:1 8:1 12:1 16:1 19:1 21:1 27:1 31:1 36:1 38:1 43:1 45:1 60:1 80:1 96:1 111:1 121:1 131:1 155:1 172:1 190:1 199:1 217:1 272:1 352:1 415:1 473:1 515:1 555:1 652:1 718:1 791:1 825:1 
0.79087594359697311 3:1 8:1 12:1 16:1 19:1 21:1 27:1 31:1 36:1 38:1 43:1 46:1 60:1 80:1 96:1 111:1 121:1 131:1 155:1 172:1 190:1 199:1 218:1 272:1 352:1 415:1 473:1 515:1 555:1 652:1 718:1 791:1 826:1 
1 3:1 8:1 12:1 16:1 19:1 21:1 27:1 31:1 36:1 38:1 43:1 48:1 60:1 80:1 96:1 111:1 121:1 131:1 155:1 172:1 190:1 199:1 220:1 272:1 352:1 415:1 473:1 515:1 555:1 652:1 718:1 791:1 828:1 
-1 3:1 8:1 12:1 16:1 19:1 21:1 27:1 31:1 36:1 38:1 44:1 47:1 60:1 80:1 96:1 111:1 121:1 131:1 155:1 172:1 190:1 200:1 223:1 272:1 352:1 415:1 473:1 515:1 555:1 652:1 718:1 792:1 831:1 
0.40500766906090796 3:1 8:1 12:1 16:1 19:1 21:1 27:1 31:1 36:1 38:1 44:1 48:1 60:1 80:1 96:1 111:1 121:1 131:1 155:1 172:1 190:1 200:1 224:1 272:1 352:1 415:1 473:1 515:1 555:1 652:1 718:1 792:1 832:1 
1 3:1 8:1 12:1 16:1 19:1 21:1 27:1 31:1 36:1 40:1 41:1 46:1 60:1 80:1 96:1 111:1 121:1 131:1 155:1 172:1 192:1 205:1 210:1 272:1 352:1 415:1 473:1 515:1 555:1 652:1 720:1 797:1 850:1 
1 3:1 8:1 12:1 16:1 19:1 21:1 27:1 31:1 36:1 40:1 41:1 47:1 60:1 80:1 96:1 111:1 121:1 131:1 155:1 172:1 192:1 205:1 211:1 272:1 352:1 415:1 473:1 515:1 555:1 652:1 720:1 797:1 851:1 
-0.068266452112609968 3:1 8:1 12:1 16:1 19:1 21:1 27:1 31:1 36:1 40:1 41:1 48:1 60:1 80:1 96:1 111:1 121:1 131:1 155:1 172:1 192:1 205:1 212:1 272:1 352:1 415:1 473:1 515:1 555:1 652:1 720:1 797:1 852:1 
-1 3:1 8:1 12:1 16:1 19:1 21:1 27:1 31:1 36:1 40:1 42:1 45:1 60:1 80:1 96:1 111:1 121:1 131:1 155:1 172:1 192:1 206:1 213:1 272:1 352:1 415:1 473:1 515:1 555:1 652:1 720:1 798:1 853:1 
1 3:1 8:1 12:1 16:1 19:1 21:1 27:1 31:1 36:1 40:1 42:1 46:1 60:1 80:1 96:1 111:1 121:1 131:1 155:1 172:1 192:1 206:1 214:1 272:1 352:1 415:1 473:1 515:1 555:1 652:1 720:1 798:1 854:1 
-1 3:1 8:1 12:1 16:1 19:1 21:1 27:1 31:1 36:1 40:1 42:1 47:1 60:1 80:1 96:1 111:1 121:1 131:1 155:1 172:1 192:1 206:1 215:1 272:1 352:1 415:1 473:1 515:1 555:1 652:1 720:1 798:1 855:1 
-1 3:1 8:1 12:1 16:1 19:1 21:1 27:1 31:1 36:1 40:1 42:1 48:1 60:1 80:1 96:1 111:1 121:1 131:1 155:1 172:1 192:1 206:1 216:1 272:1 352:1 415:1 473:1 515:1 555:1 652:1 720:1 798:1 856:1 
1 3:1 8:1 12:1 16:1 19:1 21:1 27:1 31:1 36:1 40:1 43:1 45:1 60:1 80:1 96:1 111:1 121:1 131:1 155:1 172:1 192:1 207:1 217:1 272:1 352:1 415:1 473:1 515:1 555:1 652:1 720:1 799:1 857:1 
-1 3:1 8:1 12:1 16:1 19:1 21:1 27:1 31:1 36:1 40:1 43:1 46:1 60:1 80:1 96:1 111:1 121:1 131:1 155:1 172:1 192:1 207:1 218:1 272:1 352:1 415:1 473:1 515:1 555:1 652:1 720:1 799:1 858:1 
-0.005562409764347475 3:1 8:1 12:1 16:1 19:1 21:1 27:1 31:1 36:1 40:1 43:1 47:1 60:1 80:1 96:1 111:1 121:1 131:1 155:1 172:1 192:1 207:1 219:1 272:1 352:1 415:1 473:1 515:1 555:1 652:1 720:1 799:1 859:1 
-1 3:1 8:1 12:1 16:1 19:1 21:1 27:1 31:1 36:1 40:1 43:1 48:1 60:1 80:1 96:1 111:1 121:1 131:1 155:1 172:1 192:1 207:1 220:1 272:1 352:1 415:1 473:1 515:1 555:1 652:1 720:1 799:1 860:1 
-1 3:1 8:1 12:1 16:1 19:1 21:1 27:1 31:1 36:1 40:1 44:1 45:1 60:1 80:1 96:1 111:1 121:1 131:1 155:1 172:1 192:1 208:1 221:1 272:1 352:1 415:1 473:1 515:1 555:1 652:1 720:1 800:1 861:1 
1 3:1 8:1 12:1 16:1 19:1 21:1 27:1 31:1 36:1 40:1 44:1 46:1 60:1 80:1 96:1 111:1 121:1 131:1 155:1 172:1 192:1 208:1 222:1 272:1 352:1 415:1 473:1 515:1 555:1 652:1 720:1 800:1 862:1 
-0.085557551067129006 3:1 8:1 12:1 16:1 19:1 21:1 27:1 31:1 36:1 40:1 44:1 47:1 60:1 80:1 96:1 111:1 121:1 131:1 155:1 172:1 192:1 208:1 223:1 272:1 352:1 415:1 473:1 515:1 555:1 652:1 720:1 800:1 863:1 
1 3:1 8:1 12:1 16:1 19:1 21:1 27:1 31:1 36:1 40:1 44:1 48:1 60:1 80:1 96:1 111:1 121:1 131:1 155:1 172:1 192:1 208:1 224:1 272:1 352:1 415:1 473:1 515:1 555:1 652:1 720:1 800:1 864:1 
1 4:1 5:1 10:1 16:1 19:1 21:1 27:1 31:1 36:1 40:1 41:1 45:1 61:1 66:1 88:1 111:1 121:1 131:1 155:1 172:1 192:1 205:1 209:1 274:1 296:1 383:1 473:1 515:1 555:1 652:1 720:1 797:1 849:1 
0.13424433447527717 4:1 5:1 10:1 16:1 19:1 21:1 27:1 31:1 36:1 40:1 41:1 46:1 61:1 66:1 88:1 111:1 121:1 131:1 155:1 172:1 192:1 205:1 210:1 274:1 296:1 383:1 473:1 515:1 555:1 652:1 720:1 797:1 850:1 
1 4:1 5:1 10:1 16:1 19:1 21:1 27:1 31:1 36:1 40:1 44:1 45:1 61:1 66:1 88:1 111:1 121:1 131:1 155:1 172:1 192:1 208:1 221:1 274:1 296:1 383:1 473:1 515:1 555:1 652:1 720:1 800:1 861:1 
-1 4:1 5:1 10:1 16:1 19:1 21:1 27:1 31:1 36:1 40:1 44:1 46:1 61:1 66:1 88:1 111:1 121:1 131:1 155:1 172:1 192:1 208:1 222:1 274:1 296:1 383:1 473:1 515:1 555:1 652:1 720:1 800:1 862:1 
-1 4:1 5:1 10:1 16:1 19:1 21:1 27:1 31:1 36:1 40:1 44:1 47:1 61:1 66:1 88:1 111:1 121:1 131:1 155:1 172:1 192:1 208:1 223:1 274:1 296:1 383:1 473:1 515:1 555:1 652:1 720:1 800:1 863:1 
-1 4:1 5:1 10:1 16:1 19:1 21:1 27:1 31:1 36:1 40:1 44:1 48:1 61:1 66:1 88:1 111:1 121:1 131:1 155:1 172:1 192:1 208:1 224:1 274:1 296:1 383:1 473:1 515:1 555:1 652:1 720:1 800:1 864:1 
0.1477830903389824 4:1 5:1 12:1 16:1 19:1 21:1 27:1 31:1 36:1 38:1 41:1 45:1 61:1 68:1 96:1 111:1 121:1 131:1 155:1 172:1 190:1 197:1 209:1 276:1 304:1 415:1 473:1 515:1 555:1 652:1 718:1 789:1 817:1 
-1 4:1 5:1 12:1 16:1 19:1 21:1 27:1 31:1 36:1 38:1 41:1 47:1 61:1 68:1 96:1 111:1 121:1 131:1 155:1 172:1 190:1 197:1 211:1 276:1 304:1 415:1 473:1 515:1 555:1 652:1 718:1 789:1 819:1 
-1 4:1 5:1 12:1 16:1 19:1 21:1 27:1 31:1 36:1 38:1 41:1 48:1 61:1 68:1 96:1 111:1 121:1 131:1 155:1 172:1 190:1 197:1 212:1 276:1 304:1 415:1 473:1 515:1 555:1 652:1 718:1 789:1 820:1 
1 4:1 5:1 12:1 16:1 19:1 21:1 27:1 31:1 36:1 40:1 41:1 45:1 61:1 68:1 96:1 111:1 121:1 131:1 155:1 172:1 192:1 205:1 209:1 276:1 304:1 415:1 473:1 515:1 555:1 652:1 720:1 797:1 849:1 
-1 4:1 5:1 12:1 16:1 19:1 21:1 27:1 31:1 36:1 40:1 41:1 46:1 61:1 68:1 96:1 111:1 121:1 131:1 155:1 172:1 192:1 205:1 210:1 276:1 304:1 415:1 473:1 515:1 555:1 652:1 720:1 797:1 850:1 
1 4:1 5:1 12:1 16:1 19:1 21:1 27:1 31:1 36:1 40:1 41:1 47:1 61:1 68:1 96:1 111:1 121:1 131:1 155:1 172:1 192:1 205:1 211:1 276:1 304:1 415:1 473:1 515:1 555:1 652:1 720:1 797:1 851:1 
-1 4:1 5:1 12:1 16:1 19:1 21:1 27:1 31:1 36:1 40:1 44:1 45:1 61:1 68:1 96:1 111:1 121:1 131:1 155:1 172:1 192:1 208:1 221:1 276:1 304:1 415:1 473:1 515:1 555:1 652:1 720:1 800:1 861:1 
1 4:1 5:1 12:1 16:1 19:1 21:1 27:1 31:1 36:1 40:1 44:1 46:1 61:1 68:1 96:1 111:1 121:1 131:1 155:1 172:1 192:1 208:1 222:1 276:1 304:1 415:1 473:1 515:1 555:1 652:1 720:1 800:1 862:1 
-0.39121825132422283 4:1 5:1 12:1 16:1 19:1 21:1 27:1 31:1 36:1 40:1 44:1 47:1 61:1 68:1 96:1 111:1 121:1 131:1 155:1 172:1 192:1 208:1 223:1 276:1 304:1 415:1 473:1 515:1 555:1 652:1 720:1 800:1 863:1 
1 4:1 5:1 12:1 16:1 19:1 21:1 27:1 31:1 36:1 40:1 44:1 48:1 61:1 68:1 96:1 111:1 121:1 131:1 155:1 172:1 192:1 208:1 224:1 276:1 304:1 415:1 473:1 515:1 555:1 652:1 720:1 800:1 864:1 
1 4:1 6:1 10:1 16:1 19:1 21:1 27:1 31:1 36:1 40:1 41:1 45:1 62:1 70:1 88:1 111:1 121:1 131:1 155:1 172:1 192:1 205:1 209:1 278:1 312:1 383:1 473:1 515:1 555:1 652:1 720:1 797:1 849:1 
-1 4:1 6:1 10:1 16:1 19:1 21:1 27:1 31:1 36:1 40:1 41:1 46:1 62:1 70:1 88:1 111:1 121:1 131:1 155:1 172:1 192:1 205:1 210:1 278:1 312:1 383:1 473:1 515:1 555:1 652:1 720:1 797:1 850:1 
1 4:1 6:1 10:1 16:1 19:1 21:1 27:1 31:1 36:1 40:1 41:1 47:1 62:1 70:1 88:1 111:1 121:1 131:1 155:1 172:1 192:1 205:1 211:1 278:1 312:1 383:1 473:1 515:1 555:1 652:1 720:1 797:1 851:1 
-0.39326090169683442 4:1 6:1 10:1 16:1 19:1 21:1 27:1 31:1 36:1 40:1 41:1 48:1 62:1 70:1 88:1 111:1 121:1 131:1 155:1 172:1 192:1 205:1 212:1 278:1 312:1 383:1 473:1 515:1 555:1 652:1 720:1 797:1 852:1 
1 4:1 6:1 10:1 16:1 19:1 21:1 27:1 31:1 36:1 40:1 44:1 45:1 62:1 70:1 88:1 111:1 121:1 131:1 155:1 172:1 192:1 208:1 221:1 278:1 312:1 383:1 473:1 515:1 555:1 652:1 720:1 800:1 861:1 
1 4:1 6:1 10:1 16:1 19:1 21:1 27:1 31:1 36:1 40:1 44:1 46:1 62:1 70:1 88:1 111:1 121:1 131:1 155:1 172:1 192:1 208:1 222:1 278:1 312:1 383:1 473:1 515:1 555:1 652:1 720:1 800:1 862:1 
-1 4:1 6:1 10:1 16:1 19:1 21:1 27:1 31:1 36:1 40:1 44:1 47:1 62:1 70:1 88:1 111:1 121:1 131:1 155:1 172:1 192:1 208:1 223:1 278:1 312:1 383:1 473:1 515:1 555:1 652:1 720:1 800:1 863:1 
1 4:1 6:1 10:1 16:1 19:1 21:1 27:1 31:1 36:1 40:1 44:1 48:1 62:1 70:1 88:1 111:1 121:1 131:1 155:1 172:1 192:1 208:1 224:1 278:1 312:1 383:1 473:1 515:1 555:1 652:1 720:1 800:1 864:1 
1 4:1 6:1 12:1 16:1 19:1 21:1 27:1 31:1 36:1 38:1 41:1 45:1 62:1 72:1 96:1 111:1 121:1 131:1 155:1 172:1 190:1 197:1 209:1 280:1 320:1 415:1 473:1 515:1 555:1 652:1 718:1 789:1 817:1 
-1 4:1 6:1 12:1 16:1 19:1 21:1 27:1 31:1 36:1 38:1 41:1 47:1 62:1 72:1 96:1 111:1 121:1 131:1 155:1 172:1 190:1 197:1 211:1 280:1 320:1 415:1 473:1 515:1 555:1 652:1 718:1 789:1 819:1 
-0.25458540988583339 4:1 6:1 12:1 16:1 19:1 21:1 27:1 31:1 36:1 38:1 41:1 48:1 62:1 72:1 96:1 111:1 121:1 131:1 155:1 172:1 190:1 197:1 212:1 280:1 320:1 415:1 473:1 515:1 555:1 652:1 718:1 789:1 820:1 
-0.21597006167865693 4:1 6:1 12:1 16:1 19:1 21:1 27:1 31:1 36:1 40:1 41:1 45:1 62:1 72:1 96:1 111:1 121:1 131:1 155:1 172:1 192:1 205:1 209:1 280:1 320:1 415:1 473:1 515:1 555:1 652:1 720:1 797:1 849:1 
-1 4:1 6:1 12:1 16:1 19:1 21:1 27:1 31:1 36:1 40:1 41:1 46:1 62:1 72:1 96:1 111:1 121:1 131:1 155:1 172:1 192:1 205:1 210:1 280:1 320:1 415:1 473:1 515:1 555:1 652:1 720:1 797:1 850:1 
-0.016791909638948086 4:1 6:1 12:1 16:1 19:1 21:1 27:1 31:1 36:1 40:1 41:1 47:1 62:1 72:1 96:1 111:1 121:1 131:1 155:1 172:1 192:1 205:1 211:1 280:1 320:1 415:1 473:1 515:1 555:1 652:1 720:1 797:1 851:1 
-1 4:1 6:1 12:1 16:1 19:1 21:1 27:1 31:1 36:1 40:1 44:1 45:1 62:1 72:1 96:1 111:1 121:1 131:1 155:1 172:1 192:1 208:1 221:1 280:1 320:1 415:1 473:1 515:1 555:1 652:1 720:1 800:1 861:1 
-0.97938138150482512 4:1 6:1 12:1 16:1 19:1 21:1 27:1 31:1 36:1 40:1 44:1 46:1 62:1 72:1 96:1 111:1 121:1 131:1 155:1 172:1 192:1 208:1 222:1 280:1 320:1 415:1 473:1 515:1 555:1 652:1 720:1 800:1 862:1 
1 4:1 6:1 12:1 16:1 19:1 21:1 27:1 31:1 36:1 40:1 44:1 47:1 62:1 72:1 96:1 111:1 121:1 131:1 155:1 172:1 192:1 208:1 223:1 280:1 320:1 415:1 473:1 515:1 555:1 652:1 720:1 800:1 863:1 
1 4:1 6:1 12:1 16:1 19:1 21:1 27:1 31:1 36:1 40:1 44:1 48:1 62:1 72:1 96:1 111:1 121:1 131:1 155:1 172:1 192:1 208:1 224:1 280:1 320:1 415:1 473:1 515:1 555:1 652:1 720:1 800:1 864:1 
-1 4:1 7:1 10:1 16:1 19:1 21:1 27:1 31:1 36:1 40:1 41:1 45:1 63:1 74:1 88:1 111:1 121:1 131:1 155:1 172:1 192:1 205:1 209:1 282:1 328:1 383:1 473:1 515:1 555:1 652:1 720:1 797:1 849:1 
1 4:1 7:1 10:1 16:1 19:1 21:1 27:1 31:1 36:1 40:1 41:1 46:1 63:1 74:1 88:1 111:1 121:1 131:1 155:1 172:1 192:1 205:1 210:1 282:1 328:1 383:1 473:1 515:1 555:1 652:1 720:1 797:1 850:1 
-1 4:1 7:1 10:1 16:1 19:1 21:1 27:1 31:1 36:1 40:1 41:1 47:1 63:1 74:1 88:1 111:1 121:1 131:1 155:1 172:1 192:1 205:1 211:1 282:1 328:1 383:1 473:1 515:1 555:1 652:1 720:1 797:1 851:1 
-1 4:1 7:1 10:1 16:1 19:1 21:1 27:1 31:1 36:1 40:1 41:1 48:1 63:1 74:1 88:1 111:1 121:1 131:1 155:1 172:1 192:1 205:1 212:1 282:1 328:1 383:1 473:1 515:1 555:1 652:1 720:1 797:1 852:1 
1 4:1 7:1 10:1 16:1 19:1 21:1 27:1 31:1 36:1 40:1 44:1 45:1 63:1 74:1 88:1 111:1 121:1 131:1 155:1 172:1 192:1 208:1 221:1 282:1 328:1 383:1 473:1 515:1 555:1 652:1 720:1 800:1 861:1 
-1 4:1 7:1 10:1 16:1 19:1 21:1 27:1 31:1 36:1 40:1 44:1 46:1 63:1 74:1 88:1 111:1 121:1 131:1 155:1 172:1 192:1 208:1 222:1 282:1 328:1 383:1 473:1 515:1 555:1 652:1 720:1 800:1 862:1 
-1 4:1 7:1 10:1 16:1 19:1 21:1 27:1 31:1 36:1 40:1 44:1 47:1 63:1 74:1 88:1 111:1 121:1 131:1 155:1 172:1 192:1 208:1 223:1 282:1 328:1 383:1 473:1 515:1 555:1 652:1 720:1 800:1 863:1 
1 4:1 7:1 10:1 16:1 19:1 21:1 27:1 31:1 36:1 40:1 44:1 48:1 63:1 74:1 88:1 111:1 121:1 131:1 155:1 172:1 192:1 208:1 224:1 282:1 328:1 383:1 473:1 515:1 555:1 652:1 720:1 800:1 864:1 
1 4:1 7:1 12:1 16:1 19:1 21:1 27:1 31:1 36:1 38:1 41:1 45:1 63:1 76:1 96:1 111:1 121:1 131:1 155:1 172:1 190:1 197:1 209:1 284:1 336:1 415:1 473:1 515:1 555:1 652:1 718:1 789:1 817:1 
1 4:1 7:1 12:1 16:1 19:1 21:1 27:1 31:1 36:1 38:1 41:1 46:1 63:1 76:1 96:1 111:1 121:1 131:1 155:1 172:1 190:1 197:1 210:1 284:1 336:1 415:1 473:1 515:1 555:1 652:1 718:1 789:1 818:1 
1 4:1 7:1 12:1 16:1 19:1 21:1 27:1 31:1 36:1 38:1 41:1 47:1 63:1 76:1 96:1 111:1 121:1 131:1 155:1 172:1 190:1 197:1 211:1 284:1 336:1 415:1 473:1 515:1 555:1 652:1 718:1 789:1 819:1 
-1 4:1 7:1 12:1 16:1 19:1 21:1 27:1 31:1 36:1 38:1 41:1 48:1 63:1 76:1 96:1 111:1 121:1 131:1 155:1 172:1 190:1 197:1 212:1 284:1 336:1 415:1 473:1 515:1 555:1 652:1 718:1 789:1 820:1 
-1 4:1 7:1 12:1 16:1 19:1 21:1 27:1 31:1 36:1 38:1 44:1 46:1 63:1 76:1 96:1 111:1 121:1 131:1 155:1 172:1 190:1 200:1 222:1 284:1 336:1 415:1 473:1 515:1 555:1 652:1 718:1 792:1 830:1 
1 4:1 7:1 12:1 16:1 19:1 21:1 27:1 31:1 36:1 38:1 44:1 47:1 63:1 76:1 96:1 111:1 121:1 131:1 155:1 172:1 190:1 200:1 223:1 284:1 336:1 415:1 473:1 515:1 555:1 652:1 718:1 792:1 831:1 
-1 4:1 7:1 12:1 16:1 19:1 21:1 27:1 31:1 36:1 38:1 44:1 48:1 63:1 76:1 96:1 111:1 121:1 131:1 155:1 172:1 190:1 200:1 224:1 284:1 336:1 415:1 473:1 515:1 555:1 652:1 718:1 792:1 832:1 
1 4:1 7:1 12:1 16:1 19:1 21:1 27:1 31:1 36:1 40:1 41:1 46:1 63:1 76:1 96:1 111:1 121:1 131:1 155:1 172:1 192:1 205:1 210:1 284:1 336:1 415:1 473:1 515:1 555:1 652:1 720:1 797:1 850:1 
0.24835335258840927 4:1 7:1 12:1 16:1 19:1 21:1 27:1 31:1 36:1 40:1 41:1 47:1 63:1 76:1 96:1 111:1 121:1 131:1 155:1 172:1 192:1 205:1 211:1 284:1 336:1 415:1 473:1 515:1 555:1 652:1 720:1 797:1 851:1 
-1 4:1 7:1 12:1 16:1 19:1 21:1 27:1 31:1 36:1 40:1 41:1 48:1 63:1 76:1 96:1 111:1 121:1 131:1 155:1 172:1 192:1 205:1 212:1 284:1 336:1 415:1 473:1 515:1 555:1 652:1 720:1 797:1 852:1 
-1 4:1 7:1 12:1 16:1 19:1 21:1 27:1 31:1 36:1 40:1 42:1 45:1 63:1 76:1 96:1 111:1 121:1 131:1 155:1 172:1 192:1 206:1 213:1 284:1 336:1 415:1 473:1 515:1 555:1 652:1 720:1 798:1 853:1 
-0.41156238907511516 4:1 7:1 12:1 16:1 19:1 21:1 27:1 31:1 36:1 40:1 42:1 46:1 63:1 76:1 96:1 111:1 121:1 131:1 155:1 172:1 192:1 206:1 214:1 284:1 336:1 415:1 473:1 515:1 555:1 652:1 720:1 798:1 854:1 
1 4:1 7:1 12:1 16:1 19:1 21:1 27:1 31:1 36:1 40:1 43:1 47:1 63:1 76:1 96:1 111:1 121:1 131:1 155:1 172:1 192:1 207:1 219:1 284:1 336:1 415:1 473:1 515:1 555:1 652:1 720:1 799:1 859:1 
1 4:1 7:1 12:1 16:1 19:1 21:1 27:1 31:1 36:1 40:1 43:1 48:1 63:1 76:1 96:1 111:1 121:1 131:1 155:1 172:1 192:1 207:1 220:1 284:1 336:1 415:1 473:1 515:1 555:1 652:1 720:1 799:1 860:1 
-0.47749435141928426 4:1 7:1 12:1 16:1 19:1 21:1 27:1 31:1 36:1 40:1 44:1 45:1 63:1 76:1 96:1 111:1 121:1 131:1 155:1 172:1 192:1 208:1 221:1 284:1 336:1 415:1 473:1 515:1 555:1 652:1 720:1 800:1 861:1 
-1 4:1 7:1 12:1 16:1 19:1 21:1 27:1 31:1 36:1 40:1 44:1 46:1 63:1 76:1 96:1 111:1 121:1 131:1 155:1 172:1 192:1 208:1 222:1 284:1 336:1 415:1 473:1 515:1 555:1 652:1 720:1 800:1 862:1 
-1 4:1 7:1 12:1 16:1 19:1 21:1 27:1 31:1 36:1 40:1 44:1 47:1 63:1 76:1 96:1 111:1 121:1 131:1 155:1 172:1 192:1 208:1 223:1 284:1 336:1 415:1 473:1 515:1 555:1 652:1 720:1 800:1 863:1 
1 4:1 7:1 12:1 16:1 19:1 21:1 27:1 31:1 36:1 40:1 44:1 48:1 63:1 76:1 96:1 111:1 121:1 131:1 155:1 172:1 192:1 208:1 224:1 284:1 336:1 415:1 473:1 515:1 555:1 652:1 720:1 800:1 864:1 
-1 4:1 8:1 10:1 16:1 19:1 21:1 27:1 31:1 36:1 40:1 41:1 45:1 64:1 78:1 88:1 111:1 121:1 131:1 155:1 172:1 192:1 205:1 209:1 286:1 344:1 383:1 473:1 515:1 555:1 652:1 720:1 797:1 849:1 
-1 4:1 8:1 10:1 16:1 19:1 21:1 27:1 31:1 36:1 40:1 41:1 46:1 64:1 78:1 88:1 111:1 121:1 131:1 155:1 172:1 192:1 205:1 210:1 286:1 344:1 383:1 473:1 515:1 555:1 652:1 720:1 797:1 850:1 
1 4:1 8:1 10:1 16:1 19:1 21:1 27:1 31:1 36:1 40:1 41:1 47:1 64:1 78:1 88:1 111:1 121:1 131:1 155:1 172:1 192:1 205:1 211:1 286:1 344:1 383:1 473:1 515:1 555:1 652:1 720:1 797:1 851:1 
0.71969777253372036 4:1 8:1 10:1 16:1 19:1 21:1 27:1 31:1 36:1 40:1 41:1 48:1 64:1 78:1 88:1 111:1 121:1 131:1 155:1 172:1 192:1 205:1 212:1 286:1 344:1 383:1 473:1 515:1 555:1 652:1 720:1 797:1 852:1 
-1 4:1 8:1 10:1 16:1 19:1 21:1 27:1 31:1 36:1 40:1 44:1 45:1 64:1 78:1 88:1 111:1 121:1 131:1 155:1 172:1 192:1 208:1 221:1 286:1 344:1 383:1 473:1 515:1 555:1 652:1 720:1 800:1 861:1 
0.54499693990024944 4:1 8:1 10:1 16:1 19:1 21:1 27:1 31:1 36:1 40:1 44:1 46:1 64:1 78:1 88:1 111:1 121:1 131:1 155:1 172:1 192:1 208:1 222:1 286:1 344:1 383:1 473:1 515:1 555:1 652:1 720:1 800:1 862:1 
1 4:1 8:1 10:1 16:1 19:1 21:1 27:1 31:1 36:1 40:1 44:1 47:1 64:1 78:1 88:1 111:1 121:1 131:1 155:1 172:1 192:1 208:1 223:1 286:1 344:1 383:1 473:1 515:1 555:1 652:1 720:1 800:1 863:1 
1 4:1 8:1 10:1 16:1 19:1 21:1 27:1 31:1 36:1 40:1 44:1 48:1 64:1 78:1 88:1 111:1 121:1 131:1 155:1 172:1 192:1 208:1 224:1 286:1 344:1 383:1 473:1 515:1 555:1 652:1 720:1 800:1 864:1 
1 4:1 8:1 12:1 16:1 19:1 21:1 27:1 31:1 36:1 38:1 41:1 46:1 64:1 80:1 96:1 111:1 121:1 131:1 155:1 172:1 190:1 197:1 210:1 288:1 352:1 415:1 473:1 515:1 555:1 652:1 718:1 789:1 818:1 
1 4:1 8:1 12:1 16:1 19:1 21:1 27:1 31:1 36:1 38:1 41:1 47:1 64:1 80:1 96:1 111:1 121:1 131:1 155:1 172:1 190:1 197:1 211:1 288:1 352:1 415:1 473:1 515:1 555:1 652:1 718:1 789:1 819:1 
-1 4:1 8:1 12:1 16:1 19:1 21:1 27:1 31:1 36:1 38:1 41:1 48:1 64:1 80:1 96:1 111:1 121:1 131:1 155:1 172:1 190:1 197:1 212:1 288:1 352:1 415:1 473:1 515:1 555:1 652:1 718:1 789:1 820:1 
-0.52166784590876547 4:1 8:1 12:1 16:1 19:1 21:1 27:1 31:1 36:1 38:1 42:1 47:1 64:1 80:1 96:1 111:1 121:1 131:1 155:1 172:1 190:1 198:1 215:1 288:1 352:1 415:1 473:1 515:1 555:1 652:1 718:1 790:1 823:1 
-1 4:1 8:1 12:1 16:1 19:1 21:1 27:1 31:1 36:1 38:1 42:1 48:1 64:1 80:1 96:1 111:1 121:1 131:1 155:1 172:1 190:1 198:1 216:1 288:1 352:1 415:1 473:1 515:1 555:1 652:1 718:1 790:1 824:1 
-1 4:1 8:1 12:1 16:1 19:1 21:1 27:1 31:1 36:1 38:1 43:1 45:1 64:1 80:1 96:1 111:1 121:1 131:1 155:1 172:1 190:1 199:1 217:1 288:1 352:1 415:1 473:1 515:1 555:1 652:1 718:1 791:1 825:1 
1 4:1 8:1 12:1 16:1 19:1 21:1 27:1 31:1 36:1 38:1 43:1 46:1 64:1 80:1 96:1 111:1 121:1 131:1 155:1 172:1 190:1 199:1 218:1 288:1 352:1 415:1 473:1 515:1 555:1 652:1 718:1 791:1 826:1 
1 4:1 8:1 12:1 16:1 19:1 21:1 27:1 31:1 36:1 38:1 43:1 47:1 64:1 80:1 96:1 111:1 121:1 131:1 155:1 172:1 190:1 199:1 219:1 288:1 352:1 415:1 473:1 515:1 555:1 652:1 718:1 791:1 827:1 
-0.83195852165315654 4:1 8:1 12:1 16:1 19:1 21:1 27:1 31:1 36:1 38:1 44:1 45:1 64:1 80:1 96:1 111:1 121:1 131:1 155:1 172:1 190:1 200:1 221:1 288:1 352:1 415:1 473:1 515:1 555:1 652:1 718:1 792:1 829:1 
1 4:1 8:1 12:1 16:1 19:1 21:1 27:1 31:1 36:1 38:1 44:1 46:1 64:1 80:1 96:1 111:1 121:1 131:1 155:1 172:1 190:1 200:1 222:1 288:1 352:1 415:1 473:1 515:1 555:1 652:1 718:1 792:1 830:1 
-0.32839658481457673 4:1 8:1 12:1 16:1 19:1 21:1 27:1 31:1 36:1 38:1 44:1 47:1 64:1 80:1 96:1 111:1 121:1 131:1 155:1 172:1 190:1 200:1 223:1 288:1 352:1 415:1 473:1 515:1 555:1 652:1 718:1 792:1 831:1 
-1 4:1 8:1 12:1 16:1 19:1 21:1 27:1 31:1 36:1 38:1 44:1 48:1 64:1 80:1 96:1 111:1 121:1 131:1 155:1 172:1 190:1 200:1 224:1 288:1 352:1 415:1 473:1 515:1 555:1 652:1 718:1 792:1 832:1 
-0.23606107224758371 4:1 8:1 12:1 16:1 19:1 21:1 27:1 31:1 36:1 40:1 41:1 45:1 64:1 80:1 96:1 111:1 121:1 131:1 155:1 172:1 192:1 205:1 209:1 288:1 352:1 415:1 473:1 515:1 555:1 652:1 720:1 797:1 849:1 
-1 4:1 8:1 12:1 16:1 19:1 21:1 27:1 31:1 36:1 40:1 41:1 46:1 64:1 80:1 96:1 111:1 121:1 131:1 155:1 172:1 192:1 205:1 210:1 288:1 352:1 415:1 473:1 515:1 555:1 652:1 720:1 797:1 850:1 
1 4:1 8:1 12:1 16:1 19:1 21:1 27:1 31:1 36:1 40:1 41:1 47:1 64:1 80:1 96:1 111:1 121:1 131:1 155:1 172:1 192:1 205:1 211:1 288:1 352:1 415:1 473:1 515:1 555:1 652:1 720:1 797:1 851:1 
1 4:1 8:1 12:1 16:1 19:1 21:1 27:1 31:1 36:1 40:1 41:1 48:1 64:1 80:1 96:1 111:1 121:1 131:1 155:1 172:1 192:1 205:1 212:1 288:1 352:1 415:1 473:1 515:1 555:1 652:1 720:1 797:1 852:1 
-1 4:1 8:1 12:1 16:1 19:1 21:1 27:1 31:1 36:1 40:1 42:1 45:1 64:1 80:1 96:1 111:1 121:1 131:1 155:1 172:1 192:1 206:1 213:1 288:1 352:1 415:1 473:1 515:1 555:1 652:1 720:1 798:1 853:1 
-1 4:1 8:1 12:1 16:1 19:1 21:1 27:1 31:1 36:1 40:1 42:1 46:1 64:1 80:1 96:1 111:1 121:1 131:1 155:1 172:1 192:1 206:1 214:1 288:1 352:1 415:1 473:1 515:1 555:1 652:1 720:1 798:1 854:1 
1 4:1 8:1 12:1 16:1 19:1 21:1 27:1 31:1 36:1 40:1 42:1 48:1 64:1 80:1 96:1 111:1 121:1 131:1 155:1 172:1 192:1 206:1 216:1 288:1 352:1 415:1 473:1 515:1 555:1 652:1 720:1 798:1 856:1 
0.71101130641916832 4:1 8:1 12:1 16:1 19:1 21:1 27:1 31:1 36:1 40:1 43:1 45:1 64:1 80:1 96:1 111:1 121:1 131:1 155:1 172:1 192:1 207:1 217:1 288:1 352:1 415:1 473:1 515:1 555:1 652:1 720:1 799:1 857:1 
0.984510379257442 4:1 8:1 12:1 16:1 19:1 21:1 27:1 31:1 36:1 40:1 43:1 46:1 64:1 80:1 96:1 111:1 121:1 131:1 155:1 172:1 192:1 207:1 218:1 288:1 352:1 415:1 473:1 515:1 555:1 652:1 720:1 799:1 858:1 
-1 4:1 8:1 12:1 16:1 19:1 21:1 27:1 31:1 36:1 40:1 43:1 47:1 64:1 80:1 96:1 111:1 121:1 131:1 155:1 172:1 192:1 207:1 219:1 288:1 352:1 415:1 473:1 515:1 555:1 652:1 720:1 799:1 859:1 
-0.98847061370894918 4:1 8:1 12:1 16:1 19:1 21:1 27:1 31:1 36:1 40:1 43:1 48:1 64:1 80:1 96:1 111:1 121:1 131:1 155:1 172:1 192:1 207:1 220:1 288:1 352:1 415:1 473:1 515:1 555:1 652:1 720:1 799:1 860:1 
1 4:1 8:1 12:1 16:1 19:1 21:1 27:1 31:1 36:1 40:1 44:1 45:1 64:1 80:1 96:1 111:1 121:1 131:1 155:1 172:1 192:1 208:1 221:1 288:1 352:1 415:1 473:1 515:1 555:1 652:1 720:1 800:1 861:1 
1 4:1 8:1 12:1 16:1 19:1 21:1 27:1 31:1 36:1 40:1 44:1 46:1 64:1 80:1 96:1 111:1 121:1 131:1 155:1 172:1 192:1 208:1 222:1 288:1 352:1 415:1 473:1 515:1 555:1 652:1 720:1 800:1 862:1 
-1 4:1 8:1 12:1 16:1 19:1 21:1 27:1 31:1 36:1 40:1 44:1 47:1 64:1 80:1 96:1 111:1 121:1 131:1 155:1 172:1 192:1 208:1 223:1 288:1 352:1 415:1 473:1 515:1 555:1 652:1 720:1 800:1 863:1 
1 4:1 8:1 12:1 16:1 19:1 21:1 27:1 31:1 36:1 40:1 44:1 48:1 64:1 80:1 96:1 111:1 121:1 131:1 155:1 172:1 192:1 208:1 224:1 288:1 352:1 415:1 473:1 515:1 555:1 652:1 720:1 800:1 864:1 
