digraph Tree {
node [shape=box, style="filled, rounded", color="black", fontname=helvetica] ;
edge [fontname=helvetica] ;
0 [label="0 <= 13.5\nentropy = 0.92\nsamples = 1817\nvalue = [1217, 600]\nclass = y[0]", fillcolor="#e5813981"] ;
1 [label="5 <= 0.78\nentropy = 0.99\nsamples = 810\nvalue = [353, 457]\nclass = y[1]", fillcolor="#399de53a"] ;
0 -> 1 [labeldistance=2.5, labelangle=45, headlabel="True"] ;
2 [label="3 <= 0.5\nentropy = 0.9\nsamples = 446\nvalue = [141, 305]\nclass = y[1]", fillcolor="#399de589"] ;
1 -> 2 ;
3 [label="4 <= 0.39\nentropy = 0.77\nsamples = 363\nvalue = [81, 282]\nclass = y[1]", fillcolor="#399de5b6"] ;
2 -> 3 ;
4 [label="entropy = 0.94\nsamples = 25\nvalue = [16, 9]\nclass = y[0]", fillcolor="#e5813970"] ;
3 -> 4 ;
5 [label="2 <= 0.5\nentropy = 0.71\nsamples = 338\nvalue = [65, 273]\nclass = y[1]", fillcolor="#399de5c2"] ;
3 -> 5 ;
6 [label="5 <= 0.65\nentropy = 0.34\nsamples = 129\nvalue = [8, 121]\nclass = y[1]", fillcolor="#399de5ee"] ;
5 -> 6 ;
7 [label="entropy = 0.0\nsamples = 45\nvalue = [0, 45]\nclass = y[1]", fillcolor="#399de5ff"] ;
6 -> 7 ;
8 [label="4 <= 0.57\nentropy = 0.45\nsamples = 84\nvalue = [8, 76]\nclass = y[1]", fillcolor="#399de5e4"] ;
6 -> 8 ;
9 [label="entropy = 0.69\nsamples = 38\nvalue = [7, 31]\nclass = y[1]", fillcolor="#399de5c5"] ;
8 -> 9 ;
10 [label="entropy = 0.15\nsamples = 46\nvalue = [1, 45]\nclass = y[1]", fillcolor="#399de5f9"] ;
8 -> 10 ;
11 [label="5 <= 0.66\nentropy = 0.85\nsamples = 209\nvalue = [57, 152]\nclass = y[1]", fillcolor="#399de59f"] ;
5 -> 11 ;
12 [label="entropy = 0.95\nsamples = 27\nvalue = [17, 10]\nclass = y[0]", fillcolor="#e5813969"] ;
11 -> 12 ;
13 [label="5 <= 0.76\nentropy = 0.76\nsamples = 182\nvalue = [40, 142]\nclass = y[1]", fillcolor="#399de5b7"] ;
11 -> 13 ;
14 [label="0 <= 8.5\nentropy = 0.65\nsamples = 126\nvalue = [21, 105]\nclass = y[1]", fillcolor="#399de5cc"] ;
13 -> 14 ;
15 [label="5 <= 0.71\nentropy = 0.38\nsamples = 80\nvalue = [6, 74]\nclass = y[1]", fillcolor="#399de5ea"] ;
14 -> 15 ;
16 [label="entropy = 0.0\nsamples = 30\nvalue = [0, 30]\nclass = y[1]", fillcolor="#399de5ff"] ;
15 -> 16 ;
17 [label="4 <= 0.61\nentropy = 0.53\nsamples = 50\nvalue = [6, 44]\nclass = y[1]", fillcolor="#399de5dc"] ;
15 -> 17 ;
18 [label="entropy = 0.63\nsamples = 25\nvalue = [4, 21]\nclass = y[1]", fillcolor="#399de5ce"] ;
17 -> 18 ;
19 [label="entropy = 0.4\nsamples = 25\nvalue = [2, 23]\nclass = y[1]", fillcolor="#399de5e9"] ;
17 -> 19 ;
20 [label="entropy = 0.91\nsamples = 46\nvalue = [15, 31]\nclass = y[1]", fillcolor="#399de584"] ;
14 -> 20 ;
21 [label="5 <= 0.77\nentropy = 0.92\nsamples = 56\nvalue = [19, 37]\nclass = y[1]", fillcolor="#399de57c"] ;
13 -> 21 ;
22 [label="entropy = 0.97\nsamples = 25\nvalue = [10, 15]\nclass = y[1]", fillcolor="#399de555"] ;
21 -> 22 ;
23 [label="entropy = 0.87\nsamples = 31\nvalue = [9, 22]\nclass = y[1]", fillcolor="#399de597"] ;
21 -> 23 ;
24 [label="0 <= 9.5\nentropy = 0.85\nsamples = 83\nvalue = [60, 23]\nclass = y[0]", fillcolor="#e581399d"] ;
2 -> 24 ;
25 [label="entropy = 0.99\nsamples = 30\nvalue = [13, 17]\nclass = y[1]", fillcolor="#399de53c"] ;
24 -> 25 ;
26 [label="5 <= 0.67\nentropy = 0.51\nsamples = 53\nvalue = [47, 6]\nclass = y[0]", fillcolor="#e58139de"] ;
24 -> 26 ;
27 [label="entropy = 0.22\nsamples = 28\nvalue = [27, 1]\nclass = y[0]", fillcolor="#e58139f6"] ;
26 -> 27 ;
28 [label="entropy = 0.72\nsamples = 25\nvalue = [20, 5]\nclass = y[0]", fillcolor="#e58139bf"] ;
26 -> 28 ;
29 [label="0 <= 9.5\nentropy = 0.98\nsamples = 364\nvalue = [212, 152]\nclass = y[0]", fillcolor="#e5813948"] ;
1 -> 29 ;
30 [label="4 <= 0.55\nentropy = 0.99\nsamples = 229\nvalue = [103, 126]\nclass = y[1]", fillcolor="#399de52f"] ;
29 -> 30 ;
31 [label="5 <= 0.84\nentropy = 0.91\nsamples = 67\nvalue = [45, 22]\nclass = y[0]", fillcolor="#e5813982"] ;
30 -> 31 ;
32 [label="entropy = 0.86\nsamples = 42\nvalue = [30, 12]\nclass = y[0]", fillcolor="#e5813999"] ;
31 -> 32 ;
33 [label="entropy = 0.97\nsamples = 25\nvalue = [15, 10]\nclass = y[0]", fillcolor="#e5813955"] ;
31 -> 33 ;
34 [label="0 <= 6.5\nentropy = 0.94\nsamples = 162\nvalue = [58, 104]\nclass = y[1]", fillcolor="#399de571"] ;
30 -> 34 ;
35 [label="5 <= 0.86\nentropy = 1.0\nsamples = 71\nvalue = [33, 38]\nclass = y[1]", fillcolor="#399de522"] ;
34 -> 35 ;
36 [label="entropy = 0.89\nsamples = 36\nvalue = [11, 25]\nclass = y[1]", fillcolor="#399de58f"] ;
35 -> 36 ;
37 [label="entropy = 0.95\nsamples = 35\nvalue = [22, 13]\nclass = y[0]", fillcolor="#e5813968"] ;
35 -> 37 ;
38 [label="5 <= 0.87\nentropy = 0.85\nsamples = 91\nvalue = [25, 66]\nclass = y[1]", fillcolor="#399de59e"] ;
34 -> 38 ;
39 [label="4 <= 0.65\nentropy = 0.91\nsamples = 64\nvalue = [21, 43]\nclass = y[1]", fillcolor="#399de582"] ;
38 -> 39 ;
40 [label="entropy = 0.99\nsamples = 25\nvalue = [11, 14]\nclass = y[1]", fillcolor="#399de537"] ;
39 -> 40 ;
41 [label="entropy = 0.82\nsamples = 39\nvalue = [10, 29]\nclass = y[1]", fillcolor="#399de5a7"] ;
39 -> 41 ;
42 [label="entropy = 0.61\nsamples = 27\nvalue = [4, 23]\nclass = y[1]", fillcolor="#399de5d3"] ;
38 -> 42 ;
43 [label="2 <= 0.5\nentropy = 0.71\nsamples = 135\nvalue = [109, 26]\nclass = y[0]", fillcolor="#e58139c2"] ;
29 -> 43 ;
44 [label="5 <= 0.84\nentropy = 0.88\nsamples = 53\nvalue = [37, 16]\nclass = y[0]", fillcolor="#e5813991"] ;
43 -> 44 ;
45 [label="entropy = 0.98\nsamples = 26\nvalue = [15, 11]\nclass = y[0]", fillcolor="#e5813944"] ;
44 -> 45 ;
46 [label="entropy = 0.69\nsamples = 27\nvalue = [22, 5]\nclass = y[0]", fillcolor="#e58139c5"] ;
44 -> 46 ;
47 [label="5 <= 0.83\nentropy = 0.53\nsamples = 82\nvalue = [72, 10]\nclass = y[0]", fillcolor="#e58139dc"] ;
43 -> 47 ;
48 [label="entropy = 0.77\nsamples = 31\nvalue = [24, 7]\nclass = y[0]", fillcolor="#e58139b5"] ;
47 -> 48 ;
49 [label="4 <= 0.62\nentropy = 0.32\nsamples = 51\nvalue = [48, 3]\nclass = y[0]", fillcolor="#e58139ef"] ;
47 -> 49 ;
50 [label="entropy = 0.4\nsamples = 25\nvalue = [23, 2]\nclass = y[0]", fillcolor="#e58139e9"] ;
49 -> 50 ;
51 [label="entropy = 0.24\nsamples = 26\nvalue = [25, 1]\nclass = y[0]", fillcolor="#e58139f5"] ;
49 -> 51 ;
52 [label="1 <= 0.5\nentropy = 0.59\nsamples = 1007\nvalue = [864, 143]\nclass = y[0]", fillcolor="#e58139d5"] ;
0 -> 52 [labeldistance=2.5, labelangle=-45, headlabel="False"] ;
53 [label="2 <= 0.5\nentropy = 0.34\nsamples = 787\nvalue = [738, 49]\nclass = y[0]", fillcolor="#e58139ee"] ;
52 -> 53 ;
54 [label="5 <= 0.84\nentropy = 0.14\nsamples = 296\nvalue = [290, 6]\nclass = y[0]", fillcolor="#e58139fa"] ;
53 -> 54 ;
55 [label="0 <= 15.5\nentropy = 0.09\nsamples = 252\nvalue = [249, 3]\nclass = y[0]", fillcolor="#e58139fc"] ;
54 -> 55 ;
56 [label="entropy = 0.43\nsamples = 34\nvalue = [31, 3]\nclass = y[0]", fillcolor="#e58139e6"] ;
55 -> 56 ;
57 [label="entropy = 0.0\nsamples = 218\nvalue = [218, 0]\nclass = y[0]", fillcolor="#e58139ff"] ;
55 -> 57 ;
58 [label="entropy = 0.36\nsamples = 44\nvalue = [41, 3]\nclass = y[0]", fillcolor="#e58139ec"] ;
54 -> 58 ;
59 [label="4 <= 0.79\nentropy = 0.43\nsamples = 491\nvalue = [448, 43]\nclass = y[0]", fillcolor="#e58139e7"] ;
53 -> 59 ;
60 [label="5 <= 0.78\nentropy = 0.46\nsamples = 436\nvalue = [393, 43]\nclass = y[0]", fillcolor="#e58139e3"] ;
59 -> 60 ;
61 [label="0 <= 17.5\nentropy = 0.39\nsamples = 252\nvalue = [233, 19]\nclass = y[0]", fillcolor="#e58139ea"] ;
60 -> 61 ;
62 [label="4 <= 0.61\nentropy = 0.53\nsamples = 75\nvalue = [66, 9]\nclass = y[0]", fillcolor="#e58139dc"] ;
61 -> 62 ;
63 [label="entropy = 0.61\nsamples = 47\nvalue = [40, 7]\nclass = y[0]", fillcolor="#e58139d2"] ;
62 -> 63 ;
64 [label="entropy = 0.37\nsamples = 28\nvalue = [26, 2]\nclass = y[0]", fillcolor="#e58139eb"] ;
62 -> 64 ;
65 [label="5 <= 0.64\nentropy = 0.31\nsamples = 177\nvalue = [167, 10]\nclass = y[0]", fillcolor="#e58139f0"] ;
61 -> 65 ;
66 [label="entropy = 0.53\nsamples = 33\nvalue = [29, 4]\nclass = y[0]", fillcolor="#e58139dc"] ;
65 -> 66 ;
67 [label="5 <= 0.71\nentropy = 0.25\nsamples = 144\nvalue = [138, 6]\nclass = y[0]", fillcolor="#e58139f4"] ;
65 -> 67 ;
68 [label="entropy = 0.0\nsamples = 58\nvalue = [58, 0]\nclass = y[0]", fillcolor="#e58139ff"] ;
67 -> 68 ;
69 [label="5 <= 0.73\nentropy = 0.37\nsamples = 86\nvalue = [80, 6]\nclass = y[0]", fillcolor="#e58139ec"] ;
67 -> 69 ;
70 [label="entropy = 0.59\nsamples = 28\nvalue = [24, 4]\nclass = y[0]", fillcolor="#e58139d4"] ;
69 -> 70 ;
71 [label="4 <= 0.61\nentropy = 0.22\nsamples = 58\nvalue = [56, 2]\nclass = y[0]", fillcolor="#e58139f6"] ;
69 -> 71 ;
72 [label="entropy = 0.0\nsamples = 28\nvalue = [28, 0]\nclass = y[0]", fillcolor="#e58139ff"] ;
71 -> 72 ;
73 [label="entropy = 0.35\nsamples = 30\nvalue = [28, 2]\nclass = y[0]", fillcolor="#e58139ed"] ;
71 -> 73 ;
74 [label="4 <= 0.56\nentropy = 0.56\nsamples = 184\nvalue = [160, 24]\nclass = y[0]", fillcolor="#e58139d9"] ;
60 -> 74 ;
75 [label="entropy = 0.25\nsamples = 48\nvalue = [46, 2]\nclass = y[0]", fillcolor="#e58139f4"] ;
74 -> 75 ;
76 [label="4 <= 0.69\nentropy = 0.64\nsamples = 136\nvalue = [114, 22]\nclass = y[0]", fillcolor="#e58139ce"] ;
74 -> 76 ;
77 [label="4 <= 0.63\nentropy = 0.79\nsamples = 67\nvalue = [51, 16]\nclass = y[0]", fillcolor="#e58139af"] ;
76 -> 77 ;
78 [label="entropy = 0.61\nsamples = 27\nvalue = [23, 4]\nclass = y[0]", fillcolor="#e58139d3"] ;
77 -> 78 ;
79 [label="entropy = 0.88\nsamples = 40\nvalue = [28, 12]\nclass = y[0]", fillcolor="#e5813992"] ;
77 -> 79 ;
80 [label="0 <= 18.5\nentropy = 0.43\nsamples = 69\nvalue = [63, 6]\nclass = y[0]", fillcolor="#e58139e7"] ;
76 -> 80 ;
81 [label="entropy = 0.62\nsamples = 26\nvalue = [22, 4]\nclass = y[0]", fillcolor="#e58139d1"] ;
80 -> 81 ;
82 [label="entropy = 0.27\nsamples = 43\nvalue = [41, 2]\nclass = y[0]", fillcolor="#e58139f3"] ;
80 -> 82 ;
83 [label="entropy = 0.0\nsamples = 55\nvalue = [55, 0]\nclass = y[0]", fillcolor="#e58139ff"] ;
59 -> 83 ;
84 [label="5 <= 0.84\nentropy = 0.98\nsamples = 220\nvalue = [126, 94]\nclass = y[0]", fillcolor="#e5813941"] ;
52 -> 84 ;
85 [label="4 <= 0.54\nentropy = 0.98\nsamples = 156\nvalue = [64, 92]\nclass = y[1]", fillcolor="#399de54e"] ;
84 -> 85 ;
86 [label="5 <= 0.73\nentropy = 0.84\nsamples = 60\nvalue = [44, 16]\nclass = y[0]", fillcolor="#e58139a2"] ;
85 -> 86 ;
87 [label="entropy = 0.96\nsamples = 31\nvalue = [19, 12]\nclass = y[0]", fillcolor="#e581395e"] ;
86 -> 87 ;
88 [label="entropy = 0.58\nsamples = 29\nvalue = [25, 4]\nclass = y[0]", fillcolor="#e58139d6"] ;
86 -> 88 ;
89 [label="5 <= 0.78\nentropy = 0.74\nsamples = 96\nvalue = [20, 76]\nclass = y[1]", fillcolor="#399de5bc"] ;
85 -> 89 ;
90 [label="0 <= 20.5\nentropy = 0.51\nsamples = 71\nvalue = [8, 63]\nclass = y[1]", fillcolor="#399de5df"] ;
89 -> 90 ;
91 [label="entropy = 0.63\nsamples = 44\nvalue = [7, 37]\nclass = y[1]", fillcolor="#399de5cf"] ;
90 -> 91 ;
92 [label="entropy = 0.23\nsamples = 27\nvalue = [1, 26]\nclass = y[1]", fillcolor="#399de5f5"] ;
90 -> 92 ;
93 [label="entropy = 1.0\nsamples = 25\nvalue = [12, 13]\nclass = y[1]", fillcolor="#399de514"] ;
89 -> 93 ;
94 [label="5 <= 0.87\nentropy = 0.2\nsamples = 64\nvalue = [62, 2]\nclass = y[0]", fillcolor="#e58139f7"] ;
84 -> 94 ;
95 [label="entropy = 0.4\nsamples = 25\nvalue = [23, 2]\nclass = y[0]", fillcolor="#e58139e9"] ;
94 -> 95 ;
96 [label="entropy = 0.0\nsamples = 39\nvalue = [39, 0]\nclass = y[0]", fillcolor="#e58139ff"] ;
94 -> 96 ;
}