digraph Tree {
node [shape=box, style="filled, rounded", color="black", fontname=helvetica] ;
edge [fontname=helvetica] ;
0 [label="roll_outer_wk_pos_0 <= -1.78\ngini = 0.43\nsamples = 1151\nvalue = [1260, 557]\nclass = additive", fillcolor="#e581398e"] ;
1 [label="roll_outer_str_pos_0 <= -3.41\ngini = 0.29\nsamples = 411\nvalue = [544, 114]\nclass = additive", fillcolor="#e58139ca"] ;
0 -> 1 [labeldistance=2.5, labelangle=45, headlabel="True"] ;
2 [label="gini = 0.0\nsamples = 14\nvalue = [21, 0]\nclass = additive", fillcolor="#e58139ff"] ;
1 -> 2 ;
3 [label="dist_numeric <= 10.5\ngini = 0.29\nsamples = 397\nvalue = [523, 114]\nclass = additive", fillcolor="#e58139c7"] ;
1 -> 3 ;
4 [label="prot_outer_str_pos_0 <= -6.51\ngini = 0.5\nsamples = 97\nvalue = [70, 80]\nclass = cooperative", fillcolor="#399de520"] ;
3 -> 4 ;
5 [label="roll_outer_wk_pos_2 <= -4.01\ngini = 0.43\nsamples = 33\nvalue = [16, 36]\nclass = cooperative", fillcolor="#399de58e"] ;
4 -> 5 ;
6 [label="gini = 0.2\nsamples = 12\nvalue = [2, 16]\nclass = cooperative", fillcolor="#399de5df"] ;
5 -> 6 ;
7 [label="gini = 0.48\nsamples = 21\nvalue = [14, 20]\nclass = cooperative", fillcolor="#399de54d"] ;
5 -> 7 ;
8 [label="roll_outer_wk_pos_1 <= -2.12\ngini = 0.49\nsamples = 64\nvalue = [54, 44]\nclass = additive", fillcolor="#e581392f"] ;
4 -> 8 ;
9 [label="gini = 0.5\nsamples = 53\nvalue = [41, 40]\nclass = additive", fillcolor="#e5813906"] ;
8 -> 9 ;
10 [label="gini = 0.36\nsamples = 11\nvalue = [13, 4]\nclass = additive", fillcolor="#e58139b1"] ;
8 -> 10 ;
11 [label="helt_outer_wk_pos_1 <= 37.03\ngini = 0.13\nsamples = 300\nvalue = [453, 34]\nclass = additive", fillcolor="#e58139ec"] ;
3 -> 11 ;
12 [label="helt_outer_wk_pos_2 <= 32.94\ngini = 0.12\nsamples = 289\nvalue = [438, 30]\nclass = additive", fillcolor="#e58139ee"] ;
11 -> 12 ;
13 [label="gini = 0.25\nsamples = 31\nvalue = [46, 8]\nclass = additive", fillcolor="#e58139d3"] ;
12 -> 13 ;
14 [label="gini = 0.1\nsamples = 258\nvalue = [392, 22]\nclass = additive", fillcolor="#e58139f1"] ;
12 -> 14 ;
15 [label="gini = 0.33\nsamples = 11\nvalue = [15, 4]\nclass = additive", fillcolor="#e58139bb"] ;
11 -> 15 ;
16 [label="roll_outer_str_pos_0 <= -2.28\ngini = 0.47\nsamples = 740\nvalue = [716, 443]\nclass = additive", fillcolor="#e5813961"] ;
0 -> 16 [labeldistance=2.5, labelangle=-45, headlabel="False"] ;
17 [label="dist_numeric <= 9.5\ngini = 0.36\nsamples = 330\nvalue = [405, 124]\nclass = additive", fillcolor="#e58139b1"] ;
16 -> 17 ;
18 [label="helt_outer_wk_pos_0 <= 36.27\ngini = 0.47\nsamples = 90\nvalue = [52, 84]\nclass = cooperative", fillcolor="#399de561"] ;
17 -> 18 ;
19 [label="mgw_outer_str_pos_1 <= 4.22\ngini = 0.5\nsamples = 65\nvalue = [45, 49]\nclass = cooperative", fillcolor="#399de515"] ;
18 -> 19 ;
20 [label="gini = 0.14\nsamples = 10\nvalue = [1, 12]\nclass = cooperative", fillcolor="#399de5ea"] ;
19 -> 20 ;
21 [label="gini = 0.5\nsamples = 55\nvalue = [44, 37]\nclass = additive", fillcolor="#e5813929"] ;
19 -> 21 ;
22 [label="roll_outer_wk_pos_1 <= -1.51\ngini = 0.28\nsamples = 25\nvalue = [7, 35]\nclass = cooperative", fillcolor="#399de5cc"] ;
18 -> 22 ;
23 [label="gini = 0.41\nsamples = 10\nvalue = [4, 10]\nclass = cooperative", fillcolor="#399de599"] ;
22 -> 23 ;
24 [label="gini = 0.19\nsamples = 15\nvalue = [3, 25]\nclass = cooperative", fillcolor="#399de5e0"] ;
22 -> 24 ;
25 [label="helt_outer_wk_pos_2 <= 31.55\ngini = 0.18\nsamples = 240\nvalue = [353, 40]\nclass = additive", fillcolor="#e58139e2"] ;
17 -> 25 ;
26 [label="roll_outer_str_pos_0 <= -4.03\ngini = 0.35\nsamples = 74\nvalue = [98, 29]\nclass = additive", fillcolor="#e58139b4"] ;
25 -> 26 ;
27 [label="gini = 0.1\nsamples = 20\nvalue = [35, 2]\nclass = additive", fillcolor="#e58139f0"] ;
26 -> 27 ;
28 [label="gini = 0.42\nsamples = 54\nvalue = [63, 27]\nclass = additive", fillcolor="#e5813992"] ;
26 -> 28 ;
29 [label="roll_outer_wk_pos_2 <= -4.62\ngini = 0.08\nsamples = 166\nvalue = [255, 11]\nclass = additive", fillcolor="#e58139f4"] ;
25 -> 29 ;
30 [label="gini = 0.28\nsamples = 10\nvalue = [15, 3]\nclass = additive", fillcolor="#e58139cc"] ;
29 -> 30 ;
31 [label="gini = 0.06\nsamples = 156\nvalue = [240, 8]\nclass = additive", fillcolor="#e58139f6"] ;
29 -> 31 ;
32 [label="mgw_outer_str_pos_1 <= 5.38\ngini = 0.5\nsamples = 410\nvalue = [311, 319]\nclass = cooperative", fillcolor="#399de506"] ;
16 -> 32 ;
33 [label="helt_outer_wk_pos_1 <= 33.93\ngini = 0.49\nsamples = 306\nvalue = [210, 264]\nclass = cooperative", fillcolor="#399de534"] ;
32 -> 33 ;
34 [label="helt_outer_wk_pos_2 <= 36.26\ngini = 0.5\nsamples = 189\nvalue = [150, 152]\nclass = cooperative", fillcolor="#399de503"] ;
33 -> 34 ;
35 [label="gini = 0.5\nsamples = 179\nvalue = [147, 139]\nclass = additive", fillcolor="#e581390e"] ;
34 -> 35 ;
36 [label="gini = 0.3\nsamples = 10\nvalue = [3, 13]\nclass = cooperative", fillcolor="#399de5c4"] ;
34 -> 36 ;
37 [label="roll_outer_str_pos_0 <= -1.41\ngini = 0.45\nsamples = 117\nvalue = [60, 112]\nclass = cooperative", fillcolor="#399de576"] ;
33 -> 37 ;
38 [label="gini = 0.16\nsamples = 14\nvalue = [2, 21]\nclass = cooperative", fillcolor="#399de5e7"] ;
37 -> 38 ;
39 [label="gini = 0.48\nsamples = 103\nvalue = [58, 91]\nclass = cooperative", fillcolor="#399de55c"] ;
37 -> 39 ;
40 [label="helt_outer_wk_pos_0 <= 34.29\ngini = 0.46\nsamples = 104\nvalue = [101, 55]\nclass = additive", fillcolor="#e5813974"] ;
32 -> 40 ;
41 [label="helt_outer_wk_pos_0 <= 33.89\ngini = 0.5\nsamples = 30\nvalue = [25, 23]\nclass = additive", fillcolor="#e5813914"] ;
40 -> 41 ;
42 [label="gini = 0.41\nsamples = 11\nvalue = [15, 6]\nclass = additive", fillcolor="#e5813999"] ;
41 -> 42 ;
43 [label="gini = 0.47\nsamples = 19\nvalue = [10, 17]\nclass = cooperative", fillcolor="#399de569"] ;
41 -> 43 ;
44 [label="helt_outer_wk_pos_0 <= 35.77\ngini = 0.42\nsamples = 74\nvalue = [76, 32]\nclass = additive", fillcolor="#e5813994"] ;
40 -> 44 ;
45 [label="gini = 0.35\nsamples = 35\nvalue = [37, 11]\nclass = additive", fillcolor="#e58139b3"] ;
44 -> 45 ;
46 [label="gini = 0.45\nsamples = 39\nvalue = [39, 21]\nclass = additive", fillcolor="#e5813976"] ;
44 -> 46 ;
}