digraph Tree {
node [shape=box, style="filled, rounded", color="black", fontname=helvetica] ;
edge [fontname=helvetica] ;
0 [label="ori_2 <= 0.5\ngini = 0.46\nsamples = 1135\nvalue = [1153, 639]\nclass = cooperative", fillcolor="#e5813972"] ;
1 [label="A <= 0.06\ngini = 0.4\nsamples = 853\nvalue = [991, 369]\nclass = cooperative", fillcolor="#e58139a0"] ;
0 -> 1 [labeldistance=2.5, labelangle=45, headlabel="True"] ;
2 [label="dist-numeric <= 9.5\ngini = 0.48\nsamples = 241\nvalue = [157, 226]\nclass = additive", fillcolor="#399de54e"] ;
1 -> 2 ;
3 [label="TG <= 0.17\ngini = 0.36\nsamples = 171\nvalue = [63, 205]\nclass = additive", fillcolor="#399de5b1"] ;
2 -> 3 ;
4 [label="dist-numeric <= 6.5\ngini = 0.32\nsamples = 158\nvalue = [50, 197]\nclass = additive", fillcolor="#399de5be"] ;
3 -> 4 ;
5 [label="ori_3 <= 0.5\ngini = 0.39\nsamples = 88\nvalue = [36, 100]\nclass = additive", fillcolor="#399de5a3"] ;
4 -> 5 ;
6 [label="site_wk_score <= 0.56\ngini = 0.38\nsamples = 85\nvalue = [34, 97]\nclass = additive", fillcolor="#399de5a6"] ;
5 -> 6 ;
7 [label="dist-numeric <= 5.5\ngini = 0.5\nsamples = 18\nvalue = [14, 13]\nclass = cooperative", fillcolor="#e5813912"] ;
6 -> 7 ;
8 [label="dist-numeric <= 4.5\ngini = 0.28\nsamples = 7\nvalue = [10, 2]\nclass = cooperative", fillcolor="#e58139cc"] ;
7 -> 8 ;
9 [label="site_wk_score <= 0.54\ngini = 0.38\nsamples = 4\nvalue = [6, 2]\nclass = cooperative", fillcolor="#e58139aa"] ;
8 -> 9 ;
10 [label="gini = 0.0\nsamples = 2\nvalue = [4, 0]\nclass = cooperative", fillcolor="#e58139ff"] ;
9 -> 10 ;
11 [label="gini = 0.5\nsamples = 2\nvalue = [2, 2]\nclass = cooperative", fillcolor="#e5813900"] ;
9 -> 11 ;
12 [label="gini = 0.0\nsamples = 3\nvalue = [4, 0]\nclass = cooperative", fillcolor="#e58139ff"] ;
8 -> 12 ;
13 [label="site_str_score <= 0.75\ngini = 0.39\nsamples = 11\nvalue = [4, 11]\nclass = additive", fillcolor="#399de5a2"] ;
7 -> 13 ;
14 [label="site_str_score <= 0.72\ngini = 0.49\nsamples = 7\nvalue = [4, 5]\nclass = additive", fillcolor="#399de533"] ;
13 -> 14 ;
15 [label="gini = 0.28\nsamples = 5\nvalue = [1, 5]\nclass = additive", fillcolor="#399de5cc"] ;
14 -> 15 ;
16 [label="gini = 0.0\nsamples = 2\nvalue = [3, 0]\nclass = cooperative", fillcolor="#e58139ff"] ;
14 -> 16 ;
17 [label="gini = 0.0\nsamples = 4\nvalue = [0, 6]\nclass = additive", fillcolor="#399de5ff"] ;
13 -> 17 ;
18 [label="site_wk_score <= 0.69\ngini = 0.31\nsamples = 67\nvalue = [20, 84]\nclass = additive", fillcolor="#399de5c2"] ;
6 -> 18 ;
19 [label="G <= 0.5\ngini = 0.04\nsamples = 32\nvalue = [1, 49]\nclass = additive", fillcolor="#399de5fa"] ;
18 -> 19 ;
20 [label="site_str_score <= 0.89\ngini = 0.04\nsamples = 31\nvalue = [1, 47]\nclass = additive", fillcolor="#399de5fa"] ;
19 -> 20 ;
21 [label="gini = 0.0\nsamples = 30\nvalue = [0, 47]\nclass = additive", fillcolor="#399de5ff"] ;
20 -> 21 ;
22 [label="gini = 0.0\nsamples = 1\nvalue = [1, 0]\nclass = cooperative", fillcolor="#e58139ff"] ;
20 -> 22 ;
23 [label="gini = 0.0\nsamples = 1\nvalue = [0, 2]\nclass = additive", fillcolor="#399de5ff"] ;
19 -> 23 ;
24 [label="dist-numeric <= 4.5\ngini = 0.46\nsamples = 35\nvalue = [19, 35]\nclass = additive", fillcolor="#399de575"] ;
18 -> 24 ;
25 [label="site_str_score <= 0.76\ngini = 0.44\nsamples = 5\nvalue = [8, 4]\nclass = cooperative", fillcolor="#e581397f"] ;
24 -> 25 ;
26 [label="gini = 0.48\nsamples = 2\nvalue = [2, 3]\nclass = additive", fillcolor="#399de555"] ;
25 -> 26 ;
27 [label="gini = 0.24\nsamples = 3\nvalue = [6, 1]\nclass = cooperative", fillcolor="#e58139d4"] ;
25 -> 27 ;
28 [label="site_wk_score <= 0.88\ngini = 0.39\nsamples = 30\nvalue = [11, 31]\nclass = additive", fillcolor="#399de5a5"] ;
24 -> 28 ;
29 [label="gini = 0.35\nsamples = 29\nvalue = [9, 31]\nclass = additive", fillcolor="#399de5b5"] ;
28 -> 29 ;
30 [label="gini = 0.0\nsamples = 1\nvalue = [2, 0]\nclass = cooperative", fillcolor="#e58139ff"] ;
28 -> 30 ;
31 [label="site_wk_score <= 0.45\ngini = 0.48\nsamples = 3\nvalue = [2, 3]\nclass = additive", fillcolor="#399de555"] ;
5 -> 31 ;
32 [label="gini = 0.0\nsamples = 1\nvalue = [2, 0]\nclass = cooperative", fillcolor="#e58139ff"] ;
31 -> 32 ;
33 [label="gini = 0.0\nsamples = 2\nvalue = [0, 3]\nclass = additive", fillcolor="#399de5ff"] ;
31 -> 33 ;
34 [label="ori_3 <= 0.5\ngini = 0.22\nsamples = 70\nvalue = [14, 97]\nclass = additive", fillcolor="#399de5da"] ;
4 -> 34 ;
35 [label="site_str_score <= 0.62\ngini = 0.24\nsamples = 63\nvalue = [14, 87]\nclass = additive", fillcolor="#399de5d6"] ;
34 -> 35 ;
36 [label="gini = 0.0\nsamples = 1\nvalue = [1, 0]\nclass = cooperative", fillcolor="#e58139ff"] ;
35 -> 36 ;
37 [label="site_wk_score <= 0.83\ngini = 0.23\nsamples = 62\nvalue = [13, 87]\nclass = additive", fillcolor="#399de5d9"] ;
35 -> 37 ;
38 [label="site_str_score <= 0.79\ngini = 0.19\nsamples = 59\nvalue = [10, 85]\nclass = additive", fillcolor="#399de5e1"] ;
37 -> 38 ;
39 [label="site_wk_score <= 0.66\ngini = 0.05\nsamples = 20\nvalue = [1, 35]\nclass = additive", fillcolor="#399de5f8"] ;
38 -> 39 ;
40 [label="gini = 0.0\nsamples = 13\nvalue = [0, 23]\nclass = additive", fillcolor="#399de5ff"] ;
39 -> 40 ;
41 [label="gini = 0.14\nsamples = 7\nvalue = [1, 12]\nclass = additive", fillcolor="#399de5ea"] ;
39 -> 41 ;
42 [label="dist-numeric <= 7.5\ngini = 0.26\nsamples = 39\nvalue = [9, 50]\nclass = additive", fillcolor="#399de5d1"] ;
38 -> 42 ;
43 [label="gini = 0.2\nsamples = 28\nvalue = [5, 40]\nclass = additive", fillcolor="#399de5df"] ;
42 -> 43 ;
44 [label="gini = 0.41\nsamples = 11\nvalue = [4, 10]\nclass = additive", fillcolor="#399de599"] ;
42 -> 44 ;
45 [label="site_str_score <= 0.88\ngini = 0.48\nsamples = 3\nvalue = [3, 2]\nclass = cooperative", fillcolor="#e5813955"] ;
37 -> 45 ;
46 [label="gini = 0.0\nsamples = 2\nvalue = [3, 0]\nclass = cooperative", fillcolor="#e58139ff"] ;
45 -> 46 ;
47 [label="gini = 0.0\nsamples = 1\nvalue = [0, 2]\nclass = additive", fillcolor="#399de5ff"] ;
45 -> 47 ;
48 [label="gini = 0.0\nsamples = 7\nvalue = [0, 10]\nclass = additive", fillcolor="#399de5ff"] ;
34 -> 48 ;
49 [label="site_str_score <= 0.79\ngini = 0.47\nsamples = 13\nvalue = [13, 8]\nclass = cooperative", fillcolor="#e5813962"] ;
3 -> 49 ;
50 [label="gini = 0.0\nsamples = 3\nvalue = [0, 4]\nclass = additive", fillcolor="#399de5ff"] ;
49 -> 50 ;
51 [label="site_wk_score <= 0.36\ngini = 0.36\nsamples = 10\nvalue = [13, 4]\nclass = cooperative", fillcolor="#e58139b1"] ;
49 -> 51 ;
52 [label="gini = 0.0\nsamples = 1\nvalue = [0, 2]\nclass = additive", fillcolor="#399de5ff"] ;
51 -> 52 ;
53 [label="site_wk_score <= 0.69\ngini = 0.23\nsamples = 9\nvalue = [13, 2]\nclass = cooperative", fillcolor="#e58139d8"] ;
51 -> 53 ;
54 [label="gini = 0.0\nsamples = 8\nvalue = [13, 0]\nclass = cooperative", fillcolor="#e58139ff"] ;
53 -> 54 ;
55 [label="gini = 0.0\nsamples = 1\nvalue = [0, 2]\nclass = additive", fillcolor="#399de5ff"] ;
53 -> 55 ;
56 [label="dist-numeric <= 12.5\ngini = 0.3\nsamples = 70\nvalue = [94, 21]\nclass = cooperative", fillcolor="#e58139c6"] ;
2 -> 56 ;
57 [label="site_wk_score <= 0.69\ngini = 0.37\nsamples = 24\nvalue = [28, 9]\nclass = cooperative", fillcolor="#e58139ad"] ;
56 -> 57 ;
58 [label="dist-numeric <= 10.5\ngini = 0.44\nsamples = 18\nvalue = [19, 9]\nclass = cooperative", fillcolor="#e5813986"] ;
57 -> 58 ;
59 [label="G <= 0.1\ngini = 0.2\nsamples = 6\nvalue = [8, 1]\nclass = cooperative", fillcolor="#e58139df"] ;
58 -> 59 ;
60 [label="gini = 0.0\nsamples = 1\nvalue = [0, 1]\nclass = additive", fillcolor="#399de5ff"] ;
59 -> 60 ;
61 [label="gini = 0.0\nsamples = 5\nvalue = [8, 0]\nclass = cooperative", fillcolor="#e58139ff"] ;
59 -> 61 ;
62 [label="site_str_score <= 0.78\ngini = 0.49\nsamples = 12\nvalue = [11, 8]\nclass = cooperative", fillcolor="#e5813946"] ;
58 -> 62 ;
63 [label="TG <= 0.08\ngini = 0.32\nsamples = 7\nvalue = [2, 8]\nclass = additive", fillcolor="#399de5bf"] ;
62 -> 63 ;
64 [label="gini = 0.0\nsamples = 2\nvalue = [0, 2]\nclass = additive", fillcolor="#399de5ff"] ;
63 -> 64 ;
65 [label="site_str_score <= 0.63\ngini = 0.38\nsamples = 5\nvalue = [2, 6]\nclass = additive", fillcolor="#399de5aa"] ;
63 -> 65 ;
66 [label="gini = 0.0\nsamples = 1\nvalue = [1, 0]\nclass = cooperative", fillcolor="#e58139ff"] ;
65 -> 66 ;
67 [label="TG <= 0.18\ngini = 0.24\nsamples = 4\nvalue = [1, 6]\nclass = additive", fillcolor="#399de5d4"] ;
65 -> 67 ;
68 [label="gini = 0.0\nsamples = 1\nvalue = [0, 3]\nclass = additive", fillcolor="#399de5ff"] ;
67 -> 68 ;
69 [label="gini = 0.38\nsamples = 3\nvalue = [1, 3]\nclass = additive", fillcolor="#399de5aa"] ;
67 -> 69 ;
70 [label="gini = 0.0\nsamples = 5\nvalue = [9, 0]\nclass = cooperative", fillcolor="#e58139ff"] ;
62 -> 70 ;
71 [label="gini = 0.0\nsamples = 6\nvalue = [9, 0]\nclass = cooperative", fillcolor="#e58139ff"] ;
57 -> 71 ;
72 [label="G <= 0.23\ngini = 0.26\nsamples = 46\nvalue = [66, 12]\nclass = cooperative", fillcolor="#e58139d1"] ;
56 -> 72 ;
73 [label="site_str_score <= 0.66\ngini = 0.5\nsamples = 10\nvalue = [9, 8]\nclass = cooperative", fillcolor="#e581391c"] ;
72 -> 73 ;
74 [label="gini = 0.0\nsamples = 3\nvalue = [5, 0]\nclass = cooperative", fillcolor="#e58139ff"] ;
73 -> 74 ;
75 [label="GA <= 0.03\ngini = 0.44\nsamples = 7\nvalue = [4, 8]\nclass = additive", fillcolor="#399de57f"] ;
73 -> 75 ;
76 [label="dist-numeric <= 14.5\ngini = 0.49\nsamples = 6\nvalue = [4, 5]\nclass = additive", fillcolor="#399de533"] ;
75 -> 76 ;
77 [label="gini = 0.0\nsamples = 1\nvalue = [1, 0]\nclass = cooperative", fillcolor="#e58139ff"] ;
76 -> 77 ;
78 [label="TG <= 0.1\ngini = 0.47\nsamples = 5\nvalue = [3, 5]\nclass = additive", fillcolor="#399de566"] ;
76 -> 78 ;
79 [label="site_str_score <= 0.79\ngini = 0.32\nsamples = 3\nvalue = [1, 4]\nclass = additive", fillcolor="#399de5bf"] ;
78 -> 79 ;
80 [label="gini = 0.0\nsamples = 2\nvalue = [0, 4]\nclass = additive", fillcolor="#399de5ff"] ;
79 -> 80 ;
81 [label="gini = 0.0\nsamples = 1\nvalue = [1, 0]\nclass = cooperative", fillcolor="#e58139ff"] ;
79 -> 81 ;
82 [label="TG <= 0.12\ngini = 0.44\nsamples = 2\nvalue = [2, 1]\nclass = cooperative", fillcolor="#e581397f"] ;
78 -> 82 ;
83 [label="gini = 0.0\nsamples = 1\nvalue = [2, 0]\nclass = cooperative", fillcolor="#e58139ff"] ;
82 -> 83 ;
84 [label="gini = 0.0\nsamples = 1\nvalue = [0, 1]\nclass = additive", fillcolor="#399de5ff"] ;
82 -> 84 ;
85 [label="gini = 0.0\nsamples = 1\nvalue = [0, 3]\nclass = additive", fillcolor="#399de5ff"] ;
75 -> 85 ;
86 [label="site_wk_score <= 0.47\ngini = 0.12\nsamples = 36\nvalue = [57, 4]\nclass = cooperative", fillcolor="#e58139ed"] ;
72 -> 86 ;
87 [label="site_wk_score <= 0.42\ngini = 0.39\nsamples = 9\nvalue = [11, 4]\nclass = cooperative", fillcolor="#e58139a2"] ;
86 -> 87 ;
88 [label="site_str_score <= 0.81\ngini = 0.17\nsamples = 6\nvalue = [10, 1]\nclass = cooperative", fillcolor="#e58139e6"] ;
87 -> 88 ;
89 [label="gini = 0.0\nsamples = 4\nvalue = [9, 0]\nclass = cooperative", fillcolor="#e58139ff"] ;
88 -> 89 ;
90 [label="site_wk_score <= 0.27\ngini = 0.5\nsamples = 2\nvalue = [1, 1]\nclass = cooperative", fillcolor="#e5813900"] ;
88 -> 90 ;
91 [label="gini = 0.0\nsamples = 1\nvalue = [1, 0]\nclass = cooperative", fillcolor="#e58139ff"] ;
90 -> 91 ;
92 [label="gini = 0.0\nsamples = 1\nvalue = [0, 1]\nclass = additive", fillcolor="#399de5ff"] ;
90 -> 92 ;
93 [label="dist-numeric <= 13.5\ngini = 0.38\nsamples = 3\nvalue = [1, 3]\nclass = additive", fillcolor="#399de5aa"] ;
87 -> 93 ;
94 [label="gini = 0.0\nsamples = 1\nvalue = [1, 0]\nclass = cooperative", fillcolor="#e58139ff"] ;
93 -> 94 ;
95 [label="gini = 0.0\nsamples = 2\nvalue = [0, 3]\nclass = additive", fillcolor="#399de5ff"] ;
93 -> 95 ;
96 [label="gini = 0.0\nsamples = 27\nvalue = [46, 0]\nclass = cooperative", fillcolor="#e58139ff"] ;
86 -> 96 ;
97 [label="G <= 0.03\ngini = 0.25\nsamples = 612\nvalue = [834, 143]\nclass = cooperative", fillcolor="#e58139d3"] ;
1 -> 97 ;
98 [label="CA <= 0.09\ngini = 0.48\nsamples = 79\nvalue = [71, 46]\nclass = cooperative", fillcolor="#e581395a"] ;
97 -> 98 ;
99 [label="dist-numeric <= 8.5\ngini = 0.44\nsamples = 30\nvalue = [14, 29]\nclass = additive", fillcolor="#399de584"] ;
98 -> 99 ;
100 [label="ori_3 <= 0.5\ngini = 0.38\nsamples = 20\nvalue = [8, 23]\nclass = additive", fillcolor="#399de5a6"] ;
99 -> 100 ;
101 [label="site_str_score <= 0.75\ngini = 0.41\nsamples = 19\nvalue = [8, 20]\nclass = additive", fillcolor="#399de599"] ;
100 -> 101 ;
102 [label="A <= 0.83\ngini = 0.12\nsamples = 10\nvalue = [1, 15]\nclass = additive", fillcolor="#399de5ee"] ;
101 -> 102 ;
103 [label="gini = 0.38\nsamples = 2\nvalue = [1, 3]\nclass = additive", fillcolor="#399de5aa"] ;
102 -> 103 ;
104 [label="gini = 0.0\nsamples = 8\nvalue = [0, 12]\nclass = additive", fillcolor="#399de5ff"] ;
102 -> 104 ;
105 [label="site_str_score <= 0.77\ngini = 0.49\nsamples = 9\nvalue = [7, 5]\nclass = cooperative", fillcolor="#e5813949"] ;
101 -> 105 ;
106 [label="gini = 0.0\nsamples = 1\nvalue = [2, 0]\nclass = cooperative", fillcolor="#e58139ff"] ;
105 -> 106 ;
107 [label="site_wk_score <= 0.43\ngini = 0.5\nsamples = 8\nvalue = [5, 5]\nclass = cooperative", fillcolor="#e5813900"] ;
105 -> 107 ;
108 [label="gini = 0.0\nsamples = 1\nvalue = [0, 2]\nclass = additive", fillcolor="#399de5ff"] ;
107 -> 108 ;
109 [label="site_str_score <= 0.8\ngini = 0.47\nsamples = 7\nvalue = [5, 3]\nclass = cooperative", fillcolor="#e5813966"] ;
107 -> 109 ;
110 [label="gini = 0.0\nsamples = 2\nvalue = [2, 0]\nclass = cooperative", fillcolor="#e58139ff"] ;
109 -> 110 ;
111 [label="gini = 0.5\nsamples = 5\nvalue = [3, 3]\nclass = cooperative", fillcolor="#e5813900"] ;
109 -> 111 ;
112 [label="gini = 0.0\nsamples = 1\nvalue = [0, 3]\nclass = additive", fillcolor="#399de5ff"] ;
100 -> 112 ;
113 [label="site_str_score <= 0.9\ngini = 0.5\nsamples = 10\nvalue = [6, 6]\nclass = cooperative", fillcolor="#e5813900"] ;
99 -> 113 ;
114 [label="ori_3 <= 0.5\ngini = 0.44\nsamples = 9\nvalue = [6, 3]\nclass = cooperative", fillcolor="#e581397f"] ;
113 -> 114 ;
115 [label="dist-numeric <= 9.5\ngini = 0.49\nsamples = 7\nvalue = [4, 3]\nclass = cooperative", fillcolor="#e5813940"] ;
114 -> 115 ;
116 [label="site_wk_score <= 0.54\ngini = 0.32\nsamples = 5\nvalue = [4, 1]\nclass = cooperative", fillcolor="#e58139bf"] ;
115 -> 116 ;
117 [label="A <= 0.62\ngini = 0.5\nsamples = 2\nvalue = [1, 1]\nclass = cooperative", fillcolor="#e5813900"] ;
116 -> 117 ;
118 [label="gini = 0.0\nsamples = 1\nvalue = [0, 1]\nclass = additive", fillcolor="#399de5ff"] ;
117 -> 118 ;
119 [label="gini = 0.0\nsamples = 1\nvalue = [1, 0]\nclass = cooperative", fillcolor="#e58139ff"] ;
117 -> 119 ;
120 [label="gini = 0.0\nsamples = 3\nvalue = [3, 0]\nclass = cooperative", fillcolor="#e58139ff"] ;
116 -> 120 ;
121 [label="gini = 0.0\nsamples = 2\nvalue = [0, 2]\nclass = additive", fillcolor="#399de5ff"] ;
115 -> 121 ;
122 [label="gini = 0.0\nsamples = 2\nvalue = [2, 0]\nclass = cooperative", fillcolor="#e58139ff"] ;
114 -> 122 ;
123 [label="gini = 0.0\nsamples = 1\nvalue = [0, 3]\nclass = additive", fillcolor="#399de5ff"] ;
113 -> 123 ;
124 [label="A <= 0.46\ngini = 0.35\nsamples = 49\nvalue = [57, 17]\nclass = cooperative", fillcolor="#e58139b3"] ;
98 -> 124 ;
125 [label="CA <= 0.29\ngini = 0.22\nsamples = 26\nvalue = [35, 5]\nclass = cooperative", fillcolor="#e58139db"] ;
124 -> 125 ;
126 [label="gini = 0.0\nsamples = 13\nvalue = [18, 0]\nclass = cooperative", fillcolor="#e58139ff"] ;
125 -> 126 ;
127 [label="dist-numeric <= 9.5\ngini = 0.35\nsamples = 13\nvalue = [17, 5]\nclass = cooperative", fillcolor="#e58139b4"] ;
125 -> 127 ;
128 [label="site_str_score <= 0.75\ngini = 0.46\nsamples = 9\nvalue = [9, 5]\nclass = cooperative", fillcolor="#e5813971"] ;
127 -> 128 ;
129 [label="site_str_score <= 0.73\ngini = 0.5\nsamples = 6\nvalue = [5, 5]\nclass = cooperative", fillcolor="#e5813900"] ;
128 -> 129 ;
130 [label="dist-numeric <= 8.5\ngini = 0.47\nsamples = 5\nvalue = [5, 3]\nclass = cooperative", fillcolor="#e5813966"] ;
129 -> 130 ;
131 [label="gini = 0.0\nsamples = 2\nvalue = [0, 2]\nclass = additive", fillcolor="#399de5ff"] ;
130 -> 131 ;
132 [label="gini = 0.28\nsamples = 3\nvalue = [5, 1]\nclass = cooperative", fillcolor="#e58139cc"] ;
130 -> 132 ;
133 [label="gini = 0.0\nsamples = 1\nvalue = [0, 2]\nclass = additive", fillcolor="#399de5ff"] ;
129 -> 133 ;
134 [label="gini = 0.0\nsamples = 3\nvalue = [4, 0]\nclass = cooperative", fillcolor="#e58139ff"] ;
128 -> 134 ;
135 [label="gini = 0.0\nsamples = 4\nvalue = [8, 0]\nclass = cooperative", fillcolor="#e58139ff"] ;
127 -> 135 ;
136 [label="dist-numeric <= 7.5\ngini = 0.46\nsamples = 23\nvalue = [22, 12]\nclass = cooperative", fillcolor="#e5813974"] ;
124 -> 136 ;
137 [label="site_str_score <= 0.8\ngini = 0.49\nsamples = 9\nvalue = [6, 8]\nclass = additive", fillcolor="#399de540"] ;
136 -> 137 ;
138 [label="ori_3 <= 0.5\ngini = 0.32\nsamples = 6\nvalue = [2, 8]\nclass = additive", fillcolor="#399de5bf"] ;
137 -> 138 ;
139 [label="gini = 0.0\nsamples = 4\nvalue = [0, 6]\nclass = additive", fillcolor="#399de5ff"] ;
138 -> 139 ;
140 [label="site_str_score <= 0.55\ngini = 0.5\nsamples = 2\nvalue = [2, 2]\nclass = cooperative", fillcolor="#e5813900"] ;
138 -> 140 ;
141 [label="gini = 0.0\nsamples = 1\nvalue = [2, 0]\nclass = cooperative", fillcolor="#e58139ff"] ;
140 -> 141 ;
142 [label="gini = 0.0\nsamples = 1\nvalue = [0, 2]\nclass = additive", fillcolor="#399de5ff"] ;
140 -> 142 ;
143 [label="gini = 0.0\nsamples = 3\nvalue = [4, 0]\nclass = cooperative", fillcolor="#e58139ff"] ;
137 -> 143 ;
144 [label="site_str_score <= 0.78\ngini = 0.32\nsamples = 14\nvalue = [16, 4]\nclass = cooperative", fillcolor="#e58139bf"] ;
136 -> 144 ;
145 [label="dist-numeric <= 12.0\ngini = 0.48\nsamples = 4\nvalue = [2, 3]\nclass = additive", fillcolor="#399de555"] ;
144 -> 145 ;
146 [label="gini = 0.0\nsamples = 2\nvalue = [0, 3]\nclass = additive", fillcolor="#399de5ff"] ;
145 -> 146 ;
147 [label="gini = 0.0\nsamples = 2\nvalue = [2, 0]\nclass = cooperative", fillcolor="#e58139ff"] ;
145 -> 147 ;
148 [label="site_str_score <= 0.87\ngini = 0.12\nsamples = 10\nvalue = [14, 1]\nclass = cooperative", fillcolor="#e58139ed"] ;
144 -> 148 ;
149 [label="gini = 0.0\nsamples = 8\nvalue = [13, 0]\nclass = cooperative", fillcolor="#e58139ff"] ;
148 -> 149 ;
150 [label="site_str_score <= 0.87\ngini = 0.5\nsamples = 2\nvalue = [1, 1]\nclass = cooperative", fillcolor="#e5813900"] ;
148 -> 150 ;
151 [label="gini = 0.0\nsamples = 1\nvalue = [0, 1]\nclass = additive", fillcolor="#399de5ff"] ;
150 -> 151 ;
152 [label="gini = 0.0\nsamples = 1\nvalue = [1, 0]\nclass = cooperative", fillcolor="#e58139ff"] ;
150 -> 152 ;
153 [label="G <= 0.59\ngini = 0.2\nsamples = 533\nvalue = [763, 97]\nclass = cooperative", fillcolor="#e58139df"] ;
97 -> 153 ;
154 [label="CA <= 0.28\ngini = 0.19\nsamples = 520\nvalue = [753, 90]\nclass = cooperative", fillcolor="#e58139e1"] ;
153 -> 154 ;
155 [label="ori_3 <= 0.5\ngini = 0.18\nsamples = 505\nvalue = [740, 83]\nclass = cooperative", fillcolor="#e58139e2"] ;
154 -> 155 ;
156 [label="site_wk_score <= 0.71\ngini = 0.23\nsamples = 315\nvalue = [446, 67]\nclass = cooperative", fillcolor="#e58139d9"] ;
155 -> 156 ;
157 [label="site_wk_score <= 0.7\ngini = 0.28\nsamples = 220\nvalue = [312, 62]\nclass = cooperative", fillcolor="#e58139cc"] ;
156 -> 157 ;
158 [label="dist-numeric <= 12.5\ngini = 0.27\nsamples = 219\nvalue = [312, 59]\nclass = cooperative", fillcolor="#e58139cf"] ;
157 -> 158 ;
159 [label="TG <= 0.18\ngini = 0.49\nsamples = 30\nvalue = [27, 22]\nclass = cooperative", fillcolor="#e581392f"] ;
158 -> 159 ;
160 [label="gini = 0.5\nsamples = 24\nvalue = [19, 21]\nclass = additive", fillcolor="#399de518"] ;
159 -> 160 ;
161 [label="gini = 0.2\nsamples = 6\nvalue = [8, 1]\nclass = cooperative", fillcolor="#e58139df"] ;
159 -> 161 ;
162 [label="GA <= 0.07\ngini = 0.2\nsamples = 189\nvalue = [285, 37]\nclass = cooperative", fillcolor="#e58139de"] ;
158 -> 162 ;
163 [label="gini = 0.26\nsamples = 101\nvalue = [147, 26]\nclass = cooperative", fillcolor="#e58139d2"] ;
162 -> 163 ;
164 [label="gini = 0.14\nsamples = 88\nvalue = [138, 11]\nclass = cooperative", fillcolor="#e58139eb"] ;
162 -> 164 ;
165 [label="gini = 0.0\nsamples = 1\nvalue = [0, 3]\nclass = additive", fillcolor="#399de5ff"] ;
157 -> 165 ;
166 [label="GA <= 0.06\ngini = 0.07\nsamples = 95\nvalue = [134, 5]\nclass = cooperative", fillcolor="#e58139f5"] ;
156 -> 166 ;
167 [label="CA <= 0.06\ngini = 0.14\nsamples = 46\nvalue = [61, 5]\nclass = cooperative", fillcolor="#e58139ea"] ;
166 -> 167 ;
168 [label="G <= 0.17\ngini = 0.34\nsamples = 9\nvalue = [11, 3]\nclass = cooperative", fillcolor="#e58139b9"] ;
167 -> 168 ;
169 [label="gini = 0.0\nsamples = 1\nvalue = [0, 2]\nclass = additive", fillcolor="#399de5ff"] ;
168 -> 169 ;
170 [label="gini = 0.15\nsamples = 8\nvalue = [11, 1]\nclass = cooperative", fillcolor="#e58139e8"] ;
168 -> 170 ;
171 [label="G <= 0.1\ngini = 0.07\nsamples = 37\nvalue = [50, 2]\nclass = cooperative", fillcolor="#e58139f5"] ;
167 -> 171 ;
172 [label="gini = 0.32\nsamples = 4\nvalue = [4, 1]\nclass = cooperative", fillcolor="#e58139bf"] ;
171 -> 172 ;
173 [label="gini = 0.04\nsamples = 33\nvalue = [46, 1]\nclass = cooperative", fillcolor="#e58139f9"] ;
171 -> 173 ;
174 [label="gini = 0.0\nsamples = 49\nvalue = [73, 0]\nclass = cooperative", fillcolor="#e58139ff"] ;
166 -> 174 ;
175 [label="site_wk_score <= 0.51\ngini = 0.1\nsamples = 190\nvalue = [294, 16]\nclass = cooperative", fillcolor="#e58139f1"] ;
155 -> 175 ;
176 [label="site_str_score <= 0.68\ngini = 0.23\nsamples = 61\nvalue = [86, 13]\nclass = cooperative", fillcolor="#e58139d8"] ;
175 -> 176 ;
177 [label="A <= 0.28\ngini = 0.05\nsamples = 44\nvalue = [74, 2]\nclass = cooperative", fillcolor="#e58139f8"] ;
176 -> 177 ;
178 [label="gini = 0.0\nsamples = 35\nvalue = [61, 0]\nclass = cooperative", fillcolor="#e58139ff"] ;
177 -> 178 ;
179 [label="GA <= 0.15\ngini = 0.23\nsamples = 9\nvalue = [13, 2]\nclass = cooperative", fillcolor="#e58139d8"] ;
177 -> 179 ;
180 [label="gini = 0.0\nsamples = 8\nvalue = [13, 0]\nclass = cooperative", fillcolor="#e58139ff"] ;
179 -> 180 ;
181 [label="gini = 0.0\nsamples = 1\nvalue = [0, 2]\nclass = additive", fillcolor="#399de5ff"] ;
179 -> 181 ;
182 [label="dist-numeric <= 15.5\ngini = 0.5\nsamples = 17\nvalue = [12, 11]\nclass = cooperative", fillcolor="#e5813915"] ;
176 -> 182 ;
183 [label="dist-numeric <= 11.5\ngini = 0.36\nsamples = 10\nvalue = [3, 10]\nclass = additive", fillcolor="#399de5b3"] ;
182 -> 183 ;
184 [label="gini = 0.0\nsamples = 4\nvalue = [0, 6]\nclass = additive", fillcolor="#399de5ff"] ;
183 -> 184 ;
185 [label="gini = 0.49\nsamples = 6\nvalue = [3, 4]\nclass = additive", fillcolor="#399de540"] ;
183 -> 185 ;
186 [label="site_str_score <= 0.79\ngini = 0.18\nsamples = 7\nvalue = [9, 1]\nclass = cooperative", fillcolor="#e58139e3"] ;
182 -> 186 ;
187 [label="gini = 0.0\nsamples = 5\nvalue = [7, 0]\nclass = cooperative", fillcolor="#e58139ff"] ;
186 -> 187 ;
188 [label="gini = 0.44\nsamples = 2\nvalue = [2, 1]\nclass = cooperative", fillcolor="#e581397f"] ;
186 -> 188 ;
189 [label="CA <= 0.19\ngini = 0.03\nsamples = 129\nvalue = [208, 3]\nclass = cooperative", fillcolor="#e58139fb"] ;
175 -> 189 ;
190 [label="G <= 0.39\ngini = 0.01\nsamples = 109\nvalue = [179, 1]\nclass = cooperative", fillcolor="#e58139fe"] ;
189 -> 190 ;
191 [label="gini = 0.0\nsamples = 77\nvalue = [122, 0]\nclass = cooperative", fillcolor="#e58139ff"] ;
190 -> 191 ;
192 [label="CA <= 0.03\ngini = 0.03\nsamples = 32\nvalue = [57, 1]\nclass = cooperative", fillcolor="#e58139fb"] ;
190 -> 192 ;
193 [label="gini = 0.07\nsamples = 17\nvalue = [28, 1]\nclass = cooperative", fillcolor="#e58139f6"] ;
192 -> 193 ;
194 [label="gini = 0.0\nsamples = 15\nvalue = [29, 0]\nclass = cooperative", fillcolor="#e58139ff"] ;
192 -> 194 ;
195 [label="site_str_score <= 0.85\ngini = 0.12\nsamples = 20\nvalue = [29, 2]\nclass = cooperative", fillcolor="#e58139ed"] ;
189 -> 195 ;
196 [label="gini = 0.0\nsamples = 18\nvalue = [29, 0]\nclass = cooperative", fillcolor="#e58139ff"] ;
195 -> 196 ;
197 [label="gini = 0.0\nsamples = 2\nvalue = [0, 2]\nclass = additive", fillcolor="#399de5ff"] ;
195 -> 197 ;
198 [label="G <= 0.1\ngini = 0.45\nsamples = 15\nvalue = [13, 7]\nclass = cooperative", fillcolor="#e5813976"] ;
154 -> 198 ;
199 [label="gini = 0.0\nsamples = 2\nvalue = [3, 0]\nclass = cooperative", fillcolor="#e58139ff"] ;
198 -> 199 ;
200 [label="A <= 0.35\ngini = 0.48\nsamples = 13\nvalue = [10, 7]\nclass = cooperative", fillcolor="#e581394d"] ;
198 -> 200 ;
201 [label="A <= 0.31\ngini = 0.3\nsamples = 9\nvalue = [9, 2]\nclass = cooperative", fillcolor="#e58139c6"] ;
200 -> 201 ;
202 [label="site_wk_score <= 0.52\ngini = 0.38\nsamples = 6\nvalue = [6, 2]\nclass = cooperative", fillcolor="#e58139aa"] ;
201 -> 202 ;
203 [label="site_str_score <= 0.8\ngini = 0.44\nsamples = 3\nvalue = [1, 2]\nclass = additive", fillcolor="#399de57f"] ;
202 -> 203 ;
204 [label="gini = 0.0\nsamples = 2\nvalue = [0, 2]\nclass = additive", fillcolor="#399de5ff"] ;
203 -> 204 ;
205 [label="gini = 0.0\nsamples = 1\nvalue = [1, 0]\nclass = cooperative", fillcolor="#e58139ff"] ;
203 -> 205 ;
206 [label="gini = 0.0\nsamples = 3\nvalue = [5, 0]\nclass = cooperative", fillcolor="#e58139ff"] ;
202 -> 206 ;
207 [label="gini = 0.0\nsamples = 3\nvalue = [3, 0]\nclass = cooperative", fillcolor="#e58139ff"] ;
201 -> 207 ;
208 [label="dist-numeric <= 12.5\ngini = 0.28\nsamples = 4\nvalue = [1, 5]\nclass = additive", fillcolor="#399de5cc"] ;
200 -> 208 ;
209 [label="gini = 0.0\nsamples = 1\nvalue = [1, 0]\nclass = cooperative", fillcolor="#e58139ff"] ;
208 -> 209 ;
210 [label="gini = 0.0\nsamples = 3\nvalue = [0, 5]\nclass = additive", fillcolor="#399de5ff"] ;
208 -> 210 ;
211 [label="site_wk_score <= 0.61\ngini = 0.48\nsamples = 13\nvalue = [10, 7]\nclass = cooperative", fillcolor="#e581394d"] ;
153 -> 211 ;
212 [label="GA <= 0.13\ngini = 0.46\nsamples = 9\nvalue = [4, 7]\nclass = additive", fillcolor="#399de56d"] ;
211 -> 212 ;
213 [label="gini = 0.0\nsamples = 3\nvalue = [3, 0]\nclass = cooperative", fillcolor="#e58139ff"] ;
212 -> 213 ;
214 [label="site_wk_score <= 0.52\ngini = 0.22\nsamples = 6\nvalue = [1, 7]\nclass = additive", fillcolor="#399de5db"] ;
212 -> 214 ;
215 [label="dist-numeric <= 9.5\ngini = 0.44\nsamples = 3\nvalue = [1, 2]\nclass = additive", fillcolor="#399de57f"] ;
214 -> 215 ;
216 [label="gini = 0.0\nsamples = 1\nvalue = [1, 0]\nclass = cooperative", fillcolor="#e58139ff"] ;
215 -> 216 ;
217 [label="gini = 0.0\nsamples = 2\nvalue = [0, 2]\nclass = additive", fillcolor="#399de5ff"] ;
215 -> 217 ;
218 [label="gini = 0.0\nsamples = 3\nvalue = [0, 5]\nclass = additive", fillcolor="#399de5ff"] ;
214 -> 218 ;
219 [label="gini = 0.0\nsamples = 4\nvalue = [6, 0]\nclass = cooperative", fillcolor="#e58139ff"] ;
211 -> 219 ;
220 [label="dist-numeric <= 13.5\ngini = 0.47\nsamples = 282\nvalue = [162, 270]\nclass = additive", fillcolor="#399de566"] ;
0 -> 220 [labeldistance=2.5, labelangle=-45, headlabel="False"] ;
221 [label="dist-numeric <= 6.5\ngini = 0.34\nsamples = 146\nvalue = [46, 166]\nclass = additive", fillcolor="#399de5b8"] ;
220 -> 221 ;
222 [label="dist-numeric <= 5.5\ngini = 0.49\nsamples = 22\nvalue = [15, 19]\nclass = additive", fillcolor="#399de536"] ;
221 -> 222 ;
223 [label="site_str_score <= 0.88\ngini = 0.5\nsamples = 10\nvalue = [8, 7]\nclass = cooperative", fillcolor="#e5813920"] ;
222 -> 223 ;
224 [label="site_wk_score <= 0.6\ngini = 0.35\nsamples = 7\nvalue = [7, 2]\nclass = cooperative", fillcolor="#e58139b6"] ;
223 -> 224 ;
225 [label="gini = 0.0\nsamples = 1\nvalue = [0, 1]\nclass = additive", fillcolor="#399de5ff"] ;
224 -> 225 ;
226 [label="site_str_score <= 0.8\ngini = 0.22\nsamples = 6\nvalue = [7, 1]\nclass = cooperative", fillcolor="#e58139db"] ;
224 -> 226 ;
227 [label="gini = 0.0\nsamples = 1\nvalue = [0, 1]\nclass = additive", fillcolor="#399de5ff"] ;
226 -> 227 ;
228 [label="gini = 0.0\nsamples = 5\nvalue = [7, 0]\nclass = cooperative", fillcolor="#e58139ff"] ;
226 -> 228 ;
229 [label="site_str_score <= 0.89\ngini = 0.28\nsamples = 3\nvalue = [1, 5]\nclass = additive", fillcolor="#399de5cc"] ;
223 -> 229 ;
230 [label="gini = 0.0\nsamples = 1\nvalue = [0, 3]\nclass = additive", fillcolor="#399de5ff"] ;
229 -> 230 ;
231 [label="site_wk_score <= 0.67\ngini = 0.44\nsamples = 2\nvalue = [1, 2]\nclass = additive", fillcolor="#399de57f"] ;
229 -> 231 ;
232 [label="gini = 0.0\nsamples = 1\nvalue = [1, 0]\nclass = cooperative", fillcolor="#e58139ff"] ;
231 -> 232 ;
233 [label="gini = 0.0\nsamples = 1\nvalue = [0, 2]\nclass = additive", fillcolor="#399de5ff"] ;
231 -> 233 ;
234 [label="site_str_score <= 0.78\ngini = 0.47\nsamples = 12\nvalue = [7, 12]\nclass = additive", fillcolor="#399de56a"] ;
222 -> 234 ;
235 [label="site_str_score <= 0.71\ngini = 0.32\nsamples = 9\nvalue = [3, 12]\nclass = additive", fillcolor="#399de5bf"] ;
234 -> 235 ;
236 [label="site_str_score <= 0.68\ngini = 0.44\nsamples = 5\nvalue = [3, 6]\nclass = additive", fillcolor="#399de57f"] ;
235 -> 236 ;
237 [label="site_wk_score <= 0.58\ngini = 0.24\nsamples = 4\nvalue = [1, 6]\nclass = additive", fillcolor="#399de5d4"] ;
236 -> 237 ;
238 [label="gini = 0.0\nsamples = 1\nvalue = [1, 0]\nclass = cooperative", fillcolor="#e58139ff"] ;
237 -> 238 ;
239 [label="gini = 0.0\nsamples = 3\nvalue = [0, 6]\nclass = additive", fillcolor="#399de5ff"] ;
237 -> 239 ;
240 [label="gini = 0.0\nsamples = 1\nvalue = [2, 0]\nclass = cooperative", fillcolor="#e58139ff"] ;
236 -> 240 ;
241 [label="gini = 0.0\nsamples = 4\nvalue = [0, 6]\nclass = additive", fillcolor="#399de5ff"] ;
235 -> 241 ;
242 [label="gini = 0.0\nsamples = 3\nvalue = [4, 0]\nclass = cooperative", fillcolor="#e58139ff"] ;
234 -> 242 ;
243 [label="site_str_score <= 0.76\ngini = 0.29\nsamples = 124\nvalue = [31, 147]\nclass = additive", fillcolor="#399de5c9"] ;
221 -> 243 ;
244 [label="site_wk_score <= 0.4\ngini = 0.09\nsamples = 87\nvalue = [6, 118]\nclass = additive", fillcolor="#399de5f2"] ;
243 -> 244 ;
245 [label="G <= 0.29\ngini = 0.33\nsamples = 13\nvalue = [4, 15]\nclass = additive", fillcolor="#399de5bb"] ;
244 -> 245 ;
246 [label="site_str_score <= 0.73\ngini = 0.44\nsamples = 7\nvalue = [3, 6]\nclass = additive", fillcolor="#399de57f"] ;
245 -> 246 ;
247 [label="TG <= 0.07\ngini = 0.24\nsamples = 6\nvalue = [1, 6]\nclass = additive", fillcolor="#399de5d4"] ;
246 -> 247 ;
248 [label="site_wk_score <= 0.33\ngini = 0.32\nsamples = 4\nvalue = [1, 4]\nclass = additive", fillcolor="#399de5bf"] ;
247 -> 248 ;
249 [label="site_wk_score <= 0.24\ngini = 0.5\nsamples = 2\nvalue = [1, 1]\nclass = cooperative", fillcolor="#e5813900"] ;
248 -> 249 ;
250 [label="gini = 0.0\nsamples = 1\nvalue = [0, 1]\nclass = additive", fillcolor="#399de5ff"] ;
249 -> 250 ;
251 [label="gini = 0.0\nsamples = 1\nvalue = [1, 0]\nclass = cooperative", fillcolor="#e58139ff"] ;
249 -> 251 ;
252 [label="gini = 0.0\nsamples = 2\nvalue = [0, 3]\nclass = additive", fillcolor="#399de5ff"] ;
248 -> 252 ;
253 [label="gini = 0.0\nsamples = 2\nvalue = [0, 2]\nclass = additive", fillcolor="#399de5ff"] ;
247 -> 253 ;
254 [label="gini = 0.0\nsamples = 1\nvalue = [2, 0]\nclass = cooperative", fillcolor="#e58139ff"] ;
246 -> 254 ;
255 [label="CA <= 0.1\ngini = 0.18\nsamples = 6\nvalue = [1, 9]\nclass = additive", fillcolor="#399de5e3"] ;
245 -> 255 ;
256 [label="dist-numeric <= 11.5\ngini = 0.24\nsamples = 5\nvalue = [1, 6]\nclass = additive", fillcolor="#399de5d4"] ;
255 -> 256 ;
257 [label="gini = 0.0\nsamples = 4\nvalue = [0, 6]\nclass = additive", fillcolor="#399de5ff"] ;
256 -> 257 ;
258 [label="gini = 0.0\nsamples = 1\nvalue = [1, 0]\nclass = cooperative", fillcolor="#e58139ff"] ;
256 -> 258 ;
259 [label="gini = 0.0\nsamples = 1\nvalue = [0, 3]\nclass = additive", fillcolor="#399de5ff"] ;
255 -> 259 ;
260 [label="dist-numeric <= 12.5\ngini = 0.04\nsamples = 74\nvalue = [2, 103]\nclass = additive", fillcolor="#399de5fa"] ;
244 -> 260 ;
261 [label="gini = 0.0\nsamples = 60\nvalue = [0, 84]\nclass = additive", fillcolor="#399de5ff"] ;
260 -> 261 ;
262 [label="G <= 0.06\ngini = 0.17\nsamples = 14\nvalue = [2, 19]\nclass = additive", fillcolor="#399de5e4"] ;
260 -> 262 ;
263 [label="gini = 0.0\nsamples = 1\nvalue = [2, 0]\nclass = cooperative", fillcolor="#e58139ff"] ;
262 -> 263 ;
264 [label="gini = 0.0\nsamples = 13\nvalue = [0, 19]\nclass = additive", fillcolor="#399de5ff"] ;
262 -> 264 ;
265 [label="site_str_score <= 0.92\ngini = 0.5\nsamples = 37\nvalue = [25, 29]\nclass = additive", fillcolor="#399de523"] ;
243 -> 265 ;
266 [label="CA <= 0.31\ngini = 0.49\nsamples = 35\nvalue = [22, 29]\nclass = additive", fillcolor="#399de53e"] ;
265 -> 266 ;
267 [label="site_str_score <= 0.89\ngini = 0.5\nsamples = 32\nvalue = [22, 25]\nclass = additive", fillcolor="#399de51f"] ;
266 -> 267 ;
268 [label="A <= 0.23\ngini = 0.5\nsamples = 28\nvalue = [21, 19]\nclass = cooperative", fillcolor="#e5813918"] ;
267 -> 268 ;
269 [label="dist-numeric <= 12.5\ngini = 0.41\nsamples = 15\nvalue = [17, 7]\nclass = cooperative", fillcolor="#e5813996"] ;
268 -> 269 ;
270 [label="dist-numeric <= 10.5\ngini = 0.39\nsamples = 14\nvalue = [17, 6]\nclass = cooperative", fillcolor="#e58139a5"] ;
269 -> 270 ;
271 [label="gini = 0.48\nsamples = 10\nvalue = [9, 6]\nclass = cooperative", fillcolor="#e5813955"] ;
270 -> 271 ;
272 [label="gini = 0.0\nsamples = 4\nvalue = [8, 0]\nclass = cooperative", fillcolor="#e58139ff"] ;
270 -> 272 ;
273 [label="gini = 0.0\nsamples = 1\nvalue = [0, 1]\nclass = additive", fillcolor="#399de5ff"] ;
269 -> 273 ;
274 [label="G <= 0.15\ngini = 0.38\nsamples = 13\nvalue = [4, 12]\nclass = additive", fillcolor="#399de5aa"] ;
268 -> 274 ;
275 [label="dist-numeric <= 10.5\ngini = 0.49\nsamples = 7\nvalue = [4, 5]\nclass = additive", fillcolor="#399de533"] ;
274 -> 275 ;
276 [label="gini = 0.0\nsamples = 2\nvalue = [0, 4]\nclass = additive", fillcolor="#399de5ff"] ;
275 -> 276 ;
277 [label="gini = 0.32\nsamples = 5\nvalue = [4, 1]\nclass = cooperative", fillcolor="#e58139bf"] ;
275 -> 277 ;
278 [label="gini = 0.0\nsamples = 6\nvalue = [0, 7]\nclass = additive", fillcolor="#399de5ff"] ;
274 -> 278 ;
279 [label="site_wk_score <= 0.49\ngini = 0.24\nsamples = 4\nvalue = [1, 6]\nclass = additive", fillcolor="#399de5d4"] ;
267 -> 279 ;
280 [label="gini = 0.0\nsamples = 1\nvalue = [1, 0]\nclass = cooperative", fillcolor="#e58139ff"] ;
279 -> 280 ;
281 [label="gini = 0.0\nsamples = 3\nvalue = [0, 6]\nclass = additive", fillcolor="#399de5ff"] ;
279 -> 281 ;
282 [label="gini = 0.0\nsamples = 3\nvalue = [0, 4]\nclass = additive", fillcolor="#399de5ff"] ;
266 -> 282 ;
283 [label="gini = 0.0\nsamples = 2\nvalue = [3, 0]\nclass = cooperative", fillcolor="#e58139ff"] ;
265 -> 283 ;
284 [label="A <= 0.28\ngini = 0.5\nsamples = 136\nvalue = [116, 104]\nclass = cooperative", fillcolor="#e581391a"] ;
220 -> 284 ;
285 [label="dist-numeric <= 21.5\ngini = 0.5\nsamples = 108\nvalue = [80, 89]\nclass = additive", fillcolor="#399de51a"] ;
284 -> 285 ;
286 [label="CA <= 0.24\ngini = 0.5\nsamples = 78\nvalue = [69, 58]\nclass = cooperative", fillcolor="#e5813929"] ;
285 -> 286 ;
287 [label="site_wk_score <= 0.52\ngini = 0.49\nsamples = 75\nvalue = [68, 53]\nclass = cooperative", fillcolor="#e5813938"] ;
286 -> 287 ;
288 [label="dist-numeric <= 19.5\ngini = 0.3\nsamples = 22\nvalue = [31, 7]\nclass = cooperative", fillcolor="#e58139c5"] ;
287 -> 288 ;
289 [label="G <= 0.25\ngini = 0.22\nsamples = 17\nvalue = [28, 4]\nclass = cooperative", fillcolor="#e58139db"] ;
288 -> 289 ;
290 [label="G <= 0.15\ngini = 0.36\nsamples = 8\nvalue = [13, 4]\nclass = cooperative", fillcolor="#e58139b1"] ;
289 -> 290 ;
291 [label="gini = 0.0\nsamples = 2\nvalue = [4, 0]\nclass = cooperative", fillcolor="#e58139ff"] ;
290 -> 291 ;
292 [label="TG <= 0.12\ngini = 0.43\nsamples = 6\nvalue = [9, 4]\nclass = cooperative", fillcolor="#e581398e"] ;
290 -> 292 ;
293 [label="gini = 0.38\nsamples = 5\nvalue = [9, 3]\nclass = cooperative", fillcolor="#e58139aa"] ;
292 -> 293 ;
294 [label="gini = 0.0\nsamples = 1\nvalue = [0, 1]\nclass = additive", fillcolor="#399de5ff"] ;
292 -> 294 ;
295 [label="gini = 0.0\nsamples = 9\nvalue = [15, 0]\nclass = cooperative", fillcolor="#e58139ff"] ;
289 -> 295 ;
296 [label="site_str_score <= 0.69\ngini = 0.5\nsamples = 5\nvalue = [3, 3]\nclass = cooperative", fillcolor="#e5813900"] ;
288 -> 296 ;
297 [label="gini = 0.0\nsamples = 2\nvalue = [0, 3]\nclass = additive", fillcolor="#399de5ff"] ;
296 -> 297 ;
298 [label="gini = 0.0\nsamples = 3\nvalue = [3, 0]\nclass = cooperative", fillcolor="#e58139ff"] ;
296 -> 298 ;
299 [label="CA <= 0.18\ngini = 0.49\nsamples = 53\nvalue = [37, 46]\nclass = additive", fillcolor="#399de532"] ;
287 -> 299 ;
300 [label="TG <= 0.03\ngini = 0.5\nsamples = 51\nvalue = [37, 41]\nclass = additive", fillcolor="#399de519"] ;
299 -> 300 ;
301 [label="GA <= 0.04\ngini = 0.35\nsamples = 13\nvalue = [14, 4]\nclass = cooperative", fillcolor="#e58139b6"] ;
300 -> 301 ;
302 [label="site_str_score <= 0.73\ngini = 0.47\nsamples = 6\nvalue = [5, 3]\nclass = cooperative", fillcolor="#e5813966"] ;
301 -> 302 ;
303 [label="gini = 0.38\nsamples = 4\nvalue = [1, 3]\nclass = additive", fillcolor="#399de5aa"] ;
302 -> 303 ;
304 [label="gini = 0.0\nsamples = 2\nvalue = [4, 0]\nclass = cooperative", fillcolor="#e58139ff"] ;
302 -> 304 ;
305 [label="dist-numeric <= 17.0\ngini = 0.18\nsamples = 7\nvalue = [9, 1]\nclass = cooperative", fillcolor="#e58139e3"] ;
301 -> 305 ;
306 [label="gini = 0.0\nsamples = 1\nvalue = [2, 0]\nclass = cooperative", fillcolor="#e58139ff"] ;
305 -> 306 ;
307 [label="gini = 0.22\nsamples = 6\nvalue = [7, 1]\nclass = cooperative", fillcolor="#e58139db"] ;
305 -> 307 ;
308 [label="TG <= 0.12\ngini = 0.47\nsamples = 38\nvalue = [23, 37]\nclass = additive", fillcolor="#399de560"] ;
300 -> 308 ;
309 [label="site_str_score <= 0.86\ngini = 0.22\nsamples = 22\nvalue = [4, 27]\nclass = additive", fillcolor="#399de5d9"] ;
308 -> 309 ;
310 [label="gini = 0.07\nsamples = 20\nvalue = [1, 27]\nclass = additive", fillcolor="#399de5f6"] ;
309 -> 310 ;
311 [label="gini = 0.0\nsamples = 2\nvalue = [3, 0]\nclass = cooperative", fillcolor="#e58139ff"] ;
309 -> 311 ;
312 [label="TG <= 0.22\ngini = 0.45\nsamples = 16\nvalue = [19, 10]\nclass = cooperative", fillcolor="#e5813979"] ;
308 -> 312 ;
313 [label="gini = 0.17\nsamples = 11\nvalue = [19, 2]\nclass = cooperative", fillcolor="#e58139e4"] ;
312 -> 313 ;
314 [label="gini = 0.0\nsamples = 5\nvalue = [0, 8]\nclass = additive", fillcolor="#399de5ff"] ;
312 -> 314 ;
315 [label="gini = 0.0\nsamples = 2\nvalue = [0, 5]\nclass = additive", fillcolor="#399de5ff"] ;
299 -> 315 ;
316 [label="site_str_score <= 0.67\ngini = 0.28\nsamples = 3\nvalue = [1, 5]\nclass = additive", fillcolor="#399de5cc"] ;
286 -> 316 ;
317 [label="gini = 0.0\nsamples = 1\nvalue = [1, 0]\nclass = cooperative", fillcolor="#e58139ff"] ;
316 -> 317 ;
318 [label="gini = 0.0\nsamples = 2\nvalue = [0, 5]\nclass = additive", fillcolor="#399de5ff"] ;
316 -> 318 ;
319 [label="G <= 0.51\ngini = 0.39\nsamples = 30\nvalue = [11, 31]\nclass = additive", fillcolor="#399de5a5"] ;
285 -> 319 ;
320 [label="dist-numeric <= 23.5\ngini = 0.35\nsamples = 28\nvalue = [9, 31]\nclass = additive", fillcolor="#399de5b5"] ;
319 -> 320 ;
321 [label="site_wk_score <= 0.55\ngini = 0.38\nsamples = 26\nvalue = [9, 27]\nclass = additive", fillcolor="#399de5aa"] ;
320 -> 321 ;
322 [label="site_str_score <= 0.69\ngini = 0.2\nsamples = 7\nvalue = [8, 1]\nclass = cooperative", fillcolor="#e58139df"] ;
321 -> 322 ;
323 [label="A <= 0.2\ngini = 0.5\nsamples = 2\nvalue = [1, 1]\nclass = cooperative", fillcolor="#e5813900"] ;
322 -> 323 ;
324 [label="gini = 0.0\nsamples = 1\nvalue = [0, 1]\nclass = additive", fillcolor="#399de5ff"] ;
323 -> 324 ;
325 [label="gini = 0.0\nsamples = 1\nvalue = [1, 0]\nclass = cooperative", fillcolor="#e58139ff"] ;
323 -> 325 ;
326 [label="gini = 0.0\nsamples = 5\nvalue = [7, 0]\nclass = cooperative", fillcolor="#e58139ff"] ;
322 -> 326 ;
327 [label="site_str_score <= 0.87\ngini = 0.07\nsamples = 19\nvalue = [1, 26]\nclass = additive", fillcolor="#399de5f5"] ;
321 -> 327 ;
328 [label="gini = 0.0\nsamples = 18\nvalue = [0, 26]\nclass = additive", fillcolor="#399de5ff"] ;
327 -> 328 ;
329 [label="gini = 0.0\nsamples = 1\nvalue = [1, 0]\nclass = cooperative", fillcolor="#e58139ff"] ;
327 -> 329 ;
330 [label="gini = 0.0\nsamples = 2\nvalue = [0, 4]\nclass = additive", fillcolor="#399de5ff"] ;
320 -> 330 ;
331 [label="gini = 0.0\nsamples = 2\nvalue = [2, 0]\nclass = cooperative", fillcolor="#e58139ff"] ;
319 -> 331 ;
332 [label="CA <= 0.13\ngini = 0.42\nsamples = 28\nvalue = [36, 15]\nclass = cooperative", fillcolor="#e5813995"] ;
284 -> 332 ;
333 [label="G <= 0.14\ngini = 0.48\nsamples = 15\nvalue = [18, 12]\nclass = cooperative", fillcolor="#e5813955"] ;
332 -> 333 ;
334 [label="TG <= 0.1\ngini = 0.35\nsamples = 5\nvalue = [2, 7]\nclass = additive", fillcolor="#399de5b6"] ;
333 -> 334 ;
335 [label="CA <= 0.12\ngini = 0.22\nsamples = 4\nvalue = [1, 7]\nclass = additive", fillcolor="#399de5db"] ;
334 -> 335 ;
336 [label="gini = 0.0\nsamples = 2\nvalue = [0, 4]\nclass = additive", fillcolor="#399de5ff"] ;
335 -> 336 ;
337 [label="site_str_score <= 0.79\ngini = 0.38\nsamples = 2\nvalue = [1, 3]\nclass = additive", fillcolor="#399de5aa"] ;
335 -> 337 ;
338 [label="gini = 0.0\nsamples = 1\nvalue = [0, 3]\nclass = additive", fillcolor="#399de5ff"] ;
337 -> 338 ;
339 [label="gini = 0.0\nsamples = 1\nvalue = [1, 0]\nclass = cooperative", fillcolor="#e58139ff"] ;
337 -> 339 ;
340 [label="gini = 0.0\nsamples = 1\nvalue = [1, 0]\nclass = cooperative", fillcolor="#e58139ff"] ;
334 -> 340 ;
341 [label="G <= 0.28\ngini = 0.36\nsamples = 10\nvalue = [16, 5]\nclass = cooperative", fillcolor="#e58139af"] ;
333 -> 341 ;
342 [label="site_str_score <= 0.78\ngini = 0.24\nsamples = 6\nvalue = [12, 2]\nclass = cooperative", fillcolor="#e58139d4"] ;
341 -> 342 ;
343 [label="gini = 0.0\nsamples = 1\nvalue = [0, 2]\nclass = additive", fillcolor="#399de5ff"] ;
342 -> 343 ;
344 [label="gini = 0.0\nsamples = 5\nvalue = [12, 0]\nclass = cooperative", fillcolor="#e58139ff"] ;
342 -> 344 ;
345 [label="GA <= 0.23\ngini = 0.49\nsamples = 4\nvalue = [4, 3]\nclass = cooperative", fillcolor="#e5813940"] ;
341 -> 345 ;
346 [label="gini = 0.0\nsamples = 2\nvalue = [4, 0]\nclass = cooperative", fillcolor="#e58139ff"] ;
345 -> 346 ;
347 [label="gini = 0.0\nsamples = 2\nvalue = [0, 3]\nclass = additive", fillcolor="#399de5ff"] ;
345 -> 347 ;
348 [label="CA <= 0.15\ngini = 0.24\nsamples = 13\nvalue = [18, 3]\nclass = cooperative", fillcolor="#e58139d4"] ;
332 -> 348 ;
349 [label="gini = 0.0\nsamples = 2\nvalue = [4, 0]\nclass = cooperative", fillcolor="#e58139ff"] ;
348 -> 349 ;
350 [label="GA <= 0.08\ngini = 0.29\nsamples = 11\nvalue = [14, 3]\nclass = cooperative", fillcolor="#e58139c8"] ;
348 -> 350 ;
351 [label="site_str_score <= 0.78\ngini = 0.22\nsamples = 10\nvalue = [14, 2]\nclass = cooperative", fillcolor="#e58139db"] ;
350 -> 351 ;
352 [label="gini = 0.0\nsamples = 1\nvalue = [0, 1]\nclass = additive", fillcolor="#399de5ff"] ;
351 -> 352 ;
353 [label="site_str_score <= 0.84\ngini = 0.12\nsamples = 9\nvalue = [14, 1]\nclass = cooperative", fillcolor="#e58139ed"] ;
351 -> 353 ;
354 [label="site_wk_score <= 0.58\ngini = 0.44\nsamples = 3\nvalue = [2, 1]\nclass = cooperative", fillcolor="#e581397f"] ;
353 -> 354 ;
355 [label="gini = 0.0\nsamples = 2\nvalue = [2, 0]\nclass = cooperative", fillcolor="#e58139ff"] ;
354 -> 355 ;
356 [label="gini = 0.0\nsamples = 1\nvalue = [0, 1]\nclass = additive", fillcolor="#399de5ff"] ;
354 -> 356 ;
357 [label="gini = 0.0\nsamples = 6\nvalue = [12, 0]\nclass = cooperative", fillcolor="#e58139ff"] ;
353 -> 357 ;
358 [label="gini = 0.0\nsamples = 1\nvalue = [0, 1]\nclass = additive", fillcolor="#399de5ff"] ;
350 -> 358 ;
}