digraph Tree {
node [shape=box, style="filled, rounded", color="black", fontname=helvetica] ;
edge [fontname=helvetica] ;
0 [label="dist-numeric <= 13.5\nentropy = 0.96\nsamples = 1728\nvalue = [1073, 655]\nclass = y[0]", fillcolor="#e5813963"] ;
1 [label="site_str_score <= 0.78\nentropy = 0.96\nsamples = 796\nvalue = [303, 493]\nclass = y[1]", fillcolor="#399de562"] ;
0 -> 1 [labeldistance=2.5, labelangle=45, headlabel="True"] ;
2 [label="ori_TT <= 0.5\nentropy = 0.81\nsamples = 446\nvalue = [110, 336]\nclass = y[1]", fillcolor="#399de5ac"] ;
1 -> 2 ;
3 [label="site_wk_score <= 0.4\nentropy = 0.64\nsamples = 367\nvalue = [60, 307]\nclass = y[1]", fillcolor="#399de5cd"] ;
2 -> 3 ;
4 [label="entropy = 0.99\nsamples = 27\nvalue = [12, 15]\nclass = y[1]", fillcolor="#399de533"] ;
3 -> 4 ;
5 [label="ori_HH <= 0.5\nentropy = 0.59\nsamples = 340\nvalue = [48, 292]\nclass = y[1]", fillcolor="#399de5d5"] ;
3 -> 5 ;
6 [label="site_str_score <= 0.66\nentropy = 0.73\nsamples = 211\nvalue = [43, 168]\nclass = y[1]", fillcolor="#399de5be"] ;
5 -> 6 ;
7 [label="entropy = 0.98\nsamples = 29\nvalue = [12, 17]\nclass = y[1]", fillcolor="#399de54b"] ;
6 -> 7 ;
8 [label="site_str_score <= 0.76\nentropy = 0.66\nsamples = 182\nvalue = [31, 151]\nclass = y[1]", fillcolor="#399de5cb"] ;
6 -> 8 ;
9 [label="dist-numeric <= 8.5\nentropy = 0.52\nsamples = 128\nvalue = [15, 113]\nclass = y[1]", fillcolor="#399de5dd"] ;
8 -> 9 ;
10 [label="site_str_score <= 0.71\nentropy = 0.28\nsamples = 82\nvalue = [4, 78]\nclass = y[1]", fillcolor="#399de5f2"] ;
9 -> 10 ;
11 [label="entropy = 0.0\nsamples = 33\nvalue = [0, 33]\nclass = y[1]", fillcolor="#399de5ff"] ;
10 -> 11 ;
12 [label="entropy = 0.41\nsamples = 49\nvalue = [4, 45]\nclass = y[1]", fillcolor="#399de5e8"] ;
10 -> 12 ;
13 [label="entropy = 0.79\nsamples = 46\nvalue = [11, 35]\nclass = y[1]", fillcolor="#399de5af"] ;
9 -> 13 ;
14 [label="site_str_score <= 0.77\nentropy = 0.88\nsamples = 54\nvalue = [16, 38]\nclass = y[1]", fillcolor="#399de594"] ;
8 -> 14 ;
15 [label="entropy = 0.94\nsamples = 25\nvalue = [9, 16]\nclass = y[1]", fillcolor="#399de570"] ;
14 -> 15 ;
16 [label="entropy = 0.8\nsamples = 29\nvalue = [7, 22]\nclass = y[1]", fillcolor="#399de5ae"] ;
14 -> 16 ;
17 [label="site_str_score <= 0.67\nentropy = 0.24\nsamples = 129\nvalue = [5, 124]\nclass = y[1]", fillcolor="#399de5f5"] ;
5 -> 17 ;
18 [label="entropy = 0.0\nsamples = 61\nvalue = [0, 61]\nclass = y[1]", fillcolor="#399de5ff"] ;
17 -> 18 ;
19 [label="site_wk_score <= 0.57\nentropy = 0.38\nsamples = 68\nvalue = [5, 63]\nclass = y[1]", fillcolor="#399de5eb"] ;
17 -> 19 ;
20 [label="entropy = 0.72\nsamples = 25\nvalue = [5, 20]\nclass = y[1]", fillcolor="#399de5bf"] ;
19 -> 20 ;
21 [label="entropy = 0.0\nsamples = 43\nvalue = [0, 43]\nclass = y[1]", fillcolor="#399de5ff"] ;
19 -> 21 ;
22 [label="dist-numeric <= 9.5\nentropy = 0.95\nsamples = 79\nvalue = [50, 29]\nclass = y[0]", fillcolor="#e581396b"] ;
2 -> 22 ;
23 [label="entropy = 0.91\nsamples = 31\nvalue = [10, 21]\nclass = y[1]", fillcolor="#399de586"] ;
22 -> 23 ;
24 [label="entropy = 0.65\nsamples = 48\nvalue = [40, 8]\nclass = y[0]", fillcolor="#e58139cc"] ;
22 -> 24 ;
25 [label="dist-numeric <= 9.5\nentropy = 0.99\nsamples = 350\nvalue = [193, 157]\nclass = y[0]", fillcolor="#e5813930"] ;
1 -> 25 ;
26 [label="site_wk_score <= 0.55\nentropy = 0.98\nsamples = 225\nvalue = [95, 130]\nclass = y[1]", fillcolor="#399de545"] ;
25 -> 26 ;
27 [label="site_wk_score <= 0.45\nentropy = 0.92\nsamples = 65\nvalue = [43, 22]\nclass = y[0]", fillcolor="#e581397d"] ;
26 -> 27 ;
28 [label="entropy = 0.97\nsamples = 30\nvalue = [18, 12]\nclass = y[0]", fillcolor="#e5813955"] ;
27 -> 28 ;
29 [label="entropy = 0.86\nsamples = 35\nvalue = [25, 10]\nclass = y[0]", fillcolor="#e5813999"] ;
27 -> 29 ;
30 [label="dist-numeric <= 6.5\nentropy = 0.91\nsamples = 160\nvalue = [52, 108]\nclass = y[1]", fillcolor="#399de584"] ;
26 -> 30 ;
31 [label="site_str_score <= 0.86\nentropy = 0.99\nsamples = 70\nvalue = [31, 39]\nclass = y[1]", fillcolor="#399de534"] ;
30 -> 31 ;
32 [label="entropy = 0.85\nsamples = 36\nvalue = [10, 26]\nclass = y[1]", fillcolor="#399de59d"] ;
31 -> 32 ;
33 [label="entropy = 0.96\nsamples = 34\nvalue = [21, 13]\nclass = y[0]", fillcolor="#e5813961"] ;
31 -> 33 ;
34 [label="site_str_score <= 0.87\nentropy = 0.78\nsamples = 90\nvalue = [21, 69]\nclass = y[1]", fillcolor="#399de5b1"] ;
30 -> 34 ;
35 [label="site_str_score <= 0.84\nentropy = 0.87\nsamples = 65\nvalue = [19, 46]\nclass = y[1]", fillcolor="#399de596"] ;
34 -> 35 ;
36 [label="entropy = 0.7\nsamples = 37\nvalue = [7, 30]\nclass = y[1]", fillcolor="#399de5c4"] ;
35 -> 36 ;
37 [label="entropy = 0.99\nsamples = 28\nvalue = [12, 16]\nclass = y[1]", fillcolor="#399de540"] ;
35 -> 37 ;
38 [label="entropy = 0.4\nsamples = 25\nvalue = [2, 23]\nclass = y[1]", fillcolor="#399de5e9"] ;
34 -> 38 ;
39 [label="ori_HT/TH <= 0.5\nentropy = 0.75\nsamples = 125\nvalue = [98, 27]\nclass = y[0]", fillcolor="#e58139b9"] ;
25 -> 39 ;
40 [label="entropy = 0.93\nsamples = 47\nvalue = [31, 16]\nclass = y[0]", fillcolor="#e581397b"] ;
39 -> 40 ;
41 [label="site_str_score <= 0.83\nentropy = 0.59\nsamples = 78\nvalue = [67, 11]\nclass = y[0]", fillcolor="#e58139d5"] ;
39 -> 41 ;
42 [label="entropy = 0.84\nsamples = 30\nvalue = [22, 8]\nclass = y[0]", fillcolor="#e58139a2"] ;
41 -> 42 ;
43 [label="entropy = 0.34\nsamples = 48\nvalue = [45, 3]\nclass = y[0]", fillcolor="#e58139ee"] ;
41 -> 43 ;
44 [label="ori_HH <= 0.5\nentropy = 0.67\nsamples = 932\nvalue = [770, 162]\nclass = y[0]", fillcolor="#e58139c9"] ;
0 -> 44 [labeldistance=2.5, labelangle=-45, headlabel="False"] ;
45 [label="ori_HT/TH <= 0.5\nentropy = 0.39\nsamples = 714\nvalue = [659, 55]\nclass = y[0]", fillcolor="#e58139ea"] ;
44 -> 45 ;
46 [label="dist-numeric <= 15.5\nentropy = 0.18\nsamples = 267\nvalue = [260, 7]\nclass = y[0]", fillcolor="#e58139f8"] ;
45 -> 46 ;
47 [label="entropy = 0.44\nsamples = 44\nvalue = [40, 4]\nclass = y[0]", fillcolor="#e58139e6"] ;
46 -> 47 ;
48 [label="site_str_score <= 0.84\nentropy = 0.1\nsamples = 223\nvalue = [220, 3]\nclass = y[0]", fillcolor="#e58139fc"] ;
46 -> 48 ;
49 [label="entropy = 0.0\nsamples = 193\nvalue = [193, 0]\nclass = y[0]", fillcolor="#e58139ff"] ;
48 -> 49 ;
50 [label="entropy = 0.47\nsamples = 30\nvalue = [27, 3]\nclass = y[0]", fillcolor="#e58139e3"] ;
48 -> 50 ;
51 [label="site_wk_score <= 0.79\nentropy = 0.49\nsamples = 447\nvalue = [399, 48]\nclass = y[0]", fillcolor="#e58139e0"] ;
45 -> 51 ;
52 [label="site_wk_score <= 0.5\nentropy = 0.53\nsamples = 397\nvalue = [349, 48]\nclass = y[0]", fillcolor="#e58139dc"] ;
51 -> 52 ;
53 [label="site_str_score <= 0.73\nentropy = 0.33\nsamples = 83\nvalue = [78, 5]\nclass = y[0]", fillcolor="#e58139ef"] ;
52 -> 53 ;
54 [label="entropy = 0.45\nsamples = 42\nvalue = [38, 4]\nclass = y[0]", fillcolor="#e58139e4"] ;
53 -> 54 ;
55 [label="entropy = 0.17\nsamples = 41\nvalue = [40, 1]\nclass = y[0]", fillcolor="#e58139f9"] ;
53 -> 55 ;
56 [label="site_wk_score <= 0.7\nentropy = 0.58\nsamples = 314\nvalue = [271, 43]\nclass = y[0]", fillcolor="#e58139d7"] ;
52 -> 56 ;
57 [label="site_str_score <= 0.78\nentropy = 0.64\nsamples = 226\nvalue = [189, 37]\nclass = y[0]", fillcolor="#e58139cd"] ;
56 -> 57 ;
58 [label="dist-numeric <= 20.5\nentropy = 0.51\nsamples = 157\nvalue = [139, 18]\nclass = y[0]", fillcolor="#e58139de"] ;
57 -> 58 ;
59 [label="site_str_score <= 0.71\nentropy = 0.62\nsamples = 91\nvalue = [77, 14]\nclass = y[0]", fillcolor="#e58139d1"] ;
58 -> 59 ;
60 [label="site_wk_score <= 0.58\nentropy = 0.43\nsamples = 56\nvalue = [51, 5]\nclass = y[0]", fillcolor="#e58139e6"] ;
59 -> 60 ;
61 [label="entropy = 0.53\nsamples = 25\nvalue = [22, 3]\nclass = y[0]", fillcolor="#e58139dc"] ;
60 -> 61 ;
62 [label="entropy = 0.35\nsamples = 31\nvalue = [29, 2]\nclass = y[0]", fillcolor="#e58139ed"] ;
60 -> 62 ;
63 [label="entropy = 0.82\nsamples = 35\nvalue = [26, 9]\nclass = y[0]", fillcolor="#e58139a7"] ;
59 -> 63 ;
64 [label="site_wk_score <= 0.6\nentropy = 0.33\nsamples = 66\nvalue = [62, 4]\nclass = y[0]", fillcolor="#e58139ef"] ;
58 -> 64 ;
65 [label="entropy = 0.0\nsamples = 31\nvalue = [31, 0]\nclass = y[0]", fillcolor="#e58139ff"] ;
64 -> 65 ;
66 [label="entropy = 0.51\nsamples = 35\nvalue = [31, 4]\nclass = y[0]", fillcolor="#e58139de"] ;
64 -> 66 ;
67 [label="site_wk_score <= 0.63\nentropy = 0.85\nsamples = 69\nvalue = [50, 19]\nclass = y[0]", fillcolor="#e581399e"] ;
57 -> 67 ;
68 [label="entropy = 0.65\nsamples = 30\nvalue = [25, 5]\nclass = y[0]", fillcolor="#e58139cc"] ;
67 -> 68 ;
69 [label="entropy = 0.94\nsamples = 39\nvalue = [25, 14]\nclass = y[0]", fillcolor="#e5813970"] ;
67 -> 69 ;
70 [label="site_str_score <= 0.8\nentropy = 0.36\nsamples = 88\nvalue = [82, 6]\nclass = y[0]", fillcolor="#e58139ec"] ;
56 -> 70 ;
71 [label="entropy = 0.0\nsamples = 36\nvalue = [36, 0]\nclass = y[0]", fillcolor="#e58139ff"] ;
70 -> 71 ;
72 [label="site_wk_score <= 0.75\nentropy = 0.52\nsamples = 52\nvalue = [46, 6]\nclass = y[0]", fillcolor="#e58139de"] ;
70 -> 72 ;
73 [label="entropy = 0.53\nsamples = 25\nvalue = [22, 3]\nclass = y[0]", fillcolor="#e58139dc"] ;
72 -> 73 ;
74 [label="entropy = 0.5\nsamples = 27\nvalue = [24, 3]\nclass = y[0]", fillcolor="#e58139df"] ;
72 -> 74 ;
75 [label="entropy = 0.0\nsamples = 50\nvalue = [50, 0]\nclass = y[0]", fillcolor="#e58139ff"] ;
51 -> 75 ;
76 [label="site_str_score <= 0.84\nentropy = 1.0\nsamples = 218\nvalue = [111, 107]\nclass = y[0]", fillcolor="#e5813909"] ;
44 -> 76 ;
77 [label="site_wk_score <= 0.54\nentropy = 0.93\nsamples = 159\nvalue = [55, 104]\nclass = y[1]", fillcolor="#399de578"] ;
76 -> 77 ;
78 [label="site_str_score <= 0.73\nentropy = 0.89\nsamples = 59\nvalue = [41, 18]\nclass = y[0]", fillcolor="#e581398f"] ;
77 -> 78 ;
79 [label="entropy = 0.99\nsamples = 32\nvalue = [18, 14]\nclass = y[0]", fillcolor="#e5813939"] ;
78 -> 79 ;
80 [label="entropy = 0.61\nsamples = 27\nvalue = [23, 4]\nclass = y[0]", fillcolor="#e58139d3"] ;
78 -> 80 ;
81 [label="site_str_score <= 0.77\nentropy = 0.58\nsamples = 100\nvalue = [14, 86]\nclass = y[1]", fillcolor="#399de5d5"] ;
77 -> 81 ;
82 [label="dist-numeric <= 20.5\nentropy = 0.37\nsamples = 70\nvalue = [5, 65]\nclass = y[1]", fillcolor="#399de5eb"] ;
81 -> 82 ;
83 [label="entropy = 0.53\nsamples = 42\nvalue = [5, 37]\nclass = y[1]", fillcolor="#399de5dd"] ;
82 -> 83 ;
84 [label="entropy = 0.0\nsamples = 28\nvalue = [0, 28]\nclass = y[1]", fillcolor="#399de5ff"] ;
82 -> 84 ;
85 [label="entropy = 0.88\nsamples = 30\nvalue = [9, 21]\nclass = y[1]", fillcolor="#399de592"] ;
81 -> 85 ;
86 [label="site_str_score <= 0.87\nentropy = 0.29\nsamples = 59\nvalue = [56, 3]\nclass = y[0]", fillcolor="#e58139f1"] ;
76 -> 86 ;
87 [label="entropy = 0.53\nsamples = 25\nvalue = [22, 3]\nclass = y[0]", fillcolor="#e58139dc"] ;
86 -> 87 ;
88 [label="entropy = 0.0\nsamples = 34\nvalue = [34, 0]\nclass = y[0]", fillcolor="#e58139ff"] ;
86 -> 88 ;
}