digraph Tree {
node [shape=box, style="filled, rounded", color="black", fontname=helvetica] ;
edge [fontname=helvetica] ;
0 [label="A <= 0.06\ngini = 0.46\nsamples = 1135\nvalue = [1153, 639]\nclass = cooperative", fillcolor="#e5813972"] ;
1 [label="site_wk_score <= 0.57\ngini = 0.48\nsamples = 314\nvalue = [193, 297]\nclass = additive", fillcolor="#399de559"] ;
0 -> 1 [labeldistance=2.5, labelangle=45, headlabel="True"] ;
2 [label="dist-numeric <= 9.5\ngini = 0.5\nsamples = 124\nvalue = [96, 84]\nclass = cooperative", fillcolor="#e5813920"] ;
1 -> 2 ;
3 [label="ori_2 <= 0.5\ngini = 0.48\nsamples = 74\nvalue = [44, 65]\nclass = additive", fillcolor="#399de552"] ;
2 -> 3 ;
4 [label="dist-numeric <= 5.5\ngini = 0.5\nsamples = 57\nvalue = [38, 46]\nclass = additive", fillcolor="#399de52c"] ;
3 -> 4 ;
5 [label="site_wk_score <= 0.56\ngini = 0.44\nsamples = 9\nvalue = [10, 5]\nclass = cooperative", fillcolor="#e581397f"] ;
4 -> 5 ;
6 [label="dist-numeric <= 4.5\ngini = 0.41\nsamples = 8\nvalue = [10, 4]\nclass = cooperative", fillcolor="#e5813999"] ;
5 -> 6 ;
7 [label="site_str_score <= 0.76\ngini = 0.38\nsamples = 4\nvalue = [6, 2]\nclass = cooperative", fillcolor="#e58139aa"] ;
6 -> 7 ;
8 [label="gini = 0.0\nsamples = 1\nvalue = [0, 2]\nclass = additive", fillcolor="#399de5ff"] ;
7 -> 8 ;
9 [label="gini = 0.0\nsamples = 3\nvalue = [6, 0]\nclass = cooperative", fillcolor="#e58139ff"] ;
7 -> 9 ;
10 [label="site_wk_score <= 0.49\ngini = 0.44\nsamples = 4\nvalue = [4, 2]\nclass = cooperative", fillcolor="#e581397f"] ;
6 -> 10 ;
11 [label="site_str_score <= 0.8\ngini = 0.44\nsamples = 2\nvalue = [1, 2]\nclass = additive", fillcolor="#399de57f"] ;
10 -> 11 ;
12 [label="gini = 0.0\nsamples = 1\nvalue = [0, 2]\nclass = additive", fillcolor="#399de5ff"] ;
11 -> 12 ;
13 [label="gini = 0.0\nsamples = 1\nvalue = [1, 0]\nclass = cooperative", fillcolor="#e58139ff"] ;
11 -> 13 ;
14 [label="gini = 0.0\nsamples = 2\nvalue = [3, 0]\nclass = cooperative", fillcolor="#e58139ff"] ;
10 -> 14 ;
15 [label="gini = 0.0\nsamples = 1\nvalue = [0, 1]\nclass = additive", fillcolor="#399de5ff"] ;
5 -> 15 ;
16 [label="site_wk_score <= 0.29\ngini = 0.48\nsamples = 48\nvalue = [28, 41]\nclass = additive", fillcolor="#399de551"] ;
4 -> 16 ;
17 [label="gini = 0.0\nsamples = 1\nvalue = [2, 0]\nclass = cooperative", fillcolor="#e58139ff"] ;
16 -> 17 ;
18 [label="dist-numeric <= 6.5\ngini = 0.47\nsamples = 47\nvalue = [26, 41]\nclass = additive", fillcolor="#399de55d"] ;
16 -> 18 ;
19 [label="site_str_score <= 0.63\ngini = 0.38\nsamples = 12\nvalue = [4, 12]\nclass = additive", fillcolor="#399de5aa"] ;
18 -> 19 ;
20 [label="gini = 0.0\nsamples = 1\nvalue = [2, 0]\nclass = cooperative", fillcolor="#e58139ff"] ;
19 -> 20 ;
21 [label="site_str_score <= 0.74\ngini = 0.24\nsamples = 11\nvalue = [2, 12]\nclass = additive", fillcolor="#399de5d4"] ;
19 -> 21 ;
22 [label="site_wk_score <= 0.44\ngini = 0.38\nsamples = 7\nvalue = [2, 6]\nclass = additive", fillcolor="#399de5aa"] ;
21 -> 22 ;
23 [label="gini = 0.0\nsamples = 1\nvalue = [1, 0]\nclass = cooperative", fillcolor="#e58139ff"] ;
22 -> 23 ;
24 [label="gini = 0.24\nsamples = 6\nvalue = [1, 6]\nclass = additive", fillcolor="#399de5d4"] ;
22 -> 24 ;
25 [label="gini = 0.0\nsamples = 4\nvalue = [0, 6]\nclass = additive", fillcolor="#399de5ff"] ;
21 -> 25 ;
26 [label="site_str_score <= 0.78\ngini = 0.49\nsamples = 35\nvalue = [22, 29]\nclass = additive", fillcolor="#399de53e"] ;
18 -> 26 ;
27 [label="dist-numeric <= 8.5\ngini = 0.15\nsamples = 9\nvalue = [1, 11]\nclass = additive", fillcolor="#399de5e8"] ;
26 -> 27 ;
28 [label="gini = 0.0\nsamples = 6\nvalue = [0, 8]\nclass = additive", fillcolor="#399de5ff"] ;
27 -> 28 ;
29 [label="site_wk_score <= 0.45\ngini = 0.38\nsamples = 3\nvalue = [1, 3]\nclass = additive", fillcolor="#399de5aa"] ;
27 -> 29 ;
30 [label="gini = 0.0\nsamples = 1\nvalue = [0, 2]\nclass = additive", fillcolor="#399de5ff"] ;
29 -> 30 ;
31 [label="gini = 0.5\nsamples = 2\nvalue = [1, 1]\nclass = cooperative", fillcolor="#e5813900"] ;
29 -> 31 ;
32 [label="site_str_score <= 0.85\ngini = 0.5\nsamples = 26\nvalue = [21, 18]\nclass = cooperative", fillcolor="#e5813924"] ;
26 -> 32 ;
33 [label="dist-numeric <= 8.5\ngini = 0.44\nsamples = 17\nvalue = [16, 8]\nclass = cooperative", fillcolor="#e581397f"] ;
32 -> 33 ;
34 [label="gini = 0.34\nsamples = 10\nvalue = [11, 3]\nclass = cooperative", fillcolor="#e58139b9"] ;
33 -> 34 ;
35 [label="gini = 0.5\nsamples = 7\nvalue = [5, 5]\nclass = cooperative", fillcolor="#e5813900"] ;
33 -> 35 ;
36 [label="site_wk_score <= 0.44\ngini = 0.44\nsamples = 9\nvalue = [5, 10]\nclass = additive", fillcolor="#399de57f"] ;
32 -> 36 ;
37 [label="gini = 0.44\nsamples = 3\nvalue = [4, 2]\nclass = cooperative", fillcolor="#e581397f"] ;
36 -> 37 ;
38 [label="gini = 0.2\nsamples = 6\nvalue = [1, 8]\nclass = additive", fillcolor="#399de5df"] ;
36 -> 38 ;
39 [label="dist-numeric <= 7.0\ngini = 0.36\nsamples = 17\nvalue = [6, 19]\nclass = additive", fillcolor="#399de5ae"] ;
3 -> 39 ;
40 [label="site_str_score <= 0.72\ngini = 0.38\nsamples = 3\nvalue = [3, 1]\nclass = cooperative", fillcolor="#e58139aa"] ;
39 -> 40 ;
41 [label="gini = 0.0\nsamples = 2\nvalue = [3, 0]\nclass = cooperative", fillcolor="#e58139ff"] ;
40 -> 41 ;
42 [label="gini = 0.0\nsamples = 1\nvalue = [0, 1]\nclass = additive", fillcolor="#399de5ff"] ;
40 -> 42 ;
43 [label="site_str_score <= 0.82\ngini = 0.24\nsamples = 14\nvalue = [3, 18]\nclass = additive", fillcolor="#399de5d4"] ;
39 -> 43 ;
44 [label="site_wk_score <= 0.31\ngini = 0.1\nsamples = 13\nvalue = [1, 18]\nclass = additive", fillcolor="#399de5f1"] ;
43 -> 44 ;
45 [label="gini = 0.0\nsamples = 1\nvalue = [1, 0]\nclass = cooperative", fillcolor="#e58139ff"] ;
44 -> 45 ;
46 [label="gini = 0.0\nsamples = 12\nvalue = [0, 18]\nclass = additive", fillcolor="#399de5ff"] ;
44 -> 46 ;
47 [label="gini = 0.0\nsamples = 1\nvalue = [2, 0]\nclass = cooperative", fillcolor="#e58139ff"] ;
43 -> 47 ;
48 [label="dist-numeric <= 15.5\ngini = 0.39\nsamples = 50\nvalue = [52, 19]\nclass = cooperative", fillcolor="#e58139a2"] ;
2 -> 48 ;
49 [label="dist-numeric <= 10.5\ngini = 0.47\nsamples = 29\nvalue = [24, 14]\nclass = cooperative", fillcolor="#e581396a"] ;
48 -> 49 ;
50 [label="gini = 0.0\nsamples = 4\nvalue = [5, 0]\nclass = cooperative", fillcolor="#e58139ff"] ;
49 -> 50 ;
51 [label="ori_2 <= 0.5\ngini = 0.49\nsamples = 25\nvalue = [19, 14]\nclass = cooperative", fillcolor="#e5813943"] ;
49 -> 51 ;
52 [label="site_str_score <= 0.78\ngini = 0.35\nsamples = 13\nvalue = [14, 4]\nclass = cooperative", fillcolor="#e58139b6"] ;
51 -> 52 ;
53 [label="site_str_score <= 0.61\ngini = 0.48\nsamples = 7\nvalue = [6, 4]\nclass = cooperative", fillcolor="#e5813955"] ;
52 -> 53 ;
54 [label="gini = 0.0\nsamples = 2\nvalue = [5, 0]\nclass = cooperative", fillcolor="#e58139ff"] ;
53 -> 54 ;
55 [label="site_wk_score <= 0.48\ngini = 0.32\nsamples = 5\nvalue = [1, 4]\nclass = additive", fillcolor="#399de5bf"] ;
53 -> 55 ;
56 [label="gini = 0.0\nsamples = 3\nvalue = [0, 3]\nclass = additive", fillcolor="#399de5ff"] ;
55 -> 56 ;
57 [label="site_str_score <= 0.71\ngini = 0.5\nsamples = 2\nvalue = [1, 1]\nclass = cooperative", fillcolor="#e5813900"] ;
55 -> 57 ;
58 [label="gini = 0.0\nsamples = 1\nvalue = [0, 1]\nclass = additive", fillcolor="#399de5ff"] ;
57 -> 58 ;
59 [label="gini = 0.0\nsamples = 1\nvalue = [1, 0]\nclass = cooperative", fillcolor="#e58139ff"] ;
57 -> 59 ;
60 [label="gini = 0.0\nsamples = 6\nvalue = [8, 0]\nclass = cooperative", fillcolor="#e58139ff"] ;
52 -> 60 ;
61 [label="site_str_score <= 0.74\ngini = 0.44\nsamples = 12\nvalue = [5, 10]\nclass = additive", fillcolor="#399de57f"] ;
51 -> 61 ;
62 [label="gini = 0.0\nsamples = 9\nvalue = [0, 10]\nclass = additive", fillcolor="#399de5ff"] ;
61 -> 62 ;
63 [label="gini = 0.0\nsamples = 3\nvalue = [5, 0]\nclass = cooperative", fillcolor="#e58139ff"] ;
61 -> 63 ;
64 [label="ori_2 <= 0.5\ngini = 0.26\nsamples = 21\nvalue = [28, 5]\nclass = cooperative", fillcolor="#e58139d1"] ;
48 -> 64 ;
65 [label="site_str_score <= 0.86\ngini = 0.24\nsamples = 14\nvalue = [19, 3]\nclass = cooperative", fillcolor="#e58139d7"] ;
64 -> 65 ;
66 [label="site_str_score <= 0.64\ngini = 0.17\nsamples = 13\nvalue = [19, 2]\nclass = cooperative", fillcolor="#e58139e4"] ;
65 -> 66 ;
67 [label="site_wk_score <= 0.43\ngini = 0.41\nsamples = 4\nvalue = [5, 2]\nclass = cooperative", fillcolor="#e5813999"] ;
66 -> 67 ;
68 [label="gini = 0.0\nsamples = 3\nvalue = [5, 0]\nclass = cooperative", fillcolor="#e58139ff"] ;
67 -> 68 ;
69 [label="gini = 0.0\nsamples = 1\nvalue = [0, 2]\nclass = additive", fillcolor="#399de5ff"] ;
67 -> 69 ;
70 [label="gini = 0.0\nsamples = 9\nvalue = [14, 0]\nclass = cooperative", fillcolor="#e58139ff"] ;
66 -> 70 ;
71 [label="gini = 0.0\nsamples = 1\nvalue = [0, 1]\nclass = additive", fillcolor="#399de5ff"] ;
65 -> 71 ;
72 [label="dist-numeric <= 19.0\ngini = 0.3\nsamples = 7\nvalue = [9, 2]\nclass = cooperative", fillcolor="#e58139c6"] ;
64 -> 72 ;
73 [label="site_str_score <= 0.63\ngini = 0.18\nsamples = 6\nvalue = [9, 1]\nclass = cooperative", fillcolor="#e58139e3"] ;
72 -> 73 ;
74 [label="gini = 0.0\nsamples = 1\nvalue = [0, 1]\nclass = additive", fillcolor="#399de5ff"] ;
73 -> 74 ;
75 [label="gini = 0.0\nsamples = 5\nvalue = [9, 0]\nclass = cooperative", fillcolor="#e58139ff"] ;
73 -> 75 ;
76 [label="gini = 0.0\nsamples = 1\nvalue = [0, 1]\nclass = additive", fillcolor="#399de5ff"] ;
72 -> 76 ;
77 [label="site_wk_score <= 0.69\ngini = 0.43\nsamples = 190\nvalue = [97, 213]\nclass = additive", fillcolor="#399de58b"] ;
1 -> 77 ;
78 [label="dist-numeric <= 12.5\ngini = 0.34\nsamples = 97\nvalue = [36, 130]\nclass = additive", fillcolor="#399de5b8"] ;
77 -> 78 ;
79 [label="site_str_score <= 0.78\ngini = 0.24\nsamples = 81\nvalue = [20, 120]\nclass = additive", fillcolor="#399de5d4"] ;
78 -> 79 ;
80 [label="site_str_score <= 0.75\ngini = 0.02\nsamples = 49\nvalue = [1, 82]\nclass = additive", fillcolor="#399de5fc"] ;
79 -> 80 ;
81 [label="gini = 0.0\nsamples = 33\nvalue = [0, 54]\nclass = additive", fillcolor="#399de5ff"] ;
80 -> 81 ;
82 [label="site_str_score <= 0.75\ngini = 0.07\nsamples = 16\nvalue = [1, 28]\nclass = additive", fillcolor="#399de5f6"] ;
80 -> 82 ;
83 [label="gini = 0.0\nsamples = 1\nvalue = [1, 0]\nclass = cooperative", fillcolor="#e58139ff"] ;
82 -> 83 ;
84 [label="gini = 0.0\nsamples = 15\nvalue = [0, 28]\nclass = additive", fillcolor="#399de5ff"] ;
82 -> 84 ;
85 [label="site_str_score <= 0.87\ngini = 0.44\nsamples = 32\nvalue = [19, 38]\nclass = additive", fillcolor="#399de57f"] ;
79 -> 85 ;
86 [label="ori_2 <= 0.5\ngini = 0.5\nsamples = 21\nvalue = [17, 20]\nclass = additive", fillcolor="#399de526"] ;
85 -> 86 ;
87 [label="site_wk_score <= 0.63\ngini = 0.36\nsamples = 14\nvalue = [6, 20]\nclass = additive", fillcolor="#399de5b3"] ;
86 -> 87 ;
88 [label="dist-numeric <= 8.5\ngini = 0.49\nsamples = 8\nvalue = [6, 8]\nclass = additive", fillcolor="#399de540"] ;
87 -> 88 ;
89 [label="gini = 0.0\nsamples = 6\nvalue = [0, 8]\nclass = additive", fillcolor="#399de5ff"] ;
88 -> 89 ;
90 [label="gini = 0.0\nsamples = 2\nvalue = [6, 0]\nclass = cooperative", fillcolor="#e58139ff"] ;
88 -> 90 ;
91 [label="gini = 0.0\nsamples = 6\nvalue = [0, 12]\nclass = additive", fillcolor="#399de5ff"] ;
87 -> 91 ;
92 [label="gini = 0.0\nsamples = 7\nvalue = [11, 0]\nclass = cooperative", fillcolor="#e58139ff"] ;
86 -> 92 ;
93 [label="dist-numeric <= 6.5\ngini = 0.18\nsamples = 11\nvalue = [2, 18]\nclass = additive", fillcolor="#399de5e3"] ;
85 -> 93 ;
94 [label="site_wk_score <= 0.66\ngini = 0.38\nsamples = 5\nvalue = [2, 6]\nclass = additive", fillcolor="#399de5aa"] ;
93 -> 94 ;
95 [label="dist-numeric <= 5.5\ngini = 0.44\nsamples = 3\nvalue = [2, 1]\nclass = cooperative", fillcolor="#e581397f"] ;
94 -> 95 ;
96 [label="gini = 0.0\nsamples = 1\nvalue = [1, 0]\nclass = cooperative", fillcolor="#e58139ff"] ;
95 -> 96 ;
97 [label="site_str_score <= 0.89\ngini = 0.5\nsamples = 2\nvalue = [1, 1]\nclass = cooperative", fillcolor="#e5813900"] ;
95 -> 97 ;
98 [label="gini = 0.0\nsamples = 1\nvalue = [0, 1]\nclass = additive", fillcolor="#399de5ff"] ;
97 -> 98 ;
99 [label="gini = 0.0\nsamples = 1\nvalue = [1, 0]\nclass = cooperative", fillcolor="#e58139ff"] ;
97 -> 99 ;
100 [label="gini = 0.0\nsamples = 2\nvalue = [0, 5]\nclass = additive", fillcolor="#399de5ff"] ;
94 -> 100 ;
101 [label="gini = 0.0\nsamples = 6\nvalue = [0, 12]\nclass = additive", fillcolor="#399de5ff"] ;
93 -> 101 ;
102 [label="ori_2 <= 0.5\ngini = 0.47\nsamples = 16\nvalue = [16, 10]\nclass = cooperative", fillcolor="#e5813960"] ;
78 -> 102 ;
103 [label="dist-numeric <= 14.0\ngini = 0.39\nsamples = 10\nvalue = [14, 5]\nclass = cooperative", fillcolor="#e58139a4"] ;
102 -> 103 ;
104 [label="gini = 0.0\nsamples = 2\nvalue = [4, 0]\nclass = cooperative", fillcolor="#e58139ff"] ;
103 -> 104 ;
105 [label="A <= 0.03\ngini = 0.44\nsamples = 8\nvalue = [10, 5]\nclass = cooperative", fillcolor="#e581397f"] ;
103 -> 105 ;
106 [label="site_wk_score <= 0.61\ngini = 0.47\nsamples = 7\nvalue = [8, 5]\nclass = cooperative", fillcolor="#e5813960"] ;
105 -> 106 ;
107 [label="gini = 0.0\nsamples = 2\nvalue = [5, 0]\nclass = cooperative", fillcolor="#e58139ff"] ;
106 -> 107 ;
108 [label="site_wk_score <= 0.64\ngini = 0.47\nsamples = 5\nvalue = [3, 5]\nclass = additive", fillcolor="#399de566"] ;
106 -> 108 ;
109 [label="site_str_score <= 0.68\ngini = 0.5\nsamples = 4\nvalue = [3, 3]\nclass = cooperative", fillcolor="#e5813900"] ;
108 -> 109 ;
110 [label="gini = 0.0\nsamples = 1\nvalue = [1, 0]\nclass = cooperative", fillcolor="#e58139ff"] ;
109 -> 110 ;
111 [label="gini = 0.48\nsamples = 3\nvalue = [2, 3]\nclass = additive", fillcolor="#399de555"] ;
109 -> 111 ;
112 [label="gini = 0.0\nsamples = 1\nvalue = [0, 2]\nclass = additive", fillcolor="#399de5ff"] ;
108 -> 112 ;
113 [label="gini = 0.0\nsamples = 1\nvalue = [2, 0]\nclass = cooperative", fillcolor="#e58139ff"] ;
105 -> 113 ;
114 [label="site_str_score <= 0.82\ngini = 0.41\nsamples = 6\nvalue = [2, 5]\nclass = additive", fillcolor="#399de599"] ;
102 -> 114 ;
115 [label="gini = 0.0\nsamples = 4\nvalue = [0, 5]\nclass = additive", fillcolor="#399de5ff"] ;
114 -> 115 ;
116 [label="gini = 0.0\nsamples = 2\nvalue = [2, 0]\nclass = cooperative", fillcolor="#e58139ff"] ;
114 -> 116 ;
117 [label="ori_2 <= 0.5\ngini = 0.49\nsamples = 93\nvalue = [61, 83]\nclass = additive", fillcolor="#399de544"] ;
77 -> 117 ;
118 [label="dist-numeric <= 9.5\ngini = 0.5\nsamples = 83\nvalue = [59, 72]\nclass = additive", fillcolor="#399de52e"] ;
117 -> 118 ;
119 [label="site_wk_score <= 0.88\ngini = 0.38\nsamples = 59\nvalue = [23, 69]\nclass = additive", fillcolor="#399de5aa"] ;
118 -> 119 ;
120 [label="site_wk_score <= 0.74\ngini = 0.36\nsamples = 58\nvalue = [21, 69]\nclass = additive", fillcolor="#399de5b1"] ;
119 -> 120 ;
121 [label="site_wk_score <= 0.69\ngini = 0.47\nsamples = 22\nvalue = [14, 23]\nclass = additive", fillcolor="#399de564"] ;
120 -> 121 ;
122 [label="gini = 0.0\nsamples = 3\nvalue = [0, 5]\nclass = additive", fillcolor="#399de5ff"] ;
121 -> 122 ;
123 [label="site_str_score <= 0.91\ngini = 0.49\nsamples = 19\nvalue = [14, 18]\nclass = additive", fillcolor="#399de539"] ;
121 -> 123 ;
124 [label="dist-numeric <= 4.5\ngini = 0.47\nsamples = 17\nvalue = [11, 18]\nclass = additive", fillcolor="#399de563"] ;
123 -> 124 ;
125 [label="gini = 0.44\nsamples = 5\nvalue = [8, 4]\nclass = cooperative", fillcolor="#e581397f"] ;
124 -> 125 ;
126 [label="gini = 0.29\nsamples = 12\nvalue = [3, 14]\nclass = additive", fillcolor="#399de5c8"] ;
124 -> 126 ;
127 [label="gini = 0.0\nsamples = 2\nvalue = [3, 0]\nclass = cooperative", fillcolor="#e58139ff"] ;
123 -> 127 ;
128 [label="site_wk_score <= 0.85\ngini = 0.23\nsamples = 36\nvalue = [7, 46]\nclass = additive", fillcolor="#399de5d8"] ;
120 -> 128 ;
129 [label="site_str_score <= 0.86\ngini = 0.09\nsamples = 28\nvalue = [2, 39]\nclass = additive", fillcolor="#399de5f2"] ;
128 -> 129 ;
130 [label="gini = 0.0\nsamples = 16\nvalue = [0, 24]\nclass = additive", fillcolor="#399de5ff"] ;
129 -> 130 ;
131 [label="site_wk_score <= 0.81\ngini = 0.21\nsamples = 12\nvalue = [2, 15]\nclass = additive", fillcolor="#399de5dd"] ;
129 -> 131 ;
132 [label="gini = 0.0\nsamples = 7\nvalue = [0, 12]\nclass = additive", fillcolor="#399de5ff"] ;
131 -> 132 ;
133 [label="gini = 0.48\nsamples = 5\nvalue = [2, 3]\nclass = additive", fillcolor="#399de555"] ;
131 -> 133 ;
134 [label="dist-numeric <= 6.5\ngini = 0.49\nsamples = 8\nvalue = [5, 7]\nclass = additive", fillcolor="#399de549"] ;
128 -> 134 ;
135 [label="site_str_score <= 0.92\ngini = 0.41\nsamples = 5\nvalue = [2, 5]\nclass = additive", fillcolor="#399de599"] ;
134 -> 135 ;
136 [label="gini = 0.5\nsamples = 4\nvalue = [2, 2]\nclass = cooperative", fillcolor="#e5813900"] ;
135 -> 136 ;
137 [label="gini = 0.0\nsamples = 1\nvalue = [0, 3]\nclass = additive", fillcolor="#399de5ff"] ;
135 -> 137 ;
138 [label="site_wk_score <= 0.87\ngini = 0.48\nsamples = 3\nvalue = [3, 2]\nclass = cooperative", fillcolor="#e5813955"] ;
134 -> 138 ;
139 [label="gini = 0.0\nsamples = 2\nvalue = [3, 0]\nclass = cooperative", fillcolor="#e58139ff"] ;
138 -> 139 ;
140 [label="gini = 0.0\nsamples = 1\nvalue = [0, 2]\nclass = additive", fillcolor="#399de5ff"] ;
138 -> 140 ;
141 [label="gini = 0.0\nsamples = 1\nvalue = [2, 0]\nclass = cooperative", fillcolor="#e58139ff"] ;
119 -> 141 ;
142 [label="dist-numeric <= 22.0\ngini = 0.14\nsamples = 24\nvalue = [36, 3]\nclass = cooperative", fillcolor="#e58139ea"] ;
118 -> 142 ;
143 [label="gini = 0.0\nsamples = 21\nvalue = [32, 0]\nclass = cooperative", fillcolor="#e58139ff"] ;
142 -> 143 ;
144 [label="A <= 0.03\ngini = 0.49\nsamples = 3\nvalue = [4, 3]\nclass = cooperative", fillcolor="#e5813940"] ;
142 -> 144 ;
145 [label="gini = 0.0\nsamples = 1\nvalue = [2, 0]\nclass = cooperative", fillcolor="#e58139ff"] ;
144 -> 145 ;
146 [label="site_str_score <= 0.83\ngini = 0.48\nsamples = 2\nvalue = [2, 3]\nclass = additive", fillcolor="#399de555"] ;
144 -> 146 ;
147 [label="gini = 0.0\nsamples = 1\nvalue = [0, 3]\nclass = additive", fillcolor="#399de5ff"] ;
146 -> 147 ;
148 [label="gini = 0.0\nsamples = 1\nvalue = [2, 0]\nclass = cooperative", fillcolor="#e58139ff"] ;
146 -> 148 ;
149 [label="dist-numeric <= 5.5\ngini = 0.26\nsamples = 10\nvalue = [2, 11]\nclass = additive", fillcolor="#399de5d1"] ;
117 -> 149 ;
150 [label="site_wk_score <= 0.74\ngini = 0.44\nsamples = 3\nvalue = [2, 1]\nclass = cooperative", fillcolor="#e581397f"] ;
149 -> 150 ;
151 [label="gini = 0.0\nsamples = 1\nvalue = [0, 1]\nclass = additive", fillcolor="#399de5ff"] ;
150 -> 151 ;
152 [label="gini = 0.0\nsamples = 2\nvalue = [2, 0]\nclass = cooperative", fillcolor="#e58139ff"] ;
150 -> 152 ;
153 [label="gini = 0.0\nsamples = 7\nvalue = [0, 10]\nclass = additive", fillcolor="#399de5ff"] ;
149 -> 153 ;
154 [label="ori_2 <= 0.5\ngini = 0.39\nsamples = 821\nvalue = [960, 342]\nclass = cooperative", fillcolor="#e58139a4"] ;
0 -> 154 [labeldistance=2.5, labelangle=-45, headlabel="False"] ;
155 [label="dist-numeric <= 12.5\ngini = 0.25\nsamples = 612\nvalue = [834, 143]\nclass = cooperative", fillcolor="#e58139d3"] ;
154 -> 155 ;
156 [label="site_str_score <= 0.76\ngini = 0.48\nsamples = 140\nvalue = [130, 89]\nclass = cooperative", fillcolor="#e5813950"] ;
155 -> 156 ;
157 [label="A <= 0.59\ngini = 0.49\nsamples = 64\nvalue = [42, 59]\nclass = additive", fillcolor="#399de549"] ;
156 -> 157 ;
158 [label="dist-numeric <= 8.5\ngini = 0.5\nsamples = 50\nvalue = [39, 40]\nclass = additive", fillcolor="#399de506"] ;
157 -> 158 ;
159 [label="site_wk_score <= 0.49\ngini = 0.38\nsamples = 8\nvalue = [3, 9]\nclass = additive", fillcolor="#399de5aa"] ;
158 -> 159 ;
160 [label="site_wk_score <= 0.49\ngini = 0.5\nsamples = 2\nvalue = [2, 2]\nclass = cooperative", fillcolor="#e5813900"] ;
159 -> 160 ;
161 [label="gini = 0.0\nsamples = 1\nvalue = [0, 2]\nclass = additive", fillcolor="#399de5ff"] ;
160 -> 161 ;
162 [label="gini = 0.0\nsamples = 1\nvalue = [2, 0]\nclass = cooperative", fillcolor="#e58139ff"] ;
160 -> 162 ;
163 [label="site_wk_score <= 0.64\ngini = 0.22\nsamples = 6\nvalue = [1, 7]\nclass = additive", fillcolor="#399de5db"] ;
159 -> 163 ;
164 [label="gini = 0.0\nsamples = 4\nvalue = [0, 6]\nclass = additive", fillcolor="#399de5ff"] ;
163 -> 164 ;
165 [label="dist-numeric <= 7.5\ngini = 0.5\nsamples = 2\nvalue = [1, 1]\nclass = cooperative", fillcolor="#e5813900"] ;
163 -> 165 ;
166 [label="gini = 0.0\nsamples = 1\nvalue = [0, 1]\nclass = additive", fillcolor="#399de5ff"] ;
165 -> 166 ;
167 [label="gini = 0.0\nsamples = 1\nvalue = [1, 0]\nclass = cooperative", fillcolor="#e58139ff"] ;
165 -> 167 ;
168 [label="site_str_score <= 0.68\ngini = 0.5\nsamples = 42\nvalue = [36, 31]\nclass = cooperative", fillcolor="#e5813923"] ;
158 -> 168 ;
169 [label="site_str_score <= 0.53\ngini = 0.41\nsamples = 21\nvalue = [27, 11]\nclass = cooperative", fillcolor="#e5813997"] ;
168 -> 169 ;
170 [label="gini = 0.0\nsamples = 1\nvalue = [0, 2]\nclass = additive", fillcolor="#399de5ff"] ;
169 -> 170 ;
171 [label="A <= 0.15\ngini = 0.38\nsamples = 20\nvalue = [27, 9]\nclass = cooperative", fillcolor="#e58139aa"] ;
169 -> 171 ;
172 [label="site_wk_score <= 0.42\ngini = 0.48\nsamples = 3\nvalue = [2, 3]\nclass = additive", fillcolor="#399de555"] ;
171 -> 172 ;
173 [label="gini = 0.0\nsamples = 1\nvalue = [2, 0]\nclass = cooperative", fillcolor="#e58139ff"] ;
172 -> 173 ;
174 [label="gini = 0.0\nsamples = 2\nvalue = [0, 3]\nclass = additive", fillcolor="#399de5ff"] ;
172 -> 174 ;
175 [label="site_wk_score <= 0.52\ngini = 0.31\nsamples = 17\nvalue = [25, 6]\nclass = cooperative", fillcolor="#e58139c2"] ;
171 -> 175 ;
176 [label="gini = 0.0\nsamples = 6\nvalue = [14, 0]\nclass = cooperative", fillcolor="#e58139ff"] ;
175 -> 176 ;
177 [label="gini = 0.46\nsamples = 11\nvalue = [11, 6]\nclass = cooperative", fillcolor="#e5813974"] ;
175 -> 177 ;
178 [label="site_wk_score <= 0.64\ngini = 0.43\nsamples = 21\nvalue = [9, 20]\nclass = additive", fillcolor="#399de58c"] ;
168 -> 178 ;
179 [label="site_wk_score <= 0.51\ngini = 0.27\nsamples = 14\nvalue = [3, 16]\nclass = additive", fillcolor="#399de5cf"] ;
178 -> 179 ;
180 [label="site_str_score <= 0.73\ngini = 0.38\nsamples = 10\nvalue = [3, 9]\nclass = additive", fillcolor="#399de5aa"] ;
179 -> 180 ;
181 [label="gini = 0.2\nsamples = 7\nvalue = [1, 8]\nclass = additive", fillcolor="#399de5df"] ;
180 -> 181 ;
182 [label="gini = 0.44\nsamples = 3\nvalue = [2, 1]\nclass = cooperative", fillcolor="#e581397f"] ;
180 -> 182 ;
183 [label="gini = 0.0\nsamples = 4\nvalue = [0, 7]\nclass = additive", fillcolor="#399de5ff"] ;
179 -> 183 ;
184 [label="A <= 0.23\ngini = 0.48\nsamples = 7\nvalue = [6, 4]\nclass = cooperative", fillcolor="#e5813955"] ;
178 -> 184 ;
185 [label="gini = 0.0\nsamples = 2\nvalue = [3, 0]\nclass = cooperative", fillcolor="#e58139ff"] ;
184 -> 185 ;
186 [label="site_wk_score <= 0.67\ngini = 0.49\nsamples = 5\nvalue = [3, 4]\nclass = additive", fillcolor="#399de540"] ;
184 -> 186 ;
187 [label="gini = 0.38\nsamples = 3\nvalue = [3, 1]\nclass = cooperative", fillcolor="#e58139aa"] ;
186 -> 187 ;
188 [label="gini = 0.0\nsamples = 2\nvalue = [0, 3]\nclass = additive", fillcolor="#399de5ff"] ;
186 -> 188 ;
189 [label="dist-numeric <= 7.5\ngini = 0.24\nsamples = 14\nvalue = [3, 19]\nclass = additive", fillcolor="#399de5d7"] ;
157 -> 189 ;
190 [label="gini = 0.0\nsamples = 8\nvalue = [0, 12]\nclass = additive", fillcolor="#399de5ff"] ;
189 -> 190 ;
191 [label="dist-numeric <= 9.5\ngini = 0.42\nsamples = 6\nvalue = [3, 7]\nclass = additive", fillcolor="#399de592"] ;
189 -> 191 ;
192 [label="dist-numeric <= 8.5\ngini = 0.5\nsamples = 4\nvalue = [3, 3]\nclass = cooperative", fillcolor="#e5813900"] ;
191 -> 192 ;
193 [label="gini = 0.38\nsamples = 2\nvalue = [1, 3]\nclass = additive", fillcolor="#399de5aa"] ;
192 -> 193 ;
194 [label="gini = 0.0\nsamples = 2\nvalue = [2, 0]\nclass = cooperative", fillcolor="#e58139ff"] ;
192 -> 194 ;
195 [label="gini = 0.0\nsamples = 2\nvalue = [0, 4]\nclass = additive", fillcolor="#399de5ff"] ;
191 -> 195 ;
196 [label="site_wk_score <= 0.71\ngini = 0.38\nsamples = 76\nvalue = [88, 30]\nclass = cooperative", fillcolor="#e58139a8"] ;
156 -> 196 ;
197 [label="site_wk_score <= 0.67\ngini = 0.42\nsamples = 57\nvalue = [62, 27]\nclass = cooperative", fillcolor="#e5813990"] ;
196 -> 197 ;
198 [label="site_str_score <= 0.91\ngini = 0.39\nsamples = 54\nvalue = [61, 22]\nclass = cooperative", fillcolor="#e58139a3"] ;
197 -> 198 ;
199 [label="dist-numeric <= 6.5\ngini = 0.32\nsamples = 51\nvalue = [61, 15]\nclass = cooperative", fillcolor="#e58139c0"] ;
198 -> 199 ;
200 [label="site_wk_score <= 0.43\ngini = 0.5\nsamples = 6\nvalue = [4, 4]\nclass = cooperative", fillcolor="#e5813900"] ;
199 -> 200 ;
201 [label="gini = 0.0\nsamples = 1\nvalue = [0, 2]\nclass = additive", fillcolor="#399de5ff"] ;
200 -> 201 ;
202 [label="site_wk_score <= 0.62\ngini = 0.44\nsamples = 5\nvalue = [4, 2]\nclass = cooperative", fillcolor="#e581397f"] ;
200 -> 202 ;
203 [label="gini = 0.0\nsamples = 4\nvalue = [4, 0]\nclass = cooperative", fillcolor="#e58139ff"] ;
202 -> 203 ;
204 [label="gini = 0.0\nsamples = 1\nvalue = [0, 2]\nclass = additive", fillcolor="#399de5ff"] ;
202 -> 204 ;
205 [label="site_wk_score <= 0.6\ngini = 0.27\nsamples = 45\nvalue = [57, 11]\nclass = cooperative", fillcolor="#e58139ce"] ;
199 -> 205 ;
206 [label="site_wk_score <= 0.59\ngini = 0.36\nsamples = 26\nvalue = [30, 9]\nclass = cooperative", fillcolor="#e58139b3"] ;
205 -> 206 ;
207 [label="gini = 0.28\nsamples = 24\nvalue = [30, 6]\nclass = cooperative", fillcolor="#e58139cc"] ;
206 -> 207 ;
208 [label="gini = 0.0\nsamples = 2\nvalue = [0, 3]\nclass = additive", fillcolor="#399de5ff"] ;
206 -> 208 ;
209 [label="A <= 0.46\ngini = 0.13\nsamples = 19\nvalue = [27, 2]\nclass = cooperative", fillcolor="#e58139ec"] ;
205 -> 209 ;
210 [label="gini = 0.0\nsamples = 10\nvalue = [15, 0]\nclass = cooperative", fillcolor="#e58139ff"] ;
209 -> 210 ;
211 [label="gini = 0.24\nsamples = 9\nvalue = [12, 2]\nclass = cooperative", fillcolor="#e58139d4"] ;
209 -> 211 ;
212 [label="gini = 0.0\nsamples = 3\nvalue = [0, 7]\nclass = additive", fillcolor="#399de5ff"] ;
198 -> 212 ;
213 [label="site_str_score <= 0.87\ngini = 0.28\nsamples = 3\nvalue = [1, 5]\nclass = additive", fillcolor="#399de5cc"] ;
197 -> 213 ;
214 [label="gini = 0.0\nsamples = 2\nvalue = [0, 5]\nclass = additive", fillcolor="#399de5ff"] ;
213 -> 214 ;
215 [label="gini = 0.0\nsamples = 1\nvalue = [1, 0]\nclass = cooperative", fillcolor="#e58139ff"] ;
213 -> 215 ;
216 [label="A <= 0.17\ngini = 0.19\nsamples = 19\nvalue = [26, 3]\nclass = cooperative", fillcolor="#e58139e2"] ;
196 -> 216 ;
217 [label="site_str_score <= 0.82\ngini = 0.5\nsamples = 3\nvalue = [2, 2]\nclass = cooperative", fillcolor="#e5813900"] ;
216 -> 217 ;
218 [label="gini = 0.0\nsamples = 1\nvalue = [0, 2]\nclass = additive", fillcolor="#399de5ff"] ;
217 -> 218 ;
219 [label="gini = 0.0\nsamples = 2\nvalue = [2, 0]\nclass = cooperative", fillcolor="#e58139ff"] ;
217 -> 219 ;
220 [label="site_str_score <= 0.91\ngini = 0.08\nsamples = 16\nvalue = [24, 1]\nclass = cooperative", fillcolor="#e58139f4"] ;
216 -> 220 ;
221 [label="gini = 0.0\nsamples = 15\nvalue = [24, 0]\nclass = cooperative", fillcolor="#e58139ff"] ;
220 -> 221 ;
222 [label="gini = 0.0\nsamples = 1\nvalue = [0, 1]\nclass = additive", fillcolor="#399de5ff"] ;
220 -> 222 ;
223 [label="site_str_score <= 0.69\ngini = 0.13\nsamples = 472\nvalue = [704, 54]\nclass = cooperative", fillcolor="#e58139eb"] ;
155 -> 223 ;
224 [label="site_wk_score <= 0.3\ngini = 0.03\nsamples = 150\nvalue = [234, 4]\nclass = cooperative", fillcolor="#e58139fb"] ;
223 -> 224 ;
225 [label="site_str_score <= 0.61\ngini = 0.38\nsamples = 3\nvalue = [3, 1]\nclass = cooperative", fillcolor="#e58139aa"] ;
224 -> 225 ;
226 [label="dist-numeric <= 21.5\ngini = 0.5\nsamples = 2\nvalue = [1, 1]\nclass = cooperative", fillcolor="#e5813900"] ;
225 -> 226 ;
227 [label="gini = 0.0\nsamples = 1\nvalue = [0, 1]\nclass = additive", fillcolor="#399de5ff"] ;
226 -> 227 ;
228 [label="gini = 0.0\nsamples = 1\nvalue = [1, 0]\nclass = cooperative", fillcolor="#e58139ff"] ;
226 -> 228 ;
229 [label="gini = 0.0\nsamples = 1\nvalue = [2, 0]\nclass = cooperative", fillcolor="#e58139ff"] ;
225 -> 229 ;
230 [label="A <= 0.48\ngini = 0.03\nsamples = 147\nvalue = [231, 3]\nclass = cooperative", fillcolor="#e58139fc"] ;
224 -> 230 ;
231 [label="site_str_score <= 0.64\ngini = 0.02\nsamples = 139\nvalue = [224, 2]\nclass = cooperative", fillcolor="#e58139fd"] ;
230 -> 231 ;
232 [label="gini = 0.0\nsamples = 72\nvalue = [117, 0]\nclass = cooperative", fillcolor="#e58139ff"] ;
231 -> 232 ;
233 [label="dist-numeric <= 22.5\ngini = 0.04\nsamples = 67\nvalue = [107, 2]\nclass = cooperative", fillcolor="#e58139fa"] ;
231 -> 233 ;
234 [label="gini = 0.0\nsamples = 59\nvalue = [98, 0]\nclass = cooperative", fillcolor="#e58139ff"] ;
233 -> 234 ;
235 [label="A <= 0.13\ngini = 0.3\nsamples = 8\nvalue = [9, 2]\nclass = cooperative", fillcolor="#e58139c6"] ;
233 -> 235 ;
236 [label="gini = 0.0\nsamples = 1\nvalue = [0, 2]\nclass = additive", fillcolor="#399de5ff"] ;
235 -> 236 ;
237 [label="gini = 0.0\nsamples = 7\nvalue = [9, 0]\nclass = cooperative", fillcolor="#e58139ff"] ;
235 -> 237 ;
238 [label="site_str_score <= 0.64\ngini = 0.22\nsamples = 8\nvalue = [7, 1]\nclass = cooperative", fillcolor="#e58139db"] ;
230 -> 238 ;
239 [label="site_str_score <= 0.63\ngini = 0.38\nsamples = 4\nvalue = [3, 1]\nclass = cooperative", fillcolor="#e58139aa"] ;
238 -> 239 ;
240 [label="gini = 0.0\nsamples = 3\nvalue = [3, 0]\nclass = cooperative", fillcolor="#e58139ff"] ;
239 -> 240 ;
241 [label="gini = 0.0\nsamples = 1\nvalue = [0, 1]\nclass = additive", fillcolor="#399de5ff"] ;
239 -> 241 ;
242 [label="gini = 0.0\nsamples = 4\nvalue = [4, 0]\nclass = cooperative", fillcolor="#e58139ff"] ;
238 -> 242 ;
243 [label="site_str_score <= 0.69\ngini = 0.17\nsamples = 322\nvalue = [470, 50]\nclass = cooperative", fillcolor="#e58139e4"] ;
223 -> 243 ;
244 [label="gini = 0.0\nsamples = 1\nvalue = [0, 3]\nclass = additive", fillcolor="#399de5ff"] ;
243 -> 244 ;
245 [label="site_str_score <= 0.83\ngini = 0.17\nsamples = 321\nvalue = [470, 47]\nclass = cooperative", fillcolor="#e58139e6"] ;
243 -> 245 ;
246 [label="A <= 0.32\ngini = 0.2\nsamples = 216\nvalue = [305, 40]\nclass = cooperative", fillcolor="#e58139de"] ;
245 -> 246 ;
247 [label="site_str_score <= 0.71\ngini = 0.17\nsamples = 157\nvalue = [229, 23]\nclass = cooperative", fillcolor="#e58139e5"] ;
246 -> 247 ;
248 [label="site_wk_score <= 0.55\ngini = 0.32\nsamples = 13\nvalue = [16, 4]\nclass = cooperative", fillcolor="#e58139bf"] ;
247 -> 248 ;
249 [label="gini = 0.0\nsamples = 1\nvalue = [0, 2]\nclass = additive", fillcolor="#399de5ff"] ;
248 -> 249 ;
250 [label="dist-numeric <= 23.5\ngini = 0.2\nsamples = 12\nvalue = [16, 2]\nclass = cooperative", fillcolor="#e58139df"] ;
248 -> 250 ;
251 [label="gini = 0.0\nsamples = 11\nvalue = [16, 0]\nclass = cooperative", fillcolor="#e58139ff"] ;
250 -> 251 ;
252 [label="gini = 0.0\nsamples = 1\nvalue = [0, 2]\nclass = additive", fillcolor="#399de5ff"] ;
250 -> 252 ;
253 [label="A <= 0.14\ngini = 0.15\nsamples = 144\nvalue = [213, 19]\nclass = cooperative", fillcolor="#e58139e8"] ;
247 -> 253 ;
254 [label="dist-numeric <= 13.5\ngini = 0.28\nsamples = 38\nvalue = [53, 11]\nclass = cooperative", fillcolor="#e58139ca"] ;
253 -> 254 ;
255 [label="gini = 0.0\nsamples = 1\nvalue = [0, 1]\nclass = additive", fillcolor="#399de5ff"] ;
254 -> 255 ;
256 [label="gini = 0.27\nsamples = 37\nvalue = [53, 10]\nclass = cooperative", fillcolor="#e58139cf"] ;
254 -> 256 ;
257 [label="site_str_score <= 0.77\ngini = 0.09\nsamples = 106\nvalue = [160, 8]\nclass = cooperative", fillcolor="#e58139f2"] ;
253 -> 257 ;
258 [label="gini = 0.15\nsamples = 55\nvalue = [81, 7]\nclass = cooperative", fillcolor="#e58139e9"] ;
257 -> 258 ;
259 [label="gini = 0.02\nsamples = 51\nvalue = [79, 1]\nclass = cooperative", fillcolor="#e58139fc"] ;
257 -> 259 ;
260 [label="site_wk_score <= 0.55\ngini = 0.3\nsamples = 59\nvalue = [76, 17]\nclass = cooperative", fillcolor="#e58139c6"] ;
246 -> 260 ;
261 [label="dist-numeric <= 13.5\ngini = 0.48\nsamples = 15\nvalue = [15, 10]\nclass = cooperative", fillcolor="#e5813955"] ;
260 -> 261 ;
262 [label="gini = 0.0\nsamples = 4\nvalue = [0, 6]\nclass = additive", fillcolor="#399de5ff"] ;
261 -> 262 ;
263 [label="A <= 0.5\ngini = 0.33\nsamples = 11\nvalue = [15, 4]\nclass = cooperative", fillcolor="#e58139bb"] ;
261 -> 263 ;
264 [label="gini = 0.48\nsamples = 7\nvalue = [6, 4]\nclass = cooperative", fillcolor="#e5813955"] ;
263 -> 264 ;
265 [label="gini = 0.0\nsamples = 4\nvalue = [9, 0]\nclass = cooperative", fillcolor="#e58139ff"] ;
263 -> 265 ;
266 [label="site_str_score <= 0.82\ngini = 0.18\nsamples = 44\nvalue = [61, 7]\nclass = cooperative", fillcolor="#e58139e2"] ;
260 -> 266 ;
267 [label="dist-numeric <= 23.5\ngini = 0.12\nsamples = 40\nvalue = [57, 4]\nclass = cooperative", fillcolor="#e58139ed"] ;
266 -> 267 ;
268 [label="gini = 0.09\nsamples = 39\nvalue = [57, 3]\nclass = cooperative", fillcolor="#e58139f2"] ;
267 -> 268 ;
269 [label="gini = 0.0\nsamples = 1\nvalue = [0, 1]\nclass = additive", fillcolor="#399de5ff"] ;
267 -> 269 ;
270 [label="site_wk_score <= 0.67\ngini = 0.49\nsamples = 4\nvalue = [4, 3]\nclass = cooperative", fillcolor="#e5813940"] ;
266 -> 270 ;
271 [label="gini = 0.0\nsamples = 2\nvalue = [0, 3]\nclass = additive", fillcolor="#399de5ff"] ;
270 -> 271 ;
272 [label="gini = 0.0\nsamples = 2\nvalue = [4, 0]\nclass = cooperative", fillcolor="#e58139ff"] ;
270 -> 272 ;
273 [label="dist-numeric <= 21.5\ngini = 0.08\nsamples = 105\nvalue = [165, 7]\nclass = cooperative", fillcolor="#e58139f4"] ;
245 -> 273 ;
274 [label="dist-numeric <= 19.5\ngini = 0.11\nsamples = 77\nvalue = [117, 7]\nclass = cooperative", fillcolor="#e58139f0"] ;
273 -> 274 ;
275 [label="A <= 0.17\ngini = 0.05\nsamples = 48\nvalue = [72, 2]\nclass = cooperative", fillcolor="#e58139f8"] ;
274 -> 275 ;
276 [label="A <= 0.15\ngini = 0.12\nsamples = 17\nvalue = [28, 2]\nclass = cooperative", fillcolor="#e58139ed"] ;
275 -> 276 ;
277 [label="gini = 0.07\nsamples = 15\nvalue = [27, 1]\nclass = cooperative", fillcolor="#e58139f6"] ;
276 -> 277 ;
278 [label="gini = 0.5\nsamples = 2\nvalue = [1, 1]\nclass = cooperative", fillcolor="#e5813900"] ;
276 -> 278 ;
279 [label="gini = 0.0\nsamples = 31\nvalue = [44, 0]\nclass = cooperative", fillcolor="#e58139ff"] ;
275 -> 279 ;
280 [label="A <= 0.19\ngini = 0.18\nsamples = 29\nvalue = [45, 5]\nclass = cooperative", fillcolor="#e58139e3"] ;
274 -> 280 ;
281 [label="gini = 0.0\nsamples = 14\nvalue = [25, 0]\nclass = cooperative", fillcolor="#e58139ff"] ;
280 -> 281 ;
282 [label="site_wk_score <= 0.6\ngini = 0.32\nsamples = 15\nvalue = [20, 5]\nclass = cooperative", fillcolor="#e58139bf"] ;
280 -> 282 ;
283 [label="gini = 0.0\nsamples = 2\nvalue = [0, 4]\nclass = additive", fillcolor="#399de5ff"] ;
282 -> 283 ;
284 [label="gini = 0.09\nsamples = 13\nvalue = [20, 1]\nclass = cooperative", fillcolor="#e58139f2"] ;
282 -> 284 ;
285 [label="gini = 0.0\nsamples = 28\nvalue = [48, 0]\nclass = cooperative", fillcolor="#e58139ff"] ;
273 -> 285 ;
286 [label="site_str_score <= 0.78\ngini = 0.47\nsamples = 209\nvalue = [126, 199]\nclass = additive", fillcolor="#399de55e"] ;
154 -> 286 ;
287 [label="site_wk_score <= 0.54\ngini = 0.23\nsamples = 121\nvalue = [24, 160]\nclass = additive", fillcolor="#399de5d9"] ;
286 -> 287 ;
288 [label="dist-numeric <= 12.5\ngini = 0.4\nsamples = 50\nvalue = [20, 51]\nclass = additive", fillcolor="#399de59b"] ;
287 -> 288 ;
289 [label="dist-numeric <= 11.5\ngini = 0.05\nsamples = 27\nvalue = [1, 36]\nclass = additive", fillcolor="#399de5f8"] ;
288 -> 289 ;
290 [label="gini = 0.0\nsamples = 22\nvalue = [0, 31]\nclass = additive", fillcolor="#399de5ff"] ;
289 -> 290 ;
291 [label="site_wk_score <= 0.41\ngini = 0.28\nsamples = 5\nvalue = [1, 5]\nclass = additive", fillcolor="#399de5cc"] ;
289 -> 291 ;
292 [label="gini = 0.0\nsamples = 1\nvalue = [1, 0]\nclass = cooperative", fillcolor="#e58139ff"] ;
291 -> 292 ;
293 [label="gini = 0.0\nsamples = 4\nvalue = [0, 5]\nclass = additive", fillcolor="#399de5ff"] ;
291 -> 293 ;
294 [label="site_wk_score <= 0.47\ngini = 0.49\nsamples = 23\nvalue = [19, 15]\nclass = cooperative", fillcolor="#e5813936"] ;
288 -> 294 ;
295 [label="site_str_score <= 0.64\ngini = 0.44\nsamples = 9\nvalue = [4, 8]\nclass = additive", fillcolor="#399de57f"] ;
294 -> 295 ;
296 [label="gini = 0.0\nsamples = 3\nvalue = [0, 6]\nclass = additive", fillcolor="#399de5ff"] ;
295 -> 296 ;
297 [label="A <= 0.21\ngini = 0.44\nsamples = 6\nvalue = [4, 2]\nclass = cooperative", fillcolor="#e581397f"] ;
295 -> 297 ;
298 [label="gini = 0.0\nsamples = 1\nvalue = [0, 1]\nclass = additive", fillcolor="#399de5ff"] ;
297 -> 298 ;
299 [label="site_str_score <= 0.76\ngini = 0.32\nsamples = 5\nvalue = [4, 1]\nclass = cooperative", fillcolor="#e58139bf"] ;
297 -> 299 ;
300 [label="gini = 0.0\nsamples = 3\nvalue = [3, 0]\nclass = cooperative", fillcolor="#e58139ff"] ;
299 -> 300 ;
301 [label="site_str_score <= 0.78\ngini = 0.5\nsamples = 2\nvalue = [1, 1]\nclass = cooperative", fillcolor="#e5813900"] ;
299 -> 301 ;
302 [label="gini = 0.0\nsamples = 1\nvalue = [0, 1]\nclass = additive", fillcolor="#399de5ff"] ;
301 -> 302 ;
303 [label="gini = 0.0\nsamples = 1\nvalue = [1, 0]\nclass = cooperative", fillcolor="#e58139ff"] ;
301 -> 303 ;
304 [label="dist-numeric <= 19.5\ngini = 0.43\nsamples = 14\nvalue = [15, 7]\nclass = cooperative", fillcolor="#e5813988"] ;
294 -> 304 ;
305 [label="dist-numeric <= 15.5\ngini = 0.5\nsamples = 9\nvalue = [7, 7]\nclass = cooperative", fillcolor="#e5813900"] ;
304 -> 305 ;
306 [label="site_str_score <= 0.64\ngini = 0.42\nsamples = 6\nvalue = [7, 3]\nclass = cooperative", fillcolor="#e5813992"] ;
305 -> 306 ;
307 [label="site_str_score <= 0.53\ngini = 0.24\nsamples = 3\nvalue = [6, 1]\nclass = cooperative", fillcolor="#e58139d4"] ;
306 -> 307 ;
308 [label="gini = 0.0\nsamples = 1\nvalue = [0, 1]\nclass = additive", fillcolor="#399de5ff"] ;
307 -> 308 ;
309 [label="gini = 0.0\nsamples = 2\nvalue = [6, 0]\nclass = cooperative", fillcolor="#e58139ff"] ;
307 -> 309 ;
310 [label="dist-numeric <= 14.5\ngini = 0.44\nsamples = 3\nvalue = [1, 2]\nclass = additive", fillcolor="#399de57f"] ;
306 -> 310 ;
311 [label="gini = 0.0\nsamples = 2\nvalue = [0, 2]\nclass = additive", fillcolor="#399de5ff"] ;
310 -> 311 ;
312 [label="gini = 0.0\nsamples = 1\nvalue = [1, 0]\nclass = cooperative", fillcolor="#e58139ff"] ;
310 -> 312 ;
313 [label="gini = 0.0\nsamples = 3\nvalue = [0, 4]\nclass = additive", fillcolor="#399de5ff"] ;
305 -> 313 ;
314 [label="gini = 0.0\nsamples = 5\nvalue = [8, 0]\nclass = cooperative", fillcolor="#e58139ff"] ;
304 -> 314 ;
315 [label="site_str_score <= 0.75\ngini = 0.07\nsamples = 71\nvalue = [4, 109]\nclass = additive", fillcolor="#399de5f6"] ;
287 -> 315 ;
316 [label="site_wk_score <= 0.62\ngini = 0.02\nsamples = 63\nvalue = [1, 97]\nclass = additive", fillcolor="#399de5fc"] ;
315 -> 316 ;
317 [label="gini = 0.0\nsamples = 41\nvalue = [0, 63]\nclass = additive", fillcolor="#399de5ff"] ;
316 -> 317 ;
318 [label="dist-numeric <= 17.0\ngini = 0.06\nsamples = 22\nvalue = [1, 34]\nclass = additive", fillcolor="#399de5f8"] ;
316 -> 318 ;
319 [label="gini = 0.0\nsamples = 15\nvalue = [0, 24]\nclass = additive", fillcolor="#399de5ff"] ;
318 -> 319 ;
320 [label="dist-numeric <= 21.0\ngini = 0.17\nsamples = 7\nvalue = [1, 10]\nclass = additive", fillcolor="#399de5e6"] ;
318 -> 320 ;
321 [label="gini = 0.0\nsamples = 1\nvalue = [1, 0]\nclass = cooperative", fillcolor="#e58139ff"] ;
320 -> 321 ;
322 [label="gini = 0.0\nsamples = 6\nvalue = [0, 10]\nclass = additive", fillcolor="#399de5ff"] ;
320 -> 322 ;
323 [label="site_str_score <= 0.75\ngini = 0.32\nsamples = 8\nvalue = [3, 12]\nclass = additive", fillcolor="#399de5bf"] ;
315 -> 323 ;
324 [label="gini = 0.0\nsamples = 1\nvalue = [3, 0]\nclass = cooperative", fillcolor="#e58139ff"] ;
323 -> 324 ;
325 [label="gini = 0.0\nsamples = 7\nvalue = [0, 12]\nclass = additive", fillcolor="#399de5ff"] ;
323 -> 325 ;
326 [label="site_str_score <= 0.84\ngini = 0.4\nsamples = 88\nvalue = [102, 39]\nclass = cooperative", fillcolor="#e581399e"] ;
286 -> 326 ;
327 [label="site_wk_score <= 0.43\ngini = 0.5\nsamples = 48\nvalue = [34, 33]\nclass = cooperative", fillcolor="#e5813908"] ;
326 -> 327 ;
328 [label="gini = 0.0\nsamples = 8\nvalue = [11, 0]\nclass = cooperative", fillcolor="#e58139ff"] ;
327 -> 328 ;
329 [label="site_str_score <= 0.82\ngini = 0.48\nsamples = 40\nvalue = [23, 33]\nclass = additive", fillcolor="#399de54d"] ;
327 -> 329 ;
330 [label="A <= 0.1\ngini = 0.5\nsamples = 25\nvalue = [18, 15]\nclass = cooperative", fillcolor="#e581392a"] ;
329 -> 330 ;
331 [label="gini = 0.0\nsamples = 5\nvalue = [0, 7]\nclass = additive", fillcolor="#399de5ff"] ;
330 -> 331 ;
332 [label="site_str_score <= 0.81\ngini = 0.43\nsamples = 20\nvalue = [18, 8]\nclass = cooperative", fillcolor="#e581398e"] ;
330 -> 332 ;
333 [label="site_wk_score <= 0.75\ngini = 0.5\nsamples = 15\nvalue = [7, 8]\nclass = additive", fillcolor="#399de520"] ;
332 -> 333 ;
334 [label="site_str_score <= 0.81\ngini = 0.49\nsamples = 12\nvalue = [7, 5]\nclass = cooperative", fillcolor="#e5813949"] ;
333 -> 334 ;
335 [label="gini = 0.42\nsamples = 10\nvalue = [7, 3]\nclass = cooperative", fillcolor="#e5813992"] ;
334 -> 335 ;
336 [label="gini = 0.0\nsamples = 2\nvalue = [0, 2]\nclass = additive", fillcolor="#399de5ff"] ;
334 -> 336 ;
337 [label="gini = 0.0\nsamples = 3\nvalue = [0, 3]\nclass = additive", fillcolor="#399de5ff"] ;
333 -> 337 ;
338 [label="gini = 0.0\nsamples = 5\nvalue = [11, 0]\nclass = cooperative", fillcolor="#e58139ff"] ;
332 -> 338 ;
339 [label="site_wk_score <= 0.78\ngini = 0.34\nsamples = 15\nvalue = [5, 18]\nclass = additive", fillcolor="#399de5b8"] ;
329 -> 339 ;
340 [label="A <= 0.15\ngini = 0.43\nsamples = 11\nvalue = [5, 11]\nclass = additive", fillcolor="#399de58b"] ;
339 -> 340 ;
341 [label="gini = 0.0\nsamples = 2\nvalue = [3, 0]\nclass = cooperative", fillcolor="#e58139ff"] ;
340 -> 341 ;
342 [label="dist-numeric <= 12.5\ngini = 0.26\nsamples = 9\nvalue = [2, 11]\nclass = additive", fillcolor="#399de5d1"] ;
340 -> 342 ;
343 [label="gini = 0.0\nsamples = 5\nvalue = [0, 8]\nclass = additive", fillcolor="#399de5ff"] ;
342 -> 343 ;
344 [label="A <= 0.28\ngini = 0.48\nsamples = 4\nvalue = [2, 3]\nclass = additive", fillcolor="#399de555"] ;
342 -> 344 ;
345 [label="gini = 0.0\nsamples = 1\nvalue = [0, 2]\nclass = additive", fillcolor="#399de5ff"] ;
344 -> 345 ;
346 [label="gini = 0.44\nsamples = 3\nvalue = [2, 1]\nclass = cooperative", fillcolor="#e581397f"] ;
344 -> 346 ;
347 [label="gini = 0.0\nsamples = 4\nvalue = [0, 7]\nclass = additive", fillcolor="#399de5ff"] ;
339 -> 347 ;
348 [label="dist-numeric <= 11.5\ngini = 0.15\nsamples = 40\nvalue = [68, 6]\nclass = cooperative", fillcolor="#e58139e9"] ;
326 -> 348 ;
349 [label="dist-numeric <= 10.5\ngini = 0.5\nsamples = 4\nvalue = [2, 2]\nclass = cooperative", fillcolor="#e5813900"] ;
348 -> 349 ;
350 [label="gini = 0.0\nsamples = 2\nvalue = [2, 0]\nclass = cooperative", fillcolor="#e58139ff"] ;
349 -> 350 ;
351 [label="gini = 0.0\nsamples = 2\nvalue = [0, 2]\nclass = additive", fillcolor="#399de5ff"] ;
349 -> 351 ;
352 [label="site_str_score <= 0.87\ngini = 0.11\nsamples = 36\nvalue = [66, 4]\nclass = cooperative", fillcolor="#e58139f0"] ;
348 -> 352 ;
353 [label="dist-numeric <= 21.5\ngini = 0.23\nsamples = 15\nvalue = [26, 4]\nclass = cooperative", fillcolor="#e58139d8"] ;
352 -> 353 ;
354 [label="A <= 0.18\ngini = 0.19\nsamples = 14\nvalue = [26, 3]\nclass = cooperative", fillcolor="#e58139e2"] ;
353 -> 354 ;
355 [label="dist-numeric <= 18.5\ngini = 0.29\nsamples = 7\nvalue = [14, 3]\nclass = cooperative", fillcolor="#e58139c8"] ;
354 -> 355 ;
356 [label="dist-numeric <= 16.0\ngini = 0.42\nsamples = 4\nvalue = [7, 3]\nclass = cooperative", fillcolor="#e5813992"] ;
355 -> 356 ;
357 [label="gini = 0.0\nsamples = 2\nvalue = [4, 0]\nclass = cooperative", fillcolor="#e58139ff"] ;
356 -> 357 ;
358 [label="gini = 0.5\nsamples = 2\nvalue = [3, 3]\nclass = cooperative", fillcolor="#e5813900"] ;
356 -> 358 ;
359 [label="gini = 0.0\nsamples = 3\nvalue = [7, 0]\nclass = cooperative", fillcolor="#e58139ff"] ;
355 -> 359 ;
360 [label="gini = 0.0\nsamples = 7\nvalue = [12, 0]\nclass = cooperative", fillcolor="#e58139ff"] ;
354 -> 360 ;
361 [label="gini = 0.0\nsamples = 1\nvalue = [0, 1]\nclass = additive", fillcolor="#399de5ff"] ;
353 -> 361 ;
362 [label="gini = 0.0\nsamples = 21\nvalue = [40, 0]\nclass = cooperative", fillcolor="#e58139ff"] ;
352 -> 362 ;
}