digraph Tree {
node [shape=box, style="filled, rounded", color="black", fontname=helvetica] ;
edge [fontname=helvetica] ;
0 [label="ori_2 <= 0.5\ngini = 0.46\nsamples = 1092\nvalue = [1107, 621]\nclass = additive", fillcolor="#e5813970"] ;
1 [label="ori_3 <= 0.5\ngini = 0.41\nsamples = 834\nvalue = [947, 381]\nclass = additive", fillcolor="#e5813998"] ;
0 -> 1 [labeldistance=2.5, labelangle=45, headlabel="True"] ;
2 [label="dist-numeric <= 12.5\ngini = 0.46\nsamples = 589\nvalue = [614, 332]\nclass = additive", fillcolor="#e5813975"] ;
1 -> 2 ;
3 [label="dist-numeric <= 7.5\ngini = 0.48\nsamples = 284\nvalue = [179, 274]\nclass = cooperative", fillcolor="#399de558"] ;
2 -> 3 ;
4 [label="dist-numeric <= 6.5\ngini = 0.4\nsamples = 153\nvalue = [65, 171]\nclass = cooperative", fillcolor="#399de59e"] ;
3 -> 4 ;
5 [label="dist-numeric <= 4.5\ngini = 0.43\nsamples = 99\nvalue = [48, 108]\nclass = cooperative", fillcolor="#399de58e"] ;
4 -> 5 ;
6 [label="gini = 0.45\nsamples = 26\nvalue = [13, 25]\nclass = cooperative", fillcolor="#399de57a"] ;
5 -> 6 ;
7 [label="dist-numeric <= 5.5\ngini = 0.42\nsamples = 73\nvalue = [35, 83]\nclass = cooperative", fillcolor="#399de593"] ;
5 -> 7 ;
8 [label="gini = 0.2\nsamples = 6\nvalue = [1, 8]\nclass = cooperative", fillcolor="#399de5df"] ;
7 -> 8 ;
9 [label="gini = 0.43\nsamples = 67\nvalue = [34, 75]\nclass = cooperative", fillcolor="#399de58b"] ;
7 -> 9 ;
10 [label="gini = 0.33\nsamples = 54\nvalue = [17, 63]\nclass = cooperative", fillcolor="#399de5ba"] ;
4 -> 10 ;
11 [label="dist-numeric <= 9.5\ngini = 0.5\nsamples = 131\nvalue = [114, 103]\nclass = additive", fillcolor="#e5813919"] ;
3 -> 11 ;
12 [label="dist-numeric <= 8.5\ngini = 0.5\nsamples = 56\nvalue = [43, 51]\nclass = cooperative", fillcolor="#399de528"] ;
11 -> 12 ;
13 [label="gini = 0.49\nsamples = 24\nvalue = [17, 22]\nclass = cooperative", fillcolor="#399de53a"] ;
12 -> 13 ;
14 [label="gini = 0.5\nsamples = 32\nvalue = [26, 29]\nclass = cooperative", fillcolor="#399de51a"] ;
12 -> 14 ;
15 [label="dist-numeric <= 11.5\ngini = 0.49\nsamples = 75\nvalue = [71, 52]\nclass = additive", fillcolor="#e5813944"] ;
11 -> 15 ;
16 [label="dist-numeric <= 10.5\ngini = 0.47\nsamples = 46\nvalue = [48, 29]\nclass = additive", fillcolor="#e5813965"] ;
15 -> 16 ;
17 [label="gini = 0.49\nsamples = 27\nvalue = [26, 21]\nclass = additive", fillcolor="#e5813931"] ;
16 -> 17 ;
18 [label="gini = 0.39\nsamples = 19\nvalue = [22, 8]\nclass = additive", fillcolor="#e58139a2"] ;
16 -> 18 ;
19 [label="gini = 0.5\nsamples = 29\nvalue = [23, 23]\nclass = additive", fillcolor="#e5813900"] ;
15 -> 19 ;
20 [label="dist-numeric <= 18.5\ngini = 0.21\nsamples = 305\nvalue = [435, 58]\nclass = additive", fillcolor="#e58139dd"] ;
2 -> 20 ;
21 [label="dist-numeric <= 13.5\ngini = 0.28\nsamples = 124\nvalue = [164, 34]\nclass = additive", fillcolor="#e58139ca"] ;
20 -> 21 ;
22 [label="gini = 0.38\nsamples = 18\nvalue = [27, 9]\nclass = additive", fillcolor="#e58139aa"] ;
21 -> 22 ;
23 [label="dist-numeric <= 15.5\ngini = 0.26\nsamples = 106\nvalue = [137, 25]\nclass = additive", fillcolor="#e58139d0"] ;
21 -> 23 ;
24 [label="dist-numeric <= 14.5\ngini = 0.23\nsamples = 38\nvalue = [47, 7]\nclass = additive", fillcolor="#e58139d9"] ;
23 -> 24 ;
25 [label="gini = 0.31\nsamples = 16\nvalue = [17, 4]\nclass = additive", fillcolor="#e58139c3"] ;
24 -> 25 ;
26 [label="gini = 0.17\nsamples = 22\nvalue = [30, 3]\nclass = additive", fillcolor="#e58139e6"] ;
24 -> 26 ;
27 [label="dist-numeric <= 16.5\ngini = 0.28\nsamples = 68\nvalue = [90, 18]\nclass = additive", fillcolor="#e58139cc"] ;
23 -> 27 ;
28 [label="gini = 0.33\nsamples = 25\nvalue = [26, 7]\nclass = additive", fillcolor="#e58139ba"] ;
27 -> 28 ;
29 [label="dist-numeric <= 17.5\ngini = 0.25\nsamples = 43\nvalue = [64, 11]\nclass = additive", fillcolor="#e58139d3"] ;
27 -> 29 ;
30 [label="gini = 0.27\nsamples = 20\nvalue = [32, 6]\nclass = additive", fillcolor="#e58139cf"] ;
29 -> 30 ;
31 [label="gini = 0.23\nsamples = 23\nvalue = [32, 5]\nclass = additive", fillcolor="#e58139d7"] ;
29 -> 31 ;
32 [label="dist-numeric <= 23.5\ngini = 0.15\nsamples = 181\nvalue = [271, 24]\nclass = additive", fillcolor="#e58139e8"] ;
20 -> 32 ;
33 [label="dist-numeric <= 19.5\ngini = 0.16\nsamples = 162\nvalue = [243, 23]\nclass = additive", fillcolor="#e58139e7"] ;
32 -> 33 ;
34 [label="gini = 0.09\nsamples = 28\nvalue = [41, 2]\nclass = additive", fillcolor="#e58139f3"] ;
33 -> 34 ;
35 [label="dist-numeric <= 20.5\ngini = 0.17\nsamples = 134\nvalue = [202, 21]\nclass = additive", fillcolor="#e58139e4"] ;
33 -> 35 ;
36 [label="gini = 0.21\nsamples = 32\nvalue = [52, 7]\nclass = additive", fillcolor="#e58139dd"] ;
35 -> 36 ;
37 [label="dist-numeric <= 22.5\ngini = 0.16\nsamples = 102\nvalue = [150, 14]\nclass = additive", fillcolor="#e58139e7"] ;
35 -> 37 ;
38 [label="dist-numeric <= 21.5\ngini = 0.14\nsamples = 65\nvalue = [97, 8]\nclass = additive", fillcolor="#e58139ea"] ;
37 -> 38 ;
39 [label="gini = 0.16\nsamples = 40\nvalue = [62, 6]\nclass = additive", fillcolor="#e58139e6"] ;
38 -> 39 ;
40 [label="gini = 0.1\nsamples = 25\nvalue = [35, 2]\nclass = additive", fillcolor="#e58139f0"] ;
38 -> 40 ;
41 [label="gini = 0.18\nsamples = 37\nvalue = [53, 6]\nclass = additive", fillcolor="#e58139e2"] ;
37 -> 41 ;
42 [label="gini = 0.07\nsamples = 19\nvalue = [28, 1]\nclass = additive", fillcolor="#e58139f6"] ;
32 -> 42 ;
43 [label="dist-numeric <= 9.5\ngini = 0.22\nsamples = 245\nvalue = [333, 49]\nclass = additive", fillcolor="#e58139d9"] ;
1 -> 43 ;
44 [label="dist-numeric <= 8.5\ngini = 0.42\nsamples = 28\nvalue = [14, 33]\nclass = cooperative", fillcolor="#399de593"] ;
43 -> 44 ;
45 [label="dist-numeric <= 5.5\ngini = 0.35\nsamples = 21\nvalue = [8, 28]\nclass = cooperative", fillcolor="#399de5b6"] ;
44 -> 45 ;
46 [label="gini = 0.0\nsamples = 2\nvalue = [0, 4]\nclass = cooperative", fillcolor="#399de5ff"] ;
45 -> 46 ;
47 [label="dist-numeric <= 6.5\ngini = 0.38\nsamples = 19\nvalue = [8, 24]\nclass = cooperative", fillcolor="#399de5aa"] ;
45 -> 47 ;
48 [label="gini = 0.0\nsamples = 1\nvalue = [2, 0]\nclass = additive", fillcolor="#e58139ff"] ;
47 -> 48 ;
49 [label="dist-numeric <= 7.5\ngini = 0.32\nsamples = 18\nvalue = [6, 24]\nclass = cooperative", fillcolor="#399de5bf"] ;
47 -> 49 ;
50 [label="gini = 0.38\nsamples = 5\nvalue = [2, 6]\nclass = cooperative", fillcolor="#399de5aa"] ;
49 -> 50 ;
51 [label="gini = 0.3\nsamples = 13\nvalue = [4, 18]\nclass = cooperative", fillcolor="#399de5c6"] ;
49 -> 51 ;
52 [label="gini = 0.5\nsamples = 7\nvalue = [6, 5]\nclass = additive", fillcolor="#e581392a"] ;
44 -> 52 ;
53 [label="dist-numeric <= 11.5\ngini = 0.09\nsamples = 217\nvalue = [319, 16]\nclass = additive", fillcolor="#e58139f2"] ;
43 -> 53 ;
54 [label="dist-numeric <= 10.5\ngini = 0.39\nsamples = 24\nvalue = [25, 9]\nclass = additive", fillcolor="#e58139a3"] ;
53 -> 54 ;
55 [label="gini = 0.21\nsamples = 12\nvalue = [15, 2]\nclass = additive", fillcolor="#e58139dd"] ;
54 -> 55 ;
56 [label="gini = 0.48\nsamples = 12\nvalue = [10, 7]\nclass = additive", fillcolor="#e581394d"] ;
54 -> 56 ;
57 [label="dist-numeric <= 13.5\ngini = 0.05\nsamples = 193\nvalue = [294, 7]\nclass = additive", fillcolor="#e58139f9"] ;
53 -> 57 ;
58 [label="dist-numeric <= 12.5\ngini = 0.17\nsamples = 18\nvalue = [28, 3]\nclass = additive", fillcolor="#e58139e4"] ;
57 -> 58 ;
59 [label="gini = 0.17\nsamples = 8\nvalue = [10, 1]\nclass = additive", fillcolor="#e58139e6"] ;
58 -> 59 ;
60 [label="gini = 0.18\nsamples = 10\nvalue = [18, 2]\nclass = additive", fillcolor="#e58139e3"] ;
58 -> 60 ;
61 [label="dist-numeric <= 15.5\ngini = 0.03\nsamples = 175\nvalue = [266, 4]\nclass = additive", fillcolor="#e58139fb"] ;
57 -> 61 ;
62 [label="dist-numeric <= 14.5\ngini = 0.08\nsamples = 30\nvalue = [46, 2]\nclass = additive", fillcolor="#e58139f4"] ;
61 -> 62 ;
63 [label="gini = 0.0\nsamples = 9\nvalue = [18, 0]\nclass = additive", fillcolor="#e58139ff"] ;
62 -> 63 ;
64 [label="gini = 0.12\nsamples = 21\nvalue = [28, 2]\nclass = additive", fillcolor="#e58139ed"] ;
62 -> 64 ;
65 [label="dist-numeric <= 19.5\ngini = 0.02\nsamples = 145\nvalue = [220, 2]\nclass = additive", fillcolor="#e58139fd"] ;
61 -> 65 ;
66 [label="gini = 0.0\nsamples = 54\nvalue = [88, 0]\nclass = additive", fillcolor="#e58139ff"] ;
65 -> 66 ;
67 [label="dist-numeric <= 20.5\ngini = 0.03\nsamples = 91\nvalue = [132, 2]\nclass = additive", fillcolor="#e58139fb"] ;
65 -> 67 ;
68 [label="gini = 0.08\nsamples = 18\nvalue = [24, 1]\nclass = additive", fillcolor="#e58139f4"] ;
67 -> 68 ;
69 [label="dist-numeric <= 22.5\ngini = 0.02\nsamples = 73\nvalue = [108, 1]\nclass = additive", fillcolor="#e58139fd"] ;
67 -> 69 ;
70 [label="dist-numeric <= 21.5\ngini = 0.03\nsamples = 42\nvalue = [59, 1]\nclass = additive", fillcolor="#e58139fb"] ;
69 -> 70 ;
71 [label="gini = 0.0\nsamples = 18\nvalue = [25, 0]\nclass = additive", fillcolor="#e58139ff"] ;
70 -> 71 ;
72 [label="gini = 0.06\nsamples = 24\nvalue = [34, 1]\nclass = additive", fillcolor="#e58139f8"] ;
70 -> 72 ;
73 [label="gini = 0.0\nsamples = 31\nvalue = [49, 0]\nclass = additive", fillcolor="#e58139ff"] ;
69 -> 73 ;
74 [label="dist-numeric <= 13.5\ngini = 0.48\nsamples = 258\nvalue = [160, 240]\nclass = cooperative", fillcolor="#399de555"] ;
0 -> 74 [labeldistance=2.5, labelangle=-45, headlabel="False"] ;
75 [label="dist-numeric <= 7.5\ngini = 0.39\nsamples = 136\nvalue = [57, 155]\nclass = cooperative", fillcolor="#399de5a1"] ;
74 -> 75 ;
76 [label="dist-numeric <= 6.5\ngini = 0.49\nsamples = 20\nvalue = [17, 13]\nclass = additive", fillcolor="#e581393c"] ;
75 -> 76 ;
77 [label="dist-numeric <= 5.5\ngini = 0.49\nsamples = 16\nvalue = [14, 10]\nclass = additive", fillcolor="#e5813949"] ;
76 -> 77 ;
78 [label="gini = 0.5\nsamples = 8\nvalue = [6, 5]\nclass = additive", fillcolor="#e581392a"] ;
77 -> 78 ;
79 [label="gini = 0.47\nsamples = 8\nvalue = [8, 5]\nclass = additive", fillcolor="#e5813960"] ;
77 -> 79 ;
80 [label="gini = 0.5\nsamples = 4\nvalue = [3, 3]\nclass = additive", fillcolor="#e5813900"] ;
76 -> 80 ;
81 [label="dist-numeric <= 8.5\ngini = 0.34\nsamples = 116\nvalue = [40, 142]\nclass = cooperative", fillcolor="#399de5b7"] ;
75 -> 81 ;
82 [label="gini = 0.16\nsamples = 22\nvalue = [3, 31]\nclass = cooperative", fillcolor="#399de5e6"] ;
81 -> 82 ;
83 [label="dist-numeric <= 10.5\ngini = 0.38\nsamples = 94\nvalue = [37, 111]\nclass = cooperative", fillcolor="#399de5aa"] ;
81 -> 83 ;
84 [label="dist-numeric <= 9.5\ngini = 0.34\nsamples = 23\nvalue = [8, 29]\nclass = cooperative", fillcolor="#399de5b9"] ;
83 -> 84 ;
85 [label="gini = 0.4\nsamples = 7\nvalue = [3, 8]\nclass = cooperative", fillcolor="#399de59f"] ;
84 -> 85 ;
86 [label="gini = 0.31\nsamples = 16\nvalue = [5, 21]\nclass = cooperative", fillcolor="#399de5c2"] ;
84 -> 86 ;
87 [label="dist-numeric <= 11.5\ngini = 0.39\nsamples = 71\nvalue = [29, 82]\nclass = cooperative", fillcolor="#399de5a5"] ;
83 -> 87 ;
88 [label="gini = 0.4\nsamples = 27\nvalue = [11, 28]\nclass = cooperative", fillcolor="#399de59b"] ;
87 -> 88 ;
89 [label="dist-numeric <= 12.5\ngini = 0.38\nsamples = 44\nvalue = [18, 54]\nclass = cooperative", fillcolor="#399de5aa"] ;
87 -> 89 ;
90 [label="gini = 0.38\nsamples = 17\nvalue = [7, 21]\nclass = cooperative", fillcolor="#399de5aa"] ;
89 -> 90 ;
91 [label="gini = 0.38\nsamples = 27\nvalue = [11, 33]\nclass = cooperative", fillcolor="#399de5aa"] ;
89 -> 91 ;
92 [label="dist-numeric <= 20.5\ngini = 0.5\nsamples = 122\nvalue = [103, 85]\nclass = additive", fillcolor="#e581392d"] ;
74 -> 92 ;
93 [label="dist-numeric <= 15.5\ngini = 0.46\nsamples = 79\nvalue = [77, 43]\nclass = additive", fillcolor="#e5813971"] ;
92 -> 93 ;
94 [label="dist-numeric <= 14.5\ngini = 0.5\nsamples = 21\nvalue = [15, 14]\nclass = additive", fillcolor="#e5813911"] ;
93 -> 94 ;
95 [label="gini = 0.49\nsamples = 12\nvalue = [10, 8]\nclass = additive", fillcolor="#e5813933"] ;
94 -> 95 ;
96 [label="gini = 0.5\nsamples = 9\nvalue = [5, 6]\nclass = cooperative", fillcolor="#399de52a"] ;
94 -> 96 ;
97 [label="dist-numeric <= 17.5\ngini = 0.43\nsamples = 58\nvalue = [62, 29]\nclass = additive", fillcolor="#e5813988"] ;
93 -> 97 ;
98 [label="dist-numeric <= 16.5\ngini = 0.28\nsamples = 18\nvalue = [25, 5]\nclass = additive", fillcolor="#e58139cc"] ;
97 -> 98 ;
99 [label="gini = 0.34\nsamples = 10\nvalue = [11, 3]\nclass = additive", fillcolor="#e58139b9"] ;
98 -> 99 ;
100 [label="gini = 0.22\nsamples = 8\nvalue = [14, 2]\nclass = additive", fillcolor="#e58139db"] ;
98 -> 100 ;
101 [label="dist-numeric <= 18.5\ngini = 0.48\nsamples = 40\nvalue = [37, 24]\nclass = additive", fillcolor="#e581395a"] ;
97 -> 101 ;
102 [label="gini = 0.5\nsamples = 16\nvalue = [13, 11]\nclass = additive", fillcolor="#e5813927"] ;
101 -> 102 ;
103 [label="dist-numeric <= 19.5\ngini = 0.46\nsamples = 24\nvalue = [24, 13]\nclass = additive", fillcolor="#e5813975"] ;
101 -> 103 ;
104 [label="gini = 0.44\nsamples = 9\nvalue = [12, 6]\nclass = additive", fillcolor="#e581397f"] ;
103 -> 104 ;
105 [label="gini = 0.47\nsamples = 15\nvalue = [12, 7]\nclass = additive", fillcolor="#e581396a"] ;
103 -> 105 ;
106 [label="dist-numeric <= 22.5\ngini = 0.47\nsamples = 43\nvalue = [26, 42]\nclass = cooperative", fillcolor="#399de561"] ;
92 -> 106 ;
107 [label="dist-numeric <= 21.5\ngini = 0.5\nsamples = 20\nvalue = [16, 18]\nclass = cooperative", fillcolor="#399de51c"] ;
106 -> 107 ;
108 [label="gini = 0.48\nsamples = 9\nvalue = [6, 9]\nclass = cooperative", fillcolor="#399de555"] ;
107 -> 108 ;
109 [label="gini = 0.5\nsamples = 11\nvalue = [10, 9]\nclass = additive", fillcolor="#e5813919"] ;
107 -> 109 ;
110 [label="dist-numeric <= 23.5\ngini = 0.42\nsamples = 23\nvalue = [10, 24]\nclass = cooperative", fillcolor="#399de595"] ;
106 -> 110 ;
111 [label="gini = 0.39\nsamples = 17\nvalue = [7, 19]\nclass = cooperative", fillcolor="#399de5a1"] ;
110 -> 111 ;
112 [label="gini = 0.47\nsamples = 6\nvalue = [3, 5]\nclass = cooperative", fillcolor="#399de566"] ;
110 -> 112 ;
}