digraph Tree {
node [shape=box, style="filled, rounded", color="black", fontname=helvetica] ;
edge [fontname=helvetica] ;
0 [label="A <= 0.05\ngini = 0.46\nsamples = 1092\nvalue = [1107, 621]\nclass = additive", fillcolor="#e5813970"] ;
1 [label="C <= 0.03\ngini = 0.48\nsamples = 272\nvalue = [169, 261]\nclass = cooperative", fillcolor="#399de55a"] ;
0 -> 1 [labeldistance=2.5, labelangle=45, headlabel="True"] ;
2 [label="ori <= 1.5\ngini = 0.35\nsamples = 75\nvalue = [26, 91]\nclass = cooperative", fillcolor="#399de5b6"] ;
1 -> 2 ;
3 [label="T <= 0.29\ngini = 0.37\nsamples = 69\nvalue = [26, 80]\nclass = cooperative", fillcolor="#399de5ac"] ;
2 -> 3 ;
4 [label="G <= 0.38\ngini = 0.47\nsamples = 30\nvalue = [16, 27]\nclass = cooperative", fillcolor="#399de568"] ;
3 -> 4 ;
5 [label="gini = 0.45\nsamples = 26\nvalue = [13, 25]\nclass = cooperative", fillcolor="#399de57a"] ;
4 -> 5 ;
6 [label="G <= 0.9\ngini = 0.48\nsamples = 4\nvalue = [3, 2]\nclass = additive", fillcolor="#e5813955"] ;
4 -> 6 ;
7 [label="gini = 0.0\nsamples = 2\nvalue = [3, 0]\nclass = additive", fillcolor="#e58139ff"] ;
6 -> 7 ;
8 [label="gini = 0.0\nsamples = 2\nvalue = [0, 2]\nclass = cooperative", fillcolor="#399de5ff"] ;
6 -> 8 ;
9 [label="G <= 0.31\ngini = 0.27\nsamples = 39\nvalue = [10, 53]\nclass = cooperative", fillcolor="#399de5cf"] ;
3 -> 9 ;
10 [label="G <= 0.24\ngini = 0.35\nsamples = 14\nvalue = [5, 17]\nclass = cooperative", fillcolor="#399de5b4"] ;
9 -> 10 ;
11 [label="T <= 0.9\ngini = 0.26\nsamples = 13\nvalue = [3, 17]\nclass = cooperative", fillcolor="#399de5d2"] ;
10 -> 11 ;
12 [label="gini = 0.0\nsamples = 1\nvalue = [0, 3]\nclass = cooperative", fillcolor="#399de5ff"] ;
11 -> 12 ;
13 [label="gini = 0.29\nsamples = 12\nvalue = [3, 14]\nclass = cooperative", fillcolor="#399de5c8"] ;
11 -> 13 ;
14 [label="gini = 0.0\nsamples = 1\nvalue = [2, 0]\nclass = additive", fillcolor="#e58139ff"] ;
10 -> 14 ;
15 [label="T <= 0.42\ngini = 0.21\nsamples = 25\nvalue = [5, 36]\nclass = cooperative", fillcolor="#399de5dc"] ;
9 -> 15 ;
16 [label="gini = 0.32\nsamples = 9\nvalue = [3, 12]\nclass = cooperative", fillcolor="#399de5bf"] ;
15 -> 16 ;
17 [label="T <= 0.58\ngini = 0.14\nsamples = 16\nvalue = [2, 24]\nclass = cooperative", fillcolor="#399de5ea"] ;
15 -> 17 ;
18 [label="gini = 0.0\nsamples = 4\nvalue = [0, 8]\nclass = cooperative", fillcolor="#399de5ff"] ;
17 -> 18 ;
19 [label="gini = 0.2\nsamples = 12\nvalue = [2, 16]\nclass = cooperative", fillcolor="#399de5df"] ;
17 -> 19 ;
20 [label="gini = 0.0\nsamples = 6\nvalue = [0, 11]\nclass = cooperative", fillcolor="#399de5ff"] ;
2 -> 20 ;
21 [label="G <= 0.37\ngini = 0.5\nsamples = 197\nvalue = [143, 170]\nclass = cooperative", fillcolor="#399de528"] ;
1 -> 21 ;
22 [label="ori <= 2.5\ngini = 0.45\nsamples = 107\nvalue = [60, 112]\nclass = cooperative", fillcolor="#399de576"] ;
21 -> 22 ;
23 [label="A <= 0.03\ngini = 0.43\nsamples = 95\nvalue = [48, 103]\nclass = cooperative", fillcolor="#399de588"] ;
22 -> 23 ;
24 [label="G <= 0.24\ngini = 0.44\nsamples = 92\nvalue = [48, 99]\nclass = cooperative", fillcolor="#399de583"] ;
23 -> 24 ;
25 [label="T <= 0.49\ngini = 0.48\nsamples = 48\nvalue = [33, 50]\nclass = cooperative", fillcolor="#399de557"] ;
24 -> 25 ;
26 [label="T <= 0.43\ngini = 0.5\nsamples = 32\nvalue = [27, 27]\nclass = additive", fillcolor="#e5813900"] ;
25 -> 26 ;
27 [label="G <= 0.18\ngini = 0.5\nsamples = 30\nvalue = [23, 27]\nclass = cooperative", fillcolor="#399de526"] ;
26 -> 27 ;
28 [label="C <= 0.65\ngini = 0.5\nsamples = 25\nvalue = [23, 20]\nclass = additive", fillcolor="#e5813921"] ;
27 -> 28 ;
29 [label="gini = 0.28\nsamples = 6\nvalue = [10, 2]\nclass = additive", fillcolor="#e58139cc"] ;
28 -> 29 ;
30 [label="gini = 0.49\nsamples = 19\nvalue = [13, 18]\nclass = cooperative", fillcolor="#399de547"] ;
28 -> 30 ;
31 [label="gini = 0.0\nsamples = 5\nvalue = [0, 7]\nclass = cooperative", fillcolor="#399de5ff"] ;
27 -> 31 ;
32 [label="gini = 0.0\nsamples = 2\nvalue = [4, 0]\nclass = additive", fillcolor="#e58139ff"] ;
26 -> 32 ;
33 [label="T <= 0.53\ngini = 0.33\nsamples = 16\nvalue = [6, 23]\nclass = cooperative", fillcolor="#399de5bc"] ;
25 -> 33 ;
34 [label="G <= 0.08\ngini = 0.11\nsamples = 10\nvalue = [1, 16]\nclass = cooperative", fillcolor="#399de5ef"] ;
33 -> 34 ;
35 [label="gini = 0.12\nsamples = 9\nvalue = [1, 14]\nclass = cooperative", fillcolor="#399de5ed"] ;
34 -> 35 ;
36 [label="gini = 0.0\nsamples = 1\nvalue = [0, 2]\nclass = cooperative", fillcolor="#399de5ff"] ;
34 -> 36 ;
37 [label="T <= 0.58\ngini = 0.49\nsamples = 6\nvalue = [5, 7]\nclass = cooperative", fillcolor="#399de549"] ;
33 -> 37 ;
38 [label="gini = 0.0\nsamples = 1\nvalue = [4, 0]\nclass = additive", fillcolor="#e58139ff"] ;
37 -> 38 ;
39 [label="T <= 0.62\ngini = 0.22\nsamples = 5\nvalue = [1, 7]\nclass = cooperative", fillcolor="#399de5db"] ;
37 -> 39 ;
40 [label="gini = 0.28\nsamples = 4\nvalue = [1, 5]\nclass = cooperative", fillcolor="#399de5cc"] ;
39 -> 40 ;
41 [label="gini = 0.0\nsamples = 1\nvalue = [0, 2]\nclass = cooperative", fillcolor="#399de5ff"] ;
39 -> 41 ;
42 [label="ori <= 1.5\ngini = 0.36\nsamples = 44\nvalue = [15, 49]\nclass = cooperative", fillcolor="#399de5b1"] ;
24 -> 42 ;
43 [label="T <= 0.51\ngini = 0.34\nsamples = 29\nvalue = [10, 36]\nclass = cooperative", fillcolor="#399de5b8"] ;
42 -> 43 ;
44 [label="T <= 0.32\ngini = 0.27\nsamples = 28\nvalue = [7, 36]\nclass = cooperative", fillcolor="#399de5cd"] ;
43 -> 44 ;
45 [label="C <= 0.59\ngini = 0.4\nsamples = 14\nvalue = [6, 16]\nclass = cooperative", fillcolor="#399de59f"] ;
44 -> 45 ;
46 [label="gini = 0.5\nsamples = 5\nvalue = [3, 3]\nclass = additive", fillcolor="#e5813900"] ;
45 -> 46 ;
47 [label="gini = 0.3\nsamples = 9\nvalue = [3, 13]\nclass = cooperative", fillcolor="#399de5c4"] ;
45 -> 47 ;
48 [label="C <= 0.35\ngini = 0.09\nsamples = 14\nvalue = [1, 20]\nclass = cooperative", fillcolor="#399de5f2"] ;
44 -> 48 ;
49 [label="gini = 0.0\nsamples = 12\nvalue = [0, 19]\nclass = cooperative", fillcolor="#399de5ff"] ;
48 -> 49 ;
50 [label="gini = 0.5\nsamples = 2\nvalue = [1, 1]\nclass = additive", fillcolor="#e5813900"] ;
48 -> 50 ;
51 [label="gini = 0.0\nsamples = 1\nvalue = [3, 0]\nclass = additive", fillcolor="#e58139ff"] ;
43 -> 51 ;
52 [label="T <= 0.45\ngini = 0.4\nsamples = 15\nvalue = [5, 13]\nclass = cooperative", fillcolor="#399de59d"] ;
42 -> 52 ;
53 [label="C <= 0.37\ngini = 0.46\nsamples = 12\nvalue = [5, 9]\nclass = cooperative", fillcolor="#399de571"] ;
52 -> 53 ;
54 [label="G <= 0.3\ngini = 0.44\nsamples = 5\nvalue = [4, 2]\nclass = additive", fillcolor="#e581397f"] ;
53 -> 54 ;
55 [label="gini = 0.5\nsamples = 3\nvalue = [2, 2]\nclass = additive", fillcolor="#e5813900"] ;
54 -> 55 ;
56 [label="gini = 0.0\nsamples = 2\nvalue = [2, 0]\nclass = additive", fillcolor="#e58139ff"] ;
54 -> 56 ;
57 [label="G <= 0.31\ngini = 0.22\nsamples = 7\nvalue = [1, 7]\nclass = cooperative", fillcolor="#399de5db"] ;
53 -> 57 ;
58 [label="gini = 0.38\nsamples = 4\nvalue = [1, 3]\nclass = cooperative", fillcolor="#399de5aa"] ;
57 -> 58 ;
59 [label="gini = 0.0\nsamples = 3\nvalue = [0, 4]\nclass = cooperative", fillcolor="#399de5ff"] ;
57 -> 59 ;
60 [label="gini = 0.0\nsamples = 3\nvalue = [0, 4]\nclass = cooperative", fillcolor="#399de5ff"] ;
52 -> 60 ;
61 [label="gini = 0.0\nsamples = 3\nvalue = [0, 4]\nclass = cooperative", fillcolor="#399de5ff"] ;
23 -> 61 ;
62 [label="T <= 0.27\ngini = 0.49\nsamples = 12\nvalue = [12, 9]\nclass = additive", fillcolor="#e5813940"] ;
22 -> 62 ;
63 [label="T <= 0.24\ngini = 0.44\nsamples = 7\nvalue = [4, 8]\nclass = cooperative", fillcolor="#399de57f"] ;
62 -> 63 ;
64 [label="gini = 0.0\nsamples = 3\nvalue = [4, 0]\nclass = additive", fillcolor="#e58139ff"] ;
63 -> 64 ;
65 [label="gini = 0.0\nsamples = 4\nvalue = [0, 8]\nclass = cooperative", fillcolor="#399de5ff"] ;
63 -> 65 ;
66 [label="T <= 0.32\ngini = 0.2\nsamples = 5\nvalue = [8, 1]\nclass = additive", fillcolor="#e58139df"] ;
62 -> 66 ;
67 [label="gini = 0.0\nsamples = 2\nvalue = [4, 0]\nclass = additive", fillcolor="#e58139ff"] ;
66 -> 67 ;
68 [label="G <= 0.31\ngini = 0.32\nsamples = 3\nvalue = [4, 1]\nclass = additive", fillcolor="#e58139bf"] ;
66 -> 68 ;
69 [label="gini = 0.0\nsamples = 2\nvalue = [4, 0]\nclass = additive", fillcolor="#e58139ff"] ;
68 -> 69 ;
70 [label="gini = 0.0\nsamples = 1\nvalue = [0, 1]\nclass = cooperative", fillcolor="#399de5ff"] ;
68 -> 70 ;
71 [label="G <= 0.65\ngini = 0.48\nsamples = 90\nvalue = [83, 58]\nclass = additive", fillcolor="#e581394d"] ;
21 -> 71 ;
72 [label="C <= 0.28\ngini = 0.46\nsamples = 78\nvalue = [81, 46]\nclass = additive", fillcolor="#e581396e"] ;
71 -> 72 ;
73 [label="T <= 0.41\ngini = 0.5\nsamples = 25\nvalue = [19, 23]\nclass = cooperative", fillcolor="#399de52c"] ;
72 -> 73 ;
74 [label="C <= 0.19\ngini = 0.46\nsamples = 20\nvalue = [12, 22]\nclass = cooperative", fillcolor="#399de574"] ;
73 -> 74 ;
75 [label="gini = 0.0\nsamples = 3\nvalue = [4, 0]\nclass = additive", fillcolor="#e58139ff"] ;
74 -> 75 ;
76 [label="C <= 0.24\ngini = 0.39\nsamples = 17\nvalue = [8, 22]\nclass = cooperative", fillcolor="#399de5a2"] ;
74 -> 76 ;
77 [label="C <= 0.21\ngini = 0.5\nsamples = 5\nvalue = [5, 6]\nclass = cooperative", fillcolor="#399de52a"] ;
76 -> 77 ;
78 [label="ori <= 1.5\ngini = 0.44\nsamples = 3\nvalue = [3, 6]\nclass = cooperative", fillcolor="#399de57f"] ;
77 -> 78 ;
79 [label="gini = 0.0\nsamples = 2\nvalue = [0, 6]\nclass = cooperative", fillcolor="#399de5ff"] ;
78 -> 79 ;
80 [label="gini = 0.0\nsamples = 1\nvalue = [3, 0]\nclass = additive", fillcolor="#e58139ff"] ;
78 -> 80 ;
81 [label="gini = 0.0\nsamples = 2\nvalue = [2, 0]\nclass = additive", fillcolor="#e58139ff"] ;
77 -> 81 ;
82 [label="G <= 0.49\ngini = 0.27\nsamples = 12\nvalue = [3, 16]\nclass = cooperative", fillcolor="#399de5cf"] ;
76 -> 82 ;
83 [label="ori <= 1.5\ngini = 0.42\nsamples = 5\nvalue = [3, 7]\nclass = cooperative", fillcolor="#399de592"] ;
82 -> 83 ;
84 [label="gini = 0.0\nsamples = 1\nvalue = [0, 3]\nclass = cooperative", fillcolor="#399de5ff"] ;
83 -> 84 ;
85 [label="gini = 0.49\nsamples = 4\nvalue = [3, 4]\nclass = cooperative", fillcolor="#399de540"] ;
83 -> 85 ;
86 [label="gini = 0.0\nsamples = 7\nvalue = [0, 9]\nclass = cooperative", fillcolor="#399de5ff"] ;
82 -> 86 ;
87 [label="C <= 0.12\ngini = 0.22\nsamples = 5\nvalue = [7, 1]\nclass = additive", fillcolor="#e58139db"] ;
73 -> 87 ;
88 [label="ori <= 1.5\ngini = 0.38\nsamples = 2\nvalue = [3, 1]\nclass = additive", fillcolor="#e58139aa"] ;
87 -> 88 ;
89 [label="gini = 0.0\nsamples = 1\nvalue = [3, 0]\nclass = additive", fillcolor="#e58139ff"] ;
88 -> 89 ;
90 [label="gini = 0.0\nsamples = 1\nvalue = [0, 1]\nclass = cooperative", fillcolor="#399de5ff"] ;
88 -> 90 ;
91 [label="gini = 0.0\nsamples = 3\nvalue = [4, 0]\nclass = additive", fillcolor="#e58139ff"] ;
87 -> 91 ;
92 [label="T <= 0.03\ngini = 0.39\nsamples = 53\nvalue = [62, 23]\nclass = additive", fillcolor="#e58139a0"] ;
72 -> 92 ;
93 [label="G <= 0.46\ngini = 0.45\nsamples = 36\nvalue = [39, 20]\nclass = additive", fillcolor="#e581397c"] ;
92 -> 93 ;
94 [label="gini = 0.0\nsamples = 2\nvalue = [4, 0]\nclass = additive", fillcolor="#e58139ff"] ;
93 -> 94 ;
95 [label="C <= 0.39\ngini = 0.46\nsamples = 34\nvalue = [35, 20]\nclass = additive", fillcolor="#e581396d"] ;
93 -> 95 ;
96 [label="gini = 0.0\nsamples = 2\nvalue = [2, 0]\nclass = additive", fillcolor="#e58139ff"] ;
95 -> 96 ;
97 [label="C <= 0.41\ngini = 0.47\nsamples = 32\nvalue = [33, 20]\nclass = additive", fillcolor="#e5813964"] ;
95 -> 97 ;
98 [label="ori <= 2.0\ngini = 0.5\nsamples = 2\nvalue = [1, 1]\nclass = additive", fillcolor="#e5813900"] ;
97 -> 98 ;
99 [label="gini = 0.0\nsamples = 1\nvalue = [1, 0]\nclass = additive", fillcolor="#e58139ff"] ;
98 -> 99 ;
100 [label="gini = 0.0\nsamples = 1\nvalue = [0, 1]\nclass = cooperative", fillcolor="#399de5ff"] ;
98 -> 100 ;
101 [label="C <= 0.46\ngini = 0.47\nsamples = 30\nvalue = [32, 19]\nclass = additive", fillcolor="#e5813968"] ;
97 -> 101 ;
102 [label="gini = 0.0\nsamples = 1\nvalue = [1, 0]\nclass = additive", fillcolor="#e58139ff"] ;
101 -> 102 ;
103 [label="gini = 0.47\nsamples = 29\nvalue = [31, 19]\nclass = additive", fillcolor="#e5813963"] ;
101 -> 103 ;
104 [label="ori <= 1.5\ngini = 0.2\nsamples = 17\nvalue = [23, 3]\nclass = additive", fillcolor="#e58139de"] ;
92 -> 104 ;
105 [label="gini = 0.0\nsamples = 9\nvalue = [12, 0]\nclass = additive", fillcolor="#e58139ff"] ;
104 -> 105 ;
106 [label="T <= 0.11\ngini = 0.34\nsamples = 8\nvalue = [11, 3]\nclass = additive", fillcolor="#e58139b9"] ;
104 -> 106 ;
107 [label="gini = 0.0\nsamples = 1\nvalue = [0, 1]\nclass = cooperative", fillcolor="#399de5ff"] ;
106 -> 107 ;
108 [label="ori <= 2.5\ngini = 0.26\nsamples = 7\nvalue = [11, 2]\nclass = additive", fillcolor="#e58139d1"] ;
106 -> 108 ;
109 [label="gini = 0.0\nsamples = 2\nvalue = [2, 0]\nclass = additive", fillcolor="#e58139ff"] ;
108 -> 109 ;
110 [label="C <= 0.35\ngini = 0.3\nsamples = 5\nvalue = [9, 2]\nclass = additive", fillcolor="#e58139c6"] ;
108 -> 110 ;
111 [label="gini = 0.0\nsamples = 4\nvalue = [9, 0]\nclass = additive", fillcolor="#e58139ff"] ;
110 -> 111 ;
112 [label="gini = 0.0\nsamples = 1\nvalue = [0, 2]\nclass = cooperative", fillcolor="#399de5ff"] ;
110 -> 112 ;
113 [label="C <= 0.31\ngini = 0.24\nsamples = 12\nvalue = [2, 12]\nclass = cooperative", fillcolor="#399de5d4"] ;
71 -> 113 ;
114 [label="T <= 0.03\ngini = 0.5\nsamples = 2\nvalue = [1, 1]\nclass = additive", fillcolor="#e5813900"] ;
113 -> 114 ;
115 [label="gini = 0.0\nsamples = 1\nvalue = [0, 1]\nclass = cooperative", fillcolor="#399de5ff"] ;
114 -> 115 ;
116 [label="gini = 0.0\nsamples = 1\nvalue = [1, 0]\nclass = additive", fillcolor="#e58139ff"] ;
114 -> 116 ;
117 [label="ori <= 1.5\ngini = 0.15\nsamples = 10\nvalue = [1, 11]\nclass = cooperative", fillcolor="#399de5e8"] ;
113 -> 117 ;
118 [label="gini = 0.0\nsamples = 6\nvalue = [0, 7]\nclass = cooperative", fillcolor="#399de5ff"] ;
117 -> 118 ;
119 [label="ori <= 2.5\ngini = 0.32\nsamples = 4\nvalue = [1, 4]\nclass = cooperative", fillcolor="#399de5bf"] ;
117 -> 119 ;
120 [label="gini = 0.0\nsamples = 1\nvalue = [1, 0]\nclass = additive", fillcolor="#e58139ff"] ;
119 -> 120 ;
121 [label="gini = 0.0\nsamples = 3\nvalue = [0, 4]\nclass = cooperative", fillcolor="#399de5ff"] ;
119 -> 121 ;
122 [label="G <= 0.03\ngini = 0.4\nsamples = 820\nvalue = [938, 360]\nclass = additive", fillcolor="#e581399d"] ;
0 -> 122 [labeldistance=2.5, labelangle=-45, headlabel="False"] ;
123 [label="A <= 0.9\ngini = 0.5\nsamples = 76\nvalue = [58, 68]\nclass = cooperative", fillcolor="#399de525"] ;
122 -> 123 ;
124 [label="C <= 0.52\ngini = 0.5\nsamples = 70\nvalue = [58, 61]\nclass = cooperative", fillcolor="#399de50d"] ;
123 -> 124 ;
125 [label="C <= 0.06\ngini = 0.49\nsamples = 59\nvalue = [42, 57]\nclass = cooperative", fillcolor="#399de543"] ;
124 -> 125 ;
126 [label="T <= 0.42\ngini = 0.24\nsamples = 4\nvalue = [6, 1]\nclass = additive", fillcolor="#e58139d4"] ;
125 -> 126 ;
127 [label="A <= 0.73\ngini = 0.44\nsamples = 2\nvalue = [2, 1]\nclass = additive", fillcolor="#e581397f"] ;
126 -> 127 ;
128 [label="gini = 0.0\nsamples = 1\nvalue = [0, 1]\nclass = cooperative", fillcolor="#399de5ff"] ;
127 -> 128 ;
129 [label="gini = 0.0\nsamples = 1\nvalue = [2, 0]\nclass = additive", fillcolor="#e58139ff"] ;
127 -> 129 ;
130 [label="gini = 0.0\nsamples = 2\nvalue = [4, 0]\nclass = additive", fillcolor="#e58139ff"] ;
126 -> 130 ;
131 [label="C <= 0.45\ngini = 0.48\nsamples = 55\nvalue = [36, 56]\nclass = cooperative", fillcolor="#399de55b"] ;
125 -> 131 ;
132 [label="ori <= 2.5\ngini = 0.5\nsamples = 37\nvalue = [29, 34]\nclass = cooperative", fillcolor="#399de525"] ;
131 -> 132 ;
133 [label="C <= 0.41\ngini = 0.46\nsamples = 29\nvalue = [18, 32]\nclass = cooperative", fillcolor="#399de570"] ;
132 -> 133 ;
134 [label="T <= 0.34\ngini = 0.43\nsamples = 27\nvalue = [15, 32]\nclass = cooperative", fillcolor="#399de587"] ;
133 -> 134 ;
135 [label="A <= 0.52\ngini = 0.5\nsamples = 18\nvalue = [15, 16]\nclass = cooperative", fillcolor="#399de510"] ;
134 -> 135 ;
136 [label="gini = 0.38\nsamples = 8\nvalue = [3, 9]\nclass = cooperative", fillcolor="#399de5aa"] ;
135 -> 136 ;
137 [label="gini = 0.47\nsamples = 10\nvalue = [12, 7]\nclass = additive", fillcolor="#e581396a"] ;
135 -> 137 ;
138 [label="gini = 0.0\nsamples = 9\nvalue = [0, 16]\nclass = cooperative", fillcolor="#399de5ff"] ;
134 -> 138 ;
139 [label="gini = 0.0\nsamples = 2\nvalue = [3, 0]\nclass = additive", fillcolor="#e58139ff"] ;
133 -> 139 ;
140 [label="A <= 0.56\ngini = 0.26\nsamples = 8\nvalue = [11, 2]\nclass = additive", fillcolor="#e58139d1"] ;
132 -> 140 ;
141 [label="gini = 0.0\nsamples = 7\nvalue = [11, 0]\nclass = additive", fillcolor="#e58139ff"] ;
140 -> 141 ;
142 [label="gini = 0.0\nsamples = 1\nvalue = [0, 2]\nclass = cooperative", fillcolor="#399de5ff"] ;
140 -> 142 ;
143 [label="ori <= 1.5\ngini = 0.37\nsamples = 18\nvalue = [7, 22]\nclass = cooperative", fillcolor="#399de5ae"] ;
131 -> 143 ;
144 [label="gini = 0.26\nsamples = 9\nvalue = [2, 11]\nclass = cooperative", fillcolor="#399de5d1"] ;
143 -> 144 ;
145 [label="ori <= 2.5\ngini = 0.43\nsamples = 9\nvalue = [5, 11]\nclass = cooperative", fillcolor="#399de58b"] ;
143 -> 145 ;
146 [label="T <= 0.12\ngini = 0.4\nsamples = 7\nvalue = [3, 8]\nclass = cooperative", fillcolor="#399de59f"] ;
145 -> 146 ;
147 [label="C <= 0.48\ngini = 0.5\nsamples = 4\nvalue = [3, 3]\nclass = additive", fillcolor="#e5813900"] ;
146 -> 147 ;
148 [label="gini = 0.0\nsamples = 1\nvalue = [0, 1]\nclass = cooperative", fillcolor="#399de5ff"] ;
147 -> 148 ;
149 [label="gini = 0.48\nsamples = 3\nvalue = [3, 2]\nclass = additive", fillcolor="#e5813955"] ;
147 -> 149 ;
150 [label="gini = 0.0\nsamples = 3\nvalue = [0, 5]\nclass = cooperative", fillcolor="#399de5ff"] ;
146 -> 150 ;
151 [label="gini = 0.48\nsamples = 2\nvalue = [2, 3]\nclass = cooperative", fillcolor="#399de555"] ;
145 -> 151 ;
152 [label="ori <= 1.5\ngini = 0.32\nsamples = 11\nvalue = [16, 4]\nclass = additive", fillcolor="#e58139bf"] ;
124 -> 152 ;
153 [label="A <= 0.21\ngini = 0.48\nsamples = 6\nvalue = [6, 4]\nclass = additive", fillcolor="#e5813955"] ;
152 -> 153 ;
154 [label="gini = 0.0\nsamples = 1\nvalue = [2, 0]\nclass = additive", fillcolor="#e58139ff"] ;
153 -> 154 ;
155 [label="T <= 0.04\ngini = 0.5\nsamples = 5\nvalue = [4, 4]\nclass = additive", fillcolor="#e5813900"] ;
153 -> 155 ;
156 [label="C <= 0.71\ngini = 0.44\nsamples = 4\nvalue = [2, 4]\nclass = cooperative", fillcolor="#399de57f"] ;
155 -> 156 ;
157 [label="gini = 0.38\nsamples = 2\nvalue = [1, 3]\nclass = cooperative", fillcolor="#399de5aa"] ;
156 -> 157 ;
158 [label="gini = 0.5\nsamples = 2\nvalue = [1, 1]\nclass = additive", fillcolor="#e5813900"] ;
156 -> 158 ;
159 [label="gini = 0.0\nsamples = 1\nvalue = [2, 0]\nclass = additive", fillcolor="#e58139ff"] ;
155 -> 159 ;
160 [label="gini = 0.0\nsamples = 5\nvalue = [10, 0]\nclass = additive", fillcolor="#e58139ff"] ;
152 -> 160 ;
161 [label="gini = 0.0\nsamples = 6\nvalue = [0, 7]\nclass = cooperative", fillcolor="#399de5ff"] ;
123 -> 161 ;
162 [label="T <= 0.06\ngini = 0.37\nsamples = 744\nvalue = [880, 292]\nclass = additive", fillcolor="#e58139aa"] ;
122 -> 162 ;
163 [label="C <= 0.66\ngini = 0.48\nsamples = 121\nvalue = [118, 78]\nclass = additive", fillcolor="#e5813956"] ;
162 -> 163 ;
164 [label="G <= 0.49\ngini = 0.48\nsamples = 120\nvalue = [118, 75]\nclass = additive", fillcolor="#e581395d"] ;
163 -> 164 ;
165 [label="C <= 0.21\ngini = 0.45\nsamples = 82\nvalue = [92, 48]\nclass = additive", fillcolor="#e581397a"] ;
164 -> 165 ;
166 [label="C <= 0.15\ngini = 0.23\nsamples = 9\nvalue = [13, 2]\nclass = additive", fillcolor="#e58139d8"] ;
165 -> 166 ;
167 [label="G <= 0.33\ngini = 0.38\nsamples = 4\nvalue = [6, 2]\nclass = additive", fillcolor="#e58139aa"] ;
166 -> 167 ;
168 [label="A <= 0.71\ngini = 0.5\nsamples = 2\nvalue = [2, 2]\nclass = additive", fillcolor="#e5813900"] ;
167 -> 168 ;
169 [label="gini = 0.0\nsamples = 1\nvalue = [0, 2]\nclass = cooperative", fillcolor="#399de5ff"] ;
168 -> 169 ;
170 [label="gini = 0.0\nsamples = 1\nvalue = [2, 0]\nclass = additive", fillcolor="#e58139ff"] ;
168 -> 170 ;
171 [label="gini = 0.0\nsamples = 2\nvalue = [4, 0]\nclass = additive", fillcolor="#e58139ff"] ;
167 -> 171 ;
172 [label="gini = 0.0\nsamples = 5\nvalue = [7, 0]\nclass = additive", fillcolor="#e58139ff"] ;
166 -> 172 ;
173 [label="ori <= 2.5\ngini = 0.47\nsamples = 73\nvalue = [79, 46]\nclass = additive", fillcolor="#e581396b"] ;
165 -> 173 ;
174 [label="G <= 0.45\ngini = 0.49\nsamples = 55\nvalue = [54, 44]\nclass = additive", fillcolor="#e581392f"] ;
173 -> 174 ;
175 [label="T <= 0.05\ngini = 0.5\nsamples = 48\nvalue = [43, 43]\nclass = additive", fillcolor="#e5813900"] ;
174 -> 175 ;
176 [label="ori <= 1.5\ngini = 0.5\nsamples = 43\nvalue = [41, 36]\nclass = additive", fillcolor="#e581391f"] ;
175 -> 176 ;
177 [label="gini = 0.44\nsamples = 25\nvalue = [28, 14]\nclass = additive", fillcolor="#e581397f"] ;
176 -> 177 ;
178 [label="gini = 0.47\nsamples = 18\nvalue = [13, 22]\nclass = cooperative", fillcolor="#399de568"] ;
176 -> 178 ;
179 [label="ori <= 1.5\ngini = 0.35\nsamples = 5\nvalue = [2, 7]\nclass = cooperative", fillcolor="#399de5b6"] ;
175 -> 179 ;
180 [label="gini = 0.5\nsamples = 3\nvalue = [2, 2]\nclass = additive", fillcolor="#e5813900"] ;
179 -> 180 ;
181 [label="gini = 0.0\nsamples = 2\nvalue = [0, 5]\nclass = cooperative", fillcolor="#399de5ff"] ;
179 -> 181 ;
182 [label="C <= 0.42\ngini = 0.15\nsamples = 7\nvalue = [11, 1]\nclass = additive", fillcolor="#e58139e8"] ;
174 -> 182 ;
183 [label="gini = 0.0\nsamples = 6\nvalue = [11, 0]\nclass = additive", fillcolor="#e58139ff"] ;
182 -> 183 ;
184 [label="gini = 0.0\nsamples = 1\nvalue = [0, 1]\nclass = cooperative", fillcolor="#399de5ff"] ;
182 -> 184 ;
185 [label="C <= 0.49\ngini = 0.14\nsamples = 18\nvalue = [25, 2]\nclass = additive", fillcolor="#e58139eb"] ;
173 -> 185 ;
186 [label="gini = 0.0\nsamples = 9\nvalue = [15, 0]\nclass = additive", fillcolor="#e58139ff"] ;
185 -> 186 ;
187 [label="G <= 0.26\ngini = 0.28\nsamples = 9\nvalue = [10, 2]\nclass = additive", fillcolor="#e58139cc"] ;
185 -> 187 ;
188 [label="G <= 0.24\ngini = 0.5\nsamples = 3\nvalue = [2, 2]\nclass = additive", fillcolor="#e5813900"] ;
187 -> 188 ;
189 [label="gini = 0.0\nsamples = 2\nvalue = [2, 0]\nclass = additive", fillcolor="#e58139ff"] ;
188 -> 189 ;
190 [label="gini = 0.0\nsamples = 1\nvalue = [0, 2]\nclass = cooperative", fillcolor="#399de5ff"] ;
188 -> 190 ;
191 [label="gini = 0.0\nsamples = 6\nvalue = [8, 0]\nclass = additive", fillcolor="#e58139ff"] ;
187 -> 191 ;
192 [label="G <= 0.54\ngini = 0.5\nsamples = 38\nvalue = [26, 27]\nclass = cooperative", fillcolor="#399de509"] ;
164 -> 192 ;
193 [label="C <= 0.28\ngini = 0.41\nsamples = 18\nvalue = [7, 17]\nclass = cooperative", fillcolor="#399de596"] ;
192 -> 193 ;
194 [label="C <= 0.08\ngini = 0.22\nsamples = 12\nvalue = [2, 14]\nclass = cooperative", fillcolor="#399de5db"] ;
193 -> 194 ;
195 [label="gini = 0.14\nsamples = 9\nvalue = [1, 12]\nclass = cooperative", fillcolor="#399de5ea"] ;
194 -> 195 ;
196 [label="A <= 0.29\ngini = 0.44\nsamples = 3\nvalue = [1, 2]\nclass = cooperative", fillcolor="#399de57f"] ;
194 -> 196 ;
197 [label="gini = 0.0\nsamples = 2\nvalue = [0, 2]\nclass = cooperative", fillcolor="#399de5ff"] ;
196 -> 197 ;
198 [label="gini = 0.0\nsamples = 1\nvalue = [1, 0]\nclass = additive", fillcolor="#e58139ff"] ;
196 -> 198 ;
199 [label="G <= 0.52\ngini = 0.47\nsamples = 6\nvalue = [5, 3]\nclass = additive", fillcolor="#e5813966"] ;
193 -> 199 ;
200 [label="C <= 0.32\ngini = 0.41\nsamples = 5\nvalue = [5, 2]\nclass = additive", fillcolor="#e5813999"] ;
199 -> 200 ;
201 [label="gini = 0.0\nsamples = 1\nvalue = [1, 0]\nclass = additive", fillcolor="#e58139ff"] ;
200 -> 201 ;
202 [label="ori <= 2.0\ngini = 0.44\nsamples = 4\nvalue = [4, 2]\nclass = additive", fillcolor="#e581397f"] ;
200 -> 202 ;
203 [label="gini = 0.5\nsamples = 3\nvalue = [2, 2]\nclass = additive", fillcolor="#e5813900"] ;
202 -> 203 ;
204 [label="gini = 0.0\nsamples = 1\nvalue = [2, 0]\nclass = additive", fillcolor="#e58139ff"] ;
202 -> 204 ;
205 [label="gini = 0.0\nsamples = 1\nvalue = [0, 1]\nclass = cooperative", fillcolor="#399de5ff"] ;
199 -> 205 ;
206 [label="ori <= 1.5\ngini = 0.45\nsamples = 20\nvalue = [19, 10]\nclass = additive", fillcolor="#e5813979"] ;
192 -> 206 ;
207 [label="A <= 0.41\ngini = 0.4\nsamples = 15\nvalue = [16, 6]\nclass = additive", fillcolor="#e581399f"] ;
206 -> 207 ;
208 [label="G <= 0.78\ngini = 0.36\nsamples = 14\nvalue = [16, 5]\nclass = additive", fillcolor="#e58139af"] ;
207 -> 208 ;
209 [label="G <= 0.58\ngini = 0.42\nsamples = 12\nvalue = [12, 5]\nclass = additive", fillcolor="#e5813995"] ;
208 -> 209 ;
210 [label="gini = 0.44\nsamples = 4\nvalue = [4, 2]\nclass = additive", fillcolor="#e581397f"] ;
209 -> 210 ;
211 [label="gini = 0.4\nsamples = 8\nvalue = [8, 3]\nclass = additive", fillcolor="#e581399f"] ;
209 -> 211 ;
212 [label="gini = 0.0\nsamples = 2\nvalue = [4, 0]\nclass = additive", fillcolor="#e58139ff"] ;
208 -> 212 ;
213 [label="gini = 0.0\nsamples = 1\nvalue = [0, 1]\nclass = cooperative", fillcolor="#399de5ff"] ;
207 -> 213 ;
214 [label="A <= 0.13\ngini = 0.49\nsamples = 5\nvalue = [3, 4]\nclass = cooperative", fillcolor="#399de540"] ;
206 -> 214 ;
215 [label="gini = 0.0\nsamples = 2\nvalue = [2, 0]\nclass = additive", fillcolor="#e58139ff"] ;
214 -> 215 ;
216 [label="C <= 0.12\ngini = 0.32\nsamples = 3\nvalue = [1, 4]\nclass = cooperative", fillcolor="#399de5bf"] ;
214 -> 216 ;
217 [label="G <= 0.71\ngini = 0.5\nsamples = 2\nvalue = [1, 1]\nclass = additive", fillcolor="#e5813900"] ;
216 -> 217 ;
218 [label="gini = 0.0\nsamples = 1\nvalue = [1, 0]\nclass = additive", fillcolor="#e58139ff"] ;
217 -> 218 ;
219 [label="gini = 0.0\nsamples = 1\nvalue = [0, 1]\nclass = cooperative", fillcolor="#399de5ff"] ;
217 -> 219 ;
220 [label="gini = 0.0\nsamples = 1\nvalue = [0, 3]\nclass = cooperative", fillcolor="#399de5ff"] ;
216 -> 220 ;
221 [label="gini = 0.0\nsamples = 1\nvalue = [0, 3]\nclass = cooperative", fillcolor="#399de5ff"] ;
163 -> 221 ;
222 [label="G <= 0.62\ngini = 0.34\nsamples = 623\nvalue = [762, 214]\nclass = additive", fillcolor="#e58139b7"] ;
162 -> 222 ;
223 [label="G <= 0.1\ngini = 0.34\nsamples = 617\nvalue = [762, 206]\nclass = additive", fillcolor="#e58139ba"] ;
222 -> 223 ;
224 [label="gini = 0.0\nsamples = 29\nvalue = [47, 0]\nclass = additive", fillcolor="#e58139ff"] ;
223 -> 224 ;
225 [label="ori <= 2.5\ngini = 0.35\nsamples = 588\nvalue = [715, 206]\nclass = additive", fillcolor="#e58139b6"] ;
223 -> 225 ;
226 [label="ori <= 1.5\ngini = 0.41\nsamples = 423\nvalue = [474, 190]\nclass = additive", fillcolor="#e5813999"] ;
225 -> 226 ;
227 [label="A <= 0.06\ngini = 0.21\nsamples = 267\nvalue = [372, 51]\nclass = additive", fillcolor="#e58139dc"] ;
226 -> 227 ;
228 [label="T <= 0.27\ngini = 0.48\nsamples = 5\nvalue = [6, 4]\nclass = additive", fillcolor="#e5813955"] ;
227 -> 228 ;
229 [label="gini = 0.0\nsamples = 4\nvalue = [6, 0]\nclass = additive", fillcolor="#e58139ff"] ;
228 -> 229 ;
230 [label="gini = 0.0\nsamples = 1\nvalue = [0, 4]\nclass = cooperative", fillcolor="#399de5ff"] ;
228 -> 230 ;
231 [label="T <= 0.37\ngini = 0.2\nsamples = 262\nvalue = [366, 47]\nclass = additive", fillcolor="#e58139de"] ;
227 -> 231 ;
232 [label="G <= 0.55\ngini = 0.17\nsamples = 232\nvalue = [330, 34]\nclass = additive", fillcolor="#e58139e5"] ;
231 -> 232 ;
233 [label="gini = 0.16\nsamples = 228\nvalue = [326, 32]\nclass = additive", fillcolor="#e58139e6"] ;
232 -> 233 ;
234 [label="gini = 0.44\nsamples = 4\nvalue = [4, 2]\nclass = additive", fillcolor="#e581397f"] ;
232 -> 234 ;
235 [label="A <= 0.12\ngini = 0.39\nsamples = 30\nvalue = [36, 13]\nclass = additive", fillcolor="#e58139a3"] ;
231 -> 235 ;
236 [label="gini = 0.44\nsamples = 5\nvalue = [4, 8]\nclass = cooperative", fillcolor="#399de57f"] ;
235 -> 236 ;
237 [label="gini = 0.23\nsamples = 25\nvalue = [32, 5]\nclass = additive", fillcolor="#e58139d7"] ;
235 -> 237 ;
238 [label="G <= 0.48\ngini = 0.49\nsamples = 156\nvalue = [102, 139]\nclass = cooperative", fillcolor="#399de544"] ;
226 -> 238 ;
239 [label="T <= 0.27\ngini = 0.48\nsamples = 148\nvalue = [94, 136]\nclass = cooperative", fillcolor="#399de54f"] ;
238 -> 239 ;
240 [label="A <= 0.32\ngini = 0.5\nsamples = 95\nvalue = [74, 81]\nclass = cooperative", fillcolor="#399de516"] ;
239 -> 240 ;
241 [label="gini = 0.5\nsamples = 70\nvalue = [63, 54]\nclass = additive", fillcolor="#e5813924"] ;
240 -> 241 ;
242 [label="gini = 0.41\nsamples = 25\nvalue = [11, 27]\nclass = cooperative", fillcolor="#399de597"] ;
240 -> 242 ;
243 [label="T <= 0.34\ngini = 0.39\nsamples = 53\nvalue = [20, 55]\nclass = cooperative", fillcolor="#399de5a2"] ;
239 -> 243 ;
244 [label="gini = 0.25\nsamples = 33\nvalue = [7, 40]\nclass = cooperative", fillcolor="#399de5d2"] ;
243 -> 244 ;
245 [label="gini = 0.5\nsamples = 20\nvalue = [13, 15]\nclass = cooperative", fillcolor="#399de522"] ;
243 -> 245 ;
246 [label="C <= 0.1\ngini = 0.4\nsamples = 8\nvalue = [8, 3]\nclass = additive", fillcolor="#e581399f"] ;
238 -> 246 ;
247 [label="gini = 0.0\nsamples = 2\nvalue = [3, 0]\nclass = additive", fillcolor="#e58139ff"] ;
246 -> 247 ;
248 [label="T <= 0.12\ngini = 0.47\nsamples = 6\nvalue = [5, 3]\nclass = additive", fillcolor="#e5813966"] ;
246 -> 248 ;
249 [label="gini = 0.0\nsamples = 1\nvalue = [0, 1]\nclass = cooperative", fillcolor="#399de5ff"] ;
248 -> 249 ;
250 [label="gini = 0.41\nsamples = 5\nvalue = [5, 2]\nclass = additive", fillcolor="#e5813999"] ;
248 -> 250 ;
251 [label="C <= 0.54\ngini = 0.12\nsamples = 165\nvalue = [241, 16]\nclass = additive", fillcolor="#e58139ee"] ;
225 -> 251 ;
252 [label="A <= 0.14\ngini = 0.11\nsamples = 164\nvalue = [241, 15]\nclass = additive", fillcolor="#e58139ef"] ;
251 -> 252 ;
253 [label="gini = 0.0\nsamples = 40\nvalue = [60, 0]\nclass = additive", fillcolor="#e58139ff"] ;
252 -> 253 ;
254 [label="G <= 0.29\ngini = 0.14\nsamples = 124\nvalue = [181, 15]\nclass = additive", fillcolor="#e58139ea"] ;
252 -> 254 ;
255 [label="G <= 0.28\ngini = 0.2\nsamples = 74\nvalue = [96, 12]\nclass = additive", fillcolor="#e58139df"] ;
254 -> 255 ;
256 [label="gini = 0.18\nsamples = 69\nvalue = [91, 10]\nclass = additive", fillcolor="#e58139e3"] ;
255 -> 256 ;
257 [label="gini = 0.41\nsamples = 5\nvalue = [5, 2]\nclass = additive", fillcolor="#e5813999"] ;
255 -> 257 ;
258 [label="G <= 0.45\ngini = 0.07\nsamples = 50\nvalue = [85, 3]\nclass = additive", fillcolor="#e58139f6"] ;
254 -> 258 ;
259 [label="gini = 0.03\nsamples = 37\nvalue = [70, 1]\nclass = additive", fillcolor="#e58139fb"] ;
258 -> 259 ;
260 [label="gini = 0.21\nsamples = 13\nvalue = [15, 2]\nclass = additive", fillcolor="#e58139dd"] ;
258 -> 260 ;
261 [label="gini = 0.0\nsamples = 1\nvalue = [0, 1]\nclass = cooperative", fillcolor="#399de5ff"] ;
251 -> 261 ;
262 [label="gini = 0.0\nsamples = 6\nvalue = [0, 8]\nclass = cooperative", fillcolor="#399de5ff"] ;
222 -> 262 ;
}