svm_type epsilon_svr
kernel_type linear
nr_class 2
total_sv 535
rho 0.20542979370993525
probA 0.15294870503070737
SV
0.0075821882044480437 1:1 5:1 9:1 16:1 19:1 22:1 27:1 31:1 34:1 40:1 43:1 46:1 49:1 65:1 84:1 111:1 122:1 135:1 155:1 170:1 184:1 207:1 218:1 225:1 292:1 367:1 474:1 519:1 571:1 650:1 712:1 767:1 858:1 
0.050000000000000003 1:1 5:1 9:1 16:1 19:1 22:1 27:1 31:1 34:1 40:1 44:1 45:1 49:1 65:1 84:1 111:1 122:1 135:1 155:1 170:1 184:1 208:1 221:1 225:1 292:1 367:1 474:1 519:1 571:1 650:1 712:1 768:1 861:1 
-0.042369882867803917 1:1 5:1 9:1 16:1 19:1 22:1 27:1 31:1 34:1 40:1 44:1 47:1 49:1 65:1 84:1 111:1 122:1 135:1 155:1 170:1 184:1 208:1 223:1 225:1 292:1 367:1 474:1 519:1 571:1 650:1 712:1 768:1 863:1 
-0.050000000000000003 1:1 5:1 10:1 16:1 19:1 22:1 27:1 31:1 34:1 37:1 43:1 45:1 49:1 66:1 88:1 111:1 122:1 135:1 155:1 170:1 181:1 195:1 217:1 226:1 296:1 383:1 474:1 519:1 571:1 650:1 709:1 755:1 809:1 
0.050000000000000003 1:1 5:1 10:1 16:1 19:1 22:1 27:1 31:1 34:1 38:1 41:1 45:1 49:1 66:1 88:1 111:1 122:1 135:1 155:1 170:1 182:1 197:1 209:1 226:1 296:1 383:1 474:1 519:1 571:1 650:1 710:1 757:1 817:1 
0.050000000000000003 1:1 5:1 10:1 16:1 19:1 22:1 27:1 31:1 34:1 38:1 42:1 45:1 49:1 66:1 88:1 111:1 122:1 135:1 155:1 170:1 182:1 198:1 213:1 226:1 296:1 383:1 474:1 519:1 571:1 650:1 710:1 758:1 821:1 
-0.050000000000000003 1:1 5:1 10:1 16:1 19:1 22:1 27:1 31:1 34:1 38:1 42:1 46:1 49:1 66:1 88:1 111:1 122:1 135:1 155:1 170:1 182:1 198:1 214:1 226:1 296:1 383:1 474:1 519:1 571:1 650:1 710:1 758:1 822:1 
0.050000000000000003 1:1 5:1 10:1 16:1 19:1 22:1 27:1 31:1 34:1 38:1 42:1 47:1 49:1 66:1 88:1 111:1 122:1 135:1 155:1 170:1 182:1 198:1 215:1 226:1 296:1 383:1 474:1 519:1 571:1 650:1 710:1 758:1 823:1 
-0.050000000000000003 1:1 5:1 10:1 16:1 19:1 22:1 27:1 31:1 34:1 38:1 43:1 48:1 49:1 66:1 88:1 111:1 122:1 135:1 155:1 170:1 182:1 199:1 220:1 226:1 296:1 383:1 474:1 519:1 571:1 650:1 710:1 759:1 828:1 
-0.050000000000000003 1:1 5:1 10:1 16:1 19:1 22:1 27:1 31:1 34:1 38:1 44:1 47:1 49:1 66:1 88:1 111:1 122:1 135:1 155:1 170:1 182:1 200:1 223:1 226:1 296:1 383:1 474:1 519:1 571:1 650:1 710:1 760:1 831:1 
0.050000000000000003 1:1 5:1 10:1 16:1 19:1 22:1 27:1 31:1 34:1 38:1 44:1 48:1 49:1 66:1 88:1 111:1 122:1 135:1 155:1 170:1 182:1 200:1 224:1 226:1 296:1 383:1 474:1 519:1 571:1 650:1 710:1 760:1 832:1 
-0.050000000000000003 1:1 5:1 10:1 16:1 19:1 22:1 27:1 31:1 34:1 39:1 42:1 47:1 49:1 66:1 88:1 111:1 122:1 135:1 155:1 170:1 183:1 202:1 215:1 226:1 296:1 383:1 474:1 519:1 571:1 650:1 711:1 762:1 839:1 
-0.009657307664946822 1:1 5:1 10:1 16:1 19:1 22:1 27:1 31:1 34:1 39:1 43:1 45:1 49:1 66:1 88:1 111:1 122:1 135:1 155:1 170:1 183:1 203:1 217:1 226:1 296:1 383:1 474:1 519:1 571:1 650:1 711:1 763:1 841:1 
-0.050000000000000003 1:1 5:1 10:1 16:1 19:1 22:1 27:1 31:1 34:1 39:1 43:1 46:1 49:1 66:1 88:1 111:1 122:1 135:1 155:1 170:1 183:1 203:1 218:1 226:1 296:1 383:1 474:1 519:1 571:1 650:1 711:1 763:1 842:1 
0.050000000000000003 1:1 5:1 10:1 16:1 19:1 22:1 27:1 31:1 34:1 39:1 43:1 48:1 49:1 66:1 88:1 111:1 122:1 135:1 155:1 170:1 183:1 203:1 220:1 226:1 296:1 383:1 474:1 519:1 571:1 650:1 711:1 763:1 844:1 
0.050000000000000003 1:1 5:1 10:1 16:1 19:1 22:1 27:1 31:1 34:1 40:1 42:1 47:1 49:1 66:1 88:1 111:1 122:1 135:1 155:1 170:1 184:1 206:1 215:1 226:1 296:1 383:1 474:1 519:1 571:1 650:1 712:1 766:1 855:1 
-0.050000000000000003 1:1 5:1 10:1 16:1 19:1 22:1 27:1 31:1 34:1 40:1 42:1 48:1 49:1 66:1 88:1 111:1 122:1 135:1 155:1 170:1 184:1 206:1 216:1 226:1 296:1 383:1 474:1 519:1 571:1 650:1 712:1 766:1 856:1 
0.050000000000000003 1:1 5:1 10:1 16:1 19:1 22:1 27:1 31:1 34:1 40:1 44:1 48:1 49:1 66:1 88:1 111:1 122:1 135:1 155:1 170:1 184:1 208:1 224:1 226:1 296:1 383:1 474:1 519:1 571:1 650:1 712:1 768:1 864:1 
0.024570332171229475 1:1 5:1 12:1 16:1 19:1 22:1 27:1 31:1 34:1 40:1 41:1 46:1 49:1 68:1 96:1 111:1 122:1 135:1 155:1 170:1 184:1 205:1 210:1 228:1 304:1 415:1 474:1 519:1 571:1 650:1 712:1 765:1 850:1 
-0.050000000000000003 1:1 5:1 12:1 16:1 19:1 22:1 27:1 31:1 34:1 40:1 42:1 46:1 49:1 68:1 96:1 111:1 122:1 135:1 155:1 170:1 184:1 206:1 214:1 228:1 304:1 415:1 474:1 519:1 571:1 650:1 712:1 766:1 854:1 
0.010002559277447859 1:1 5:1 12:1 16:1 19:1 22:1 27:1 31:1 34:1 40:1 43:1 45:1 49:1 68:1 96:1 111:1 122:1 135:1 155:1 170:1 184:1 207:1 217:1 228:1 304:1 415:1 474:1 519:1 571:1 650:1 712:1 767:1 857:1 
0.050000000000000003 1:1 6:1 9:1 16:1 19:1 22:1 27:1 31:1 34:1 40:1 43:1 45:1 50:1 69:1 84:1 111:1 122:1 135:1 155:1 170:1 184:1 207:1 217:1 229:1 308:1 367:1 474:1 519:1 571:1 650:1 712:1 767:1 857:1 
-0.050000000000000003 1:1 6:1 9:1 16:1 19:1 22:1 27:1 31:1 34:1 40:1 43:1 46:1 50:1 69:1 84:1 111:1 122:1 135:1 155:1 170:1 184:1 207:1 218:1 229:1 308:1 367:1 474:1 519:1 571:1 650:1 712:1 767:1 858:1 
-0.050000000000000003 1:1 6:1 9:1 16:1 19:1 22:1 27:1 31:1 34:1 40:1 43:1 47:1 50:1 69:1 84:1 111:1 122:1 135:1 155:1 170:1 184:1 207:1 219:1 229:1 308:1 367:1 474:1 519:1 571:1 650:1 712:1 767:1 859:1 
0.050000000000000003 1:1 6:1 9:1 16:1 19:1 22:1 27:1 31:1 34:1 40:1 43:1 48:1 50:1 69:1 84:1 111:1 122:1 135:1 155:1 170:1 184:1 207:1 220:1 229:1 308:1 367:1 474:1 519:1 571:1 650:1 712:1 767:1 860:1 
-0.026359422207726781 1:1 6:1 9:1 16:1 19:1 22:1 27:1 31:1 34:1 40:1 44:1 47:1 50:1 69:1 84:1 111:1 122:1 135:1 155:1 170:1 184:1 208:1 223:1 229:1 308:1 367:1 474:1 519:1 571:1 650:1 712:1 768:1 863:1 
-0.050000000000000003 1:1 6:1 10:1 16:1 19:1 22:1 27:1 31:1 34:1 37:1 43:1 45:1 50:1 70:1 88:1 111:1 122:1 135:1 155:1 170:1 181:1 195:1 217:1 230:1 312:1 383:1 474:1 519:1 571:1 650:1 709:1 755:1 809:1 
0.050000000000000003 1:1 6:1 10:1 16:1 19:1 22:1 27:1 31:1 34:1 37:1 43:1 47:1 50:1 70:1 88:1 111:1 122:1 135:1 155:1 170:1 181:1 195:1 219:1 230:1 312:1 383:1 474:1 519:1 571:1 650:1 709:1 755:1 811:1 
-0.050000000000000003 1:1 6:1 10:1 16:1 19:1 22:1 27:1 31:1 34:1 38:1 41:1 46:1 50:1 70:1 88:1 111:1 122:1 135:1 155:1 170:1 182:1 197:1 210:1 230:1 312:1 383:1 474:1 519:1 571:1 650:1 710:1 757:1 818:1 
0.050000000000000003 1:1 6:1 10:1 16:1 19:1 22:1 27:1 31:1 34:1 38:1 41:1 47:1 50:1 70:1 88:1 111:1 122:1 135:1 155:1 170:1 182:1 197:1 211:1 230:1 312:1 383:1 474:1 519:1 571:1 650:1 710:1 757:1 819:1 
0.050000000000000003 1:1 6:1 10:1 16:1 19:1 22:1 27:1 31:1 34:1 38:1 42:1 46:1 50:1 70:1 88:1 111:1 122:1 135:1 155:1 170:1 182:1 198:1 214:1 230:1 312:1 383:1 474:1 519:1 571:1 650:1 710:1 758:1 822:1 
-0.050000000000000003 1:1 6:1 10:1 16:1 19:1 22:1 27:1 31:1 34:1 38:1 42:1 47:1 50:1 70:1 88:1 111:1 122:1 135:1 155:1 170:1 182:1 198:1 215:1 230:1 312:1 383:1 474:1 519:1 571:1 650:1 710:1 758:1 823:1 
-0.050000000000000003 1:1 6:1 10:1 16:1 19:1 22:1 27:1 31:1 34:1 38:1 43:1 46:1 50:1 70:1 88:1 111:1 122:1 135:1 155:1 170:1 182:1 199:1 218:1 230:1 312:1 383:1 474:1 519:1 571:1 650:1 710:1 759:1 826:1 
-0.034202333094083062 1:1 6:1 10:1 16:1 19:1 22:1 27:1 31:1 34:1 39:1 41:1 46:1 50:1 70:1 88:1 111:1 122:1 135:1 155:1 170:1 183:1 201:1 210:1 230:1 312:1 383:1 474:1 519:1 571:1 650:1 711:1 761:1 834:1 
-0.050000000000000003 1:1 6:1 10:1 16:1 19:1 22:1 27:1 31:1 34:1 39:1 43:1 46:1 50:1 70:1 88:1 111:1 122:1 135:1 155:1 170:1 183:1 203:1 218:1 230:1 312:1 383:1 474:1 519:1 571:1 650:1 711:1 763:1 842:1 
0.024708352112892133 1:1 6:1 10:1 16:1 19:1 22:1 27:1 31:1 34:1 39:1 44:1 47:1 50:1 70:1 88:1 111:1 122:1 135:1 155:1 170:1 183:1 204:1 223:1 230:1 312:1 383:1 474:1 519:1 571:1 650:1 711:1 764:1 847:1 
0.050000000000000003 1:1 6:1 10:1 16:1 19:1 22:1 27:1 31:1 34:1 40:1 42:1 46:1 50:1 70:1 88:1 111:1 122:1 135:1 155:1 170:1 184:1 206:1 214:1 230:1 312:1 383:1 474:1 519:1 571:1 650:1 712:1 766:1 854:1 
0.050000000000000003 1:1 6:1 10:1 16:1 19:1 22:1 27:1 31:1 34:1 40:1 43:1 47:1 50:1 70:1 88:1 111:1 122:1 135:1 155:1 170:1 184:1 207:1 219:1 230:1 312:1 383:1 474:1 519:1 571:1 650:1 712:1 767:1 859:1 
0.050000000000000003 1:1 6:1 10:1 16:1 19:1 22:1 27:1 31:1 34:1 40:1 44:1 46:1 50:1 70:1 88:1 111:1 122:1 135:1 155:1 170:1 184:1 208:1 222:1 230:1 312:1 383:1 474:1 519:1 571:1 650:1 712:1 768:1 862:1 
-0.050000000000000003 1:1 6:1 10:1 16:1 19:1 22:1 27:1 31:1 34:1 40:1 44:1 47:1 50:1 70:1 88:1 111:1 122:1 135:1 155:1 170:1 184:1 208:1 223:1 230:1 312:1 383:1 474:1 519:1 571:1 650:1 712:1 768:1 863:1 
0.040184413033429109 1:1 6:1 12:1 16:1 19:1 22:1 27:1 31:1 34:1 37:1 44:1 47:1 50:1 72:1 96:1 111:1 122:1 135:1 155:1 170:1 181:1 196:1 223:1 232:1 320:1 415:1 474:1 519:1 571:1 650:1 709:1 756:1 815:1 
0.050000000000000003 1:1 6:1 12:1 16:1 19:1 22:1 27:1 31:1 34:1 38:1 41:1 46:1 50:1 72:1 96:1 111:1 122:1 135:1 155:1 170:1 182:1 197:1 210:1 232:1 320:1 415:1 474:1 519:1 571:1 650:1 710:1 757:1 818:1 
0.050000000000000003 1:1 6:1 12:1 16:1 19:1 22:1 27:1 31:1 34:1 38:1 41:1 47:1 50:1 72:1 96:1 111:1 122:1 135:1 155:1 170:1 182:1 197:1 211:1 232:1 320:1 415:1 474:1 519:1 571:1 650:1 710:1 757:1 819:1 
0.013290185318557232 1:1 6:1 12:1 16:1 19:1 22:1 27:1 31:1 34:1 39:1 41:1 45:1 50:1 72:1 96:1 111:1 122:1 135:1 155:1 170:1 183:1 201:1 209:1 232:1 320:1 415:1 474:1 519:1 571:1 650:1 711:1 761:1 833:1 
-0.050000000000000003 1:1 6:1 12:1 16:1 19:1 22:1 27:1 31:1 34:1 39:1 42:1 47:1 50:1 72:1 96:1 111:1 122:1 135:1 155:1 170:1 183:1 202:1 215:1 232:1 320:1 415:1 474:1 519:1 571:1 650:1 711:1 762:1 839:1 
-0.050000000000000003 1:1 6:1 12:1 16:1 19:1 22:1 27:1 31:1 34:1 39:1 43:1 45:1 50:1 72:1 96:1 111:1 122:1 135:1 155:1 170:1 183:1 203:1 217:1 232:1 320:1 415:1 474:1 519:1 571:1 650:1 711:1 763:1 841:1 
0.014728426809737299 1:1 6:1 12:1 16:1 19:1 22:1 27:1 31:1 34:1 40:1 44:1 47:1 50:1 72:1 96:1 111:1 122:1 135:1 155:1 170:1 184:1 208:1 223:1 232:1 320:1 415:1 474:1 519:1 571:1 650:1 712:1 768:1 863:1 
-0.050000000000000003 1:1 6:1 12:1 16:1 19:1 22:1 27:1 31:1 34:1 40:1 44:1 48:1 50:1 72:1 96:1 111:1 122:1 135:1 155:1 170:1 184:1 208:1 224:1 232:1 320:1 415:1 474:1 519:1 571:1 650:1 712:1 768:1 864:1 
0.050000000000000003 1:1 7:1 9:1 16:1 19:1 22:1 27:1 31:1 34:1 40:1 41:1 46:1 51:1 73:1 84:1 111:1 122:1 135:1 155:1 170:1 184:1 205:1 210:1 233:1 324:1 367:1 474:1 519:1 571:1 650:1 712:1 765:1 850:1 
0.039731254391986645 1:1 7:1 9:1 16:1 19:1 22:1 27:1 31:1 34:1 40:1 41:1 48:1 51:1 73:1 84:1 111:1 122:1 135:1 155:1 170:1 184:1 205:1 212:1 233:1 324:1 367:1 474:1 519:1 571:1 650:1 712:1 765:1 852:1 
-0.050000000000000003 1:1 7:1 9:1 16:1 19:1 22:1 27:1 31:1 34:1 40:1 43:1 46:1 51:1 73:1 84:1 111:1 122:1 135:1 155:1 170:1 184:1 207:1 218:1 233:1 324:1 367:1 474:1 519:1 571:1 650:1 712:1 767:1 858:1 
-0.018805257642924924 1:1 7:1 9:1 16:1 19:1 22:1 27:1 31:1 34:1 40:1 43:1 47:1 51:1 73:1 84:1 111:1 122:1 135:1 155:1 170:1 184:1 207:1 219:1 233:1 324:1 367:1 474:1 519:1 571:1 650:1 712:1 767:1 859:1 
-0.050000000000000003 1:1 7:1 9:1 16:1 19:1 22:1 27:1 31:1 34:1 40:1 44:1 46:1 51:1 73:1 84:1 111:1 122:1 135:1 155:1 170:1 184:1 208:1 222:1 233:1 324:1 367:1 474:1 519:1 571:1 650:1 712:1 768:1 862:1 
0.0013464809612397126 1:1 7:1 10:1 16:1 19:1 22:1 27:1 31:1 34:1 37:1 42:1 45:1 51:1 74:1 88:1 111:1 122:1 135:1 155:1 170:1 181:1 194:1 213:1 234:1 328:1 383:1 474:1 519:1 571:1 650:1 709:1 754:1 805:1 
-0.050000000000000003 1:1 7:1 10:1 16:1 19:1 22:1 27:1 31:1 34:1 37:1 42:1 47:1 51:1 74:1 88:1 111:1 122:1 135:1 155:1 170:1 181:1 194:1 215:1 234:1 328:1 383:1 474:1 519:1 571:1 650:1 709:1 754:1 807:1 
-0.050000000000000003 1:1 7:1 10:1 16:1 19:1 22:1 27:1 31:1 34:1 37:1 43:1 47:1 51:1 74:1 88:1 111:1 122:1 135:1 155:1 170:1 181:1 195:1 219:1 234:1 328:1 383:1 474:1 519:1 571:1 650:1 709:1 755:1 811:1 
0.050000000000000003 1:1 7:1 10:1 16:1 19:1 22:1 27:1 31:1 34:1 37:1 43:1 48:1 51:1 74:1 88:1 111:1 122:1 135:1 155:1 170:1 181:1 195:1 220:1 234:1 328:1 383:1 474:1 519:1 571:1 650:1 709:1 755:1 812:1 
0.050000000000000003 1:1 7:1 10:1 16:1 19:1 22:1 27:1 31:1 34:1 38:1 42:1 47:1 51:1 74:1 88:1 111:1 122:1 135:1 155:1 170:1 182:1 198:1 215:1 234:1 328:1 383:1 474:1 519:1 571:1 650:1 710:1 758:1 823:1 
0.050000000000000003 1:1 7:1 10:1 16:1 19:1 22:1 27:1 31:1 34:1 38:1 42:1 48:1 51:1 74:1 88:1 111:1 122:1 135:1 155:1 170:1 182:1 198:1 216:1 234:1 328:1 383:1 474:1 519:1 571:1 650:1 710:1 758:1 824:1 
-0.050000000000000003 1:1 7:1 10:1 16:1 19:1 22:1 27:1 31:1 34:1 38:1 43:1 45:1 51:1 74:1 88:1 111:1 122:1 135:1 155:1 170:1 182:1 199:1 217:1 234:1 328:1 383:1 474:1 519:1 571:1 650:1 710:1 759:1 825:1 
0.050000000000000003 1:1 7:1 10:1 16:1 19:1 22:1 27:1 31:1 34:1 38:1 43:1 47:1 51:1 74:1 88:1 111:1 122:1 135:1 155:1 170:1 182:1 199:1 219:1 234:1 328:1 383:1 474:1 519:1 571:1 650:1 710:1 759:1 827:1 
0.050000000000000003 1:1 7:1 10:1 16:1 19:1 22:1 27:1 31:1 34:1 39:1 41:1 45:1 51:1 74:1 88:1 111:1 122:1 135:1 155:1 170:1 183:1 201:1 209:1 234:1 328:1 383:1 474:1 519:1 571:1 650:1 711:1 761:1 833:1 
-0.050000000000000003 1:1 7:1 10:1 16:1 19:1 22:1 27:1 31:1 34:1 39:1 41:1 47:1 51:1 74:1 88:1 111:1 122:1 135:1 155:1 170:1 183:1 201:1 211:1 234:1 328:1 383:1 474:1 519:1 571:1 650:1 711:1 761:1 835:1 
0.050000000000000003 1:1 7:1 10:1 16:1 19:1 22:1 27:1 31:1 34:1 39:1 42:1 47:1 51:1 74:1 88:1 111:1 122:1 135:1 155:1 170:1 183:1 202:1 215:1 234:1 328:1 383:1 474:1 519:1 571:1 650:1 711:1 762:1 839:1 
0.050000000000000003 1:1 7:1 10:1 16:1 19:1 22:1 27:1 31:1 34:1 39:1 43:1 46:1 51:1 74:1 88:1 111:1 122:1 135:1 155:1 170:1 183:1 203:1 218:1 234:1 328:1 383:1 474:1 519:1 571:1 650:1 711:1 763:1 842:1 
-0.034919941402507065 1:1 7:1 10:1 16:1 19:1 22:1 27:1 31:1 34:1 39:1 43:1 47:1 51:1 74:1 88:1 111:1 122:1 135:1 155:1 170:1 183:1 203:1 219:1 234:1 328:1 383:1 474:1 519:1 571:1 650:1 711:1 763:1 843:1 
-0.050000000000000003 1:1 7:1 10:1 16:1 19:1 22:1 27:1 31:1 34:1 39:1 43:1 48:1 51:1 74:1 88:1 111:1 122:1 135:1 155:1 170:1 183:1 203:1 220:1 234:1 328:1 383:1 474:1 519:1 571:1 650:1 711:1 763:1 844:1 
-0.050000000000000003 1:1 7:1 10:1 16:1 19:1 22:1 27:1 31:1 34:1 39:1 44:1 47:1 51:1 74:1 88:1 111:1 122:1 135:1 155:1 170:1 183:1 204:1 223:1 234:1 328:1 383:1 474:1 519:1 571:1 650:1 711:1 764:1 847:1 
-0.050000000000000003 1:1 7:1 10:1 16:1 19:1 22:1 27:1 31:1 34:1 40:1 42:1 45:1 51:1 74:1 88:1 111:1 122:1 135:1 155:1 170:1 184:1 206:1 213:1 234:1 328:1 383:1 474:1 519:1 571:1 650:1 712:1 766:1 853:1 
0.050000000000000003 1:1 7:1 10:1 16:1 19:1 22:1 27:1 31:1 34:1 40:1 42:1 47:1 51:1 74:1 88:1 111:1 122:1 135:1 155:1 170:1 184:1 206:1 215:1 234:1 328:1 383:1 474:1 519:1 571:1 650:1 712:1 766:1 855:1 
-0.050000000000000003 1:1 7:1 10:1 16:1 19:1 22:1 27:1 31:1 34:1 40:1 42:1 48:1 51:1 74:1 88:1 111:1 122:1 135:1 155:1 170:1 184:1 206:1 216:1 234:1 328:1 383:1 474:1 519:1 571:1 650:1 712:1 766:1 856:1 
0.050000000000000003 1:1 7:1 10:1 16:1 19:1 22:1 27:1 31:1 34:1 40:1 43:1 45:1 51:1 74:1 88:1 111:1 122:1 135:1 155:1 170:1 184:1 207:1 217:1 234:1 328:1 383:1 474:1 519:1 571:1 650:1 712:1 767:1 857:1 
0.050000000000000003 1:1 7:1 10:1 16:1 19:1 22:1 27:1 31:1 34:1 40:1 43:1 46:1 51:1 74:1 88:1 111:1 122:1 135:1 155:1 170:1 184:1 207:1 218:1 234:1 328:1 383:1 474:1 519:1 571:1 650:1 712:1 767:1 858:1 
0.050000000000000003 1:1 7:1 10:1 16:1 19:1 22:1 27:1 31:1 34:1 40:1 43:1 47:1 51:1 74:1 88:1 111:1 122:1 135:1 155:1 170:1 184:1 207:1 219:1 234:1 328:1 383:1 474:1 519:1 571:1 650:1 712:1 767:1 859:1 
-0.050000000000000003 1:1 7:1 10:1 16:1 19:1 22:1 27:1 31:1 34:1 40:1 43:1 48:1 51:1 74:1 88:1 111:1 122:1 135:1 155:1 170:1 184:1 207:1 220:1 234:1 328:1 383:1 474:1 519:1 571:1 650:1 712:1 767:1 860:1 
-0.050000000000000003 1:1 7:1 10:1 16:1 19:1 22:1 27:1 31:1 34:1 40:1 44:1 45:1 51:1 74:1 88:1 111:1 122:1 135:1 155:1 170:1 184:1 208:1 221:1 234:1 328:1 383:1 474:1 519:1 571:1 650:1 712:1 768:1 861:1 
0.050000000000000003 1:1 7:1 12:1 16:1 19:1 22:1 27:1 31:1 34:1 37:1 41:1 47:1 51:1 76:1 96:1 111:1 122:1 135:1 155:1 170:1 181:1 193:1 211:1 236:1 336:1 415:1 474:1 519:1 571:1 650:1 709:1 753:1 803:1 
0.050000000000000003 1:1 7:1 12:1 16:1 19:1 22:1 27:1 31:1 34:1 38:1 41:1 46:1 51:1 76:1 96:1 111:1 122:1 135:1 155:1 170:1 182:1 197:1 210:1 236:1 336:1 415:1 474:1 519:1 571:1 650:1 710:1 757:1 818:1 
0.043700148981484825 1:1 7:1 12:1 16:1 19:1 22:1 27:1 31:1 34:1 38:1 43:1 46:1 51:1 76:1 96:1 111:1 122:1 135:1 155:1 170:1 182:1 199:1 218:1 236:1 336:1 415:1 474:1 519:1 571:1 650:1 710:1 759:1 826:1 
0.050000000000000003 1:1 7:1 12:1 16:1 19:1 22:1 27:1 31:1 34:1 38:1 43:1 47:1 51:1 76:1 96:1 111:1 122:1 135:1 155:1 170:1 182:1 199:1 219:1 236:1 336:1 415:1 474:1 519:1 571:1 650:1 710:1 759:1 827:1 
0.050000000000000003 1:1 7:1 12:1 16:1 19:1 22:1 27:1 31:1 34:1 38:1 43:1 48:1 51:1 76:1 96:1 111:1 122:1 135:1 155:1 170:1 182:1 199:1 220:1 236:1 336:1 415:1 474:1 519:1 571:1 650:1 710:1 759:1 828:1 
-0.011855269110479931 1:1 7:1 12:1 16:1 19:1 22:1 27:1 31:1 34:1 38:1 44:1 48:1 51:1 76:1 96:1 111:1 122:1 135:1 155:1 170:1 182:1 200:1 224:1 236:1 336:1 415:1 474:1 519:1 571:1 650:1 710:1 760:1 832:1 
-0.050000000000000003 1:1 7:1 12:1 16:1 19:1 22:1 27:1 31:1 34:1 39:1 43:1 46:1 51:1 76:1 96:1 111:1 122:1 135:1 155:1 170:1 183:1 203:1 218:1 236:1 336:1 415:1 474:1 519:1 571:1 650:1 711:1 763:1 842:1 
0.050000000000000003 1:1 7:1 12:1 16:1 19:1 22:1 27:1 31:1 34:1 39:1 43:1 48:1 51:1 76:1 96:1 111:1 122:1 135:1 155:1 170:1 183:1 203:1 220:1 236:1 336:1 415:1 474:1 519:1 571:1 650:1 711:1 763:1 844:1 
-0.050000000000000003 1:1 7:1 12:1 16:1 19:1 22:1 27:1 31:1 34:1 40:1 43:1 46:1 51:1 76:1 96:1 111:1 122:1 135:1 155:1 170:1 184:1 207:1 218:1 236:1 336:1 415:1 474:1 519:1 571:1 650:1 712:1 767:1 858:1 
-0.050000000000000003 1:1 7:1 12:1 16:1 19:1 22:1 27:1 31:1 34:1 40:1 44:1 45:1 51:1 76:1 96:1 111:1 122:1 135:1 155:1 170:1 184:1 208:1 221:1 236:1 336:1 415:1 474:1 519:1 571:1 650:1 712:1 768:1 861:1 
-0.049138681571695292 1:1 7:1 12:1 16:1 19:1 22:1 27:1 31:1 34:1 40:1 44:1 46:1 51:1 76:1 96:1 111:1 122:1 135:1 155:1 170:1 184:1 208:1 222:1 236:1 336:1 415:1 474:1 519:1 571:1 650:1 712:1 768:1 862:1 
-0.050000000000000003 1:1 7:1 12:1 16:1 19:1 22:1 27:1 31:1 34:1 40:1 44:1 47:1 51:1 76:1 96:1 111:1 122:1 135:1 155:1 170:1 184:1 208:1 223:1 236:1 336:1 415:1 474:1 519:1 571:1 650:1 712:1 768:1 863:1 
0.0093278698463813842 1:1 8:1 10:1 16:1 19:1 22:1 27:1 31:1 34:1 37:1 42:1 45:1 52:1 78:1 88:1 111:1 122:1 135:1 155:1 170:1 181:1 194:1 213:1 238:1 344:1 383:1 474:1 519:1 571:1 650:1 709:1 754:1 805:1 
0.050000000000000003 1:1 8:1 10:1 16:1 19:1 22:1 27:1 31:1 34:1 37:1 44:1 46:1 52:1 78:1 88:1 111:1 122:1 135:1 155:1 170:1 181:1 196:1 222:1 238:1 344:1 383:1 474:1 519:1 571:1 650:1 709:1 756:1 814:1 
0.050000000000000003 1:1 8:1 10:1 16:1 19:1 22:1 27:1 31:1 34:1 37:1 44:1 47:1 52:1 78:1 88:1 111:1 122:1 135:1 155:1 170:1 181:1 196:1 223:1 238:1 344:1 383:1 474:1 519:1 571:1 650:1 709:1 756:1 815:1 
0.050000000000000003 1:1 8:1 10:1 16:1 19:1 22:1 27:1 31:1 34:1 38:1 43:1 45:1 52:1 78:1 88:1 111:1 122:1 135:1 155:1 170:1 182:1 199:1 217:1 238:1 344:1 383:1 474:1 519:1 571:1 650:1 710:1 759:1 825:1 
-0.050000000000000003 1:1 8:1 10:1 16:1 19:1 22:1 27:1 31:1 34:1 38:1 43:1 46:1 52:1 78:1 88:1 111:1 122:1 135:1 155:1 170:1 182:1 199:1 218:1 238:1 344:1 383:1 474:1 519:1 571:1 650:1 710:1 759:1 826:1 
-0.050000000000000003 1:1 8:1 10:1 16:1 19:1 22:1 27:1 31:1 34:1 38:1 43:1 47:1 52:1 78:1 88:1 111:1 122:1 135:1 155:1 170:1 182:1 199:1 219:1 238:1 344:1 383:1 474:1 519:1 571:1 650:1 710:1 759:1 827:1 
0.050000000000000003 1:1 8:1 10:1 16:1 19:1 22:1 27:1 31:1 34:1 38:1 44:1 46:1 52:1 78:1 88:1 111:1 122:1 135:1 155:1 170:1 182:1 200:1 222:1 238:1 344:1 383:1 474:1 519:1 571:1 650:1 710:1 760:1 830:1 
-0.050000000000000003 1:1 8:1 10:1 16:1 19:1 22:1 27:1 31:1 34:1 39:1 41:1 47:1 52:1 78:1 88:1 111:1 122:1 135:1 155:1 170:1 183:1 201:1 211:1 238:1 344:1 383:1 474:1 519:1 571:1 650:1 711:1 761:1 835:1 
0.050000000000000003 1:1 8:1 10:1 16:1 19:1 22:1 27:1 31:1 34:1 39:1 43:1 46:1 52:1 78:1 88:1 111:1 122:1 135:1 155:1 170:1 183:1 203:1 218:1 238:1 344:1 383:1 474:1 519:1 571:1 650:1 711:1 763:1 842:1 
0.050000000000000003 1:1 8:1 10:1 16:1 19:1 22:1 27:1 31:1 34:1 40:1 41:1 47:1 52:1 78:1 88:1 111:1 122:1 135:1 155:1 170:1 184:1 205:1 211:1 238:1 344:1 383:1 474:1 519:1 571:1 650:1 712:1 765:1 851:1 
-0.050000000000000003 1:1 8:1 10:1 16:1 19:1 22:1 27:1 31:1 34:1 40:1 42:1 46:1 52:1 78:1 88:1 111:1 122:1 135:1 155:1 170:1 184:1 206:1 214:1 238:1 344:1 383:1 474:1 519:1 571:1 650:1 712:1 766:1 854:1 
-0.050000000000000003 1:1 8:1 10:1 16:1 19:1 22:1 27:1 31:1 34:1 40:1 42:1 48:1 52:1 78:1 88:1 111:1 122:1 135:1 155:1 170:1 184:1 206:1 216:1 238:1 344:1 383:1 474:1 519:1 571:1 650:1 712:1 766:1 856:1 
-0.050000000000000003 1:1 8:1 10:1 16:1 19:1 22:1 27:1 31:1 34:1 40:1 44:1 46:1 52:1 78:1 88:1 111:1 122:1 135:1 155:1 170:1 184:1 208:1 222:1 238:1 344:1 383:1 474:1 519:1 571:1 650:1 712:1 768:1 862:1 
0.050000000000000003 1:1 8:1 12:1 16:1 19:1 22:1 27:1 31:1 34:1 37:1 43:1 45:1 52:1 80:1 96:1 111:1 122:1 135:1 155:1 170:1 181:1 195:1 217:1 240:1 352:1 415:1 474:1 519:1 571:1 650:1 709:1 755:1 809:1 
-0.050000000000000003 1:1 8:1 12:1 16:1 19:1 22:1 27:1 31:1 34:1 37:1 43:1 47:1 52:1 80:1 96:1 111:1 122:1 135:1 155:1 170:1 181:1 195:1 219:1 240:1 352:1 415:1 474:1 519:1 571:1 650:1 709:1 755:1 811:1 
-0.050000000000000003 1:1 8:1 12:1 16:1 19:1 22:1 27:1 31:1 34:1 37:1 44:1 47:1 52:1 80:1 96:1 111:1 122:1 135:1 155:1 170:1 181:1 196:1 223:1 240:1 352:1 415:1 474:1 519:1 571:1 650:1 709:1 756:1 815:1 
0.031867940487666578 1:1 8:1 12:1 16:1 19:1 22:1 27:1 31:1 34:1 38:1 43:1 45:1 52:1 80:1 96:1 111:1 122:1 135:1 155:1 170:1 182:1 199:1 217:1 240:1 352:1 415:1 474:1 519:1 571:1 650:1 710:1 759:1 825:1 
0.050000000000000003 1:1 8:1 12:1 16:1 19:1 22:1 27:1 31:1 34:1 39:1 42:1 47:1 52:1 80:1 96:1 111:1 122:1 135:1 155:1 170:1 183:1 202:1 215:1 240:1 352:1 415:1 474:1 519:1 571:1 650:1 711:1 762:1 839:1 
-0.050000000000000003 1:1 8:1 12:1 16:1 19:1 22:1 27:1 31:1 34:1 39:1 44:1 48:1 52:1 80:1 96:1 111:1 122:1 135:1 155:1 170:1 183:1 204:1 224:1 240:1 352:1 415:1 474:1 519:1 571:1 650:1 711:1 764:1 848:1 
0.050000000000000003 1:1 8:1 12:1 16:1 19:1 22:1 27:1 31:1 34:1 40:1 42:1 46:1 52:1 80:1 96:1 111:1 122:1 135:1 155:1 170:1 184:1 206:1 214:1 240:1 352:1 415:1 474:1 519:1 571:1 650:1 712:1 766:1 854:1 
-0.050000000000000003 1:1 8:1 12:1 16:1 19:1 22:1 27:1 31:1 34:1 40:1 44:1 48:1 52:1 80:1 96:1 111:1 122:1 135:1 155:1 170:1 184:1 208:1 224:1 240:1 352:1 415:1 474:1 519:1 571:1 650:1 712:1 768:1 864:1 
0.050000000000000003 2:1 5:1 9:1 16:1 19:1 22:1 27:1 31:1 34:1 40:1 41:1 48:1 53:1 65:1 84:1 111:1 122:1 135:1 155:1 170:1 184:1 205:1 212:1 241:1 292:1 367:1 474:1 519:1 571:1 650:1 712:1 765:1 852:1 
-0.050000000000000003 2:1 5:1 9:1 16:1 19:1 22:1 27:1 31:1 34:1 40:1 43:1 48:1 53:1 65:1 84:1 111:1 122:1 135:1 155:1 170:1 184:1 207:1 220:1 241:1 292:1 367:1 474:1 519:1 571:1 650:1 712:1 767:1 860:1 
0.050000000000000003 2:1 5:1 10:1 14:1 19:1 22:1 27:1 31:1 34:1 40:1 41:1 46:1 53:1 66:1 86:1 103:1 122:1 135:1 155:1 170:1 184:1 205:1 210:1 242:1 294:1 375:1 442:1 519:1 571:1 650:1 712:1 765:1 850:1 
0.050000000000000003 2:1 5:1 10:1 14:1 19:1 22:1 27:1 31:1 34:1 40:1 43:1 48:1 53:1 66:1 86:1 103:1 122:1 135:1 155:1 170:1 184:1 207:1 220:1 242:1 294:1 375:1 442:1 519:1 571:1 650:1 712:1 767:1 860:1 
-0.050000000000000003 2:1 5:1 10:1 14:1 19:1 22:1 27:1 31:1 34:1 40:1 44:1 46:1 53:1 66:1 86:1 103:1 122:1 135:1 155:1 170:1 184:1 208:1 222:1 242:1 294:1 375:1 442:1 519:1 571:1 650:1 712:1 768:1 862:1 
-0.050000000000000003 2:1 5:1 10:1 14:1 19:1 22:1 27:1 31:1 34:1 40:1 44:1 47:1 53:1 66:1 86:1 103:1 122:1 135:1 155:1 170:1 184:1 208:1 223:1 242:1 294:1 375:1 442:1 519:1 571:1 650:1 712:1 768:1 863:1 
0.050000000000000003 2:1 5:1 10:1 14:1 19:1 22:1 27:1 31:1 34:1 40:1 44:1 48:1 53:1 66:1 86:1 103:1 122:1 135:1 155:1 170:1 184:1 208:1 224:1 242:1 294:1 375:1 442:1 519:1 571:1 650:1 712:1 768:1 864:1 
0.013926744373847616 2:1 5:1 10:1 16:1 19:1 22:1 27:1 31:1 34:1 37:1 41:1 45:1 53:1 66:1 88:1 111:1 122:1 135:1 155:1 170:1 181:1 193:1 209:1 242:1 296:1 383:1 474:1 519:1 571:1 650:1 709:1 753:1 801:1 
0.050000000000000003 2:1 5:1 10:1 16:1 19:1 22:1 27:1 31:1 34:1 37:1 43:1 46:1 53:1 66:1 88:1 111:1 122:1 135:1 155:1 170:1 181:1 195:1 218:1 242:1 296:1 383:1 474:1 519:1 571:1 650:1 709:1 755:1 810:1 
-0.035566832180235743 2:1 5:1 10:1 16:1 19:1 22:1 27:1 31:1 34:1 37:1 44:1 46:1 53:1 66:1 88:1 111:1 122:1 135:1 155:1 170:1 181:1 196:1 222:1 242:1 296:1 383:1 474:1 519:1 571:1 650:1 709:1 756:1 814:1 
-0.050000000000000003 2:1 5:1 10:1 16:1 19:1 22:1 27:1 31:1 34:1 38:1 41:1 47:1 53:1 66:1 88:1 111:1 122:1 135:1 155:1 170:1 182:1 197:1 211:1 242:1 296:1 383:1 474:1 519:1 571:1 650:1 710:1 757:1 819:1 
-0.050000000000000003 2:1 5:1 10:1 16:1 19:1 22:1 27:1 31:1 34:1 38:1 42:1 45:1 53:1 66:1 88:1 111:1 122:1 135:1 155:1 170:1 182:1 198:1 213:1 242:1 296:1 383:1 474:1 519:1 571:1 650:1 710:1 758:1 821:1 
0.050000000000000003 2:1 5:1 10:1 16:1 19:1 22:1 27:1 31:1 34:1 38:1 42:1 47:1 53:1 66:1 88:1 111:1 122:1 135:1 155:1 170:1 182:1 198:1 215:1 242:1 296:1 383:1 474:1 519:1 571:1 650:1 710:1 758:1 823:1 
0.050000000000000003 2:1 5:1 10:1 16:1 19:1 22:1 27:1 31:1 34:1 38:1 43:1 46:1 53:1 66:1 88:1 111:1 122:1 135:1 155:1 170:1 182:1 199:1 218:1 242:1 296:1 383:1 474:1 519:1 571:1 650:1 710:1 759:1 826:1 
-0.050000000000000003 2:1 5:1 10:1 16:1 19:1 22:1 27:1 31:1 34:1 38:1 43:1 47:1 53:1 66:1 88:1 111:1 122:1 135:1 155:1 170:1 182:1 199:1 219:1 242:1 296:1 383:1 474:1 519:1 571:1 650:1 710:1 759:1 827:1 
-0.050000000000000003 2:1 5:1 10:1 16:1 19:1 22:1 27:1 31:1 34:1 38:1 44:1 46:1 53:1 66:1 88:1 111:1 122:1 135:1 155:1 170:1 182:1 200:1 222:1 242:1 296:1 383:1 474:1 519:1 571:1 650:1 710:1 760:1 830:1 
0.050000000000000003 2:1 5:1 10:1 16:1 19:1 22:1 27:1 31:1 34:1 38:1 44:1 47:1 53:1 66:1 88:1 111:1 122:1 135:1 155:1 170:1 182:1 200:1 223:1 242:1 296:1 383:1 474:1 519:1 571:1 650:1 710:1 760:1 831:1 
-0.050000000000000003 2:1 5:1 10:1 16:1 19:1 22:1 27:1 31:1 34:1 38:1 44:1 48:1 53:1 66:1 88:1 111:1 122:1 135:1 155:1 170:1 182:1 200:1 224:1 242:1 296:1 383:1 474:1 519:1 571:1 650:1 710:1 760:1 832:1 
0.050000000000000003 2:1 5:1 10:1 16:1 19:1 22:1 27:1 31:1 34:1 39:1 42:1 46:1 53:1 66:1 88:1 111:1 122:1 135:1 155:1 170:1 183:1 202:1 214:1 242:1 296:1 383:1 474:1 519:1 571:1 650:1 711:1 762:1 838:1 
-0.050000000000000003 2:1 5:1 10:1 16:1 19:1 22:1 27:1 31:1 34:1 39:1 42:1 48:1 53:1 66:1 88:1 111:1 122:1 135:1 155:1 170:1 183:1 202:1 216:1 242:1 296:1 383:1 474:1 519:1 571:1 650:1 711:1 762:1 840:1 
0.050000000000000003 2:1 5:1 10:1 16:1 19:1 22:1 27:1 31:1 34:1 39:1 43:1 45:1 53:1 66:1 88:1 111:1 122:1 135:1 155:1 170:1 183:1 203:1 217:1 242:1 296:1 383:1 474:1 519:1 571:1 650:1 711:1 763:1 841:1 
0.048688210350219398 2:1 5:1 10:1 16:1 19:1 22:1 27:1 31:1 34:1 39:1 44:1 48:1 53:1 66:1 88:1 111:1 122:1 135:1 155:1 170:1 183:1 204:1 224:1 242:1 296:1 383:1 474:1 519:1 571:1 650:1 711:1 764:1 848:1 
-0.050000000000000003 2:1 5:1 10:1 16:1 19:1 22:1 27:1 31:1 34:1 40:1 42:1 45:1 53:1 66:1 88:1 111:1 122:1 135:1 155:1 170:1 184:1 206:1 213:1 242:1 296:1 383:1 474:1 519:1 571:1 650:1 712:1 766:1 853:1 
-0.050000000000000003 2:1 5:1 10:1 16:1 19:1 22:1 27:1 31:1 34:1 40:1 42:1 46:1 53:1 66:1 88:1 111:1 122:1 135:1 155:1 170:1 184:1 206:1 214:1 242:1 296:1 383:1 474:1 519:1 571:1 650:1 712:1 766:1 854:1 
-0.050000000000000003 2:1 5:1 10:1 16:1 19:1 22:1 27:1 31:1 34:1 40:1 42:1 48:1 53:1 66:1 88:1 111:1 122:1 135:1 155:1 170:1 184:1 206:1 216:1 242:1 296:1 383:1 474:1 519:1 571:1 650:1 712:1 766:1 856:1 
0.050000000000000003 2:1 5:1 10:1 16:1 19:1 22:1 27:1 31:1 34:1 40:1 43:1 46:1 53:1 66:1 88:1 111:1 122:1 135:1 155:1 170:1 184:1 207:1 218:1 242:1 296:1 383:1 474:1 519:1 571:1 650:1 712:1 767:1 858:1 
0.050000000000000003 2:1 5:1 10:1 16:1 19:1 22:1 27:1 31:1 34:1 40:1 44:1 46:1 53:1 66:1 88:1 111:1 122:1 135:1 155:1 170:1 184:1 208:1 222:1 242:1 296:1 383:1 474:1 519:1 571:1 650:1 712:1 768:1 862:1 
-0.050000000000000003 2:1 5:1 10:1 16:1 19:1 22:1 27:1 31:1 34:1 40:1 44:1 48:1 53:1 66:1 88:1 111:1 122:1 135:1 155:1 170:1 184:1 208:1 224:1 242:1 296:1 383:1 474:1 519:1 571:1 650:1 712:1 768:1 864:1 
0.0073301934494391045 2:1 5:1 12:1 16:1 19:1 22:1 27:1 31:1 34:1 37:1 43:1 46:1 53:1 68:1 96:1 111:1 122:1 135:1 155:1 170:1 181:1 195:1 218:1 244:1 304:1 415:1 474:1 519:1 571:1 650:1 709:1 755:1 810:1 
0.033160117555371404 2:1 5:1 12:1 16:1 19:1 22:1 27:1 31:1 34:1 38:1 41:1 46:1 53:1 68:1 96:1 111:1 122:1 135:1 155:1 170:1 182:1 197:1 210:1 244:1 304:1 415:1 474:1 519:1 571:1 650:1 710:1 757:1 818:1 
0.050000000000000003 2:1 5:1 12:1 16:1 19:1 22:1 27:1 31:1 34:1 40:1 42:1 46:1 53:1 68:1 96:1 111:1 122:1 135:1 155:1 170:1 184:1 206:1 214:1 244:1 304:1 415:1 474:1 519:1 571:1 650:1 712:1 766:1 854:1 
-0.050000000000000003 2:1 5:1 12:1 16:1 19:1 22:1 27:1 31:1 34:1 40:1 42:1 48:1 53:1 68:1 96:1 111:1 122:1 135:1 155:1 170:1 184:1 206:1 216:1 244:1 304:1 415:1 474:1 519:1 571:1 650:1 712:1 766:1 856:1 
0.050000000000000003 2:1 5:1 12:1 16:1 19:1 22:1 27:1 31:1 34:1 40:1 43:1 48:1 53:1 68:1 96:1 111:1 122:1 135:1 155:1 170:1 184:1 207:1 220:1 244:1 304:1 415:1 474:1 519:1 571:1 650:1 712:1 767:1 860:1 
-0.050000000000000003 2:1 5:1 12:1 16:1 19:1 22:1 27:1 31:1 34:1 40:1 44:1 45:1 53:1 68:1 96:1 111:1 122:1 135:1 155:1 170:1 184:1 208:1 221:1 244:1 304:1 415:1 474:1 519:1 571:1 650:1 712:1 768:1 861:1 
-0.0061349878611627962 2:1 6:1 9:1 16:1 19:1 22:1 27:1 31:1 34:1 40:1 41:1 47:1 54:1 69:1 84:1 111:1 122:1 135:1 155:1 170:1 184:1 205:1 211:1 245:1 308:1 367:1 474:1 519:1 571:1 650:1 712:1 765:1 851:1 
-0.050000000000000003 2:1 6:1 9:1 16:1 19:1 22:1 27:1 31:1 34:1 40:1 43:1 47:1 54:1 69:1 84:1 111:1 122:1 135:1 155:1 170:1 184:1 207:1 219:1 245:1 308:1 367:1 474:1 519:1 571:1 650:1 712:1 767:1 859:1 
0.050000000000000003 2:1 6:1 10:1 16:1 19:1 22:1 27:1 31:1 34:1 37:1 42:1 45:1 54:1 70:1 88:1 111:1 122:1 135:1 155:1 170:1 181:1 194:1 213:1 246:1 312:1 383:1 474:1 519:1 571:1 650:1 709:1 754:1 805:1 
-0.026565860579095085 2:1 6:1 10:1 16:1 19:1 22:1 27:1 31:1 34:1 37:1 42:1 46:1 54:1 70:1 88:1 111:1 122:1 135:1 155:1 170:1 181:1 194:1 214:1 246:1 312:1 383:1 474:1 519:1 571:1 650:1 709:1 754:1 806:1 
0.050000000000000003 2:1 6:1 10:1 16:1 19:1 22:1 27:1 31:1 34:1 37:1 43:1 45:1 54:1 70:1 88:1 111:1 122:1 135:1 155:1 170:1 181:1 195:1 217:1 246:1 312:1 383:1 474:1 519:1 571:1 650:1 709:1 755:1 809:1 
-0.050000000000000003 2:1 6:1 10:1 16:1 19:1 22:1 27:1 31:1 34:1 37:1 43:1 47:1 54:1 70:1 88:1 111:1 122:1 135:1 155:1 170:1 181:1 195:1 219:1 246:1 312:1 383:1 474:1 519:1 571:1 650:1 709:1 755:1 811:1 
-0.050000000000000003 2:1 6:1 10:1 16:1 19:1 22:1 27:1 31:1 34:1 37:1 44:1 46:1 54:1 70:1 88:1 111:1 122:1 135:1 155:1 170:1 181:1 196:1 222:1 246:1 312:1 383:1 474:1 519:1 571:1 650:1 709:1 756:1 814:1 
-0.050000000000000003 2:1 6:1 10:1 16:1 19:1 22:1 27:1 31:1 34:1 37:1 44:1 47:1 54:1 70:1 88:1 111:1 122:1 135:1 155:1 170:1 181:1 196:1 223:1 246:1 312:1 383:1 474:1 519:1 571:1 650:1 709:1 756:1 815:1 
-0.050000000000000003 2:1 6:1 10:1 16:1 19:1 22:1 27:1 31:1 34:1 38:1 41:1 46:1 54:1 70:1 88:1 111:1 122:1 135:1 155:1 170:1 182:1 197:1 210:1 246:1 312:1 383:1 474:1 519:1 571:1 650:1 710:1 757:1 818:1 
-0.050000000000000003 2:1 6:1 10:1 16:1 19:1 22:1 27:1 31:1 34:1 38:1 42:1 45:1 54:1 70:1 88:1 111:1 122:1 135:1 155:1 170:1 182:1 198:1 213:1 246:1 312:1 383:1 474:1 519:1 571:1 650:1 710:1 758:1 821:1 
-0.050000000000000003 2:1 6:1 10:1 16:1 19:1 22:1 27:1 31:1 34:1 38:1 42:1 46:1 54:1 70:1 88:1 111:1 122:1 135:1 155:1 170:1 182:1 198:1 214:1 246:1 312:1 383:1 474:1 519:1 571:1 650:1 710:1 758:1 822:1 
-0.031799096953166524 2:1 6:1 10:1 16:1 19:1 22:1 27:1 31:1 34:1 38:1 42:1 47:1 54:1 70:1 88:1 111:1 122:1 135:1 155:1 170:1 182:1 198:1 215:1 246:1 312:1 383:1 474:1 519:1 571:1 650:1 710:1 758:1 823:1 
0.050000000000000003 2:1 6:1 10:1 16:1 19:1 22:1 27:1 31:1 34:1 38:1 42:1 48:1 54:1 70:1 88:1 111:1 122:1 135:1 155:1 170:1 182:1 198:1 216:1 246:1 312:1 383:1 474:1 519:1 571:1 650:1 710:1 758:1 824:1 
0.050000000000000003 2:1 6:1 10:1 16:1 19:1 22:1 27:1 31:1 34:1 38:1 43:1 46:1 54:1 70:1 88:1 111:1 122:1 135:1 155:1 170:1 182:1 199:1 218:1 246:1 312:1 383:1 474:1 519:1 571:1 650:1 710:1 759:1 826:1 
0.00018479261803872743 2:1 6:1 10:1 16:1 19:1 22:1 27:1 31:1 34:1 38:1 43:1 48:1 54:1 70:1 88:1 111:1 122:1 135:1 155:1 170:1 182:1 199:1 220:1 246:1 312:1 383:1 474:1 519:1 571:1 650:1 710:1 759:1 828:1 
0.050000000000000003 2:1 6:1 10:1 16:1 19:1 22:1 27:1 31:1 34:1 38:1 44:1 45:1 54:1 70:1 88:1 111:1 122:1 135:1 155:1 170:1 182:1 200:1 221:1 246:1 312:1 383:1 474:1 519:1 571:1 650:1 710:1 760:1 829:1 
-0.050000000000000003 2:1 6:1 10:1 16:1 19:1 22:1 27:1 31:1 34:1 38:1 44:1 47:1 54:1 70:1 88:1 111:1 122:1 135:1 155:1 170:1 182:1 200:1 223:1 246:1 312:1 383:1 474:1 519:1 571:1 650:1 710:1 760:1 831:1 
0.050000000000000003 2:1 6:1 10:1 16:1 19:1 22:1 27:1 31:1 34:1 39:1 42:1 46:1 54:1 70:1 88:1 111:1 122:1 135:1 155:1 170:1 183:1 202:1 214:1 246:1 312:1 383:1 474:1 519:1 571:1 650:1 711:1 762:1 838:1 
0.050000000000000003 2:1 6:1 10:1 16:1 19:1 22:1 27:1 31:1 34:1 39:1 43:1 47:1 54:1 70:1 88:1 111:1 122:1 135:1 155:1 170:1 183:1 203:1 219:1 246:1 312:1 383:1 474:1 519:1 571:1 650:1 711:1 763:1 843:1 
-0.050000000000000003 2:1 6:1 10:1 16:1 19:1 22:1 27:1 31:1 34:1 40:1 41:1 45:1 54:1 70:1 88:1 111:1 122:1 135:1 155:1 170:1 184:1 205:1 209:1 246:1 312:1 383:1 474:1 519:1 571:1 650:1 712:1 765:1 849:1 
0.050000000000000003 2:1 6:1 10:1 16:1 19:1 22:1 27:1 31:1 34:1 40:1 42:1 46:1 54:1 70:1 88:1 111:1 122:1 135:1 155:1 170:1 184:1 206:1 214:1 246:1 312:1 383:1 474:1 519:1 571:1 650:1 712:1 766:1 854:1 
-0.050000000000000003 2:1 6:1 10:1 16:1 19:1 22:1 27:1 31:1 34:1 40:1 42:1 47:1 54:1 70:1 88:1 111:1 122:1 135:1 155:1 170:1 184:1 206:1 215:1 246:1 312:1 383:1 474:1 519:1 571:1 650:1 712:1 766:1 855:1 
0.050000000000000003 2:1 6:1 10:1 16:1 19:1 22:1 27:1 31:1 34:1 40:1 42:1 48:1 54:1 70:1 88:1 111:1 122:1 135:1 155:1 170:1 184:1 206:1 216:1 246:1 312:1 383:1 474:1 519:1 571:1 650:1 712:1 766:1 856:1 
-0.050000000000000003 2:1 6:1 10:1 16:1 19:1 22:1 27:1 31:1 34:1 40:1 43:1 46:1 54:1 70:1 88:1 111:1 122:1 135:1 155:1 170:1 184:1 207:1 218:1 246:1 312:1 383:1 474:1 519:1 571:1 650:1 712:1 767:1 858:1 
-0.050000000000000003 2:1 6:1 10:1 16:1 19:1 22:1 27:1 31:1 34:1 40:1 43:1 48:1 54:1 70:1 88:1 111:1 122:1 135:1 155:1 170:1 184:1 207:1 220:1 246:1 312:1 383:1 474:1 519:1 571:1 650:1 712:1 767:1 860:1 
0.050000000000000003 2:1 6:1 10:1 16:1 19:1 22:1 27:1 31:1 34:1 40:1 44:1 46:1 54:1 70:1 88:1 111:1 122:1 135:1 155:1 170:1 184:1 208:1 222:1 246:1 312:1 383:1 474:1 519:1 571:1 650:1 712:1 768:1 862:1 
0.050000000000000003 2:1 6:1 10:1 16:1 19:1 22:1 27:1 31:1 34:1 40:1 44:1 47:1 54:1 70:1 88:1 111:1 122:1 135:1 155:1 170:1 184:1 208:1 223:1 246:1 312:1 383:1 474:1 519:1 571:1 650:1 712:1 768:1 863:1 
0.050000000000000003 2:1 6:1 10:1 16:1 19:1 22:1 27:1 31:1 34:1 40:1 44:1 48:1 54:1 70:1 88:1 111:1 122:1 135:1 155:1 170:1 184:1 208:1 224:1 246:1 312:1 383:1 474:1 519:1 571:1 650:1 712:1 768:1 864:1 
0.050000000000000003 2:1 6:1 12:1 16:1 19:1 22:1 27:1 31:1 34:1 37:1 42:1 46:1 54:1 72:1 96:1 111:1 122:1 135:1 155:1 170:1 181:1 194:1 214:1 248:1 320:1 415:1 474:1 519:1 571:1 650:1 709:1 754:1 806:1 
0.0042050588923296618 2:1 6:1 12:1 16:1 19:1 22:1 27:1 31:1 34:1 37:1 43:1 46:1 54:1 72:1 96:1 111:1 122:1 135:1 155:1 170:1 181:1 195:1 218:1 248:1 320:1 415:1 474:1 519:1 571:1 650:1 709:1 755:1 810:1 
-0.050000000000000003 2:1 6:1 12:1 16:1 19:1 22:1 27:1 31:1 34:1 38:1 41:1 47:1 54:1 72:1 96:1 111:1 122:1 135:1 155:1 170:1 182:1 197:1 211:1 248:1 320:1 415:1 474:1 519:1 571:1 650:1 710:1 757:1 819:1 
-0.050000000000000003 2:1 6:1 12:1 16:1 19:1 22:1 27:1 31:1 34:1 38:1 41:1 48:1 54:1 72:1 96:1 111:1 122:1 135:1 155:1 170:1 182:1 197:1 212:1 248:1 320:1 415:1 474:1 519:1 571:1 650:1 710:1 757:1 820:1 
0.050000000000000003 2:1 6:1 12:1 16:1 19:1 22:1 27:1 31:1 34:1 38:1 42:1 46:1 54:1 72:1 96:1 111:1 122:1 135:1 155:1 170:1 182:1 198:1 214:1 248:1 320:1 415:1 474:1 519:1 571:1 650:1 710:1 758:1 822:1 
-0.050000000000000003 2:1 6:1 12:1 16:1 19:1 22:1 27:1 31:1 34:1 38:1 42:1 48:1 54:1 72:1 96:1 111:1 122:1 135:1 155:1 170:1 182:1 198:1 216:1 248:1 320:1 415:1 474:1 519:1 571:1 650:1 710:1 758:1 824:1 
0.039641228015944184 2:1 6:1 12:1 16:1 19:1 22:1 27:1 31:1 34:1 38:1 44:1 46:1 54:1 72:1 96:1 111:1 122:1 135:1 155:1 170:1 182:1 200:1 222:1 248:1 320:1 415:1 474:1 519:1 571:1 650:1 710:1 760:1 830:1 
-0.050000000000000003 2:1 6:1 12:1 16:1 19:1 22:1 27:1 31:1 34:1 38:1 44:1 47:1 54:1 72:1 96:1 111:1 122:1 135:1 155:1 170:1 182:1 200:1 223:1 248:1 320:1 415:1 474:1 519:1 571:1 650:1 710:1 760:1 831:1 
0.050000000000000003 2:1 6:1 12:1 16:1 19:1 22:1 27:1 31:1 34:1 39:1 41:1 45:1 54:1 72:1 96:1 111:1 122:1 135:1 155:1 170:1 183:1 201:1 209:1 248:1 320:1 415:1 474:1 519:1 571:1 650:1 711:1 761:1 833:1 
0.050000000000000003 2:1 6:1 12:1 16:1 19:1 22:1 27:1 31:1 34:1 39:1 41:1 47:1 54:1 72:1 96:1 111:1 122:1 135:1 155:1 170:1 183:1 201:1 211:1 248:1 320:1 415:1 474:1 519:1 571:1 650:1 711:1 761:1 835:1 
-0.050000000000000003 2:1 6:1 12:1 16:1 19:1 22:1 27:1 31:1 34:1 40:1 41:1 46:1 54:1 72:1 96:1 111:1 122:1 135:1 155:1 170:1 184:1 205:1 210:1 248:1 320:1 415:1 474:1 519:1 571:1 650:1 712:1 765:1 850:1 
0.050000000000000003 2:1 6:1 12:1 16:1 19:1 22:1 27:1 31:1 34:1 40:1 42:1 48:1 54:1 72:1 96:1 111:1 122:1 135:1 155:1 170:1 184:1 206:1 216:1 248:1 320:1 415:1 474:1 519:1 571:1 650:1 712:1 766:1 856:1 
-0.0095885085975466796 2:1 6:1 12:1 16:1 19:1 22:1 27:1 31:1 34:1 40:1 43:1 46:1 54:1 72:1 96:1 111:1 122:1 135:1 155:1 170:1 184:1 207:1 218:1 248:1 320:1 415:1 474:1 519:1 571:1 650:1 712:1 767:1 858:1 
-0.050000000000000003 2:1 6:1 12:1 16:1 19:1 22:1 27:1 31:1 34:1 40:1 43:1 47:1 54:1 72:1 96:1 111:1 122:1 135:1 155:1 170:1 184:1 207:1 219:1 248:1 320:1 415:1 474:1 519:1 571:1 650:1 712:1 767:1 859:1 
0.050000000000000003 2:1 6:1 12:1 16:1 19:1 22:1 27:1 31:1 34:1 40:1 43:1 48:1 54:1 72:1 96:1 111:1 122:1 135:1 155:1 170:1 184:1 207:1 220:1 248:1 320:1 415:1 474:1 519:1 571:1 650:1 712:1 767:1 860:1 
0.050000000000000003 2:1 6:1 12:1 16:1 19:1 22:1 27:1 31:1 34:1 40:1 44:1 47:1 54:1 72:1 96:1 111:1 122:1 135:1 155:1 170:1 184:1 208:1 223:1 248:1 320:1 415:1 474:1 519:1 571:1 650:1 712:1 768:1 863:1 
-0.050000000000000003 2:1 6:1 12:1 16:1 19:1 22:1 27:1 31:1 34:1 40:1 44:1 48:1 54:1 72:1 96:1 111:1 122:1 135:1 155:1 170:1 184:1 208:1 224:1 248:1 320:1 415:1 474:1 519:1 571:1 650:1 712:1 768:1 864:1 
0.048855974492760253 2:1 7:1 9:1 16:1 19:1 22:1 27:1 31:1 34:1 40:1 43:1 47:1 55:1 73:1 84:1 111:1 122:1 135:1 155:1 170:1 184:1 207:1 219:1 249:1 324:1 367:1 474:1 519:1 571:1 650:1 712:1 767:1 859:1 
0.011992206930509756 2:1 7:1 10:1 16:1 19:1 22:1 27:1 31:1 34:1 37:1 41:1 47:1 55:1 74:1 88:1 111:1 122:1 135:1 155:1 170:1 181:1 193:1 211:1 250:1 328:1 383:1 474:1 519:1 571:1 650:1 709:1 753:1 803:1 
0.050000000000000003 2:1 7:1 10:1 16:1 19:1 22:1 27:1 31:1 34:1 37:1 42:1 45:1 55:1 74:1 88:1 111:1 122:1 135:1 155:1 170:1 181:1 194:1 213:1 250:1 328:1 383:1 474:1 519:1 571:1 650:1 709:1 754:1 805:1 
-0.050000000000000003 2:1 7:1 10:1 16:1 19:1 22:1 27:1 31:1 34:1 37:1 42:1 47:1 55:1 74:1 88:1 111:1 122:1 135:1 155:1 170:1 181:1 194:1 215:1 250:1 328:1 383:1 474:1 519:1 571:1 650:1 709:1 754:1 807:1 
-0.050000000000000003 2:1 7:1 10:1 16:1 19:1 22:1 27:1 31:1 34:1 37:1 42:1 48:1 55:1 74:1 88:1 111:1 122:1 135:1 155:1 170:1 181:1 194:1 216:1 250:1 328:1 383:1 474:1 519:1 571:1 650:1 709:1 754:1 808:1 
0.050000000000000003 2:1 7:1 10:1 16:1 19:1 22:1 27:1 31:1 34:1 37:1 43:1 45:1 55:1 74:1 88:1 111:1 122:1 135:1 155:1 170:1 181:1 195:1 217:1 250:1 328:1 383:1 474:1 519:1 571:1 650:1 709:1 755:1 809:1 
0.050000000000000003 2:1 7:1 10:1 16:1 19:1 22:1 27:1 31:1 34:1 37:1 43:1 47:1 55:1 74:1 88:1 111:1 122:1 135:1 155:1 170:1 181:1 195:1 219:1 250:1 328:1 383:1 474:1 519:1 571:1 650:1 709:1 755:1 811:1 
-0.050000000000000003 2:1 7:1 10:1 16:1 19:1 22:1 27:1 31:1 34:1 37:1 43:1 48:1 55:1 74:1 88:1 111:1 122:1 135:1 155:1 170:1 181:1 195:1 220:1 250:1 328:1 383:1 474:1 519:1 571:1 650:1 709:1 755:1 812:1 
-0.050000000000000003 2:1 7:1 10:1 16:1 19:1 22:1 27:1 31:1 34:1 38:1 41:1 46:1 55:1 74:1 88:1 111:1 122:1 135:1 155:1 170:1 182:1 197:1 210:1 250:1 328:1 383:1 474:1 519:1 571:1 650:1 710:1 757:1 818:1 
-0.049537394756728283 2:1 7:1 10:1 16:1 19:1 22:1 27:1 31:1 34:1 38:1 41:1 47:1 55:1 74:1 88:1 111:1 122:1 135:1 155:1 170:1 182:1 197:1 211:1 250:1 328:1 383:1 474:1 519:1 571:1 650:1 710:1 757:1 819:1 
0.043045094621456226 2:1 7:1 10:1 16:1 19:1 22:1 27:1 31:1 34:1 38:1 41:1 48:1 55:1 74:1 88:1 111:1 122:1 135:1 155:1 170:1 182:1 197:1 212:1 250:1 328:1 383:1 474:1 519:1 571:1 650:1 710:1 757:1 820:1 
0.050000000000000003 2:1 7:1 10:1 16:1 19:1 22:1 27:1 31:1 34:1 38:1 42:1 45:1 55:1 74:1 88:1 111:1 122:1 135:1 155:1 170:1 182:1 198:1 213:1 250:1 328:1 383:1 474:1 519:1 571:1 650:1 710:1 758:1 821:1 
0.050000000000000003 2:1 7:1 10:1 16:1 19:1 22:1 27:1 31:1 34:1 38:1 42:1 46:1 55:1 74:1 88:1 111:1 122:1 135:1 155:1 170:1 182:1 198:1 214:1 250:1 328:1 383:1 474:1 519:1 571:1 650:1 710:1 758:1 822:1 
-0.050000000000000003 2:1 7:1 10:1 16:1 19:1 22:1 27:1 31:1 34:1 38:1 42:1 47:1 55:1 74:1 88:1 111:1 122:1 135:1 155:1 170:1 182:1 198:1 215:1 250:1 328:1 383:1 474:1 519:1 571:1 650:1 710:1 758:1 823:1 
0.050000000000000003 2:1 7:1 10:1 16:1 19:1 22:1 27:1 31:1 34:1 38:1 43:1 46:1 55:1 74:1 88:1 111:1 122:1 135:1 155:1 170:1 182:1 199:1 218:1 250:1 328:1 383:1 474:1 519:1 571:1 650:1 710:1 759:1 826:1 
-0.050000000000000003 2:1 7:1 10:1 16:1 19:1 22:1 27:1 31:1 34:1 38:1 43:1 48:1 55:1 74:1 88:1 111:1 122:1 135:1 155:1 170:1 182:1 199:1 220:1 250:1 328:1 383:1 474:1 519:1 571:1 650:1 710:1 759:1 828:1 
-0.050000000000000003 2:1 7:1 10:1 16:1 19:1 22:1 27:1 31:1 34:1 38:1 44:1 45:1 55:1 74:1 88:1 111:1 122:1 135:1 155:1 170:1 182:1 200:1 221:1 250:1 328:1 383:1 474:1 519:1 571:1 650:1 710:1 760:1 829:1 
0.050000000000000003 2:1 7:1 10:1 16:1 19:1 22:1 27:1 31:1 34:1 38:1 44:1 46:1 55:1 74:1 88:1 111:1 122:1 135:1 155:1 170:1 182:1 200:1 222:1 250:1 328:1 383:1 474:1 519:1 571:1 650:1 710:1 760:1 830:1 
0.050000000000000003 2:1 7:1 10:1 16:1 19:1 22:1 27:1 31:1 34:1 38:1 44:1 47:1 55:1 74:1 88:1 111:1 122:1 135:1 155:1 170:1 182:1 200:1 223:1 250:1 328:1 383:1 474:1 519:1 571:1 650:1 710:1 760:1 831:1 
0.024174532443211716 2:1 7:1 10:1 16:1 19:1 22:1 27:1 31:1 34:1 39:1 41:1 46:1 55:1 74:1 88:1 111:1 122:1 135:1 155:1 170:1 183:1 201:1 210:1 250:1 328:1 383:1 474:1 519:1 571:1 650:1 711:1 761:1 834:1 
0.050000000000000003 2:1 7:1 10:1 16:1 19:1 22:1 27:1 31:1 34:1 39:1 41:1 47:1 55:1 74:1 88:1 111:1 122:1 135:1 155:1 170:1 183:1 201:1 211:1 250:1 328:1 383:1 474:1 519:1 571:1 650:1 711:1 761:1 835:1 
0.050000000000000003 2:1 7:1 10:1 16:1 19:1 22:1 27:1 31:1 34:1 39:1 42:1 47:1 55:1 74:1 88:1 111:1 122:1 135:1 155:1 170:1 183:1 202:1 215:1 250:1 328:1 383:1 474:1 519:1 571:1 650:1 711:1 762:1 839:1 
-0.050000000000000003 2:1 7:1 10:1 16:1 19:1 22:1 27:1 31:1 34:1 39:1 43:1 45:1 55:1 74:1 88:1 111:1 122:1 135:1 155:1 170:1 183:1 203:1 217:1 250:1 328:1 383:1 474:1 519:1 571:1 650:1 711:1 763:1 841:1 
-0.036493578668507706 2:1 7:1 10:1 16:1 19:1 22:1 27:1 31:1 34:1 39:1 43:1 46:1 55:1 74:1 88:1 111:1 122:1 135:1 155:1 170:1 183:1 203:1 218:1 250:1 328:1 383:1 474:1 519:1 571:1 650:1 711:1 763:1 842:1 
-0.050000000000000003 2:1 7:1 10:1 16:1 19:1 22:1 27:1 31:1 34:1 39:1 43:1 48:1 55:1 74:1 88:1 111:1 122:1 135:1 155:1 170:1 183:1 203:1 220:1 250:1 328:1 383:1 474:1 519:1 571:1 650:1 711:1 763:1 844:1 
-0.050000000000000003 2:1 7:1 10:1 16:1 19:1 22:1 27:1 31:1 34:1 39:1 44:1 48:1 55:1 74:1 88:1 111:1 122:1 135:1 155:1 170:1 183:1 204:1 224:1 250:1 328:1 383:1 474:1 519:1 571:1 650:1 711:1 764:1 848:1 
-0.050000000000000003 2:1 7:1 10:1 16:1 19:1 22:1 27:1 31:1 34:1 40:1 41:1 45:1 55:1 74:1 88:1 111:1 122:1 135:1 155:1 170:1 184:1 205:1 209:1 250:1 328:1 383:1 474:1 519:1 571:1 650:1 712:1 765:1 849:1 
0.050000000000000003 2:1 7:1 10:1 16:1 19:1 22:1 27:1 31:1 34:1 40:1 42:1 45:1 55:1 74:1 88:1 111:1 122:1 135:1 155:1 170:1 184:1 206:1 213:1 250:1 328:1 383:1 474:1 519:1 571:1 650:1 712:1 766:1 853:1 
0.04096466299408872 2:1 7:1 10:1 16:1 19:1 22:1 27:1 31:1 34:1 40:1 42:1 47:1 55:1 74:1 88:1 111:1 122:1 135:1 155:1 170:1 184:1 206:1 215:1 250:1 328:1 383:1 474:1 519:1 571:1 650:1 712:1 766:1 855:1 
-0.050000000000000003 2:1 7:1 10:1 16:1 19:1 22:1 27:1 31:1 34:1 40:1 43:1 47:1 55:1 74:1 88:1 111:1 122:1 135:1 155:1 170:1 184:1 207:1 219:1 250:1 328:1 383:1 474:1 519:1 571:1 650:1 712:1 767:1 859:1 
0.050000000000000003 2:1 7:1 10:1 16:1 19:1 22:1 27:1 31:1 34:1 40:1 44:1 46:1 55:1 74:1 88:1 111:1 122:1 135:1 155:1 170:1 184:1 208:1 222:1 250:1 328:1 383:1 474:1 519:1 571:1 650:1 712:1 768:1 862:1 
-0.050000000000000003 2:1 7:1 10:1 16:1 19:1 22:1 27:1 31:1 34:1 40:1 44:1 47:1 55:1 74:1 88:1 111:1 122:1 135:1 155:1 170:1 184:1 208:1 223:1 250:1 328:1 383:1 474:1 519:1 571:1 650:1 712:1 768:1 863:1 
-0.050000000000000003 2:1 7:1 12:1 16:1 19:1 22:1 27:1 31:1 34:1 37:1 43:1 46:1 55:1 76:1 96:1 111:1 122:1 135:1 155:1 170:1 181:1 195:1 218:1 252:1 336:1 415:1 474:1 519:1 571:1 650:1 709:1 755:1 810:1 
0.050000000000000003 2:1 7:1 12:1 16:1 19:1 22:1 27:1 31:1 34:1 38:1 44:1 48:1 55:1 76:1 96:1 111:1 122:1 135:1 155:1 170:1 182:1 200:1 224:1 252:1 336:1 415:1 474:1 519:1 571:1 650:1 710:1 760:1 832:1 
-0.050000000000000003 2:1 7:1 12:1 16:1 19:1 22:1 27:1 31:1 34:1 39:1 42:1 47:1 55:1 76:1 96:1 111:1 122:1 135:1 155:1 170:1 183:1 202:1 215:1 252:1 336:1 415:1 474:1 519:1 571:1 650:1 711:1 762:1 839:1 
-0.050000000000000003 2:1 7:1 12:1 16:1 19:1 22:1 27:1 31:1 34:1 40:1 43:1 46:1 55:1 76:1 96:1 111:1 122:1 135:1 155:1 170:1 184:1 207:1 218:1 252:1 336:1 415:1 474:1 519:1 571:1 650:1 712:1 767:1 858:1 
0.050000000000000003 2:1 7:1 12:1 16:1 19:1 22:1 27:1 31:1 34:1 40:1 43:1 47:1 55:1 76:1 96:1 111:1 122:1 135:1 155:1 170:1 184:1 207:1 219:1 252:1 336:1 415:1 474:1 519:1 571:1 650:1 712:1 767:1 859:1 
-0.027068182954686076 2:1 8:1 9:1 16:1 19:1 22:1 27:1 31:1 34:1 40:1 44:1 48:1 56:1 77:1 84:1 111:1 122:1 135:1 155:1 170:1 184:1 208:1 224:1 253:1 340:1 367:1 474:1 519:1 571:1 650:1 712:1 768:1 864:1 
0.050000000000000003 2:1 8:1 10:1 16:1 19:1 22:1 27:1 31:1 34:1 37:1 41:1 47:1 56:1 78:1 88:1 111:1 122:1 135:1 155:1 170:1 181:1 193:1 211:1 254:1 344:1 383:1 474:1 519:1 571:1 650:1 709:1 753:1 803:1 
0.050000000000000003 2:1 8:1 10:1 16:1 19:1 22:1 27:1 31:1 34:1 37:1 41:1 48:1 56:1 78:1 88:1 111:1 122:1 135:1 155:1 170:1 181:1 193:1 212:1 254:1 344:1 383:1 474:1 519:1 571:1 650:1 709:1 753:1 804:1 
-0.050000000000000003 2:1 8:1 10:1 16:1 19:1 22:1 27:1 31:1 34:1 37:1 43:1 45:1 56:1 78:1 88:1 111:1 122:1 135:1 155:1 170:1 181:1 195:1 217:1 254:1 344:1 383:1 474:1 519:1 571:1 650:1 709:1 755:1 809:1 
0.050000000000000003 2:1 8:1 10:1 16:1 19:1 22:1 27:1 31:1 34:1 37:1 44:1 46:1 56:1 78:1 88:1 111:1 122:1 135:1 155:1 170:1 181:1 196:1 222:1 254:1 344:1 383:1 474:1 519:1 571:1 650:1 709:1 756:1 814:1 
0.050000000000000003 2:1 8:1 10:1 16:1 19:1 22:1 27:1 31:1 34:1 37:1 44:1 48:1 56:1 78:1 88:1 111:1 122:1 135:1 155:1 170:1 181:1 196:1 224:1 254:1 344:1 383:1 474:1 519:1 571:1 650:1 709:1 756:1 816:1 
-0.050000000000000003 2:1 8:1 10:1 16:1 19:1 22:1 27:1 31:1 34:1 38:1 41:1 46:1 56:1 78:1 88:1 111:1 122:1 135:1 155:1 170:1 182:1 197:1 210:1 254:1 344:1 383:1 474:1 519:1 571:1 650:1 710:1 757:1 818:1 
0.050000000000000003 2:1 8:1 10:1 16:1 19:1 22:1 27:1 31:1 34:1 38:1 42:1 46:1 56:1 78:1 88:1 111:1 122:1 135:1 155:1 170:1 182:1 198:1 214:1 254:1 344:1 383:1 474:1 519:1 571:1 650:1 710:1 758:1 822:1 
-0.050000000000000003 2:1 8:1 10:1 16:1 19:1 22:1 27:1 31:1 34:1 38:1 42:1 48:1 56:1 78:1 88:1 111:1 122:1 135:1 155:1 170:1 182:1 198:1 216:1 254:1 344:1 383:1 474:1 519:1 571:1 650:1 710:1 758:1 824:1 
0.045427393119570454 2:1 8:1 10:1 16:1 19:1 22:1 27:1 31:1 34:1 38:1 44:1 45:1 56:1 78:1 88:1 111:1 122:1 135:1 155:1 170:1 182:1 200:1 221:1 254:1 344:1 383:1 474:1 519:1 571:1 650:1 710:1 760:1 829:1 
0.050000000000000003 2:1 8:1 10:1 16:1 19:1 22:1 27:1 31:1 34:1 38:1 44:1 47:1 56:1 78:1 88:1 111:1 122:1 135:1 155:1 170:1 182:1 200:1 223:1 254:1 344:1 383:1 474:1 519:1 571:1 650:1 710:1 760:1 831:1 
-0.050000000000000003 2:1 8:1 10:1 16:1 19:1 22:1 27:1 31:1 34:1 39:1 41:1 46:1 56:1 78:1 88:1 111:1 122:1 135:1 155:1 170:1 183:1 201:1 210:1 254:1 344:1 383:1 474:1 519:1 571:1 650:1 711:1 761:1 834:1 
-0.021569107531428093 2:1 8:1 10:1 16:1 19:1 22:1 27:1 31:1 34:1 39:1 42:1 46:1 56:1 78:1 88:1 111:1 122:1 135:1 155:1 170:1 183:1 202:1 214:1 254:1 344:1 383:1 474:1 519:1 571:1 650:1 711:1 762:1 838:1 
-0.050000000000000003 2:1 8:1 10:1 16:1 19:1 22:1 27:1 31:1 34:1 39:1 42:1 47:1 56:1 78:1 88:1 111:1 122:1 135:1 155:1 170:1 183:1 202:1 215:1 254:1 344:1 383:1 474:1 519:1 571:1 650:1 711:1 762:1 839:1 
0.050000000000000003 2:1 8:1 10:1 16:1 19:1 22:1 27:1 31:1 34:1 40:1 41:1 45:1 56:1 78:1 88:1 111:1 122:1 135:1 155:1 170:1 184:1 205:1 209:1 254:1 344:1 383:1 474:1 519:1 571:1 650:1 712:1 765:1 849:1 
0.014019940075257907 2:1 8:1 10:1 16:1 19:1 22:1 27:1 31:1 34:1 40:1 41:1 46:1 56:1 78:1 88:1 111:1 122:1 135:1 155:1 170:1 184:1 205:1 210:1 254:1 344:1 383:1 474:1 519:1 571:1 650:1 712:1 765:1 850:1 
-0.050000000000000003 2:1 8:1 10:1 16:1 19:1 22:1 27:1 31:1 34:1 40:1 41:1 47:1 56:1 78:1 88:1 111:1 122:1 135:1 155:1 170:1 184:1 205:1 211:1 254:1 344:1 383:1 474:1 519:1 571:1 650:1 712:1 765:1 851:1 
0.050000000000000003 2:1 8:1 10:1 16:1 19:1 22:1 27:1 31:1 34:1 40:1 42:1 46:1 56:1 78:1 88:1 111:1 122:1 135:1 155:1 170:1 184:1 206:1 214:1 254:1 344:1 383:1 474:1 519:1 571:1 650:1 712:1 766:1 854:1 
-0.050000000000000003 2:1 8:1 10:1 16:1 19:1 22:1 27:1 31:1 34:1 40:1 42:1 48:1 56:1 78:1 88:1 111:1 122:1 135:1 155:1 170:1 184:1 206:1 216:1 254:1 344:1 383:1 474:1 519:1 571:1 650:1 712:1 766:1 856:1 
-0.050000000000000003 2:1 8:1 10:1 16:1 19:1 22:1 27:1 31:1 34:1 40:1 43:1 45:1 56:1 78:1 88:1 111:1 122:1 135:1 155:1 170:1 184:1 207:1 217:1 254:1 344:1 383:1 474:1 519:1 571:1 650:1 712:1 767:1 857:1 
0.050000000000000003 2:1 8:1 10:1 16:1 19:1 22:1 27:1 31:1 34:1 40:1 43:1 47:1 56:1 78:1 88:1 111:1 122:1 135:1 155:1 170:1 184:1 207:1 219:1 254:1 344:1 383:1 474:1 519:1 571:1 650:1 712:1 767:1 859:1 
-0.050000000000000003 2:1 8:1 10:1 16:1 19:1 22:1 27:1 31:1 34:1 40:1 43:1 48:1 56:1 78:1 88:1 111:1 122:1 135:1 155:1 170:1 184:1 207:1 220:1 254:1 344:1 383:1 474:1 519:1 571:1 650:1 712:1 767:1 860:1 
-0.050000000000000003 2:1 8:1 10:1 16:1 19:1 22:1 27:1 31:1 34:1 40:1 44:1 47:1 56:1 78:1 88:1 111:1 122:1 135:1 155:1 170:1 184:1 208:1 223:1 254:1 344:1 383:1 474:1 519:1 571:1 650:1 712:1 768:1 863:1 
-0.050000000000000003 2:1 8:1 12:1 16:1 19:1 22:1 27:1 31:1 34:1 37:1 41:1 46:1 56:1 80:1 96:1 111:1 122:1 135:1 155:1 170:1 181:1 193:1 210:1 256:1 352:1 415:1 474:1 519:1 571:1 650:1 709:1 753:1 802:1 
-0.050000000000000003 2:1 8:1 12:1 16:1 19:1 22:1 27:1 31:1 34:1 37:1 42:1 45:1 56:1 80:1 96:1 111:1 122:1 135:1 155:1 170:1 181:1 194:1 213:1 256:1 352:1 415:1 474:1 519:1 571:1 650:1 709:1 754:1 805:1 
0.0031731175477388387 2:1 8:1 12:1 16:1 19:1 22:1 27:1 31:1 34:1 37:1 42:1 46:1 56:1 80:1 96:1 111:1 122:1 135:1 155:1 170:1 181:1 194:1 214:1 256:1 352:1 415:1 474:1 519:1 571:1 650:1 709:1 754:1 806:1 
-0.050000000000000003 2:1 8:1 12:1 16:1 19:1 22:1 27:1 31:1 34:1 37:1 44:1 48:1 56:1 80:1 96:1 111:1 122:1 135:1 155:1 170:1 181:1 196:1 224:1 256:1 352:1 415:1 474:1 519:1 571:1 650:1 709:1 756:1 816:1 
0.050000000000000003 2:1 8:1 12:1 16:1 19:1 22:1 27:1 31:1 34:1 38:1 41:1 45:1 56:1 80:1 96:1 111:1 122:1 135:1 155:1 170:1 182:1 197:1 209:1 256:1 352:1 415:1 474:1 519:1 571:1 650:1 710:1 757:1 817:1 
0.050000000000000003 2:1 8:1 12:1 16:1 19:1 22:1 27:1 31:1 34:1 38:1 41:1 47:1 56:1 80:1 96:1 111:1 122:1 135:1 155:1 170:1 182:1 197:1 211:1 256:1 352:1 415:1 474:1 519:1 571:1 650:1 710:1 757:1 819:1 
-0.0068624709308924645 2:1 8:1 12:1 16:1 19:1 22:1 27:1 31:1 34:1 38:1 42:1 45:1 56:1 80:1 96:1 111:1 122:1 135:1 155:1 170:1 182:1 198:1 213:1 256:1 352:1 415:1 474:1 519:1 571:1 650:1 710:1 758:1 821:1 
0.050000000000000003 2:1 8:1 12:1 16:1 19:1 22:1 27:1 31:1 34:1 38:1 44:1 47:1 56:1 80:1 96:1 111:1 122:1 135:1 155:1 170:1 182:1 200:1 223:1 256:1 352:1 415:1 474:1 519:1 571:1 650:1 710:1 760:1 831:1 
0.050000000000000003 2:1 8:1 12:1 16:1 19:1 22:1 27:1 31:1 34:1 39:1 43:1 45:1 56:1 80:1 96:1 111:1 122:1 135:1 155:1 170:1 183:1 203:1 217:1 256:1 352:1 415:1 474:1 519:1 571:1 650:1 711:1 763:1 841:1 
-0.050000000000000003 2:1 8:1 12:1 16:1 19:1 22:1 27:1 31:1 34:1 39:1 43:1 46:1 56:1 80:1 96:1 111:1 122:1 135:1 155:1 170:1 183:1 203:1 218:1 256:1 352:1 415:1 474:1 519:1 571:1 650:1 711:1 763:1 842:1 
-0.050000000000000003 2:1 8:1 12:1 16:1 19:1 22:1 27:1 31:1 34:1 40:1 42:1 46:1 56:1 80:1 96:1 111:1 122:1 135:1 155:1 170:1 184:1 206:1 214:1 256:1 352:1 415:1 474:1 519:1 571:1 650:1 712:1 766:1 854:1 
0.050000000000000003 2:1 8:1 12:1 16:1 19:1 22:1 27:1 31:1 34:1 40:1 44:1 45:1 56:1 80:1 96:1 111:1 122:1 135:1 155:1 170:1 184:1 208:1 221:1 256:1 352:1 415:1 474:1 519:1 571:1 650:1 712:1 768:1 861:1 
-0.050000000000000003 2:1 8:1 12:1 16:1 19:1 22:1 27:1 31:1 34:1 40:1 44:1 46:1 56:1 80:1 96:1 111:1 122:1 135:1 155:1 170:1 184:1 208:1 222:1 256:1 352:1 415:1 474:1 519:1 571:1 650:1 712:1 768:1 862:1 
0.050000000000000003 2:1 8:1 12:1 16:1 19:1 22:1 27:1 31:1 34:1 40:1 44:1 47:1 56:1 80:1 96:1 111:1 122:1 135:1 155:1 170:1 184:1 208:1 223:1 256:1 352:1 415:1 474:1 519:1 571:1 650:1 712:1 768:1 863:1 
0.050000000000000003 2:1 8:1 12:1 16:1 19:1 22:1 27:1 31:1 34:1 40:1 44:1 48:1 56:1 80:1 96:1 111:1 122:1 135:1 155:1 170:1 184:1 208:1 224:1 256:1 352:1 415:1 474:1 519:1 571:1 650:1 712:1 768:1 864:1 
-0.0042753242340647715 3:1 5:1 9:1 16:1 19:1 22:1 27:1 31:1 34:1 40:1 44:1 46:1 57:1 65:1 84:1 111:1 122:1 135:1 155:1 170:1 184:1 208:1 222:1 257:1 292:1 367:1 474:1 519:1 571:1 650:1 712:1 768:1 862:1 
-0.04548966991238268 3:1 5:1 10:1 14:1 19:1 22:1 27:1 31:1 34:1 40:1 44:1 47:1 57:1 66:1 86:1 103:1 122:1 135:1 155:1 170:1 184:1 208:1 223:1 258:1 294:1 375:1 442:1 519:1 571:1 650:1 712:1 768:1 863:1 
0.00433308936844491 3:1 5:1 10:1 16:1 19:1 22:1 27:1 31:1 34:1 37:1 41:1 48:1 57:1 66:1 88:1 111:1 122:1 135:1 155:1 170:1 181:1 193:1 212:1 258:1 296:1 383:1 474:1 519:1 571:1 650:1 709:1 753:1 804:1 
-0.050000000000000003 3:1 5:1 10:1 16:1 19:1 22:1 27:1 31:1 34:1 37:1 43:1 45:1 57:1 66:1 88:1 111:1 122:1 135:1 155:1 170:1 181:1 195:1 217:1 258:1 296:1 383:1 474:1 519:1 571:1 650:1 709:1 755:1 809:1 
0.050000000000000003 3:1 5:1 10:1 16:1 19:1 22:1 27:1 31:1 34:1 37:1 43:1 47:1 57:1 66:1 88:1 111:1 122:1 135:1 155:1 170:1 181:1 195:1 219:1 258:1 296:1 383:1 474:1 519:1 571:1 650:1 709:1 755:1 811:1 
-0.050000000000000003 3:1 5:1 10:1 16:1 19:1 22:1 27:1 31:1 34:1 38:1 41:1 45:1 57:1 66:1 88:1 111:1 122:1 135:1 155:1 170:1 182:1 197:1 209:1 258:1 296:1 383:1 474:1 519:1 571:1 650:1 710:1 757:1 817:1 
0.050000000000000003 3:1 5:1 10:1 16:1 19:1 22:1 27:1 31:1 34:1 38:1 41:1 46:1 57:1 66:1 88:1 111:1 122:1 135:1 155:1 170:1 182:1 197:1 210:1 258:1 296:1 383:1 474:1 519:1 571:1 650:1 710:1 757:1 818:1 
0.050000000000000003 3:1 5:1 10:1 16:1 19:1 22:1 27:1 31:1 34:1 38:1 41:1 47:1 57:1 66:1 88:1 111:1 122:1 135:1 155:1 170:1 182:1 197:1 211:1 258:1 296:1 383:1 474:1 519:1 571:1 650:1 710:1 757:1 819:1 
-0.050000000000000003 3:1 5:1 10:1 16:1 19:1 22:1 27:1 31:1 34:1 38:1 42:1 45:1 57:1 66:1 88:1 111:1 122:1 135:1 155:1 170:1 182:1 198:1 213:1 258:1 296:1 383:1 474:1 519:1 571:1 650:1 710:1 758:1 821:1 
0.050000000000000003 3:1 5:1 10:1 16:1 19:1 22:1 27:1 31:1 34:1 38:1 42:1 46:1 57:1 66:1 88:1 111:1 122:1 135:1 155:1 170:1 182:1 198:1 214:1 258:1 296:1 383:1 474:1 519:1 571:1 650:1 710:1 758:1 822:1 
0.039077856437393442 3:1 5:1 10:1 16:1 19:1 22:1 27:1 31:1 34:1 38:1 42:1 47:1 57:1 66:1 88:1 111:1 122:1 135:1 155:1 170:1 182:1 198:1 215:1 258:1 296:1 383:1 474:1 519:1 571:1 650:1 710:1 758:1 823:1 
0.050000000000000003 3:1 5:1 10:1 16:1 19:1 22:1 27:1 31:1 34:1 38:1 42:1 48:1 57:1 66:1 88:1 111:1 122:1 135:1 155:1 170:1 182:1 198:1 216:1 258:1 296:1 383:1 474:1 519:1 571:1 650:1 710:1 758:1 824:1 
-0.050000000000000003 3:1 5:1 10:1 16:1 19:1 22:1 27:1 31:1 34:1 38:1 43:1 47:1 57:1 66:1 88:1 111:1 122:1 135:1 155:1 170:1 182:1 199:1 219:1 258:1 296:1 383:1 474:1 519:1 571:1 650:1 710:1 759:1 827:1 
0.050000000000000003 3:1 5:1 10:1 16:1 19:1 22:1 27:1 31:1 34:1 39:1 41:1 46:1 57:1 66:1 88:1 111:1 122:1 135:1 155:1 170:1 183:1 201:1 210:1 258:1 296:1 383:1 474:1 519:1 571:1 650:1 711:1 761:1 834:1 
-0.028885958763820798 3:1 5:1 10:1 16:1 19:1 22:1 27:1 31:1 34:1 39:1 42:1 45:1 57:1 66:1 88:1 111:1 122:1 135:1 155:1 170:1 183:1 202:1 213:1 258:1 296:1 383:1 474:1 519:1 571:1 650:1 711:1 762:1 837:1 
-0.050000000000000003 3:1 5:1 10:1 16:1 19:1 22:1 27:1 31:1 34:1 39:1 43:1 46:1 57:1 66:1 88:1 111:1 122:1 135:1 155:1 170:1 183:1 203:1 218:1 258:1 296:1 383:1 474:1 519:1 571:1 650:1 711:1 763:1 842:1 
-0.050000000000000003 3:1 5:1 10:1 16:1 19:1 22:1 27:1 31:1 34:1 40:1 42:1 45:1 57:1 66:1 88:1 111:1 122:1 135:1 155:1 170:1 184:1 206:1 213:1 258:1 296:1 383:1 474:1 519:1 571:1 650:1 712:1 766:1 853:1 
-0.050000000000000003 3:1 5:1 10:1 16:1 19:1 22:1 27:1 31:1 34:1 40:1 42:1 46:1 57:1 66:1 88:1 111:1 122:1 135:1 155:1 170:1 184:1 206:1 214:1 258:1 296:1 383:1 474:1 519:1 571:1 650:1 712:1 766:1 854:1 
0.050000000000000003 3:1 5:1 10:1 16:1 19:1 22:1 27:1 31:1 34:1 40:1 42:1 48:1 57:1 66:1 88:1 111:1 122:1 135:1 155:1 170:1 184:1 206:1 216:1 258:1 296:1 383:1 474:1 519:1 571:1 650:1 712:1 766:1 856:1 
-0.050000000000000003 3:1 5:1 10:1 16:1 19:1 22:1 27:1 31:1 34:1 40:1 43:1 46:1 57:1 66:1 88:1 111:1 122:1 135:1 155:1 170:1 184:1 207:1 218:1 258:1 296:1 383:1 474:1 519:1 571:1 650:1 712:1 767:1 858:1 
-0.050000000000000003 3:1 5:1 10:1 16:1 19:1 22:1 27:1 31:1 34:1 40:1 44:1 46:1 57:1 66:1 88:1 111:1 122:1 135:1 155:1 170:1 184:1 208:1 222:1 258:1 296:1 383:1 474:1 519:1 571:1 650:1 712:1 768:1 862:1 
0.050000000000000003 3:1 5:1 10:1 16:1 19:1 22:1 27:1 31:1 34:1 40:1 44:1 47:1 57:1 66:1 88:1 111:1 122:1 135:1 155:1 170:1 184:1 208:1 223:1 258:1 296:1 383:1 474:1 519:1 571:1 650:1 712:1 768:1 863:1 
0.050000000000000003 3:1 5:1 10:1 16:1 19:1 22:1 27:1 31:1 34:1 40:1 44:1 48:1 57:1 66:1 88:1 111:1 122:1 135:1 155:1 170:1 184:1 208:1 224:1 258:1 296:1 383:1 474:1 519:1 571:1 650:1 712:1 768:1 864:1 
0.050000000000000003 3:1 5:1 12:1 16:1 19:1 22:1 27:1 31:1 34:1 37:1 44:1 45:1 57:1 68:1 96:1 111:1 122:1 135:1 155:1 170:1 181:1 196:1 221:1 260:1 304:1 415:1 474:1 519:1 571:1 650:1 709:1 756:1 813:1 
-0.050000000000000003 3:1 5:1 12:1 16:1 19:1 22:1 27:1 31:1 34:1 40:1 43:1 47:1 57:1 68:1 96:1 111:1 122:1 135:1 155:1 170:1 184:1 207:1 219:1 260:1 304:1 415:1 474:1 519:1 571:1 650:1 712:1 767:1 859:1 
-0.050000000000000003 3:1 6:1 9:1 16:1 19:1 22:1 27:1 31:1 34:1 40:1 41:1 48:1 58:1 69:1 84:1 111:1 122:1 135:1 155:1 170:1 184:1 205:1 212:1 261:1 308:1 367:1 474:1 519:1 571:1 650:1 712:1 765:1 852:1 
-0.038466756787619301 3:1 6:1 9:1 16:1 19:1 22:1 27:1 31:1 34:1 40:1 43:1 46:1 58:1 69:1 84:1 111:1 122:1 135:1 155:1 170:1 184:1 207:1 218:1 261:1 308:1 367:1 474:1 519:1 571:1 650:1 712:1 767:1 858:1 
0.050000000000000003 3:1 6:1 9:1 16:1 19:1 22:1 27:1 31:1 34:1 40:1 43:1 48:1 58:1 69:1 84:1 111:1 122:1 135:1 155:1 170:1 184:1 207:1 220:1 261:1 308:1 367:1 474:1 519:1 571:1 650:1 712:1 767:1 860:1 
-0.050000000000000003 3:1 6:1 10:1 16:1 19:1 22:1 27:1 31:1 34:1 37:1 41:1 47:1 58:1 70:1 88:1 111:1 122:1 135:1 155:1 170:1 181:1 193:1 211:1 262:1 312:1 383:1 474:1 519:1 571:1 650:1 709:1 753:1 803:1 
0.050000000000000003 3:1 6:1 10:1 16:1 19:1 22:1 27:1 31:1 34:1 37:1 42:1 47:1 58:1 70:1 88:1 111:1 122:1 135:1 155:1 170:1 181:1 194:1 215:1 262:1 312:1 383:1 474:1 519:1 571:1 650:1 709:1 754:1 807:1 
0.050000000000000003 3:1 6:1 10:1 16:1 19:1 22:1 27:1 31:1 34:1 37:1 43:1 45:1 58:1 70:1 88:1 111:1 122:1 135:1 155:1 170:1 181:1 195:1 217:1 262:1 312:1 383:1 474:1 519:1 571:1 650:1 709:1 755:1 809:1 
-0.050000000000000003 3:1 6:1 10:1 16:1 19:1 22:1 27:1 31:1 34:1 37:1 43:1 46:1 58:1 70:1 88:1 111:1 122:1 135:1 155:1 170:1 181:1 195:1 218:1 262:1 312:1 383:1 474:1 519:1 571:1 650:1 709:1 755:1 810:1 
-0.050000000000000003 3:1 6:1 10:1 16:1 19:1 22:1 27:1 31:1 34:1 37:1 44:1 46:1 58:1 70:1 88:1 111:1 122:1 135:1 155:1 170:1 181:1 196:1 222:1 262:1 312:1 383:1 474:1 519:1 571:1 650:1 709:1 756:1 814:1 
-0.050000000000000003 3:1 6:1 10:1 16:1 19:1 22:1 27:1 31:1 34:1 37:1 44:1 47:1 58:1 70:1 88:1 111:1 122:1 135:1 155:1 170:1 181:1 196:1 223:1 262:1 312:1 383:1 474:1 519:1 571:1 650:1 709:1 756:1 815:1 
0.023795347280417347 3:1 6:1 10:1 16:1 19:1 22:1 27:1 31:1 34:1 37:1 44:1 48:1 58:1 70:1 88:1 111:1 122:1 135:1 155:1 170:1 181:1 196:1 224:1 262:1 312:1 383:1 474:1 519:1 571:1 650:1 709:1 756:1 816:1 
0.050000000000000003 3:1 6:1 10:1 16:1 19:1 22:1 27:1 31:1 34:1 38:1 41:1 47:1 58:1 70:1 88:1 111:1 122:1 135:1 155:1 170:1 182:1 197:1 211:1 262:1 312:1 383:1 474:1 519:1 571:1 650:1 710:1 757:1 819:1 
0.050000000000000003 3:1 6:1 10:1 16:1 19:1 22:1 27:1 31:1 34:1 38:1 42:1 45:1 58:1 70:1 88:1 111:1 122:1 135:1 155:1 170:1 182:1 198:1 213:1 262:1 312:1 383:1 474:1 519:1 571:1 650:1 710:1 758:1 821:1 
-0.050000000000000003 3:1 6:1 10:1 16:1 19:1 22:1 27:1 31:1 34:1 38:1 42:1 46:1 58:1 70:1 88:1 111:1 122:1 135:1 155:1 170:1 182:1 198:1 214:1 262:1 312:1 383:1 474:1 519:1 571:1 650:1 710:1 758:1 822:1 
-0.050000000000000003 3:1 6:1 10:1 16:1 19:1 22:1 27:1 31:1 34:1 38:1 42:1 47:1 58:1 70:1 88:1 111:1 122:1 135:1 155:1 170:1 182:1 198:1 215:1 262:1 312:1 383:1 474:1 519:1 571:1 650:1 710:1 758:1 823:1 
-0.050000000000000003 3:1 6:1 10:1 16:1 19:1 22:1 27:1 31:1 34:1 38:1 42:1 48:1 58:1 70:1 88:1 111:1 122:1 135:1 155:1 170:1 182:1 198:1 216:1 262:1 312:1 383:1 474:1 519:1 571:1 650:1 710:1 758:1 824:1 
0.021711632244028729 3:1 6:1 10:1 16:1 19:1 22:1 27:1 31:1 34:1 38:1 43:1 46:1 58:1 70:1 88:1 111:1 122:1 135:1 155:1 170:1 182:1 199:1 218:1 262:1 312:1 383:1 474:1 519:1 571:1 650:1 710:1 759:1 826:1 
-0.050000000000000003 3:1 6:1 10:1 16:1 19:1 22:1 27:1 31:1 34:1 38:1 43:1 48:1 58:1 70:1 88:1 111:1 122:1 135:1 155:1 170:1 182:1 199:1 220:1 262:1 312:1 383:1 474:1 519:1 571:1 650:1 710:1 759:1 828:1 
-0.050000000000000003 3:1 6:1 10:1 16:1 19:1 22:1 27:1 31:1 34:1 38:1 44:1 46:1 58:1 70:1 88:1 111:1 122:1 135:1 155:1 170:1 182:1 200:1 222:1 262:1 312:1 383:1 474:1 519:1 571:1 650:1 710:1 760:1 830:1 
-0.050000000000000003 3:1 6:1 10:1 16:1 19:1 22:1 27:1 31:1 34:1 38:1 44:1 47:1 58:1 70:1 88:1 111:1 122:1 135:1 155:1 170:1 182:1 200:1 223:1 262:1 312:1 383:1 474:1 519:1 571:1 650:1 710:1 760:1 831:1 
0.050000000000000003 3:1 6:1 10:1 16:1 19:1 22:1 27:1 31:1 34:1 38:1 44:1 48:1 58:1 70:1 88:1 111:1 122:1 135:1 155:1 170:1 182:1 200:1 224:1 262:1 312:1 383:1 474:1 519:1 571:1 650:1 710:1 760:1 832:1 
-0.050000000000000003 3:1 6:1 10:1 16:1 19:1 22:1 27:1 31:1 34:1 39:1 41:1 46:1 58:1 70:1 88:1 111:1 122:1 135:1 155:1 170:1 183:1 201:1 210:1 262:1 312:1 383:1 474:1 519:1 571:1 650:1 711:1 761:1 834:1 
0.050000000000000003 3:1 6:1 10:1 16:1 19:1 22:1 27:1 31:1 34:1 39:1 41:1 47:1 58:1 70:1 88:1 111:1 122:1 135:1 155:1 170:1 183:1 201:1 211:1 262:1 312:1 383:1 474:1 519:1 571:1 650:1 711:1 761:1 835:1 
0.050000000000000003 3:1 6:1 10:1 16:1 19:1 22:1 27:1 31:1 34:1 39:1 41:1 48:1 58:1 70:1 88:1 111:1 122:1 135:1 155:1 170:1 183:1 201:1 212:1 262:1 312:1 383:1 474:1 519:1 571:1 650:1 711:1 761:1 836:1 
0.050000000000000003 3:1 6:1 10:1 16:1 19:1 22:1 27:1 31:1 34:1 39:1 43:1 46:1 58:1 70:1 88:1 111:1 122:1 135:1 155:1 170:1 183:1 203:1 218:1 262:1 312:1 383:1 474:1 519:1 571:1 650:1 711:1 763:1 842:1 
0.050000000000000003 3:1 6:1 10:1 16:1 19:1 22:1 27:1 31:1 34:1 39:1 43:1 47:1 58:1 70:1 88:1 111:1 122:1 135:1 155:1 170:1 183:1 203:1 219:1 262:1 312:1 383:1 474:1 519:1 571:1 650:1 711:1 763:1 843:1 
0.050000000000000003 3:1 6:1 10:1 16:1 19:1 22:1 27:1 31:1 34:1 40:1 41:1 45:1 58:1 70:1 88:1 111:1 122:1 135:1 155:1 170:1 184:1 205:1 209:1 262:1 312:1 383:1 474:1 519:1 571:1 650:1 712:1 765:1 849:1 
0.050000000000000003 3:1 6:1 10:1 16:1 19:1 22:1 27:1 31:1 34:1 40:1 41:1 46:1 58:1 70:1 88:1 111:1 122:1 135:1 155:1 170:1 184:1 205:1 210:1 262:1 312:1 383:1 474:1 519:1 571:1 650:1 712:1 765:1 850:1 
-0.050000000000000003 3:1 6:1 10:1 16:1 19:1 22:1 27:1 31:1 34:1 40:1 41:1 48:1 58:1 70:1 88:1 111:1 122:1 135:1 155:1 170:1 184:1 205:1 212:1 262:1 312:1 383:1 474:1 519:1 571:1 650:1 712:1 765:1 852:1 
-0.050000000000000003 3:1 6:1 10:1 16:1 19:1 22:1 27:1 31:1 34:1 40:1 42:1 45:1 58:1 70:1 88:1 111:1 122:1 135:1 155:1 170:1 184:1 206:1 213:1 262:1 312:1 383:1 474:1 519:1 571:1 650:1 712:1 766:1 853:1 
-0.050000000000000003 3:1 6:1 10:1 16:1 19:1 22:1 27:1 31:1 34:1 40:1 43:1 45:1 58:1 70:1 88:1 111:1 122:1 135:1 155:1 170:1 184:1 207:1 217:1 262:1 312:1 383:1 474:1 519:1 571:1 650:1 712:1 767:1 857:1 
0.050000000000000003 3:1 6:1 10:1 16:1 19:1 22:1 27:1 31:1 34:1 40:1 43:1 47:1 58:1 70:1 88:1 111:1 122:1 135:1 155:1 170:1 184:1 207:1 219:1 262:1 312:1 383:1 474:1 519:1 571:1 650:1 712:1 767:1 859:1 
0.049995449617731683 3:1 6:1 10:1 16:1 19:1 22:1 27:1 31:1 34:1 40:1 44:1 45:1 58:1 70:1 88:1 111:1 122:1 135:1 155:1 170:1 184:1 208:1 221:1 262:1 312:1 383:1 474:1 519:1 571:1 650:1 712:1 768:1 861:1 
0.050000000000000003 3:1 6:1 10:1 16:1 19:1 22:1 27:1 31:1 34:1 40:1 44:1 47:1 58:1 70:1 88:1 111:1 122:1 135:1 155:1 170:1 184:1 208:1 223:1 262:1 312:1 383:1 474:1 519:1 571:1 650:1 712:1 768:1 863:1 
-0.050000000000000003 3:1 6:1 12:1 16:1 19:1 22:1 27:1 31:1 34:1 37:1 41:1 45:1 58:1 72:1 96:1 111:1 122:1 135:1 155:1 170:1 181:1 193:1 209:1 264:1 320:1 415:1 474:1 519:1 571:1 650:1 709:1 753:1 801:1 
0.036586432547086649 3:1 6:1 12:1 16:1 19:1 22:1 27:1 31:1 34:1 37:1 42:1 46:1 58:1 72:1 96:1 111:1 122:1 135:1 155:1 170:1 181:1 194:1 214:1 264:1 320:1 415:1 474:1 519:1 571:1 650:1 709:1 754:1 806:1 
0.050000000000000003 3:1 6:1 12:1 16:1 19:1 22:1 27:1 31:1 34:1 37:1 42:1 48:1 58:1 72:1 96:1 111:1 122:1 135:1 155:1 170:1 181:1 194:1 216:1 264:1 320:1 415:1 474:1 519:1 571:1 650:1 709:1 754:1 808:1 
-0.050000000000000003 3:1 6:1 12:1 16:1 19:1 22:1 27:1 31:1 34:1 37:1 43:1 47:1 58:1 72:1 96:1 111:1 122:1 135:1 155:1 170:1 181:1 195:1 219:1 264:1 320:1 415:1 474:1 519:1 571:1 650:1 709:1 755:1 811:1 
0.050000000000000003 3:1 6:1 12:1 16:1 19:1 22:1 27:1 31:1 34:1 38:1 42:1 46:1 58:1 72:1 96:1 111:1 122:1 135:1 155:1 170:1 182:1 198:1 214:1 264:1 320:1 415:1 474:1 519:1 571:1 650:1 710:1 758:1 822:1 
-0.050000000000000003 3:1 6:1 12:1 16:1 19:1 22:1 27:1 31:1 34:1 38:1 42:1 47:1 58:1 72:1 96:1 111:1 122:1 135:1 155:1 170:1 182:1 198:1 215:1 264:1 320:1 415:1 474:1 519:1 571:1 650:1 710:1 758:1 823:1 
0.050000000000000003 3:1 6:1 12:1 16:1 19:1 22:1 27:1 31:1 34:1 38:1 43:1 47:1 58:1 72:1 96:1 111:1 122:1 135:1 155:1 170:1 182:1 199:1 219:1 264:1 320:1 415:1 474:1 519:1 571:1 650:1 710:1 759:1 827:1 
-0.050000000000000003 3:1 6:1 12:1 16:1 19:1 22:1 27:1 31:1 34:1 39:1 42:1 46:1 58:1 72:1 96:1 111:1 122:1 135:1 155:1 170:1 183:1 202:1 214:1 264:1 320:1 415:1 474:1 519:1 571:1 650:1 711:1 762:1 838:1 
-0.011761228516340488 3:1 6:1 12:1 16:1 19:1 22:1 27:1 31:1 34:1 39:1 42:1 47:1 58:1 72:1 96:1 111:1 122:1 135:1 155:1 170:1 183:1 202:1 215:1 264:1 320:1 415:1 474:1 519:1 571:1 650:1 711:1 762:1 839:1 
-0.050000000000000003 3:1 6:1 12:1 16:1 19:1 22:1 27:1 31:1 34:1 39:1 43:1 47:1 58:1 72:1 96:1 111:1 122:1 135:1 155:1 170:1 183:1 203:1 219:1 264:1 320:1 415:1 474:1 519:1 571:1 650:1 711:1 763:1 843:1 
0.050000000000000003 3:1 6:1 12:1 16:1 19:1 22:1 27:1 31:1 34:1 40:1 43:1 46:1 58:1 72:1 96:1 111:1 122:1 135:1 155:1 170:1 184:1 207:1 218:1 264:1 320:1 415:1 474:1 519:1 571:1 650:1 712:1 767:1 858:1 
-0.050000000000000003 3:1 6:1 12:1 16:1 19:1 22:1 27:1 31:1 34:1 40:1 43:1 47:1 58:1 72:1 96:1 111:1 122:1 135:1 155:1 170:1 184:1 207:1 219:1 264:1 320:1 415:1 474:1 519:1 571:1 650:1 712:1 767:1 859:1 
0.050000000000000003 3:1 6:1 12:1 16:1 19:1 22:1 27:1 31:1 34:1 40:1 44:1 48:1 58:1 72:1 96:1 111:1 122:1 135:1 155:1 170:1 184:1 208:1 224:1 264:1 320:1 415:1 474:1 519:1 571:1 650:1 712:1 768:1 864:1 
0.050000000000000003 3:1 7:1 9:1 16:1 19:1 22:1 27:1 31:1 34:1 40:1 43:1 47:1 59:1 73:1 84:1 111:1 122:1 135:1 155:1 170:1 184:1 207:1 219:1 265:1 324:1 367:1 474:1 519:1 571:1 650:1 712:1 767:1 859:1 
-0.050000000000000003 3:1 7:1 9:1 16:1 19:1 22:1 27:1 31:1 34:1 40:1 44:1 46:1 59:1 73:1 84:1 111:1 122:1 135:1 155:1 170:1 184:1 208:1 222:1 265:1 324:1 367:1 474:1 519:1 571:1 650:1 712:1 768:1 862:1 
-0.050000000000000003 3:1 7:1 9:1 16:1 19:1 22:1 27:1 31:1 34:1 40:1 44:1 47:1 59:1 73:1 84:1 111:1 122:1 135:1 155:1 170:1 184:1 208:1 223:1 265:1 324:1 367:1 474:1 519:1 571:1 650:1 712:1 768:1 863:1 
0.050000000000000003 3:1 7:1 9:1 16:1 19:1 22:1 27:1 31:1 34:1 40:1 44:1 48:1 59:1 73:1 84:1 111:1 122:1 135:1 155:1 170:1 184:1 208:1 224:1 265:1 324:1 367:1 474:1 519:1 571:1 650:1 712:1 768:1 864:1 
-0.050000000000000003 3:1 7:1 10:1 16:1 19:1 22:1 27:1 31:1 34:1 37:1 42:1 45:1 59:1 74:1 88:1 111:1 122:1 135:1 155:1 170:1 181:1 194:1 213:1 266:1 328:1 383:1 474:1 519:1 571:1 650:1 709:1 754:1 805:1 
-0.050000000000000003 3:1 7:1 10:1 16:1 19:1 22:1 27:1 31:1 34:1 37:1 42:1 46:1 59:1 74:1 88:1 111:1 122:1 135:1 155:1 170:1 181:1 194:1 214:1 266:1 328:1 383:1 474:1 519:1 571:1 650:1 709:1 754:1 806:1 
0.021593461127656758 3:1 7:1 10:1 16:1 19:1 22:1 27:1 31:1 34:1 37:1 42:1 47:1 59:1 74:1 88:1 111:1 122:1 135:1 155:1 170:1 181:1 194:1 215:1 266:1 328:1 383:1 474:1 519:1 571:1 650:1 709:1 754:1 807:1 
-0.050000000000000003 3:1 7:1 10:1 16:1 19:1 22:1 27:1 31:1 34:1 37:1 43:1 45:1 59:1 74:1 88:1 111:1 122:1 135:1 155:1 170:1 181:1 195:1 217:1 266:1 328:1 383:1 474:1 519:1 571:1 650:1 709:1 755:1 809:1 
-0.050000000000000003 3:1 7:1 10:1 16:1 19:1 22:1 27:1 31:1 34:1 37:1 43:1 46:1 59:1 74:1 88:1 111:1 122:1 135:1 155:1 170:1 181:1 195:1 218:1 266:1 328:1 383:1 474:1 519:1 571:1 650:1 709:1 755:1 810:1 
-0.050000000000000003 3:1 7:1 10:1 16:1 19:1 22:1 27:1 31:1 34:1 37:1 43:1 47:1 59:1 74:1 88:1 111:1 122:1 135:1 155:1 170:1 181:1 195:1 219:1 266:1 328:1 383:1 474:1 519:1 571:1 650:1 709:1 755:1 811:1 
-0.050000000000000003 3:1 7:1 10:1 16:1 19:1 22:1 27:1 31:1 34:1 37:1 43:1 48:1 59:1 74:1 88:1 111:1 122:1 135:1 155:1 170:1 181:1 195:1 220:1 266:1 328:1 383:1 474:1 519:1 571:1 650:1 709:1 755:1 812:1 
-0.050000000000000003 3:1 7:1 10:1 16:1 19:1 22:1 27:1 31:1 34:1 38:1 41:1 45:1 59:1 74:1 88:1 111:1 122:1 135:1 155:1 170:1 182:1 197:1 209:1 266:1 328:1 383:1 474:1 519:1 571:1 650:1 710:1 757:1 817:1 
-0.050000000000000003 3:1 7:1 10:1 16:1 19:1 22:1 27:1 31:1 34:1 38:1 41:1 47:1 59:1 74:1 88:1 111:1 122:1 135:1 155:1 170:1 182:1 197:1 211:1 266:1 328:1 383:1 474:1 519:1 571:1 650:1 710:1 757:1 819:1 
0.050000000000000003 3:1 7:1 10:1 16:1 19:1 22:1 27:1 31:1 34:1 38:1 41:1 48:1 59:1 74:1 88:1 111:1 122:1 135:1 155:1 170:1 182:1 197:1 212:1 266:1 328:1 383:1 474:1 519:1 571:1 650:1 710:1 757:1 820:1 
-0.050000000000000003 3:1 7:1 10:1 16:1 19:1 22:1 27:1 31:1 34:1 38:1 42:1 45:1 59:1 74:1 88:1 111:1 122:1 135:1 155:1 170:1 182:1 198:1 213:1 266:1 328:1 383:1 474:1 519:1 571:1 650:1 710:1 758:1 821:1 
-0.029068750251719115 3:1 7:1 10:1 16:1 19:1 22:1 27:1 31:1 34:1 38:1 42:1 47:1 59:1 74:1 88:1 111:1 122:1 135:1 155:1 170:1 182:1 198:1 215:1 266:1 328:1 383:1 474:1 519:1 571:1 650:1 710:1 758:1 823:1 
-0.0038900157699389196 3:1 7:1 10:1 16:1 19:1 22:1 27:1 31:1 34:1 38:1 43:1 48:1 59:1 74:1 88:1 111:1 122:1 135:1 155:1 170:1 182:1 199:1 220:1 266:1 328:1 383:1 474:1 519:1 571:1 650:1 710:1 759:1 828:1 
-0.050000000000000003 3:1 7:1 10:1 16:1 19:1 22:1 27:1 31:1 34:1 38:1 44:1 46:1 59:1 74:1 88:1 111:1 122:1 135:1 155:1 170:1 182:1 200:1 222:1 266:1 328:1 383:1 474:1 519:1 571:1 650:1 710:1 760:1 830:1 
0.050000000000000003 3:1 7:1 10:1 16:1 19:1 22:1 27:1 31:1 34:1 38:1 44:1 47:1 59:1 74:1 88:1 111:1 122:1 135:1 155:1 170:1 182:1 200:1 223:1 266:1 328:1 383:1 474:1 519:1 571:1 650:1 710:1 760:1 831:1 
0.050000000000000003 3:1 7:1 10:1 16:1 19:1 22:1 27:1 31:1 34:1 39:1 41:1 46:1 59:1 74:1 88:1 111:1 122:1 135:1 155:1 170:1 183:1 201:1 210:1 266:1 328:1 383:1 474:1 519:1 571:1 650:1 711:1 761:1 834:1 
-0.050000000000000003 3:1 7:1 10:1 16:1 19:1 22:1 27:1 31:1 34:1 39:1 41:1 47:1 59:1 74:1 88:1 111:1 122:1 135:1 155:1 170:1 183:1 201:1 211:1 266:1 328:1 383:1 474:1 519:1 571:1 650:1 711:1 761:1 835:1 
-0.050000000000000003 3:1 7:1 10:1 16:1 19:1 22:1 27:1 31:1 34:1 39:1 41:1 48:1 59:1 74:1 88:1 111:1 122:1 135:1 155:1 170:1 183:1 201:1 212:1 266:1 328:1 383:1 474:1 519:1 571:1 650:1 711:1 761:1 836:1 
-0.050000000000000003 3:1 7:1 10:1 16:1 19:1 22:1 27:1 31:1 34:1 39:1 42:1 46:1 59:1 74:1 88:1 111:1 122:1 135:1 155:1 170:1 183:1 202:1 214:1 266:1 328:1 383:1 474:1 519:1 571:1 650:1 711:1 762:1 838:1 
0.050000000000000003 3:1 7:1 10:1 16:1 19:1 22:1 27:1 31:1 34:1 39:1 42:1 47:1 59:1 74:1 88:1 111:1 122:1 135:1 155:1 170:1 183:1 202:1 215:1 266:1 328:1 383:1 474:1 519:1 571:1 650:1 711:1 762:1 839:1 
0.050000000000000003 3:1 7:1 10:1 16:1 19:1 22:1 27:1 31:1 34:1 39:1 43:1 45:1 59:1 74:1 88:1 111:1 122:1 135:1 155:1 170:1 183:1 203:1 217:1 266:1 328:1 383:1 474:1 519:1 571:1 650:1 711:1 763:1 841:1 
0.050000000000000003 3:1 7:1 10:1 16:1 19:1 22:1 27:1 31:1 34:1 39:1 43:1 46:1 59:1 74:1 88:1 111:1 122:1 135:1 155:1 170:1 183:1 203:1 218:1 266:1 328:1 383:1 474:1 519:1 571:1 650:1 711:1 763:1 842:1 
0.028984601419568958 3:1 7:1 10:1 16:1 19:1 22:1 27:1 31:1 34:1 39:1 43:1 47:1 59:1 74:1 88:1 111:1 122:1 135:1 155:1 170:1 183:1 203:1 219:1 266:1 328:1 383:1 474:1 519:1 571:1 650:1 711:1 763:1 843:1 
0.050000000000000003 3:1 7:1 10:1 16:1 19:1 22:1 27:1 31:1 34:1 39:1 43:1 48:1 59:1 74:1 88:1 111:1 122:1 135:1 155:1 170:1 183:1 203:1 220:1 266:1 328:1 383:1 474:1 519:1 571:1 650:1 711:1 763:1 844:1 
0.050000000000000003 3:1 7:1 10:1 16:1 19:1 22:1 27:1 31:1 34:1 39:1 44:1 45:1 59:1 74:1 88:1 111:1 122:1 135:1 155:1 170:1 183:1 204:1 221:1 266:1 328:1 383:1 474:1 519:1 571:1 650:1 711:1 764:1 845:1 
0.050000000000000003 3:1 7:1 10:1 16:1 19:1 22:1 27:1 31:1 34:1 39:1 44:1 47:1 59:1 74:1 88:1 111:1 122:1 135:1 155:1 170:1 183:1 204:1 223:1 266:1 328:1 383:1 474:1 519:1 571:1 650:1 711:1 764:1 847:1 
-0.050000000000000003 3:1 7:1 10:1 16:1 19:1 22:1 27:1 31:1 34:1 40:1 41:1 46:1 59:1 74:1 88:1 111:1 122:1 135:1 155:1 170:1 184:1 205:1 210:1 266:1 328:1 383:1 474:1 519:1 571:1 650:1 712:1 765:1 850:1 
0.050000000000000003 3:1 7:1 10:1 16:1 19:1 22:1 27:1 31:1 34:1 40:1 41:1 47:1 59:1 74:1 88:1 111:1 122:1 135:1 155:1 170:1 184:1 205:1 211:1 266:1 328:1 383:1 474:1 519:1 571:1 650:1 712:1 765:1 851:1 
0.050000000000000003 3:1 7:1 10:1 16:1 19:1 22:1 27:1 31:1 34:1 40:1 42:1 46:1 59:1 74:1 88:1 111:1 122:1 135:1 155:1 170:1 184:1 206:1 214:1 266:1 328:1 383:1 474:1 519:1 571:1 650:1 712:1 766:1 854:1 
-0.050000000000000003 3:1 7:1 10:1 16:1 19:1 22:1 27:1 31:1 34:1 40:1 42:1 47:1 59:1 74:1 88:1 111:1 122:1 135:1 155:1 170:1 184:1 206:1 215:1 266:1 328:1 383:1 474:1 519:1 571:1 650:1 712:1 766:1 855:1 
0.050000000000000003 3:1 7:1 10:1 16:1 19:1 22:1 27:1 31:1 34:1 40:1 42:1 48:1 59:1 74:1 88:1 111:1 122:1 135:1 155:1 170:1 184:1 206:1 216:1 266:1 328:1 383:1 474:1 519:1 571:1 650:1 712:1 766:1 856:1 
0.050000000000000003 3:1 7:1 10:1 16:1 19:1 22:1 27:1 31:1 34:1 40:1 43:1 45:1 59:1 74:1 88:1 111:1 122:1 135:1 155:1 170:1 184:1 207:1 217:1 266:1 328:1 383:1 474:1 519:1 571:1 650:1 712:1 767:1 857:1 
0.050000000000000003 3:1 7:1 10:1 16:1 19:1 22:1 27:1 31:1 34:1 40:1 43:1 47:1 59:1 74:1 88:1 111:1 122:1 135:1 155:1 170:1 184:1 207:1 219:1 266:1 328:1 383:1 474:1 519:1 571:1 650:1 712:1 767:1 859:1 
-0.050000000000000003 3:1 7:1 10:1 16:1 19:1 22:1 27:1 31:1 34:1 40:1 44:1 45:1 59:1 74:1 88:1 111:1 122:1 135:1 155:1 170:1 184:1 208:1 221:1 266:1 328:1 383:1 474:1 519:1 571:1 650:1 712:1 768:1 861:1 
0.050000000000000003 3:1 7:1 10:1 16:1 19:1 22:1 27:1 31:1 34:1 40:1 44:1 46:1 59:1 74:1 88:1 111:1 122:1 135:1 155:1 170:1 184:1 208:1 222:1 266:1 328:1 383:1 474:1 519:1 571:1 650:1 712:1 768:1 862:1 
0.050000000000000003 3:1 7:1 10:1 16:1 19:1 22:1 27:1 31:1 34:1 40:1 44:1 47:1 59:1 74:1 88:1 111:1 122:1 135:1 155:1 170:1 184:1 208:1 223:1 266:1 328:1 383:1 474:1 519:1 571:1 650:1 712:1 768:1 863:1 
0.050000000000000003 3:1 7:1 12:1 16:1 19:1 22:1 27:1 31:1 34:1 37:1 41:1 45:1 59:1 76:1 96:1 111:1 122:1 135:1 155:1 170:1 181:1 193:1 209:1 268:1 336:1 415:1 474:1 519:1 571:1 650:1 709:1 753:1 801:1 
-0.0078022225826292662 3:1 7:1 12:1 16:1 19:1 22:1 27:1 31:1 34:1 37:1 43:1 48:1 59:1 76:1 96:1 111:1 122:1 135:1 155:1 170:1 181:1 195:1 220:1 268:1 336:1 415:1 474:1 519:1 571:1 650:1 709:1 755:1 812:1 
-0.050000000000000003 3:1 7:1 12:1 16:1 19:1 22:1 27:1 31:1 34:1 38:1 41:1 48:1 59:1 76:1 96:1 111:1 122:1 135:1 155:1 170:1 182:1 197:1 212:1 268:1 336:1 415:1 474:1 519:1 571:1 650:1 710:1 757:1 820:1 
-0.050000000000000003 3:1 7:1 12:1 16:1 19:1 22:1 27:1 31:1 34:1 38:1 42:1 46:1 59:1 76:1 96:1 111:1 122:1 135:1 155:1 170:1 182:1 198:1 214:1 268:1 336:1 415:1 474:1 519:1 571:1 650:1 710:1 758:1 822:1 
-0.050000000000000003 3:1 7:1 12:1 16:1 19:1 22:1 27:1 31:1 34:1 38:1 42:1 48:1 59:1 76:1 96:1 111:1 122:1 135:1 155:1 170:1 182:1 198:1 216:1 268:1 336:1 415:1 474:1 519:1 571:1 650:1 710:1 758:1 824:1 
-0.050000000000000003 3:1 7:1 12:1 16:1 19:1 22:1 27:1 31:1 34:1 38:1 44:1 46:1 59:1 76:1 96:1 111:1 122:1 135:1 155:1 170:1 182:1 200:1 222:1 268:1 336:1 415:1 474:1 519:1 571:1 650:1 710:1 760:1 830:1 
-0.050000000000000003 3:1 7:1 12:1 16:1 19:1 22:1 27:1 31:1 34:1 39:1 41:1 47:1 59:1 76:1 96:1 111:1 122:1 135:1 155:1 170:1 183:1 201:1 211:1 268:1 336:1 415:1 474:1 519:1 571:1 650:1 711:1 761:1 835:1 
0.050000000000000003 3:1 7:1 12:1 16:1 19:1 22:1 27:1 31:1 34:1 39:1 42:1 45:1 59:1 76:1 96:1 111:1 122:1 135:1 155:1 170:1 183:1 202:1 213:1 268:1 336:1 415:1 474:1 519:1 571:1 650:1 711:1 762:1 837:1 
-0.050000000000000003 3:1 7:1 12:1 16:1 19:1 22:1 27:1 31:1 34:1 39:1 43:1 45:1 59:1 76:1 96:1 111:1 122:1 135:1 155:1 170:1 183:1 203:1 217:1 268:1 336:1 415:1 474:1 519:1 571:1 650:1 711:1 763:1 841:1 
0.050000000000000003 3:1 7:1 12:1 16:1 19:1 22:1 27:1 31:1 34:1 39:1 43:1 46:1 59:1 76:1 96:1 111:1 122:1 135:1 155:1 170:1 183:1 203:1 218:1 268:1 336:1 415:1 474:1 519:1 571:1 650:1 711:1 763:1 842:1 
0.050000000000000003 3:1 7:1 12:1 16:1 19:1 22:1 27:1 31:1 34:1 39:1 43:1 47:1 59:1 76:1 96:1 111:1 122:1 135:1 155:1 170:1 183:1 203:1 219:1 268:1 336:1 415:1 474:1 519:1 571:1 650:1 711:1 763:1 843:1 
0.050000000000000003 3:1 7:1 12:1 16:1 19:1 22:1 27:1 31:1 34:1 40:1 42:1 45:1 59:1 76:1 96:1 111:1 122:1 135:1 155:1 170:1 184:1 206:1 213:1 268:1 336:1 415:1 474:1 519:1 571:1 650:1 712:1 766:1 853:1 
0.050000000000000003 3:1 7:1 12:1 16:1 19:1 22:1 27:1 31:1 34:1 40:1 42:1 46:1 59:1 76:1 96:1 111:1 122:1 135:1 155:1 170:1 184:1 206:1 214:1 268:1 336:1 415:1 474:1 519:1 571:1 650:1 712:1 766:1 854:1 
0.050000000000000003 3:1 7:1 12:1 16:1 19:1 22:1 27:1 31:1 34:1 40:1 43:1 46:1 59:1 76:1 96:1 111:1 122:1 135:1 155:1 170:1 184:1 207:1 218:1 268:1 336:1 415:1 474:1 519:1 571:1 650:1 712:1 767:1 858:1 
-0.050000000000000003 3:1 7:1 12:1 16:1 19:1 22:1 27:1 31:1 34:1 40:1 43:1 47:1 59:1 76:1 96:1 111:1 122:1 135:1 155:1 170:1 184:1 207:1 219:1 268:1 336:1 415:1 474:1 519:1 571:1 650:1 712:1 767:1 859:1 
0.03432260570875665 3:1 7:1 12:1 16:1 19:1 22:1 27:1 31:1 34:1 40:1 44:1 48:1 59:1 76:1 96:1 111:1 122:1 135:1 155:1 170:1 184:1 208:1 224:1 268:1 336:1 415:1 474:1 519:1 571:1 650:1 712:1 768:1 864:1 
0.03824614146138211 3:1 8:1 9:1 16:1 19:1 22:1 27:1 31:1 34:1 40:1 41:1 45:1 60:1 77:1 84:1 111:1 122:1 135:1 155:1 170:1 184:1 205:1 209:1 269:1 340:1 367:1 474:1 519:1 571:1 650:1 712:1 765:1 849:1 
-0.050000000000000003 3:1 8:1 10:1 16:1 19:1 22:1 27:1 31:1 34:1 37:1 41:1 48:1 60:1 78:1 88:1 111:1 122:1 135:1 155:1 170:1 181:1 193:1 212:1 270:1 344:1 383:1 474:1 519:1 571:1 650:1 709:1 753:1 804:1 
-0.044034187592103147 3:1 8:1 10:1 16:1 19:1 22:1 27:1 31:1 34:1 37:1 43:1 45:1 60:1 78:1 88:1 111:1 122:1 135:1 155:1 170:1 181:1 195:1 217:1 270:1 344:1 383:1 474:1 519:1 571:1 650:1 709:1 755:1 809:1 
-0.008640605337533077 3:1 8:1 10:1 16:1 19:1 22:1 27:1 31:1 34:1 37:1 43:1 46:1 60:1 78:1 88:1 111:1 122:1 135:1 155:1 170:1 181:1 195:1 218:1 270:1 344:1 383:1 474:1 519:1 571:1 650:1 709:1 755:1 810:1 
0.050000000000000003 3:1 8:1 10:1 16:1 19:1 22:1 27:1 31:1 34:1 37:1 43:1 47:1 60:1 78:1 88:1 111:1 122:1 135:1 155:1 170:1 181:1 195:1 219:1 270:1 344:1 383:1 474:1 519:1 571:1 650:1 709:1 755:1 811:1 
0.050000000000000003 3:1 8:1 10:1 16:1 19:1 22:1 27:1 31:1 34:1 38:1 41:1 46:1 60:1 78:1 88:1 111:1 122:1 135:1 155:1 170:1 182:1 197:1 210:1 270:1 344:1 383:1 474:1 519:1 571:1 650:1 710:1 757:1 818:1 
0.0036091048545138843 3:1 8:1 10:1 16:1 19:1 22:1 27:1 31:1 34:1 38:1 42:1 46:1 60:1 78:1 88:1 111:1 122:1 135:1 155:1 170:1 182:1 198:1 214:1 270:1 344:1 383:1 474:1 519:1 571:1 650:1 710:1 758:1 822:1 
0.050000000000000003 3:1 8:1 10:1 16:1 19:1 22:1 27:1 31:1 34:1 38:1 43:1 48:1 60:1 78:1 88:1 111:1 122:1 135:1 155:1 170:1 182:1 199:1 220:1 270:1 344:1 383:1 474:1 519:1 571:1 650:1 710:1 759:1 828:1 
-0.050000000000000003 3:1 8:1 10:1 16:1 19:1 22:1 27:1 31:1 34:1 38:1 44:1 47:1 60:1 78:1 88:1 111:1 122:1 135:1 155:1 170:1 182:1 200:1 223:1 270:1 344:1 383:1 474:1 519:1 571:1 650:1 710:1 760:1 831:1 
-0.050000000000000003 3:1 8:1 10:1 16:1 19:1 22:1 27:1 31:1 34:1 38:1 44:1 48:1 60:1 78:1 88:1 111:1 122:1 135:1 155:1 170:1 182:1 200:1 224:1 270:1 344:1 383:1 474:1 519:1 571:1 650:1 710:1 760:1 832:1 
-0.050000000000000003 3:1 8:1 10:1 16:1 19:1 22:1 27:1 31:1 34:1 39:1 41:1 45:1 60:1 78:1 88:1 111:1 122:1 135:1 155:1 170:1 183:1 201:1 209:1 270:1 344:1 383:1 474:1 519:1 571:1 650:1 711:1 761:1 833:1 
0.050000000000000003 3:1 8:1 10:1 16:1 19:1 22:1 27:1 31:1 34:1 39:1 41:1 47:1 60:1 78:1 88:1 111:1 122:1 135:1 155:1 170:1 183:1 201:1 211:1 270:1 344:1 383:1 474:1 519:1 571:1 650:1 711:1 761:1 835:1 
-0.050000000000000003 3:1 8:1 10:1 16:1 19:1 22:1 27:1 31:1 34:1 39:1 42:1 46:1 60:1 78:1 88:1 111:1 122:1 135:1 155:1 170:1 183:1 202:1 214:1 270:1 344:1 383:1 474:1 519:1 571:1 650:1 711:1 762:1 838:1 
-0.050000000000000003 3:1 8:1 10:1 16:1 19:1 22:1 27:1 31:1 34:1 39:1 43:1 45:1 60:1 78:1 88:1 111:1 122:1 135:1 155:1 170:1 183:1 203:1 217:1 270:1 344:1 383:1 474:1 519:1 571:1 650:1 711:1 763:1 841:1 
0.050000000000000003 3:1 8:1 10:1 16:1 19:1 22:1 27:1 31:1 34:1 39:1 43:1 46:1 60:1 78:1 88:1 111:1 122:1 135:1 155:1 170:1 183:1 203:1 218:1 270:1 344:1 383:1 474:1 519:1 571:1 650:1 711:1 763:1 842:1 
0.050000000000000003 3:1 8:1 10:1 16:1 19:1 22:1 27:1 31:1 34:1 39:1 44:1 46:1 60:1 78:1 88:1 111:1 122:1 135:1 155:1 170:1 183:1 204:1 222:1 270:1 344:1 383:1 474:1 519:1 571:1 650:1 711:1 764:1 846:1 
-0.050000000000000003 3:1 8:1 10:1 16:1 19:1 22:1 27:1 31:1 34:1 40:1 41:1 46:1 60:1 78:1 88:1 111:1 122:1 135:1 155:1 170:1 184:1 205:1 210:1 270:1 344:1 383:1 474:1 519:1 571:1 650:1 712:1 765:1 850:1 
0.050000000000000003 3:1 8:1 10:1 16:1 19:1 22:1 27:1 31:1 34:1 40:1 42:1 45:1 60:1 78:1 88:1 111:1 122:1 135:1 155:1 170:1 184:1 206:1 213:1 270:1 344:1 383:1 474:1 519:1 571:1 650:1 712:1 766:1 853:1 
-0.050000000000000003 3:1 8:1 10:1 16:1 19:1 22:1 27:1 31:1 34:1 40:1 42:1 46:1 60:1 78:1 88:1 111:1 122:1 135:1 155:1 170:1 184:1 206:1 214:1 270:1 344:1 383:1 474:1 519:1 571:1 650:1 712:1 766:1 854:1 
0.050000000000000003 3:1 8:1 10:1 16:1 19:1 22:1 27:1 31:1 34:1 40:1 42:1 48:1 60:1 78:1 88:1 111:1 122:1 135:1 155:1 170:1 184:1 206:1 216:1 270:1 344:1 383:1 474:1 519:1 571:1 650:1 712:1 766:1 856:1 
0.050000000000000003 3:1 8:1 10:1 16:1 19:1 22:1 27:1 31:1 34:1 40:1 43:1 46:1 60:1 78:1 88:1 111:1 122:1 135:1 155:1 170:1 184:1 207:1 218:1 270:1 344:1 383:1 474:1 519:1 571:1 650:1 712:1 767:1 858:1 
-0.050000000000000003 3:1 8:1 10:1 16:1 19:1 22:1 27:1 31:1 34:1 40:1 44:1 47:1 60:1 78:1 88:1 111:1 122:1 135:1 155:1 170:1 184:1 208:1 223:1 270:1 344:1 383:1 474:1 519:1 571:1 650:1 712:1 768:1 863:1 
0.050000000000000003 3:1 8:1 10:1 16:1 19:1 22:1 27:1 31:1 34:1 40:1 44:1 48:1 60:1 78:1 88:1 111:1 122:1 135:1 155:1 170:1 184:1 208:1 224:1 270:1 344:1 383:1 474:1 519:1 571:1 650:1 712:1 768:1 864:1 
-0.050000000000000003 3:1 8:1 12:1 16:1 19:1 22:1 27:1 31:1 34:1 37:1 42:1 45:1 60:1 80:1 96:1 111:1 122:1 135:1 155:1 170:1 181:1 194:1 213:1 272:1 352:1 415:1 474:1 519:1 571:1 650:1 709:1 754:1 805:1 
0.050000000000000003 3:1 8:1 12:1 16:1 19:1 22:1 27:1 31:1 34:1 37:1 42:1 48:1 60:1 80:1 96:1 111:1 122:1 135:1 155:1 170:1 181:1 194:1 216:1 272:1 352:1 415:1 474:1 519:1 571:1 650:1 709:1 754:1 808:1 
0.050000000000000003 3:1 8:1 12:1 16:1 19:1 22:1 27:1 31:1 34:1 37:1 43:1 45:1 60:1 80:1 96:1 111:1 122:1 135:1 155:1 170:1 181:1 195:1 217:1 272:1 352:1 415:1 474:1 519:1 571:1 650:1 709:1 755:1 809:1 
0.050000000000000003 3:1 8:1 12:1 16:1 19:1 22:1 27:1 31:1 34:1 37:1 43:1 47:1 60:1 80:1 96:1 111:1 122:1 135:1 155:1 170:1 181:1 195:1 219:1 272:1 352:1 415:1 474:1 519:1 571:1 650:1 709:1 755:1 811:1 
-0.050000000000000003 3:1 8:1 12:1 16:1 19:1 22:1 27:1 31:1 34:1 38:1 43:1 46:1 60:1 80:1 96:1 111:1 122:1 135:1 155:1 170:1 182:1 199:1 218:1 272:1 352:1 415:1 474:1 519:1 571:1 650:1 710:1 759:1 826:1 
-0.050000000000000003 3:1 8:1 12:1 16:1 19:1 22:1 27:1 31:1 34:1 38:1 43:1 47:1 60:1 80:1 96:1 111:1 122:1 135:1 155:1 170:1 182:1 199:1 219:1 272:1 352:1 415:1 474:1 519:1 571:1 650:1 710:1 759:1 827:1 
-0.050000000000000003 3:1 8:1 12:1 16:1 19:1 22:1 27:1 31:1 34:1 38:1 44:1 48:1 60:1 80:1 96:1 111:1 122:1 135:1 155:1 170:1 182:1 200:1 224:1 272:1 352:1 415:1 474:1 519:1 571:1 650:1 710:1 760:1 832:1 
0.050000000000000003 3:1 8:1 12:1 16:1 19:1 22:1 27:1 31:1 34:1 39:1 41:1 47:1 60:1 80:1 96:1 111:1 122:1 135:1 155:1 170:1 183:1 201:1 211:1 272:1 352:1 415:1 474:1 519:1 571:1 650:1 711:1 761:1 835:1 
-0.050000000000000003 3:1 8:1 12:1 16:1 19:1 22:1 27:1 31:1 34:1 39:1 42:1 48:1 60:1 80:1 96:1 111:1 122:1 135:1 155:1 170:1 183:1 202:1 216:1 272:1 352:1 415:1 474:1 519:1 571:1 650:1 711:1 762:1 840:1 
0.050000000000000003 3:1 8:1 12:1 16:1 19:1 22:1 27:1 31:1 34:1 39:1 43:1 46:1 60:1 80:1 96:1 111:1 122:1 135:1 155:1 170:1 183:1 203:1 218:1 272:1 352:1 415:1 474:1 519:1 571:1 650:1 711:1 763:1 842:1 
0.050000000000000003 3:1 8:1 12:1 16:1 19:1 22:1 27:1 31:1 34:1 40:1 41:1 47:1 60:1 80:1 96:1 111:1 122:1 135:1 155:1 170:1 184:1 205:1 211:1 272:1 352:1 415:1 474:1 519:1 571:1 650:1 712:1 765:1 851:1 
-0.050000000000000003 3:1 8:1 12:1 16:1 19:1 22:1 27:1 31:1 34:1 40:1 42:1 47:1 60:1 80:1 96:1 111:1 122:1 135:1 155:1 170:1 184:1 206:1 215:1 272:1 352:1 415:1 474:1 519:1 571:1 650:1 712:1 766:1 855:1 
0.050000000000000003 3:1 8:1 12:1 16:1 19:1 22:1 27:1 31:1 34:1 40:1 42:1 48:1 60:1 80:1 96:1 111:1 122:1 135:1 155:1 170:1 184:1 206:1 216:1 272:1 352:1 415:1 474:1 519:1 571:1 650:1 712:1 766:1 856:1 
0.050000000000000003 3:1 8:1 12:1 16:1 19:1 22:1 27:1 31:1 34:1 40:1 43:1 46:1 60:1 80:1 96:1 111:1 122:1 135:1 155:1 170:1 184:1 207:1 218:1 272:1 352:1 415:1 474:1 519:1 571:1 650:1 712:1 767:1 858:1 
-0.050000000000000003 3:1 8:1 12:1 16:1 19:1 22:1 27:1 31:1 34:1 40:1 44:1 46:1 60:1 80:1 96:1 111:1 122:1 135:1 155:1 170:1 184:1 208:1 222:1 272:1 352:1 415:1 474:1 519:1 571:1 650:1 712:1 768:1 862:1 
-0.050000000000000003 3:1 8:1 12:1 16:1 19:1 22:1 27:1 31:1 34:1 40:1 44:1 48:1 60:1 80:1 96:1 111:1 122:1 135:1 155:1 170:1 184:1 208:1 224:1 272:1 352:1 415:1 474:1 519:1 571:1 650:1 712:1 768:1 864:1 
-0.050000000000000003 4:1 5:1 10:1 14:1 19:1 22:1 27:1 31:1 34:1 40:1 41:1 47:1 61:1 66:1 86:1 103:1 122:1 135:1 155:1 170:1 184:1 205:1 211:1 274:1 294:1 375:1 442:1 519:1 571:1 650:1 712:1 765:1 851:1 
-0.050000000000000003 4:1 5:1 10:1 16:1 19:1 22:1 27:1 31:1 34:1 37:1 44:1 45:1 61:1 66:1 88:1 111:1 122:1 135:1 155:1 170:1 181:1 196:1 221:1 274:1 296:1 383:1 474:1 519:1 571:1 650:1 709:1 756:1 813:1 
-0.050000000000000003 4:1 5:1 10:1 16:1 19:1 22:1 27:1 31:1 34:1 38:1 41:1 47:1 61:1 66:1 88:1 111:1 122:1 135:1 155:1 170:1 182:1 197:1 211:1 274:1 296:1 383:1 474:1 519:1 571:1 650:1 710:1 757:1 819:1 
0.050000000000000003 4:1 5:1 10:1 16:1 19:1 22:1 27:1 31:1 34:1 38:1 42:1 47:1 61:1 66:1 88:1 111:1 122:1 135:1 155:1 170:1 182:1 198:1 215:1 274:1 296:1 383:1 474:1 519:1 571:1 650:1 710:1 758:1 823:1 
0.050000000000000003 4:1 5:1 10:1 16:1 19:1 22:1 27:1 31:1 34:1 38:1 42:1 48:1 61:1 66:1 88:1 111:1 122:1 135:1 155:1 170:1 182:1 198:1 216:1 274:1 296:1 383:1 474:1 519:1 571:1 650:1 710:1 758:1 824:1 
0.050000000000000003 4:1 5:1 10:1 16:1 19:1 22:1 27:1 31:1 34:1 39:1 42:1 47:1 61:1 66:1 88:1 111:1 122:1 135:1 155:1 170:1 183:1 202:1 215:1 274:1 296:1 383:1 474:1 519:1 571:1 650:1 711:1 762:1 839:1 
-0.050000000000000003 4:1 5:1 10:1 16:1 19:1 22:1 27:1 31:1 34:1 39:1 43:1 45:1 61:1 66:1 88:1 111:1 122:1 135:1 155:1 170:1 183:1 203:1 217:1 274:1 296:1 383:1 474:1 519:1 571:1 650:1 711:1 763:1 841:1 
-0.050000000000000003 4:1 5:1 10:1 16:1 19:1 22:1 27:1 31:1 34:1 39:1 44:1 46:1 61:1 66:1 88:1 111:1 122:1 135:1 155:1 170:1 183:1 204:1 222:1 274:1 296:1 383:1 474:1 519:1 571:1 650:1 711:1 764:1 846:1 
0.050000000000000003 4:1 5:1 10:1 16:1 19:1 22:1 27:1 31:1 34:1 40:1 41:1 45:1 61:1 66:1 88:1 111:1 122:1 135:1 155:1 170:1 184:1 205:1 209:1 274:1 296:1 383:1 474:1 519:1 571:1 650:1 712:1 765:1 849:1 
0.0050199924610367591 4:1 5:1 10:1 16:1 19:1 22:1 27:1 31:1 34:1 40:1 42:1 46:1 61:1 66:1 88:1 111:1 122:1 135:1 155:1 170:1 184:1 206:1 214:1 274:1 296:1 383:1 474:1 519:1 571:1 650:1 712:1 766:1 854:1 
0.050000000000000003 4:1 5:1 10:1 16:1 19:1 22:1 27:1 31:1 34:1 40:1 44:1 46:1 61:1 66:1 88:1 111:1 122:1 135:1 155:1 170:1 184:1 208:1 222:1 274:1 296:1 383:1 474:1 519:1 571:1 650:1 712:1 768:1 862:1 
-0.050000000000000003 4:1 5:1 12:1 16:1 19:1 22:1 27:1 31:1 34:1 37:1 42:1 48:1 61:1 68:1 96:1 111:1 122:1 135:1 155:1 170:1 181:1 194:1 216:1 276:1 304:1 415:1 474:1 519:1 571:1 650:1 709:1 754:1 808:1 
-0.050000000000000003 4:1 5:1 12:1 16:1 19:1 22:1 27:1 31:1 34:1 38:1 43:1 46:1 61:1 68:1 96:1 111:1 122:1 135:1 155:1 170:1 182:1 199:1 218:1 276:1 304:1 415:1 474:1 519:1 571:1 650:1 710:1 759:1 826:1 
-0.050000000000000003 4:1 5:1 12:1 16:1 19:1 22:1 27:1 31:1 34:1 39:1 41:1 45:1 61:1 68:1 96:1 111:1 122:1 135:1 155:1 170:1 183:1 201:1 209:1 276:1 304:1 415:1 474:1 519:1 571:1 650:1 711:1 761:1 833:1 
0.050000000000000003 4:1 5:1 12:1 16:1 19:1 22:1 27:1 31:1 34:1 40:1 41:1 45:1 61:1 68:1 96:1 111:1 122:1 135:1 155:1 170:1 184:1 205:1 209:1 276:1 304:1 415:1 474:1 519:1 571:1 650:1 712:1 765:1 849:1 
0.028535263731637978 4:1 5:1 12:1 16:1 19:1 22:1 27:1 31:1 34:1 40:1 42:1 48:1 61:1 68:1 96:1 111:1 122:1 135:1 155:1 170:1 184:1 206:1 216:1 276:1 304:1 415:1 474:1 519:1 571:1 650:1 712:1 766:1 856:1 
0.050000000000000003 4:1 5:1 12:1 16:1 19:1 22:1 27:1 31:1 34:1 40:1 44:1 47:1 61:1 68:1 96:1 111:1 122:1 135:1 155:1 170:1 184:1 208:1 223:1 276:1 304:1 415:1 474:1 519:1 571:1 650:1 712:1 768:1 863:1 
0.048939942941722867 4:1 6:1 9:1 16:1 19:1 22:1 27:1 31:1 34:1 40:1 43:1 46:1 62:1 69:1 84:1 111:1 122:1 135:1 155:1 170:1 184:1 207:1 218:1 277:1 308:1 367:1 474:1 519:1 571:1 650:1 712:1 767:1 858:1 
0.026152553183268902 4:1 6:1 9:1 16:1 19:1 22:1 27:1 31:1 34:1 40:1 43:1 48:1 62:1 69:1 84:1 111:1 122:1 135:1 155:1 170:1 184:1 207:1 220:1 277:1 308:1 367:1 474:1 519:1 571:1 650:1 712:1 767:1 860:1 
0.020988600527141771 4:1 6:1 10:1 16:1 19:1 22:1 27:1 31:1 34:1 37:1 43:1 47:1 62:1 70:1 88:1 111:1 122:1 135:1 155:1 170:1 181:1 195:1 219:1 278:1 312:1 383:1 474:1 519:1 571:1 650:1 709:1 755:1 811:1 
0.050000000000000003 4:1 6:1 10:1 16:1 19:1 22:1 27:1 31:1 34:1 38:1 41:1 47:1 62:1 70:1 88:1 111:1 122:1 135:1 155:1 170:1 182:1 197:1 211:1 278:1 312:1 383:1 474:1 519:1 571:1 650:1 710:1 757:1 819:1 
0.050000000000000003 4:1 6:1 10:1 16:1 19:1 22:1 27:1 31:1 34:1 38:1 42:1 48:1 62:1 70:1 88:1 111:1 122:1 135:1 155:1 170:1 182:1 198:1 216:1 278:1 312:1 383:1 474:1 519:1 571:1 650:1 710:1 758:1 824:1 
0.050000000000000003 4:1 6:1 10:1 16:1 19:1 22:1 27:1 31:1 34:1 38:1 44:1 46:1 62:1 70:1 88:1 111:1 122:1 135:1 155:1 170:1 182:1 200:1 222:1 278:1 312:1 383:1 474:1 519:1 571:1 650:1 710:1 760:1 830:1 
-0.050000000000000003 4:1 6:1 10:1 16:1 19:1 22:1 27:1 31:1 34:1 38:1 44:1 48:1 62:1 70:1 88:1 111:1 122:1 135:1 155:1 170:1 182:1 200:1 224:1 278:1 312:1 383:1 474:1 519:1 571:1 650:1 710:1 760:1 832:1 
-0.050000000000000003 4:1 6:1 10:1 16:1 19:1 22:1 27:1 31:1 34:1 39:1 41:1 46:1 62:1 70:1 88:1 111:1 122:1 135:1 155:1 170:1 183:1 201:1 210:1 278:1 312:1 383:1 474:1 519:1 571:1 650:1 711:1 761:1 834:1 
-0.050000000000000003 4:1 6:1 10:1 16:1 19:1 22:1 27:1 31:1 34:1 39:1 42:1 45:1 62:1 70:1 88:1 111:1 122:1 135:1 155:1 170:1 183:1 202:1 213:1 278:1 312:1 383:1 474:1 519:1 571:1 650:1 711:1 762:1 837:1 
0.050000000000000003 4:1 6:1 10:1 16:1 19:1 22:1 27:1 31:1 34:1 39:1 42:1 46:1 62:1 70:1 88:1 111:1 122:1 135:1 155:1 170:1 183:1 202:1 214:1 278:1 312:1 383:1 474:1 519:1 571:1 650:1 711:1 762:1 838:1 
0.050000000000000003 4:1 6:1 10:1 16:1 19:1 22:1 27:1 31:1 34:1 39:1 42:1 47:1 62:1 70:1 88:1 111:1 122:1 135:1 155:1 170:1 183:1 202:1 215:1 278:1 312:1 383:1 474:1 519:1 571:1 650:1 711:1 762:1 839:1 
0.048638770973192517 4:1 6:1 10:1 16:1 19:1 22:1 27:1 31:1 34:1 39:1 42:1 48:1 62:1 70:1 88:1 111:1 122:1 135:1 155:1 170:1 183:1 202:1 216:1 278:1 312:1 383:1 474:1 519:1 571:1 650:1 711:1 762:1 840:1 
-0.050000000000000003 4:1 6:1 10:1 16:1 19:1 22:1 27:1 31:1 34:1 39:1 43:1 46:1 62:1 70:1 88:1 111:1 122:1 135:1 155:1 170:1 183:1 203:1 218:1 278:1 312:1 383:1 474:1 519:1 571:1 650:1 711:1 763:1 842:1 
-0.050000000000000003 4:1 6:1 10:1 16:1 19:1 22:1 27:1 31:1 34:1 39:1 43:1 47:1 62:1 70:1 88:1 111:1 122:1 135:1 155:1 170:1 183:1 203:1 219:1 278:1 312:1 383:1 474:1 519:1 571:1 650:1 711:1 763:1 843:1 
-0.050000000000000003 4:1 6:1 10:1 16:1 19:1 22:1 27:1 31:1 34:1 40:1 41:1 47:1 62:1 70:1 88:1 111:1 122:1 135:1 155:1 170:1 184:1 205:1 211:1 278:1 312:1 383:1 474:1 519:1 571:1 650:1 712:1 765:1 851:1 
0.050000000000000003 4:1 6:1 10:1 16:1 19:1 22:1 27:1 31:1 34:1 40:1 42:1 45:1 62:1 70:1 88:1 111:1 122:1 135:1 155:1 170:1 184:1 206:1 213:1 278:1 312:1 383:1 474:1 519:1 571:1 650:1 712:1 766:1 853:1 
-0.050000000000000003 4:1 6:1 10:1 16:1 19:1 22:1 27:1 31:1 34:1 40:1 42:1 46:1 62:1 70:1 88:1 111:1 122:1 135:1 155:1 170:1 184:1 206:1 214:1 278:1 312:1 383:1 474:1 519:1 571:1 650:1 712:1 766:1 854:1 
0.0045662157234457566 4:1 6:1 10:1 16:1 19:1 22:1 27:1 31:1 34:1 40:1 43:1 45:1 62:1 70:1 88:1 111:1 122:1 135:1 155:1 170:1 184:1 207:1 217:1 278:1 312:1 383:1 474:1 519:1 571:1 650:1 712:1 767:1 857:1 
-0.050000000000000003 4:1 6:1 10:1 16:1 19:1 22:1 27:1 31:1 34:1 40:1 43:1 46:1 62:1 70:1 88:1 111:1 122:1 135:1 155:1 170:1 184:1 207:1 218:1 278:1 312:1 383:1 474:1 519:1 571:1 650:1 712:1 767:1 858:1 
-0.050000000000000003 4:1 6:1 10:1 16:1 19:1 22:1 27:1 31:1 34:1 40:1 43:1 48:1 62:1 70:1 88:1 111:1 122:1 135:1 155:1 170:1 184:1 207:1 220:1 278:1 312:1 383:1 474:1 519:1 571:1 650:1 712:1 767:1 860:1 
0.050000000000000003 4:1 6:1 10:1 16:1 19:1 22:1 27:1 31:1 34:1 40:1 44:1 46:1 62:1 70:1 88:1 111:1 122:1 135:1 155:1 170:1 184:1 208:1 222:1 278:1 312:1 383:1 474:1 519:1 571:1 650:1 712:1 768:1 862:1 
0.050000000000000003 4:1 6:1 10:1 16:1 19:1 22:1 27:1 31:1 34:1 40:1 44:1 47:1 62:1 70:1 88:1 111:1 122:1 135:1 155:1 170:1 184:1 208:1 223:1 278:1 312:1 383:1 474:1 519:1 571:1 650:1 712:1 768:1 863:1 
-0.050000000000000003 4:1 6:1 10:1 16:1 19:1 22:1 27:1 31:1 34:1 40:1 44:1 48:1 62:1 70:1 88:1 111:1 122:1 135:1 155:1 170:1 184:1 208:1 224:1 278:1 312:1 383:1 474:1 519:1 571:1 650:1 712:1 768:1 864:1 
0.050000000000000003 4:1 6:1 12:1 16:1 19:1 22:1 27:1 31:1 34:1 37:1 41:1 46:1 62:1 72:1 96:1 111:1 122:1 135:1 155:1 170:1 181:1 193:1 210:1 280:1 320:1 415:1 474:1 519:1 571:1 650:1 709:1 753:1 802:1 
0.0065038409715680095 4:1 6:1 12:1 16:1 19:1 22:1 27:1 31:1 34:1 38:1 41:1 45:1 62:1 72:1 96:1 111:1 122:1 135:1 155:1 170:1 182:1 197:1 209:1 280:1 320:1 415:1 474:1 519:1 571:1 650:1 710:1 757:1 817:1 
-0.050000000000000003 4:1 6:1 12:1 16:1 19:1 22:1 27:1 31:1 34:1 38:1 41:1 46:1 62:1 72:1 96:1 111:1 122:1 135:1 155:1 170:1 182:1 197:1 210:1 280:1 320:1 415:1 474:1 519:1 571:1 650:1 710:1 757:1 818:1 
0.050000000000000003 4:1 6:1 12:1 16:1 19:1 22:1 27:1 31:1 34:1 38:1 41:1 48:1 62:1 72:1 96:1 111:1 122:1 135:1 155:1 170:1 182:1 197:1 212:1 280:1 320:1 415:1 474:1 519:1 571:1 650:1 710:1 757:1 820:1 
0.050000000000000003 4:1 6:1 12:1 16:1 19:1 22:1 27:1 31:1 34:1 38:1 42:1 45:1 62:1 72:1 96:1 111:1 122:1 135:1 155:1 170:1 182:1 198:1 213:1 280:1 320:1 415:1 474:1 519:1 571:1 650:1 710:1 758:1 821:1 
-0.050000000000000003 4:1 6:1 12:1 16:1 19:1 22:1 27:1 31:1 34:1 38:1 42:1 46:1 62:1 72:1 96:1 111:1 122:1 135:1 155:1 170:1 182:1 198:1 214:1 280:1 320:1 415:1 474:1 519:1 571:1 650:1 710:1 758:1 822:1 
-0.050000000000000003 4:1 6:1 12:1 16:1 19:1 22:1 27:1 31:1 34:1 39:1 43:1 46:1 62:1 72:1 96:1 111:1 122:1 135:1 155:1 170:1 183:1 203:1 218:1 280:1 320:1 415:1 474:1 519:1 571:1 650:1 711:1 763:1 842:1 
-0.050000000000000003 4:1 6:1 12:1 16:1 19:1 22:1 27:1 31:1 34:1 39:1 44:1 46:1 62:1 72:1 96:1 111:1 122:1 135:1 155:1 170:1 183:1 204:1 222:1 280:1 320:1 415:1 474:1 519:1 571:1 650:1 711:1 764:1 846:1 
0.050000000000000003 4:1 6:1 12:1 16:1 19:1 22:1 27:1 31:1 34:1 40:1 41:1 47:1 62:1 72:1 96:1 111:1 122:1 135:1 155:1 170:1 184:1 205:1 211:1 280:1 320:1 415:1 474:1 519:1 571:1 650:1 712:1 765:1 851:1 
0.050000000000000003 4:1 6:1 12:1 16:1 19:1 22:1 27:1 31:1 34:1 40:1 43:1 48:1 62:1 72:1 96:1 111:1 122:1 135:1 155:1 170:1 184:1 207:1 220:1 280:1 320:1 415:1 474:1 519:1 571:1 650:1 712:1 767:1 860:1 
-0.050000000000000003 4:1 6:1 12:1 16:1 19:1 22:1 27:1 31:1 34:1 40:1 44:1 45:1 62:1 72:1 96:1 111:1 122:1 135:1 155:1 170:1 184:1 208:1 221:1 280:1 320:1 415:1 474:1 519:1 571:1 650:1 712:1 768:1 861:1 
0.0045043779907842831 4:1 6:1 12:1 16:1 19:1 22:1 27:1 31:1 34:1 40:1 44:1 47:1 62:1 72:1 96:1 111:1 122:1 135:1 155:1 170:1 184:1 208:1 223:1 280:1 320:1 415:1 474:1 519:1 571:1 650:1 712:1 768:1 863:1 
-0.050000000000000003 4:1 7:1 9:1 16:1 19:1 22:1 27:1 31:1 34:1 40:1 43:1 46:1 63:1 73:1 84:1 111:1 122:1 135:1 155:1 170:1 184:1 207:1 218:1 281:1 324:1 367:1 474:1 519:1 571:1 650:1 712:1 767:1 858:1 
-0.043939334198004311 4:1 7:1 9:1 16:1 19:1 22:1 27:1 31:1 34:1 40:1 43:1 47:1 63:1 73:1 84:1 111:1 122:1 135:1 155:1 170:1 184:1 207:1 219:1 281:1 324:1 367:1 474:1 519:1 571:1 650:1 712:1 767:1 859:1 
0.050000000000000003 4:1 7:1 10:1 16:1 19:1 22:1 27:1 31:1 34:1 37:1 41:1 46:1 63:1 74:1 88:1 111:1 122:1 135:1 155:1 170:1 181:1 193:1 210:1 282:1 328:1 383:1 474:1 519:1 571:1 650:1 709:1 753:1 802:1 
-0.050000000000000003 4:1 7:1 10:1 16:1 19:1 22:1 27:1 31:1 34:1 37:1 41:1 48:1 63:1 74:1 88:1 111:1 122:1 135:1 155:1 170:1 181:1 193:1 212:1 282:1 328:1 383:1 474:1 519:1 571:1 650:1 709:1 753:1 804:1 
0.050000000000000003 4:1 7:1 10:1 16:1 19:1 22:1 27:1 31:1 34:1 37:1 42:1 45:1 63:1 74:1 88:1 111:1 122:1 135:1 155:1 170:1 181:1 194:1 213:1 282:1 328:1 383:1 474:1 519:1 571:1 650:1 709:1 754:1 805:1 
0.046338961221677188 4:1 7:1 10:1 16:1 19:1 22:1 27:1 31:1 34:1 37:1 43:1 46:1 63:1 74:1 88:1 111:1 122:1 135:1 155:1 170:1 181:1 195:1 218:1 282:1 328:1 383:1 474:1 519:1 571:1 650:1 709:1 755:1 810:1 
0.050000000000000003 4:1 7:1 10:1 16:1 19:1 22:1 27:1 31:1 34:1 38:1 41:1 46:1 63:1 74:1 88:1 111:1 122:1 135:1 155:1 170:1 182:1 197:1 210:1 282:1 328:1 383:1 474:1 519:1 571:1 650:1 710:1 757:1 818:1 
-0.050000000000000003 4:1 7:1 10:1 16:1 19:1 22:1 27:1 31:1 34:1 38:1 41:1 48:1 63:1 74:1 88:1 111:1 122:1 135:1 155:1 170:1 182:1 197:1 212:1 282:1 328:1 383:1 474:1 519:1 571:1 650:1 710:1 757:1 820:1 
-0.050000000000000003 4:1 7:1 10:1 16:1 19:1 22:1 27:1 31:1 34:1 38:1 42:1 46:1 63:1 74:1 88:1 111:1 122:1 135:1 155:1 170:1 182:1 198:1 214:1 282:1 328:1 383:1 474:1 519:1 571:1 650:1 710:1 758:1 822:1 
