svm_type epsilon_svr
kernel_type linear
nr_class 2
total_sv 438
rho 0.0652158584824645
probA 0.1588976793920415
SV
0.01 1:1 5:1 9:1 13:1 17:1 24:1 26:1 32:1 35:1 37:1 43:1 47:1 52:1 56:1 60:1 61:1 67:1 69:1 75:1 77:1 81:1 97:1 113:1 129:1 148:1 174:1 184:1 207:1 217:1 227:1 251:1 268:1 288:1 304:1 317:1 323:1 345:1 355:1 377:1 385:1 449:1 513:1 580:1 654:1 760:1 799:1 889:1 931:1 971:1 1068:1 1136:1 1216:1 1277:1 1331:1 1353:1 1443:1 1481:1 
0.0058334807299428911 1:1 5:1 9:1 13:1 18:1 21:1 26:1 32:1 35:1 37:1 43:1 47:1 52:1 56:1 57:1 61:1 66:1 70:1 73:1 77:1 81:1 97:1 113:1 130:1 149:1 162:1 184:1 207:1 217:1 227:1 251:1 268:1 288:1 301:1 305:1 322:1 342:1 357:1 369:1 385:1 449:1 514:1 581:1 658:1 712:1 799:1 889:1 931:1 971:1 1068:1 1136:1 1213:1 1265:1 1282:1 1350:1 1429:1 1489:1 
0.01 1:1 5:1 9:1 13:1 20:1 21:1 28:1 32:1 35:1 37:1 43:1 47:1 52:1 56:1 57:1 63:1 65:1 72:1 75:1 80:1 81:1 97:1 113:1 132:1 157:1 164:1 192:1 207:1 217:1 227:1 251:1 268:1 288:1 301:1 307:1 329:1 340:1 367:1 380:1 385:1 449:1 516:1 589:1 692:1 720:1 831:1 889:1 931:1 971:1 1068:1 1136:1 1213:1 1267:1 1289:1 1380:1 1423:1 1532:1 
-0.01 1:1 5:1 9:1 13:1 20:1 23:1 26:1 32:1 35:1 37:1 43:1 47:1 52:1 56:1 60:1 63:1 66:1 69:1 74:1 78:1 81:1 97:1 113:1 132:1 159:1 170:1 184:1 207:1 217:1 227:1 251:1 268:1 288:1 304:1 319:1 330:1 341:1 354:1 374:1 385:1 449:1 516:1 591:1 698:1 744:1 799:1 889:1 931:1 971:1 1068:1 1136:1 1216:1 1279:1 1338:1 1381:1 1426:1 1478:1 
0.0080000544415474648 1:1 5:1 9:1 13:1 20:1 23:1 28:1 32:1 35:1 37:1 43:1 47:1 52:1 54:1 60:1 64:1 67:1 70:1 76:1 80:1 81:1 97:1 113:1 132:1 159:1 172:1 192:1 207:1 217:1 227:1 251:1 268:1 286:1 296:1 320:1 335:1 346:1 360:1 384:1 385:1 449:1 516:1 591:1 700:1 752:1 831:1 889:1 931:1 971:1 1068:1 1134:1 1208:1 1248:1 1343:1 1402:1 1448:1 1504:1 
0.01 1:1 5:1 9:1 14:1 17:1 24:1 28:1 32:1 35:1 37:1 43:1 47:1 52:1 56:1 57:1 61:1 67:1 70:1 74:1 77:1 81:1 97:1 114:1 133:1 148:1 176:1 192:1 207:1 217:1 227:1 251:1 268:1 288:1 301:1 305:1 323:1 346:1 358:1 373:1 385:1 450:1 517:1 596:1 656:1 768:1 831:1 889:1 931:1 971:1 1068:1 1136:1 1213:1 1265:1 1283:1 1354:1 1446:1 1493:1 
0.01 1:1 5:1 9:1 14:1 18:1 22:1 28:1 32:1 35:1 37:1 43:1 47:1 52:1 56:1 60:1 61:1 65:1 71:1 73:1 77:1 81:1 97:1 114:1 134:1 150:1 168:1 192:1 207:1 217:1 227:1 251:1 268:1 288:1 304:1 317:1 321:1 339:1 361:1 369:1 385:1 450:1 518:1 598:1 664:1 736:1 831:1 889:1 931:1 971:1 1068:1 1136:1 1216:1 1277:1 1329:1 1347:1 1417:1 1505:1 
0.01 1:1 5:1 9:1 15:1 19:1 21:1 26:1 32:1 35:1 37:1 43:1 47:1 52:1 56:1 57:1 64:1 67:1 71:1 73:1 77:1 81:1 97:1 115:1 139:1 153:1 162:1 184:1 207:1 217:1 227:1 251:1 268:1 288:1 301:1 308:1 335:1 347:1 361:1 369:1 385:1 451:1 523:1 617:1 674:1 712:1 799:1 889:1 931:1 971:1 1068:1 1136:1 1213:1 1268:1 1295:1 1403:1 1449:1 1505:1 
-0.01 1:1 5:1 9:1 15:1 19:1 24:1 28:1 32:1 35:1 37:1 43:1 47:1 52:1 56:1 59:1 64:1 68:1 72:1 73:1 77:1 81:1 97:1 115:1 139:1 156:1 176:1 192:1 207:1 217:1 227:1 251:1 268:1 288:1 303:1 316:1 336:1 352:1 365:1 369:1 385:1 451:1 523:1 620:1 688:1 768:1 831:1 889:1 931:1 971:1 1068:1 1136:1 1215:1 1276:1 1328:1 1408:1 1469:1 1521:1 
0.01 1:1 5:1 9:1 15:1 20:1 22:1 26:1 32:1 35:1 37:1 43:1 47:1 52:1 56:1 57:1 61:1 67:1 71:1 74:1 80:1 81:1 97:1 115:1 140:1 158:1 166:1 184:1 207:1 217:1 227:1 251:1 268:1 288:1 301:1 305:1 323:1 347:1 362:1 376:1 385:1 451:1 524:1 622:1 694:1 728:1 799:1 889:1 931:1 971:1 1068:1 1136:1 1213:1 1265:1 1283:1 1355:1 1450:1 1512:1 
-0.0029518519791216953 1:1 5:1 9:1 16:1 17:1 21:1 28:1 32:1 35:1 37:1 43:1 47:1 52:1 56:1 60:1 64:1 66:1 69:1 76:1 79:1 81:1 97:1 116:1 141:1 145:1 164:1 192:1 207:1 217:1 227:1 251:1 268:1 288:1 304:1 320:1 334:1 341:1 356:1 383:1 385:1 452:1 525:1 625:1 644:1 720:1 831:1 889:1 931:1 971:1 1068:1 1136:1 1216:1 1280:1 1342:1 1397:1 1428:1 1487:1 
-0.01 1:1 5:1 9:1 16:1 17:1 23:1 28:1 32:1 35:1 37:1 43:1 47:1 52:1 56:1 58:1 61:1 65:1 72:1 76:1 78:1 81:1 97:1 116:1 141:1 147:1 172:1 192:1 207:1 217:1 227:1 251:1 268:1 288:1 302:1 309:1 321:1 340:1 368:1 382:1 385:1 452:1 525:1 627:1 652:1 752:1 831:1 889:1 931:1 971:1 1068:1 1136:1 1214:1 1269:1 1297:1 1348:1 1424:1 1534:1 
0.01 1:1 5:1 9:1 16:1 19:1 24:1 28:1 32:1 35:1 37:1 43:1 47:1 52:1 54:1 57:1 61:1 67:1 70:1 74:1 77:1 81:1 97:1 116:1 143:1 156:1 176:1 192:1 207:1 217:1 227:1 251:1 268:1 286:1 293:1 305:1 323:1 346:1 358:1 373:1 385:1 452:1 527:1 636:1 688:1 768:1 831:1 889:1 931:1 971:1 1068:1 1134:1 1205:1 1233:1 1283:1 1354:1 1446:1 1493:1 
-0.01 1:1 5:1 9:1 16:1 19:1 24:1 28:1 32:1 35:1 37:1 43:1 47:1 52:1 54:1 58:1 64:1 67:1 69:1 75:1 77:1 81:1 97:1 116:1 143:1 156:1 176:1 192:1 207:1 217:1 227:1 251:1 268:1 286:1 294:1 312:1 335:1 345:1 355:1 377:1 385:1 452:1 527:1 636:1 688:1 768:1 831:1 889:1 931:1 971:1 1068:1 1134:1 1206:1 1240:1 1311:1 1401:1 1443:1 1481:1 
-0.0071658624741745957 1:1 5:1 9:1 16:1 20:1 22:1 28:1 32:1 35:1 37:1 43:1 47:1 52:1 56:1 57:1 62:1 68:1 72:1 76:1 79:1 81:1 97:1 116:1 144:1 158:1 168:1 192:1 207:1 217:1 227:1 251:1 268:1 288:1 301:1 306:1 328:1 352:1 368:1 383:1 385:1 452:1 528:1 638:1 696:1 736:1 831:1 889:1 931:1 971:1 1068:1 1136:1 1213:1 1266:1 1288:1 1376:1 1472:1 1535:1 
0.01 1:1 5:1 10:1 13:1 19:1 24:1 28:1 32:1 35:1 37:1 43:1 47:1 52:1 56:1 57:1 62:1 66:1 72:1 75:1 77:1 81:1 98:1 117:1 131:1 156:1 176:1 192:1 207:1 217:1 227:1 251:1 268:1 288:1 301:1 306:1 326:1 344:1 367:1 377:1 386:1 453:1 531:1 588:1 688:1 768:1 831:1 889:1 931:1 971:1 1068:1 1136:1 1213:1 1266:1 1286:1 1368:1 1439:1 1529:1 
-0.01 1:1 5:1 10:1 15:1 19:1 23:1 28:1 32:1 35:1 37:1 43:1 47:1 52:1 56:1 59:1 64:1 66:1 72:1 75:1 78:1 81:1 98:1 119:1 139:1 155:1 172:1 192:1 207:1 217:1 227:1 251:1 268:1 288:1 303:1 316:1 334:1 344:1 367:1 378:1 386:1 455:1 539:1 619:1 684:1 752:1 831:1 889:1 931:1 971:1 1068:1 1136:1 1215:1 1276:1 1326:1 1400:1 1439:1 1530:1 
-0.0070495086712596897 1:1 5:1 10:1 16:1 19:1 21:1 28:1 32:1 35:1 37:1 43:1 47:1 52:1 56:1 57:1 62:1 68:1 72:1 76:1 79:1 81:1 98:1 120:1 143:1 153:1 164:1 192:1 207:1 217:1 227:1 251:1 268:1 288:1 301:1 306:1 328:1 352:1 368:1 383:1 386:1 456:1 543:1 633:1 676:1 720:1 831:1 889:1 931:1 971:1 1068:1 1136:1 1213:1 1266:1 1288:1 1376:1 1472:1 1535:1 
0.0081672744016842835 1:1 5:1 11:1 15:1 17:1 23:1 28:1 32:1 35:1 37:1 43:1 47:1 52:1 56:1 57:1 64:1 67:1 69:1 74:1 80:1 81:1 99:1 123:1 137:1 147:1 172:1 192:1 207:1 217:1 227:1 251:1 268:1 288:1 301:1 308:1 335:1 345:1 354:1 376:1 387:1 459:1 553:1 611:1 652:1 752:1 831:1 889:1 931:1 971:1 1068:1 1136:1 1213:1 1268:1 1295:1 1401:1 1442:1 1480:1 
-0.01 1:1 5:1 11:1 15:1 18:1 24:1 26:1 32:1 35:1 37:1 43:1 47:1 52:1 56:1 57:1 64:1 68:1 71:1 74:1 77:1 81:1 99:1 123:1 138:1 152:1 174:1 184:1 207:1 217:1 227:1 251:1 268:1 288:1 301:1 308:1 336:1 351:1 362:1 373:1 387:1 459:1 554:1 616:1 670:1 760:1 799:1 889:1 931:1 971:1 1068:1 1136:1 1213:1 1268:1 1296:1 1407:1 1466:1 1509:1 
-0.0073775603376930845 1:1 5:1 11:1 15:1 20:1 24:1 28:1 32:1 35:1 37:1 43:1 47:1 52:1 56:1 59:1 64:1 67:1 69:1 73:1 80:1 81:1 99:1 123:1 140:1 160:1 176:1 192:1 207:1 217:1 227:1 251:1 268:1 288:1 303:1 316:1 335:1 345:1 353:1 372:1 387:1 459:1 556:1 624:1 704:1 768:1 831:1 889:1 931:1 971:1 1068:1 1136:1 1215:1 1276:1 1327:1 1401:1 1441:1 1476:1 
-0.01 1:1 5:1 11:1 15:1 20:1 24:1 28:1 32:1 35:1 37:1 43:1 47:1 52:1 56:1 60:1 62:1 66:1 70:1 74:1 77:1 81:1 99:1 123:1 140:1 160:1 176:1 192:1 207:1 217:1 227:1 251:1 268:1 288:1 304:1 318:1 326:1 342:1 358:1 373:1 387:1 459:1 556:1 624:1 704:1 768:1 831:1 889:1 931:1 971:1 1068:1 1136:1 1216:1 1278:1 1334:1 1366:1 1430:1 1493:1 
0.0068889360878252107 1:1 5:1 11:1 16:1 18:1 24:1 26:1 32:1 35:1 37:1 43:1 47:1 52:1 56:1 57:1 63:1 65:1 69:1 74:1 78:1 81:1 99:1 124:1 142:1 152:1 174:1 184:1 207:1 217:1 227:1 251:1 268:1 288:1 301:1 307:1 329:1 337:1 354:1 374:1 387:1 460:1 558:1 632:1 670:1 760:1 799:1 889:1 931:1 971:1 1068:1 1136:1 1213:1 1267:1 1289:1 1377:1 1410:1 1478:1 
0.0019474529747500312 1:1 5:1 11:1 16:1 20:1 21:1 26:1 32:1 35:1 37:1 43:1 47:1 52:1 56:1 57:1 61:1 65:1 72:1 73:1 80:1 81:1 99:1 124:1 144:1 157:1 162:1 184:1 207:1 217:1 227:1 251:1 268:1 288:1 301:1 305:1 321:1 340:1 365:1 372:1 387:1 460:1 560:1 637:1 690:1 712:1 799:1 889:1 931:1 971:1 1068:1 1136:1 1213:1 1265:1 1281:1 1348:1 1421:1 1524:1 
0.0072556712856912953 1:1 5:1 12:1 14:1 18:1 24:1 28:1 32:1 35:1 37:1 43:1 47:1 52:1 56:1 60:1 63:1 68:1 72:1 73:1 80:1 81:1 100:1 126:1 134:1 152:1 176:1 192:1 207:1 217:1 227:1 251:1 268:1 288:1 304:1 319:1 332:1 352:1 365:1 372:1 388:1 462:1 566:1 600:1 672:1 768:1 831:1 889:1 931:1 971:1 1068:1 1136:1 1216:1 1279:1 1340:1 1392:1 1469:1 1524:1 
0.01 1:1 5:1 12:1 14:1 19:1 22:1 28:1 32:1 35:1 37:1 43:1 47:1 52:1 56:1 60:1 64:1 68:1 69:1 74:1 78:1 81:1 100:1 126:1 135:1 154:1 168:1 192:1 207:1 217:1 227:1 251:1 268:1 288:1 304:1 320:1 336:1 349:1 354:1 374:1 388:1 462:1 567:1 602:1 680:1 736:1 831:1 889:1 931:1 971:1 1068:1 1136:1 1216:1 1280:1 1344:1 1405:1 1458:1 1478:1 
-0.01 1:1 5:1 12:1 15:1 20:1 23:1 28:1 32:1 35:1 37:1 43:1 47:1 52:1 56:1 60:1 63:1 65:1 70:1 76:1 79:1 81:1 100:1 127:1 140:1 159:1 172:1 192:1 207:1 217:1 227:1 251:1 268:1 288:1 304:1 319:1 329:1 338:1 360:1 383:1 388:1 463:1 572:1 623:1 700:1 752:1 831:1 889:1 931:1 971:1 1068:1 1136:1 1216:1 1279:1 1337:1 1378:1 1416:1 1503:1 
-0.01 1:1 5:1 12:1 15:1 20:1 24:1 28:1 32:1 35:1 37:1 43:1 47:1 52:1 54:1 60:1 64:1 68:1 71:1 74:1 80:1 81:1 100:1 127:1 140:1 160:1 176:1 192:1 207:1 217:1 227:1 251:1 268:1 286:1 296:1 320:1 336:1 351:1 362:1 376:1 388:1 463:1 572:1 624:1 704:1 768:1 831:1 889:1 931:1 971:1 1068:1 1134:1 1208:1 1248:1 1344:1 1407:1 1466:1 1512:1 
-0.0033184587104606363 1:1 5:1 12:1 16:1 20:1 21:1 26:1 32:1 35:1 37:1 43:1 47:1 52:1 56:1 57:1 62:1 65:1 71:1 76:1 78:1 81:1 100:1 128:1 144:1 157:1 162:1 184:1 207:1 217:1 227:1 251:1 268:1 288:1 301:1 306:1 325:1 339:1 364:1 382:1 388:1 464:1 576:1 637:1 690:1 712:1 799:1 889:1 931:1 971:1 1068:1 1136:1 1213:1 1266:1 1285:1 1363:1 1420:1 1518:1 
0.0073623237820072763 1:1 5:1 12:1 16:1 20:1 24:1 28:1 32:1 35:1 37:1 43:1 47:1 52:1 56:1 57:1 64:1 68:1 71:1 74:1 77:1 81:1 100:1 128:1 144:1 160:1 176:1 192:1 207:1 217:1 227:1 251:1 268:1 288:1 301:1 308:1 336:1 351:1 362:1 373:1 388:1 464:1 576:1 640:1 704:1 768:1 831:1 889:1 931:1 971:1 1068:1 1136:1 1213:1 1268:1 1296:1 1407:1 1466:1 1509:1 
0.01 1:1 6:1 9:1 13:1 19:1 22:1 28:1 32:1 35:1 37:1 43:1 47:1 52:1 56:1 60:1 61:1 65:1 72:1 76:1 78:1 82:1 101:1 113:1 131:1 154:1 168:1 192:1 207:1 217:1 227:1 251:1 268:1 288:1 304:1 317:1 321:1 340:1 368:1 382:1 389:1 465:1 515:1 586:1 680:1 736:1 831:1 889:1 931:1 971:1 1068:1 1136:1 1216:1 1277:1 1329:1 1348:1 1424:1 1534:1 
0.0093589090584375104 1:1 6:1 9:1 14:1 17:1 22:1 28:1 32:1 35:1 37:1 43:1 47:1 52:1 56:1 60:1 62:1 66:1 71:1 74:1 77:1 82:1 101:1 114:1 133:1 146:1 168:1 192:1 207:1 217:1 227:1 251:1 268:1 288:1 304:1 318:1 326:1 343:1 362:1 373:1 389:1 466:1 517:1 594:1 648:1 736:1 831:1 889:1 931:1 971:1 1068:1 1136:1 1216:1 1278:1 1334:1 1367:1 1434:1 1509:1 
-0.0042662798862999184 1:1 6:1 9:1 14:1 17:1 23:1 28:1 32:1 35:1 37:1 43:1 47:1 52:1 56:1 60:1 63:1 67:1 70:1 75:1 78:1 82:1 101:1 114:1 133:1 147:1 172:1 192:1 207:1 217:1 227:1 251:1 268:1 288:1 304:1 319:1 331:1 346:1 359:1 378:1 389:1 466:1 517:1 595:1 652:1 752:1 831:1 889:1 931:1 971:1 1068:1 1136:1 1216:1 1279:1 1339:1 1386:1 1447:1 1498:1 
0.01 1:1 6:1 9:1 15:1 17:1 21:1 28:1 32:1 35:1 37:1 43:1 47:1 52:1 54:1 57:1 63:1 68:1 72:1 75:1 77:1 82:1 101:1 115:1 137:1 145:1 164:1 192:1 207:1 217:1 227:1 251:1 268:1 286:1 293:1 307:1 332:1 352:1 367:1 377:1 389:1 467:1 521:1 609:1 644:1 720:1 831:1 889:1 931:1 971:1 1068:1 1134:1 1205:1 1235:1 1292:1 1392:1 1471:1 1529:1 
0.01 1:1 6:1 9:1 15:1 17:1 24:1 28:1 32:1 35:1 37:1 43:1 47:1 52:1 54:1 57:1 64:1 67:1 69:1 76:1 78:1 82:1 101:1 115:1 137:1 148:1 176:1 192:1 207:1 217:1 227:1 251:1 268:1 286:1 293:1 308:1 335:1 345:1 356:1 382:1 389:1 467:1 521:1 612:1 656:1 768:1 831:1 889:1 931:1 971:1 1068:1 1134:1 1205:1 1236:1 1295:1 1401:1 1444:1 1486:1 
-0.01 1:1 6:1 9:1 15:1 18:1 21:1 26:1 32:1 35:1 37:1 43:1 47:1 52:1 56:1 57:1 63:1 65:1 72:1 76:1 78:1 82:1 101:1 115:1 138:1 149:1 162:1 184:1 207:1 217:1 227:1 251:1 268:1 288:1 301:1 307:1 329:1 340:1 368:1 382:1 389:1 467:1 522:1 613:1 658:1 712:1 799:1 889:1 931:1 971:1 1068:1 1136:1 1213:1 1267:1 1289:1 1380:1 1424:1 1534:1 
0.01 1:1 6:1 9:1 16:1 17:1 23:1 28:1 32:1 35:1 37:1 43:1 47:1 52:1 56:1 60:1 62:1 66:1 71:1 73:1 80:1 82:1 101:1 116:1 141:1 147:1 172:1 192:1 207:1 217:1 227:1 251:1 268:1 288:1 304:1 318:1 326:1 343:1 361:1 372:1 389:1 468:1 525:1 627:1 652:1 752:1 831:1 889:1 931:1 971:1 1068:1 1136:1 1216:1 1278:1 1334:1 1367:1 1433:1 1508:1 
-0.0085560296982092332 1:1 6:1 9:1 16:1 17:1 24:1 28:1 32:1 35:1 37:1 43:1 47:1 52:1 56:1 57:1 63:1 67:1 72:1 73:1 77:1 82:1 101:1 116:1 141:1 148:1 176:1 192:1 207:1 217:1 227:1 251:1 268:1 288:1 301:1 307:1 331:1 348:1 365:1 369:1 389:1 468:1 525:1 628:1 656:1 768:1 831:1 889:1 931:1 971:1 1068:1 1136:1 1213:1 1267:1 1291:1 1388:1 1453:1 1521:1 
-0.0080702918983896112 1:1 6:1 9:1 16:1 20:1 22:1 28:1 32:1 35:1 37:1 43:1 47:1 52:1 56:1 60:1 62:1 65:1 70:1 76:1 80:1 82:1 101:1 116:1 144:1 158:1 168:1 192:1 207:1 217:1 227:1 251:1 268:1 288:1 304:1 318:1 325:1 338:1 360:1 384:1 389:1 468:1 528:1 638:1 696:1 736:1 831:1 889:1 931:1 971:1 1068:1 1136:1 1216:1 1278:1 1333:1 1362:1 1416:1 1504:1 
0.0095689838104945774 1:1 6:1 9:1 16:1 20:1 24:1 26:1 32:1 35:1 37:1 43:1 47:1 52:1 56:1 60:1 64:1 67:1 71:1 75:1 78:1 82:1 101:1 116:1 144:1 160:1 174:1 184:1 207:1 217:1 227:1 251:1 268:1 288:1 304:1 320:1 335:1 347:1 363:1 378:1 389:1 468:1 528:1 640:1 702:1 760:1 799:1 889:1 931:1 971:1 1068:1 1136:1 1216:1 1280:1 1343:1 1403:1 1451:1 1514:1 
-0.01 1:1 6:1 9:1 16:1 20:1 24:1 28:1 32:1 35:1 37:1 43:1 47:1 52:1 54:1 57:1 64:1 68:1 69:1 75:1 79:1 82:1 101:1 116:1 144:1 160:1 176:1 192:1 207:1 217:1 227:1 251:1 268:1 286:1 293:1 308:1 336:1 349:1 355:1 379:1 389:1 468:1 528:1 640:1 704:1 768:1 831:1 889:1 931:1 971:1 1068:1 1134:1 1205:1 1236:1 1296:1 1405:1 1459:1 1483:1 
-0.01 1:1 6:1 10:1 13:1 20:1 21:1 28:1 32:1 35:1 37:1 43:1 47:1 52:1 54:1 57:1 64:1 65:1 70:1 76:1 78:1 82:1 102:1 117:1 132:1 157:1 164:1 192:1 207:1 217:1 227:1 251:1 268:1 286:1 293:1 308:1 333:1 338:1 360:1 382:1 390:1 469:1 532:1 589:1 692:1 720:1 831:1 889:1 931:1 971:1 1068:1 1134:1 1205:1 1236:1 1293:1 1394:1 1416:1 1502:1 
-0.01 1:1 6:1 10:1 13:1 20:1 23:1 28:1 32:1 35:1 37:1 43:1 47:1 52:1 56:1 58:1 61:1 67:1 69:1 75:1 79:1 82:1 102:1 117:1 132:1 159:1 172:1 192:1 207:1 217:1 227:1 251:1 268:1 288:1 302:1 309:1 323:1 345:1 355:1 379:1 390:1 469:1 532:1 591:1 700:1 752:1 831:1 889:1 931:1 971:1 1068:1 1136:1 1214:1 1269:1 1299:1 1353:1 1443:1 1483:1 
0.01 1:1 6:1 11:1 16:1 19:1 21:1 28:1 32:1 35:1 37:1 43:1 47:1 52:1 56:1 57:1 61:1 67:1 69:1 75:1 78:1 82:1 103:1 124:1 143:1 153:1 164:1 192:1 207:1 217:1 227:1 251:1 268:1 288:1 301:1 305:1 323:1 345:1 355:1 378:1 391:1 476:1 559:1 633:1 676:1 720:1 831:1 889:1 931:1 971:1 1068:1 1136:1 1213:1 1265:1 1283:1 1353:1 1443:1 1482:1 
-0.01 1:1 6:1 12:1 14:1 18:1 22:1 28:1 32:1 35:1 37:1 43:1 47:1 52:1 56:1 60:1 62:1 65:1 71:1 76:1 80:1 82:1 104:1 126:1 134:1 150:1 168:1 192:1 207:1 217:1 227:1 251:1 268:1 288:1 304:1 318:1 325:1 339:1 364:1 384:1 392:1 478:1 566:1 598:1 664:1 736:1 831:1 889:1 931:1 971:1 1068:1 1136:1 1216:1 1278:1 1333:1 1363:1 1420:1 1520:1 
-0.01 1:1 6:1 12:1 15:1 17:1 23:1 28:1 32:1 35:1 37:1 43:1 47:1 52:1 54:1 59:1 64:1 67:1 69:1 76:1 77:1 82:1 104:1 127:1 137:1 147:1 172:1 192:1 207:1 217:1 227:1 251:1 268:1 286:1 295:1 316:1 335:1 345:1 356:1 381:1 392:1 479:1 569:1 611:1 652:1 752:1 831:1 889:1 931:1 971:1 1068:1 1134:1 1207:1 1244:1 1327:1 1401:1 1444:1 1485:1 
-0.01 1:1 6:1 12:1 15:1 17:1 23:1 28:1 32:1 35:1 37:1 43:1 47:1 52:1 56:1 58:1 62:1 68:1 70:1 76:1 78:1 82:1 104:1 127:1 137:1 147:1 172:1 192:1 207:1 217:1 227:1 251:1 268:1 288:1 302:1 310:1 328:1 350:1 360:1 382:1 392:1 479:1 569:1 611:1 652:1 752:1 831:1 889:1 931:1 971:1 1068:1 1136:1 1214:1 1270:1 1304:1 1374:1 1464:1 1502:1 
0.01 1:1 6:1 12:1 15:1 17:1 23:1 28:1 32:1 35:1 37:1 43:1 47:1 52:1 56:1 60:1 64:1 67:1 71:1 74:1 80:1 82:1 104:1 127:1 137:1 147:1 172:1 192:1 207:1 217:1 227:1 251:1 268:1 288:1 304:1 320:1 335:1 347:1 362:1 376:1 392:1 479:1 569:1 611:1 652:1 752:1 831:1 889:1 931:1 971:1 1068:1 1136:1 1216:1 1280:1 1343:1 1403:1 1450:1 1512:1 
0.01 1:1 6:1 12:1 15:1 17:1 23:1 28:1 32:1 35:1 37:1 43:1 47:1 52:1 56:1 60:1 64:1 68:1 70:1 76:1 79:1 82:1 104:1 127:1 137:1 147:1 172:1 192:1 207:1 217:1 227:1 251:1 268:1 288:1 304:1 320:1 336:1 350:1 360:1 383:1 392:1 479:1 569:1 611:1 652:1 752:1 831:1 889:1 931:1 971:1 1068:1 1136:1 1216:1 1280:1 1344:1 1406:1 1464:1 1503:1 
-0.01 1:1 6:1 12:1 15:1 19:1 23:1 26:1 32:1 35:1 37:1 43:1 47:1 52:1 56:1 60:1 61:1 65:1 69:1 75:1 77:1 82:1 104:1 127:1 139:1 155:1 170:1 184:1 207:1 217:1 227:1 251:1 268:1 288:1 304:1 317:1 321:1 337:1 355:1 377:1 392:1 479:1 571:1 619:1 682:1 744:1 799:1 889:1 931:1 971:1 1068:1 1136:1 1216:1 1277:1 1329:1 1345:1 1411:1 1481:1 
0.01 1:1 6:1 12:1 15:1 19:1 23:1 26:1 32:1 35:1 37:1 43:1 47:1 52:1 56:1 60:1 63:1 67:1 71:1 73:1 80:1 82:1 104:1 127:1 139:1 155:1 170:1 184:1 207:1 217:1 227:1 251:1 268:1 288:1 304:1 319:1 331:1 347:1 361:1 372:1 392:1 479:1 571:1 619:1 682:1 744:1 799:1 889:1 931:1 971:1 1068:1 1136:1 1216:1 1279:1 1339:1 1387:1 1449:1 1508:1 
-0.01 1:1 6:1 12:1 16:1 17:1 24:1 28:1 32:1 35:1 37:1 43:1 47:1 52:1 54:1 58:1 62:1 68:1 69:1 75:1 77:1 82:1 104:1 128:1 141:1 148:1 176:1 192:1 207:1 217:1 227:1 251:1 268:1 286:1 294:1 310:1 328:1 349:1 355:1 377:1 392:1 480:1 573:1 628:1 656:1 768:1 831:1 889:1 931:1 971:1 1068:1 1134:1 1206:1 1238:1 1304:1 1373:1 1459:1 1481:1 
-0.01 1:1 6:1 12:1 16:1 18:1 22:1 28:1 32:1 35:1 37:1 43:1 47:1 52:1 54:1 57:1 63:1 66:1 71:1 76:1 80:1 82:1 104:1 128:1 142:1 150:1 168:1 192:1 207:1 217:1 227:1 251:1 268:1 286:1 293:1 307:1 330:1 343:1 364:1 384:1 392:1 480:1 574:1 630:1 664:1 736:1 831:1 889:1 931:1 971:1 1068:1 1134:1 1205:1 1235:1 1290:1 1383:1 1436:1 1520:1 
0.01 1:1 6:1 12:1 16:1 18:1 24:1 26:1 32:1 35:1 37:1 43:1 47:1 52:1 56:1 57:1 64:1 68:1 72:1 74:1 78:1 82:1 104:1 128:1 142:1 152:1 174:1 184:1 207:1 217:1 227:1 251:1 268:1 288:1 301:1 308:1 336:1 352:1 366:1 374:1 392:1 480:1 574:1 632:1 670:1 760:1 799:1 889:1 931:1 971:1 1068:1 1136:1 1213:1 1268:1 1296:1 1408:1 1470:1 1526:1 
0.0015314683005219166 1:1 7:1 9:1 13:1 18:1 24:1 28:1 32:1 35:1 37:1 43:1 47:1 52:1 54:1 57:1 63:1 66:1 72:1 74:1 77:1 83:1 105:1 113:1 130:1 152:1 176:1 192:1 207:1 217:1 227:1 251:1 268:1 286:1 293:1 307:1 330:1 344:1 366:1 373:1 393:1 481:1 514:1 584:1 672:1 768:1 831:1 889:1 931:1 971:1 1068:1 1134:1 1205:1 1235:1 1290:1 1384:1 1438:1 1525:1 
0.0051637953308363146 1:1 7:1 9:1 13:1 19:1 22:1 26:1 32:1 35:1 37:1 43:1 47:1 52:1 56:1 57:1 61:1 66:1 70:1 76:1 78:1 83:1 105:1 113:1 131:1 154:1 166:1 184:1 207:1 217:1 227:1 251:1 268:1 288:1 301:1 305:1 322:1 342:1 360:1 382:1 393:1 481:1 515:1 586:1 678:1 728:1 799:1 889:1 931:1 971:1 1068:1 1136:1 1213:1 1265:1 1282:1 1350:1 1432:1 1502:1 
-0.01 1:1 7:1 9:1 13:1 19:1 23:1 26:1 32:1 35:1 37:1 43:1 47:1 52:1 56:1 60:1 61:1 68:1 72:1 75:1 77:1 83:1 105:1 113:1 131:1 155:1 170:1 184:1 207:1 217:1 227:1 251:1 268:1 288:1 304:1 317:1 324:1 352:1 367:1 377:1 393:1 481:1 515:1 587:1 682:1 744:1 799:1 889:1 931:1 971:1 1068:1 1136:1 1216:1 1277:1 1332:1 1360:1 1471:1 1529:1 
-0.0058371721450661412 1:1 7:1 9:1 14:1 17:1 23:1 28:1 32:1 35:1 37:1 43:1 47:1 52:1 56:1 60:1 63:1 66:1 72:1 75:1 77:1 83:1 105:1 114:1 133:1 147:1 172:1 192:1 207:1 217:1 227:1 251:1 268:1 288:1 304:1 319:1 330:1 344:1 367:1 377:1 393:1 482:1 517:1 595:1 652:1 752:1 831:1 889:1 931:1 971:1 1068:1 1136:1 1216:1 1279:1 1338:1 1384:1 1439:1 1529:1 
0.01 1:1 7:1 9:1 15:1 17:1 21:1 28:1 32:1 35:1 37:1 43:1 47:1 52:1 54:1 57:1 62:1 66:1 69:1 75:1 79:1 83:1 105:1 115:1 137:1 145:1 164:1 192:1 207:1 217:1 227:1 251:1 268:1 286:1 293:1 306:1 326:1 341:1 355:1 379:1 393:1 483:1 521:1 609:1 644:1 720:1 831:1 889:1 931:1 971:1 1068:1 1134:1 1205:1 1234:1 1286:1 1365:1 1427:1 1483:1 
0.003468389143287889 1:1 7:1 9:1 15:1 17:1 23:1 28:1 32:1 35:1 37:1 43:1 47:1 52:1 54:1 57:1 62:1 65:1 71:1 75:1 78:1 83:1 105:1 115:1 137:1 147:1 172:1 192:1 207:1 217:1 227:1 251:1 268:1 286:1 293:1 306:1 325:1 339:1 363:1 378:1 393:1 483:1 521:1 611:1 652:1 752:1 831:1 889:1 931:1 971:1 1068:1 1134:1 1205:1 1234:1 1285:1 1363:1 1419:1 1514:1 
-0.01 1:1 7:1 9:1 16:1 19:1 24:1 28:1 32:1 35:1 37:1 43:1 47:1 52:1 54:1 58:1 62:1 66:1 72:1 76:1 77:1 83:1 105:1 116:1 143:1 156:1 176:1 192:1 207:1 217:1 227:1 251:1 268:1 286:1 294:1 310:1 326:1 344:1 368:1 381:1 393:1 484:1 527:1 636:1 688:1 768:1 831:1 889:1 931:1 971:1 1068:1 1134:1 1206:1 1238:1 1302:1 1368:1 1440:1 1533:1 
-0.0097393441615064094 1:1 7:1 10:1 13:1 17:1 21:1 26:1 32:1 35:1 37:1 43:1 47:1 52:1 56:1 57:1 61:1 67:1 72:1 75:1 77:1 83:1 106:1 117:1 129:1 145:1 162:1 184:1 207:1 217:1 227:1 251:1 268:1 288:1 301:1 305:1 323:1 348:1 367:1 377:1 394:1 485:1 529:1 577:1 642:1 712:1 799:1 889:1 931:1 971:1 1068:1 1136:1 1213:1 1265:1 1283:1 1356:1 1455:1 1529:1 
-0.01 1:1 7:1 10:1 13:1 17:1 21:1 28:1 32:1 35:1 37:1 43:1 47:1 52:1 56:1 60:1 62:1 66:1 72:1 74:1 80:1 83:1 106:1 117:1 129:1 145:1 164:1 192:1 207:1 217:1 227:1 251:1 268:1 288:1 304:1 318:1 326:1 344:1 366:1 376:1 394:1 485:1 529:1 577:1 644:1 720:1 831:1 889:1 931:1 971:1 1068:1 1136:1 1216:1 1278:1 1334:1 1368:1 1438:1 1528:1 
0.01 1:1 7:1 10:1 13:1 17:1 24:1 28:1 32:1 35:1 37:1 43:1 47:1 52:1 56:1 60:1 64:1 68:1 72:1 73:1 79:1 83:1 106:1 117:1 129:1 148:1 176:1 192:1 207:1 217:1 227:1 251:1 268:1 288:1 304:1 320:1 336:1 352:1 365:1 371:1 394:1 485:1 529:1 580:1 656:1 768:1 831:1 889:1 931:1 971:1 1068:1 1136:1 1216:1 1280:1 1344:1 1408:1 1469:1 1523:1 
0.0052336300110788917 1:1 7:1 10:1 13:1 20:1 23:1 28:1 32:1 35:1 37:1 43:1 47:1 52:1 56:1 57:1 63:1 65:1 72:1 73:1 77:1 83:1 106:1 117:1 132:1 159:1 172:1 192:1 207:1 217:1 227:1 251:1 268:1 288:1 301:1 307:1 329:1 340:1 365:1 369:1 394:1 485:1 532:1 591:1 700:1 752:1 831:1 889:1 931:1 971:1 1068:1 1136:1 1213:1 1267:1 1289:1 1380:1 1421:1 1521:1 
-0.01 1:1 7:1 10:1 14:1 17:1 21:1 26:1 32:1 35:1 37:1 43:1 47:1 52:1 56:1 60:1 63:1 67:1 71:1 75:1 78:1 83:1 106:1 118:1 133:1 145:1 162:1 184:1 207:1 217:1 227:1 251:1 268:1 288:1 304:1 319:1 331:1 347:1 363:1 378:1 394:1 486:1 533:1 593:1 642:1 712:1 799:1 889:1 931:1 971:1 1068:1 1136:1 1216:1 1279:1 1339:1 1387:1 1451:1 1514:1 
0.01 1:1 7:1 10:1 14:1 17:1 24:1 28:1 32:1 35:1 37:1 43:1 47:1 52:1 56:1 60:1 64:1 68:1 71:1 74:1 80:1 83:1 106:1 118:1 133:1 148:1 176:1 192:1 207:1 217:1 227:1 251:1 268:1 288:1 304:1 320:1 336:1 351:1 362:1 376:1 394:1 486:1 533:1 596:1 656:1 768:1 831:1 889:1 931:1 971:1 1068:1 1136:1 1216:1 1280:1 1344:1 1407:1 1466:1 1512:1 
0.0093394766806146837 1:1 7:1 10:1 16:1 17:1 23:1 26:1 32:1 35:1 37:1 43:1 47:1 52:1 56:1 57:1 63:1 66:1 72:1 75:1 80:1 83:1 106:1 120:1 141:1 147:1 170:1 184:1 207:1 217:1 227:1 251:1 268:1 288:1 301:1 307:1 330:1 344:1 367:1 380:1 394:1 488:1 541:1 627:1 650:1 744:1 799:1 889:1 931:1 971:1 1068:1 1136:1 1213:1 1267:1 1290:1 1384:1 1439:1 1532:1 
-0.01 1:1 7:1 10:1 16:1 17:1 24:1 28:1 32:1 35:1 37:1 43:1 47:1 52:1 54:1 58:1 64:1 67:1 71:1 75:1 80:1 83:1 106:1 120:1 141:1 148:1 176:1 192:1 207:1 217:1 227:1 251:1 268:1 286:1 294:1 312:1 335:1 347:1 363:1 380:1 394:1 488:1 541:1 628:1 656:1 768:1 831:1 889:1 931:1 971:1 1068:1 1134:1 1206:1 1240:1 1311:1 1403:1 1451:1 1516:1 
0.0037628490782458243 1:1 7:1 10:1 16:1 18:1 24:1 28:1 32:1 35:1 37:1 43:1 47:1 52:1 56:1 58:1 61:1 68:1 71:1 76:1 79:1 83:1 106:1 120:1 142:1 152:1 176:1 192:1 207:1 217:1 227:1 251:1 268:1 288:1 302:1 309:1 324:1 351:1 364:1 383:1 394:1 488:1 542:1 632:1 672:1 768:1 831:1 889:1 931:1 971:1 1068:1 1136:1 1214:1 1269:1 1300:1 1359:1 1468:1 1519:1 
-0.0082551624830852887 1:1 7:1 10:1 16:1 19:1 22:1 26:1 32:1 35:1 37:1 43:1 47:1 52:1 56:1 60:1 62:1 66:1 72:1 74:1 78:1 83:1 106:1 120:1 143:1 154:1 166:1 184:1 207:1 217:1 227:1 251:1 268:1 288:1 304:1 318:1 326:1 344:1 366:1 374:1 394:1 488:1 543:1 634:1 678:1 728:1 799:1 889:1 931:1 971:1 1068:1 1136:1 1216:1 1278:1 1334:1 1368:1 1438:1 1526:1 
0.01 1:1 7:1 10:1 16:1 19:1 23:1 28:1 32:1 35:1 37:1 43:1 47:1 52:1 54:1 60:1 62:1 66:1 72:1 75:1 77:1 83:1 106:1 120:1 143:1 155:1 172:1 192:1 207:1 217:1 227:1 251:1 268:1 286:1 296:1 318:1 326:1 344:1 367:1 377:1 394:1 488:1 543:1 635:1 684:1 752:1 831:1 889:1 931:1 971:1 1068:1 1134:1 1208:1 1246:1 1334:1 1368:1 1439:1 1529:1 
-0.01 1:1 7:1 10:1 16:1 19:1 24:1 28:1 32:1 35:1 37:1 43:1 47:1 52:1 56:1 58:1 64:1 65:1 71:1 73:1 77:1 83:1 106:1 120:1 143:1 156:1 176:1 192:1 207:1 217:1 227:1 251:1 268:1 288:1 302:1 312:1 333:1 339:1 361:1 369:1 394:1 488:1 543:1 636:1 688:1 768:1 831:1 889:1 931:1 971:1 1068:1 1136:1 1214:1 1272:1 1309:1 1395:1 1417:1 1505:1 
0.01 1:1 7:1 10:1 16:1 20:1 22:1 26:1 32:1 35:1 37:1 43:1 47:1 52:1 56:1 57:1 63:1 67:1 71:1 76:1 80:1 83:1 106:1 120:1 144:1 158:1 166:1 184:1 207:1 217:1 227:1 251:1 268:1 288:1 301:1 307:1 331:1 347:1 364:1 384:1 394:1 488:1 544:1 638:1 694:1 728:1 799:1 889:1 931:1 971:1 1068:1 1136:1 1213:1 1267:1 1291:1 1387:1 1452:1 1520:1 
-0.01 1:1 7:1 11:1 13:1 17:1 22:1 26:1 32:1 35:1 37:1 43:1 47:1 52:1 56:1 57:1 63:1 67:1 71:1 76:1 79:1 83:1 107:1 121:1 129:1 146:1 166:1 184:1 207:1 217:1 227:1 251:1 268:1 288:1 301:1 307:1 331:1 347:1 364:1 383:1 395:1 489:1 545:1 578:1 646:1 728:1 799:1 889:1 931:1 971:1 1068:1 1136:1 1213:1 1267:1 1291:1 1387:1 1452:1 1519:1 
0.01 1:1 7:1 11:1 13:1 17:1 23:1 26:1 32:1 35:1 37:1 43:1 47:1 52:1 56:1 57:1 61:1 65:1 71:1 76:1 78:1 83:1 107:1 121:1 129:1 147:1 170:1 184:1 207:1 217:1 227:1 251:1 268:1 288:1 301:1 305:1 321:1 339:1 364:1 382:1 395:1 489:1 545:1 579:1 650:1 744:1 799:1 889:1 931:1 971:1 1068:1 1136:1 1213:1 1265:1 1281:1 1347:1 1420:1 1518:1 
0.001862197992658407 1:1 7:1 11:1 13:1 17:1 23:1 26:1 32:1 35:1 37:1 43:1 47:1 52:1 56:1 60:1 64:1 67:1 72:1 75:1 77:1 83:1 107:1 121:1 129:1 147:1 170:1 184:1 207:1 217:1 227:1 251:1 268:1 288:1 304:1 320:1 335:1 348:1 367:1 377:1 395:1 489:1 545:1 579:1 650:1 744:1 799:1 889:1 931:1 971:1 1068:1 1136:1 1216:1 1280:1 1343:1 1404:1 1455:1 1529:1 
0.0013755727542000037 1:1 7:1 11:1 13:1 17:1 23:1 28:1 32:1 35:1 37:1 43:1 47:1 52:1 54:1 57:1 63:1 67:1 71:1 76:1 79:1 83:1 107:1 121:1 129:1 147:1 172:1 192:1 207:1 217:1 227:1 251:1 268:1 286:1 293:1 307:1 331:1 347:1 364:1 383:1 395:1 489:1 545:1 579:1 652:1 752:1 831:1 889:1 931:1 971:1 1068:1 1134:1 1205:1 1235:1 1291:1 1387:1 1452:1 1519:1 
0.01 1:1 7:1 11:1 13:1 17:1 23:1 28:1 32:1 35:1 37:1 43:1 47:1 52:1 56:1 60:1 63:1 67:1 70:1 73:1 79:1 83:1 107:1 121:1 129:1 147:1 172:1 192:1 207:1 217:1 227:1 251:1 268:1 288:1 304:1 319:1 331:1 346:1 357:1 371:1 395:1 489:1 545:1 579:1 652:1 752:1 831:1 889:1 931:1 971:1 1068:1 1136:1 1216:1 1279:1 1339:1 1386:1 1445:1 1491:1 
0.01 1:1 7:1 11:1 13:1 19:1 23:1 28:1 32:1 35:1 37:1 43:1 47:1 52:1 56:1 59:1 61:1 67:1 71:1 76:1 80:1 83:1 107:1 121:1 131:1 155:1 172:1 192:1 207:1 217:1 227:1 251:1 268:1 288:1 303:1 313:1 323:1 347:1 364:1 384:1 395:1 489:1 547:1 587:1 684:1 752:1 831:1 889:1 931:1 971:1 1068:1 1136:1 1215:1 1273:1 1315:1 1355:1 1452:1 1520:1 
-0.00030239912940885393 1:1 7:1 11:1 13:1 19:1 24:1 28:1 32:1 35:1 37:1 43:1 47:1 52:1 56:1 59:1 62:1 65:1 70:1 74:1 77:1 83:1 107:1 121:1 131:1 156:1 176:1 192:1 207:1 217:1 227:1 251:1 268:1 288:1 303:1 314:1 325:1 338:1 358:1 373:1 395:1 489:1 547:1 588:1 688:1 768:1 831:1 889:1 931:1 971:1 1068:1 1136:1 1215:1 1274:1 1317:1 1362:1 1414:1 1493:1 
-0.01 1:1 7:1 11:1 13:1 19:1 24:1 28:1 32:1 35:1 37:1 43:1 47:1 52:1 56:1 59:1 62:1 68:1 71:1 76:1 79:1 83:1 107:1 121:1 131:1 156:1 176:1 192:1 207:1 217:1 227:1 251:1 268:1 288:1 303:1 314:1 328:1 351:1 364:1 383:1 395:1 489:1 547:1 588:1 688:1 768:1 831:1 889:1 931:1 971:1 1068:1 1136:1 1215:1 1274:1 1320:1 1375:1 1468:1 1519:1 
0.0031455319064442109 1:1 7:1 11:1 14:1 18:1 24:1 28:1 32:1 35:1 37:1 43:1 47:1 52:1 56:1 58:1 62:1 68:1 71:1 74:1 80:1 83:1 107:1 122:1 134:1 152:1 176:1 192:1 207:1 217:1 227:1 251:1 268:1 288:1 302:1 310:1 328:1 351:1 362:1 376:1 395:1 490:1 550:1 600:1 672:1 768:1 831:1 889:1 931:1 971:1 1068:1 1136:1 1214:1 1270:1 1304:1 1375:1 1466:1 1512:1 
0.01 1:1 7:1 11:1 14:1 20:1 23:1 28:1 32:1 35:1 37:1 43:1 47:1 52:1 56:1 60:1 61:1 68:1 69:1 74:1 78:1 83:1 107:1 122:1 136:1 159:1 172:1 192:1 207:1 217:1 227:1 251:1 268:1 288:1 304:1 317:1 324:1 349:1 354:1 374:1 395:1 490:1 552:1 607:1 700:1 752:1 831:1 889:1 931:1 971:1 1068:1 1136:1 1216:1 1277:1 1332:1 1357:1 1458:1 1478:1 
-0.01 1:1 7:1 11:1 15:1 18:1 21:1 28:1 32:1 35:1 37:1 43:1 47:1 52:1 54:1 57:1 63:1 67:1 71:1 74:1 77:1 83:1 107:1 123:1 138:1 149:1 164:1 192:1 207:1 217:1 227:1 251:1 268:1 286:1 293:1 307:1 331:1 347:1 362:1 373:1 395:1 491:1 554:1 613:1 660:1 720:1 831:1 889:1 931:1 971:1 1068:1 1134:1 1205:1 1235:1 1291:1 1387:1 1450:1 1509:1 
-0.0026942650647791403 1:1 7:1 11:1 16:1 20:1 24:1 28:1 32:1 35:1 37:1 43:1 47:1 52:1 56:1 59:1 63:1 68:1 70:1 74:1 77:1 83:1 107:1 124:1 144:1 160:1 176:1 192:1 207:1 217:1 227:1 251:1 268:1 288:1 303:1 315:1 332:1 350:1 358:1 373:1 395:1 492:1 560:1 640:1 704:1 768:1 831:1 889:1 931:1 971:1 1068:1 1136:1 1215:1 1275:1 1324:1 1390:1 1462:1 1493:1 
-0.01 1:1 7:1 12:1 13:1 17:1 24:1 28:1 32:1 35:1 37:1 43:1 47:1 52:1 56:1 58:1 64:1 68:1 72:1 73:1 80:1 83:1 108:1 125:1 129:1 148:1 176:1 192:1 207:1 217:1 227:1 251:1 268:1 288:1 302:1 312:1 336:1 352:1 365:1 372:1 396:1 493:1 561:1 580:1 656:1 768:1 831:1 889:1 931:1 971:1 1068:1 1136:1 1214:1 1272:1 1312:1 1408:1 1469:1 1524:1 
0.01 1:1 7:1 12:1 13:1 18:1 24:1 28:1 32:1 35:1 37:1 43:1 47:1 52:1 54:1 60:1 61:1 66:1 69:1 76:1 79:1 83:1 108:1 125:1 130:1 152:1 176:1 192:1 207:1 217:1 227:1 251:1 268:1 286:1 296:1 317:1 322:1 341:1 356:1 383:1 396:1 493:1 562:1 584:1 672:1 768:1 831:1 889:1 931:1 971:1 1068:1 1134:1 1208:1 1245:1 1330:1 1349:1 1428:1 1487:1 
-0.0038198843588964637 1:1 7:1 12:1 13:1 19:1 24:1 26:1 32:1 35:1 37:1 43:1 47:1 52:1 56:1 60:1 62:1 68:1 72:1 74:1 80:1 83:1 108:1 125:1 131:1 156:1 174:1 184:1 207:1 217:1 227:1 251:1 268:1 288:1 304:1 318:1 328:1 352:1 366:1 376:1 396:1 493:1 563:1 588:1 686:1 760:1 799:1 889:1 931:1 971:1 1068:1 1136:1 1216:1 1278:1 1336:1 1376:1 1470:1 1528:1 
-0.0039500851030343665 1:1 7:1 12:1 14:1 17:1 24:1 26:1 32:1 35:1 37:1 43:1 47:1 52:1 56:1 57:1 63:1 66:1 69:1 74:1 78:1 83:1 108:1 126:1 133:1 148:1 174:1 184:1 207:1 217:1 227:1 251:1 268:1 288:1 301:1 307:1 330:1 341:1 354:1 374:1 396:1 494:1 565:1 596:1 654:1 760:1 799:1 889:1 931:1 971:1 1068:1 1136:1 1213:1 1267:1 1290:1 1381:1 1426:1 1478:1 
0.00047680848627950864 1:1 7:1 12:1 14:1 18:1 24:1 28:1 32:1 35:1 37:1 43:1 47:1 52:1 56:1 58:1 62:1 68:1 72:1 74:1 77:1 83:1 108:1 126:1 134:1 152:1 176:1 192:1 207:1 217:1 227:1 251:1 268:1 288:1 302:1 310:1 328:1 352:1 366:1 373:1 396:1 494:1 566:1 600:1 672:1 768:1 831:1 889:1 931:1 971:1 1068:1 1136:1 1214:1 1270:1 1304:1 1376:1 1470:1 1525:1 
0.01 1:1 7:1 12:1 15:1 20:1 23:1 26:1 32:1 35:1 37:1 43:1 47:1 52:1 56:1 57:1 62:1 65:1 71:1 73:1 80:1 83:1 108:1 127:1 140:1 159:1 170:1 184:1 207:1 217:1 227:1 251:1 268:1 288:1 301:1 306:1 325:1 339:1 361:1 372:1 396:1 495:1 572:1 623:1 698:1 744:1 799:1 889:1 931:1 971:1 1068:1 1136:1 1213:1 1266:1 1285:1 1363:1 1417:1 1508:1 
-0.01 1:1 7:1 12:1 15:1 20:1 24:1 26:1 32:1 35:1 37:1 43:1 47:1 52:1 56:1 57:1 61:1 65:1 69:1 75:1 78:1 83:1 108:1 127:1 140:1 160:1 174:1 184:1 207:1 217:1 227:1 251:1 268:1 288:1 301:1 305:1 321:1 337:1 355:1 378:1 396:1 495:1 572:1 624:1 702:1 760:1 799:1 889:1 931:1 971:1 1068:1 1136:1 1213:1 1265:1 1281:1 1345:1 1411:1 1482:1 
-0.01 1:1 7:1 12:1 15:1 20:1 24:1 28:1 32:1 35:1 37:1 43:1 47:1 52:1 56:1 60:1 64:1 65:1 69:1 76:1 80:1 83:1 108:1 127:1 140:1 160:1 176:1 192:1 207:1 217:1 227:1 251:1 268:1 288:1 304:1 320:1 333:1 337:1 356:1 384:1 396:1 495:1 572:1 624:1 704:1 768:1 831:1 889:1 931:1 971:1 1068:1 1136:1 1216:1 1280:1 1341:1 1393:1 1412:1 1488:1 
0.01 1:1 7:1 12:1 16:1 17:1 24:1 28:1 32:1 35:1 37:1 43:1 47:1 52:1 56:1 60:1 64:1 66:1 72:1 75:1 79:1 83:1 108:1 128:1 141:1 148:1 176:1 192:1 207:1 217:1 227:1 251:1 268:1 288:1 304:1 320:1 334:1 344:1 367:1 379:1 396:1 496:1 573:1 628:1 656:1 768:1 831:1 889:1 931:1 971:1 1068:1 1136:1 1216:1 1280:1 1342:1 1400:1 1439:1 1531:1 
-0.0069226442855797356 1:1 8:1 9:1 13:1 17:1 24:1 28:1 32:1 35:1 37:1 43:1 47:1 52:1 56:1 57:1 63:1 65:1 71:1 75:1 77:1 84:1 109:1 113:1 129:1 148:1 176:1 192:1 207:1 217:1 227:1 251:1 268:1 288:1 301:1 307:1 329:1 339:1 363:1 377:1 397:1 497:1 513:1 580:1 656:1 768:1 831:1 889:1 931:1 971:1 1068:1 1136:1 1213:1 1267:1 1289:1 1379:1 1419:1 1513:1 
-0.0016727628165377653 1:1 8:1 9:1 15:1 18:1 22:1 26:1 32:1 35:1 37:1 43:1 47:1 52:1 56:1 57:1 61:1 65:1 71:1 75:1 79:1 84:1 109:1 115:1 138:1 150:1 166:1 184:1 207:1 217:1 227:1 251:1 268:1 288:1 301:1 305:1 321:1 339:1 363:1 379:1 397:1 499:1 522:1 614:1 662:1 728:1 799:1 889:1 931:1 971:1 1068:1 1136:1 1213:1 1265:1 1281:1 1347:1 1419:1 1515:1 
-0.01 1:1 8:1 9:1 15:1 19:1 24:1 28:1 32:1 35:1 37:1 43:1 47:1 52:1 54:1 58:1 64:1 68:1 70:1 76:1 77:1 84:1 109:1 115:1 139:1 156:1 176:1 192:1 207:1 217:1 227:1 251:1 268:1 286:1 294:1 312:1 336:1 350:1 360:1 381:1 397:1 499:1 523:1 620:1 688:1 768:1 831:1 889:1 931:1 971:1 1068:1 1134:1 1206:1 1240:1 1312:1 1406:1 1464:1 1501:1 
0.01 1:1 8:1 9:1 15:1 20:1 24:1 26:1 32:1 35:1 37:1 43:1 47:1 52:1 56:1 60:1 64:1 68:1 72:1 73:1 80:1 84:1 109:1 115:1 140:1 160:1 174:1 184:1 207:1 217:1 227:1 251:1 268:1 288:1 304:1 320:1 336:1 352:1 365:1 372:1 397:1 499:1 524:1 624:1 702:1 760:1 799:1 889:1 931:1 971:1 1068:1 1136:1 1216:1 1280:1 1344:1 1408:1 1469:1 1524:1 
-0.0008650787339009278 1:1 8:1 9:1 16:1 18:1 23:1 28:1 32:1 35:1 37:1 43:1 47:1 52:1 56:1 59:1 64:1 67:1 69:1 75:1 79:1 84:1 109:1 116:1 142:1 151:1 172:1 192:1 207:1 217:1 227:1 251:1 268:1 288:1 303:1 316:1 335:1 345:1 355:1 379:1 397:1 500:1 526:1 631:1 668:1 752:1 831:1 889:1 931:1 971:1 1068:1 1136:1 1215:1 1276:1 1327:1 1401:1 1443:1 1483:1 
0.01 1:1 8:1 9:1 16:1 20:1 22:1 28:1 32:1 35:1 37:1 43:1 47:1 52:1 56:1 60:1 62:1 68:1 69:1 76:1 79:1 84:1 109:1 116:1 144:1 158:1 168:1 192:1 207:1 217:1 227:1 251:1 268:1 288:1 304:1 318:1 328:1 349:1 356:1 383:1 397:1 500:1 528:1 638:1 696:1 736:1 831:1 889:1 931:1 971:1 1068:1 1136:1 1216:1 1278:1 1336:1 1373:1 1460:1 1487:1 
0.01 1:1 8:1 10:1 13:1 18:1 24:1 28:1 32:1 35:1 37:1 43:1 47:1 52:1 54:1 58:1 63:1 68:1 71:1 76:1 80:1 84:1 110:1 117:1 130:1 152:1 176:1 192:1 207:1 217:1 227:1 251:1 268:1 286:1 294:1 311:1 332:1 351:1 364:1 384:1 398:1 501:1 530:1 584:1 672:1 768:1 831:1 889:1 931:1 971:1 1068:1 1134:1 1206:1 1239:1 1308:1 1391:1 1468:1 1520:1 
-0.0064108688808341887 1:1 8:1 10:1 13:1 19:1 22:1 26:1 32:1 35:1 37:1 43:1 47:1 52:1 56:1 60:1 61:1 67:1 72:1 74:1 78:1 84:1 110:1 117:1 131:1 154:1 166:1 184:1 207:1 217:1 227:1 251:1 268:1 288:1 304:1 317:1 323:1 348:1 366:1 374:1 398:1 501:1 531:1 586:1 678:1 728:1 799:1 889:1 931:1 971:1 1068:1 1136:1 1216:1 1277:1 1331:1 1356:1 1454:1 1526:1 
0.0014315399309963578 1:1 8:1 10:1 14:1 17:1 24:1 26:1 32:1 35:1 37:1 43:1 47:1 52:1 56:1 60:1 62:1 68:1 69:1 75:1 77:1 84:1 110:1 118:1 133:1 148:1 174:1 184:1 207:1 217:1 227:1 251:1 268:1 288:1 304:1 318:1 328:1 349:1 355:1 377:1 398:1 502:1 533:1 596:1 654:1 760:1 799:1 889:1 931:1 971:1 1068:1 1136:1 1216:1 1278:1 1336:1 1373:1 1459:1 1481:1 
-0.001580700223236301 1:1 8:1 10:1 14:1 20:1 24:1 26:1 32:1 35:1 37:1 43:1 47:1 52:1 56:1 57:1 62:1 66:1 69:1 73:1 79:1 84:1 110:1 118:1 136:1 160:1 174:1 184:1 207:1 217:1 227:1 251:1 268:1 288:1 301:1 306:1 326:1 341:1 353:1 371:1 398:1 502:1 536:1 608:1 702:1 760:1 799:1 889:1 931:1 971:1 1068:1 1136:1 1213:1 1266:1 1286:1 1365:1 1425:1 1475:1 
0.00019218012705491571 1:1 8:1 10:1 16:1 17:1 24:1 26:1 32:1 35:1 37:1 43:1 47:1 52:1 56:1 60:1 61:1 66:1 69:1 75:1 80:1 84:1 110:1 120:1 141:1 148:1 174:1 184:1 207:1 217:1 227:1 251:1 268:1 288:1 304:1 317:1 322:1 341:1 355:1 380:1 398:1 504:1 541:1 628:1 654:1 760:1 799:1 889:1 931:1 971:1 1068:1 1136:1 1216:1 1277:1 1330:1 1349:1 1427:1 1484:1 
-0.0042527965315923453 1:1 8:1 11:1 13:1 20:1 22:1 28:1 32:1 35:1 37:1 43:1 47:1 52:1 54:1 57:1 63:1 68:1 71:1 76:1 78:1 84:1 111:1 121:1 132:1 158:1 168:1 192:1 207:1 217:1 227:1 251:1 268:1 286:1 293:1 307:1 332:1 351:1 364:1 382:1 399:1 505:1 548:1 590:1 696:1 736:1 831:1 889:1 931:1 971:1 1068:1 1134:1 1205:1 1235:1 1292:1 1391:1 1468:1 1518:1 
0.01 1:1 8:1 11:1 14:1 17:1 23:1 28:1 32:1 35:1 37:1 43:1 47:1 52:1 54:1 58:1 62:1 65:1 70:1 75:1 80:1 84:1 111:1 122:1 133:1 147:1 172:1 192:1 207:1 217:1 227:1 251:1 268:1 286:1 294:1 310:1 325:1 338:1 359:1 380:1 399:1 506:1 549:1 595:1 652:1 752:1 831:1 889:1 931:1 971:1 1068:1 1134:1 1206:1 1238:1 1301:1 1362:1 1415:1 1500:1 
0.0020857790401967069 1:1 8:1 11:1 14:1 18:1 24:1 28:1 32:1 35:1 37:1 43:1 47:1 52:1 56:1 57:1 64:1 65:1 72:1 75:1 79:1 84:1 111:1 122:1 134:1 152:1 176:1 192:1 207:1 217:1 227:1 251:1 268:1 288:1 301:1 308:1 333:1 340:1 367:1 379:1 399:1 506:1 550:1 600:1 672:1 768:1 831:1 889:1 931:1 971:1 1068:1 1136:1 1213:1 1268:1 1293:1 1396:1 1423:1 1531:1 
0.0015663774987303499 1:1 8:1 11:1 14:1 20:1 23:1 28:1 32:1 35:1 37:1 43:1 47:1 52:1 54:1 60:1 63:1 67:1 71:1 74:1 80:1 84:1 111:1 122:1 136:1 159:1 172:1 192:1 207:1 217:1 227:1 251:1 268:1 286:1 296:1 319:1 331:1 347:1 362:1 376:1 399:1 506:1 552:1 607:1 700:1 752:1 831:1 889:1 931:1 971:1 1068:1 1134:1 1208:1 1247:1 1339:1 1387:1 1450:1 1512:1 
-0.01 1:1 8:1 11:1 15:1 18:1 24:1 28:1 32:1 35:1 37:1 43:1 47:1 52:1 54:1 58:1 64:1 66:1 69:1 74:1 78:1 84:1 111:1 123:1 138:1 152:1 176:1 192:1 207:1 217:1 227:1 251:1 268:1 286:1 294:1 312:1 334:1 341:1 354:1 374:1 399:1 507:1 554:1 616:1 672:1 768:1 831:1 889:1 931:1 971:1 1068:1 1134:1 1206:1 1240:1 1310:1 1397:1 1426:1 1478:1 
-0.01 1:1 8:1 11:1 15:1 19:1 23:1 26:1 32:1 35:1 37:1 43:1 47:1 52:1 56:1 57:1 61:1 67:1 70:1 76:1 80:1 84:1 111:1 123:1 139:1 155:1 170:1 184:1 207:1 217:1 227:1 251:1 268:1 288:1 301:1 305:1 323:1 346:1 360:1 384:1 399:1 507:1 555:1 619:1 682:1 744:1 799:1 889:1 931:1 971:1 1068:1 1136:1 1213:1 1265:1 1283:1 1354:1 1448:1 1504:1 
0.01 1:1 8:1 11:1 15:1 19:1 23:1 28:1 32:1 35:1 37:1 43:1 47:1 52:1 56:1 58:1 61:1 68:1 71:1 75:1 80:1 84:1 111:1 123:1 139:1 155:1 172:1 192:1 207:1 217:1 227:1 251:1 268:1 288:1 302:1 309:1 324:1 351:1 363:1 380:1 399:1 507:1 555:1 619:1 684:1 752:1 831:1 889:1 931:1 971:1 1068:1 1136:1 1214:1 1269:1 1300:1 1359:1 1467:1 1516:1 
0.01 1:1 8:1 11:1 15:1 20:1 24:1 28:1 32:1 35:1 37:1 43:1 47:1 52:1 56:1 60:1 64:1 68:1 71:1 75:1 80:1 84:1 111:1 123:1 140:1 160:1 176:1 192:1 207:1 217:1 227:1 251:1 268:1 288:1 304:1 320:1 336:1 351:1 363:1 380:1 399:1 507:1 556:1 624:1 704:1 768:1 831:1 889:1 931:1 971:1 1068:1 1136:1 1216:1 1280:1 1344:1 1407:1 1467:1 1516:1 
0.01 1:1 8:1 11:1 16:1 19:1 24:1 26:1 32:1 35:1 37:1 43:1 47:1 52:1 56:1 60:1 62:1 66:1 72:1 74:1 77:1 84:1 111:1 124:1 143:1 156:1 174:1 184:1 207:1 217:1 227:1 251:1 268:1 288:1 304:1 318:1 326:1 344:1 366:1 373:1 399:1 508:1 559:1 636:1 686:1 760:1 799:1 889:1 931:1 971:1 1068:1 1136:1 1216:1 1278:1 1334:1 1368:1 1438:1 1525:1 
-0.01 1:1 8:1 11:1 16:1 20:1 22:1 26:1 32:1 35:1 37:1 43:1 47:1 52:1 56:1 60:1 63:1 65:1 69:1 73:1 77:1 84:1 111:1 124:1 144:1 158:1 166:1 184:1 207:1 217:1 227:1 251:1 268:1 288:1 304:1 319:1 329:1 337:1 353:1 369:1 399:1 508:1 560:1 638:1 694:1 728:1 799:1 889:1 931:1 971:1 1068:1 1136:1 1216:1 1279:1 1337:1 1377:1 1409:1 1473:1 
-0.01 1:1 8:1 11:1 16:1 20:1 24:1 28:1 32:1 35:1 37:1 43:1 47:1 52:1 56:1 58:1 61:1 68:1 70:1 74:1 77:1 84:1 111:1 124:1 144:1 160:1 176:1 192:1 207:1 217:1 227:1 251:1 268:1 288:1 302:1 309:1 324:1 350:1 358:1 373:1 399:1 508:1 560:1 640:1 704:1 768:1 831:1 889:1 931:1 971:1 1068:1 1136:1 1214:1 1269:1 1300:1 1358:1 1462:1 1493:1 
-0.01 1:1 8:1 11:1 16:1 20:1 24:1 28:1 32:1 35:1 37:1 43:1 47:1 52:1 56:1 59:1 63:1 68:1 70:1 74:1 77:1 84:1 111:1 124:1 144:1 160:1 176:1 192:1 207:1 217:1 227:1 251:1 268:1 288:1 303:1 315:1 332:1 350:1 358:1 373:1 399:1 508:1 560:1 640:1 704:1 768:1 831:1 889:1 931:1 971:1 1068:1 1136:1 1215:1 1275:1 1324:1 1390:1 1462:1 1493:1 
0.01 1:1 8:1 11:1 16:1 20:1 24:1 28:1 32:1 35:1 37:1 43:1 47:1 52:1 56:1 60:1 61:1 68:1 70:1 74:1 77:1 84:1 111:1 124:1 144:1 160:1 176:1 192:1 207:1 217:1 227:1 251:1 268:1 288:1 304:1 317:1 324:1 350:1 358:1 373:1 399:1 508:1 560:1 640:1 704:1 768:1 831:1 889:1 931:1 971:1 1068:1 1136:1 1216:1 1277:1 1332:1 1358:1 1462:1 1493:1 
-0.01 1:1 8:1 12:1 13:1 19:1 21:1 28:1 32:1 35:1 37:1 43:1 47:1 52:1 56:1 57:1 64:1 67:1 70:1 73:1 79:1 84:1 112:1 125:1 131:1 153:1 164:1 192:1 207:1 217:1 227:1 251:1 268:1 288:1 301:1 308:1 335:1 346:1 357:1 371:1 400:1 509:1 563:1 585:1 676:1 720:1 831:1 889:1 931:1 971:1 1068:1 1136:1 1213:1 1268:1 1295:1 1402:1 1445:1 1491:1 
-0.00075531420848162149 1:1 8:1 12:1 14:1 18:1 22:1 26:1 32:1 35:1 37:1 43:1 47:1 52:1 56:1 60:1 64:1 66:1 72:1 75:1 79:1 84:1 112:1 126:1 134:1 150:1 166:1 184:1 207:1 217:1 227:1 251:1 268:1 288:1 304:1 320:1 334:1 344:1 367:1 379:1 400:1 510:1 566:1 598:1 662:1 728:1 799:1 889:1 931:1 971:1 1068:1 1136:1 1216:1 1280:1 1342:1 1400:1 1439:1 1531:1 
-0.01 1:1 8:1 12:1 14:1 20:1 23:1 28:1 32:1 35:1 37:1 43:1 47:1 52:1 56:1 60:1 62:1 66:1 72:1 75:1 78:1 84:1 112:1 126:1 136:1 159:1 172:1 192:1 207:1 217:1 227:1 251:1 268:1 288:1 304:1 318:1 326:1 344:1 367:1 378:1 400:1 510:1 568:1 607:1 700:1 752:1 831:1 889:1 931:1 971:1 1068:1 1136:1 1216:1 1278:1 1334:1 1368:1 1439:1 1530:1 
0.01 1:1 8:1 12:1 16:1 18:1 24:1 28:1 32:1 35:1 37:1 43:1 47:1 52:1 56:1 59:1 63:1 67:1 71:1 73:1 77:1 84:1 112:1 128:1 142:1 152:1 176:1 192:1 207:1 217:1 227:1 251:1 268:1 288:1 303:1 315:1 331:1 347:1 361:1 369:1 400:1 512:1 574:1 632:1 672:1 768:1 831:1 889:1 931:1 971:1 1068:1 1136:1 1215:1 1275:1 1323:1 1387:1 1449:1 1505:1 
-0.0012311939566178266 2:1 5:1 9:1 13:1 17:1 22:1 28:1 32:1 35:1 37:1 43:1 47:1 52:1 56:1 57:1 61:1 66:1 72:1 73:1 77:1 85:1 97:1 113:1 129:1 146:1 168:1 192:1 207:1 217:1 227:1 251:1 268:1 288:1 301:1 305:1 322:1 344:1 365:1 369:1 401:1 449:1 513:1 578:1 648:1 736:1 831:1 889:1 931:1 971:1 1068:1 1136:1 1213:1 1265:1 1282:1 1352:1 1437:1 1521:1 
-0.00746809047442323 2:1 5:1 9:1 13:1 17:1 24:1 28:1 32:1 35:1 37:1 43:1 47:1 52:1 56:1 57:1 64:1 68:1 72:1 74:1 80:1 85:1 97:1 113:1 129:1 148:1 176:1 192:1 207:1 217:1 227:1 251:1 268:1 288:1 301:1 308:1 336:1 352:1 366:1 376:1 401:1 449:1 513:1 580:1 656:1 768:1 831:1 889:1 931:1 971:1 1068:1 1136:1 1213:1 1268:1 1296:1 1408:1 1470:1 1528:1 
-0.0014924380128086671 2:1 5:1 9:1 14:1 18:1 24:1 26:1 32:1 35:1 37:1 43:1 47:1 52:1 56:1 57:1 62:1 66:1 72:1 75:1 77:1 85:1 97:1 114:1 134:1 152:1 174:1 184:1 207:1 217:1 227:1 251:1 268:1 288:1 301:1 306:1 326:1 344:1 367:1 377:1 401:1 450:1 518:1 600:1 670:1 760:1 799:1 889:1 931:1 971:1 1068:1 1136:1 1213:1 1266:1 1286:1 1368:1 1439:1 1529:1 
-0.0088845085953034829 2:1 5:1 9:1 15:1 19:1 21:1 28:1 32:1 35:1 37:1 43:1 47:1 52:1 54:1 57:1 62:1 68:1 72:1 75:1 80:1 85:1 97:1 115:1 139:1 153:1 164:1 192:1 207:1 217:1 227:1 251:1 268:1 286:1 293:1 306:1 328:1 352:1 367:1 380:1 401:1 451:1 523:1 617:1 676:1 720:1 831:1 889:1 931:1 971:1 1068:1 1134:1 1205:1 1234:1 1288:1 1376:1 1471:1 1532:1 
0.0073361302365923019 2:1 5:1 9:1 16:1 17:1 21:1 26:1 32:1 35:1 37:1 43:1 47:1 52:1 56:1 60:1 64:1 65:1 72:1 76:1 79:1 85:1 97:1 116:1 141:1 145:1 162:1 184:1 207:1 217:1 227:1 251:1 268:1 288:1 304:1 320:1 333:1 340:1 368:1 383:1 401:1 452:1 525:1 625:1 642:1 712:1 799:1 889:1 931:1 971:1 1068:1 1136:1 1216:1 1280:1 1341:1 1396:1 1424:1 1535:1 
0.0070776461950415965 2:1 5:1 9:1 16:1 18:1 22:1 28:1 32:1 35:1 37:1 43:1 47:1 52:1 56:1 60:1 64:1 67:1 70:1 76:1 78:1 85:1 97:1 116:1 142:1 150:1 168:1 192:1 207:1 217:1 227:1 251:1 268:1 288:1 304:1 320:1 335:1 346:1 360:1 382:1 401:1 452:1 526:1 630:1 664:1 736:1 831:1 889:1 931:1 971:1 1068:1 1136:1 1216:1 1280:1 1343:1 1402:1 1448:1 1502:1 
0.01 2:1 5:1 10:1 13:1 20:1 21:1 26:1 32:1 35:1 37:1 43:1 47:1 52:1 56:1 60:1 63:1 65:1 69:1 73:1 78:1 85:1 98:1 117:1 132:1 157:1 162:1 184:1 207:1 217:1 227:1 251:1 268:1 288:1 304:1 319:1 329:1 337:1 353:1 370:1 402:1 453:1 532:1 589:1 690:1 712:1 799:1 889:1 931:1 971:1 1068:1 1136:1 1216:1 1279:1 1337:1 1377:1 1409:1 1474:1 
0.0038561935100520999 2:1 5:1 10:1 13:1 20:1 23:1 28:1 32:1 35:1 37:1 43:1 47:1 52:1 56:1 57:1 64:1 68:1 72:1 74:1 78:1 85:1 98:1 117:1 132:1 159:1 172:1 192:1 207:1 217:1 227:1 251:1 268:1 288:1 301:1 308:1 336:1 352:1 366:1 374:1 402:1 453:1 532:1 591:1 700:1 752:1 831:1 889:1 931:1 971:1 1068:1 1136:1 1213:1 1268:1 1296:1 1408:1 1470:1 1526:1 
-0.01 2:1 5:1 10:1 14:1 17:1 23:1 26:1 32:1 35:1 37:1 43:1 47:1 52:1 56:1 60:1 63:1 67:1 70:1 73:1 80:1 85:1 98:1 118:1 133:1 147:1 170:1 184:1 207:1 217:1 227:1 251:1 268:1 288:1 304:1 319:1 331:1 346:1 357:1 372:1 402:1 454:1 533:1 595:1 650:1 744:1 799:1 889:1 931:1 971:1 1068:1 1136:1 1216:1 1279:1 1339:1 1386:1 1445:1 1492:1 
-0.01 2:1 5:1 10:1 14:1 17:1 24:1 26:1 32:1 35:1 37:1 43:1 47:1 52:1 56:1 57:1 63:1 67:1 71:1 74:1 80:1 85:1 98:1 118:1 133:1 148:1 174:1 184:1 207:1 217:1 227:1 251:1 268:1 288:1 301:1 307:1 331:1 347:1 362:1 376:1 402:1 454:1 533:1 596:1 654:1 760:1 799:1 889:1 931:1 971:1 1068:1 1136:1 1213:1 1267:1 1291:1 1387:1 1450:1 1512:1 
-0.01 2:1 5:1 10:1 14:1 18:1 24:1 28:1 32:1 35:1 37:1 43:1 47:1 52:1 54:1 58:1 63:1 65:1 72:1 73:1 77:1 85:1 98:1 118:1 134:1 152:1 176:1 192:1 207:1 217:1 227:1 251:1 268:1 286:1 294:1 311:1 329:1 340:1 365:1 369:1 402:1 454:1 534:1 600:1 672:1 768:1 831:1 889:1 931:1 971:1 1068:1 1134:1 1206:1 1239:1 1305:1 1380:1 1421:1 1521:1 
0.0028049531872825547 2:1 5:1 10:1 16:1 18:1 21:1 26:1 32:1 35:1 37:1 43:1 47:1 52:1 56:1 60:1 63:1 66:1 72:1 73:1 79:1 85:1 98:1 120:1 142:1 149:1 162:1 184:1 207:1 217:1 227:1 251:1 268:1 288:1 304:1 319:1 330:1 344:1 365:1 371:1 402:1 456:1 542:1 629:1 658:1 712:1 799:1 889:1 931:1 971:1 1068:1 1136:1 1216:1 1279:1 1338:1 1384:1 1437:1 1523:1 
-0.01 2:1 5:1 11:1 13:1 18:1 24:1 28:1 32:1 35:1 37:1 43:1 47:1 52:1 54:1 58:1 64:1 67:1 71:1 73:1 79:1 85:1 99:1 121:1 130:1 152:1 176:1 192:1 207:1 217:1 227:1 251:1 268:1 286:1 294:1 312:1 335:1 347:1 361:1 371:1 403:1 457:1 546:1 584:1 672:1 768:1 831:1 889:1 931:1 971:1 1068:1 1134:1 1206:1 1240:1 1311:1 1403:1 1449:1 1507:1 
0.0089143651735651159 2:1 5:1 11:1 13:1 20:1 22:1 28:1 32:1 35:1 37:1 43:1 47:1 52:1 54:1 57:1 61:1 65:1 69:1 75:1 79:1 85:1 99:1 121:1 132:1 158:1 168:1 192:1 207:1 217:1 227:1 251:1 268:1 286:1 293:1 305:1 321:1 337:1 355:1 379:1 403:1 457:1 548:1 590:1 696:1 736:1 831:1 889:1 931:1 971:1 1068:1 1134:1 1205:1 1233:1 1281:1 1345:1 1411:1 1483:1 
0.0033994378976870054 2:1 5:1 11:1 13:1 20:1 24:1 28:1 32:1 35:1 37:1 43:1 47:1 52:1 56:1 57:1 63:1 67:1 69:1 76:1 79:1 85:1 99:1 121:1 132:1 160:1 176:1 192:1 207:1 217:1 227:1 251:1 268:1 288:1 301:1 307:1 331:1 345:1 356:1 383:1 403:1 457:1 548:1 592:1 704:1 768:1 831:1 889:1 931:1 971:1 1068:1 1136:1 1213:1 1267:1 1291:1 1385:1 1444:1 1487:1 
-0.0076248608351291583 2:1 5:1 11:1 14:1 17:1 22:1 28:1 32:1 35:1 37:1 43:1 47:1 52:1 54:1 57:1 63:1 67:1 69:1 75:1 80:1 85:1 99:1 122:1 133:1 146:1 168:1 192:1 207:1 217:1 227:1 251:1 268:1 286:1 293:1 307:1 331:1 345:1 355:1 380:1 403:1 458:1 549:1 594:1 648:1 736:1 831:1 889:1 931:1 971:1 1068:1 1134:1 1205:1 1235:1 1291:1 1385:1 1443:1 1484:1 
-0.01 2:1 5:1 11:1 14:1 17:1 23:1 28:1 32:1 35:1 37:1 43:1 47:1 52:1 56:1 60:1 62:1 68:1 71:1 75:1 78:1 85:1 99:1 122:1 133:1 147:1 172:1 192:1 207:1 217:1 227:1 251:1 268:1 288:1 304:1 318:1 328:1 351:1 363:1 378:1 403:1 458:1 549:1 595:1 652:1 752:1 831:1 889:1 931:1 971:1 1068:1 1136:1 1216:1 1278:1 1336:1 1375:1 1467:1 1514:1 
0.01 2:1 5:1 11:1 14:1 20:1 23:1 26:1 32:1 35:1 37:1 43:1 47:1 52:1 56:1 60:1 62:1 68:1 69:1 75:1 77:1 85:1 99:1 122:1 136:1 159:1 170:1 184:1 207:1 217:1 227:1 251:1 268:1 288:1 304:1 318:1 328:1 349:1 355:1 377:1 403:1 458:1 552:1 607:1 698:1 744:1 799:1 889:1 931:1 971:1 1068:1 1136:1 1216:1 1278:1 1336:1 1373:1 1459:1 1481:1 
-0.01 2:1 5:1 11:1 15:1 17:1 24:1 28:1 32:1 35:1 37:1 43:1 47:1 52:1 56:1 60:1 62:1 68:1 71:1 74:1 77:1 85:1 99:1 123:1 137:1 148:1 176:1 192:1 207:1 217:1 227:1 251:1 268:1 288:1 304:1 318:1 328:1 351:1 362:1 373:1 403:1 459:1 553:1 612:1 656:1 768:1 831:1 889:1 931:1 971:1 1068:1 1136:1 1216:1 1278:1 1336:1 1375:1 1466:1 1509:1 
0.01 2:1 5:1 11:1 15:1 18:1 21:1 28:1 32:1 35:1 37:1 43:1 47:1 52:1 56:1 60:1 63:1 67:1 70:1 76:1 80:1 85:1 99:1 123:1 138:1 149:1 164:1 192:1 207:1 217:1 227:1 251:1 268:1 288:1 304:1 319:1 331:1 346:1 360:1 384:1 403:1 459:1 554:1 613:1 660:1 720:1 831:1 889:1 931:1 971:1 1068:1 1136:1 1216:1 1279:1 1339:1 1386:1 1448:1 1504:1 
-0.00026150825655370816 2:1 5:1 11:1 15:1 18:1 24:1 28:1 32:1 35:1 37:1 43:1 47:1 52:1 54:1 60:1 62:1 66:1 69:1 76:1 80:1 85:1 99:1 123:1 138:1 152:1 176:1 192:1 207:1 217:1 227:1 251:1 268:1 286:1 296:1 318:1 326:1 341:1 356:1 384:1 403:1 459:1 554:1 616:1 672:1 768:1 831:1 889:1 931:1 971:1 1068:1 1134:1 1208:1 1246:1 1334:1 1365:1 1428:1 1488:1 
0.0061721043240534788 2:1 5:1 11:1 15:1 18:1 24:1 28:1 32:1 35:1 37:1 43:1 47:1 52:1 56:1 60:1 63:1 68:1 71:1 73:1 79:1 85:1 99:1 123:1 138:1 152:1 176:1 192:1 207:1 217:1 227:1 251:1 268:1 288:1 304:1 319:1 332:1 351:1 361:1 371:1 403:1 459:1 554:1 616:1 672:1 768:1 831:1 889:1 931:1 971:1 1068:1 1136:1 1216:1 1279:1 1340:1 1391:1 1465:1 1507:1 
0.0054691608419533706 2:1 5:1 11:1 15:1 19:1 24:1 28:1 32:1 35:1 37:1 43:1 47:1 52:1 56:1 60:1 64:1 67:1 71:1 73:1 77:1 85:1 99:1 123:1 139:1 156:1 176:1 192:1 207:1 217:1 227:1 251:1 268:1 288:1 304:1 320:1 335:1 347:1 361:1 369:1 403:1 459:1 555:1 620:1 688:1 768:1 831:1 889:1 931:1 971:1 1068:1 1136:1 1216:1 1280:1 1343:1 1403:1 1449:1 1505:1 
0.01 2:1 5:1 11:1 15:1 20:1 21:1 28:1 32:1 35:1 37:1 43:1 47:1 52:1 54:1 57:1 63:1 66:1 70:1 74:1 80:1 85:1 99:1 123:1 140:1 157:1 164:1 192:1 207:1 217:1 227:1 251:1 268:1 286:1 293:1 307:1 330:1 342:1 358:1 376:1 403:1 459:1 556:1 621:1 692:1 720:1 831:1 889:1 931:1 971:1 1068:1 1134:1 1205:1 1235:1 1290:1 1382:1 1430:1 1496:1 
-0.0010380955680982344 2:1 5:1 11:1 15:1 20:1 22:1 28:1 32:1 35:1 37:1 43:1 47:1 52:1 56:1 60:1 64:1 65:1 69:1 74:1 78:1 85:1 99:1 123:1 140:1 158:1 168:1 192:1 207:1 217:1 227:1 251:1 268:1 288:1 304:1 320:1 333:1 337:1 354:1 374:1 403:1 459:1 556:1 622:1 696:1 736:1 831:1 889:1 931:1 971:1 1068:1 1136:1 1216:1 1280:1 1341:1 1393:1 1410:1 1478:1 
-0.01 2:1 5:1 11:1 15:1 20:1 23:1 26:1 32:1 35:1 37:1 43:1 47:1 52:1 56:1 57:1 64:1 67:1 70:1 73:1 77:1 85:1 99:1 123:1 140:1 159:1 170:1 184:1 207:1 217:1 227:1 251:1 268:1 288:1 301:1 308:1 335:1 346:1 357:1 369:1 403:1 459:1 556:1 623:1 698:1 744:1 799:1 889:1 931:1 971:1 1068:1 1136:1 1213:1 1268:1 1295:1 1402:1 1445:1 1489:1 
0.0070442416200158014 2:1 5:1 11:1 15:1 20:1 23:1 28:1 32:1 35:1 37:1 43:1 47:1 52:1 54:1 57:1 61:1 67:1 70:1 74:1 77:1 85:1 99:1 123:1 140:1 159:1 172:1 192:1 207:1 217:1 227:1 251:1 268:1 286:1 293:1 305:1 323:1 346:1 358:1 373:1 403:1 459:1 556:1 623:1 700:1 752:1 831:1 889:1 931:1 971:1 1068:1 1134:1 1205:1 1233:1 1283:1 1354:1 1446:1 1493:1 
-0.01 2:1 5:1 11:1 16:1 20:1 21:1 28:1 32:1 35:1 37:1 43:1 47:1 52:1 54:1 57:1 63:1 65:1 71:1 73:1 80:1 85:1 99:1 124:1 144:1 157:1 164:1 192:1 207:1 217:1 227:1 251:1 268:1 286:1 293:1 307:1 329:1 339:1 361:1 372:1 403:1 460:1 560:1 637:1 692:1 720:1 831:1 889:1 931:1 971:1 1068:1 1134:1 1205:1 1235:1 1289:1 1379:1 1417:1 1508:1 
0.0051279204788337298 2:1 5:1 12:1 14:1 20:1 23:1 28:1 32:1 35:1 37:1 43:1 47:1 52:1 54:1 57:1 63:1 67:1 69:1 73:1 79:1 85:1 100:1 126:1 136:1 159:1 172:1 192:1 207:1 217:1 227:1 251:1 268:1 286:1 293:1 307:1 331:1 345:1 353:1 371:1 404:1 462:1 568:1 607:1 700:1 752:1 831:1 889:1 931:1 971:1 1068:1 1134:1 1205:1 1235:1 1291:1 1385:1 1441:1 1475:1 
0.01 2:1 5:1 12:1 16:1 17:1 21:1 28:1 32:1 35:1 37:1 43:1 47:1 52:1 56:1 57:1 61:1 65:1 69:1 76:1 79:1 85:1 100:1 128:1 141:1 145:1 164:1 192:1 207:1 217:1 227:1 251:1 268:1 288:1 301:1 305:1 321:1 337:1 356:1 383:1 404:1 464:1 573:1 625:1 644:1 720:1 831:1 889:1 931:1 971:1 1068:1 1136:1 1213:1 1265:1 1281:1 1345:1 1412:1 1487:1 
-0.01 2:1 5:1 12:1 16:1 17:1 24:1 28:1 32:1 35:1 37:1 43:1 47:1 52:1 56:1 60:1 64:1 67:1 71:1 74:1 78:1 85:1 100:1 128:1 141:1 148:1 176:1 192:1 207:1 217:1 227:1 251:1 268:1 288:1 304:1 320:1 335:1 347:1 362:1 374:1 404:1 464:1 573:1 628:1 656:1 768:1 831:1 889:1 931:1 971:1 1068:1 1136:1 1216:1 1280:1 1343:1 1403:1 1450:1 1510:1 
0.01 2:1 5:1 12:1 16:1 18:1 24:1 28:1 32:1 35:1 37:1 43:1 47:1 52:1 56:1 57:1 63:1 67:1 72:1 75:1 79:1 85:1 100:1 128:1 142:1 152:1 176:1 192:1 207:1 217:1 227:1 251:1 268:1 288:1 301:1 307:1 331:1 348:1 367:1 379:1 404:1 464:1 574:1 632:1 672:1 768:1 831:1 889:1 931:1 971:1 1068:1 1136:1 1213:1 1267:1 1291:1 1388:1 1455:1 1531:1 
-0.01 2:1 5:1 12:1 16:1 20:1 22:1 28:1 32:1 35:1 37:1 43:1 47:1 52:1 54:1 57:1 63:1 66:1 72:1 74:1 78:1 85:1 100:1 128:1 144:1 158:1 168:1 192:1 207:1 217:1 227:1 251:1 268:1 286:1 293:1 307:1 330:1 344:1 366:1 374:1 404:1 464:1 576:1 638:1 696:1 736:1 831:1 889:1 931:1 971:1 1068:1 1134:1 1205:1 1235:1 1290:1 1384:1 1438:1 1526:1 
0.01 2:1 5:1 12:1 16:1 20:1 24:1 28:1 32:1 35:1 37:1 43:1 47:1 52:1 56:1 60:1 64:1 67:1 72:1 76:1 80:1 85:1 100:1 128:1 144:1 160:1 176:1 192:1 207:1 217:1 227:1 251:1 268:1 288:1 304:1 320:1 335:1 348:1 368:1 384:1 404:1 464:1 576:1 640:1 704:1 768:1 831:1 889:1 931:1 971:1 1068:1 1136:1 1216:1 1280:1 1343:1 1404:1 1456:1 1536:1 
0.0098347529113981882 2:1 6:1 9:1 14:1 20:1 23:1 28:1 32:1 35:1 37:1 43:1 47:1 52:1 56:1 57:1 62:1 65:1 69:1 75:1 77:1 86:1 101:1 114:1 136:1 159:1 172:1 192:1 207:1 217:1 227:1 251:1 268:1 288:1 301:1 306:1 325:1 337:1 355:1 377:1 405:1 466:1 520:1 607:1 700:1 752:1 831:1 889:1 931:1 971:1 1068:1 1136:1 1213:1 1266:1 1285:1 1361:1 1411:1 1481:1 
0.0084626252352451321 2:1 6:1 9:1 15:1 18:1 22:1 28:1 32:1 35:1 37:1 43:1 47:1 52:1 56:1 60:1 64:1 67:1 71:1 74:1 79:1 86:1 101:1 115:1 138:1 150:1 168:1 192:1 207:1 217:1 227:1 251:1 268:1 288:1 304:1 320:1 335:1 347:1 362:1 375:1 405:1 467:1 522:1 614:1 664:1 736:1 831:1 889:1 931:1 971:1 1068:1 1136:1 1216:1 1280:1 1343:1 1403:1 1450:1 1511:1 
0.01 2:1 6:1 9:1 15:1 19:1 24:1 28:1 32:1 35:1 37:1 43:1 47:1 52:1 54:1 57:1 63:1 65:1 71:1 74:1 77:1 86:1 101:1 115:1 139:1 156:1 176:1 192:1 207:1 217:1 227:1 251:1 268:1 286:1 293:1 307:1 329:1 339:1 362:1 373:1 405:1 467:1 523:1 620:1 688:1 768:1 831:1 889:1 931:1 971:1 1068:1 1134:1 1205:1 1235:1 1289:1 1379:1 1418:1 1509:1 
0.00046209138944158014 2:1 6:1 9:1 15:1 19:1 24:1 28:1 32:1 35:1 37:1 43:1 47:1 52:1 56:1 57:1 63:1 68:1 72:1 73:1 78:1 86:1 101:1 115:1 139:1 156:1 176:1 192:1 207:1 217:1 227:1 251:1 268:1 288:1 301:1 307:1 332:1 352:1 365:1 370:1 405:1 467:1 523:1 620:1 688:1 768:1 831:1 889:1 931:1 971:1 1068:1 1136:1 1213:1 1267:1 1292:1 1392:1 1469:1 1522:1 
-0.01 2:1 6:1 9:1 15:1 20:1 22:1 26:1 32:1 35:1 37:1 43:1 47:1 52:1 56:1 57:1 62:1 66:1 72:1 76:1 79:1 86:1 101:1 115:1 140:1 158:1 166:1 184:1 207:1 217:1 227:1 251:1 268:1 288:1 301:1 306:1 326:1 344:1 368:1 383:1 405:1 467:1 524:1 622:1 694:1 728:1 799:1 889:1 931:1 971:1 1068:1 1136:1 1213:1 1266:1 1286:1 1368:1 1440:1 1535:1 
-0.01 2:1 6:1 9:1 15:1 20:1 22:1 28:1 32:1 35:1 37:1 43:1 47:1 52:1 56:1 60:1 63:1 67:1 70:1 74:1 77:1 86:1 101:1 115:1 140:1 158:1 168:1 192:1 207:1 217:1 227:1 251:1 268:1 288:1 304:1 319:1 331:1 346:1 358:1 373:1 405:1 467:1 524:1 622:1 696:1 736:1 831:1 889:1 931:1 971:1 1068:1 1136:1 1216:1 1279:1 1339:1 1386:1 1446:1 1493:1 
-0.0058001606957796574 2:1 6:1 9:1 16:1 17:1 21:1 28:1 32:1 35:1 37:1 43:1 47:1 52:1 54:1 57:1 64:1 68:1 71:1 74:1 80:1 86:1 101:1 116:1 141:1 145:1 164:1 192:1 207:1 217:1 227:1 251:1 268:1 286:1 293:1 308:1 336:1 351:1 362:1 376:1 405:1 468:1 525:1 625:1 644:1 720:1 831:1 889:1 931:1 971:1 1068:1 1134:1 1205:1 1236:1 1296:1 1407:1 1466:1 1512:1 
0.01 2:1 6:1 9:1 16:1 19:1 23:1 28:1 32:1 35:1 37:1 43:1 47:1 52:1 56:1 59:1 61:1 67:1 71:1 76:1 80:1 86:1 101:1 116:1 143:1 155:1 172:1 192:1 207:1 217:1 227:1 251:1 268:1 288:1 303:1 313:1 323:1 347:1 364:1 384:1 405:1 468:1 527:1 635:1 684:1 752:1 831:1 889:1 931:1 971:1 1068:1 1136:1 1215:1 1273:1 1315:1 1355:1 1452:1 1520:1 
0.01 2:1 6:1 10:1 13:1 19:1 23:1 26:1 32:1 35:1 37:1 43:1 47:1 52:1 56:1 60:1 64:1 67:1 70:1 74:1 77:1 86:1 102:1 117:1 131:1 155:1 170:1 184:1 207:1 217:1 227:1 251:1 268:1 288:1 304:1 320:1 335:1 346:1 358:1 373:1 406:1 469:1 531:1 587:1 682:1 744:1 799:1 889:1 931:1 971:1 1068:1 1136:1 1216:1 1280:1 1343:1 1402:1 1446:1 1493:1 
-0.01 2:1 6:1 10:1 13:1 19:1 23:1 28:1 32:1 35:1 37:1 43:1 47:1 52:1 56:1 59:1 62:1 65:1 72:1 75:1 80:1 86:1 102:1 117:1 131:1 155:1 172:1 192:1 207:1 217:1 227:1 251:1 268:1 288:1 303:1 314:1 325:1 340:1 367:1 380:1 406:1 469:1 531:1 587:1 684:1 752:1 831:1 889:1 931:1 971:1 1068:1 1136:1 1215:1 1274:1 1317:1 1364:1 1423:1 1532:1 
0.0084983023216580866 2:1 6:1 10:1 13:1 19:1 24:1 28:1 32:1 35:1 37:1 43:1 47:1 52:1 54:1 60:1 63:1 65:1 71:1 74:1 78:1 86:1 102:1 117:1 131:1 156:1 176:1 192:1 207:1 217:1 227:1 251:1 268:1 286:1 296:1 319:1 329:1 339:1 362:1 374:1 406:1 469:1 531:1 588:1 688:1 768:1 831:1 889:1 931:1 971:1 1068:1 1134:1 1208:1 1247:1 1337:1 1379:1 1418:1 1510:1 
0.01 2:1 6:1 10:1 13:1 20:1 24:1 28:1 32:1 35:1 37:1 43:1 47:1 52:1 54:1 57:1 62:1 65:1 70:1 73:1 78:1 86:1 102:1 117:1 132:1 160:1 176:1 192:1 207:1 217:1 227:1 251:1 268:1 286:1 293:1 306:1 325:1 338:1 357:1 370:1 406:1 469:1 532:1 592:1 704:1 768:1 831:1 889:1 931:1 971:1 1068:1 1134:1 1205:1 1234:1 1285:1 1362:1 1413:1 1490:1 
-0.01 2:1 6:1 10:1 16:1 20:1 24:1 28:1 32:1 35:1 37:1 43:1 47:1 52:1 54:1 58:1 64:1 68:1 70:1 74:1 80:1 86:1 102:1 120:1 144:1 160:1 176:1 192:1 207:1 217:1 227:1 251:1 268:1 286:1 294:1 312:1 336:1 350:1 358:1 376:1 406:1 472:1 544:1 640:1 704:1 768:1 831:1 889:1 931:1 971:1 1068:1 1134:1 1206:1 1240:1 1312:1 1406:1 1462:1 1496:1 
9.4002410696113591e-05 2:1 6:1 11:1 15:1 17:1 24:1 28:1 32:1 35:1 37:1 43:1 47:1 52:1 54:1 58:1 64:1 66:1 71:1 75:1 79:1 86:1 103:1 123:1 137:1 148:1 176:1 192:1 207:1 217:1 227:1 251:1 268:1 286:1 294:1 312:1 334:1 343:1 363:1 379:1 407:1 475:1 553:1 612:1 656:1 768:1 831:1 889:1 931:1 971:1 1068:1 1134:1 1206:1 1240:1 1310:1 1399:1 1435:1 1515:1 
0.01 2:1 6:1 12:1 14:1 18:1 21:1 26:1 32:1 35:1 37:1 43:1 47:1 52:1 56:1 57:1 61:1 67:1 72:1 76:1 79:1 86:1 104:1 126:1 134:1 149:1 162:1 184:1 207:1 217:1 227:1 251:1 268:1 288:1 301:1 305:1 323:1 348:1 368:1 383:1 408:1 478:1 566:1 597:1 658:1 712:1 799:1 889:1 931:1 971:1 1068:1 1136:1 1213:1 1265:1 1283:1 1356:1 1456:1 1535:1 
0.0052151123414947475 2:1 6:1 12:1 14:1 18:1 23:1 28:1 32:1 35:1 37:1 43:1 47:1 52:1 56:1 57:1 63:1 66:1 69:1 75:1 80:1 86:1 104:1 126:1 134:1 151:1 172:1 192:1 207:1 217:1 227:1 251:1 268:1 288:1 301:1 307:1 330:1 341:1 355:1 380:1 408:1 478:1 566:1 599:1 668:1 752:1 831:1 889:1 931:1 971:1 1068:1 1136:1 1213:1 1267:1 1290:1 1381:1 1427:1 1484:1 
-0.01 2:1 6:1 12:1 14:1 18:1 24:1 26:1 32:1 35:1 37:1 43:1 47:1 52:1 56:1 57:1 61:1 68:1 71:1 76:1 80:1 86:1 104:1 126:1 134:1 152:1 174:1 184:1 207:1 217:1 227:1 251:1 268:1 288:1 301:1 305:1 324:1 351:1 364:1 384:1 408:1 478:1 566:1 600:1 670:1 760:1 799:1 889:1 931:1 971:1 1068:1 1136:1 1213:1 1265:1 1284:1 1359:1 1468:1 1520:1 
0.0058634276608386087 2:1 6:1 12:1 14:1 19:1 21:1 26:1 32:1 35:1 37:1 43:1 47:1 52:1 56:1 60:1 64:1 65:1 72:1 76:1 80:1 86:1 104:1 126:1 135:1 153:1 162:1 184:1 207:1 217:1 227:1 251:1 268:1 288:1 304:1 320:1 333:1 340:1 368:1 384:1 408:1 478:1 567:1 601:1 674:1 712:1 799:1 889:1 931:1 971:1 1068:1 1136:1 1216:1 1280:1 1341:1 1396:1 1424:1 1536:1 
-0.01 2:1 6:1 12:1 15:1 18:1 21:1 26:1 32:1 35:1 37:1 43:1 47:1 52:1 56:1 57:1 63:1 68:1 71:1 73:1 79:1 86:1 104:1 127:1 138:1 149:1 162:1 184:1 207:1 217:1 227:1 251:1 268:1 288:1 301:1 307:1 332:1 351:1 361:1 371:1 408:1 479:1 570:1 613:1 658:1 712:1 799:1 889:1 931:1 971:1 1068:1 1136:1 1213:1 1267:1 1292:1 1391:1 1465:1 1507:1 
0.00080373226016706284 2:1 6:1 12:1 15:1 18:1 22:1 26:1 32:1 35:1 37:1 43:1 47:1 52:1 56:1 60:1 63:1 67:1 70:1 73:1 79:1 86:1 104:1 127:1 138:1 150:1 166:1 184:1 207:1 217:1 227:1 251:1 268:1 288:1 304:1 319:1 331:1 346:1 357:1 371:1 408:1 479:1 570:1 614:1 662:1 728:1 799:1 889:1 931:1 971:1 1068:1 1136:1 1216:1 1279:1 1339:1 1386:1 1445:1 1491:1 
-0.01 2:1 6:1 12:1 15:1 19:1 21:1 26:1 32:1 35:1 37:1 43:1 47:1 52:1 56:1 60:1 62:1 65:1 71:1 74:1 80:1 86:1 104:1 127:1 139:1 153:1 162:1 184:1 207:1 217:1 227:1 251:1 268:1 288:1 304:1 318:1 325:1 339:1 362:1 376:1 408:1 479:1 571:1 617:1 674:1 712:1 799:1 889:1 931:1 971:1 1068:1 1136:1 1216:1 1278:1 1333:1 1363:1 1418:1 1512:1 
-0.00082131213551373623 2:1 6:1 12:1 15:1 20:1 21:1 26:1 32:1 35:1 37:1 43:1 47:1 52:1 56:1 60:1 62:1 68:1 69:1 76:1 80:1 86:1 104:1 127:1 140:1 157:1 162:1 184:1 207:1 217:1 227:1 251:1 268:1 288:1 304:1 318:1 328:1 349:1 356:1 384:1 408:1 479:1 572:1 621:1 690:1 712:1 799:1 889:1 931:1 971:1 1068:1 1136:1 1216:1 1278:1 1336:1 1373:1 1460:1 1488:1 
-0.01 2:1 6:1 12:1 15:1 20:1 24:1 26:1 32:1 35:1 37:1 43:1 47:1 52:1 56:1 60:1 61:1 65:1 71:1 75:1 77:1 86:1 104:1 127:1 140:1 160:1 174:1 184:1 207:1 217:1 227:1 251:1 268:1 288:1 304:1 317:1 321:1 339:1 363:1 377:1 408:1 479:1 572:1 624:1 702:1 760:1 799:1 889:1 931:1 971:1 1068:1 1136:1 1216:1 1277:1 1329:1 1347:1 1419:1 1513:1 
0.01 2:1 6:1 12:1 15:1 20:1 24:1 28:1 32:1 35:1 37:1 43:1 47:1 52:1 56:1 59:1 63:1 65:1 72:1 76:1 80:1 86:1 104:1 127:1 140:1 160:1 176:1 192:1 207:1 217:1 227:1 251:1 268:1 288:1 303:1 315:1 329:1 340:1 368:1 384:1 408:1 479:1 572:1 624:1 704:1 768:1 831:1 889:1 931:1 971:1 1068:1 1136:1 1215:1 1275:1 1321:1 1380:1 1424:1 1536:1 
0.01 2:1 6:1 12:1 16:1 17:1 24:1 28:1 32:1 35:1 37:1 43:1 47:1 52:1 56:1 60:1 64:1 68:1 70:1 73:1 80:1 86:1 104:1 128:1 141:1 148:1 176:1 192:1 207:1 217:1 227:1 251:1 268:1 288:1 304:1 320:1 336:1 350:1 357:1 372:1 408:1 480:1 573:1 628:1 656:1 768:1 831:1 889:1 931:1 971:1 1068:1 1136:1 1216:1 1280:1 1344:1 1406:1 1461:1 1492:1 
-0.01 2:1 6:1 12:1 16:1 18:1 21:1 26:1 32:1 35:1 37:1 43:1 47:1 52:1 56:1 57:1 63:1 65:1 71:1 74:1 78:1 86:1 104:1 128:1 142:1 149:1 162:1 184:1 207:1 217:1 227:1 251:1 268:1 288:1 301:1 307:1 329:1 339:1 362:1 374:1 408:1 480:1 574:1 629:1 658:1 712:1 799:1 889:1 931:1 971:1 1068:1 1136:1 1213:1 1267:1 1289:1 1379:1 1418:1 1510:1 
-0.01 2:1 6:1 12:1 16:1 19:1 23:1 28:1 32:1 35:1 37:1 43:1 47:1 52:1 56:1 60:1 63:1 68:1 72:1 73:1 80:1 86:1 104:1 128:1 143:1 155:1 172:1 192:1 207:1 217:1 227:1 251:1 268:1 288:1 304:1 319:1 332:1 352:1 365:1 372:1 408:1 480:1 575:1 635:1 684:1 752:1 831:1 889:1 931:1 971:1 1068:1 1136:1 1216:1 1279:1 1340:1 1392:1 1469:1 1524:1 
0.01 2:1 7:1 9:1 13:1 18:1 22:1 28:1 32:1 35:1 37:1 43:1 47:1 52:1 56:1 60:1 62:1 65:1 70:1 73:1 77:1 87:1 105:1 113:1 130:1 150:1 168:1 192:1 207:1 217:1 227:1 251:1 268:1 288:1 304:1 318:1 325:1 338:1 357:1 369:1 409:1 481:1 514:1 582:1 664:1 736:1 831:1 889:1 931:1 971:1 1068:1 1136:1 1216:1 1278:1 1333:1 1362:1 1413:1 1489:1 
0.01 2:1 7:1 10:1 16:1 18:1 24:1 26:1 32:1 35:1 37:1 43:1 47:1 52:1 56:1 57:1 61:1 66:1 70:1 73:1 79:1 87:1 106:1 120:1 142:1 152:1 174:1 184:1 207:1 217:1 227:1 251:1 268:1 288:1 301:1 305:1 322:1 342:1 357:1 371:1 410:1 488:1 542:1 632:1 670:1 760:1 799:1 889:1 931:1 971:1 1068:1 1136:1 1213:1 1265:1 1282:1 1350:1 1429:1 1491:1 
-0.01 2:1 7:1 11:1 13:1 17:1 23:1 26:1 32:1 35:1 37:1 43:1 47:1 52:1 56:1 57:1 63:1 65:1 69:1 76:1 79:1 87:1 107:1 121:1 129:1 147:1 170:1 184:1 207:1 217:1 227:1 251:1 268:1 288:1 301:1 307:1 329:1 337:1 356:1 383:1 411:1 489:1 545:1 579:1 650:1 744:1 799:1 889:1 931:1 971:1 1068:1 1136:1 1213:1 1267:1 1289:1 1377:1 1412:1 1487:1 
-0.0016543996619752907 2:1 7:1 11:1 15:1 17:1 21:1 26:1 32:1 35:1 37:1 43:1 47:1 52:1 56:1 57:1 61:1 66:1 69:1 76:1 79:1 87:1 107:1 123:1 137:1 145:1 162:1 184:1 207:1 217:1 227:1 251:1 268:1 288:1 301:1 305:1 322:1 341:1 356:1 383:1 411:1 491:1 553:1 609:1 642:1 712:1 799:1 889:1 931:1 971:1 1068:1 1136:1 1213:1 1265:1 1282:1 1349:1 1428:1 1487:1 
0.01 2:1 7:1 12:1 15:1 20:1 24:1 26:1 32:1 35:1 37:1 43:1 47:1 52:1 56:1 60:1 62:1 65:1 72:1 76:1 78:1 87:1 108:1 127:1 140:1 160:1 174:1 184:1 207:1 217:1 227:1 251:1 268:1 288:1 304:1 318:1 325:1 340:1 368:1 382:1 412:1 495:1 572:1 624:1 702:1 760:1 799:1 889:1 931:1 971:1 1068:1 1136:1 1216:1 1278:1 1333:1 1364:1 1424:1 1534:1 
-0.01 2:1 7:1 12:1 16:1 20:1 24:1 28:1 32:1 35:1 37:1 43:1 47:1 52:1 56:1 59:1 63:1 67:1 70:1 73:1 77:1 87:1 108:1 128:1 144:1 160:1 176:1 192:1 207:1 217:1 227:1 251:1 268:1 288:1 303:1 315:1 331:1 346:1 357:1 369:1 412:1 496:1 576:1 640:1 704:1 768:1 831:1 889:1 931:1 971:1 1068:1 1136:1 1215:1 1275:1 1323:1 1386:1 1445:1 1489:1 
0.01 2:1 8:1 9:1 13:1 17:1 24:1 28:1 32:1 35:1 37:1 43:1 47:1 52:1 56:1 60:1 64:1 66:1 72:1 75:1 79:1 88:1 109:1 113:1 129:1 148:1 176:1 192:1 207:1 217:1 227:1 251:1 268:1 288:1 304:1 320:1 334:1 344:1 367:1 379:1 413:1 497:1 513:1 580:1 656:1 768:1 831:1 889:1 931:1 971:1 1068:1 1136:1 1216:1 1280:1 1342:1 1400:1 1439:1 1531:1 
0.01 2:1 8:1 9:1 13:1 20:1 24:1 28:1 32:1 35:1 37:1 43:1 47:1 52:1 56:1 60:1 62:1 68:1 72:1 73:1 77:1 88:1 109:1 113:1 132:1 160:1 176:1 192:1 207:1 217:1 227:1 251:1 268:1 288:1 304:1 318:1 328:1 352:1 365:1 369:1 413:1 497:1 516:1 592:1 704:1 768:1 831:1 889:1 931:1 971:1 1068:1 1136:1 1216:1 1278:1 1336:1 1376:1 1469:1 1521:1 
-0.0018083494990972643 2:1 8:1 9:1 14:1 20:1 24:1 26:1 32:1 35:1 37:1 43:1 47:1 52:1 56:1 60:1 61:1 68:1 72:1 73:1 79:1 88:1 109:1 114:1 136:1 160:1 174:1 184:1 207:1 217:1 227:1 251:1 268:1 288:1 304:1 317:1 324:1 352:1 365:1 371:1 413:1 498:1 520:1 608:1 702:1 760:1 799:1 889:1 931:1 971:1 1068:1 1136:1 1216:1 1277:1 1332:1 1360:1 1469:1 1523:1 
-0.01 2:1 8:1 9:1 15:1 17:1 23:1 26:1 32:1 35:1 37:1 43:1 47:1 52:1 56:1 57:1 64:1 67:1 72:1 76:1 77:1 88:1 109:1 115:1 137:1 147:1 170:1 184:1 207:1 217:1 227:1 251:1 268:1 288:1 301:1 308:1 335:1 348:1 368:1 381:1 413:1 499:1 521:1 611:1 650:1 744:1 799:1 889:1 931:1 971:1 1068:1 1136:1 1213:1 1268:1 1295:1 1404:1 1456:1 1533:1 
0.0041120886850847596 2:1 8:1 9:1 15:1 18:1 24:1 28:1 32:1 35:1 37:1 43:1 47:1 52:1 56:1 57:1 63:1 66:1 70:1 76:1 79:1 88:1 109:1 115:1 138:1 152:1 176:1 192:1 207:1 217:1 227:1 251:1 268:1 288:1 301:1 307:1 330:1 342:1 360:1 383:1 413:1 499:1 522:1 616:1 672:1 768:1 831:1 889:1 931:1 971:1 1068:1 1136:1 1213:1 1267:1 1290:1 1382:1 1432:1 1503:1 
-0.0093105362641549734 2:1 8:1 9:1 15:1 18:1 24:1 28:1 32:1 35:1 37:1 43:1 47:1 52:1 56:1 58:1 62:1 68:1 71:1 76:1 79:1 88:1 109:1 115:1 138:1 152:1 176:1 192:1 207:1 217:1 227:1 251:1 268:1 288:1 302:1 310:1 328:1 351:1 364:1 383:1 413:1 499:1 522:1 616:1 672:1 768:1 831:1 889:1 931:1 971:1 1068:1 1136:1 1214:1 1270:1 1304:1 1375:1 1468:1 1519:1 
0.0023377748421067944 2:1 8:1 9:1 15:1 19:1 22:1 26:1 32:1 35:1 37:1 43:1 47:1 52:1 56:1 60:1 62:1 65:1 71:1 76:1 78:1 88:1 109:1 115:1 139:1 154:1 166:1 184:1 207:1 217:1 227:1 251:1 268:1 288:1 304:1 318:1 325:1 339:1 364:1 382:1 413:1 499:1 523:1 618:1 678:1 728:1 799:1 889:1 931:1 971:1 1068:1 1136:1 1216:1 1278:1 1333:1 1363:1 1420:1 1518:1 
0.01 2:1 8:1 9:1 16:1 17:1 24:1 28:1 32:1 35:1 37:1 43:1 47:1 52:1 56:1 60:1 62:1 65:1 71:1 76:1 80:1 88:1 109:1 116:1 141:1 148:1 176:1 192:1 207:1 217:1 227:1 251:1 268:1 288:1 304:1 318:1 325:1 339:1 364:1 384:1 413:1 500:1 525:1 628:1 656:1 768:1 831:1 889:1 931:1 971:1 1068:1 1136:1 1216:1 1278:1 1333:1 1363:1 1420:1 1520:1 
0.01 2:1 8:1 10:1 13:1 20:1 22:1 28:1 32:1 35:1 37:1 43:1 47:1 52:1 56:1 60:1 63:1 67:1 71:1 75:1 80:1 88:1 110:1 117:1 132:1 158:1 168:1 192:1 207:1 217:1 227:1 251:1 268:1 288:1 304:1 319:1 331:1 347:1 363:1 380:1 414:1 501:1 532:1 590:1 696:1 736:1 831:1 889:1 931:1 971:1 1068:1 1136:1 1216:1 1279:1 1339:1 1387:1 1451:1 1516:1 
-0.01 2:1 8:1 10:1 13:1 20:1 23:1 28:1 32:1 35:1 37:1 43:1 47:1 52:1 54:1 60:1 62:1 68:1 69:1 75:1 77:1 88:1 110:1 117:1 132:1 159:1 172:1 192:1 207:1 217:1 227:1 251:1 268:1 286:1 296:1 318:1 328:1 349:1 355:1 377:1 414:1 501:1 532:1 591:1 700:1 752:1 831:1 889:1 931:1 971:1 1068:1 1134:1 1208:1 1246:1 1336:1 1373:1 1459:1 1481:1 
-0.0012254272829238394 2:1 8:1 10:1 14:1 17:1 21:1 28:1 32:1 35:1 37:1 43:1 47:1 52:1 56:1 60:1 62:1 65:1 69:1 74:1 77:1 88:1 110:1 118:1 133:1 145:1 164:1 192:1 207:1 217:1 227:1 251:1 268:1 288:1 304:1 318:1 325:1 337:1 354:1 373:1 414:1 502:1 533:1 593:1 644:1 720:1 831:1 889:1 931:1 971:1 1068:1 1136:1 1216:1 1278:1 1333:1 1361:1 1410:1 1477:1 
-0.01 2:1 8:1 10:1 15:1 20:1 24:1 28:1 32:1 35:1 37:1 43:1 47:1 52:1 56:1 57:1 61:1 65:1 71:1 76:1 78:1 88:1 110:1 119:1 140:1 160:1 176:1 192:1 207:1 217:1 227:1 251:1 268:1 288:1 301:1 305:1 321:1 339:1 364:1 382:1 414:1 503:1 540:1 624:1 704:1 768:1 831:1 889:1 931:1 971:1 1068:1 1136:1 1213:1 1265:1 1281:1 1347:1 1420:1 1518:1 
0.01 2:1 8:1 11:1 13:1 20:1 24:1 28:1 32:1 35:1 37:1 43:1 47:1 52:1 56:1 58:1 64:1 66:1 69:1 74:1 77:1 88:1 111:1 121:1 132:1 160:1 176:1 192:1 207:1 217:1 227:1 251:1 268:1 288:1 302:1 312:1 334:1 341:1 354:1 373:1 415:1 505:1 548:1 592:1 704:1 768:1 831:1 889:1 931:1 971:1 1068:1 1136:1 1214:1 1272:1 1310:1 1397:1 1426:1 1477:1 
-0.01 2:1 8:1 11:1 14:1 18:1 22:1 26:1 32:1 35:1 37:1 43:1 47:1 52:1 56:1 57:1 63:1 65:1 71:1 73:1 80:1 88:1 111:1 122:1 134:1 150:1 166:1 184:1 207:1 217:1 227:1 251:1 268:1 288:1 301:1 307:1 329:1 339:1 361:1 372:1 415:1 506:1 550:1 598:1 662:1 728:1 799:1 889:1 931:1 971:1 1068:1 1136:1 1213:1 1267:1 1289:1 1379:1 1417:1 1508:1 
0.00026470606069194097 2:1 8:1 11:1 14:1 18:1 24:1 28:1 32:1 35:1 37:1 43:1 47:1 52:1 56:1 60:1 63:1 67:1 71:1 75:1 78:1 88:1 111:1 122:1 134:1 152:1 176:1 192:1 207:1 217:1 227:1 251:1 268:1 288:1 304:1 319:1 331:1 347:1 363:1 378:1 415:1 506:1 550:1 600:1 672:1 768:1 831:1 889:1 931:1 971:1 1068:1 1136:1 1216:1 1279:1 1339:1 1387:1 1451:1 1514:1 
-0.009090499922700352 2:1 8:1 11:1 14:1 20:1 24:1 26:1 32:1 35:1 37:1 43:1 47:1 52:1 56:1 57:1 61:1 65:1 69:1 75:1 78:1 88:1 111:1 122:1 136:1 160:1 174:1 184:1 207:1 217:1 227:1 251:1 268:1 288:1 301:1 305:1 321:1 337:1 355:1 378:1 415:1 506:1 552:1 608:1 702:1 760:1 799:1 889:1 931:1 971:1 1068:1 1136:1 1213:1 1265:1 1281:1 1345:1 1411:1 1482:1 
0.01 2:1 8:1 11:1 15:1 17:1 24:1 26:1 32:1 35:1 37:1 43:1 47:1 52:1 56:1 60:1 63:1 67:1 72:1 76:1 77:1 88:1 111:1 123:1 137:1 148:1 174:1 184:1 207:1 217:1 227:1 251:1 268:1 288:1 304:1 319:1 331:1 348:1 368:1 381:1 415:1 507:1 553:1 612:1 654:1 760:1 799:1 889:1 931:1 971:1 1068:1 1136:1 1216:1 1279:1 1339:1 1388:1 1456:1 1533:1 
-0.01 2:1 8:1 11:1 15:1 18:1 22:1 28:1 32:1 35:1 37:1 43:1 47:1 52:1 56:1 60:1 62:1 67:1 71:1 73:1 78:1 88:1 111:1 123:1 138:1 150:1 168:1 192:1 207:1 217:1 227:1 251:1 268:1 288:1 304:1 318:1 327:1 347:1 361:1 370:1 415:1 507:1 554:1 614:1 664:1 736:1 831:1 889:1 931:1 971:1 1068:1 1136:1 1216:1 1278:1 1335:1 1371:1 1449:1 1506:1 
0.01 2:1 8:1 11:1 15:1 18:1 22:1 28:1 32:1 35:1 37:1 43:1 47:1 52:1 56:1 60:1 64:1 67:1 71:1 74:1 80:1 88:1 111:1 123:1 138:1 150:1 168:1 192:1 207:1 217:1 227:1 251:1 268:1 288:1 304:1 320:1 335:1 347:1 362:1 376:1 415:1 507:1 554:1 614:1 664:1 736:1 831:1 889:1 931:1 971:1 1068:1 1136:1 1216:1 1280:1 1343:1 1403:1 1450:1 1512:1 
-0.01 2:1 8:1 11:1 15:1 18:1 24:1 26:1 32:1 35:1 37:1 43:1 47:1 52:1 56:1 57:1 61:1 68:1 72:1 73:1 77:1 88:1 111:1 123:1 138:1 152:1 174:1 184:1 207:1 217:1 227:1 251:1 268:1 288:1 301:1 305:1 324:1 352:1 365:1 369:1 415:1 507:1 554:1 616:1 670:1 760:1 799:1 889:1 931:1 971:1 1068:1 1136:1 1213:1 1265:1 1284:1 1360:1 1469:1 1521:1 
0.01 2:1 8:1 11:1 15:1 18:1 24:1 28:1 32:1 35:1 37:1 43:1 47:1 52:1 54:1 60:1 61:1 68:1 72:1 73:1 77:1 88:1 111:1 123:1 138:1 152:1 176:1 192:1 207:1 217:1 227:1 251:1 268:1 286:1 296:1 317:1 324:1 352:1 365:1 369:1 415:1 507:1 554:1 616:1 672:1 768:1 831:1 889:1 931:1 971:1 1068:1 1134:1 1208:1 1245:1 1332:1 1360:1 1469:1 1521:1 
-0.01 2:1 8:1 11:1 15:1 19:1 23:1 28:1 32:1 35:1 37:1 43:1 47:1 52:1 54:1 59:1 63:1 66:1 72:1 76:1 78:1 88:1 111:1 123:1 139:1 155:1 172:1 192:1 207:1 217:1 227:1 251:1 268:1 286:1 295:1 315:1 330:1 344:1 368:1 382:1 415:1 507:1 555:1 619:1 684:1 752:1 831:1 889:1 931:1 971:1 1068:1 1134:1 1207:1 1243:1 1322:1 1384:1 1440:1 1534:1 
-0.0081013676531084822 2:1 8:1 11:1 15:1 20:1 22:1 28:1 32:1 35:1 37:1 43:1 47:1 52:1 56:1 60:1 62:1 67:1 69:1 73:1 79:1 88:1 111:1 123:1 140:1 158:1 168:1 192:1 207:1 217:1 227:1 251:1 268:1 288:1 304:1 318:1 327:1 345:1 353:1 371:1 415:1 507:1 556:1 622:1 696:1 736:1 831:1 889:1 931:1 971:1 1068:1 1136:1 1216:1 1278:1 1335:1 1369:1 1441:1 1475:1 
0.01 2:1 8:1 11:1 15:1 20:1 24:1 28:1 32:1 35:1 37:1 43:1 47:1 52:1 56:1 57:1 61:1 66:1 70:1 76:1 80:1 88:1 111:1 123:1 140:1 160:1 176:1 192:1 207:1 217:1 227:1 251:1 268:1 288:1 301:1 305:1 322:1 342:1 360:1 384:1 415:1 507:1 556:1 624:1 704:1 768:1 831:1 889:1 931:1 971:1 1068:1 1136:1 1213:1 1265:1 1282:1 1350:1 1432:1 1504:1 
-0.001675153499788471 2:1 8:1 11:1 15:1 20:1 24:1 28:1 32:1 35:1 37:1 43:1 47:1 52:1 56:1 59:1 64:1 66:1 69:1 75:1 77:1 88:1 111:1 123:1 140:1 160:1 176:1 192:1 207:1 217:1 227:1 251:1 268:1 288:1 303:1 316:1 334:1 341:1 355:1 377:1 415:1 507:1 556:1 624:1 704:1 768:1 831:1 889:1 931:1 971:1 1068:1 1136:1 1215:1 1276:1 1326:1 1397:1 1427:1 1481:1 
-0.01 2:1 8:1 11:1 16:1 17:1 22:1 26:1 32:1 35:1 37:1 43:1 47:1 52:1 56:1 57:1 62:1 65:1 70:1 75:1 77:1 88:1 111:1 124:1 141:1 146:1 166:1 184:1 207:1 217:1 227:1 251:1 268:1 288:1 301:1 306:1 325:1 338:1 359:1 377:1 415:1 508:1 557:1 626:1 646:1 728:1 799:1 889:1 931:1 971:1 1068:1 1136:1 1213:1 1266:1 1285:1 1362:1 1415:1 1497:1 
-0.0085802011559313711 2:1 8:1 11:1 16:1 19:1 21:1 26:1 32:1 35:1 37:1 43:1 47:1 52:1 56:1 57:1 64:1 67:1 72:1 75:1 80:1 88:1 111:1 124:1 143:1 153:1 162:1 184:1 207:1 217:1 227:1 251:1 268:1 288:1 301:1 308:1 335:1 348:1 367:1 380:1 415:1 508:1 559:1 633:1 674:1 712:1 799:1 889:1 931:1 971:1 1068:1 1136:1 1213:1 1268:1 1295:1 1404:1 1455:1 1532:1 
0.01 2:1 8:1 12:1 13:1 19:1 21:1 28:1 32:1 35:1 37:1 43:1 47:1 52:1 54:1 57:1 62:1 68:1 71:1 76:1 80:1 88:1 112:1 125:1 131:1 153:1 164:1 192:1 207:1 217:1 227:1 251:1 268:1 286:1 293:1 306:1 328:1 351:1 364:1 384:1 416:1 509:1 563:1 585:1 676:1 720:1 831:1 889:1 931:1 971:1 1068:1 1134:1 1205:1 1234:1 1288:1 1375:1 1468:1 1520:1 
0.01 2:1 8:1 12:1 14:1 17:1 23:1 28:1 32:1 35:1 37:1 43:1 47:1 52:1 54:1 57:1 63:1 65:1 72:1 75:1 78:1 88:1 112:1 126:1 133:1 147:1 172:1 192:1 207:1 217:1 227:1 251:1 268:1 286:1 293:1 307:1 329:1 340:1 367:1 378:1 416:1 510:1 565:1 595:1 652:1 752:1 831:1 889:1 931:1 971:1 1068:1 1134:1 1205:1 1235:1 1289:1 1380:1 1423:1 1530:1 
-0.0039488831516241085 2:1 8:1 12:1 14:1 17:1 24:1 26:1 32:1 35:1 37:1 43:1 47:1 52:1 56:1 57:1 63:1 68:1 70:1 73:1 80:1 88:1 112:1 126:1 133:1 148:1 174:1 184:1 207:1 217:1 227:1 251:1 268:1 288:1 301:1 307:1 332:1 350:1 357:1 372:1 416:1 510:1 565:1 596:1 654:1 760:1 799:1 889:1 931:1 971:1 1068:1 1136:1 1213:1 1267:1 1292:1 1390:1 1461:1 1492:1 
-0.01 2:1 8:1 12:1 14:1 20:1 23:1 26:1 32:1 35:1 37:1 43:1 47:1 52:1 56:1 60:1 62:1 66:1 71:1 75:1 78:1 88:1 112:1 126:1 136:1 159:1 170:1 184:1 207:1 217:1 227:1 251:1 268:1 288:1 304:1 318:1 326:1 343:1 363:1 378:1 416:1 510:1 568:1 607:1 698:1 744:1 799:1 889:1 931:1 971:1 1068:1 1136:1 1216:1 1278:1 1334:1 1367:1 1435:1 1514:1 
-0.01 2:1 8:1 12:1 15:1 17:1 22:1 26:1 32:1 35:1 37:1 43:1 47:1 52:1 56:1 60:1 64:1 66:1 69:1 73:1 78:1 88:1 112:1 127:1 137:1 146:1 166:1 184:1 207:1 217:1 227:1 251:1 268:1 288:1 304:1 320:1 334:1 341:1 353:1 370:1 416:1 511:1 569:1 610:1 646:1 728:1 799:1 889:1 931:1 971:1 1068:1 1136:1 1216:1 1280:1 1342:1 1397:1 1425:1 1474:1 
0.01 2:1 8:1 12:1 15:1 17:1 22:1 28:1 32:1 35:1 37:1 43:1 47:1 52:1 54:1 57:1 63:1 65:1 69:1 75:1 80:1 88:1 112:1 127:1 137:1 146:1 168:1 192:1 207:1 217:1 227:1 251:1 268:1 286:1 293:1 307:1 329:1 337:1 355:1 380:1 416:1 511:1 569:1 610:1 648:1 736:1 831:1 889:1 931:1 971:1 1068:1 1134:1 1205:1 1235:1 1289:1 1377:1 1411:1 1484:1 
0.01 2:1 8:1 12:1 15:1 19:1 21:1 28:1 32:1 35:1 37:1 43:1 47:1 52:1 54:1 57:1 63:1 66:1 72:1 74:1 78:1 88:1 112:1 127:1 139:1 153:1 164:1 192:1 207:1 217:1 227:1 251:1 268:1 286:1 293:1 307:1 330:1 344:1 366:1 374:1 416:1 511:1 571:1 617:1 676:1 720:1 831:1 889:1 931:1 971:1 1068:1 1134:1 1205:1 1235:1 1290:1 1384:1 1438:1 1526:1 
-0.0070500155552529545 2:1 8:1 12:1 16:1 19:1 22:1 28:1 32:1 35:1 37:1 43:1 47:1 52:1 56:1 60:1 64:1 65:1 72:1 73:1 77:1 88:1 112:1 128:1 143:1 154:1 168:1 192:1 207:1 217:1 227:1 251:1 268:1 288:1 304:1 320:1 333:1 340:1 365:1 369:1 416:1 512:1 575:1 634:1 680:1 736:1 831:1 889:1 931:1 971:1 1068:1 1136:1 1216:1 1280:1 1341:1 1396:1 1421:1 1521:1 
-0.01 2:1 8:1 12:1 16:1 19:1 22:1 28:1 32:1 35:1 37:1 43:1 47:1 52:1 56:1 60:1 64:1 68:1 70:1 75:1 78:1 88:1 112:1 128:1 143:1 154:1 168:1 192:1 207:1 217:1 227:1 251:1 268:1 288:1 304:1 320:1 336:1 350:1 359:1 378:1 416:1 512:1 575:1 634:1 680:1 736:1 831:1 889:1 931:1 971:1 1068:1 1136:1 1216:1 1280:1 1344:1 1406:1 1463:1 1498:1 
0.01 2:1 8:1 12:1 16:1 20:1 23:1 28:1 32:1 35:1 37:1 43:1 47:1 52:1 56:1 59:1 64:1 67:1 69:1 74:1 78:1 88:1 112:1 128:1 144:1 159:1 172:1 192:1 207:1 217:1 227:1 251:1 268:1 288:1 303:1 316:1 335:1 345:1 354:1 374:1 416:1 512:1 576:1 639:1 700:1 752:1 831:1 889:1 931:1 971:1 1068:1 1136:1 1215:1 1276:1 1327:1 1401:1 1442:1 1478:1 
0.01 2:1 8:1 12:1 16:1 20:1 24:1 28:1 32:1 35:1 37:1 43:1 47:1 52:1 56:1 60:1 61:1 68:1 71:1 75:1 78:1 88:1 112:1 128:1 144:1 160:1 176:1 192:1 207:1 217:1 227:1 251:1 268:1 288:1 304:1 317:1 324:1 351:1 363:1 378:1 416:1 512:1 576:1 640:1 704:1 768:1 831:1 889:1 931:1 971:1 1068:1 1136:1 1216:1 1277:1 1332:1 1359:1 1467:1 1514:1 
0.0072708963967090447 3:1 5:1 9:1 13:1 20:1 22:1 26:1 32:1 35:1 37:1 43:1 47:1 52:1 56:1 60:1 64:1 68:1 71:1 74:1 80:1 89:1 97:1 113:1 132:1 158:1 166:1 184:1 207:1 217:1 227:1 251:1 268:1 288:1 304:1 320:1 336:1 351:1 362:1 376:1 417:1 449:1 516:1 590:1 694:1 728:1 799:1 889:1 931:1 971:1 1068:1 1136:1 1216:1 1280:1 1344:1 1407:1 1466:1 1512:1 
-0.01 3:1 5:1 9:1 15:1 20:1 24:1 28:1 32:1 35:1 37:1 43:1 47:1 52:1 56:1 60:1 64:1 67:1 71:1 73:1 80:1 89:1 97:1 115:1 140:1 160:1 176:1 192:1 207:1 217:1 227:1 251:1 268:1 288:1 304:1 320:1 335:1 347:1 361:1 372:1 417:1 451:1 524:1 624:1 704:1 768:1 831:1 889:1 931:1 971:1 1068:1 1136:1 1216:1 1280:1 1343:1 1403:1 1449:1 1508:1 
-0.01 3:1 5:1 9:1 16:1 17:1 23:1 28:1 32:1 35:1 37:1 43:1 47:1 52:1 54:1 58:1 64:1 67:1 71:1 74:1 80:1 89:1 97:1 116:1 141:1 147:1 172:1 192:1 207:1 217:1 227:1 251:1 268:1 286:1 294:1 312:1 335:1 347:1 362:1 376:1 417:1 452:1 525:1 627:1 652:1 752:1 831:1 889:1 931:1 971:1 1068:1 1134:1 1206:1 1240:1 1311:1 1403:1 1450:1 1512:1 
0.0021016375963787055 3:1 5:1 9:1 16:1 17:1 23:1 28:1 32:1 35:1 37:1 43:1 47:1 52:1 56:1 57:1 62:1 65:1 69:1 73:1 77:1 89:1 97:1 116:1 141:1 147:1 172:1 192:1 207:1 217:1 227:1 251:1 268:1 288:1 301:1 306:1 325:1 337:1 353:1 369:1 417:1 452:1 525:1 627:1 652:1 752:1 831:1 889:1 931:1 971:1 1068:1 1136:1 1213:1 1266:1 1285:1 1361:1 1409:1 1473:1 
-0.01 3:1 5:1 9:1 16:1 19:1 24:1 28:1 32:1 35:1 37:1 43:1 47:1 52:1 54:1 60:1 63:1 68:1 72:1 76:1 80:1 89:1 97:1 116:1 143:1 156:1 176:1 192:1 207:1 217:1 227:1 251:1 268:1 286:1 296:1 319:1 332:1 352:1 368:1 384:1 417:1 452:1 527:1 636:1 688:1 768:1 831:1 889:1 931:1 971:1 1068:1 1134:1 1208:1 1247:1 1340:1 1392:1 1472:1 1536:1 
0.00532318281418838 3:1 5:1 9:1 16:1 20:1 24:1 26:1 32:1 35:1 37:1 43:1 47:1 52:1 56:1 60:1 64:1 67:1 71:1 76:1 80:1 89:1 97:1 116:1 144:1 160:1 174:1 184:1 207:1 217:1 227:1 251:1 268:1 288:1 304:1 320:1 335:1 347:1 364:1 384:1 417:1 452:1 528:1 640:1 702:1 760:1 799:1 889:1 931:1 971:1 1068:1 1136:1 1216:1 1280:1 1343:1 1403:1 1452:1 1520:1 
0.01 3:1 5:1 10:1 13:1 19:1 24:1 28:1 32:1 35:1 37:1 43:1 47:1 52:1 54:1 59:1 62:1 67:1 72:1 73:1 80:1 89:1 98:1 117:1 131:1 156:1 176:1 192:1 207:1 217:1 227:1 251:1 268:1 286:1 295:1 314:1 327:1 348:1 365:1 372:1 418:1 453:1 531:1 588:1 688:1 768:1 831:1 889:1 931:1 971:1 1068:1 1134:1 1207:1 1242:1 1319:1 1372:1 1453:1 1524:1 
-0.009957654504407663 3:1 5:1 11:1 13:1 17:1 24:1 28:1 32:1 35:1 37:1 43:1 47:1 52:1 56:1 59:1 61:1 66:1 72:1 74:1 77:1 89:1 99:1 121:1 129:1 148:1 176:1 192:1 207:1 217:1 227:1 251:1 268:1 288:1 303:1 313:1 322:1 344:1 366:1 373:1 419:1 457:1 545:1 580:1 656:1 768:1 831:1 889:1 931:1 971:1 1068:1 1136:1 1215:1 1273:1 1314:1 1352:1 1438:1 1525:1 
-0.0036745576403176194 3:1 5:1 11:1 13:1 17:1 24:1 28:1 32:1 35:1 37:1 43:1 47:1 52:1 56:1 60:1 61:1 65:1 72:1 73:1 79:1 89:1 99:1 121:1 129:1 148:1 176:1 192:1 207:1 217:1 227:1 251:1 268:1 288:1 304:1 317:1 321:1 340:1 365:1 371:1 419:1 457:1 545:1 580:1 656:1 768:1 831:1 889:1 931:1 971:1 1068:1 1136:1 1216:1 1277:1 1329:1 1348:1 1421:1 1523:1 
0.01 3:1 5:1 11:1 13:1 18:1 22:1 28:1 32:1 35:1 37:1 43:1 47:1 52:1 56:1 57:1 61:1 65:1 69:1 76:1 77:1 89:1 99:1 121:1 130:1 150:1 168:1 192:1 207:1 217:1 227:1 251:1 268:1 288:1 301:1 305:1 321:1 337:1 356:1 381:1 419:1 457:1 546:1 582:1 664:1 736:1 831:1 889:1 931:1 971:1 1068:1 1136:1 1213:1 1265:1 1281:1 1345:1 1412:1 1485:1 
0.01 3:1 5:1 11:1 13:1 18:1 24:1 28:1 32:1 35:1 37:1 43:1 47:1 52:1 54:1 59:1 63:1 66:1 69:1 75:1 77:1 89:1 99:1 121:1 130:1 152:1 176:1 192:1 207:1 217:1 227:1 251:1 268:1 286:1 295:1 315:1 330:1 341:1 355:1 377:1 419:1 457:1 546:1 584:1 672:1 768:1 831:1 889:1 931:1 971:1 1068:1 1134:1 1207:1 1243:1 1322:1 1381:1 1427:1 1481:1 
0.0061359938544294831 3:1 5:1 11:1 14:1 17:1 23:1 26:1 32:1 35:1 37:1 43:1 47:1 52:1 56:1 60:1 61:1 68:1 72:1 76:1 80:1 89:1 99:1 122:1 133:1 147:1 170:1 184:1 207:1 217:1 227:1 251:1 268:1 288:1 304:1 317:1 324:1 352:1 368:1 384:1 419:1 458:1 549:1 595:1 650:1 744:1 799:1 889:1 931:1 971:1 1068:1 1136:1 1216:1 1277:1 1332:1 1360:1 1472:1 1536:1 
-0.01 3:1 5:1 11:1 14:1 20:1 21:1 26:1 32:1 35:1 37:1 43:1 47:1 52:1 56:1 60:1 63:1 66:1 70:1 73:1 80:1 89:1 99:1 122:1 136:1 157:1 162:1 184:1 207:1 217:1 227:1 251:1 268:1 288:1 304:1 319:1 330:1 342:1 357:1 372:1 419:1 458:1 552:1 605:1 690:1 712:1 799:1 889:1 931:1 971:1 1068:1 1136:1 1216:1 1279:1 1338:1 1382:1 1429:1 1492:1 
-0.01 3:1 5:1 11:1 16:1 18:1 23:1 28:1 32:1 35:1 37:1 43:1 47:1 52:1 54:1 60:1 62:1 66:1 71:1 74:1 79:1 89:1 99:1 124:1 142:1 151:1 172:1 192:1 207:1 217:1 227:1 251:1 268:1 286:1 296:1 318:1 326:1 343:1 362:1 375:1 419:1 460:1 558:1 631:1 668:1 752:1 831:1 889:1 931:1 971:1 1068:1 1134:1 1208:1 1246:1 1334:1 1367:1 1434:1 1511:1 
0.0062106448589148329 3:1 5:1 11:1 16:1 19:1 24:1 28:1 32:1 35:1 37:1 43:1 47:1 52:1 54:1 58:1 64:1 67:1 70:1 76:1 78:1 89:1 99:1 124:1 143:1 156:1 176:1 192:1 207:1 217:1 227:1 251:1 268:1 286:1 294:1 312:1 335:1 346:1 360:1 382:1 419:1 460:1 559:1 636:1 688:1 768:1 831:1 889:1 931:1 971:1 1068:1 1134:1 1206:1 1240:1 1311:1 1402:1 1448:1 1502:1 
0.01 3:1 5:1 12:1 13:1 19:1 24:1 26:1 32:1 35:1 37:1 43:1 47:1 52:1 56:1 60:1 63:1 68:1 72:1 74:1 78:1 89:1 100:1 125:1 131:1 156:1 174:1 184:1 207:1 217:1 227:1 251:1 268:1 288:1 304:1 319:1 332:1 352:1 366:1 374:1 420:1 461:1 563:1 588:1 686:1 760:1 799:1 889:1 931:1 971:1 1068:1 1136:1 1216:1 1279:1 1340:1 1392:1 1470:1 1526:1 
-0.01 3:1 5:1 12:1 14:1 17:1 22:1 28:1 32:1 35:1 37:1 43:1 47:1 52:1 54:1 57:1 61:1 67:1 69:1 75:1 78:1 89:1 100:1 126:1 133:1 146:1 168:1 192:1 207:1 217:1 227:1 251:1 268:1 286:1 293:1 305:1 323:1 345:1 355:1 378:1 420:1 462:1 565:1 594:1 648:1 736:1 831:1 889:1 931:1 971:1 1068:1 1134:1 1205:1 1233:1 1283:1 1353:1 1443:1 1482:1 
-0.01 3:1 5:1 12:1 14:1 17:1 22:1 28:1 32:1 35:1 37:1 43:1 47:1 52:1 54:1 57:1 63:1 67:1 69:1 74:1 80:1 89:1 100:1 126:1 133:1 146:1 168:1 192:1 207:1 217:1 227:1 251:1 268:1 286:1 293:1 307:1 331:1 345:1 354:1 376:1 420:1 462:1 565:1 594:1 648:1 736:1 831:1 889:1 931:1 971:1 1068:1 1134:1 1205:1 1235:1 1291:1 1385:1 1442:1 1480:1 
-0.0081459198609227686 3:1 5:1 12:1 14:1 20:1 23:1 28:1 32:1 35:1 37:1 43:1 47:1 52:1 56:1 60:1 64:1 67:1 72:1 76:1 80:1 89:1 100:1 126:1 136:1 159:1 172:1 192:1 207:1 217:1 227:1 251:1 268:1 288:1 304:1 320:1 335:1 348:1 368:1 384:1 420:1 462:1 568:1 607:1 700:1 752:1 831:1 889:1 931:1 971:1 1068:1 1136:1 1216:1 1280:1 1343:1 1404:1 1456:1 1536:1 
0.01 3:1 5:1 12:1 14:1 20:1 24:1 26:1 32:1 35:1 37:1 43:1 47:1 52:1 56:1 60:1 63:1 65:1 72:1 75:1 77:1 89:1 100:1 126:1 136:1 160:1 174:1 184:1 207:1 217:1 227:1 251:1 268:1 288:1 304:1 319:1 329:1 340:1 367:1 377:1 420:1 462:1 568:1 608:1 702:1 760:1 799:1 889:1 931:1 971:1 1068:1 1136:1 1216:1 1279:1 1337:1 1380:1 1423:1 1529:1 
0.007924567580311407 3:1 5:1 12:1 16:1 18:1 24:1 28:1 32:1 35:1 37:1 43:1 47:1 52:1 54:1 58:1 61:1 65:1 69:1 73:1 79:1 89:1 100:1 128:1 142:1 152:1 176:1 192:1 207:1 217:1 227:1 251:1 268:1 286:1 294:1 309:1 321:1 337:1 353:1 371:1 420:1 464:1 574:1 632:1 672:1 768:1 831:1 889:1 931:1 971:1 1068:1 1134:1 1206:1 1237:1 1297:1 1345:1 1409:1 1475:1 
-0.01 3:1 5:1 12:1 16:1 19:1 24:1 28:1 32:1 35:1 37:1 43:1 47:1 52:1 56:1 58:1 61:1 66:1 72:1 74:1 77:1 89:1 100:1 128:1 143:1 156:1 176:1 192:1 207:1 217:1 227:1 251:1 268:1 288:1 302:1 309:1 322:1 344:1 366:1 373:1 420:1 464:1 575:1 636:1 688:1 768:1 831:1 889:1 931:1 971:1 1068:1 1136:1 1214:1 1269:1 1298:1 1352:1 1438:1 1525:1 
0.0019905416748819088 3:1 5:1 12:1 16:1 20:1 24:1 28:1 32:1 35:1 37:1 43:1 47:1 52:1 54:1 60:1 64:1 68:1 70:1 73:1 77:1 89:1 100:1 128:1 144:1 160:1 176:1 192:1 207:1 217:1 227:1 251:1 268:1 286:1 296:1 320:1 336:1 350:1 357:1 369:1 420:1 464:1 576:1 640:1 704:1 768:1 831:1 889:1 931:1 971:1 1068:1 1134:1 1208:1 1248:1 1344:1 1406:1 1461:1 1489:1 
0.0047065339829389808 3:1 6:1 9:1 13:1 20:1 22:1 26:1 32:1 35:1 37:1 43:1 47:1 52:1 56:1 60:1 61:1 67:1 70:1 74:1 77:1 90:1 101:1 113:1 132:1 158:1 166:1 184:1 207:1 217:1 227:1 251:1 268:1 288:1 304:1 317:1 323:1 346:1 358:1 373:1 421:1 465:1 516:1 590:1 694:1 728:1 799:1 889:1 931:1 971:1 1068:1 1136:1 1216:1 1277:1 1331:1 1354:1 1446:1 1493:1 
-0.01 3:1 6:1 9:1 14:1 19:1 23:1 26:1 32:1 35:1 37:1 43:1 47:1 52:1 56:1 60:1 61:1 66:1 70:1 73:1 77:1 90:1 101:1 114:1 135:1 155:1 170:1 184:1 207:1 217:1 227:1 251:1 268:1 288:1 304:1 317:1 322:1 342:1 357:1 369:1 421:1 466:1 519:1 603:1 682:1 744:1 799:1 889:1 931:1 971:1 1068:1 1136:1 1216:1 1277:1 1330:1 1350:1 1429:1 1489:1 
-0.01 3:1 6:1 9:1 15:1 17:1 23:1 26:1 32:1 35:1 37:1 43:1 47:1 52:1 56:1 60:1 63:1 65:1 69:1 76:1 78:1 90:1 101:1 115:1 137:1 147:1 170:1 184:1 207:1 217:1 227:1 251:1 268:1 288:1 304:1 319:1 329:1 337:1 356:1 382:1 421:1 467:1 521:1 611:1 650:1 744:1 799:1 889:1 931:1 971:1 1068:1 1136:1 1216:1 1279:1 1337:1 1377:1 1412:1 1486:1 
0.01 3:1 6:1 9:1 15:1 19:1 23:1 26:1 32:1 35:1 37:1 43:1 47:1 52:1 56:1 60:1 62:1 66:1 72:1 75:1 78:1 90:1 101:1 115:1 139:1 155:1 170:1 184:1 207:1 217:1 227:1 251:1 268:1 288:1 304:1 318:1 326:1 344:1 367:1 378:1 421:1 467:1 523:1 619:1 682:1 744:1 799:1 889:1 931:1 971:1 1068:1 1136:1 1216:1 1278:1 1334:1 1368:1 1439:1 1530:1 
-0.01 3:1 6:1 9:1 15:1 19:1 23:1 28:1 32:1 35:1 37:1 43:1 47:1 52:1 54:1 57:1 61:1 67:1 71:1 75:1 78:1 90:1 101:1 115:1 139:1 155:1 172:1 192:1 207:1 217:1 227:1 251:1 268:1 286:1 293:1 305:1 323:1 347:1 363:1 378:1 421:1 467:1 523:1 619:1 684:1 752:1 831:1 889:1 931:1 971:1 1068:1 1134:1 1205:1 1233:1 1283:1 1355:1 1451:1 1514:1 
0.0054851252479827493 3:1 6:1 9:1 15:1 20:1 23:1 28:1 32:1 35:1 37:1 43:1 47:1 52:1 56:1 60:1 62:1 68:1 72:1 75:1 78:1 90:1 101:1 115:1 140:1 159:1 172:1 192:1 207:1 217:1 227:1 251:1 268:1 288:1 304:1 318:1 328:1 352:1 367:1 378:1 421:1 467:1 524:1 623:1 700:1 752:1 831:1 889:1 931:1 971:1 1068:1 1136:1 1216:1 1278:1 1336:1 1376:1 1471:1 1530:1 
-0.01 3:1 6:1 10:1 13:1 20:1 22:1 28:1 32:1 35:1 37:1 43:1 47:1 52:1 54:1 57:1 61:1 67:1 71:1 76:1 80:1 90:1 102:1 117:1 132:1 158:1 168:1 192:1 207:1 217:1 227:1 251:1 268:1 286:1 293:1 305:1 323:1 347:1 364:1 384:1 422:1 469:1 532:1 590:1 696:1 736:1 831:1 889:1 931:1 971:1 1068:1 1134:1 1205:1 1233:1 1283:1 1355:1 1452:1 1520:1 
0.01 3:1 6:1 10:1 15:1 18:1 24:1 28:1 32:1 35:1 37:1 43:1 47:1 52:1 54:1 57:1 61:1 68:1 71:1 75:1 80:1 90:1 102:1 119:1 138:1 152:1 176:1 192:1 207:1 217:1 227:1 251:1 268:1 286:1 293:1 305:1 324:1 351:1 363:1 380:1 422:1 471:1 538:1 616:1 672:1 768:1 831:1 889:1 931:1 971:1 1068:1 1134:1 1205:1 1233:1 1284:1 1359:1 1467:1 1516:1 
0.0024201869364090583 3:1 6:1 10:1 16:1 18:1 21:1 28:1 32:1 35:1 37:1 43:1 47:1 52:1 56:1 57:1 63:1 67:1 71:1 74:1 79:1 90:1 102:1 120:1 142:1 149:1 164:1 192:1 207:1 217:1 227:1 251:1 268:1 288:1 301:1 307:1 331:1 347:1 362:1 375:1 422:1 472:1 542:1 629:1 660:1 720:1 831:1 889:1 931:1 971:1 1068:1 1136:1 1213:1 1267:1 1291:1 1387:1 1450:1 1511:1 
0.01 3:1 6:1 10:1 16:1 19:1 24:1 28:1 32:1 35:1 37:1 43:1 47:1 52:1 56:1 60:1 63:1 65:1 72:1 76:1 77:1 90:1 102:1 120:1 143:1 156:1 176:1 192:1 207:1 217:1 227:1 251:1 268:1 288:1 304:1 319:1 329:1 340:1 368:1 381:1 422:1 472:1 543:1 636:1 688:1 768:1 831:1 889:1 931:1 971:1 1068:1 1136:1 1216:1 1279:1 1337:1 1380:1 1424:1 1533:1 
-0.01 3:1 6:1 10:1 16:1 20:1 23:1 28:1 32:1 35:1 37:1 43:1 47:1 52:1 54:1 60:1 64:1 67:1 71:1 73:1 78:1 90:1 102:1 120:1 144:1 159:1 172:1 192:1 207:1 217:1 227:1 251:1 268:1 286:1 296:1 320:1 335:1 347:1 361:1 370:1 422:1 472:1 544:1 639:1 700:1 752:1 831:1 889:1 931:1 971:1 1068:1 1134:1 1208:1 1248:1 1343:1 1403:1 1449:1 1506:1 
-0.01 3:1 6:1 11:1 13:1 19:1 23:1 28:1 32:1 35:1 37:1 43:1 47:1 52:1 56:1 58:1 61:1 68:1 69:1 74:1 78:1 90:1 103:1 121:1 131:1 155:1 172:1 192:1 207:1 217:1 227:1 251:1 268:1 288:1 302:1 309:1 324:1 349:1 354:1 374:1 423:1 473:1 547:1 587:1 684:1 752:1 831:1 889:1 931:1 971:1 1068:1 1136:1 1214:1 1269:1 1300:1 1357:1 1458:1 1478:1 
-0.0034188183817397706 3:1 6:1 11:1 14:1 17:1 23:1 28:1 32:1 35:1 37:1 43:1 47:1 52:1 54:1 60:1 63:1 67:1 71:1 75:1 77:1 90:1 103:1 122:1 133:1 147:1 172:1 192:1 207:1 217:1 227:1 251:1 268:1 286:1 296:1 319:1 331:1 347:1 363:1 377:1 423:1 474:1 549:1 595:1 652:1 752:1 831:1 889:1 931:1 971:1 1068:1 1134:1 1208:1 1247:1 1339:1 1387:1 1451:1 1513:1 
0.0031994640475212174 3:1 6:1 11:1 15:1 20:1 23:1 28:1 32:1 35:1 37:1 43:1 47:1 52:1 56:1 59:1 63:1 67:1 72:1 73:1 78:1 90:1 103:1 123:1 140:1 159:1 172:1 192:1 207:1 217:1 227:1 251:1 268:1 288:1 303:1 315:1 331:1 348:1 365:1 370:1 423:1 475:1 556:1 623:1 700:1 752:1 831:1 889:1 931:1 971:1 1068:1 1136:1 1215:1 1275:1 1323:1 1388:1 1453:1 1522:1 
0.01 3:1 6:1 12:1 13:1 17:1 24:1 28:1 32:1 35:1 37:1 43:1 47:1 52:1 54:1 57:1 63:1 66:1 71:1 76:1 80:1 90:1 104:1 125:1 129:1 148:1 176:1 192:1 207:1 217:1 227:1 251:1 268:1 286:1 293:1 307:1 330:1 343:1 364:1 384:1 424:1 477:1 561:1 580:1 656:1 768:1 831:1 889:1 931:1 971:1 1068:1 1134:1 1205:1 1235:1 1290:1 1383:1 1436:1 1520:1 
-0.0043162584383118277 3:1 6:1 12:1 13:1 19:1 23:1 28:1 32:1 35:1 37:1 43:1 47:1 52:1 56:1 59:1 63:1 67:1 71:1 73:1 79:1 90:1 104:1 125:1 131:1 155:1 172:1 192:1 207:1 217:1 227:1 251:1 268:1 288:1 303:1 315:1 331:1 347:1 361:1 371:1 424:1 477:1 563:1 587:1 684:1 752:1 831:1 889:1 931:1 971:1 1068:1 1136:1 1215:1 1275:1 1323:1 1387:1 1449:1 1507:1 
0.01 3:1 6:1 12:1 15:1 17:1 24:1 26:1 32:1 35:1 37:1 43:1 47:1 52:1 56:1 60:1 61:1 68:1 72:1 74:1 80:1 90:1 104:1 127:1 137:1 148:1 174:1 184:1 207:1 217:1 227:1 251:1 268:1 288:1 304:1 317:1 324:1 352:1 366:1 376:1 424:1 479:1 569:1 612:1 654:1 760:1 799:1 889:1 931:1 971:1 1068:1 1136:1 1216:1 1277:1 1332:1 1360:1 1470:1 1528:1 
-0.01 3:1 6:1 12:1 15:1 20:1 24:1 28:1 32:1 35:1 37:1 43:1 47:1 52:1 54:1 59:1 61:1 66:1 69:1 75:1 77:1 90:1 104:1 127:1 140:1 160:1 176:1 192:1 207:1 217:1 227:1 251:1 268:1 286:1 295:1 313:1 322:1 341:1 355:1 377:1 424:1 479:1 572:1 624:1 704:1 768:1 831:1 889:1 931:1 971:1 1068:1 1134:1 1207:1 1241:1 1314:1 1349:1 1427:1 1481:1 
0.0032505805935144931 3:1 6:1 12:1 15:1 20:1 24:1 28:1 32:1 35:1 37:1 43:1 47:1 52:1 56:1 60:1 63:1 65:1 71:1 76:1 79:1 90:1 104:1 127:1 140:1 160:1 176:1 192:1 207:1 217:1 227:1 251:1 268:1 288:1 304:1 319:1 329:1 339:1 364:1 383:1 424:1 479:1 572:1 624:1 704:1 768:1 831:1 889:1 931:1 971:1 1068:1 1136:1 1216:1 1279:1 1337:1 1379:1 1420:1 1519:1 
-0.0043179487705534052 3:1 6:1 12:1 16:1 18:1 24:1 26:1 32:1 35:1 37:1 43:1 47:1 52:1 56:1 60:1 61:1 67:1 70:1 76:1 79:1 90:1 104:1 128:1 142:1 152:1 174:1 184:1 207:1 217:1 227:1 251:1 268:1 288:1 304:1 317:1 323:1 346:1 360:1 383:1 424:1 480:1 574:1 632:1 670:1 760:1 799:1 889:1 931:1 971:1 1068:1 1136:1 1216:1 1277:1 1331:1 1354:1 1448:1 1503:1 
0.01 3:1 7:1 9:1 13:1 17:1 23:1 28:1 32:1 35:1 37:1 43:1 47:1 52:1 56:1 58:1 64:1 68:1 71:1 73:1 77:1 91:1 105:1 113:1 129:1 147:1 172:1 192:1 207:1 217:1 227:1 251:1 268:1 288:1 302:1 312:1 336:1 351:1 361:1 369:1 425:1 481:1 513:1 579:1 652:1 752:1 831:1 889:1 931:1 971:1 1068:1 1136:1 1214:1 1272:1 1312:1 1407:1 1465:1 1505:1 
-0.01 3:1 7:1 9:1 13:1 18:1 22:1 28:1 32:1 35:1 37:1 43:1 47:1 52:1 56:1 57:1 63:1 65:1 71:1 75:1 79:1 91:1 105:1 113:1 130:1 150:1 168:1 192:1 207:1 217:1 227:1 251:1 268:1 288:1 301:1 307:1 329:1 339:1 363:1 379:1 425:1 481:1 514:1 582:1 664:1 736:1 831:1 889:1 931:1 971:1 1068:1 1136:1 1213:1 1267:1 1289:1 1379:1 1419:1 1515:1 
-0.01 3:1 7:1 9:1 13:1 19:1 23:1 28:1 32:1 35:1 37:1 43:1 47:1 52:1 54:1 57:1 63:1 65:1 72:1 74:1 78:1 91:1 105:1 113:1 131:1 155:1 172:1 192:1 207:1 217:1 227:1 251:1 268:1 286:1 293:1 307:1 329:1 340:1 366:1 374:1 425:1 481:1 515:1 587:1 684:1 752:1 831:1 889:1 931:1 971:1 1068:1 1134:1 1205:1 1235:1 1289:1 1380:1 1422:1 1526:1 
-0.01 3:1 7:1 9:1 13:1 19:1 24:1 28:1 32:1 35:1 37:1 43:1 47:1 52:1 56:1 60:1 63:1 65:1 71:1 73:1 77:1 91:1 105:1 113:1 131:1 156:1 176:1 192:1 207:1 217:1 227:1 251:1 268:1 288:1 304:1 319:1 329:1 339:1 361:1 369:1 425:1 481:1 515:1 588:1 688:1 768:1 831:1 889:1 931:1 971:1 1068:1 1136:1 1216:1 1279:1 1337:1 1379:1 1417:1 1505:1 
-0.0034342169479161283 3:1 7:1 9:1 13:1 20:1 24:1 28:1 32:1 35:1 37:1 43:1 47:1 52:1 54:1 60:1 61:1 65:1 69:1 76:1 77:1 91:1 105:1 113:1 132:1 160:1 176:1 192:1 207:1 217:1 227:1 251:1 268:1 286:1 296:1 317:1 321:1 337:1 356:1 381:1 425:1 481:1 516:1 592:1 704:1 768:1 831:1 889:1 931:1 971:1 1068:1 1134:1 1208:1 1245:1 1329:1 1345:1 1412:1 1485:1 
0.01 3:1 7:1 9:1 14:1 17:1 23:1 26:1 32:1 35:1 37:1 43:1 47:1 52:1 56:1 60:1 62:1 66:1 72:1 76:1 80:1 91:1 105:1 114:1 133:1 147:1 170:1 184:1 207:1 217:1 227:1 251:1 268:1 288:1 304:1 318:1 326:1 344:1 368:1 384:1 425:1 482:1 517:1 595:1 650:1 744:1 799:1 889:1 931:1 971:1 1068:1 1136:1 1216:1 1278:1 1334:1 1368:1 1440:1 1536:1 
-0.01 3:1 7:1 9:1 14:1 19:1 21:1 28:1 32:1 35:1 37:1 43:1 47:1 52:1 56:1 60:1 64:1 68:1 72:1 76:1 80:1 91:1 105:1 114:1 135:1 153:1 164:1 192:1 207:1 217:1 227:1 251:1 268:1 288:1 304:1 320:1 336:1 352:1 368:1 384:1 425:1 482:1 519:1 601:1 676:1 720:1 831:1 889:1 931:1 971:1 1068:1 1136:1 1216:1 1280:1 1344:1 1408:1 1472:1 1536:1 
0.0070245124308381274 3:1 7:1 9:1 15:1 19:1 23:1 26:1 32:1 35:1 37:1 43:1 47:1 52:1 56:1 57:1 63:1 65:1 71:1 75:1 80:1 91:1 105:1 115:1 139:1 155:1 170:1 184:1 207:1 217:1 227:1 251:1 268:1 288:1 301:1 307:1 329:1 339:1 363:1 380:1 425:1 483:1 523:1 619:1 682:1 744:1 799:1 889:1 931:1 971:1 1068:1 1136:1 1213:1 1267:1 1289:1 1379:1 1419:1 1516:1 
0.01 3:1 7:1 9:1 15:1 19:1 24:1 26:1 32:1 35:1 37:1 43:1 47:1 52:1 56:1 57:1 61:1 65:1 69:1 73:1 77:1 91:1 105:1 115:1 139:1 156:1 174:1 184:1 207:1 217:1 227:1 251:1 268:1 288:1 301:1 305:1 321:1 337:1 353:1 369:1 425:1 483:1 523:1 620:1 686:1 760:1 799:1 889:1 931:1 971:1 1068:1 1136:1 1213:1 1265:1 1281:1 1345:1 1409:1 1473:1 
0.01 3:1 7:1 9:1 16:1 17:1 23:1 28:1 32:1 35:1 37:1 43:1 47:1 52:1 56:1 60:1 62:1 68:1 69:1 73:1 80:1 91:1 105:1 116:1 141:1 147:1 172:1 192:1 207:1 217:1 227:1 251:1 268:1 288:1 304:1 318:1 328:1 349:1 353:1 372:1 425:1 484:1 525:1 627:1 652:1 752:1 831:1 889:1 931:1 971:1 1068:1 1136:1 1216:1 1278:1 1336:1 1373:1 1457:1 1476:1 
0.01 3:1 7:1 9:1 16:1 19:1 24:1 28:1 32:1 35:1 37:1 43:1 47:1 52:1 56:1 60:1 64:1 68:1 70:1 76:1 80:1 91:1 105:1 116:1 143:1 156:1 176:1 192:1 207:1 217:1 227:1 251:1 268:1 288:1 304:1 320:1 336:1 350:1 360:1 384:1 425:1 484:1 527:1 636:1 688:1 768:1 831:1 889:1 931:1 971:1 1068:1 1136:1 1216:1 1280:1 1344:1 1406:1 1464:1 1504:1 
-9.8231258588952445e-05 3:1 7:1 10:1 13:1 17:1 22:1 26:1 32:1 35:1 37:1 43:1 47:1 52:1 56:1 57:1 63:1 67:1 71:1 73:1 77:1 91:1 106:1 117:1 129:1 146:1 166:1 184:1 207:1 217:1 227:1 251:1 268:1 288:1 301:1 307:1 331:1 347:1 361:1 369:1 426:1 485:1 529:1 578:1 646:1 728:1 799:1 889:1 931:1 971:1 1068:1 1136:1 1213:1 1267:1 1291:1 1387:1 1449:1 1505:1 
0.01 3:1 7:1 10:1 13:1 17:1 22:1 26:1 32:1 35:1 37:1 43:1 47:1 52:1 56:1 60:1 64:1 67:1 70:1 76:1 80:1 91:1 106:1 117:1 129:1 146:1 166:1 184:1 207:1 217:1 227:1 251:1 268:1 288:1 304:1 320:1 335:1 346:1 360:1 384:1 426:1 485:1 529:1 578:1 646:1 728:1 799:1 889:1 931:1 971:1 1068:1 1136:1 1216:1 1280:1 1343:1 1402:1 1448:1 1504:1 
-0.01 3:1 7:1 10:1 13:1 17:1 23:1 26:1 32:1 35:1 37:1 43:1 47:1 52:1 56:1 60:1 63:1 67:1 72:1 73:1 79:1 91:1 106:1 117:1 129:1 147:1 170:1 184:1 207:1 217:1 227:1 251:1 268:1 288:1 304:1 319:1 331:1 348:1 365:1 371:1 426:1 485:1 529:1 579:1 650:1 744:1 799:1 889:1 931:1 971:1 1068:1 1136:1 1216:1 1279:1 1339:1 1388:1 1453:1 1523:1 
-0.01 3:1 7:1 10:1 13:1 18:1 21:1 26:1 32:1 35:1 37:1 43:1 47:1 52:1 56:1 60:1 62:1 65:1 70:1 73:1 79:1 91:1 106:1 117:1 130:1 149:1 162:1 184:1 207:1 217:1 227:1 251:1 268:1 288:1 304:1 318:1 325:1 338:1 357:1 371:1 426:1 485:1 530:1 581:1 658:1 712:1 799:1 889:1 931:1 971:1 1068:1 1136:1 1216:1 1278:1 1333:1 1362:1 1413:1 1491:1 
0.00070143943896250663 3:1 7:1 10:1 14:1 18:1 21:1 26:1 32:1 35:1 37:1 43:1 47:1 52:1 56:1 60:1 64:1 67:1 72:1 74:1 78:1 91:1 106:1 118:1 134:1 149:1 162:1 184:1 207:1 217:1 227:1 251:1 268:1 288:1 304:1 320:1 335:1 348:1 366:1 374:1 426:1 486:1 534:1 597:1 658:1 712:1 799:1 889:1 931:1 971:1 1068:1 1136:1 1216:1 1280:1 1343:1 1404:1 1454:1 1526:1 
0.01 3:1 7:1 10:1 14:1 20:1 22:1 26:1 32:1 35:1 37:1 43:1 47:1 52:1 56:1 60:1 62:1 66:1 69:1 74:1 79:1 91:1 106:1 118:1 136:1 158:1 166:1 184:1 207:1 217:1 227:1 251:1 268:1 288:1 304:1 318:1 326:1 341:1 354:1 375:1 426:1 486:1 536:1 606:1 694:1 728:1 799:1 889:1 931:1 971:1 1068:1 1136:1 1216:1 1278:1 1334:1 1365:1 1426:1 1479:1 
0.01 3:1 7:1 10:1 14:1 20:1 24:1 28:1 32:1 35:1 37:1 43:1 47:1 52:1 54:1 60:1 62:1 68:1 71:1 75:1 79:1 91:1 106:1 118:1 136:1 160:1 176:1 192:1 207:1 217:1 227:1 251:1 268:1 286:1 296:1 318:1 328:1 351:1 363:1 379:1 426:1 486:1 536:1 608:1 704:1 768:1 831:1 889:1 931:1 971:1 1068:1 1134:1 1208:1 1246:1 1336:1 1375:1 1467:1 1515:1 
-0.01 3:1 7:1 10:1 16:1 17:1 24:1 28:1 32:1 35:1 37:1 43:1 47:1 52:1 56:1 58:1 62:1 68:1 71:1 75:1 77:1 91:1 106:1 120:1 141:1 148:1 176:1 192:1 207:1 217:1 227:1 251:1 268:1 288:1 302:1 310:1 328:1 351:1 363:1 377:1 426:1 488:1 541:1 628:1 656:1 768:1 831:1 889:1 931:1 971:1 1068:1 1136:1 1214:1 1270:1 1304:1 1375:1 1467:1 1513:1 
0.0055257277465006012 3:1 7:1 11:1 13:1 17:1 24:1 28:1 32:1 35:1 37:1 43:1 47:1 52:1 56:1 60:1 64:1 65:1 70:1 76:1 79:1 91:1 107:1 121:1 129:1 148:1 176:1 192:1 207:1 217:1 227:1 251:1 268:1 288:1 304:1 320:1 333:1 338:1 360:1 383:1 427:1 489:1 545:1 580:1 656:1 768:1 831:1 889:1 931:1 971:1 1068:1 1136:1 1216:1 1280:1 1341:1 1394:1 1416:1 1503:1 
0.0051279258086644984 3:1 7:1 11:1 13:1 19:1 22:1 28:1 32:1 35:1 37:1 43:1 47:1 52:1 56:1 60:1 62:1 66:1 70:1 76:1 78:1 91:1 107:1 121:1 131:1 154:1 168:1 192:1 207:1 217:1 227:1 251:1 268:1 288:1 304:1 318:1 326:1 342:1 360:1 382:1 427:1 489:1 547:1 586:1 680:1 736:1 831:1 889:1 931:1 971:1 1068:1 1136:1 1216:1 1278:1 1334:1 1366:1 1432:1 1502:1 
0.001617096434954672 3:1 7:1 11:1 15:1 17:1 22:1 28:1 32:1 35:1 37:1 43:1 47:1 52:1 54:1 57:1 62:1 67:1 71:1 75:1 78:1 91:1 107:1 123:1 137:1 146:1 168:1 192:1 207:1 217:1 227:1 251:1 268:1 286:1 293:1 306:1 327:1 347:1 363:1 378:1 427:1 491:1 553:1 610:1 648:1 736:1 831:1 889:1 931:1 971:1 1068:1 1134:1 1205:1 1234:1 1287:1 1371:1 1451:1 1514:1 
-0.002800116867272454 3:1 7:1 11:1 16:1 18:1 24:1 28:1 32:1 35:1 37:1 43:1 47:1 52:1 54:1 60:1 64:1 68:1 70:1 73:1 80:1 91:1 107:1 124:1 142:1 152:1 176:1 192:1 207:1 217:1 227:1 251:1 268:1 286:1 296:1 320:1 336:1 350:1 357:1 372:1 427:1 492:1 558:1 632:1 672:1 768:1 831:1 889:1 931:1 971:1 1068:1 1134:1 1208:1 1248:1 1344:1 1406:1 1461:1 1492:1 
