svm_type epsilon_svr
kernel_type rbf
gamma 0.0050000000000000001
nr_class 2
total_sv 5894
rho -0.035531948480347936
probA 0.1797350824373842
SV
0.5 1:1 5:1 9:1 13:1 17:1 21:1 25:1 29:1 35:1 40:1 43:1 47:1 52:1 56:1 60:1 64:1 65:1 69:1 76:1 78:1 81:1 97:1 113:1 129:1 145:1 161:1 177:1 195:1 220:1 239:1 251:1 268:1 288:1 304:1 320:1 333:1 337:1 356:1 382:1 385:1 449:1 513:1 577:1 641:1 705:1 771:1 844:1 943:1 1019:1 1068:1 1136:1 1216:1 1280:1 1341:1 1393:1 1412:1 1486:1 
-0.026256228460377326 1:1 5:1 9:1 13:1 17:1 21:1 25:1 32:1 35:1 40:1 43:1 47:1 52:1 53:1 60:1 63:1 68:1 69:1 74:1 77:1 81:1 97:1 113:1 129:1 145:1 161:1 180:1 207:1 220:1 239:1 251:1 268:1 285:1 292:1 319:1 332:1 349:1 354:1 373:1 385:1 449:1 513:1 577:1 641:1 708:1 783:1 892:1 943:1 1019:1 1068:1 1133:1 1204:1 1231:1 1340:1 1389:1 1458:1 1477:1 
0.5 1:1 5:1 9:1 13:1 17:1 21:1 25:1 32:1 35:1 40:1 43:1 47:1 52:1 55:1 58:1 61:1 65:1 72:1 76:1 79:1 81:1 97:1 113:1 129:1 145:1 161:1 180:1 207:1 220:1 239:1 251:1 268:1 287:1 298:1 309:1 321:1 340:1 368:1 383:1 385:1 449:1 513:1 577:1 641:1 708:1 783:1 892:1 943:1 1019:1 1068:1 1135:1 1210:1 1253:1 1297:1 1348:1 1424:1 1535:1 
-0.5 1:1 5:1 9:1 13:1 17:1 21:1 27:1 32:1 35:1 40:1 43:1 47:1 52:1 56:1 57:1 62:1 65:1 70:1 73:1 77:1 81:1 97:1 113:1 129:1 145:1 163:1 188:1 207:1 220:1 239:1 251:1 268:1 288:1 301:1 306:1 325:1 338:1 357:1 369:1 385:1 449:1 513:1 577:1 643:1 716:1 815:1 892:1 943:1 1019:1 1068:1 1136:1 1213:1 1266:1 1285:1 1362:1 1413:1 1489:1 
0.5 1:1 5:1 9:1 13:1 17:1 21:1 27:1 32:1 35:1 40:1 43:1 47:1 52:1 56:1 60:1 63:1 67:1 71:1 75:1 80:1 81:1 97:1 113:1 129:1 145:1 163:1 188:1 207:1 220:1 239:1 251:1 268:1 288:1 304:1 319:1 331:1 347:1 363:1 380:1 385:1 449:1 513:1 577:1 643:1 716:1 815:1 892:1 943:1 1019:1 1068:1 1136:1 1216:1 1279:1 1339:1 1387:1 1451:1 1516:1 
0.5 1:1 5:1 9:1 13:1 17:1 21:1 28:1 32:1 35:1 40:1 43:1 47:1 52:1 53:1 58:1 64:1 65:1 71:1 73:1 79:1 81:1 97:1 113:1 129:1 145:1 164:1 192:1 207:1 220:1 239:1 251:1 268:1 285:1 290:1 312:1 333:1 339:1 361:1 371:1 385:1 449:1 513:1 577:1 644:1 720:1 831:1 892:1 943:1 1019:1 1068:1 1133:1 1202:1 1224:1 1309:1 1395:1 1417:1 1507:1 
-0.5 1:1 5:1 9:1 13:1 17:1 21:1 28:1 32:1 35:1 40:1 43:1 47:1 52:1 54:1 57:1 63:1 68:1 72:1 73:1 77:1 81:1 97:1 113:1 129:1 145:1 164:1 192:1 207:1 220:1 239:1 251:1 268:1 286:1 293:1 307:1 332:1 352:1 365:1 369:1 385:1 449:1 513:1 577:1 644:1 720:1 831:1 892:1 943:1 1019:1 1068:1 1134:1 1205:1 1235:1 1292:1 1392:1 1469:1 1521:1 
-0.5 1:1 5:1 9:1 13:1 17:1 21:1 28:1 32:1 35:1 40:1 43:1 47:1 52:1 55:1 58:1 61:1 68:1 72:1 74:1 77:1 81:1 97:1 113:1 129:1 145:1 164:1 192:1 207:1 220:1 239:1 251:1 268:1 287:1 298:1 309:1 324:1 352:1 366:1 373:1 385:1 449:1 513:1 577:1 644:1 720:1 831:1 892:1 943:1 1019:1 1068:1 1135:1 1210:1 1253:1 1300:1 1360:1 1470:1 1525:1 
0.26951059815712847 1:1 5:1 9:1 13:1 17:1 21:1 28:1 32:1 35:1 40:1 43:1 47:1 52:1 56:1 60:1 61:1 65:1 69:1 73:1 77:1 81:1 97:1 113:1 129:1 145:1 164:1 192:1 207:1 220:1 239:1 251:1 268:1 288:1 304:1 317:1 321:1 337:1 353:1 369:1 385:1 449:1 513:1 577:1 644:1 720:1 831:1 892:1 943:1 1019:1 1068:1 1136:1 1216:1 1277:1 1329:1 1345:1 1409:1 1473:1 
-0.2851965022349473 1:1 5:1 9:1 13:1 17:1 21:1 28:1 32:1 35:1 40:1 43:1 47:1 52:1 56:1 60:1 64:1 67:1 69:1 75:1 80:1 81:1 97:1 113:1 129:1 145:1 164:1 192:1 207:1 220:1 239:1 251:1 268:1 288:1 304:1 320:1 335:1 345:1 355:1 380:1 385:1 449:1 513:1 577:1 644:1 720:1 831:1 892:1 943:1 1019:1 1068:1 1136:1 1216:1 1280:1 1343:1 1401:1 1443:1 1484:1 
0.5 1:1 5:1 9:1 13:1 17:1 22:1 26:1 32:1 35:1 40:1 43:1 47:1 52:1 56:1 57:1 61:1 65:1 69:1 76:1 79:1 81:1 97:1 113:1 129:1 146:1 166:1 184:1 207:1 220:1 239:1 251:1 268:1 288:1 301:1 305:1 321:1 337:1 356:1 383:1 385:1 449:1 513:1 578:1 646:1 728:1 799:1 892:1 943:1 1019:1 1068:1 1136:1 1213:1 1265:1 1281:1 1345:1 1412:1 1487:1 
0.5 1:1 5:1 9:1 13:1 17:1 22:1 28:1 32:1 35:1 40:1 43:1 47:1 52:1 54:1 57:1 64:1 66:1 71:1 76:1 79:1 81:1 97:1 113:1 129:1 146:1 168:1 192:1 207:1 220:1 239:1 251:1 268:1 286:1 293:1 308:1 334:1 343:1 364:1 383:1 385:1 449:1 513:1 578:1 648:1 736:1 831:1 892:1 943:1 1019:1 1068:1 1134:1 1205:1 1236:1 1294:1 1399:1 1436:1 1519:1 
0.5 1:1 5:1 9:1 13:1 17:1 23:1 25:1 32:1 35:1 40:1 43:1 47:1 52:1 53:1 59:1 61:1 65:1 72:1 74:1 79:1 81:1 97:1 113:1 129:1 147:1 169:1 180:1 207:1 220:1 239:1 251:1 268:1 285:1 291:1 313:1 321:1 340:1 366:1 375:1 385:1 449:1 513:1 579:1 649:1 740:1 783:1 892:1 943:1 1019:1 1068:1 1133:1 1203:1 1225:1 1313:1 1348:1 1422:1 1527:1 
-0.5 1:1 5:1 9:1 13:1 17:1 23:1 26:1 32:1 35:1 40:1 43:1 47:1 52:1 53:1 57:1 61:1 65:1 69:1 74:1 80:1 81:1 97:1 113:1 129:1 147:1 170:1 184:1 207:1 220:1 239:1 251:1 268:1 285:1 289:1 305:1 321:1 337:1 354:1 376:1 385:1 449:1 513:1 579:1 650:1 744:1 799:1 892:1 943:1 1019:1 1068:1 1133:1 1201:1 1217:1 1281:1 1345:1 1410:1 1480:1 
0.15059542335767187 1:1 5:1 9:1 13:1 17:1 23:1 28:1 31:1 35:1 40:1 43:1 47:1 52:1 56:1 57:1 64:1 68:1 70:1 73:1 79:1 81:1 97:1 113:1 129:1 147:1 172:1 191:1 203:1 220:1 239:1 251:1 268:1 288:1 301:1 308:1 336:1 350:1 357:1 371:1 385:1 449:1 513:1 579:1 652:1 751:1 827:1 876:1 943:1 1019:1 1068:1 1136:1 1213:1 1268:1 1296:1 1406:1 1461:1 1491:1 
0.5 1:1 5:1 9:1 13:1 17:1 23:1 28:1 32:1 35:1 40:1 43:1 47:1 52:1 56:1 58:1 64:1 67:1 69:1 75:1 80:1 81:1 97:1 113:1 129:1 147:1 172:1 192:1 207:1 220:1 239:1 251:1 268:1 288:1 302:1 312:1 335:1 345:1 355:1 380:1 385:1 449:1 513:1 579:1 652:1 752:1 831:1 892:1 943:1 1019:1 1068:1 1136:1 1214:1 1272:1 1311:1 1401:1 1443:1 1484:1 
0.5 1:1 5:1 9:1 13:1 17:1 23:1 28:1 32:1 35:1 40:1 43:1 47:1 52:1 56:1 60:1 64:1 66:1 69:1 74:1 77:1 81:1 97:1 113:1 129:1 147:1 172:1 192:1 207:1 220:1 239:1 251:1 268:1 288:1 304:1 320:1 334:1 341:1 354:1 373:1 385:1 449:1 513:1 579:1 652:1 752:1 831:1 892:1 943:1 1019:1 1068:1 1136:1 1216:1 1280:1 1342:1 1397:1 1426:1 1477:1 
0.4205221699827047 1:1 5:1 9:1 13:1 17:1 24:1 26:1 32:1 35:1 40:1 43:1 47:1 52:1 56:1 59:1 64:1 67:1 69:1 76:1 77:1 81:1 97:1 113:1 129:1 148:1 174:1 184:1 207:1 220:1 239:1 251:1 268:1 288:1 303:1 316:1 335:1 345:1 356:1 381:1 385:1 449:1 513:1 580:1 654:1 760:1 799:1 892:1 943:1 1019:1 1068:1 1136:1 1215:1 1276:1 1327:1 1401:1 1444:1 1485:1 
-0.26268742964752589 1:1 5:1 9:1 13:1 17:1 24:1 28:1 31:1 35:1 40:1 43:1 47:1 52:1 53:1 59:1 62:1 65:1 70:1 76:1 78:1 81:1 97:1 113:1 129:1 148:1 176:1 191:1 203:1 220:1 239:1 251:1 268:1 285:1 291:1 314:1 325:1 338:1 360:1 382:1 385:1 449:1 513:1 580:1 656:1 767:1 827:1 876:1 943:1 1019:1 1068:1 1133:1 1203:1 1226:1 1317:1 1362:1 1416:1 1502:1 
-0.5 1:1 5:1 9:1 13:1 17:1 24:1 28:1 32:1 35:1 40:1 43:1 47:1 52:1 56:1 57:1 63:1 66:1 69:1 73:1 79:1 81:1 97:1 113:1 129:1 148:1 176:1 192:1 207:1 220:1 239:1 251:1 268:1 288:1 301:1 307:1 330:1 341:1 353:1 371:1 385:1 449:1 513:1 580:1 656:1 768:1 831:1 892:1 943:1 1019:1 1068:1 1136:1 1213:1 1267:1 1290:1 1381:1 1425:1 1475:1 
-0.5 1:1 5:1 9:1 13:1 18:1 21:1 26:1 32:1 35:1 40:1 43:1 47:1 52:1 53:1 60:1 62:1 68:1 71:1 73:1 79:1 81:1 97:1 113:1 130:1 149:1 162:1 184:1 207:1 220:1 239:1 251:1 268:1 285:1 292:1 318:1 328:1 351:1 361:1 371:1 385:1 449:1 514:1 581:1 658:1 712:1 799:1 892:1 943:1 1019:1 1068:1 1133:1 1204:1 1230:1 1336:1 1375:1 1465:1 1507:1 
-0.5 1:1 5:1 9:1 13:1 18:1 21:1 27:1 32:1 35:1 40:1 43:1 47:1 52:1 54:1 60:1 63:1 68:1 71:1 74:1 80:1 81:1 97:1 113:1 130:1 149:1 163:1 188:1 207:1 220:1 239:1 251:1 268:1 286:1 296:1 319:1 332:1 351:1 362:1 376:1 385:1 449:1 514:1 581:1 659:1 716:1 815:1 892:1 943:1 1019:1 1068:1 1134:1 1208:1 1247:1 1340:1 1391:1 1466:1 1512:1 
0.17918673900228074 1:1 5:1 9:1 13:1 18:1 22:1 28:1 32:1 35:1 40:1 43:1 47:1 52:1 55:1 60:1 62:1 68:1 72:1 74:1 78:1 81:1 97:1 113:1 130:1 150:1 168:1 192:1 207:1 220:1 239:1 251:1 268:1 287:1 300:1 318:1 328:1 352:1 366:1 374:1 385:1 449:1 514:1 582:1 664:1 736:1 831:1 892:1 943:1 1019:1 1068:1 1135:1 1212:1 1262:1 1336:1 1376:1 1470:1 1526:1 
0.5 1:1 5:1 9:1 13:1 18:1 22:1 28:1 32:1 35:1 40:1 43:1 47:1 52:1 56:1 60:1 64:1 67:1 70:1 73:1 79:1 81:1 97:1 113:1 130:1 150:1 168:1 192:1 207:1 220:1 239:1 251:1 268:1 288:1 304:1 320:1 335:1 346:1 357:1 371:1 385:1 449:1 514:1 582:1 664:1 736:1 831:1 892:1 943:1 1019:1 1068:1 1136:1 1216:1 1280:1 1343:1 1402:1 1445:1 1491:1 
0.42683932561954169 1:1 5:1 9:1 13:1 18:1 23:1 25:1 29:1 35:1 40:1 43:1 47:1 52:1 56:1 57:1 61:1 65:1 70:1 76:1 79:1 81:1 97:1 113:1 130:1 151:1 169:1 177:1 195:1 220:1 239:1 251:1 268:1 288:1 301:1 305:1 321:1 338:1 360:1 383:1 385:1 449:1 514:1 583:1 665:1 737:1 771:1 844:1 943:1 1019:1 1068:1 1136:1 1213:1 1265:1 1281:1 1346:1 1416:1 1503:1 
0.076116457958399733 1:1 5:1 9:1 13:1 18:1 24:1 27:1 32:1 35:1 40:1 43:1 47:1 52:1 56:1 60:1 63:1 68:1 72:1 75:1 80:1 81:1 97:1 113:1 130:1 152:1 175:1 188:1 207:1 220:1 239:1 251:1 268:1 288:1 304:1 319:1 332:1 352:1 367:1 380:1 385:1 449:1 514:1 584:1 671:1 764:1 815:1 892:1 943:1 1019:1 1068:1 1136:1 1216:1 1279:1 1340:1 1392:1 1471:1 1532:1 
-0.5 1:1 5:1 9:1 13:1 18:1 24:1 28:1 32:1 35:1 40:1 43:1 47:1 52:1 56:1 60:1 63:1 68:1 71:1 73:1 78:1 81:1 97:1 113:1 130:1 152:1 176:1 192:1 207:1 220:1 239:1 251:1 268:1 288:1 304:1 319:1 332:1 351:1 361:1 370:1 385:1 449:1 514:1 584:1 672:1 768:1 831:1 892:1 943:1 1019:1 1068:1 1136:1 1216:1 1279:1 1340:1 1391:1 1465:1 1506:1 
-0.5 1:1 5:1 9:1 13:1 19:1 22:1 28:1 32:1 35:1 40:1 43:1 47:1 52:1 54:1 60:1 63:1 68:1 72:1 75:1 77:1 81:1 97:1 113:1 131:1 154:1 168:1 192:1 207:1 220:1 239:1 251:1 268:1 286:1 296:1 319:1 332:1 352:1 367:1 377:1 385:1 449:1 515:1 586:1 680:1 736:1 831:1 892:1 943:1 1019:1 1068:1 1134:1 1208:1 1247:1 1340:1 1392:1 1471:1 1529:1 
-0.5 1:1 5:1 9:1 13:1 19:1 23:1 25:1 29:1 35:1 40:1 43:1 47:1 52:1 56:1 57:1 61:1 66:1 69:1 76:1 79:1 81:1 97:1 113:1 131:1 155:1 169:1 177:1 195:1 220:1 239:1 251:1 268:1 288:1 301:1 305:1 322:1 341:1 356:1 383:1 385:1 449:1 515:1 587:1 681:1 737:1 771:1 844:1 943:1 1019:1 1068:1 1136:1 1213:1 1265:1 1282:1 1349:1 1428:1 1487:1 
0.5 1:1 5:1 9:1 13:1 19:1 23:1 25:1 32:1 35:1 40:1 43:1 47:1 52:1 54:1 57:1 63:1 65:1 71:1 73:1 77:1 81:1 97:1 113:1 131:1 155:1 169:1 180:1 207:1 220:1 239:1 251:1 268:1 286:1 293:1 307:1 329:1 339:1 361:1 369:1 385:1 449:1 515:1 587:1 681:1 740:1 783:1 892:1 943:1 1019:1 1068:1 1134:1 1205:1 1235:1 1289:1 1379:1 1417:1 1505:1 
-0.5 1:1 5:1 9:1 13:1 19:1 23:1 25:1 32:1 35:1 40:1 43:1 47:1 52:1 56:1 58:1 64:1 65:1 69:1 75:1 78:1 81:1 97:1 113:1 131:1 155:1 169:1 180:1 207:1 220:1 239:1 251:1 268:1 288:1 302:1 312:1 333:1 337:1 355:1 378:1 385:1 449:1 515:1 587:1 681:1 740:1 783:1 892:1 943:1 1019:1 1068:1 1136:1 1214:1 1272:1 1309:1 1393:1 1411:1 1482:1 
0.5 1:1 5:1 9:1 13:1 19:1 23:1 25:1 32:1 35:1 40:1 43:1 47:1 52:1 56:1 60:1 62:1 66:1 72:1 76:1 80:1 81:1 97:1 113:1 131:1 155:1 169:1 180:1 207:1 220:1 239:1 251:1 268:1 288:1 304:1 318:1 326:1 344:1 368:1 384:1 385:1 449:1 515:1 587:1 681:1 740:1 783:1 892:1 943:1 1019:1 1068:1 1136:1 1216:1 1278:1 1334:1 1368:1 1440:1 1536:1 
-0.5 1:1 5:1 9:1 13:1 19:1 23:1 27:1 32:1 35:1 40:1 43:1 47:1 52:1 56:1 58:1 62:1 66:1 70:1 76:1 79:1 81:1 97:1 113:1 131:1 155:1 171:1 188:1 207:1 220:1 239:1 251:1 268:1 288:1 302:1 310:1 326:1 342:1 360:1 383:1 385:1 449:1 515:1 587:1 683:1 748:1 815:1 892:1 943:1 1019:1 1068:1 1136:1 1214:1 1270:1 1302:1 1366:1 1432:1 1503:1 
0.5 1:1 5:1 9:1 13:1 19:1 24:1 26:1 32:1 35:1 40:1 43:1 47:1 52:1 56:1 58:1 64:1 65:1 71:1 73:1 77:1 81:1 97:1 113:1 131:1 156:1 174:1 184:1 207:1 220:1 239:1 251:1 268:1 288:1 302:1 312:1 333:1 339:1 361:1 369:1 385:1 449:1 515:1 588:1 686:1 760:1 799:1 892:1 943:1 1019:1 1068:1 1136:1 1214:1 1272:1 1309:1 1395:1 1417:1 1505:1 
-0.2654355001073066 1:1 5:1 9:1 13:1 19:1 24:1 27:1 32:1 35:1 40:1 43:1 47:1 52:1 53:1 59:1 63:1 66:1 71:1 74:1 79:1 81:1 97:1 113:1 131:1 156:1 175:1 188:1 207:1 220:1 239:1 251:1 268:1 285:1 291:1 315:1 330:1 343:1 362:1 375:1 385:1 449:1 515:1 588:1 687:1 764:1 815:1 892:1 943:1 1019:1 1068:1 1133:1 1203:1 1227:1 1322:1 1383:1 1434:1 1511:1 
-0.5 1:1 5:1 9:1 13:1 20:1 21:1 25:1 32:1 35:1 40:1 43:1 47:1 52:1 56:1 60:1 63:1 67:1 71:1 75:1 80:1 81:1 97:1 113:1 132:1 157:1 161:1 180:1 207:1 220:1 239:1 251:1 268:1 288:1 304:1 319:1 331:1 347:1 363:1 380:1 385:1 449:1 516:1 589:1 689:1 708:1 783:1 892:1 943:1 1019:1 1068:1 1136:1 1216:1 1279:1 1339:1 1387:1 1451:1 1516:1 
0.48694813243195045 1:1 5:1 9:1 13:1 20:1 21:1 26:1 32:1 35:1 40:1 43:1 47:1 52:1 53:1 60:1 64:1 68:1 71:1 73:1 78:1 81:1 97:1 113:1 132:1 157:1 162:1 184:1 207:1 220:1 239:1 251:1 268:1 285:1 292:1 320:1 336:1 351:1 361:1 370:1 385:1 449:1 516:1 589:1 690:1 712:1 799:1 892:1 943:1 1019:1 1068:1 1133:1 1204:1 1232:1 1344:1 1407:1 1465:1 1506:1 
-0.5 1:1 5:1 9:1 13:1 20:1 21:1 26:1 32:1 35:1 40:1 43:1 47:1 52:1 56:1 57:1 61:1 65:1 72:1 73:1 80:1 81:1 97:1 113:1 132:1 157:1 162:1 184:1 207:1 220:1 239:1 251:1 268:1 288:1 301:1 305:1 321:1 340:1 365:1 372:1 385:1 449:1 516:1 589:1 690:1 712:1 799:1 892:1 943:1 1019:1 1068:1 1136:1 1213:1 1265:1 1281:1 1348:1 1421:1 1524:1 
-0.5 1:1 5:1 9:1 13:1 20:1 21:1 28:1 31:1 35:1 40:1 43:1 47:1 52:1 56:1 59:1 61:1 65:1 71:1 73:1 77:1 81:1 97:1 113:1 132:1 157:1 164:1 191:1 203:1 220:1 239:1 251:1 268:1 288:1 303:1 313:1 321:1 339:1 361:1 369:1 385:1 449:1 516:1 589:1 692:1 719:1 827:1 876:1 943:1 1019:1 1068:1 1136:1 1215:1 1273:1 1313:1 1347:1 1417:1 1505:1 
0.021411682304565784 1:1 5:1 9:1 13:1 20:1 23:1 25:1 32:1 35:1 40:1 43:1 47:1 52:1 53:1 60:1 64:1 68:1 72:1 75:1 80:1 81:1 97:1 113:1 132:1 159:1 169:1 180:1 207:1 220:1 239:1 251:1 268:1 285:1 292:1 320:1 336:1 352:1 367:1 380:1 385:1 449:1 516:1 591:1 697:1 740:1 783:1 892:1 943:1 1019:1 1068:1 1133:1 1204:1 1232:1 1344:1 1408:1 1471:1 1532:1 
0.5 1:1 5:1 9:1 13:1 20:1 23:1 25:1 32:1 35:1 40:1 43:1 47:1 52:1 56:1 57:1 61:1 65:1 71:1 74:1 78:1 81:1 97:1 113:1 132:1 159:1 169:1 180:1 207:1 220:1 239:1 251:1 268:1 288:1 301:1 305:1 321:1 339:1 362:1 374:1 385:1 449:1 516:1 591:1 697:1 740:1 783:1 892:1 943:1 1019:1 1068:1 1136:1 1213:1 1265:1 1281:1 1347:1 1418:1 1510:1 
0.5 1:1 5:1 9:1 13:1 20:1 23:1 26:1 32:1 35:1 40:1 43:1 47:1 52:1 53:1 57:1 64:1 65:1 72:1 76:1 78:1 81:1 97:1 113:1 132:1 159:1 170:1 184:1 207:1 220:1 239:1 251:1 268:1 285:1 289:1 308:1 333:1 340:1 368:1 382:1 385:1 449:1 516:1 591:1 698:1 744:1 799:1 892:1 943:1 1019:1 1068:1 1133:1 1201:1 1220:1 1293:1 1396:1 1424:1 1534:1 
0.5 1:1 5:1 9:1 13:1 20:1 23:1 26:1 32:1 35:1 40:1 43:1 47:1 52:1 56:1 60:1 62:1 66:1 70:1 74:1 77:1 81:1 97:1 113:1 132:1 159:1 170:1 184:1 207:1 220:1 239:1 251:1 268:1 288:1 304:1 318:1 326:1 342:1 358:1 373:1 385:1 449:1 516:1 591:1 698:1 744:1 799:1 892:1 943:1 1019:1 1068:1 1136:1 1216:1 1278:1 1334:1 1366:1 1430:1 1493:1 
0.5 1:1 5:1 9:1 13:1 20:1 24:1 26:1 32:1 35:1 40:1 43:1 47:1 52:1 54:1 57:1 63:1 68:1 72:1 74:1 77:1 81:1 97:1 113:1 132:1 160:1 174:1 184:1 207:1 220:1 239:1 251:1 268:1 286:1 293:1 307:1 332:1 352:1 366:1 373:1 385:1 449:1 516:1 592:1 702:1 760:1 799:1 892:1 943:1 1019:1 1068:1 1134:1 1205:1 1235:1 1292:1 1392:1 1470:1 1525:1 
-0.5 1:1 5:1 9:1 13:1 20:1 24:1 26:1 32:1 35:1 40:1 43:1 47:1 52:1 56:1 58:1 64:1 66:1 69:1 75:1 77:1 81:1 97:1 113:1 132:1 160:1 174:1 184:1 207:1 220:1 239:1 251:1 268:1 288:1 302:1 312:1 334:1 341:1 355:1 377:1 385:1 449:1 516:1 592:1 702:1 760:1 799:1 892:1 943:1 1019:1 1068:1 1136:1 1214:1 1272:1 1310:1 1397:1 1427:1 1481:1 
-0.30888292551768554 1:1 5:1 9:1 13:1 20:1 24:1 26:1 32:1 35:1 40:1 43:1 47:1 52:1 56:1 60:1 62:1 65:1 71:1 76:1 77:1 81:1 97:1 113:1 132:1 160:1 174:1 184:1 207:1 220:1 239:1 251:1 268:1 288:1 304:1 318:1 325:1 339:1 364:1 381:1 385:1 449:1 516:1 592:1 702:1 760:1 799:1 892:1 943:1 1019:1 1068:1 1136:1 1216:1 1278:1 1333:1 1363:1 1420:1 1517:1 
-0.5 1:1 5:1 9:1 13:1 20:1 24:1 26:1 32:1 35:1 40:1 43:1 47:1 52:1 56:1 60:1 63:1 67:1 69:1 73:1 77:1 81:1 97:1 113:1 132:1 160:1 174:1 184:1 207:1 220:1 239:1 251:1 268:1 288:1 304:1 319:1 331:1 345:1 353:1 369:1 385:1 449:1 516:1 592:1 702:1 760:1 799:1 892:1 943:1 1019:1 1068:1 1136:1 1216:1 1279:1 1339:1 1385:1 1441:1 1473:1 
0.44345723092507461 1:1 5:1 9:1 13:1 20:1 24:1 28:1 32:1 35:1 40:1 43:1 47:1 52:1 56:1 59:1 63:1 65:1 69:1 76:1 77:1 81:1 97:1 113:1 132:1 160:1 176:1 192:1 207:1 220:1 239:1 251:1 268:1 288:1 303:1 315:1 329:1 337:1 356:1 381:1 385:1 449:1 516:1 592:1 704:1 768:1 831:1 892:1 943:1 1019:1 1068:1 1136:1 1215:1 1275:1 1321:1 1377:1 1412:1 1485:1 
-0.5 1:1 5:1 9:1 13:1 20:1 24:1 28:1 32:1 35:1 40:1 43:1 47:1 52:1 56:1 60:1 61:1 65:1 72:1 75:1 79:1 81:1 97:1 113:1 132:1 160:1 176:1 192:1 207:1 220:1 239:1 251:1 268:1 288:1 304:1 317:1 321:1 340:1 367:1 379:1 385:1 449:1 516:1 592:1 704:1 768:1 831:1 892:1 943:1 1019:1 1068:1 1136:1 1216:1 1277:1 1329:1 1348:1 1423:1 1531:1 
-0.5 1:1 5:1 9:1 14:1 17:1 21:1 25:1 32:1 35:1 40:1 43:1 47:1 52:1 55:1 57:1 64:1 67:1 71:1 74:1 80:1 81:1 97:1 114:1 133:1 145:1 161:1 180:1 207:1 220:1 239:1 251:1 268:1 287:1 297:1 308:1 335:1 347:1 362:1 376:1 385:1 450:1 517:1 593:1 641:1 708:1 783:1 892:1 943:1 1019:1 1068:1 1135:1 1209:1 1252:1 1295:1 1403:1 1450:1 1512:1 
-0.5 1:1 5:1 9:1 14:1 17:1 21:1 26:1 32:1 35:1 40:1 43:1 47:1 52:1 54:1 57:1 62:1 68:1 72:1 76:1 77:1 81:1 97:1 114:1 133:1 145:1 162:1 184:1 207:1 220:1 239:1 251:1 268:1 286:1 293:1 306:1 328:1 352:1 368:1 381:1 385:1 450:1 517:1 593:1 642:1 712:1 799:1 892:1 943:1 1019:1 1068:1 1134:1 1205:1 1234:1 1288:1 1376:1 1472:1 1533:1 
-0.5 1:1 5:1 9:1 14:1 17:1 21:1 26:1 32:1 35:1 40:1 43:1 47:1 52:1 55:1 57:1 64:1 68:1 71:1 74:1 80:1 81:1 97:1 114:1 133:1 145:1 162:1 184:1 207:1 220:1 239:1 251:1 268:1 287:1 297:1 308:1 336:1 351:1 362:1 376:1 385:1 450:1 517:1 593:1 642:1 712:1 799:1 892:1 943:1 1019:1 1068:1 1135:1 1209:1 1252:1 1296:1 1407:1 1466:1 1512:1 
-0.5 1:1 5:1 9:1 14:1 17:1 22:1 26:1 32:1 35:1 40:1 43:1 47:1 52:1 53:1 60:1 61:1 68:1 72:1 74:1 80:1 81:1 97:1 114:1 133:1 146:1 166:1 184:1 207:1 220:1 239:1 251:1 268:1 285:1 292:1 317:1 324:1 352:1 366:1 376:1 385:1 450:1 517:1 594:1 646:1 728:1 799:1 892:1 943:1 1019:1 1068:1 1133:1 1204:1 1229:1 1332:1 1360:1 1470:1 1528:1 
-0.5 1:1 5:1 9:1 14:1 17:1 22:1 26:1 32:1 35:1 40:1 43:1 47:1 52:1 55:1 57:1 64:1 68:1 71:1 74:1 80:1 81:1 97:1 114:1 133:1 146:1 166:1 184:1 207:1 220:1 239:1 251:1 268:1 287:1 297:1 308:1 336:1 351:1 362:1 376:1 385:1 450:1 517:1 594:1 646:1 728:1 799:1 892:1 943:1 1019:1 1068:1 1135:1 1209:1 1252:1 1296:1 1407:1 1466:1 1512:1 
0.5 1:1 5:1 9:1 14:1 17:1 22:1 28:1 32:1 35:1 40:1 43:1 47:1 52:1 56:1 60:1 63:1 67:1 71:1 74:1 80:1 81:1 97:1 114:1 133:1 146:1 168:1 192:1 207:1 220:1 239:1 251:1 268:1 288:1 304:1 319:1 331:1 347:1 362:1 376:1 385:1 450:1 517:1 594:1 648:1 736:1 831:1 892:1 943:1 1019:1 1068:1 1136:1 1216:1 1279:1 1339:1 1387:1 1450:1 1512:1 
-0.5 1:1 5:1 9:1 14:1 17:1 22:1 28:1 32:1 35:1 40:1 43:1 47:1 52:1 56:1 60:1 64:1 65:1 69:1 75:1 78:1 81:1 97:1 114:1 133:1 146:1 168:1 192:1 207:1 220:1 239:1 251:1 268:1 288:1 304:1 320:1 333:1 337:1 355:1 378:1 385:1 450:1 517:1 594:1 648:1 736:1 831:1 892:1 943:1 1019:1 1068:1 1136:1 1216:1 1280:1 1341:1 1393:1 1411:1 1482:1 
0.5 1:1 5:1 9:1 14:1 17:1 23:1 26:1 32:1 35:1 40:1 43:1 47:1 52:1 56:1 57:1 61:1 65:1 72:1 74:1 77:1 81:1 97:1 114:1 133:1 147:1 170:1 184:1 207:1 220:1 239:1 251:1 268:1 288:1 301:1 305:1 321:1 340:1 366:1 373:1 385:1 450:1 517:1 595:1 650:1 744:1 799:1 892:1 943:1 1019:1 1068:1 1136:1 1213:1 1265:1 1281:1 1348:1 1422:1 1525:1 
0.5 1:1 5:1 9:1 14:1 17:1 23:1 26:1 32:1 35:1 40:1 43:1 47:1 52:1 56:1 59:1 64:1 65:1 69:1 76:1 80:1 81:1 97:1 114:1 133:1 147:1 170:1 184:1 207:1 220:1 239:1 251:1 268:1 288:1 303:1 316:1 333:1 337:1 356:1 384:1 385:1 450:1 517:1 595:1 650:1 744:1 799:1 892:1 943:1 1019:1 1068:1 1136:1 1215:1 1276:1 1325:1 1393:1 1412:1 1488:1 
0.5 1:1 5:1 9:1 14:1 17:1 23:1 26:1 32:1 35:1 40:1 43:1 47:1 52:1 56:1 60:1 62:1 68:1 71:1 74:1 78:1 81:1 97:1 114:1 133:1 147:1 170:1 184:1 207:1 220:1 239:1 251:1 268:1 288:1 304:1 318:1 328:1 351:1 362:1 374:1 385:1 450:1 517:1 595:1 650:1 744:1 799:1 892:1 943:1 1019:1 1068:1 1136:1 1216:1 1278:1 1336:1 1375:1 1466:1 1510:1 
-0.47380378560243519 1:1 5:1 9:1 14:1 17:1 23:1 28:1 32:1 35:1 40:1 43:1 47:1 52:1 55:1 59:1 63:1 68:1 71:1 73:1 77:1 81:1 97:1 114:1 133:1 147:1 172:1 192:1 207:1 220:1 239:1 251:1 268:1 287:1 299:1 315:1 332:1 351:1 361:1 369:1 385:1 450:1 517:1 595:1 652:1 752:1 831:1 892:1 943:1 1019:1 1068:1 1135:1 1211:1 1259:1 1324:1 1391:1 1465:1 1505:1 
-0.5 1:1 5:1 9:1 14:1 17:1 24:1 26:1 32:1 35:1 40:1 43:1 47:1 52:1 53:1 60:1 63:1 65:1 69:1 73:1 80:1 81:1 97:1 114:1 133:1 148:1 174:1 184:1 207:1 220:1 239:1 251:1 268:1 285:1 292:1 319:1 329:1 337:1 353:1 372:1 385:1 450:1 517:1 596:1 654:1 760:1 799:1 892:1 943:1 1019:1 1068:1 1133:1 1204:1 1231:1 1337:1 1377:1 1409:1 1476:1 
0.5 1:1 5:1 9:1 14:1 17:1 24:1 26:1 32:1 35:1 40:1 43:1 47:1 52:1 56:1 57:1 61:1 65:1 70:1 76:1 80:1 81:1 97:1 114:1 133:1 148:1 174:1 184:1 207:1 220:1 239:1 251:1 268:1 288:1 301:1 305:1 321:1 338:1 360:1 384:1 385:1 450:1 517:1 596:1 654:1 760:1 799:1 892:1 943:1 1019:1 1068:1 1136:1 1213:1 1265:1 1281:1 1346:1 1416:1 1504:1 
-0.5 1:1 5:1 9:1 14:1 17:1 24:1 26:1 32:1 35:1 40:1 43:1 47:1 52:1 56:1 57:1 64:1 66:1 72:1 73:1 79:1 81:1 97:1 114:1 133:1 148:1 174:1 184:1 207:1 220:1 239:1 251:1 268:1 288:1 301:1 308:1 334:1 344:1 365:1 371:1 385:1 450:1 517:1 596:1 654:1 760:1 799:1 892:1 943:1 1019:1 1068:1 1136:1 1213:1 1268:1 1294:1 1400:1 1437:1 1523:1 
0.20050427920892391 1:1 5:1 9:1 14:1 17:1 24:1 26:1 32:1 35:1 40:1 43:1 47:1 52:1 56:1 60:1 64:1 68:1 69:1 74:1 78:1 81:1 97:1 114:1 133:1 148:1 174:1 184:1 207:1 220:1 239:1 251:1 268:1 288:1 304:1 320:1 336:1 349:1 354:1 374:1 385:1 450:1 517:1 596:1 654:1 760:1 799:1 892:1 943:1 1019:1 1068:1 1136:1 1216:1 1280:1 1344:1 1405:1 1458:1 1478:1 
-0.5 1:1 5:1 9:1 14:1 17:1 24:1 28:1 32:1 35:1 40:1 43:1 47:1 52:1 53:1 60:1 64:1 68:1 72:1 74:1 77:1 81:1 97:1 114:1 133:1 148:1 176:1 192:1 207:1 220:1 239:1 251:1 268:1 285:1 292:1 320:1 336:1 352:1 366:1 373:1 385:1 450:1 517:1 596:1 656:1 768:1 831:1 892:1 943:1 1019:1 1068:1 1133:1 1204:1 1232:1 1344:1 1408:1 1470:1 1525:1 
-0.5 1:1 5:1 9:1 14:1 17:1 24:1 28:1 32:1 35:1 40:1 43:1 47:1 52:1 56:1 60:1 63:1 65:1 71:1 76:1 80:1 81:1 97:1 114:1 133:1 148:1 176:1 192:1 207:1 220:1 239:1 251:1 268:1 288:1 304:1 319:1 329:1 339:1 364:1 384:1 385:1 450:1 517:1 596:1 656:1 768:1 831:1 892:1 943:1 1019:1 1068:1 1136:1 1216:1 1279:1 1337:1 1379:1 1420:1 1520:1 
-0.095146582310753222 1:1 5:1 9:1 14:1 18:1 24:1 25:1 32:1 35:1 40:1 43:1 47:1 52:1 55:1 58:1 64:1 67:1 70:1 76:1 80:1 81:1 97:1 114:1 134:1 152:1 173:1 180:1 207:1 220:1 239:1 251:1 268:1 287:1 298:1 312:1 335:1 346:1 360:1 384:1 385:1 450:1 518:1 600:1 669:1 756:1 783:1 892:1 943:1 1019:1 1068:1 1135:1 1210:1 1256:1 1311:1 1402:1 1448:1 1504:1 
0.5 1:1 5:1 9:1 14:1 18:1 24:1 26:1 32:1 35:1 40:1 43:1 47:1 52:1 54:1 60:1 63:1 67:1 71:1 73:1 79:1 81:1 97:1 114:1 134:1 152:1 174:1 184:1 207:1 220:1 239:1 251:1 268:1 286:1 296:1 319:1 331:1 347:1 361:1 371:1 385:1 450:1 518:1 600:1 670:1 760:1 799:1 892:1 943:1 1019:1 1068:1 1134:1 1208:1 1247:1 1339:1 1387:1 1449:1 1507:1 
-0.5 1:1 5:1 9:1 14:1 18:1 24:1 27:1 32:1 35:1 40:1 43:1 47:1 52:1 53:1 57:1 62:1 67:1 71:1 74:1 80:1 81:1 97:1 114:1 134:1 152:1 175:1 188:1 207:1 220:1 239:1 251:1 268:1 285:1 289:1 306:1 327:1 347:1 362:1 376:1 385:1 450:1 518:1 600:1 671:1 764:1 815:1 892:1 943:1 1019:1 1068:1 1133:1 1201:1 1218:1 1287:1 1371:1 1450:1 1512:1 
-0.5 1:1 5:1 9:1 14:1 18:1 24:1 28:1 32:1 35:1 40:1 43:1 47:1 52:1 55:1 57:1 63:1 68:1 71:1 76:1 80:1 81:1 97:1 114:1 134:1 152:1 176:1 192:1 207:1 220:1 239:1 251:1 268:1 287:1 297:1 307:1 332:1 351:1 364:1 384:1 385:1 450:1 518:1 600:1 672:1 768:1 831:1 892:1 943:1 1019:1 1068:1 1135:1 1209:1 1251:1 1292:1 1391:1 1468:1 1520:1 
0.5 1:1 5:1 9:1 14:1 18:1 24:1 28:1 32:1 35:1 40:1 43:1 47:1 52:1 56:1 60:1 64:1 66:1 69:1 75:1 80:1 81:1 97:1 114:1 134:1 152:1 176:1 192:1 207:1 220:1 239:1 251:1 268:1 288:1 304:1 320:1 334:1 341:1 355:1 380:1 385:1 450:1 518:1 600:1 672:1 768:1 831:1 892:1 943:1 1019:1 1068:1 1136:1 1216:1 1280:1 1342:1 1397:1 1427:1 1484:1 
0.5 1:1 5:1 9:1 14:1 19:1 23:1 25:1 29:1 35:1 40:1 43:1 47:1 52:1 56:1 57:1 64:1 68:1 69:1 76:1 80:1 81:1 97:1 114:1 135:1 155:1 169:1 177:1 195:1 220:1 239:1 251:1 268:1 288:1 301:1 308:1 336:1 349:1 356:1 384:1 385:1 450:1 519:1 603:1 681:1 737:1 771:1 844:1 943:1 1019:1 1068:1 1136:1 1213:1 1268:1 1296:1 1405:1 1460:1 1488:1 
0.5 1:1 5:1 9:1 14:1 20:1 21:1 26:1 32:1 35:1 40:1 43:1 47:1 52:1 53:1 57:1 61:1 68:1 71:1 73:1 77:1 81:1 97:1 114:1 136:1 157:1 162:1 184:1 207:1 220:1 239:1 251:1 268:1 285:1 289:1 305:1 324:1 351:1 361:1 369:1 385:1 450:1 520:1 605:1 690:1 712:1 799:1 892:1 943:1 1019:1 1068:1 1133:1 1201:1 1217:1 1284:1 1359:1 1465:1 1505:1 
-0.5 1:1 5:1 9:1 14:1 20:1 22:1 26:1 32:1 35:1 40:1 43:1 47:1 52:1 55:1 57:1 62:1 65:1 69:1 74:1 77:1 81:1 97:1 114:1 136:1 158:1 166:1 184:1 207:1 220:1 239:1 251:1 268:1 287:1 297:1 306:1 325:1 337:1 354:1 373:1 385:1 450:1 520:1 606:1 694:1 728:1 799:1 892:1 943:1 1019:1 1068:1 1135:1 1209:1 1250:1 1285:1 1361:1 1410:1 1477:1 
-0.030079999337234237 1:1 5:1 9:1 14:1 20:1 23:1 27:1 32:1 35:1 40:1 43:1 47:1 52:1 53:1 57:1 61:1 67:1 71:1 73:1 77:1 81:1 97:1 114:1 136:1 159:1 171:1 188:1 207:1 220:1 239:1 251:1 268:1 285:1 289:1 305:1 323:1 347:1 361:1 369:1 385:1 450:1 520:1 607:1 699:1 748:1 815:1 892:1 943:1 1019:1 1068:1 1133:1 1201:1 1217:1 1283:1 1355:1 1449:1 1505:1 
-0.5 1:1 5:1 9:1 15:1 17:1 21:1 26:1 32:1 35:1 40:1 43:1 47:1 52:1 55:1 58:1 62:1 68:1 69:1 73:1 77:1 81:1 97:1 115:1 137:1 145:1 162:1 184:1 207:1 220:1 239:1 251:1 268:1 287:1 298:1 310:1 328:1 349:1 353:1 369:1 385:1 451:1 521:1 609:1 642:1 712:1 799:1 892:1 943:1 1019:1 1068:1 1135:1 1210:1 1254:1 1304:1 1373:1 1457:1 1473:1 
0.5 1:1 5:1 9:1 15:1 17:1 22:1 28:1 32:1 35:1 40:1 43:1 47:1 52:1 56:1 57:1 62:1 68:1 71:1 74:1 80:1 81:1 97:1 115:1 137:1 146:1 168:1 192:1 207:1 220:1 239:1 251:1 268:1 288:1 301:1 306:1 328:1 351:1 362:1 376:1 385:1 451:1 521:1 610:1 648:1 736:1 831:1 892:1 943:1 1019:1 1068:1 1136:1 1213:1 1266:1 1288:1 1375:1 1466:1 1512:1 
0.5 1:1 5:1 9:1 15:1 17:1 22:1 28:1 32:1 35:1 40:1 43:1 47:1 52:1 56:1 60:1 62:1 66:1 69:1 76:1 78:1 81:1 97:1 115:1 137:1 146:1 168:1 192:1 207:1 220:1 239:1 251:1 268:1 288:1 304:1 318:1 326:1 341:1 356:1 382:1 385:1 451:1 521:1 610:1 648:1 736:1 831:1 892:1 943:1 1019:1 1068:1 1136:1 1216:1 1278:1 1334:1 1365:1 1428:1 1486:1 
0.5 1:1 5:1 9:1 15:1 17:1 22:1 28:1 32:1 35:1 40:1 43:1 47:1 52:1 56:1 60:1 64:1 65:1 69:1 73:1 77:1 81:1 97:1 115:1 137:1 146:1 168:1 192:1 207:1 220:1 239:1 251:1 268:1 288:1 304:1 320:1 333:1 337:1 353:1 369:1 385:1 451:1 521:1 610:1 648:1 736:1 831:1 892:1 943:1 1019:1 1068:1 1136:1 1216:1 1280:1 1341:1 1393:1 1409:1 1473:1 
-0.23379652065264911 1:1 5:1 9:1 15:1 17:1 23:1 26:1 32:1 35:1 40:1 43:1 47:1 52:1 53:1 57:1 61:1 65:1 70:1 75:1 77:1 81:1 97:1 115:1 137:1 147:1 170:1 184:1 207:1 220:1 239:1 251:1 268:1 285:1 289:1 305:1 321:1 338:1 359:1 377:1 385:1 451:1 521:1 611:1 650:1 744:1 799:1 892:1 943:1 1019:1 1068:1 1133:1 1201:1 1217:1 1281:1 1346:1 1415:1 1497:1 
0.5 1:1 5:1 9:1 15:1 18:1 21:1 28:1 32:1 35:1 40:1 43:1 47:1 52:1 53:1 60:1 64:1 65:1 71:1 76:1 77:1 81:1 97:1 115:1 138:1 149:1 164:1 192:1 207:1 220:1 239:1 251:1 268:1 285:1 292:1 320:1 333:1 339:1 364:1 381:1 385:1 451:1 522:1 613:1 660:1 720:1 831:1 892:1 943:1 1019:1 1068:1 1133:1 1204:1 1232:1 1341:1 1395:1 1420:1 1517:1 
-0.5 1:1 5:1 9:1 15:1 18:1 21:1 28:1 32:1 35:1 40:1 43:1 47:1 52:1 56:1 60:1 61:1 67:1 72:1 73:1 78:1 81:1 97:1 115:1 138:1 149:1 164:1 192:1 207:1 220:1 239:1 251:1 268:1 288:1 304:1 317:1 323:1 348:1 365:1 370:1 385:1 451:1 522:1 613:1 660:1 720:1 831:1 892:1 943:1 1019:1 1068:1 1136:1 1216:1 1277:1 1331:1 1356:1 1453:1 1522:1 
-0.5 1:1 5:1 9:1 15:1 18:1 24:1 25:1 32:1 35:1 40:1 43:1 47:1 52:1 56:1 60:1 63:1 67:1 71:1 75:1 80:1 81:1 97:1 115:1 138:1 152:1 173:1 180:1 207:1 220:1 239:1 251:1 268:1 288:1 304:1 319:1 331:1 347:1 363:1 380:1 385:1 451:1 522:1 616:1 669:1 756:1 783:1 892:1 943:1 1019:1 1068:1 1136:1 1216:1 1279:1 1339:1 1387:1 1451:1 1516:1 
-0.5 1:1 5:1 9:1 15:1 18:1 24:1 28:1 32:1 35:1 40:1 43:1 47:1 52:1 56:1 60:1 62:1 67:1 71:1 76:1 79:1 81:1 97:1 115:1 138:1 152:1 176:1 192:1 207:1 220:1 239:1 251:1 268:1 288:1 304:1 318:1 327:1 347:1 364:1 383:1 385:1 451:1 522:1 616:1 672:1 768:1 831:1 892:1 943:1 1019:1 1068:1 1136:1 1216:1 1278:1 1335:1 1371:1 1452:1 1519:1 
-0.5 1:1 5:1 9:1 15:1 19:1 21:1 28:1 32:1 35:1 40:1 43:1 47:1 52:1 56:1 59:1 61:1 67:1 72:1 76:1 78:1 81:1 97:1 115:1 139:1 153:1 164:1 192:1 207:1 220:1 239:1 251:1 268:1 288:1 303:1 313:1 323:1 348:1 368:1 382:1 385:1 451:1 523:1 617:1 676:1 720:1 831:1 892:1 943:1 1019:1 1068:1 1136:1 1215:1 1273:1 1315:1 1356:1 1456:1 1534:1 
-0.5 1:1 5:1 9:1 15:1 19:1 22:1 28:1 32:1 35:1 40:1 43:1 47:1 52:1 53:1 57:1 63:1 67:1 70:1 74:1 80:1 81:1 97:1 115:1 139:1 154:1 168:1 192:1 207:1 220:1 239:1 251:1 268:1 285:1 289:1 307:1 331:1 346:1 358:1 376:1 385:1 451:1 523:1 618:1 680:1 736:1 831:1 892:1 943:1 1019:1 1068:1 1133:1 1201:1 1219:1 1291:1 1386:1 1446:1 1496:1 
0.5 1:1 5:1 9:1 15:1 19:1 22:1 28:1 32:1 35:1 40:1 43:1 47:1 52:1 56:1 57:1 63:1 68:1 71:1 76:1 77:1 81:1 97:1 115:1 139:1 154:1 168:1 192:1 207:1 220:1 239:1 251:1 268:1 288:1 301:1 307:1 332:1 351:1 364:1 381:1 385:1 451:1 523:1 618:1 680:1 736:1 831:1 892:1 943:1 1019:1 1068:1 1136:1 1213:1 1267:1 1292:1 1391:1 1468:1 1517:1 
-0.5 1:1 5:1 9:1 15:1 19:1 23:1 26:1 32:1 35:1 40:1 43:1 47:1 52:1 53:1 60:1 63:1 68:1 71:1 76:1 79:1 81:1 97:1 115:1 139:1 155:1 170:1 184:1 207:1 220:1 239:1 251:1 268:1 285:1 292:1 319:1 332:1 351:1 364:1 383:1 385:1 451:1 523:1 619:1 682:1 744:1 799:1 892:1 943:1 1019:1 1068:1 1133:1 1204:1 1231:1 1340:1 1391:1 1468:1 1519:1 
-0.42125216152457517 1:1 5:1 9:1 15:1 19:1 23:1 26:1 32:1 35:1 40:1 43:1 47:1 52:1 54:1 58:1 61:1 65:1 70:1 75:1 79:1 81:1 97:1 115:1 139:1 155:1 170:1 184:1 207:1 220:1 239:1 251:1 268:1 286:1 294:1 309:1 321:1 338:1 359:1 379:1 385:1 451:1 523:1 619:1 682:1 744:1 799:1 892:1 943:1 1019:1 1068:1 1134:1 1206:1 1237:1 1297:1 1346:1 1415:1 1499:1 
-0.5 1:1 5:1 9:1 15:1 19:1 23:1 28:1 32:1 35:1 40:1 43:1 47:1 52:1 56:1 57:1 64:1 65:1 69:1 73:1 80:1 81:1 97:1 115:1 139:1 155:1 172:1 192:1 207:1 220:1 239:1 251:1 268:1 288:1 301:1 308:1 333:1 337:1 353:1 372:1 385:1 451:1 523:1 619:1 684:1 752:1 831:1 892:1 943:1 1019:1 1068:1 1136:1 1213:1 1268:1 1293:1 1393:1 1409:1 1476:1 
0.5 1:1 5:1 9:1 15:1 19:1 24:1 28:1 31:1 35:1 40:1 43:1 47:1 52:1 56:1 60:1 63:1 68:1 71:1 75:1 78:1 81:1 97:1 115:1 139:1 156:1 176:1 191:1 203:1 220:1 239:1 251:1 268:1 288:1 304:1 319:1 332:1 351:1 363:1 378:1 385:1 451:1 523:1 620:1 688:1 767:1 827:1 876:1 943:1 1019:1 1068:1 1136:1 1216:1 1279:1 1340:1 1391:1 1467:1 1514:1 
-0.5 1:1 5:1 9:1 15:1 20:1 21:1 28:1 32:1 35:1 40:1 43:1 47:1 52:1 54:1 59:1 63:1 66:1 69:1 74:1 77:1 81:1 97:1 115:1 140:1 157:1 164:1 192:1 207:1 220:1 239:1 251:1 268:1 286:1 295:1 315:1 330:1 341:1 354:1 373:1 385:1 451:1 524:1 621:1 692:1 720:1 831:1 892:1 943:1 1019:1 1068:1 1134:1 1207:1 1243:1 1322:1 1381:1 1426:1 1477:1 
-0.5 1:1 5:1 9:1 15:1 20:1 21:1 28:1 32:1 35:1 40:1 43:1 47:1 52:1 56:1 60:1 64:1 65:1 70:1 76:1 79:1 81:1 97:1 115:1 140:1 157:1 164:1 192:1 207:1 220:1 239:1 251:1 268:1 288:1 304:1 320:1 333:1 338:1 360:1 383:1 385:1 451:1 524:1 621:1 692:1 720:1 831:1 892:1 943:1 1019:1 1068:1 1136:1 1216:1 1280:1 1341:1 1394:1 1416:1 1503:1 
-0.5 1:1 5:1 9:1 15:1 20:1 22:1 25:1 32:1 35:1 40:1 43:1 47:1 52:1 53:1 57:1 61:1 67:1 69:1 73:1 77:1 81:1 97:1 115:1 140:1 158:1 165:1 180:1 207:1 220:1 239:1 251:1 268:1 285:1 289:1 305:1 323:1 345:1 353:1 369:1 385:1 451:1 524:1 622:1 693:1 724:1 783:1 892:1 943:1 1019:1 1068:1 1133:1 1201:1 1217:1 1283:1 1353:1 1441:1 1473:1 
0.5 1:1 5:1 9:1 15:1 20:1 22:1 26:1 32:1 35:1 40:1 43:1 47:1 52:1 53:1 57:1 61:1 66:1 72:1 75:1 77:1 81:1 97:1 115:1 140:1 158:1 166:1 184:1 207:1 220:1 239:1 251:1 268:1 285:1 289:1 305:1 322:1 344:1 367:1 377:1 385:1 451:1 524:1 622:1 694:1 728:1 799:1 892:1 943:1 1019:1 1068:1 1133:1 1201:1 1217:1 1282:1 1352:1 1439:1 1529:1 
0.5 1:1 5:1 9:1 15:1 20:1 23:1 25:1 32:1 35:1 40:1 43:1 47:1 52:1 56:1 60:1 62:1 66:1 72:1 76:1 80:1 81:1 97:1 115:1 140:1 159:1 169:1 180:1 207:1 220:1 239:1 251:1 268:1 288:1 304:1 318:1 326:1 344:1 368:1 384:1 385:1 451:1 524:1 623:1 697:1 740:1 783:1 892:1 943:1 1019:1 1068:1 1136:1 1216:1 1278:1 1334:1 1368:1 1440:1 1536:1 
-0.5 1:1 5:1 9:1 15:1 20:1 24:1 28:1 32:1 35:1 40:1 43:1 47:1 52:1 56:1 60:1 62:1 66:1 70:1 76:1 77:1 81:1 97:1 115:1 140:1 160:1 176:1 192:1 207:1 220:1 239:1 251:1 268:1 288:1 304:1 318:1 326:1 342:1 360:1 381:1 385:1 451:1 524:1 624:1 704:1 768:1 831:1 892:1 943:1 1019:1 1068:1 1136:1 1216:1 1278:1 1334:1 1366:1 1432:1 1501:1 
-0.5 1:1 5:1 9:1 16:1 17:1 21:1 25:1 32:1 35:1 40:1 43:1 47:1 52:1 54:1 57:1 62:1 66:1 70:1 73:1 77:1 81:1 97:1 116:1 141:1 145:1 161:1 180:1 207:1 220:1 239:1 251:1 268:1 286:1 293:1 306:1 326:1 342:1 357:1 369:1 385:1 452:1 525:1 625:1 641:1 708:1 783:1 892:1 943:1 1019:1 1068:1 1134:1 1205:1 1234:1 1286:1 1366:1 1429:1 1489:1 
-0.5 1:1 5:1 9:1 16:1 17:1 21:1 25:1 32:1 35:1 40:1 43:1 47:1 52:1 56:1 60:1 64:1 67:1 70:1 73:1 80:1 81:1 97:1 116:1 141:1 145:1 161:1 180:1 207:1 220:1 239:1 251:1 268:1 288:1 304:1 320:1 335:1 346:1 357:1 372:1 385:1 452:1 525:1 625:1 641:1 708:1 783:1 892:1 943:1 1019:1 1068:1 1136:1 1216:1 1280:1 1343:1 1402:1 1445:1 1492:1 
-0.5 1:1 5:1 9:1 16:1 17:1 21:1 28:1 32:1 35:1 40:1 43:1 47:1 52:1 53:1 60:1 63:1 65:1 69:1 74:1 77:1 81:1 97:1 116:1 141:1 145:1 164:1 192:1 207:1 220:1 239:1 251:1 268:1 285:1 292:1 319:1 329:1 337:1 354:1 373:1 385:1 452:1 525:1 625:1 644:1 720:1 831:1 892:1 943:1 1019:1 1068:1 1133:1 1204:1 1231:1 1337:1 1377:1 1410:1 1477:1 
0.5 1:1 5:1 9:1 16:1 17:1 22:1 25:1 32:1 35:1 40:1 43:1 47:1 52:1 56:1 59:1 61:1 65:1 69:1 76:1 80:1 81:1 97:1 116:1 141:1 146:1 165:1 180:1 207:1 220:1 239:1 251:1 268:1 288:1 303:1 313:1 321:1 337:1 356:1 384:1 385:1 452:1 525:1 626:1 645:1 724:1 783:1 892:1 943:1 1019:1 1068:1 1136:1 1215:1 1273:1 1313:1 1345:1 1412:1 1488:1 
0.5 1:1 5:1 9:1 16:1 17:1 22:1 25:1 32:1 35:1 40:1 43:1 47:1 52:1 56:1 60:1 64:1 65:1 69:1 75:1 78:1 81:1 97:1 116:1 141:1 146:1 165:1 180:1 207:1 220:1 239:1 251:1 268:1 288:1 304:1 320:1 333:1 337:1 355:1 378:1 385:1 452:1 525:1 626:1 645:1 724:1 783:1 892:1 943:1 1019:1 1068:1 1136:1 1216:1 1280:1 1341:1 1393:1 1411:1 1482:1 
0.5 1:1 5:1 9:1 16:1 17:1 22:1 26:1 32:1 35:1 40:1 43:1 47:1 52:1 56:1 57:1 61:1 66:1 72:1 75:1 77:1 81:1 97:1 116:1 141:1 146:1 166:1 184:1 207:1 220:1 239:1 251:1 268:1 288:1 301:1 305:1 322:1 344:1 367:1 377:1 385:1 452:1 525:1 626:1 646:1 728:1 799:1 892:1 943:1 1019:1 1068:1 1136:1 1213:1 1265:1 1282:1 1352:1 1439:1 1529:1 
-0.5 1:1 5:1 9:1 16:1 17:1 22:1 26:1 32:1 35:1 40:1 43:1 47:1 52:1 56:1 60:1 63:1 68:1 69:1 76:1 80:1 81:1 97:1 116:1 141:1 146:1 166:1 184:1 207:1 220:1 239:1 251:1 268:1 288:1 304:1 319:1 332:1 349:1 356:1 384:1 385:1 452:1 525:1 626:1 646:1 728:1 799:1 892:1 943:1 1019:1 1068:1 1136:1 1216:1 1279:1 1340:1 1389:1 1460:1 1488:1 
-0.5 1:1 5:1 9:1 16:1 17:1 23:1 25:1 32:1 35:1 40:1 43:1 47:1 52:1 55:1 57:1 61:1 66:1 70:1 73:1 79:1 81:1 97:1 116:1 141:1 147:1 169:1 180:1 207:1 220:1 239:1 251:1 268:1 287:1 297:1 305:1 322:1 342:1 357:1 371:1 385:1 452:1 525:1 627:1 649:1 740:1 783:1 892:1 943:1 1019:1 1068:1 1135:1 1209:1 1249:1 1282:1 1350:1 1429:1 1491:1 
-0.43306340187725112 1:1 5:1 9:1 16:1 17:1 23:1 26:1 32:1 35:1 40:1 43:1 47:1 52:1 53:1 57:1 61:1 67:1 69:1 74:1 80:1 81:1 97:1 116:1 141:1 147:1 170:1 184:1 207:1 220:1 239:1 251:1 268:1 285:1 289:1 305:1 323:1 345:1 354:1 376:1 385:1 452:1 525:1 627:1 650:1 744:1 799:1 892:1 943:1 1019:1 1068:1 1133:1 1201:1 1217:1 1283:1 1353:1 1442:1 1480:1 
0.020159965437399813 1:1 5:1 9:1 16:1 17:1 23:1 28:1 32:1 35:1 40:1 43:1 47:1 52:1 53:1 58:1 61:1 68:1 72:1 74:1 80:1 81:1 97:1 116:1 141:1 147:1 172:1 192:1 207:1 220:1 239:1 251:1 268:1 285:1 290:1 309:1 324:1 352:1 366:1 376:1 385:1 452:1 525:1 627:1 652:1 752:1 831:1 892:1 943:1 1019:1 1068:1 1133:1 1202:1 1221:1 1300:1 1360:1 1470:1 1528:1 
0.5 1:1 5:1 9:1 16:1 17:1 23:1 28:1 32:1 35:1 40:1 43:1 47:1 52:1 56:1 57:1 61:1 65:1 71:1 73:1 80:1 81:1 97:1 116:1 141:1 147:1 172:1 192:1 207:1 220:1 239:1 251:1 268:1 288:1 301:1 305:1 321:1 339:1 361:1 372:1 385:1 452:1 525:1 627:1 652:1 752:1 831:1 892:1 943:1 1019:1 1068:1 1136:1 1213:1 1265:1 1281:1 1347:1 1417:1 1508:1 
0.5 1:1 5:1 9:1 16:1 17:1 24:1 25:1 29:1 35:1 40:1 43:1 47:1 52:1 56:1 60:1 61:1 65:1 70:1 74:1 80:1 81:1 97:1 116:1 141:1 148:1 173:1 177:1 195:1 220:1 239:1 251:1 268:1 288:1 304:1 317:1 321:1 338:1 358:1 376:1 385:1 452:1 525:1 628:1 653:1 753:1 771:1 844:1 943:1 1019:1 1068:1 1136:1 1216:1 1277:1 1329:1 1346:1 1414:1 1496:1 
0.5 1:1 5:1 9:1 16:1 17:1 24:1 27:1 32:1 35:1 40:1 43:1 47:1 52:1 53:1 59:1 63:1 65:1 71:1 76:1 80:1 81:1 97:1 116:1 141:1 148:1 175:1 188:1 207:1 220:1 239:1 251:1 268:1 285:1 291:1 315:1 329:1 339:1 364:1 384:1 385:1 452:1 525:1 628:1 655:1 764:1 815:1 892:1 943:1 1019:1 1068:1 1133:1 1203:1 1227:1 1321:1 1379:1 1420:1 1520:1 
0.45740235119364842 1:1 5:1 9:1 16:1 17:1 24:1 28:1 32:1 35:1 40:1 43:1 47:1 52:1 56:1 60:1 61:1 68:1 72:1 75:1 78:1 81:1 97:1 116:1 141:1 148:1 176:1 192:1 207:1 220:1 239:1 251:1 268:1 288:1 304:1 317:1 324:1 352:1 367:1 378:1 385:1 452:1 525:1 628:1 656:1 768:1 831:1 892:1 943:1 1019:1 1068:1 1136:1 1216:1 1277:1 1332:1 1360:1 1471:1 1530:1 
-0.5 1:1 5:1 9:1 16:1 17:1 24:1 28:1 32:1 35:1 40:1 43:1 47:1 52:1 56:1 60:1 63:1 68:1 69:1 75:1 80:1 81:1 97:1 116:1 141:1 148:1 176:1 192:1 207:1 220:1 239:1 251:1 268:1 288:1 304:1 319:1 332:1 349:1 355:1 380:1 385:1 452:1 525:1 628:1 656:1 768:1 831:1 892:1 943:1 1019:1 1068:1 1136:1 1216:1 1279:1 1340:1 1389:1 1459:1 1484:1 
0.5 1:1 5:1 9:1 16:1 18:1 21:1 25:1 32:1 35:1 40:1 43:1 47:1 52:1 56:1 60:1 64:1 66:1 69:1 76:1 78:1 81:1 97:1 116:1 142:1 149:1 161:1 180:1 207:1 220:1 239:1 251:1 268:1 288:1 304:1 320:1 334:1 341:1 356:1 382:1 385:1 452:1 526:1 629:1 657:1 708:1 783:1 892:1 943:1 1019:1 1068:1 1136:1 1216:1 1280:1 1342:1 1397:1 1428:1 1486:1 
-0.5 1:1 5:1 9:1 16:1 18:1 21:1 27:1 32:1 35:1 40:1 43:1 47:1 52:1 53:1 60:1 62:1 65:1 70:1 73:1 79:1 81:1 97:1 116:1 142:1 149:1 163:1 188:1 207:1 220:1 239:1 251:1 268:1 285:1 292:1 318:1 325:1 338:1 357:1 371:1 385:1 452:1 526:1 629:1 659:1 716:1 815:1 892:1 943:1 1019:1 1068:1 1133:1 1204:1 1230:1 1333:1 1362:1 1413:1 1491:1 
0.46046160849258727 1:1 5:1 9:1 16:1 18:1 24:1 26:1 32:1 35:1 40:1 43:1 47:1 52:1 55:1 57:1 61:1 65:1 69:1 74:1 77:1 81:1 97:1 116:1 142:1 152:1 174:1 184:1 207:1 220:1 239:1 251:1 268:1 287:1 297:1 305:1 321:1 337:1 354:1 373:1 385:1 452:1 526:1 632:1 670:1 760:1 799:1 892:1 943:1 1019:1 1068:1 1135:1 1209:1 1249:1 1281:1 1345:1 1410:1 1477:1 
0.5 1:1 5:1 9:1 16:1 18:1 24:1 27:1 32:1 35:1 40:1 43:1 47:1 52:1 56:1 60:1 64:1 65:1 69:1 75:1 80:1 81:1 97:1 116:1 142:1 152:1 175:1 188:1 207:1 220:1 239:1 251:1 268:1 288:1 304:1 320:1 333:1 337:1 355:1 380:1 385:1 452:1 526:1 632:1 671:1 764:1 815:1 892:1 943:1 1019:1 1068:1 1136:1 1216:1 1280:1 1341:1 1393:1 1411:1 1484:1 
-0.5 1:1 5:1 9:1 16:1 18:1 24:1 28:1 31:1 35:1 40:1 43:1 47:1 52:1 54:1 60:1 64:1 66:1 72:1 76:1 79:1 81:1 97:1 116:1 142:1 152:1 176:1 191:1 203:1 220:1 239:1 251:1 268:1 286:1 296:1 320:1 334:1 344:1 368:1 383:1 385:1 452:1 526:1 632:1 672:1 767:1 827:1 876:1 943:1 1019:1 1068:1 1134:1 1208:1 1248:1 1342:1 1400:1 1440:1 1535:1 
0.5 1:1 5:1 9:1 16:1 18:1 24:1 28:1 32:1 35:1 40:1 43:1 47:1 52:1 54:1 60:1 61:1 66:1 69:1 75:1 78:1 81:1 97:1 116:1 142:1 152:1 176:1 192:1 207:1 220:1 239:1 251:1 268:1 286:1 296:1 317:1 322:1 341:1 355:1 378:1 385:1 452:1 526:1 632:1 672:1 768:1 831:1 892:1 943:1 1019:1 1068:1 1134:1 1208:1 1245:1 1330:1 1349:1 1427:1 1482:1 
0.5 1:1 5:1 9:1 16:1 18:1 24:1 28:1 32:1 35:1 40:1 43:1 47:1 52:1 56:1 60:1 62:1 65:1 71:1 73:1 80:1 81:1 97:1 116:1 142:1 152:1 176:1 192:1 207:1 220:1 239:1 251:1 268:1 288:1 304:1 318:1 325:1 339:1 361:1 372:1 385:1 452:1 526:1 632:1 672:1 768:1 831:1 892:1 943:1 1019:1 1068:1 1136:1 1216:1 1278:1 1333:1 1363:1 1417:1 1508:1 
0.38249524885487451 1:1 5:1 9:1 16:1 19:1 21:1 26:1 32:1 35:1 40:1 43:1 47:1 52:1 54:1 57:1 63:1 67:1 71:1 74:1 80:1 81:1 97:1 116:1 143:1 153:1 162:1 184:1 207:1 220:1 239:1 251:1 268:1 286:1 293:1 307:1 331:1 347:1 362:1 376:1 385:1 452:1 527:1 633:1 674:1 712:1 799:1 892:1 943:1 1019:1 1068:1 1134:1 1205:1 1235:1 1291:1 1387:1 1450:1 1512:1 
0.5 1:1 5:1 9:1 16:1 19:1 21:1 27:1 32:1 35:1 40:1 43:1 47:1 52:1 53:1 57:1 63:1 65:1 69:1 73:1 77:1 81:1 97:1 116:1 143:1 153:1 163:1 188:1 207:1 220:1 239:1 251:1 268:1 285:1 289:1 307:1 329:1 337:1 353:1 369:1 385:1 452:1 527:1 633:1 675:1 716:1 815:1 892:1 943:1 1019:1 1068:1 1133:1 1201:1 1219:1 1289:1 1377:1 1409:1 1473:1 
0.5 1:1 5:1 9:1 16:1 19:1 21:1 27:1 32:1 35:1 40:1 43:1 47:1 52:1 56:1 60:1 64:1 67:1 69:1 75:1 79:1 81:1 97:1 116:1 143:1 153:1 163:1 188:1 207:1 220:1 239:1 251:1 268:1 288:1 304:1 320:1 335:1 345:1 355:1 379:1 385:1 452:1 527:1 633:1 675:1 716:1 815:1 892:1 943:1 1019:1 1068:1 1136:1 1216:1 1280:1 1343:1 1401:1 1443:1 1483:1 
-0.5 1:1 5:1 9:1 16:1 19:1 22:1 26:1 29:1 35:1 40:1 43:1 47:1 52:1 56:1 57:1 64:1 67:1 72:1 75:1 80:1 81:1 97:1 116:1 143:1 154:1 166:1 181:1 195:1 220:1 239:1 251:1 268:1 288:1 301:1 308:1 335:1 348:1 367:1 380:1 385:1 452:1 527:1 634:1 678:1 725:1 787:1 844:1 943:1 1019:1 1068:1 1136:1 1213:1 1268:1 1295:1 1404:1 1455:1 1532:1 
-0.5 1:1 5:1 9:1 16:1 19:1 22:1 26:1 32:1 35:1 40:1 43:1 47:1 52:1 53:1 57:1 64:1 65:1 71:1 73:1 77:1 81:1 97:1 116:1 143:1 154:1 166:1 184:1 207:1 220:1 239:1 251:1 268:1 285:1 289:1 308:1 333:1 339:1 361:1 369:1 385:1 452:1 527:1 634:1 678:1 728:1 799:1 892:1 943:1 1019:1 1068:1 1133:1 1201:1 1220:1 1293:1 1395:1 1417:1 1505:1 
0.5 1:1 5:1 9:1 16:1 19:1 22:1 26:1 32:1 35:1 40:1 43:1 47:1 52:1 54:1 60:1 61:1 65:1 72:1 73:1 80:1 81:1 97:1 116:1 143:1 154:1 166:1 184:1 207:1 220:1 239:1 251:1 268:1 286:1 296:1 317:1 321:1 340:1 365:1 372:1 385:1 452:1 527:1 634:1 678:1 728:1 799:1 892:1 943:1 1019:1 1068:1 1134:1 1208:1 1245:1 1329:1 1348:1 1421:1 1524:1 
0.5 1:1 5:1 9:1 16:1 19:1 22:1 27:1 32:1 35:1 40:1 43:1 47:1 52:1 54:1 57:1 63:1 68:1 71:1 76:1 80:1 81:1 97:1 116:1 143:1 154:1 167:1 188:1 207:1 220:1 239:1 251:1 268:1 286:1 293:1 307:1 332:1 351:1 364:1 384:1 385:1 452:1 527:1 634:1 679:1 732:1 815:1 892:1 943:1 1019:1 1068:1 1134:1 1205:1 1235:1 1292:1 1391:1 1468:1 1520:1 
-0.5 1:1 5:1 9:1 16:1 19:1 22:1 28:1 32:1 35:1 40:1 43:1 47:1 52:1 53:1 57:1 63:1 66:1 72:1 73:1 77:1 81:1 97:1 116:1 143:1 154:1 168:1 192:1 207:1 220:1 239:1 251:1 268:1 285:1 289:1 307:1 330:1 344:1 365:1 369:1 385:1 452:1 527:1 634:1 680:1 736:1 831:1 892:1 943:1 1019:1 1068:1 1133:1 1201:1 1219:1 1290:1 1384:1 1437:1 1521:1 
0.38490624058329331 1:1 5:1 9:1 16:1 19:1 22:1 28:1 32:1 35:1 40:1 43:1 47:1 52:1 56:1 59:1 62:1 68:1 69:1 73:1 78:1 81:1 97:1 116:1 143:1 154:1 168:1 192:1 207:1 220:1 239:1 251:1 268:1 288:1 303:1 314:1 328:1 349:1 353:1 370:1 385:1 452:1 527:1 634:1 680:1 736:1 831:1 892:1 943:1 1019:1 1068:1 1136:1 1215:1 1274:1 1320:1 1373:1 1457:1 1474:1 
-0.5 1:1 5:1 9:1 16:1 19:1 23:1 25:1 32:1 35:1 40:1 43:1 47:1 52:1 54:1 58:1 62:1 68:1 71:1 75:1 77:1 81:1 97:1 116:1 143:1 155:1 169:1 180:1 207:1 220:1 239:1 251:1 268:1 286:1 294:1 310:1 328:1 351:1 363:1 377:1 385:1 452:1 527:1 635:1 681:1 740:1 783:1 892:1 943:1 1019:1 1068:1 1134:1 1206:1 1238:1 1304:1 1375:1 1467:1 1513:1 
0.5 1:1 5:1 9:1 16:1 19:1 23:1 26:1 32:1 35:1 40:1 43:1 47:1 52:1 53:1 60:1 62:1 66:1 72:1 75:1 77:1 81:1 97:1 116:1 143:1 155:1 170:1 184:1 207:1 220:1 239:1 251:1 268:1 285:1 292:1 318:1 326:1 344:1 367:1 377:1 385:1 452:1 527:1 635:1 682:1 744:1 799:1 892:1 943:1 1019:1 1068:1 1133:1 1204:1 1230:1 1334:1 1368:1 1439:1 1529:1 
-0.5 1:1 5:1 9:1 16:1 19:1 23:1 26:1 32:1 35:1 40:1 43:1 47:1 52:1 56:1 60:1 64:1 66:1 70:1 74:1 80:1 81:1 97:1 116:1 143:1 155:1 170:1 184:1 207:1 220:1 239:1 251:1 268:1 288:1 304:1 320:1 334:1 342:1 358:1 376:1 385:1 452:1 527:1 635:1 682:1 744:1 799:1 892:1 943:1 1019:1 1068:1 1136:1 1216:1 1280:1 1342:1 1398:1 1430:1 1496:1 
0.28500410147325506 1:1 5:1 9:1 16:1 19:1 23:1 28:1 32:1 35:1 40:1 43:1 47:1 52:1 56:1 60:1 62:1 68:1 71:1 76:1 80:1 81:1 97:1 116:1 143:1 155:1 172:1 192:1 207:1 220:1 239:1 251:1 268:1 288:1 304:1 318:1 328:1 351:1 364:1 384:1 385:1 452:1 527:1 635:1 684:1 752:1 831:1 892:1 943:1 1019:1 1068:1 1136:1 1216:1 1278:1 1336:1 1375:1 1468:1 1520:1 
0.12284879879159638 1:1 5:1 9:1 16:1 19:1 24:1 26:1 29:1 35:1 40:1 43:1 47:1 52:1 56:1 60:1 63:1 66:1 72:1 74:1 77:1 81:1 97:1 116:1 143:1 156:1 174:1 181:1 195:1 220:1 239:1 251:1 268:1 288:1 304:1 319:1 330:1 344:1 366:1 373:1 385:1 452:1 527:1 636:1 686:1 757:1 787:1 844:1 943:1 1019:1 1068:1 1136:1 1216:1 1279:1 1338:1 1384:1 1438:1 1525:1 
-0.5 1:1 5:1 9:1 16:1 19:1 24:1 26:1 32:1 35:1 40:1 43:1 47:1 52:1 56:1 60:1 64:1 68:1 69:1 76:1 79:1 81:1 97:1 116:1 143:1 156:1 174:1 184:1 207:1 220:1 239:1 251:1 268:1 288:1 304:1 320:1 336:1 349:1 356:1 383:1 385:1 452:1 527:1 636:1 686:1 760:1 799:1 892:1 943:1 1019:1 1068:1 1136:1 1216:1 1280:1 1344:1 1405:1 1460:1 1487:1 
-0.30660722659622852 1:1 5:1 9:1 16:1 19:1 24:1 27:1 32:1 35:1 40:1 43:1 47:1 52:1 56:1 60:1 62:1 65:1 71:1 73:1 77:1 81:1 97:1 116:1 143:1 156:1 175:1 188:1 207:1 220:1 239:1 251:1 268:1 288:1 304:1 318:1 325:1 339:1 361:1 369:1 385:1 452:1 527:1 636:1 687:1 764:1 815:1 892:1 943:1 1019:1 1068:1 1136:1 1216:1 1278:1 1333:1 1363:1 1417:1 1505:1 
0.5 1:1 5:1 9:1 16:1 19:1 24:1 28:1 31:1 35:1 40:1 43:1 47:1 52:1 53:1 58:1 62:1 65:1 71:1 73:1 79:1 81:1 97:1 116:1 143:1 156:1 176:1 191:1 203:1 220:1 239:1 251:1 268:1 285:1 290:1 310:1 325:1 339:1 361:1 371:1 385:1 452:1 527:1 636:1 688:1 767:1 827:1 876:1 943:1 1019:1 1068:1 1133:1 1202:1 1222:1 1301:1 1363:1 1417:1 1507:1 
0.0960240432412722 1:1 5:1 9:1 16:1 19:1 24:1 28:1 32:1 35:1 40:1 43:1 47:1 52:1 56:1 58:1 64:1 66:1 72:1 75:1 78:1 81:1 97:1 116:1 143:1 156:1 176:1 192:1 207:1 220:1 239:1 251:1 268:1 288:1 302:1 312:1 334:1 344:1 367:1 378:1 385:1 452:1 527:1 636:1 688:1 768:1 831:1 892:1 943:1 1019:1 1068:1 1136:1 1214:1 1272:1 1310:1 1400:1 1439:1 1530:1 
-0.5 1:1 5:1 9:1 16:1 19:1 24:1 28:1 32:1 35:1 40:1 43:1 47:1 52:1 56:1 60:1 63:1 67:1 69:1 76:1 78:1 81:1 97:1 116:1 143:1 156:1 176:1 192:1 207:1 220:1 239:1 251:1 268:1 288:1 304:1 319:1 331:1 345:1 356:1 382:1 385:1 452:1 527:1 636:1 688:1 768:1 831:1 892:1 943:1 1019:1 1068:1 1136:1 1216:1 1279:1 1339:1 1385:1 1444:1 1486:1 
-0.5 1:1 5:1 9:1 16:1 20:1 21:1 27:1 32:1 35:1 40:1 43:1 47:1 52:1 56:1 60:1 63:1 68:1 71:1 73:1 77:1 81:1 97:1 116:1 144:1 157:1 163:1 188:1 207:1 220:1 239:1 251:1 268:1 288:1 304:1 319:1 332:1 351:1 361:1 369:1 385:1 452:1 528:1 637:1 691:1 716:1 815:1 892:1 943:1 1019:1 1068:1 1136:1 1216:1 1279:1 1340:1 1391:1 1465:1 1505:1 
0.5 1:1 5:1 9:1 16:1 20:1 22:1 26:1 32:1 35:1 40:1 43:1 47:1 52:1 53:1 59:1 62:1 65:1 71:1 74:1 80:1 81:1 97:1 116:1 144:1 158:1 166:1 184:1 207:1 220:1 239:1 251:1 268:1 285:1 291:1 314:1 325:1 339:1 362:1 376:1 385:1 452:1 528:1 638:1 694:1 728:1 799:1 892:1 943:1 1019:1 1068:1 1133:1 1203:1 1226:1 1317:1 1363:1 1418:1 1512:1 
0.5 1:1 5:1 9:1 16:1 20:1 22:1 26:1 32:1 35:1 40:1 43:1 47:1 52:1 54:1 57:1 62:1 68:1 72:1 76:1 80:1 81:1 97:1 116:1 144:1 158:1 166:1 184:1 207:1 220:1 239:1 251:1 268:1 286:1 293:1 306:1 328:1 352:1 368:1 384:1 385:1 452:1 528:1 638:1 694:1 728:1 799:1 892:1 943:1 1019:1 1068:1 1134:1 1205:1 1234:1 1288:1 1376:1 1472:1 1536:1 
0.5 1:1 5:1 9:1 16:1 20:1 22:1 26:1 32:1 35:1 40:1 43:1 47:1 52:1 56:1 60:1 62:1 68:1 70:1 76:1 79:1 81:1 97:1 116:1 144:1 158:1 166:1 184:1 207:1 220:1 239:1 251:1 268:1 288:1 304:1 318:1 328:1 350:1 360:1 383:1 385:1 452:1 528:1 638:1 694:1 728:1 799:1 892:1 943:1 1019:1 1068:1 1136:1 1216:1 1278:1 1336:1 1374:1 1464:1 1503:1 
-0.5 1:1 5:1 9:1 16:1 20:1 23:1 26:1 32:1 35:1 40:1 43:1 47:1 52:1 56:1 57:1 61:1 65:1 71:1 73:1 77:1 81:1 97:1 116:1 144:1 159:1 170:1 184:1 207:1 220:1 239:1 251:1 268:1 288:1 301:1 305:1 321:1 339:1 361:1 369:1 385:1 452:1 528:1 639:1 698:1 744:1 799:1 892:1 943:1 1019:1 1068:1 1136:1 1213:1 1265:1 1281:1 1347:1 1417:1 1505:1 
0.5 1:1 5:1 9:1 16:1 20:1 23:1 28:1 32:1 35:1 40:1 43:1 47:1 52:1 56:1 57:1 61:1 65:1 70:1 76:1 79:1 81:1 97:1 116:1 144:1 159:1 172:1 192:1 207:1 220:1 239:1 251:1 268:1 288:1 301:1 305:1 321:1 338:1 360:1 383:1 385:1 452:1 528:1 639:1 700:1 752:1 831:1 892:1 943:1 1019:1 1068:1 1136:1 1213:1 1265:1 1281:1 1346:1 1416:1 1503:1 
0.5 1:1 5:1 9:1 16:1 20:1 24:1 25:1 32:1 35:1 40:1 43:1 47:1 52:1 53:1 57:1 64:1 65:1 69:1 76:1 80:1 81:1 97:1 116:1 144:1 160:1 173:1 180:1 207:1 220:1 239:1 251:1 268:1 285:1 289:1 308:1 333:1 337:1 356:1 384:1 385:1 452:1 528:1 640:1 701:1 756:1 783:1 892:1 943:1 1019:1 1068:1 1133:1 1201:1 1220:1 1293:1 1393:1 1412:1 1488:1 
0.5 1:1 5:1 9:1 16:1 20:1 24:1 26:1 32:1 35:1 40:1 43:1 47:1 52:1 56:1 57:1 62:1 68:1 72:1 76:1 80:1 81:1 97:1 116:1 144:1 160:1 174:1 184:1 207:1 220:1 239:1 251:1 268:1 288:1 301:1 306:1 328:1 352:1 368:1 384:1 385:1 452:1 528:1 640:1 702:1 760:1 799:1 892:1 943:1 1019:1 1068:1 1136:1 1213:1 1266:1 1288:1 1376:1 1472:1 1536:1 
0.5 1:1 5:1 9:1 16:1 20:1 24:1 26:1 32:1 35:1 40:1 43:1 47:1 52:1 56:1 58:1 61:1 65:1 71:1 74:1 78:1 81:1 97:1 116:1 144:1 160:1 174:1 184:1 207:1 220:1 239:1 251:1 268:1 288:1 302:1 309:1 321:1 339:1 362:1 374:1 385:1 452:1 528:1 640:1 702:1 760:1 799:1 892:1 943:1 1019:1 1068:1 1136:1 1214:1 1269:1 1297:1 1347:1 1418:1 1510:1 
0.5 1:1 5:1 9:1 16:1 20:1 24:1 28:1 32:1 35:1 40:1 43:1 47:1 52:1 54:1 60:1 64:1 66:1 72:1 73:1 80:1 81:1 97:1 116:1 144:1 160:1 176:1 192:1 207:1 220:1 239:1 251:1 268:1 286:1 296:1 320:1 334:1 344:1 365:1 372:1 385:1 452:1 528:1 640:1 704:1 768:1 831:1 892:1 943:1 1019:1 1068:1 1134:1 1208:1 1248:1 1342:1 1400:1 1437:1 1524:1 
-0.5 1:1 5:1 9:1 16:1 20:1 24:1 28:1 32:1 35:1 40:1 43:1 47:1 52:1 54:1 60:1 64:1 68:1 70:1 73:1 80:1 81:1 97:1 116:1 144:1 160:1 176:1 192:1 207:1 220:1 239:1 251:1 268:1 286:1 296:1 320:1 336:1 350:1 357:1 372:1 385:1 452:1 528:1 640:1 704:1 768:1 831:1 892:1 943:1 1019:1 1068:1 1134:1 1208:1 1248:1 1344:1 1406:1 1461:1 1492:1 
0.5 1:1 5:1 9:1 16:1 20:1 24:1 28:1 32:1 35:1 40:1 43:1 47:1 52:1 55:1 57:1 61:1 65:1 72:1 73:1 78:1 81:1 97:1 116:1 144:1 160:1 176:1 192:1 207:1 220:1 239:1 251:1 268:1 287:1 297:1 305:1 321:1 340:1 365:1 370:1 385:1 452:1 528:1 640:1 704:1 768:1 831:1 892:1 943:1 1019:1 1068:1 1135:1 1209:1 1249:1 1281:1 1348:1 1421:1 1522:1 
0.5 1:1 5:1 9:1 16:1 20:1 24:1 28:1 32:1 35:1 40:1 43:1 47:1 52:1 56:1 60:1 62:1 65:1 69:1 73:1 78:1 81:1 97:1 116:1 144:1 160:1 176:1 192:1 207:1 220:1 239:1 251:1 268:1 288:1 304:1 318:1 325:1 337:1 353:1 370:1 385:1 452:1 528:1 640:1 704:1 768:1 831:1 892:1 943:1 1019:1 1068:1 1136:1 1216:1 1278:1 1333:1 1361:1 1409:1 1474:1 
-0.38406492358382166 1:1 5:1 9:1 16:1 20:1 24:1 28:1 32:1 35:1 40:1 43:1 47:1 52:1 56:1 60:1 63:1 68:1 72:1 73:1 80:1 81:1 97:1 116:1 144:1 160:1 176:1 192:1 207:1 220:1 239:1 251:1 268:1 288:1 304:1 319:1 332:1 352:1 365:1 372:1 385:1 452:1 528:1 640:1 704:1 768:1 831:1 892:1 943:1 1019:1 1068:1 1136:1 1216:1 1279:1 1340:1 1392:1 1469:1 1524:1 
-0.5 1:1 5:1 10:1 13:1 17:1 21:1 25:1 32:1 35:1 40:1 43:1 47:1 52:1 54:1 60:1 61:1 68:1 70:1 76:1 77:1 81:1 98:1 117:1 129:1 145:1 161:1 180:1 207:1 220:1 239:1 251:1 268:1 286:1 296:1 317:1 324:1 350:1 360:1 381:1 386:1 453:1 529:1 577:1 641:1 708:1 783:1 892:1 943:1 1019:1 1068:1 1134:1 1208:1 1245:1 1332:1 1358:1 1464:1 1501:1 
-0.5 1:1 5:1 10:1 13:1 17:1 21:1 26:1 32:1 35:1 40:1 43:1 47:1 52:1 54:1 58:1 61:1 68:1 72:1 76:1 80:1 81:1 98:1 117:1 129:1 145:1 162:1 184:1 207:1 220:1 239:1 251:1 268:1 286:1 294:1 309:1 324:1 352:1 368:1 384:1 386:1 453:1 529:1 577:1 642:1 712:1 799:1 892:1 943:1 1019:1 1068:1 1134:1 1206:1 1237:1 1300:1 1360:1 1472:1 1536:1 
0.00234168948077644 1:1 5:1 10:1 13:1 17:1 21:1 28:1 32:1 35:1 40:1 43:1 47:1 52:1 53:1 60:1 64:1 68:1 70:1 74:1 79:1 81:1 98:1 117:1 129:1 145:1 164:1 192:1 207:1 220:1 239:1 251:1 268:1 285:1 292:1 320:1 336:1 350:1 358:1 375:1 386:1 453:1 529:1 577:1 644:1 720:1 831:1 892:1 943:1 1019:1 1068:1 1133:1 1204:1 1232:1 1344:1 1406:1 1462:1 1495:1 
0.5 1:1 5:1 10:1 13:1 17:1 23:1 26:1 32:1 35:1 40:1 43:1 47:1 52:1 55:1 57:1 61:1 65:1 71:1 76:1 79:1 81:1 98:1 117:1 129:1 147:1 170:1 184:1 207:1 220:1 239:1 251:1 268:1 287:1 297:1 305:1 321:1 339:1 364:1 383:1 386:1 453:1 529:1 579:1 650:1 744:1 799:1 892:1 943:1 1019:1 1068:1 1135:1 1209:1 1249:1 1281:1 1347:1 1420:1 1519:1 
-0.5 1:1 5:1 10:1 13:1 17:1 23:1 28:1 32:1 35:1 40:1 43:1 47:1 52:1 55:1 59:1 64:1 67:1 72:1 74:1 77:1 81:1 98:1 117:1 129:1 147:1 172:1 192:1 207:1 220:1 239:1 251:1 268:1 287:1 299:1 316:1 335:1 348:1 366:1 373:1 386:1 453:1 529:1 579:1 652:1 752:1 831:1 892:1 943:1 1019:1 1068:1 1135:1 1211:1 1260:1 1327:1 1404:1 1454:1 1525:1 
-0.25885284479592807 1:1 5:1 10:1 13:1 18:1 21:1 28:1 32:1 35:1 40:1 43:1 47:1 52:1 56:1 57:1 61:1 65:1 72:1 73:1 80:1 81:1 98:1 117:1 130:1 149:1 164:1 192:1 207:1 220:1 239:1 251:1 268:1 288:1 301:1 305:1 321:1 340:1 365:1 372:1 386:1 453:1 530:1 581:1 660:1 720:1 831:1 892:1 943:1 1019:1 1068:1 1136:1 1213:1 1265:1 1281:1 1348:1 1421:1 1524:1 
-0.5 1:1 5:1 10:1 13:1 18:1 21:1 28:1 32:1 35:1 40:1 43:1 47:1 52:1 56:1 59:1 63:1 65:1 69:1 75:1 80:1 81:1 98:1 117:1 130:1 149:1 164:1 192:1 207:1 220:1 239:1 251:1 268:1 288:1 303:1 315:1 329:1 337:1 355:1 380:1 386:1 453:1 530:1 581:1 660:1 720:1 831:1 892:1 943:1 1019:1 1068:1 1136:1 1215:1 1275:1 1321:1 1377:1 1411:1 1484:1 
-0.5 1:1 5:1 10:1 13:1 18:1 22:1 26:1 32:1 35:1 40:1 43:1 47:1 52:1 53:1 60:1 63:1 65:1 69:1 76:1 79:1 81:1 98:1 117:1 130:1 150:1 166:1 184:1 207:1 220:1 239:1 251:1 268:1 285:1 292:1 319:1 329:1 337:1 356:1 383:1 386:1 453:1 530:1 582:1 662:1 728:1 799:1 892:1 943:1 1019:1 1068:1 1133:1 1204:1 1231:1 1337:1 1377:1 1412:1 1487:1 
0.34336627658918401 1:1 5:1 10:1 13:1 18:1 22:1 28:1 32:1 35:1 40:1 43:1 47:1 52:1 56:1 60:1 61:1 67:1 69:1 73:1 80:1 81:1 98:1 117:1 130:1 150:1 168:1 192:1 207:1 220:1 239:1 251:1 268:1 288:1 304:1 317:1 323:1 345:1 353:1 372:1 386:1 453:1 530:1 582:1 664:1 736:1 831:1 892:1 943:1 1019:1 1068:1 1136:1 1216:1 1277:1 1331:1 1353:1 1441:1 1476:1 
0.5 1:1 5:1 10:1 13:1 18:1 24:1 28:1 32:1 35:1 40:1 43:1 47:1 52:1 53:1 58:1 64:1 65:1 69:1 73:1 77:1 81:1 98:1 117:1 130:1 152:1 176:1 192:1 207:1 220:1 239:1 251:1 268:1 285:1 290:1 312:1 333:1 337:1 353:1 369:1 386:1 453:1 530:1 584:1 672:1 768:1 831:1 892:1 943:1 1019:1 1068:1 1133:1 1202:1 1224:1 1309:1 1393:1 1409:1 1473:1 
-0.16908532863474804 1:1 5:1 10:1 13:1 19:1 21:1 25:1 32:1 35:1 40:1 43:1 47:1 52:1 56:1 57:1 63:1 65:1 71:1 76:1 80:1 81:1 98:1 117:1 131:1 153:1 161:1 180:1 207:1 220:1 239:1 251:1 268:1 288:1 301:1 307:1 329:1 339:1 364:1 384:1 386:1 453:1 531:1 585:1 673:1 708:1 783:1 892:1 943:1 1019:1 1068:1 1136:1 1213:1 1267:1 1289:1 1379:1 1420:1 1520:1 
0.5 1:1 5:1 10:1 13:1 19:1 21:1 27:1 32:1 35:1 40:1 43:1 47:1 52:1 53:1 60:1 63:1 68:1 70:1 74:1 77:1 81:1 98:1 117:1 131:1 153:1 163:1 188:1 207:1 220:1 239:1 251:1 268:1 285:1 292:1 319:1 332:1 350:1 358:1 373:1 386:1 453:1 531:1 585:1 675:1 716:1 815:1 892:1 943:1 1019:1 1068:1 1133:1 1204:1 1231:1 1340:1 1390:1 1462:1 1493:1 
0.5 1:1 5:1 10:1 13:1 19:1 23:1 25:1 32:1 35:1 40:1 43:1 47:1 52:1 53:1 60:1 61:1 65:1 70:1 76:1 80:1 81:1 98:1 117:1 131:1 155:1 169:1 180:1 207:1 220:1 239:1 251:1 268:1 285:1 292:1 317:1 321:1 338:1 360:1 384:1 386:1 453:1 531:1 587:1 681:1 740:1 783:1 892:1 943:1 1019:1 1068:1 1133:1 1204:1 1229:1 1329:1 1346:1 1416:1 1504:1 
-0.5 1:1 5:1 10:1 13:1 19:1 23:1 25:1 32:1 35:1 40:1 43:1 47:1 52:1 54:1 60:1 62:1 68:1 71:1 74:1 78:1 81:1 98:1 117:1 131:1 155:1 169:1 180:1 207:1 220:1 239:1 251:1 268:1 286:1 296:1 318:1 328:1 351:1 362:1 374:1 386:1 453:1 531:1 587:1 681:1 740:1 783:1 892:1 943:1 1019:1 1068:1 1134:1 1208:1 1246:1 1336:1 1375:1 1466:1 1510:1 
-0.5 1:1 5:1 10:1 13:1 19:1 23:1 25:1 32:1 35:1 40:1 43:1 47:1 52:1 56:1 57:1 64:1 68:1 71:1 75:1 78:1 81:1 98:1 117:1 131:1 155:1 169:1 180:1 207:1 220:1 239:1 251:1 268:1 288:1 301:1 308:1 336:1 351:1 363:1 378:1 386:1 453:1 531:1 587:1 681:1 740:1 783:1 892:1 943:1 1019:1 1068:1 1136:1 1213:1 1268:1 1296:1 1407:1 1467:1 1514:1 
-0.061009243833004108 1:1 5:1 10:1 13:1 19:1 23:1 25:1 32:1 35:1 40:1 43:1 47:1 52:1 56:1 58:1 61:1 68:1 72:1 74:1 80:1 81:1 98:1 117:1 131:1 155:1 169:1 180:1 207:1 220:1 239:1 251:1 268:1 288:1 302:1 309:1 324:1 352:1 366:1 376:1 386:1 453:1 531:1 587:1 681:1 740:1 783:1 892:1 943:1 1019:1 1068:1 1136:1 1214:1 1269:1 1300:1 1360:1 1470:1 1528:1 
-0.5 1:1 5:1 10:1 13:1 19:1 23:1 25:1 32:1 35:1 40:1 43:1 47:1 52:1 56:1 58:1 64:1 66:1 70:1 74:1 78:1 81:1 98:1 117:1 131:1 155:1 169:1 180:1 207:1 220:1 239:1 251:1 268:1 288:1 302:1 312:1 334:1 342:1 358:1 374:1 386:1 453:1 531:1 587:1 681:1 740:1 783:1 892:1 943:1 1019:1 1068:1 1136:1 1214:1 1272:1 1310:1 1398:1 1430:1 1494:1 
0.5 1:1 5:1 10:1 13:1 19:1 23:1 25:1 32:1 35:1 40:1 43:1 47:1 52:1 56:1 59:1 61:1 68:1 71:1 73:1 77:1 81:1 98:1 117:1 131:1 155:1 169:1 180:1 207:1 220:1 239:1 251:1 268:1 288:1 303:1 313:1 324:1 351:1 361:1 369:1 386:1 453:1 531:1 587:1 681:1 740:1 783:1 892:1 943:1 1019:1 1068:1 1136:1 1215:1 1273:1 1316:1 1359:1 1465:1 1505:1 
0.5 1:1 5:1 10:1 13:1 19:1 23:1 25:1 32:1 35:1 40:1 43:1 47:1 52:1 56:1 60:1 61:1 67:1 69:1 73:1 79:1 81:1 98:1 117:1 131:1 155:1 169:1 180:1 207:1 220:1 239:1 251:1 268:1 288:1 304:1 317:1 323:1 345:1 353:1 371:1 386:1 453:1 531:1 587:1 681:1 740:1 783:1 892:1 943:1 1019:1 1068:1 1136:1 1216:1 1277:1 1331:1 1353:1 1441:1 1475:1 
0.5 1:1 5:1 10:1 13:1 19:1 23:1 25:1 32:1 35:1 40:1 43:1 47:1 52:1 56:1 60:1 62:1 68:1 69:1 73:1 77:1 81:1 98:1 117:1 131:1 155:1 169:1 180:1 207:1 220:1 239:1 251:1 268:1 288:1 304:1 318:1 328:1 349:1 353:1 369:1 386:1 453:1 531:1 587:1 681:1 740:1 783:1 892:1 943:1 1019:1 1068:1 1136:1 1216:1 1278:1 1336:1 1373:1 1457:1 1473:1 
0.5 1:1 5:1 10:1 13:1 19:1 23:1 25:1 32:1 35:1 40:1 43:1 47:1 52:1 56:1 60:1 64:1 68:1 70:1 74:1 79:1 81:1 98:1 117:1 131:1 155:1 169:1 180:1 207:1 220:1 239:1 251:1 268:1 288:1 304:1 320:1 336:1 350:1 358:1 375:1 386:1 453:1 531:1 587:1 681:1 740:1 783:1 892:1 943:1 1019:1 1068:1 1136:1 1216:1 1280:1 1344:1 1406:1 1462:1 1495:1 
-0.5 1:1 5:1 10:1 13:1 19:1 23:1 26:1 32:1 35:1 40:1 43:1 47:1 52:1 54:1 60:1 61:1 67:1 72:1 76:1 77:1 81:1 98:1 117:1 131:1 155:1 170:1 184:1 207:1 220:1 239:1 251:1 268:1 286:1 296:1 317:1 323:1 348:1 368:1 381:1 386:1 453:1 531:1 587:1 682:1 744:1 799:1 892:1 943:1 1019:1 1068:1 1134:1 1208:1 1245:1 1331:1 1356:1 1456:1 1533:1 
-0.5 1:1 5:1 10:1 13:1 19:1 23:1 28:1 32:1 35:1 40:1 43:1 47:1 52:1 53:1 59:1 64:1 67:1 70:1 74:1 80:1 81:1 98:1 117:1 131:1 155:1 172:1 192:1 207:1 220:1 239:1 251:1 268:1 285:1 291:1 316:1 335:1 346:1 358:1 376:1 386:1 453:1 531:1 587:1 684:1 752:1 831:1 892:1 943:1 1019:1 1068:1 1133:1 1203:1 1228:1 1327:1 1402:1 1446:1 1496:1 
0.5 1:1 5:1 10:1 13:1 19:1 24:1 26:1 32:1 35:1 40:1 43:1 47:1 52:1 54:1 60:1 63:1 68:1 71:1 74:1 78:1 81:1 98:1 117:1 131:1 156:1 174:1 184:1 207:1 220:1 239:1 251:1 268:1 286:1 296:1 319:1 332:1 351:1 362:1 374:1 386:1 453:1 531:1 588:1 686:1 760:1 799:1 892:1 943:1 1019:1 1068:1 1134:1 1208:1 1247:1 1340:1 1391:1 1466:1 1510:1 
0.5 1:1 5:1 10:1 13:1 19:1 24:1 27:1 32:1 35:1 40:1 43:1 47:1 52:1 56:1 58:1 61:1 67:1 69:1 74:1 77:1 81:1 98:1 117:1 131:1 156:1 175:1 188:1 207:1 220:1 239:1 251:1 268:1 288:1 302:1 309:1 323:1 345:1 354:1 373:1 386:1 453:1 531:1 588:1 687:1 764:1 815:1 892:1 943:1 1019:1 1068:1 1136:1 1214:1 1269:1 1299:1 1353:1 1442:1 1477:1 
0.5 1:1 5:1 10:1 13:1 19:1 24:1 28:1 32:1 35:1 40:1 43:1 47:1 52:1 56:1 58:1 63:1 65:1 71:1 75:1 80:1 81:1 98:1 117:1 131:1 156:1 176:1 192:1 207:1 220:1 239:1 251:1 268:1 288:1 302:1 311:1 329:1 339:1 363:1 380:1 386:1 453:1 531:1 588:1 688:1 768:1 831:1 892:1 943:1 1019:1 1068:1 1136:1 1214:1 1271:1 1305:1 1379:1 1419:1 1516:1 
-0.5 1:1 5:1 10:1 13:1 19:1 24:1 28:1 32:1 35:1 40:1 43:1 47:1 52:1 56:1 60:1 61:1 66:1 72:1 74:1 77:1 81:1 98:1 117:1 131:1 156:1 176:1 192:1 207:1 220:1 239:1 251:1 268:1 288:1 304:1 317:1 322:1 344:1 366:1 373:1 386:1 453:1 531:1 588:1 688:1 768:1 831:1 892:1 943:1 1019:1 1068:1 1136:1 1216:1 1277:1 1330:1 1352:1 1438:1 1525:1 
-0.34756878272171948 1:1 5:1 10:1 13:1 20:1 21:1 25:1 32:1 35:1 40:1 43:1 47:1 52:1 53:1 60:1 61:1 68:1 71:1 76:1 77:1 81:1 98:1 117:1 132:1 157:1 161:1 180:1 207:1 220:1 239:1 251:1 268:1 285:1 292:1 317:1 324:1 351:1 364:1 381:1 386:1 453:1 532:1 589:1 689:1 708:1 783:1 892:1 943:1 1019:1 1068:1 1133:1 1204:1 1229:1 1332:1 1359:1 1468:1 1517:1 
0.5 1:1 5:1 10:1 13:1 20:1 23:1 25:1 32:1 35:1 40:1 43:1 47:1 52:1 55:1 60:1 61:1 65:1 72:1 75:1 80:1 81:1 98:1 117:1 132:1 159:1 169:1 180:1 207:1 220:1 239:1 251:1 268:1 287:1 300:1 317:1 321:1 340:1 367:1 380:1 386:1 453:1 532:1 591:1 697:1 740:1 783:1 892:1 943:1 1019:1 1068:1 1135:1 1212:1 1261:1 1329:1 1348:1 1423:1 1532:1 
-0.5 1:1 5:1 10:1 13:1 20:1 24:1 26:1 32:1 35:1 40:1 43:1 47:1 52:1 53:1 57:1 61:1 68:1 71:1 75:1 77:1 81:1 98:1 117:1 132:1 160:1 174:1 184:1 207:1 220:1 239:1 251:1 268:1 285:1 289:1 305:1 324:1 351:1 363:1 377:1 386:1 453:1 532:1 592:1 702:1 760:1 799:1 892:1 943:1 1019:1 1068:1 1133:1 1201:1 1217:1 1284:1 1359:1 1467:1 1513:1 
-0.5 1:1 5:1 10:1 13:1 20:1 24:1 26:1 32:1 35:1 40:1 43:1 47:1 52:1 56:1 57:1 61:1 65:1 70:1 76:1 78:1 81:1 98:1 117:1 132:1 160:1 174:1 184:1 207:1 220:1 239:1 251:1 268:1 288:1 301:1 305:1 321:1 338:1 360:1 382:1 386:1 453:1 532:1 592:1 702:1 760:1 799:1 892:1 943:1 1019:1 1068:1 1136:1 1213:1 1265:1 1281:1 1346:1 1416:1 1502:1 
0.5 1:1 5:1 10:1 13:1 20:1 24:1 26:1 32:1 35:1 40:1 43:1 47:1 52:1 56:1 59:1 64:1 68:1 71:1 76:1 79:1 81:1 98:1 117:1 132:1 160:1 174:1 184:1 207:1 220:1 239:1 251:1 268:1 288:1 303:1 316:1 336:1 351:1 364:1 383:1 386:1 453:1 532:1 592:1 702:1 760:1 799:1 892:1 943:1 1019:1 1068:1 1136:1 1215:1 1276:1 1328:1 1407:1 1468:1 1519:1 
0.30890113468594932 1:1 5:1 10:1 13:1 20:1 24:1 26:1 32:1 35:1 40:1 43:1 47:1 52:1 56:1 60:1 62:1 68:1 69:1 74:1 78:1 81:1 98:1 117:1 132:1 160:1 174:1 184:1 207:1 220:1 239:1 251:1 268:1 288:1 304:1 318:1 328:1 349:1 354:1 374:1 386:1 453:1 532:1 592:1 702:1 760:1 799:1 892:1 943:1 1019:1 1068:1 1136:1 1216:1 1278:1 1336:1 1373:1 1458:1 1478:1 
0.088149518004978736 1:1 5:1 10:1 13:1 20:1 24:1 28:1 32:1 35:1 40:1 43:1 47:1 52:1 54:1 57:1 64:1 68:1 71:1 74:1 80:1 81:1 98:1 117:1 132:1 160:1 176:1 192:1 207:1 220:1 239:1 251:1 268:1 286:1 293:1 308:1 336:1 351:1 362:1 376:1 386:1 453:1 532:1 592:1 704:1 768:1 831:1 892:1 943:1 1019:1 1068:1 1134:1 1205:1 1236:1 1296:1 1407:1 1466:1 1512:1 
0.5 1:1 5:1 10:1 13:1 20:1 24:1 28:1 32:1 35:1 40:1 43:1 47:1 52:1 54:1 60:1 63:1 67:1 70:1 74:1 80:1 81:1 98:1 117:1 132:1 160:1 176:1 192:1 207:1 220:1 239:1 251:1 268:1 286:1 296:1 319:1 331:1 346:1 358:1 376:1 386:1 453:1 532:1 592:1 704:1 768:1 831:1 892:1 943:1 1019:1 1068:1 1134:1 1208:1 1247:1 1339:1 1386:1 1446:1 1496:1 
-0.5 1:1 5:1 10:1 13:1 20:1 24:1 28:1 32:1 35:1 40:1 43:1 47:1 52:1 56:1 60:1 61:1 68:1 70:1 76:1 80:1 81:1 98:1 117:1 132:1 160:1 176:1 192:1 207:1 220:1 239:1 251:1 268:1 288:1 304:1 317:1 324:1 350:1 360:1 384:1 386:1 453:1 532:1 592:1 704:1 768:1 831:1 892:1 943:1 1019:1 1068:1 1136:1 1216:1 1277:1 1332:1 1358:1 1464:1 1504:1 
0.5 1:1 5:1 10:1 14:1 17:1 22:1 25:1 32:1 35:1 40:1 43:1 47:1 52:1 56:1 60:1 61:1 68:1 71:1 76:1 80:1 81:1 98:1 118:1 133:1 146:1 165:1 180:1 207:1 220:1 239:1 251:1 268:1 288:1 304:1 317:1 324:1 351:1 364:1 384:1 386:1 454:1 533:1 594:1 645:1 724:1 783:1 892:1 943:1 1019:1 1068:1 1136:1 1216:1 1277:1 1332:1 1359:1 1468:1 1520:1 
-0.5 1:1 5:1 10:1 14:1 17:1 22:1 26:1 32:1 35:1 40:1 43:1 47:1 52:1 53:1 57:1 61:1 67:1 71:1 74:1 77:1 81:1 98:1 118:1 133:1 146:1 166:1 184:1 207:1 220:1 239:1 251:1 268:1 285:1 289:1 305:1 323:1 347:1 362:1 373:1 386:1 454:1 533:1 594:1 646:1 728:1 799:1 892:1 943:1 1019:1 1068:1 1133:1 1201:1 1217:1 1283:1 1355:1 1450:1 1509:1 
0.5 1:1 5:1 10:1 14:1 17:1 23:1 26:1 32:1 35:1 40:1 43:1 47:1 52:1 54:1 57:1 63:1 66:1 69:1 76:1 78:1 81:1 98:1 118:1 133:1 147:1 170:1 184:1 207:1 220:1 239:1 251:1 268:1 286:1 293:1 307:1 330:1 341:1 356:1 382:1 386:1 454:1 533:1 595:1 650:1 744:1 799:1 892:1 943:1 1019:1 1068:1 1134:1 1205:1 1235:1 1290:1 1381:1 1428:1 1486:1 
0.5 1:1 5:1 10:1 14:1 17:1 23:1 26:1 32:1 35:1 40:1 43:1 47:1 52:1 54:1 60:1 64:1 66:1 70:1 73:1 79:1 81:1 98:1 118:1 133:1 147:1 170:1 184:1 207:1 220:1 239:1 251:1 268:1 286:1 296:1 320:1 334:1 342:1 357:1 371:1 386:1 454:1 533:1 595:1 650:1 744:1 799:1 892:1 943:1 1019:1 1068:1 1134:1 1208:1 1248:1 1342:1 1398:1 1429:1 1491:1 
-0.5 1:1 5:1 10:1 14:1 17:1 23:1 27:1 32:1 35:1 40:1 43:1 47:1 52:1 54:1 60:1 62:1 66:1 69:1 73:1 79:1 81:1 98:1 118:1 133:1 147:1 171:1 188:1 207:1 220:1 239:1 251:1 268:1 286:1 296:1 318:1 326:1 341:1 353:1 371:1 386:1 454:1 533:1 595:1 651:1 748:1 815:1 892:1 943:1 1019:1 1068:1 1134:1 1208:1 1246:1 1334:1 1365:1 1425:1 1475:1 
0.5 1:1 5:1 10:1 14:1 18:1 21:1 28:1 32:1 35:1 40:1 43:1 47:1 52:1 56:1 60:1 63:1 68:1 71:1 75:1 77:1 81:1 98:1 118:1 134:1 149:1 164:1 192:1 207:1 220:1 239:1 251:1 268:1 288:1 304:1 319:1 332:1 351:1 363:1 377:1 386:1 454:1 534:1 597:1 660:1 720:1 831:1 892:1 943:1 1019:1 1068:1 1136:1 1216:1 1279:1 1340:1 1391:1 1467:1 1513:1 
0.5 1:1 5:1 10:1 14:1 18:1 22:1 28:1 32:1 35:1 40:1 43:1 47:1 52:1 53:1 60:1 64:1 65:1 71:1 76:1 79:1 81:1 98:1 118:1 134:1 150:1 168:1 192:1 207:1 220:1 239:1 251:1 268:1 285:1 292:1 320:1 333:1 339:1 364:1 383:1 386:1 454:1 534:1 598:1 664:1 736:1 831:1 892:1 943:1 1019:1 1068:1 1133:1 1204:1 1232:1 1341:1 1395:1 1420:1 1519:1 
0.18468196427769873 1:1 5:1 10:1 14:1 18:1 24:1 26:1 32:1 35:1 40:1 43:1 47:1 52:1 53:1 59:1 61:1 67:1 71:1 74:1 78:1 81:1 98:1 118:1 134:1 152:1 174:1 184:1 207:1 220:1 239:1 251:1 268:1 285:1 291:1 313:1 323:1 347:1 362:1 374:1 386:1 454:1 534:1 600:1 670:1 760:1 799:1 892:1 943:1 1019:1 1068:1 1133:1 1203:1 1225:1 1315:1 1355:1 1450:1 1510:1 
-0.5 1:1 5:1 10:1 14:1 18:1 24:1 26:1 32:1 35:1 40:1 43:1 47:1 52:1 55:1 59:1 61:1 68:1 71:1 76:1 79:1 81:1 98:1 118:1 134:1 152:1 174:1 184:1 207:1 220:1 239:1 251:1 268:1 287:1 299:1 313:1 324:1 351:1 364:1 383:1 386:1 454:1 534:1 600:1 670:1 760:1 799:1 892:1 943:1 1019:1 1068:1 1135:1 1211:1 1257:1 1316:1 1359:1 1468:1 1519:1 
-0.5 1:1 5:1 10:1 14:1 18:1 24:1 28:1 32:1 35:1 40:1 43:1 47:1 52:1 55:1 57:1 61:1 67:1 71:1 75:1 77:1 81:1 98:1 118:1 134:1 152:1 176:1 192:1 207:1 220:1 239:1 251:1 268:1 287:1 297:1 305:1 323:1 347:1 363:1 377:1 386:1 454:1 534:1 600:1 672:1 768:1 831:1 892:1 943:1 1019:1 1068:1 1135:1 1209:1 1249:1 1283:1 1355:1 1451:1 1513:1 
-0.5 1:1 5:1 10:1 14:1 20:1 23:1 26:1 32:1 35:1 40:1 43:1 47:1 52:1 56:1 60:1 64:1 65:1 69:1 76:1 77:1 81:1 98:1 118:1 136:1 159:1 170:1 184:1 207:1 220:1 239:1 251:1 268:1 288:1 304:1 320:1 333:1 337:1 356:1 381:1 386:1 454:1 536:1 607:1 698:1 744:1 799:1 892:1 943:1 1019:1 1068:1 1136:1 1216:1 1280:1 1341:1 1393:1 1412:1 1485:1 
-0.5 1:1 5:1 10:1 14:1 20:1 23:1 28:1 32:1 35:1 40:1 43:1 47:1 52:1 56:1 60:1 61:1 65:1 69:1 76:1 79:1 81:1 98:1 118:1 136:1 159:1 172:1 192:1 207:1 220:1 239:1 251:1 268:1 288:1 304:1 317:1 321:1 337:1 356:1 383:1 386:1 454:1 536:1 607:1 700:1 752:1 831:1 892:1 943:1 1019:1 1068:1 1136:1 1216:1 1277:1 1329:1 1345:1 1412:1 1487:1 
0.5 1:1 5:1 10:1 14:1 20:1 24:1 28:1 32:1 35:1 40:1 43:1 47:1 52:1 56:1 59:1 63:1 68:1 71:1 75:1 80:1 81:1 98:1 118:1 136:1 160:1 176:1 192:1 207:1 220:1 239:1 251:1 268:1 288:1 303:1 315:1 332:1 351:1 363:1 380:1 386:1 454:1 536:1 608:1 704:1 768:1 831:1 892:1 943:1 1019:1 1068:1 1136:1 1215:1 1275:1 1324:1 1391:1 1467:1 1516:1 
0.5 1:1 5:1 10:1 15:1 20:1 22:1 25:1 32:1 35:1 40:1 43:1 47:1 52:1 56:1 60:1 63:1 68:1 71:1 75:1 80:1 81:1 98:1 119:1 140:1 158:1 165:1 180:1 207:1 220:1 239:1 251:1 268:1 288:1 304:1 319:1 332:1 351:1 363:1 380:1 386:1 455:1 540:1 622:1 693:1 724:1 783:1 892:1 943:1 1019:1 1068:1 1136:1 1216:1 1279:1 1340:1 1391:1 1467:1 1516:1 
-0.5 1:1 5:1 10:1 16:1 17:1 21:1 25:1 32:1 35:1 40:1 43:1 47:1 52:1 53:1 57:1 61:1 65:1 71:1 74:1 77:1 81:1 98:1 120:1 141:1 145:1 161:1 180:1 207:1 220:1 239:1 251:1 268:1 285:1 289:1 305:1 321:1 339:1 362:1 373:1 386:1 456:1 541:1 625:1 641:1 708:1 783:1 892:1 943:1 1019:1 1068:1 1133:1 1201:1 1217:1 1281:1 1347:1 1418:1 1509:1 
-0.5 1:1 5:1 10:1 16:1 17:1 24:1 26:1 32:1 35:1 40:1 43:1 47:1 52:1 56:1 60:1 61:1 66:1 69:1 75:1 78:1 81:1 98:1 120:1 141:1 148:1 174:1 184:1 207:1 220:1 239:1 251:1 268:1 288:1 304:1 317:1 322:1 341:1 355:1 378:1 386:1 456:1 541:1 628:1 654:1 760:1 799:1 892:1 943:1 1019:1 1068:1 1136:1 1216:1 1277:1 1330:1 1349:1 1427:1 1482:1 
0.5 1:1 5:1 10:1 16:1 17:1 24:1 28:1 30:1 35:1 40:1 43:1 47:1 52:1 54:1 59:1 62:1 67:1 72:1 76:1 77:1 81:1 98:1 120:1 141:1 148:1 176:1 190:1 199:1 220:1 239:1 251:1 268:1 286:1 295:1 314:1 327:1 348:1 368:1 381:1 386:1 456:1 541:1 628:1 656:1 766:1 823:1 860:1 943:1 1019:1 1068:1 1134:1 1207:1 1242:1 1319:1 1372:1 1456:1 1533:1 
0.5 1:1 5:1 10:1 16:1 18:1 21:1 26:1 32:1 35:1 40:1 43:1 47:1 52:1 56:1 60:1 61:1 68:1 70:1 73:1 80:1 81:1 98:1 120:1 142:1 149:1 162:1 184:1 207:1 220:1 239:1 251:1 268:1 288:1 304:1 317:1 324:1 350:1 357:1 372:1 386:1 456:1 542:1 629:1 658:1 712:1 799:1 892:1 943:1 1019:1 1068:1 1136:1 1216:1 1277:1 1332:1 1358:1 1461:1 1492:1 
-0.5 1:1 5:1 10:1 16:1 18:1 21:1 28:1 31:1 35:1 40:1 43:1 47:1 52:1 54:1 57:1 61:1 68:1 69:1 73:1 77:1 81:1 98:1 120:1 142:1 149:1 164:1 191:1 203:1 220:1 239:1 251:1 268:1 286:1 293:1 305:1 324:1 349:1 353:1 369:1 386:1 456:1 542:1 629:1 660:1 719:1 827:1 876:1 943:1 1019:1 1068:1 1134:1 1205:1 1233:1 1284:1 1357:1 1457:1 1473:1 
-0.5 1:1 5:1 10:1 16:1 18:1 21:1 28:1 32:1 35:1 40:1 43:1 47:1 52:1 56:1 60:1 64:1 67:1 71:1 76:1 80:1 81:1 98:1 120:1 142:1 149:1 164:1 192:1 207:1 220:1 239:1 251:1 268:1 288:1 304:1 320:1 335:1 347:1 364:1 384:1 386:1 456:1 542:1 629:1 660:1 720:1 831:1 892:1 943:1 1019:1 1068:1 1136:1 1216:1 1280:1 1343:1 1403:1 1452:1 1520:1 
0.5 1:1 5:1 10:1 16:1 18:1 23:1 27:1 32:1 35:1 40:1 43:1 47:1 52:1 54:1 57:1 63:1 68:1 70:1 76:1 80:1 81:1 98:1 120:1 142:1 151:1 171:1 188:1 207:1 220:1 239:1 251:1 268:1 286:1 293:1 307:1 332:1 350:1 360:1 384:1 386:1 456:1 542:1 631:1 667:1 748:1 815:1 892:1 943:1 1019:1 1068:1 1134:1 1205:1 1235:1 1292:1 1390:1 1464:1 1504:1 
0.5 1:1 5:1 10:1 16:1 18:1 24:1 26:1 32:1 35:1 40:1 43:1 47:1 52:1 56:1 59:1 61:1 68:1 72:1 76:1 79:1 81:1 98:1 120:1 142:1 152:1 174:1 184:1 207:1 220:1 239:1 251:1 268:1 288:1 303:1 313:1 324:1 352:1 368:1 383:1 386:1 456:1 542:1 632:1 670:1 760:1 799:1 892:1 943:1 1019:1 1068:1 1136:1 1215:1 1273:1 1316:1 1360:1 1472:1 1535:1 
-0.5 1:1 5:1 10:1 16:1 19:1 21:1 26:1 32:1 35:1 40:1 43:1 47:1 52:1 56:1 60:1 64:1 65:1 69:1 76:1 78:1 81:1 98:1 120:1 143:1 153:1 162:1 184:1 207:1 220:1 239:1 251:1 268:1 288:1 304:1 320:1 333:1 337:1 356:1 382:1 386:1 456:1 543:1 633:1 674:1 712:1 799:1 892:1 943:1 1019:1 1068:1 1136:1 1216:1 1280:1 1341:1 1393:1 1412:1 1486:1 
-0.5 1:1 5:1 10:1 16:1 19:1 21:1 28:1 32:1 35:1 40:1 43:1 47:1 52:1 54:1 57:1 64:1 67:1 70:1 73:1 79:1 81:1 98:1 120:1 143:1 153:1 164:1 192:1 207:1 220:1 239:1 251:1 268:1 286:1 293:1 308:1 335:1 346:1 357:1 371:1 386:1 456:1 543:1 633:1 676:1 720:1 831:1 892:1 943:1 1019:1 1068:1 1134:1 1205:1 1236:1 1295:1 1402:1 1445:1 1491:1 
0.5 1:1 5:1 10:1 16:1 19:1 22:1 25:1 32:1 35:1 40:1 43:1 47:1 52:1 56:1 57:1 63:1 66:1 72:1 73:1 78:1 81:1 98:1 120:1 143:1 154:1 165:1 180:1 207:1 220:1 239:1 251:1 268:1 288:1 301:1 307:1 330:1 344:1 365:1 370:1 386:1 456:1 543:1 634:1 677:1 724:1 783:1 892:1 943:1 1019:1 1068:1 1136:1 1213:1 1267:1 1290:1 1384:1 1437:1 1522:1 
0.5 1:1 5:1 10:1 16:1 19:1 22:1 28:1 32:1 35:1 40:1 43:1 47:1 52:1 56:1 59:1 61:1 67:1 72:1 75:1 79:1 81:1 98:1 120:1 143:1 154:1 168:1 192:1 207:1 220:1 239:1 251:1 268:1 288:1 303:1 313:1 323:1 348:1 367:1 379:1 386:1 456:1 543:1 634:1 680:1 736:1 831:1 892:1 943:1 1019:1 1068:1 1136:1 1215:1 1273:1 1315:1 1356:1 1455:1 1531:1 
-0.5 1:1 5:1 10:1 16:1 19:1 23:1 26:1 32:1 35:1 40:1 43:1 47:1 52:1 56:1 57:1 64:1 68:1 70:1 73:1 80:1 81:1 98:1 120:1 143:1 155:1 170:1 184:1 207:1 220:1 239:1 251:1 268:1 288:1 301:1 308:1 336:1 350:1 357:1 372:1 386:1 456:1 543:1 635:1 682:1 744:1 799:1 892:1 943:1 1019:1 1068:1 1136:1 1213:1 1268:1 1296:1 1406:1 1461:1 1492:1 
-0.5 1:1 5:1 10:1 16:1 19:1 23:1 28:1 31:1 35:1 40:1 43:1 47:1 52:1 56:1 59:1 62:1 68:1 69:1 76:1 80:1 81:1 98:1 120:1 143:1 155:1 172:1 191:1 203:1 220:1 239:1 251:1 268:1 288:1 303:1 314:1 328:1 349:1 356:1 384:1 386:1 456:1 543:1 635:1 684:1 751:1 827:1 876:1 943:1 1019:1 1068:1 1136:1 1215:1 1274:1 1320:1 1373:1 1460:1 1488:1 
0.5 1:1 5:1 10:1 16:1 19:1 24:1 25:1 32:1 35:1 40:1 43:1 47:1 52:1 54:1 57:1 61:1 67:1 72:1 76:1 77:1 81:1 98:1 120:1 143:1 156:1 173:1 180:1 207:1 220:1 239:1 251:1 268:1 286:1 293:1 305:1 323:1 348:1 368:1 381:1 386:1 456:1 543:1 636:1 685:1 756:1 783:1 892:1 943:1 1019:1 1068:1 1134:1 1205:1 1233:1 1283:1 1356:1 1456:1 1533:1 
-0.071104197816253781 1:1 5:1 10:1 16:1 19:1 24:1 26:1 32:1 35:1 40:1 43:1 47:1 52:1 54:1 60:1 63:1 67:1 72:1 75:1 77:1 81:1 98:1 120:1 143:1 156:1 174:1 184:1 207:1 220:1 239:1 251:1 268:1 286:1 296:1 319:1 331:1 348:1 367:1 377:1 386:1 456:1 543:1 636:1 686:1 760:1 799:1 892:1 943:1 1019:1 1068:1 1134:1 1208:1 1247:1 1339:1 1388:1 1455:1 1529:1 
-0.5 1:1 5:1 10:1 16:1 19:1 24:1 26:1 32:1 35:1 40:1 43:1 47:1 52:1 56:1 58:1 61:1 67:1 69:1 73:1 80:1 81:1 98:1 120:1 143:1 156:1 174:1 184:1 207:1 220:1 239:1 251:1 268:1 288:1 302:1 309:1 323:1 345:1 353:1 372:1 386:1 456:1 543:1 636:1 686:1 760:1 799:1 892:1 943:1 1019:1 1068:1 1136:1 1214:1 1269:1 1299:1 1353:1 1441:1 1476:1 
0.20093268753543031 1:1 5:1 10:1 16:1 19:1 24:1 27:1 32:1 35:1 40:1 43:1 47:1 52:1 56:1 58:1 62:1 68:1 72:1 74:1 77:1 81:1 98:1 120:1 143:1 156:1 175:1 188:1 207:1 220:1 239:1 251:1 268:1 288:1 302:1 310:1 328:1 352:1 366:1 373:1 386:1 456:1 543:1 636:1 687:1 764:1 815:1 892:1 943:1 1019:1 1068:1 1136:1 1214:1 1270:1 1304:1 1376:1 1470:1 1525:1 
-0.5 1:1 5:1 10:1 16:1 20:1 21:1 26:1 32:1 35:1 40:1 43:1 47:1 52:1 56:1 60:1 61:1 68:1 70:1 73:1 78:1 81:1 98:1 120:1 144:1 157:1 162:1 184:1 207:1 220:1 239:1 251:1 268:1 288:1 304:1 317:1 324:1 350:1 357:1 370:1 386:1 456:1 544:1 637:1 690:1 712:1 799:1 892:1 943:1 1019:1 1068:1 1136:1 1216:1 1277:1 1332:1 1358:1 1461:1 1490:1 
0.5 1:1 5:1 10:1 16:1 20:1 21:1 26:1 32:1 35:1 40:1 43:1 47:1 52:1 56:1 60:1 64:1 66:1 70:1 76:1 77:1 81:1 98:1 120:1 144:1 157:1 162:1 184:1 207:1 220:1 239:1 251:1 268:1 288:1 304:1 320:1 334:1 342:1 360:1 381:1 386:1 456:1 544:1 637:1 690:1 712:1 799:1 892:1 943:1 1019:1 1068:1 1136:1 1216:1 1280:1 1342:1 1398:1 1432:1 1501:1 
-0.5 1:1 5:1 10:1 16:1 20:1 23:1 25:1 32:1 35:1 40:1 43:1 47:1 52:1 54:1 58:1 64:1 68:1 71:1 74:1 77:1 81:1 98:1 120:1 144:1 159:1 169:1 180:1 207:1 220:1 239:1 251:1 268:1 286:1 294:1 312:1 336:1 351:1 362:1 373:1 386:1 456:1 544:1 639:1 697:1 740:1 783:1 892:1 943:1 1019:1 1068:1 1134:1 1206:1 1240:1 1312:1 1407:1 1466:1 1509:1 
-0.5 1:1 5:1 10:1 16:1 20:1 24:1 26:1 32:1 35:1 40:1 43:1 47:1 52:1 53:1 57:1 64:1 68:1 71:1 76:1 79:1 81:1 98:1 120:1 144:1 160:1 174:1 184:1 207:1 220:1 239:1 251:1 268:1 285:1 289:1 308:1 336:1 351:1 364:1 383:1 386:1 456:1 544:1 640:1 702:1 760:1 799:1 892:1 943:1 1019:1 1068:1 1133:1 1201:1 1220:1 1296:1 1407:1 1468:1 1519:1 
0.5 1:1 5:1 10:1 16:1 20:1 24:1 28:1 32:1 35:1 40:1 43:1 47:1 52:1 54:1 57:1 62:1 66:1 69:1 74:1 78:1 81:1 98:1 120:1 144:1 160:1 176:1 192:1 207:1 220:1 239:1 251:1 268:1 286:1 293:1 306:1 326:1 341:1 354:1 374:1 386:1 456:1 544:1 640:1 704:1 768:1 831:1 892:1 943:1 1019:1 1068:1 1134:1 1205:1 1234:1 1286:1 1365:1 1426:1 1478:1 
0.5 1:1 5:1 10:1 16:1 20:1 24:1 28:1 32:1 35:1 40:1 43:1 47:1 52:1 55:1 60:1 63:1 68:1 71:1 76:1 80:1 81:1 98:1 120:1 144:1 160:1 176:1 192:1 207:1 220:1 239:1 251:1 268:1 287:1 300:1 319:1 332:1 351:1 364:1 384:1 386:1 456:1 544:1 640:1 704:1 768:1 831:1 892:1 943:1 1019:1 1068:1 1135:1 1212:1 1263:1 1340:1 1391:1 1468:1 1520:1 
0.5 1:1 5:1 11:1 13:1 17:1 21:1 25:1 32:1 35:1 40:1 43:1 47:1 52:1 53:1 59:1 61:1 68:1 71:1 76:1 80:1 81:1 99:1 121:1 129:1 145:1 161:1 180:1 207:1 220:1 239:1 251:1 268:1 285:1 291:1 313:1 324:1 351:1 364:1 384:1 387:1 457:1 545:1 577:1 641:1 708:1 783:1 892:1 943:1 1019:1 1068:1 1133:1 1203:1 1225:1 1316:1 1359:1 1468:1 1520:1 
-0.5 1:1 5:1 11:1 13:1 17:1 21:1 26:1 32:1 35:1 40:1 43:1 47:1 52:1 56:1 60:1 63:1 66:1 72:1 74:1 78:1 81:1 99:1 121:1 129:1 145:1 162:1 184:1 207:1 220:1 239:1 251:1 268:1 288:1 304:1 319:1 330:1 344:1 366:1 374:1 387:1 457:1 545:1 577:1 642:1 712:1 799:1 892:1 943:1 1019:1 1068:1 1136:1 1216:1 1279:1 1338:1 1384:1 1438:1 1526:1 
0.5 1:1 5:1 11:1 13:1 17:1 21:1 28:1 32:1 35:1 40:1 43:1 47:1 52:1 56:1 60:1 61:1 67:1 69:1 73:1 77:1 81:1 99:1 121:1 129:1 145:1 164:1 192:1 207:1 220:1 239:1 251:1 268:1 288:1 304:1 317:1 323:1 345:1 353:1 369:1 387:1 457:1 545:1 577:1 644:1 720:1 831:1 892:1 943:1 1019:1 1068:1 1136:1 1216:1 1277:1 1331:1 1353:1 1441:1 1473:1 
-0.5 1:1 5:1 11:1 13:1 17:1 22:1 28:1 32:1 35:1 40:1 43:1 47:1 52:1 55:1 59:1 61:1 65:1 70:1 73:1 77:1 81:1 99:1 121:1 129:1 146:1 168:1 192:1 207:1 220:1 239:1 251:1 268:1 287:1 299:1 313:1 321:1 338:1 357:1 369:1 387:1 457:1 545:1 578:1 648:1 736:1 831:1 892:1 943:1 1019:1 1068:1 1135:1 1211:1 1257:1 1313:1 1346:1 1413:1 1489:1 
0.5 1:1 5:1 11:1 13:1 17:1 22:1 28:1 32:1 35:1 40:1 43:1 47:1 52:1 56:1 59:1 63:1 68:1 69:1 73:1 78:1 81:1 99:1 121:1 129:1 146:1 168:1 192:1 207:1 220:1 239:1 251:1 268:1 288:1 303:1 315:1 332:1 349:1 353:1 370:1 387:1 457:1 545:1 578:1 648:1 736:1 831:1 892:1 943:1 1019:1 1068:1 1136:1 1215:1 1275:1 1324:1 1389:1 1457:1 1474:1 
-0.5 1:1 5:1 11:1 13:1 17:1 23:1 27:1 32:1 35:1 40:1 43:1 47:1 52:1 53:1 59:1 61:1 67:1 71:1 75:1 79:1 81:1 99:1 121:1 129:1 147:1 171:1 188:1 207:1 220:1 239:1 251:1 268:1 285:1 291:1 313:1 323:1 347:1 363:1 379:1 387:1 457:1 545:1 579:1 651:1 748:1 815:1 892:1 943:1 1019:1 1068:1 1133:1 1203:1 1225:1 1315:1 1355:1 1451:1 1515:1 
0.5 1:1 5:1 11:1 13:1 17:1 23:1 28:1 32:1 35:1 40:1 43:1 47:1 52:1 53:1 57:1 61:1 65:1 71:1 76:1 77:1 81:1 99:1 121:1 129:1 147:1 172:1 192:1 207:1 220:1 239:1 251:1 268:1 285:1 289:1 305:1 321:1 339:1 364:1 381:1 387:1 457:1 545:1 579:1 652:1 752:1 831:1 892:1 943:1 1019:1 1068:1 1133:1 1201:1 1217:1 1281:1 1347:1 1420:1 1517:1 
0.5 1:1 5:1 11:1 13:1 17:1 23:1 28:1 32:1 35:1 40:1 43:1 47:1 52:1 56:1 57:1 64:1 68:1 72:1 73:1 77:1 81:1 99:1 121:1 129:1 147:1 172:1 192:1 207:1 220:1 239:1 251:1 268:1 288:1 301:1 308:1 336:1 352:1 365:1 369:1 387:1 457:1 545:1 579:1 652:1 752:1 831:1 892:1 943:1 1019:1 1068:1 1136:1 1213:1 1268:1 1296:1 1408:1 1469:1 1521:1 
-0.27372141207231782 1:1 5:1 11:1 13:1 17:1 24:1 26:1 32:1 35:1 40:1 43:1 47:1 52:1 54:1 59:1 64:1 65:1 72:1 76:1 80:1 81:1 99:1 121:1 129:1 148:1 174:1 184:1 207:1 220:1 239:1 251:1 268:1 286:1 295:1 316:1 333:1 340:1 368:1 384:1 387:1 457:1 545:1 580:1 654:1 760:1 799:1 892:1 943:1 1019:1 1068:1 1134:1 1207:1 1244:1 1325:1 1396:1 1424:1 1536:1 
0.5 1:1 5:1 11:1 13:1 17:1 24:1 28:1 31:1 35:1 40:1 43:1 47:1 52:1 54:1 57:1 63:1 66:1 69:1 76:1 80:1 81:1 99:1 121:1 129:1 148:1 176:1 191:1 203:1 220:1 239:1 251:1 268:1 286:1 293:1 307:1 330:1 341:1 356:1 384:1 387:1 457:1 545:1 580:1 656:1 767:1 827:1 876:1 943:1 1019:1 1068:1 1134:1 1205:1 1235:1 1290:1 1381:1 1428:1 1488:1 
0.057394898763125438 1:1 5:1 11:1 13:1 18:1 21:1 27:1 32:1 35:1 40:1 43:1 47:1 52:1 53:1 58:1 64:1 65:1 71:1 74:1 77:1 81:1 99:1 121:1 130:1 149:1 163:1 188:1 207:1 220:1 239:1 251:1 268:1 285:1 290:1 312:1 333:1 339:1 362:1 373:1 387:1 457:1 546:1 581:1 659:1 716:1 815:1 892:1 943:1 1019:1 1068:1 1133:1 1202:1 1224:1 1309:1 1395:1 1418:1 1509:1 
0.3231233088328585 1:1 5:1 11:1 13:1 18:1 22:1 28:1 29:1 35:1 40:1 43:1 47:1 52:1 56:1 60:1 64:1 66:1 69:1 76:1 80:1 81:1 99:1 121:1 130:1 150:1 168:1 189:1 195:1 220:1 239:1 251:1 268:1 288:1 304:1 320:1 334:1 341:1 356:1 384:1 387:1 457:1 546:1 582:1 664:1 733:1 819:1 844:1 943:1 1019:1 1068:1 1136:1 1216:1 1280:1 1342:1 1397:1 1428:1 1488:1 
-0.5 1:1 5:1 11:1 13:1 18:1 22:1 28:1 32:1 35:1 40:1 43:1 47:1 52:1 56:1 57:1 61:1 66:1 70:1 73:1 79:1 81:1 99:1 121:1 130:1 150:1 168:1 192:1 207:1 220:1 239:1 251:1 268:1 288:1 301:1 305:1 322:1 342:1 357:1 371:1 387:1 457:1 546:1 582:1 664:1 736:1 831:1 892:1 943:1 1019:1 1068:1 1136:1 1213:1 1265:1 1282:1 1350:1 1429:1 1491:1 
-0.5 1:1 5:1 11:1 13:1 18:1 24:1 26:1 32:1 35:1 40:1 43:1 47:1 52:1 56:1 57:1 61:1 65:1 72:1 76:1 77:1 81:1 99:1 121:1 130:1 152:1 174:1 184:1 207:1 220:1 239:1 251:1 268:1 288:1 301:1 305:1 321:1 340:1 368:1 381:1 387:1 457:1 546:1 584:1 670:1 760:1 799:1 892:1 943:1 1019:1 1068:1 1136:1 1213:1 1265:1 1281:1 1348:1 1424:1 1533:1 
-0.5 1:1 5:1 11:1 13:1 18:1 24:1 26:1 32:1 35:1 40:1 43:1 47:1 52:1 56:1 57:1 63:1 68:1 71:1 74:1 80:1 81:1 99:1 121:1 130:1 152:1 174:1 184:1 207:1 220:1 239:1 251:1 268:1 288:1 301:1 307:1 332:1 351:1 362:1 376:1 387:1 457:1 546:1 584:1 670:1 760:1 799:1 892:1 943:1 1019:1 1068:1 1136:1 1213:1 1267:1 1292:1 1391:1 1466:1 1512:1 
0.5 1:1 5:1 11:1 13:1 19:1 21:1 26:1 32:1 35:1 40:1 43:1 47:1 52:1 54:1 60:1 63:1 65:1 70:1 74:1 77:1 81:1 99:1 121:1 131:1 153:1 162:1 184:1 207:1 220:1 239:1 251:1 268:1 286:1 296:1 319:1 329:1 338:1 358:1 373:1 387:1 457:1 547:1 585:1 674:1 712:1 799:1 892:1 943:1 1019:1 1068:1 1134:1 1208:1 1247:1 1337:1 1378:1 1414:1 1493:1 
0.5 1:1 5:1 11:1 13:1 19:1 22:1 25:1 32:1 35:1 40:1 43:1 47:1 52:1 56:1 60:1 62:1 68:1 69:1 75:1 79:1 81:1 99:1 121:1 131:1 154:1 165:1 180:1 207:1 220:1 239:1 251:1 268:1 288:1 304:1 318:1 328:1 349:1 355:1 379:1 387:1 457:1 547:1 586:1 677:1 724:1 783:1 892:1 943:1 1019:1 1068:1 1136:1 1216:1 1278:1 1336:1 1373:1 1459:1 1483:1 
-0.5 1:1 5:1 11:1 13:1 19:1 22:1 26:1 32:1 35:1 40:1 43:1 47:1 52:1 56:1 60:1 62:1 66:1 70:1 74:1 77:1 81:1 99:1 121:1 131:1 154:1 166:1 184:1 207:1 220:1 239:1 251:1 268:1 288:1 304:1 318:1 326:1 342:1 358:1 373:1 387:1 457:1 547:1 586:1 678:1 728:1 799:1 892:1 943:1 1019:1 1068:1 1136:1 1216:1 1278:1 1334:1 1366:1 1430:1 1493:1 
-0.5 1:1 5:1 11:1 13:1 19:1 23:1 25:1 32:1 35:1 40:1 43:1 47:1 52:1 54:1 60:1 62:1 68:1 72:1 76:1 78:1 81:1 99:1 121:1 131:1 155:1 169:1 180:1 207:1 220:1 239:1 251:1 268:1 286:1 296:1 318:1 328:1 352:1 368:1 382:1 387:1 457:1 547:1 587:1 681:1 740:1 783:1 892:1 943:1 1019:1 1068:1 1134:1 1208:1 1246:1 1336:1 1376:1 1472:1 1534:1 
-0.5 1:1 5:1 11:1 13:1 19:1 23:1 25:1 32:1 35:1 40:1 43:1 47:1 52:1 55:1 57:1 61:1 65:1 71:1 73:1 80:1 81:1 99:1 121:1 131:1 155:1 169:1 180:1 207:1 220:1 239:1 251:1 268:1 287:1 297:1 305:1 321:1 339:1 361:1 372:1 387:1 457:1 547:1 587:1 681:1 740:1 783:1 892:1 943:1 1019:1 1068:1 1135:1 1209:1 1249:1 1281:1 1347:1 1417:1 1508:1 
-0.14413611779713165 1:1 5:1 11:1 13:1 19:1 23:1 25:1 32:1 35:1 40:1 43:1 47:1 52:1 55:1 57:1 64:1 68:1 71:1 75:1 78:1 81:1 99:1 121:1 131:1 155:1 169:1 180:1 207:1 220:1 239:1 251:1 268:1 287:1 297:1 308:1 336:1 351:1 363:1 378:1 387:1 457:1 547:1 587:1 681:1 740:1 783:1 892:1 943:1 1019:1 1068:1 1135:1 1209:1 1252:1 1296:1 1407:1 1467:1 1514:1 
0.5 1:1 5:1 11:1 13:1 19:1 23:1 25:1 32:1 35:1 40:1 43:1 47:1 52:1 56:1 59:1 63:1 67:1 71:1 76:1 77:1 81:1 99:1 121:1 131:1 155:1 169:1 180:1 207:1 220:1 239:1 251:1 268:1 288:1 303:1 315:1 331:1 347:1 364:1 381:1 387:1 457:1 547:1 587:1 681:1 740:1 783:1 892:1 943:1 1019:1 1068:1 1136:1 1215:1 1275:1 1323:1 1387:1 1452:1 1517:1 
0.5 1:1 5:1 11:1 13:1 19:1 23:1 25:1 32:1 35:1 40:1 43:1 47:1 52:1 56:1 60:1 62:1 66:1 71:1 74:1 78:1 81:1 99:1 121:1 131:1 155:1 169:1 180:1 207:1 220:1 239:1 251:1 268:1 288:1 304:1 318:1 326:1 343:1 362:1 374:1 387:1 457:1 547:1 587:1 681:1 740:1 783:1 892:1 943:1 1019:1 1068:1 1136:1 1216:1 1278:1 1334:1 1367:1 1434:1 1510:1 
-0.5 1:1 5:1 11:1 13:1 19:1 23:1 25:1 32:1 35:1 40:1 43:1 47:1 52:1 56:1 60:1 63:1 67:1 71:1 74:1 77:1 81:1 99:1 121:1 131:1 155:1 169:1 180:1 207:1 220:1 239:1 251:1 268:1 288:1 304:1 319:1 331:1 347:1 362:1 373:1 387:1 457:1 547:1 587:1 681:1 740:1 783:1 892:1 943:1 1019:1 1068:1 1136:1 1216:1 1279:1 1339:1 1387:1 1450:1 1509:1 
-0.1478434950607449 1:1 5:1 11:1 13:1 19:1 24:1 28:1 32:1 35:1 40:1 43:1 47:1 52:1 56:1 59:1 62:1 66:1 72:1 76:1 77:1 81:1 99:1 121:1 131:1 156:1 176:1 192:1 207:1 220:1 239:1 251:1 268:1 288:1 303:1 314:1 326:1 344:1 368:1 381:1 387:1 457:1 547:1 588:1 688:1 768:1 831:1 892:1 943:1 1019:1 1068:1 1136:1 1215:1 1274:1 1318:1 1368:1 1440:1 1533:1 
-0.5 1:1 5:1 11:1 13:1 20:1 21:1 26:1 32:1 35:1 40:1 43:1 47:1 52:1 53:1 57:1 62:1 65:1 69:1 73:1 78:1 81:1 99:1 121:1 132:1 157:1 162:1 184:1 207:1 220:1 239:1 251:1 268:1 285:1 289:1 306:1 325:1 337:1 353:1 370:1 387:1 457:1 548:1 589:1 690:1 712:1 799:1 892:1 943:1 1019:1 1068:1 1133:1 1201:1 1218:1 1285:1 1361:1 1409:1 1474:1 
0.5 1:1 5:1 11:1 13:1 20:1 21:1 28:1 32:1 35:1 40:1 43:1 47:1 52:1 54:1 57:1 63:1 68:1 71:1 76:1 80:1 81:1 99:1 121:1 132:1 157:1 164:1 192:1 207:1 220:1 239:1 251:1 268:1 286:1 293:1 307:1 332:1 351:1 364:1 384:1 387:1 457:1 548:1 589:1 692:1 720:1 831:1 892:1 943:1 1019:1 1068:1 1134:1 1205:1 1235:1 1292:1 1391:1 1468:1 1520:1 
0.5 1:1 5:1 11:1 13:1 20:1 21:1 28:1 32:1 35:1 40:1 43:1 47:1 52:1 56:1 59:1 63:1 65:1 72:1 75:1 77:1 81:1 99:1 121:1 132:1 157:1 164:1 192:1 207:1 220:1 239:1 251:1 268:1 288:1 303:1 315:1 329:1 340:1 367:1 377:1 387:1 457:1 548:1 589:1 692:1 720:1 831:1 892:1 943:1 1019:1 1068:1 1136:1 1215:1 1275:1 1321:1 1380:1 1423:1 1529:1 
-0.5 1:1 5:1 11:1 13:1 20:1 23:1 27:1 32:1 35:1 40:1 43:1 47:1 52:1 56:1 59:1 61:1 67:1 71:1 75:1 77:1 81:1 99:1 121:1 132:1 159:1 171:1 188:1 207:1 220:1 239:1 251:1 268:1 288:1 303:1 313:1 323:1 347:1 363:1 377:1 387:1 457:1 548:1 591:1 699:1 748:1 815:1 892:1 943:1 1019:1 1068:1 1136:1 1215:1 1273:1 1315:1 1355:1 1451:1 1513:1 
-0.1529506835698814 1:1 5:1 11:1 13:1 20:1 23:1 28:1 32:1 35:1 40:1 43:1 47:1 52:1 55:1 60:1 64:1 68:1 70:1 74:1 77:1 81:1 99:1 121:1 132:1 159:1 172:1 192:1 207:1 220:1 239:1 251:1 268:1 287:1 300:1 320:1 336:1 350:1 358:1 373:1 387:1 457:1 548:1 591:1 700:1 752:1 831:1 892:1 943:1 1019:1 1068:1 1135:1 1212:1 1264:1 1344:1 1406:1 1462:1 1493:1 
0.5 1:1 5:1 11:1 13:1 20:1 24:1 26:1 32:1 35:1 40:1 43:1 47:1 52:1 56:1 58:1 64:1 67:1 72:1 75:1 77:1 81:1 99:1 121:1 132:1 160:1 174:1 184:1 207:1 220:1 239:1 251:1 268:1 288:1 302:1 312:1 335:1 348:1 367:1 377:1 387:1 457:1 548:1 592:1 702:1 760:1 799:1 892:1 943:1 1019:1 1068:1 1136:1 1214:1 1272:1 1311:1 1404:1 1455:1 1529:1 
0.5 1:1 5:1 11:1 13:1 20:1 24:1 26:1 32:1 35:1 40:1 43:1 47:1 52:1 56:1 60:1 62:1 66:1 72:1 75:1 80:1 81:1 99:1 121:1 132:1 160:1 174:1 184:1 207:1 220:1 239:1 251:1 268:1 288:1 304:1 318:1 326:1 344:1 367:1 380:1 387:1 457:1 548:1 592:1 702:1 760:1 799:1 892:1 943:1 1019:1 1068:1 1136:1 1216:1 1278:1 1334:1 1368:1 1439:1 1532:1 
-0.5 1:1 5:1 11:1 14:1 17:1 21:1 25:1 32:1 35:1 40:1 43:1 47:1 52:1 54:1 60:1 61:1 65:1 70:1 75:1 78:1 81:1 99:1 122:1 133:1 145:1 161:1 180:1 207:1 220:1 239:1 251:1 268:1 286:1 296:1 317:1 321:1 338:1 359:1 378:1 387:1 458:1 549:1 593:1 641:1 708:1 783:1 892:1 943:1 1019:1 1068:1 1134:1 1208:1 1245:1 1329:1 1346:1 1415:1 1498:1 
0.5 1:1 5:1 11:1 14:1 17:1 21:1 26:1 29:1 35:1 40:1 43:1 47:1 52:1 56:1 57:1 61:1 65:1 69:1 75:1 77:1 81:1 99:1 122:1 133:1 145:1 162:1 181:1 195:1 220:1 239:1 251:1 268:1 288:1 301:1 305:1 321:1 337:1 355:1 377:1 387:1 458:1 549:1 593:1 642:1 709:1 787:1 844:1 943:1 1019:1 1068:1 1136:1 1213:1 1265:1 1281:1 1345:1 1411:1 1481:1 
0.5 1:1 5:1 11:1 14:1 17:1 21:1 27:1 32:1 35:1 40:1 43:1 47:1 52:1 56:1 60:1 63:1 66:1 72:1 74:1 80:1 81:1 99:1 122:1 133:1 145:1 163:1 188:1 207:1 220:1 239:1 251:1 268:1 288:1 304:1 319:1 330:1 344:1 366:1 376:1 387:1 458:1 549:1 593:1 643:1 716:1 815:1 892:1 943:1 1019:1 1068:1 1136:1 1216:1 1279:1 1338:1 1384:1 1438:1 1528:1 
-0.5 1:1 5:1 11:1 14:1 17:1 21:1 28:1 32:1 35:1 40:1 43:1 47:1 52:1 53:1 60:1 64:1 65:1 69:1 73:1 79:1 81:1 99:1 122:1 133:1 145:1 164:1 192:1 207:1 220:1 239:1 251:1 268:1 285:1 292:1 320:1 333:1 337:1 353:1 371:1 387:1 458:1 549:1 593:1 644:1 720:1 831:1 892:1 943:1 1019:1 1068:1 1133:1 1204:1 1232:1 1341:1 1393:1 1409:1 1475:1 
-0.5 1:1 5:1 11:1 14:1 17:1 22:1 25:1 32:1 35:1 40:1 43:1 47:1 52:1 55:1 59:1 63:1 67:1 70:1 76:1 78:1 81:1 99:1 122:1 133:1 146:1 165:1 180:1 207:1 220:1 239:1 251:1 268:1 287:1 299:1 315:1 331:1 346:1 360:1 382:1 387:1 458:1 549:1 594:1 645:1 724:1 783:1 892:1 943:1 1019:1 1068:1 1135:1 1211:1 1259:1 1323:1 1386:1 1448:1 1502:1 
-0.5 1:1 5:1 11:1 14:1 17:1 22:1 28:1 32:1 35:1 40:1 43:1 47:1 52:1 56:1 59:1 63:1 66:1 69:1 74:1 78:1 81:1 99:1 122:1 133:1 146:1 168:1 192:1 207:1 220:1 239:1 251:1 268:1 288:1 303:1 315:1 330:1 341:1 354:1 374:1 387:1 458:1 549:1 594:1 648:1 736:1 831:1 892:1 943:1 1019:1 1068:1 1136:1 1215:1 1275:1 1322:1 1381:1 1426:1 1478:1 
0.5 1:1 5:1 11:1 14:1 17:1 23:1 25:1 32:1 35:1 40:1 43:1 47:1 52:1 55:1 57:1 61:1 66:1 69:1 74:1 80:1 81:1 99:1 122:1 133:1 147:1 169:1 180:1 207:1 220:1 239:1 251:1 268:1 287:1 297:1 305:1 322:1 341:1 354:1 376:1 387:1 458:1 549:1 595:1 649:1 740:1 783:1 892:1 943:1 1019:1 1068:1 1135:1 1209:1 1249:1 1282:1 1349:1 1426:1 1480:1 
-0.5 1:1 5:1 11:1 14:1 17:1 23:1 26:1 32:1 35:1 40:1 43:1 47:1 52:1 54:1 58:1 64:1 67:1 72:1 74:1 77:1 81:1 99:1 122:1 133:1 147:1 170:1 184:1 207:1 220:1 239:1 251:1 268:1 286:1 294:1 312:1 335:1 348:1 366:1 373:1 387:1 458:1 549:1 595:1 650:1 744:1 799:1 892:1 943:1 1019:1 1068:1 1134:1 1206:1 1240:1 1311:1 1404:1 1454:1 1525:1 
-0.5 1:1 5:1 11:1 14:1 17:1 23:1 26:1 32:1 35:1 40:1 43:1 47:1 52:1 56:1 57:1 61:1 65:1 71:1 74:1 77:1 81:1 99:1 122:1 133:1 147:1 170:1 184:1 207:1 220:1 239:1 251:1 268:1 288:1 301:1 305:1 321:1 339:1 362:1 373:1 387:1 458:1 549:1 595:1 650:1 744:1 799:1 892:1 943:1 1019:1 1068:1 1136:1 1213:1 1265:1 1281:1 1347:1 1418:1 1509:1 
-0.11216090737178804 1:1 5:1 11:1 14:1 17:1 23:1 26:1 32:1 35:1 40:1 43:1 47:1 52:1 56:1 60:1 62:1 66:1 69:1 76:1 80:1 81:1 99:1 122:1 133:1 147:1 170:1 184:1 207:1 220:1 239:1 251:1 268:1 288:1 304:1 318:1 326:1 341:1 356:1 384:1 387:1 458:1 549:1 595:1 650:1 744:1 799:1 892:1 943:1 1019:1 1068:1 1136:1 1216:1 1278:1 1334:1 1365:1 1428:1 1488:1 
0.5 1:1 5:1 11:1 14:1 17:1 23:1 26:1 32:1 35:1 40:1 43:1 47:1 52:1 56:1 60:1 64:1 66:1 72:1 75:1 78:1 81:1 99:1 122:1 133:1 147:1 170:1 184:1 207:1 220:1 239:1 251:1 268:1 288:1 304:1 320:1 334:1 344:1 367:1 378:1 387:1 458:1 549:1 595:1 650:1 744:1 799:1 892:1 943:1 1019:1 1068:1 1136:1 1216:1 1280:1 1342:1 1400:1 1439:1 1530:1 
-0.5 1:1 5:1 11:1 14:1 17:1 23:1 28:1 31:1 35:1 40:1 43:1 47:1 52:1 56:1 58:1 64:1 67:1 69:1 75:1 77:1 81:1 99:1 122:1 133:1 147:1 172:1 191:1 203:1 220:1 239:1 251:1 268:1 288:1 302:1 312:1 335:1 345:1 355:1 377:1 387:1 458:1 549:1 595:1 652:1 751:1 827:1 876:1 943:1 1019:1 1068:1 1136:1 1214:1 1272:1 1311:1 1401:1 1443:1 1481:1 
0.5 1:1 5:1 11:1 14:1 17:1 24:1 28:1 32:1 35:1 40:1 43:1 47:1 52:1 53:1 58:1 61:1 67:1 69:1 75:1 78:1 81:1 99:1 122:1 133:1 148:1 176:1 192:1 207:1 220:1 239:1 251:1 268:1 285:1 290:1 309:1 323:1 345:1 355:1 378:1 387:1 458:1 549:1 596:1 656:1 768:1 831:1 892:1 943:1 1019:1 1068:1 1133:1 1202:1 1221:1 1299:1 1353:1 1443:1 1482:1 
-0.5 1:1 5:1 11:1 14:1 18:1 21:1 25:1 32:1 35:1 40:1 43:1 47:1 52:1 54:1 57:1 64:1 67:1 70:1 76:1 79:1 81:1 99:1 122:1 134:1 149:1 161:1 180:1 207:1 220:1 239:1 251:1 268:1 286:1 293:1 308:1 335:1 346:1 360:1 383:1 387:1 458:1 550:1 597:1 657:1 708:1 783:1 892:1 943:1 1019:1 1068:1 1134:1 1205:1 1236:1 1295:1 1402:1 1448:1 1503:1 
-0.5 1:1 5:1 11:1 14:1 18:1 21:1 25:1 32:1 35:1 40:1 43:1 47:1 52:1 55:1 57:1 61:1 67:1 72:1 75:1 80:1 81:1 99:1 122:1 134:1 149:1 161:1 180:1 207:1 220:1 239:1 251:1 268:1 287:1 297:1 305:1 323:1 348:1 367:1 380:1 387:1 458:1 550:1 597:1 657:1 708:1 783:1 892:1 943:1 1019:1 1068:1 1135:1 1209:1 1249:1 1283:1 1356:1 1455:1 1532:1 
0.5 1:1 5:1 11:1 14:1 18:1 21:1 26:1 32:1 35:1 40:1 43:1 47:1 52:1 54:1 60:1 63:1 66:1 71:1 75:1 78:1 81:1 99:1 122:1 134:1 149:1 162:1 184:1 207:1 220:1 239:1 251:1 268:1 286:1 296:1 319:1 330:1 343:1 363:1 378:1 387:1 458:1 550:1 597:1 658:1 712:1 799:1 892:1 943:1 1019:1 1068:1 1134:1 1208:1 1247:1 1338:1 1383:1 1435:1 1514:1 
-0.5 1:1 5:1 11:1 14:1 18:1 21:1 27:1 32:1 35:1 40:1 43:1 47:1 52:1 56:1 59:1 63:1 67:1 71:1 76:1 79:1 81:1 99:1 122:1 134:1 149:1 163:1 188:1 207:1 220:1 239:1 251:1 268:1 288:1 303:1 315:1 331:1 347:1 364:1 383:1 387:1 458:1 550:1 597:1 659:1 716:1 815:1 892:1 943:1 1019:1 1068:1 1136:1 1215:1 1275:1 1323:1 1387:1 1452:1 1519:1 
-0.5 1:1 5:1 11:1 14:1 18:1 21:1 27:1 32:1 35:1 40:1 43:1 47:1 52:1 56:1 60:1 61:1 66:1 72:1 75:1 79:1 81:1 99:1 122:1 134:1 149:1 163:1 188:1 207:1 220:1 239:1 251:1 268:1 288:1 304:1 317:1 322:1 344:1 367:1 379:1 387:1 458:1 550:1 597:1 659:1 716:1 815:1 892:1 943:1 1019:1 1068:1 1136:1 1216:1 1277:1 1330:1 1352:1 1439:1 1531:1 
-0.5 1:1 5:1 11:1 14:1 18:1 22:1 27:1 32:1 35:1 40:1 43:1 47:1 52:1 54:1 59:1 62:1 67:1 70:1 74:1 79:1 81:1 99:1 122:1 134:1 150:1 167:1 188:1 207:1 220:1 239:1 251:1 268:1 286:1 295:1 314:1 327:1 346:1 358:1 375:1 387:1 458:1 550:1 598:1 663:1 732:1 815:1 892:1 943:1 1019:1 1068:1 1134:1 1207:1 1242:1 1319:1 1370:1 1446:1 1495:1 
0.5 1:1 5:1 11:1 14:1 18:1 22:1 28:1 30:1 35:1 40:1 43:1 47:1 52:1 56:1 60:1 64:1 67:1 72:1 76:1 80:1 81:1 99:1 122:1 134:1 150:1 168:1 190:1 199:1 220:1 239:1 251:1 268:1 288:1 304:1 320:1 335:1 348:1 368:1 384:1 387:1 458:1 550:1 598:1 664:1 734:1 823:1 860:1 943:1 1019:1 1068:1 1136:1 1216:1 1280:1 1343:1 1404:1 1456:1 1536:1 
-0.5 1:1 5:1 11:1 14:1 18:1 23:1 27:1 32:1 35:1 40:1 43:1 47:1 52:1 56:1 57:1 63:1 65:1 71:1 73:1 77:1 81:1 99:1 122:1 134:1 151:1 171:1 188:1 207:1 220:1 239:1 251:1 268:1 288:1 301:1 307:1 329:1 339:1 361:1 369:1 387:1 458:1 550:1 599:1 667:1 748:1 815:1 892:1 943:1 1019:1 1068:1 1136:1 1213:1 1267:1 1289:1 1379:1 1417:1 1505:1 
0.5 1:1 5:1 11:1 14:1 18:1 24:1 27:1 32:1 35:1 40:1 43:1 47:1 52:1 54:1 57:1 63:1 65:1 72:1 76:1 80:1 81:1 99:1 122:1 134:1 152:1 175:1 188:1 207:1 220:1 239:1 251:1 268:1 286:1 293:1 307:1 329:1 340:1 368:1 384:1 387:1 458:1 550:1 600:1 671:1 764:1 815:1 892:1 943:1 1019:1 1068:1 1134:1 1205:1 1235:1 1289:1 1380:1 1424:1 1536:1 
0.26612626940845796 1:1 5:1 11:1 14:1 19:1 22:1 28:1 32:1 35:1 40:1 43:1 47:1 52:1 55:1 58:1 64:1 67:1 72:1 74:1 78:1 81:1 99:1 122:1 135:1 154:1 168:1 192:1 207:1 220:1 239:1 251:1 268:1 287:1 298:1 312:1 335:1 348:1 366:1 374:1 387:1 458:1 551:1 602:1 680:1 736:1 831:1 892:1 943:1 1019:1 1068:1 1135:1 1210:1 1256:1 1311:1 1404:1 1454:1 1526:1 
0.5 1:1 5:1 11:1 14:1 19:1 23:1 26:1 32:1 35:1 40:1 43:1 47:1 52:1 54:1 58:1 64:1 66:1 70:1 76:1 79:1 81:1 99:1 122:1 135:1 155:1 170:1 184:1 207:1 220:1 239:1 251:1 268:1 286:1 294:1 312:1 334:1 342:1 360:1 383:1 387:1 458:1 551:1 603:1 682:1 744:1 799:1 892:1 943:1 1019:1 1068:1 1134:1 1206:1 1240:1 1310:1 1398:1 1432:1 1503:1 
0.5 1:1 5:1 11:1 14:1 19:1 23:1 28:1 32:1 35:1 40:1 43:1 47:1 52:1 56:1 59:1 61:1 66:1 70:1 73:1 77:1 81:1 99:1 122:1 135:1 155:1 172:1 192:1 207:1 220:1 239:1 251:1 268:1 288:1 303:1 313:1 322:1 342:1 357:1 369:1 387:1 458:1 551:1 603:1 684:1 752:1 831:1 892:1 943:1 1019:1 1068:1 1136:1 1215:1 1273:1 1314:1 1350:1 1429:1 1489:1 
-0.5 1:1 5:1 11:1 14:1 19:1 24:1 28:1 32:1 35:1 40:1 43:1 47:1 52:1 56:1 57:1 62:1 65:1 71:1 75:1 79:1 81:1 99:1 122:1 135:1 156:1 176:1 192:1 207:1 220:1 239:1 251:1 268:1 288:1 301:1 306:1 325:1 339:1 363:1 379:1 387:1 458:1 551:1 604:1 688:1 768:1 831:1 892:1 943:1 1019:1 1068:1 1136:1 1213:1 1266:1 1285:1 1363:1 1419:1 1515:1 
-0.5 1:1 5:1 11:1 14:1 20:1 21:1 27:1 32:1 35:1 40:1 43:1 47:1 52:1 54:1 58:1 61:1 66:1 72:1 76:1 79:1 81:1 99:1 122:1 136:1 157:1 163:1 188:1 207:1 220:1 239:1 251:1 268:1 286:1 294:1 309:1 322:1 344:1 368:1 383:1 387:1 458:1 552:1 605:1 691:1 716:1 815:1 892:1 943:1 1019:1 1068:1 1134:1 1206:1 1237:1 1298:1 1352:1 1440:1 1535:1 
-0.5 1:1 5:1 11:1 14:1 20:1 21:1 27:1 32:1 35:1 40:1 43:1 47:1 52:1 56:1 60:1 61:1 67:1 69:1 75:1 78:1 81:1 99:1 122:1 136:1 157:1 163:1 188:1 207:1 220:1 239:1 251:1 268:1 288:1 304:1 317:1 323:1 345:1 355:1 378:1 387:1 458:1 552:1 605:1 691:1 716:1 815:1 892:1 943:1 1019:1 1068:1 1136:1 1216:1 1277:1 1331:1 1353:1 1443:1 1482:1 
-0.5 1:1 5:1 11:1 14:1 20:1 22:1 26:1 32:1 35:1 40:1 43:1 47:1 52:1 55:1 58:1 62:1 65:1 72:1 75:1 77:1 81:1 99:1 122:1 136:1 158:1 166:1 184:1 207:1 220:1 239:1 251:1 268:1 287:1 298:1 310:1 325:1 340:1 367:1 377:1 387:1 458:1 552:1 606:1 694:1 728:1 799:1 892:1 943:1 1019:1 1068:1 1135:1 1210:1 1254:1 1301:1 1364:1 1423:1 1529:1 
0.5 1:1 5:1 11:1 14:1 20:1 22:1 28:1 32:1 35:1 40:1 43:1 47:1 52:1 56:1 58:1 62:1 68:1 71:1 75:1 78:1 81:1 99:1 122:1 136:1 158:1 168:1 192:1 207:1 220:1 239:1 251:1 268:1 288:1 302:1 310:1 328:1 351:1 363:1 378:1 387:1 458:1 552:1 606:1 696:1 736:1 831:1 892:1 943:1 1019:1 1068:1 1136:1 1214:1 1270:1 1304:1 1375:1 1467:1 1514:1 
0.5 1:1 5:1 11:1 14:1 20:1 23:1 26:1 32:1 35:1 40:1 43:1 47:1 52:1 55:1 59:1 63:1 66:1 69:1 75:1 79:1 81:1 99:1 122:1 136:1 159:1 170:1 184:1 207:1 220:1 239:1 251:1 268:1 287:1 299:1 315:1 330:1 341:1 355:1 379:1 387:1 458:1 552:1 607:1 698:1 744:1 799:1 892:1 943:1 1019:1 1068:1 1135:1 1211:1 1259:1 1322:1 1381:1 1427:1 1483:1 
-0.5 1:1 5:1 11:1 14:1 20:1 23:1 26:1 32:1 35:1 40:1 43:1 47:1 52:1 56:1 60:1 61:1 67:1 71:1 76:1 77:1 81:1 99:1 122:1 136:1 159:1 170:1 184:1 207:1 220:1 239:1 251:1 268:1 288:1 304:1 317:1 323:1 347:1 364:1 381:1 387:1 458:1 552:1 607:1 698:1 744:1 799:1 892:1 943:1 1019:1 1068:1 1136:1 1216:1 1277:1 1331:1 1355:1 1452:1 1517:1 
-0.5 1:1 5:1 11:1 14:1 20:1 23:1 26:1 32:1 35:1 40:1 43:1 47:1 52:1 56:1 60:1 64:1 67:1 72:1 76:1 80:1 81:1 99:1 122:1 136:1 159:1 170:1 184:1 207:1 220:1 239:1 251:1 268:1 288:1 304:1 320:1 335:1 348:1 368:1 384:1 387:1 458:1 552:1 607:1 698:1 744:1 799:1 892:1 943:1 1019:1 1068:1 1136:1 1216:1 1280:1 1343:1 1404:1 1456:1 1536:1 
0.5 1:1 5:1 11:1 14:1 20:1 23:1 27:1 32:1 35:1 40:1 43:1 47:1 52:1 54:1 57:1 63:1 67:1 71:1 73:1 77:1 81:1 99:1 122:1 136:1 159:1 171:1 188:1 207:1 220:1 239:1 251:1 268:1 286:1 293:1 307:1 331:1 347:1 361:1 369:1 387:1 458:1 552:1 607:1 699:1 748:1 815:1 892:1 943:1 1019:1 1068:1 1134:1 1205:1 1235:1 1291:1 1387:1 1449:1 1505:1 
0.5 1:1 5:1 11:1 14:1 20:1 23:1 27:1 32:1 35:1 40:1 43:1 47:1 52:1 56:1 60:1 64:1 68:1 72:1 76:1 77:1 81:1 99:1 122:1 136:1 159:1 171:1 188:1 207:1 220:1 239:1 251:1 268:1 288:1 304:1 320:1 336:1 352:1 368:1 381:1 387:1 458:1 552:1 607:1 699:1 748:1 815:1 892:1 943:1 1019:1 1068:1 1136:1 1216:1 1280:1 1344:1 1408:1 1472:1 1533:1 
-0.5 1:1 5:1 11:1 14:1 20:1 24:1 25:1 32:1 35:1 40:1 43:1 47:1 52:1 56:1 60:1 64:1 68:1 71:1 75:1 77:1 81:1 99:1 122:1 136:1 160:1 173:1 180:1 207:1 220:1 239:1 251:1 268:1 288:1 304:1 320:1 336:1 351:1 363:1 377:1 387:1 458:1 552:1 608:1 701:1 756:1 783:1 892:1 943:1 1019:1 1068:1 1136:1 1216:1 1280:1 1344:1 1407:1 1467:1 1513:1 
-0.5 1:1 5:1 11:1 14:1 20:1 24:1 26:1 29:1 35:1 40:1 43:1 47:1 52:1 56:1 60:1 62:1 66:1 69:1 75:1 79:1 81:1 99:1 122:1 136:1 160:1 174:1 181:1 195:1 220:1 239:1 251:1 268:1 288:1 304:1 318:1 326:1 341:1 355:1 379:1 387:1 458:1 552:1 608:1 702:1 757:1 787:1 844:1 943:1 1019:1 1068:1 1136:1 1216:1 1278:1 1334:1 1365:1 1427:1 1483:1 
0.5 1:1 5:1 11:1 14:1 20:1 24:1 28:1 32:1 35:1 40:1 43:1 47:1 52:1 56:1 58:1 62:1 65:1 71:1 74:1 78:1 81:1 99:1 122:1 136:1 160:1 176:1 192:1 207:1 220:1 239:1 251:1 268:1 288:1 302:1 310:1 325:1 339:1 362:1 374:1 387:1 458:1 552:1 608:1 704:1 768:1 831:1 892:1 943:1 1019:1 1068:1 1136:1 1214:1 1270:1 1301:1 1363:1 1418:1 1510:1 
-0.5 1:1 5:1 11:1 15:1 17:1 21:1 25:1 32:1 35:1 40:1 43:1 47:1 52:1 53:1 57:1 63:1 68:1 70:1 74:1 78:1 81:1 99:1 123:1 137:1 145:1 161:1 180:1 207:1 220:1 239:1 251:1 268:1 285:1 289:1 307:1 332:1 350:1 358:1 374:1 387:1 459:1 553:1 609:1 641:1 708:1 783:1 892:1 943:1 1019:1 1068:1 1133:1 1201:1 1219:1 1292:1 1390:1 1462:1 1494:1 
0.5 1:1 5:1 11:1 15:1 17:1 21:1 27:1 32:1 35:1 40:1 43:1 47:1 52:1 56:1 59:1 63:1 67:1 69:1 73:1 79:1 81:1 99:1 123:1 137:1 145:1 163:1 188:1 207:1 220:1 239:1 251:1 268:1 288:1 303:1 315:1 331:1 345:1 353:1 371:1 387:1 459:1 553:1 609:1 643:1 716:1 815:1 892:1 943:1 1019:1 1068:1 1136:1 1215:1 1275:1 1323:1 1385:1 1441:1 1475:1 
