svm_type epsilon_svr
kernel_type linear
nr_class 2
total_sv 857
rho -0.034823150556355972
probA 0.12967826873628219
SV
0.050000000000000003 1:1 5:1 9:1 16:1 19:1 24:1 27:1 31:1 35:1 40:1 41:1 45:1 49:1 65:1 84:1 111:1 124:1 143:1 155:1 171:1 188:1 205:1 209:1 225:1 292:1 367:1 476:1 527:1 603:1 651:1 716:1 781:1 849:1 
0.050000000000000003 1:1 5:1 9:1 16:1 19:1 24:1 27:1 31:1 35:1 40:1 41:1 47:1 49:1 65:1 84:1 111:1 124:1 143:1 155:1 171:1 188:1 205:1 211:1 225:1 292:1 367:1 476:1 527:1 603:1 651:1 716:1 781:1 851:1 
0.009924437239783139 1:1 5:1 9:1 16:1 19:1 24:1 27:1 31:1 35:1 40:1 43:1 45:1 49:1 65:1 84:1 111:1 124:1 143:1 155:1 171:1 188:1 207:1 217:1 225:1 292:1 367:1 476:1 527:1 603:1 651:1 716:1 783:1 857:1 
-0.050000000000000003 1:1 5:1 9:1 16:1 19:1 24:1 27:1 31:1 35:1 40:1 43:1 46:1 49:1 65:1 84:1 111:1 124:1 143:1 155:1 171:1 188:1 207:1 218:1 225:1 292:1 367:1 476:1 527:1 603:1 651:1 716:1 783:1 858:1 
0.050000000000000003 1:1 5:1 9:1 16:1 19:1 24:1 27:1 31:1 35:1 40:1 43:1 47:1 49:1 65:1 84:1 111:1 124:1 143:1 155:1 171:1 188:1 207:1 219:1 225:1 292:1 367:1 476:1 527:1 603:1 651:1 716:1 783:1 859:1 
-0.050000000000000003 1:1 5:1 9:1 16:1 19:1 24:1 27:1 31:1 35:1 40:1 43:1 48:1 49:1 65:1 84:1 111:1 124:1 143:1 155:1 171:1 188:1 207:1 220:1 225:1 292:1 367:1 476:1 527:1 603:1 651:1 716:1 783:1 860:1 
0.050000000000000003 1:1 5:1 9:1 16:1 19:1 24:1 27:1 31:1 35:1 40:1 44:1 46:1 49:1 65:1 84:1 111:1 124:1 143:1 155:1 171:1 188:1 208:1 222:1 225:1 292:1 367:1 476:1 527:1 603:1 651:1 716:1 784:1 862:1 
-0.050000000000000003 1:1 5:1 9:1 16:1 19:1 24:1 27:1 31:1 35:1 40:1 44:1 47:1 49:1 65:1 84:1 111:1 124:1 143:1 155:1 171:1 188:1 208:1 223:1 225:1 292:1 367:1 476:1 527:1 603:1 651:1 716:1 784:1 863:1 
-0.050000000000000003 1:1 5:1 9:1 16:1 19:1 24:1 27:1 31:1 35:1 40:1 44:1 48:1 49:1 65:1 84:1 111:1 124:1 143:1 155:1 171:1 188:1 208:1 224:1 225:1 292:1 367:1 476:1 527:1 603:1 651:1 716:1 784:1 864:1 
-0.050000000000000003 1:1 5:1 10:1 16:1 19:1 24:1 27:1 31:1 35:1 38:1 41:1 45:1 49:1 66:1 88:1 111:1 124:1 143:1 155:1 171:1 186:1 197:1 209:1 226:1 296:1 383:1 476:1 527:1 603:1 651:1 714:1 773:1 817:1 
-0.050000000000000003 1:1 5:1 10:1 16:1 19:1 24:1 27:1 31:1 35:1 38:1 41:1 46:1 49:1 66:1 88:1 111:1 124:1 143:1 155:1 171:1 186:1 197:1 210:1 226:1 296:1 383:1 476:1 527:1 603:1 651:1 714:1 773:1 818:1 
0.022788324502506025 1:1 5:1 10:1 16:1 19:1 24:1 27:1 31:1 35:1 38:1 41:1 47:1 49:1 66:1 88:1 111:1 124:1 143:1 155:1 171:1 186:1 197:1 211:1 226:1 296:1 383:1 476:1 527:1 603:1 651:1 714:1 773:1 819:1 
-0.050000000000000003 1:1 5:1 10:1 16:1 19:1 24:1 27:1 31:1 35:1 38:1 41:1 48:1 49:1 66:1 88:1 111:1 124:1 143:1 155:1 171:1 186:1 197:1 212:1 226:1 296:1 383:1 476:1 527:1 603:1 651:1 714:1 773:1 820:1 
0.050000000000000003 1:1 5:1 10:1 16:1 19:1 24:1 27:1 31:1 35:1 38:1 43:1 46:1 49:1 66:1 88:1 111:1 124:1 143:1 155:1 171:1 186:1 199:1 218:1 226:1 296:1 383:1 476:1 527:1 603:1 651:1 714:1 775:1 826:1 
0.050000000000000003 1:1 5:1 10:1 16:1 19:1 24:1 27:1 31:1 35:1 38:1 43:1 47:1 49:1 66:1 88:1 111:1 124:1 143:1 155:1 171:1 186:1 199:1 219:1 226:1 296:1 383:1 476:1 527:1 603:1 651:1 714:1 775:1 827:1 
0.050000000000000003 1:1 5:1 10:1 16:1 19:1 24:1 27:1 31:1 35:1 38:1 43:1 48:1 49:1 66:1 88:1 111:1 124:1 143:1 155:1 171:1 186:1 199:1 220:1 226:1 296:1 383:1 476:1 527:1 603:1 651:1 714:1 775:1 828:1 
-0.050000000000000003 1:1 5:1 10:1 16:1 19:1 24:1 27:1 31:1 35:1 40:1 41:1 46:1 49:1 66:1 88:1 111:1 124:1 143:1 155:1 171:1 188:1 205:1 210:1 226:1 296:1 383:1 476:1 527:1 603:1 651:1 716:1 781:1 850:1 
-0.050000000000000003 1:1 5:1 10:1 16:1 19:1 24:1 27:1 31:1 35:1 40:1 41:1 47:1 49:1 66:1 88:1 111:1 124:1 143:1 155:1 171:1 188:1 205:1 211:1 226:1 296:1 383:1 476:1 527:1 603:1 651:1 716:1 781:1 851:1 
-0.050000000000000003 1:1 5:1 10:1 16:1 19:1 24:1 27:1 31:1 35:1 40:1 43:1 45:1 49:1 66:1 88:1 111:1 124:1 143:1 155:1 171:1 188:1 207:1 217:1 226:1 296:1 383:1 476:1 527:1 603:1 651:1 716:1 783:1 857:1 
-0.050000000000000003 1:1 5:1 10:1 16:1 19:1 24:1 27:1 31:1 35:1 40:1 43:1 46:1 49:1 66:1 88:1 111:1 124:1 143:1 155:1 171:1 188:1 207:1 218:1 226:1 296:1 383:1 476:1 527:1 603:1 651:1 716:1 783:1 858:1 
0.050000000000000003 1:1 5:1 10:1 16:1 19:1 24:1 27:1 31:1 35:1 40:1 44:1 46:1 49:1 66:1 88:1 111:1 124:1 143:1 155:1 171:1 188:1 208:1 222:1 226:1 296:1 383:1 476:1 527:1 603:1 651:1 716:1 784:1 862:1 
0.050000000000000003 1:1 5:1 10:1 16:1 19:1 24:1 27:1 31:1 35:1 40:1 44:1 47:1 49:1 66:1 88:1 111:1 124:1 143:1 155:1 171:1 188:1 208:1 223:1 226:1 296:1 383:1 476:1 527:1 603:1 651:1 716:1 784:1 863:1 
0.050000000000000003 1:1 5:1 10:1 16:1 19:1 24:1 27:1 31:1 35:1 40:1 44:1 48:1 49:1 66:1 88:1 111:1 124:1 143:1 155:1 171:1 188:1 208:1 224:1 226:1 296:1 383:1 476:1 527:1 603:1 651:1 716:1 784:1 864:1 
0.050000000000000003 1:1 5:1 12:1 16:1 19:1 24:1 27:1 31:1 35:1 37:1 41:1 45:1 49:1 68:1 96:1 111:1 124:1 143:1 155:1 171:1 185:1 193:1 209:1 228:1 304:1 415:1 476:1 527:1 603:1 651:1 713:1 769:1 801:1 
0.031477605106492862 1:1 5:1 12:1 16:1 19:1 24:1 27:1 31:1 35:1 37:1 41:1 46:1 49:1 68:1 96:1 111:1 124:1 143:1 155:1 171:1 185:1 193:1 210:1 228:1 304:1 415:1 476:1 527:1 603:1 651:1 713:1 769:1 802:1 
-0.050000000000000003 1:1 5:1 12:1 16:1 19:1 24:1 27:1 31:1 35:1 37:1 41:1 47:1 49:1 68:1 96:1 111:1 124:1 143:1 155:1 171:1 185:1 193:1 211:1 228:1 304:1 415:1 476:1 527:1 603:1 651:1 713:1 769:1 803:1 
0.050000000000000003 1:1 5:1 12:1 16:1 19:1 24:1 27:1 31:1 35:1 37:1 44:1 45:1 49:1 68:1 96:1 111:1 124:1 143:1 155:1 171:1 185:1 196:1 221:1 228:1 304:1 415:1 476:1 527:1 603:1 651:1 713:1 772:1 813:1 
-0.050000000000000003 1:1 5:1 12:1 16:1 19:1 24:1 27:1 31:1 35:1 37:1 44:1 46:1 49:1 68:1 96:1 111:1 124:1 143:1 155:1 171:1 185:1 196:1 222:1 228:1 304:1 415:1 476:1 527:1 603:1 651:1 713:1 772:1 814:1 
-0.026504248198752259 1:1 5:1 12:1 16:1 19:1 24:1 27:1 31:1 35:1 37:1 44:1 47:1 49:1 68:1 96:1 111:1 124:1 143:1 155:1 171:1 185:1 196:1 223:1 228:1 304:1 415:1 476:1 527:1 603:1 651:1 713:1 772:1 815:1 
-0.050000000000000003 1:1 5:1 12:1 16:1 19:1 24:1 27:1 31:1 35:1 37:1 44:1 48:1 49:1 68:1 96:1 111:1 124:1 143:1 155:1 171:1 185:1 196:1 224:1 228:1 304:1 415:1 476:1 527:1 603:1 651:1 713:1 772:1 816:1 
0.050000000000000003 1:1 5:1 12:1 16:1 19:1 24:1 27:1 31:1 35:1 38:1 41:1 45:1 49:1 68:1 96:1 111:1 124:1 143:1 155:1 171:1 186:1 197:1 209:1 228:1 304:1 415:1 476:1 527:1 603:1 651:1 714:1 773:1 817:1 
-0.050000000000000003 1:1 5:1 12:1 16:1 19:1 24:1 27:1 31:1 35:1 38:1 41:1 46:1 49:1 68:1 96:1 111:1 124:1 143:1 155:1 171:1 186:1 197:1 210:1 228:1 304:1 415:1 476:1 527:1 603:1 651:1 714:1 773:1 818:1 
-0.050000000000000003 1:1 5:1 12:1 16:1 19:1 24:1 27:1 31:1 35:1 38:1 41:1 48:1 49:1 68:1 96:1 111:1 124:1 143:1 155:1 171:1 186:1 197:1 212:1 228:1 304:1 415:1 476:1 527:1 603:1 651:1 714:1 773:1 820:1 
0.050000000000000003 1:1 5:1 12:1 16:1 19:1 24:1 27:1 31:1 35:1 38:1 43:1 46:1 49:1 68:1 96:1 111:1 124:1 143:1 155:1 171:1 186:1 199:1 218:1 228:1 304:1 415:1 476:1 527:1 603:1 651:1 714:1 775:1 826:1 
-0.050000000000000003 1:1 5:1 12:1 16:1 19:1 24:1 27:1 31:1 35:1 40:1 41:1 46:1 49:1 68:1 96:1 111:1 124:1 143:1 155:1 171:1 188:1 205:1 210:1 228:1 304:1 415:1 476:1 527:1 603:1 651:1 716:1 781:1 850:1 
-0.050000000000000003 1:1 5:1 12:1 16:1 19:1 24:1 27:1 31:1 35:1 40:1 41:1 47:1 49:1 68:1 96:1 111:1 124:1 143:1 155:1 171:1 188:1 205:1 211:1 228:1 304:1 415:1 476:1 527:1 603:1 651:1 716:1 781:1 851:1 
0.050000000000000003 1:1 5:1 12:1 16:1 19:1 24:1 27:1 31:1 35:1 40:1 41:1 48:1 49:1 68:1 96:1 111:1 124:1 143:1 155:1 171:1 188:1 205:1 212:1 228:1 304:1 415:1 476:1 527:1 603:1 651:1 716:1 781:1 852:1 
0.050000000000000003 1:1 5:1 12:1 16:1 19:1 24:1 27:1 31:1 35:1 40:1 43:1 45:1 49:1 68:1 96:1 111:1 124:1 143:1 155:1 171:1 188:1 207:1 217:1 228:1 304:1 415:1 476:1 527:1 603:1 651:1 716:1 783:1 857:1 
0.050000000000000003 1:1 5:1 12:1 16:1 19:1 24:1 27:1 31:1 35:1 40:1 43:1 46:1 49:1 68:1 96:1 111:1 124:1 143:1 155:1 171:1 188:1 207:1 218:1 228:1 304:1 415:1 476:1 527:1 603:1 651:1 716:1 783:1 858:1 
-0.050000000000000003 1:1 5:1 12:1 16:1 19:1 24:1 27:1 31:1 35:1 40:1 43:1 47:1 49:1 68:1 96:1 111:1 124:1 143:1 155:1 171:1 188:1 207:1 219:1 228:1 304:1 415:1 476:1 527:1 603:1 651:1 716:1 783:1 859:1 
0.050000000000000003 1:1 5:1 12:1 16:1 19:1 24:1 27:1 31:1 35:1 40:1 44:1 48:1 49:1 68:1 96:1 111:1 124:1 143:1 155:1 171:1 188:1 208:1 224:1 228:1 304:1 415:1 476:1 527:1 603:1 651:1 716:1 784:1 864:1 
-0.041745859612862507 1:1 6:1 9:1 16:1 19:1 24:1 27:1 31:1 35:1 40:1 41:1 46:1 50:1 69:1 84:1 111:1 124:1 143:1 155:1 171:1 188:1 205:1 210:1 229:1 308:1 367:1 476:1 527:1 603:1 651:1 716:1 781:1 850:1 
0.050000000000000003 1:1 6:1 9:1 16:1 19:1 24:1 27:1 31:1 35:1 40:1 41:1 47:1 50:1 69:1 84:1 111:1 124:1 143:1 155:1 171:1 188:1 205:1 211:1 229:1 308:1 367:1 476:1 527:1 603:1 651:1 716:1 781:1 851:1 
0.014305504475436498 1:1 6:1 9:1 16:1 19:1 24:1 27:1 31:1 35:1 40:1 41:1 48:1 50:1 69:1 84:1 111:1 124:1 143:1 155:1 171:1 188:1 205:1 212:1 229:1 308:1 367:1 476:1 527:1 603:1 651:1 716:1 781:1 852:1 
0.050000000000000003 1:1 6:1 9:1 16:1 19:1 24:1 27:1 31:1 35:1 40:1 43:1 48:1 50:1 69:1 84:1 111:1 124:1 143:1 155:1 171:1 188:1 207:1 220:1 229:1 308:1 367:1 476:1 527:1 603:1 651:1 716:1 783:1 860:1 
-0.050000000000000003 1:1 6:1 9:1 16:1 19:1 24:1 27:1 31:1 35:1 40:1 44:1 46:1 50:1 69:1 84:1 111:1 124:1 143:1 155:1 171:1 188:1 208:1 222:1 229:1 308:1 367:1 476:1 527:1 603:1 651:1 716:1 784:1 862:1 
-0.050000000000000003 1:1 6:1 9:1 16:1 19:1 24:1 27:1 31:1 35:1 40:1 44:1 47:1 50:1 69:1 84:1 111:1 124:1 143:1 155:1 171:1 188:1 208:1 223:1 229:1 308:1 367:1 476:1 527:1 603:1 651:1 716:1 784:1 863:1 
0.050000000000000003 1:1 6:1 9:1 16:1 19:1 24:1 27:1 31:1 35:1 40:1 44:1 48:1 50:1 69:1 84:1 111:1 124:1 143:1 155:1 171:1 188:1 208:1 224:1 229:1 308:1 367:1 476:1 527:1 603:1 651:1 716:1 784:1 864:1 
-0.050000000000000003 1:1 6:1 10:1 16:1 19:1 24:1 27:1 31:1 35:1 38:1 41:1 45:1 50:1 70:1 88:1 111:1 124:1 143:1 155:1 171:1 186:1 197:1 209:1 230:1 312:1 383:1 476:1 527:1 603:1 651:1 714:1 773:1 817:1 
0.050000000000000003 1:1 6:1 10:1 16:1 19:1 24:1 27:1 31:1 35:1 38:1 41:1 46:1 50:1 70:1 88:1 111:1 124:1 143:1 155:1 171:1 186:1 197:1 210:1 230:1 312:1 383:1 476:1 527:1 603:1 651:1 714:1 773:1 818:1 
0.050000000000000003 1:1 6:1 10:1 16:1 19:1 24:1 27:1 31:1 35:1 38:1 41:1 47:1 50:1 70:1 88:1 111:1 124:1 143:1 155:1 171:1 186:1 197:1 211:1 230:1 312:1 383:1 476:1 527:1 603:1 651:1 714:1 773:1 819:1 
0.030909949076880688 1:1 6:1 10:1 16:1 19:1 24:1 27:1 31:1 35:1 38:1 41:1 48:1 50:1 70:1 88:1 111:1 124:1 143:1 155:1 171:1 186:1 197:1 212:1 230:1 312:1 383:1 476:1 527:1 603:1 651:1 714:1 773:1 820:1 
-0.050000000000000003 1:1 6:1 10:1 16:1 19:1 24:1 27:1 31:1 35:1 38:1 43:1 45:1 50:1 70:1 88:1 111:1 124:1 143:1 155:1 171:1 186:1 199:1 217:1 230:1 312:1 383:1 476:1 527:1 603:1 651:1 714:1 775:1 825:1 
0.050000000000000003 1:1 6:1 10:1 16:1 19:1 24:1 27:1 31:1 35:1 38:1 43:1 46:1 50:1 70:1 88:1 111:1 124:1 143:1 155:1 171:1 186:1 199:1 218:1 230:1 312:1 383:1 476:1 527:1 603:1 651:1 714:1 775:1 826:1 
-0.050000000000000003 1:1 6:1 10:1 16:1 19:1 24:1 27:1 31:1 35:1 38:1 43:1 47:1 50:1 70:1 88:1 111:1 124:1 143:1 155:1 171:1 186:1 199:1 219:1 230:1 312:1 383:1 476:1 527:1 603:1 651:1 714:1 775:1 827:1 
-0.050000000000000003 1:1 6:1 10:1 16:1 19:1 24:1 27:1 31:1 35:1 40:1 41:1 45:1 50:1 70:1 88:1 111:1 124:1 143:1 155:1 171:1 188:1 205:1 209:1 230:1 312:1 383:1 476:1 527:1 603:1 651:1 716:1 781:1 849:1 
-0.050000000000000003 1:1 6:1 10:1 16:1 19:1 24:1 27:1 31:1 35:1 40:1 41:1 47:1 50:1 70:1 88:1 111:1 124:1 143:1 155:1 171:1 188:1 205:1 211:1 230:1 312:1 383:1 476:1 527:1 603:1 651:1 716:1 781:1 851:1 
0.050000000000000003 1:1 6:1 10:1 16:1 19:1 24:1 27:1 31:1 35:1 40:1 43:1 47:1 50:1 70:1 88:1 111:1 124:1 143:1 155:1 171:1 188:1 207:1 219:1 230:1 312:1 383:1 476:1 527:1 603:1 651:1 716:1 783:1 859:1 
-0.050000000000000003 1:1 6:1 10:1 16:1 19:1 24:1 27:1 31:1 35:1 40:1 43:1 48:1 50:1 70:1 88:1 111:1 124:1 143:1 155:1 171:1 188:1 207:1 220:1 230:1 312:1 383:1 476:1 527:1 603:1 651:1 716:1 783:1 860:1 
-0.050000000000000003 1:1 6:1 10:1 16:1 19:1 24:1 27:1 31:1 35:1 40:1 44:1 46:1 50:1 70:1 88:1 111:1 124:1 143:1 155:1 171:1 188:1 208:1 222:1 230:1 312:1 383:1 476:1 527:1 603:1 651:1 716:1 784:1 862:1 
0.050000000000000003 1:1 6:1 10:1 16:1 19:1 24:1 27:1 31:1 35:1 40:1 44:1 47:1 50:1 70:1 88:1 111:1 124:1 143:1 155:1 171:1 188:1 208:1 223:1 230:1 312:1 383:1 476:1 527:1 603:1 651:1 716:1 784:1 863:1 
0.050000000000000003 1:1 6:1 10:1 16:1 19:1 24:1 27:1 31:1 35:1 40:1 44:1 48:1 50:1 70:1 88:1 111:1 124:1 143:1 155:1 171:1 188:1 208:1 224:1 230:1 312:1 383:1 476:1 527:1 603:1 651:1 716:1 784:1 864:1 
0.050000000000000003 1:1 6:1 12:1 16:1 19:1 24:1 27:1 31:1 35:1 37:1 41:1 47:1 50:1 72:1 96:1 111:1 124:1 143:1 155:1 171:1 185:1 193:1 211:1 232:1 320:1 415:1 476:1 527:1 603:1 651:1 713:1 769:1 803:1 
-0.050000000000000003 1:1 6:1 12:1 16:1 19:1 24:1 27:1 31:1 35:1 37:1 41:1 48:1 50:1 72:1 96:1 111:1 124:1 143:1 155:1 171:1 185:1 193:1 212:1 232:1 320:1 415:1 476:1 527:1 603:1 651:1 713:1 769:1 804:1 
0.04161492951410161 1:1 6:1 12:1 16:1 19:1 24:1 27:1 31:1 35:1 37:1 42:1 48:1 50:1 72:1 96:1 111:1 124:1 143:1 155:1 171:1 185:1 194:1 216:1 232:1 320:1 415:1 476:1 527:1 603:1 651:1 713:1 770:1 808:1 
-0.050000000000000003 1:1 6:1 12:1 16:1 19:1 24:1 27:1 31:1 35:1 37:1 43:1 45:1 50:1 72:1 96:1 111:1 124:1 143:1 155:1 171:1 185:1 195:1 217:1 232:1 320:1 415:1 476:1 527:1 603:1 651:1 713:1 771:1 809:1 
0.050000000000000003 1:1 6:1 12:1 16:1 19:1 24:1 27:1 31:1 35:1 37:1 43:1 47:1 50:1 72:1 96:1 111:1 124:1 143:1 155:1 171:1 185:1 195:1 219:1 232:1 320:1 415:1 476:1 527:1 603:1 651:1 713:1 771:1 811:1 
-0.050000000000000003 1:1 6:1 12:1 16:1 19:1 24:1 27:1 31:1 35:1 38:1 41:1 45:1 50:1 72:1 96:1 111:1 124:1 143:1 155:1 171:1 186:1 197:1 209:1 232:1 320:1 415:1 476:1 527:1 603:1 651:1 714:1 773:1 817:1 
0.050000000000000003 1:1 6:1 12:1 16:1 19:1 24:1 27:1 31:1 35:1 38:1 41:1 47:1 50:1 72:1 96:1 111:1 124:1 143:1 155:1 171:1 186:1 197:1 211:1 232:1 320:1 415:1 476:1 527:1 603:1 651:1 714:1 773:1 819:1 
0.050000000000000003 1:1 6:1 12:1 16:1 19:1 24:1 27:1 31:1 35:1 38:1 42:1 45:1 50:1 72:1 96:1 111:1 124:1 143:1 155:1 171:1 186:1 198:1 213:1 232:1 320:1 415:1 476:1 527:1 603:1 651:1 714:1 774:1 821:1 
-0.050000000000000003 1:1 6:1 12:1 16:1 19:1 24:1 27:1 31:1 35:1 38:1 42:1 46:1 50:1 72:1 96:1 111:1 124:1 143:1 155:1 171:1 186:1 198:1 214:1 232:1 320:1 415:1 476:1 527:1 603:1 651:1 714:1 774:1 822:1 
-0.050000000000000003 1:1 6:1 12:1 16:1 19:1 24:1 27:1 31:1 35:1 38:1 44:1 47:1 50:1 72:1 96:1 111:1 124:1 143:1 155:1 171:1 186:1 200:1 223:1 232:1 320:1 415:1 476:1 527:1 603:1 651:1 714:1 776:1 831:1 
0.050000000000000003 1:1 6:1 12:1 16:1 19:1 24:1 27:1 31:1 35:1 38:1 44:1 48:1 50:1 72:1 96:1 111:1 124:1 143:1 155:1 171:1 186:1 200:1 224:1 232:1 320:1 415:1 476:1 527:1 603:1 651:1 714:1 776:1 832:1 
0.00060920687939704731 1:1 6:1 12:1 16:1 19:1 24:1 27:1 31:1 35:1 40:1 41:1 45:1 50:1 72:1 96:1 111:1 124:1 143:1 155:1 171:1 188:1 205:1 209:1 232:1 320:1 415:1 476:1 527:1 603:1 651:1 716:1 781:1 849:1 
-0.050000000000000003 1:1 6:1 12:1 16:1 19:1 24:1 27:1 31:1 35:1 40:1 41:1 46:1 50:1 72:1 96:1 111:1 124:1 143:1 155:1 171:1 188:1 205:1 210:1 232:1 320:1 415:1 476:1 527:1 603:1 651:1 716:1 781:1 850:1 
-0.050000000000000003 1:1 6:1 12:1 16:1 19:1 24:1 27:1 31:1 35:1 40:1 41:1 47:1 50:1 72:1 96:1 111:1 124:1 143:1 155:1 171:1 188:1 205:1 211:1 232:1 320:1 415:1 476:1 527:1 603:1 651:1 716:1 781:1 851:1 
0.050000000000000003 1:1 6:1 12:1 16:1 19:1 24:1 27:1 31:1 35:1 40:1 41:1 48:1 50:1 72:1 96:1 111:1 124:1 143:1 155:1 171:1 188:1 205:1 212:1 232:1 320:1 415:1 476:1 527:1 603:1 651:1 716:1 781:1 852:1 
0.050000000000000003 1:1 6:1 12:1 16:1 19:1 24:1 27:1 31:1 35:1 40:1 42:1 46:1 50:1 72:1 96:1 111:1 124:1 143:1 155:1 171:1 188:1 206:1 214:1 232:1 320:1 415:1 476:1 527:1 603:1 651:1 716:1 782:1 854:1 
-0.050000000000000003 1:1 6:1 12:1 16:1 19:1 24:1 27:1 31:1 35:1 40:1 42:1 48:1 50:1 72:1 96:1 111:1 124:1 143:1 155:1 171:1 188:1 206:1 216:1 232:1 320:1 415:1 476:1 527:1 603:1 651:1 716:1 782:1 856:1 
0.050000000000000003 1:1 6:1 12:1 16:1 19:1 24:1 27:1 31:1 35:1 40:1 43:1 47:1 50:1 72:1 96:1 111:1 124:1 143:1 155:1 171:1 188:1 207:1 219:1 232:1 320:1 415:1 476:1 527:1 603:1 651:1 716:1 783:1 859:1 
-0.050000000000000003 1:1 6:1 12:1 16:1 19:1 24:1 27:1 31:1 35:1 40:1 43:1 48:1 50:1 72:1 96:1 111:1 124:1 143:1 155:1 171:1 188:1 207:1 220:1 232:1 320:1 415:1 476:1 527:1 603:1 651:1 716:1 783:1 860:1 
0.050000000000000003 1:1 6:1 12:1 16:1 19:1 24:1 27:1 31:1 35:1 40:1 44:1 46:1 50:1 72:1 96:1 111:1 124:1 143:1 155:1 171:1 188:1 208:1 222:1 232:1 320:1 415:1 476:1 527:1 603:1 651:1 716:1 784:1 862:1 
-0.050000000000000003 1:1 6:1 12:1 16:1 19:1 24:1 27:1 31:1 35:1 40:1 44:1 48:1 50:1 72:1 96:1 111:1 124:1 143:1 155:1 171:1 188:1 208:1 224:1 232:1 320:1 415:1 476:1 527:1 603:1 651:1 716:1 784:1 864:1 
0.032201850970278709 1:1 7:1 9:1 16:1 19:1 24:1 27:1 31:1 35:1 40:1 41:1 46:1 51:1 73:1 84:1 111:1 124:1 143:1 155:1 171:1 188:1 205:1 210:1 233:1 324:1 367:1 476:1 527:1 603:1 651:1 716:1 781:1 850:1 
0.050000000000000003 1:1 7:1 9:1 16:1 19:1 24:1 27:1 31:1 35:1 40:1 41:1 47:1 51:1 73:1 84:1 111:1 124:1 143:1 155:1 171:1 188:1 205:1 211:1 233:1 324:1 367:1 476:1 527:1 603:1 651:1 716:1 781:1 851:1 
-0.050000000000000003 1:1 7:1 9:1 16:1 19:1 24:1 27:1 31:1 35:1 40:1 43:1 45:1 51:1 73:1 84:1 111:1 124:1 143:1 155:1 171:1 188:1 207:1 217:1 233:1 324:1 367:1 476:1 527:1 603:1 651:1 716:1 783:1 857:1 
0.050000000000000003 1:1 7:1 9:1 16:1 19:1 24:1 27:1 31:1 35:1 40:1 43:1 46:1 51:1 73:1 84:1 111:1 124:1 143:1 155:1 171:1 188:1 207:1 218:1 233:1 324:1 367:1 476:1 527:1 603:1 651:1 716:1 783:1 858:1 
-0.050000000000000003 1:1 7:1 9:1 16:1 19:1 24:1 27:1 31:1 35:1 40:1 43:1 47:1 51:1 73:1 84:1 111:1 124:1 143:1 155:1 171:1 188:1 207:1 219:1 233:1 324:1 367:1 476:1 527:1 603:1 651:1 716:1 783:1 859:1 
0.050000000000000003 1:1 7:1 9:1 16:1 19:1 24:1 27:1 31:1 35:1 40:1 43:1 48:1 51:1 73:1 84:1 111:1 124:1 143:1 155:1 171:1 188:1 207:1 220:1 233:1 324:1 367:1 476:1 527:1 603:1 651:1 716:1 783:1 860:1 
0.050000000000000003 1:1 7:1 9:1 16:1 19:1 24:1 27:1 31:1 35:1 40:1 44:1 45:1 51:1 73:1 84:1 111:1 124:1 143:1 155:1 171:1 188:1 208:1 221:1 233:1 324:1 367:1 476:1 527:1 603:1 651:1 716:1 784:1 861:1 
-0.050000000000000003 1:1 7:1 9:1 16:1 19:1 24:1 27:1 31:1 35:1 40:1 44:1 46:1 51:1 73:1 84:1 111:1 124:1 143:1 155:1 171:1 188:1 208:1 222:1 233:1 324:1 367:1 476:1 527:1 603:1 651:1 716:1 784:1 862:1 
-0.050000000000000003 1:1 7:1 9:1 16:1 19:1 24:1 27:1 31:1 35:1 40:1 44:1 47:1 51:1 73:1 84:1 111:1 124:1 143:1 155:1 171:1 188:1 208:1 223:1 233:1 324:1 367:1 476:1 527:1 603:1 651:1 716:1 784:1 863:1 
-0.050000000000000003 1:1 7:1 9:1 16:1 19:1 24:1 27:1 31:1 35:1 40:1 44:1 48:1 51:1 73:1 84:1 111:1 124:1 143:1 155:1 171:1 188:1 208:1 224:1 233:1 324:1 367:1 476:1 527:1 603:1 651:1 716:1 784:1 864:1 
-0.050000000000000003 1:1 7:1 10:1 16:1 19:1 24:1 27:1 31:1 35:1 38:1 41:1 45:1 51:1 74:1 88:1 111:1 124:1 143:1 155:1 171:1 186:1 197:1 209:1 234:1 328:1 383:1 476:1 527:1 603:1 651:1 714:1 773:1 817:1 
-0.050000000000000003 1:1 7:1 10:1 16:1 19:1 24:1 27:1 31:1 35:1 38:1 41:1 46:1 51:1 74:1 88:1 111:1 124:1 143:1 155:1 171:1 186:1 197:1 210:1 234:1 328:1 383:1 476:1 527:1 603:1 651:1 714:1 773:1 818:1 
0.050000000000000003 1:1 7:1 10:1 16:1 19:1 24:1 27:1 31:1 35:1 38:1 41:1 47:1 51:1 74:1 88:1 111:1 124:1 143:1 155:1 171:1 186:1 197:1 211:1 234:1 328:1 383:1 476:1 527:1 603:1 651:1 714:1 773:1 819:1 
-0.050000000000000003 1:1 7:1 10:1 16:1 19:1 24:1 27:1 31:1 35:1 38:1 41:1 48:1 51:1 74:1 88:1 111:1 124:1 143:1 155:1 171:1 186:1 197:1 212:1 234:1 328:1 383:1 476:1 527:1 603:1 651:1 714:1 773:1 820:1 
0.050000000000000003 1:1 7:1 10:1 16:1 19:1 24:1 27:1 31:1 35:1 38:1 42:1 46:1 51:1 74:1 88:1 111:1 124:1 143:1 155:1 171:1 186:1 198:1 214:1 234:1 328:1 383:1 476:1 527:1 603:1 651:1 714:1 774:1 822:1 
-0.050000000000000003 1:1 7:1 10:1 16:1 19:1 24:1 27:1 31:1 35:1 38:1 42:1 47:1 51:1 74:1 88:1 111:1 124:1 143:1 155:1 171:1 186:1 198:1 215:1 234:1 328:1 383:1 476:1 527:1 603:1 651:1 714:1 774:1 823:1 
0.050000000000000003 1:1 7:1 10:1 16:1 19:1 24:1 27:1 31:1 35:1 38:1 42:1 48:1 51:1 74:1 88:1 111:1 124:1 143:1 155:1 171:1 186:1 198:1 216:1 234:1 328:1 383:1 476:1 527:1 603:1 651:1 714:1 774:1 824:1 
0.050000000000000003 1:1 7:1 10:1 16:1 19:1 24:1 27:1 31:1 35:1 38:1 43:1 46:1 51:1 74:1 88:1 111:1 124:1 143:1 155:1 171:1 186:1 199:1 218:1 234:1 328:1 383:1 476:1 527:1 603:1 651:1 714:1 775:1 826:1 
0.050000000000000003 1:1 7:1 10:1 16:1 19:1 24:1 27:1 31:1 35:1 38:1 43:1 47:1 51:1 74:1 88:1 111:1 124:1 143:1 155:1 171:1 186:1 199:1 219:1 234:1 328:1 383:1 476:1 527:1 603:1 651:1 714:1 775:1 827:1 
0.050000000000000003 1:1 7:1 10:1 16:1 19:1 24:1 27:1 31:1 35:1 38:1 44:1 45:1 51:1 74:1 88:1 111:1 124:1 143:1 155:1 171:1 186:1 200:1 221:1 234:1 328:1 383:1 476:1 527:1 603:1 651:1 714:1 776:1 829:1 
0.045097160199233932 1:1 7:1 10:1 16:1 19:1 24:1 27:1 31:1 35:1 38:1 44:1 46:1 51:1 74:1 88:1 111:1 124:1 143:1 155:1 171:1 186:1 200:1 222:1 234:1 328:1 383:1 476:1 527:1 603:1 651:1 714:1 776:1 830:1 
-0.050000000000000003 1:1 7:1 10:1 16:1 19:1 24:1 27:1 31:1 35:1 38:1 44:1 47:1 51:1 74:1 88:1 111:1 124:1 143:1 155:1 171:1 186:1 200:1 223:1 234:1 328:1 383:1 476:1 527:1 603:1 651:1 714:1 776:1 831:1 
-0.03697239512613465 1:1 7:1 10:1 16:1 19:1 24:1 27:1 31:1 35:1 38:1 44:1 48:1 51:1 74:1 88:1 111:1 124:1 143:1 155:1 171:1 186:1 200:1 224:1 234:1 328:1 383:1 476:1 527:1 603:1 651:1 714:1 776:1 832:1 
-0.050000000000000003 1:1 7:1 10:1 16:1 19:1 24:1 27:1 31:1 35:1 40:1 41:1 47:1 51:1 74:1 88:1 111:1 124:1 143:1 155:1 171:1 188:1 205:1 211:1 234:1 328:1 383:1 476:1 527:1 603:1 651:1 716:1 781:1 851:1 
-0.050000000000000003 1:1 7:1 10:1 16:1 19:1 24:1 27:1 31:1 35:1 40:1 41:1 48:1 51:1 74:1 88:1 111:1 124:1 143:1 155:1 171:1 188:1 205:1 212:1 234:1 328:1 383:1 476:1 527:1 603:1 651:1 716:1 781:1 852:1 
-0.050000000000000003 1:1 7:1 10:1 16:1 19:1 24:1 27:1 31:1 35:1 40:1 42:1 45:1 51:1 74:1 88:1 111:1 124:1 143:1 155:1 171:1 188:1 206:1 213:1 234:1 328:1 383:1 476:1 527:1 603:1 651:1 716:1 782:1 853:1 
-0.050000000000000003 1:1 7:1 10:1 16:1 19:1 24:1 27:1 31:1 35:1 40:1 42:1 46:1 51:1 74:1 88:1 111:1 124:1 143:1 155:1 171:1 188:1 206:1 214:1 234:1 328:1 383:1 476:1 527:1 603:1 651:1 716:1 782:1 854:1 
-0.050000000000000003 1:1 7:1 10:1 16:1 19:1 24:1 27:1 31:1 35:1 40:1 43:1 45:1 51:1 74:1 88:1 111:1 124:1 143:1 155:1 171:1 188:1 207:1 217:1 234:1 328:1 383:1 476:1 527:1 603:1 651:1 716:1 783:1 857:1 
0.050000000000000003 1:1 7:1 10:1 16:1 19:1 24:1 27:1 31:1 35:1 40:1 43:1 46:1 51:1 74:1 88:1 111:1 124:1 143:1 155:1 171:1 188:1 207:1 218:1 234:1 328:1 383:1 476:1 527:1 603:1 651:1 716:1 783:1 858:1 
-0.050000000000000003 1:1 7:1 10:1 16:1 19:1 24:1 27:1 31:1 35:1 40:1 43:1 47:1 51:1 74:1 88:1 111:1 124:1 143:1 155:1 171:1 188:1 207:1 219:1 234:1 328:1 383:1 476:1 527:1 603:1 651:1 716:1 783:1 859:1 
0.050000000000000003 1:1 7:1 10:1 16:1 19:1 24:1 27:1 31:1 35:1 40:1 44:1 45:1 51:1 74:1 88:1 111:1 124:1 143:1 155:1 171:1 188:1 208:1 221:1 234:1 328:1 383:1 476:1 527:1 603:1 651:1 716:1 784:1 861:1 
0.050000000000000003 1:1 7:1 10:1 16:1 19:1 24:1 27:1 31:1 35:1 40:1 44:1 46:1 51:1 74:1 88:1 111:1 124:1 143:1 155:1 171:1 188:1 208:1 222:1 234:1 328:1 383:1 476:1 527:1 603:1 651:1 716:1 784:1 862:1 
0.050000000000000003 1:1 7:1 10:1 16:1 19:1 24:1 27:1 31:1 35:1 40:1 44:1 47:1 51:1 74:1 88:1 111:1 124:1 143:1 155:1 171:1 188:1 208:1 223:1 234:1 328:1 383:1 476:1 527:1 603:1 651:1 716:1 784:1 863:1 
0.050000000000000003 1:1 7:1 10:1 16:1 19:1 24:1 27:1 31:1 35:1 40:1 44:1 48:1 51:1 74:1 88:1 111:1 124:1 143:1 155:1 171:1 188:1 208:1 224:1 234:1 328:1 383:1 476:1 527:1 603:1 651:1 716:1 784:1 864:1 
0.050000000000000003 1:1 7:1 12:1 16:1 19:1 24:1 27:1 31:1 35:1 37:1 41:1 45:1 51:1 76:1 96:1 111:1 124:1 143:1 155:1 171:1 185:1 193:1 209:1 236:1 336:1 415:1 476:1 527:1 603:1 651:1 713:1 769:1 801:1 
0.050000000000000003 1:1 7:1 12:1 16:1 19:1 24:1 27:1 31:1 35:1 37:1 41:1 46:1 51:1 76:1 96:1 111:1 124:1 143:1 155:1 171:1 185:1 193:1 210:1 236:1 336:1 415:1 476:1 527:1 603:1 651:1 713:1 769:1 802:1 
0.050000000000000003 1:1 7:1 12:1 16:1 19:1 24:1 27:1 31:1 35:1 37:1 41:1 47:1 51:1 76:1 96:1 111:1 124:1 143:1 155:1 171:1 185:1 193:1 211:1 236:1 336:1 415:1 476:1 527:1 603:1 651:1 713:1 769:1 803:1 
-0.050000000000000003 1:1 7:1 12:1 16:1 19:1 24:1 27:1 31:1 35:1 37:1 41:1 48:1 51:1 76:1 96:1 111:1 124:1 143:1 155:1 171:1 185:1 193:1 212:1 236:1 336:1 415:1 476:1 527:1 603:1 651:1 713:1 769:1 804:1 
0.036018094246248453 1:1 7:1 12:1 16:1 19:1 24:1 27:1 31:1 35:1 37:1 42:1 46:1 51:1 76:1 96:1 111:1 124:1 143:1 155:1 171:1 185:1 194:1 214:1 236:1 336:1 415:1 476:1 527:1 603:1 651:1 713:1 770:1 806:1 
-0.050000000000000003 1:1 7:1 12:1 16:1 19:1 24:1 27:1 31:1 35:1 37:1 43:1 45:1 51:1 76:1 96:1 111:1 124:1 143:1 155:1 171:1 185:1 195:1 217:1 236:1 336:1 415:1 476:1 527:1 603:1 651:1 713:1 771:1 809:1 
-0.014562582535841398 1:1 7:1 12:1 16:1 19:1 24:1 27:1 31:1 35:1 37:1 43:1 46:1 51:1 76:1 96:1 111:1 124:1 143:1 155:1 171:1 185:1 195:1 218:1 236:1 336:1 415:1 476:1 527:1 603:1 651:1 713:1 771:1 810:1 
-0.050000000000000003 1:1 7:1 12:1 16:1 19:1 24:1 27:1 31:1 35:1 37:1 43:1 47:1 51:1 76:1 96:1 111:1 124:1 143:1 155:1 171:1 185:1 195:1 219:1 236:1 336:1 415:1 476:1 527:1 603:1 651:1 713:1 771:1 811:1 
-0.050000000000000003 1:1 7:1 12:1 16:1 19:1 24:1 27:1 31:1 35:1 37:1 43:1 48:1 51:1 76:1 96:1 111:1 124:1 143:1 155:1 171:1 185:1 195:1 220:1 236:1 336:1 415:1 476:1 527:1 603:1 651:1 713:1 771:1 812:1 
-0.050000000000000003 1:1 7:1 12:1 16:1 19:1 24:1 27:1 31:1 35:1 37:1 44:1 45:1 51:1 76:1 96:1 111:1 124:1 143:1 155:1 171:1 185:1 196:1 221:1 236:1 336:1 415:1 476:1 527:1 603:1 651:1 713:1 772:1 813:1 
-0.050000000000000003 1:1 7:1 12:1 16:1 19:1 24:1 27:1 31:1 35:1 37:1 44:1 46:1 51:1 76:1 96:1 111:1 124:1 143:1 155:1 171:1 185:1 196:1 222:1 236:1 336:1 415:1 476:1 527:1 603:1 651:1 713:1 772:1 814:1 
0.050000000000000003 1:1 7:1 12:1 16:1 19:1 24:1 27:1 31:1 35:1 37:1 44:1 47:1 51:1 76:1 96:1 111:1 124:1 143:1 155:1 171:1 185:1 196:1 223:1 236:1 336:1 415:1 476:1 527:1 603:1 651:1 713:1 772:1 815:1 
-0.050000000000000003 1:1 7:1 12:1 16:1 19:1 24:1 27:1 31:1 35:1 37:1 44:1 48:1 51:1 76:1 96:1 111:1 124:1 143:1 155:1 171:1 185:1 196:1 224:1 236:1 336:1 415:1 476:1 527:1 603:1 651:1 713:1 772:1 816:1 
0.050000000000000003 1:1 7:1 12:1 16:1 19:1 24:1 27:1 31:1 35:1 38:1 41:1 47:1 51:1 76:1 96:1 111:1 124:1 143:1 155:1 171:1 186:1 197:1 211:1 236:1 336:1 415:1 476:1 527:1 603:1 651:1 714:1 773:1 819:1 
0.050000000000000003 1:1 7:1 12:1 16:1 19:1 24:1 27:1 31:1 35:1 38:1 42:1 47:1 51:1 76:1 96:1 111:1 124:1 143:1 155:1 171:1 186:1 198:1 215:1 236:1 336:1 415:1 476:1 527:1 603:1 651:1 714:1 774:1 823:1 
0.050000000000000003 1:1 7:1 12:1 16:1 19:1 24:1 27:1 31:1 35:1 38:1 42:1 48:1 51:1 76:1 96:1 111:1 124:1 143:1 155:1 171:1 186:1 198:1 216:1 236:1 336:1 415:1 476:1 527:1 603:1 651:1 714:1 774:1 824:1 
-0.050000000000000003 1:1 7:1 12:1 16:1 19:1 24:1 27:1 31:1 35:1 38:1 44:1 45:1 51:1 76:1 96:1 111:1 124:1 143:1 155:1 171:1 186:1 200:1 221:1 236:1 336:1 415:1 476:1 527:1 603:1 651:1 714:1 776:1 829:1 
0.050000000000000003 1:1 7:1 12:1 16:1 19:1 24:1 27:1 31:1 35:1 38:1 44:1 47:1 51:1 76:1 96:1 111:1 124:1 143:1 155:1 171:1 186:1 200:1 223:1 236:1 336:1 415:1 476:1 527:1 603:1 651:1 714:1 776:1 831:1 
0.050000000000000003 1:1 7:1 12:1 16:1 19:1 24:1 27:1 31:1 35:1 40:1 41:1 45:1 51:1 76:1 96:1 111:1 124:1 143:1 155:1 171:1 188:1 205:1 209:1 236:1 336:1 415:1 476:1 527:1 603:1 651:1 716:1 781:1 849:1 
-0.048284617690259088 1:1 7:1 12:1 16:1 19:1 24:1 27:1 31:1 35:1 40:1 41:1 47:1 51:1 76:1 96:1 111:1 124:1 143:1 155:1 171:1 188:1 205:1 211:1 236:1 336:1 415:1 476:1 527:1 603:1 651:1 716:1 781:1 851:1 
-0.050000000000000003 1:1 7:1 12:1 16:1 19:1 24:1 27:1 31:1 35:1 40:1 41:1 48:1 51:1 76:1 96:1 111:1 124:1 143:1 155:1 171:1 188:1 205:1 212:1 236:1 336:1 415:1 476:1 527:1 603:1 651:1 716:1 781:1 852:1 
-0.050000000000000003 1:1 7:1 12:1 16:1 19:1 24:1 27:1 31:1 35:1 40:1 42:1 48:1 51:1 76:1 96:1 111:1 124:1 143:1 155:1 171:1 188:1 206:1 216:1 236:1 336:1 415:1 476:1 527:1 603:1 651:1 716:1 782:1 856:1 
-0.050000000000000003 1:1 7:1 12:1 16:1 19:1 24:1 27:1 31:1 35:1 40:1 43:1 45:1 51:1 76:1 96:1 111:1 124:1 143:1 155:1 171:1 188:1 207:1 217:1 236:1 336:1 415:1 476:1 527:1 603:1 651:1 716:1 783:1 857:1 
-0.050000000000000003 1:1 7:1 12:1 16:1 19:1 24:1 27:1 31:1 35:1 40:1 43:1 46:1 51:1 76:1 96:1 111:1 124:1 143:1 155:1 171:1 188:1 207:1 218:1 236:1 336:1 415:1 476:1 527:1 603:1 651:1 716:1 783:1 858:1 
0.050000000000000003 1:1 7:1 12:1 16:1 19:1 24:1 27:1 31:1 35:1 40:1 43:1 47:1 51:1 76:1 96:1 111:1 124:1 143:1 155:1 171:1 188:1 207:1 219:1 236:1 336:1 415:1 476:1 527:1 603:1 651:1 716:1 783:1 859:1 
0.050000000000000003 1:1 7:1 12:1 16:1 19:1 24:1 27:1 31:1 35:1 40:1 43:1 48:1 51:1 76:1 96:1 111:1 124:1 143:1 155:1 171:1 188:1 207:1 220:1 236:1 336:1 415:1 476:1 527:1 603:1 651:1 716:1 783:1 860:1 
0.050000000000000003 1:1 7:1 12:1 16:1 19:1 24:1 27:1 31:1 35:1 40:1 44:1 45:1 51:1 76:1 96:1 111:1 124:1 143:1 155:1 171:1 188:1 208:1 221:1 236:1 336:1 415:1 476:1 527:1 603:1 651:1 716:1 784:1 861:1 
-0.050000000000000003 1:1 7:1 12:1 16:1 19:1 24:1 27:1 31:1 35:1 40:1 44:1 46:1 51:1 76:1 96:1 111:1 124:1 143:1 155:1 171:1 188:1 208:1 222:1 236:1 336:1 415:1 476:1 527:1 603:1 651:1 716:1 784:1 862:1 
0.050000000000000003 1:1 7:1 12:1 16:1 19:1 24:1 27:1 31:1 35:1 40:1 44:1 47:1 51:1 76:1 96:1 111:1 124:1 143:1 155:1 171:1 188:1 208:1 223:1 236:1 336:1 415:1 476:1 527:1 603:1 651:1 716:1 784:1 863:1 
0.050000000000000003 1:1 7:1 12:1 16:1 19:1 24:1 27:1 31:1 35:1 40:1 44:1 48:1 51:1 76:1 96:1 111:1 124:1 143:1 155:1 171:1 188:1 208:1 224:1 236:1 336:1 415:1 476:1 527:1 603:1 651:1 716:1 784:1 864:1 
-0.050000000000000003 1:1 8:1 9:1 16:1 19:1 24:1 27:1 31:1 35:1 40:1 41:1 45:1 52:1 77:1 84:1 111:1 124:1 143:1 155:1 171:1 188:1 205:1 209:1 237:1 340:1 367:1 476:1 527:1 603:1 651:1 716:1 781:1 849:1 
-0.050000000000000003 1:1 8:1 9:1 16:1 19:1 24:1 27:1 31:1 35:1 40:1 41:1 47:1 52:1 77:1 84:1 111:1 124:1 143:1 155:1 171:1 188:1 205:1 211:1 237:1 340:1 367:1 476:1 527:1 603:1 651:1 716:1 781:1 851:1 
-0.028207473390493443 1:1 8:1 9:1 16:1 19:1 24:1 27:1 31:1 35:1 40:1 43:1 45:1 52:1 77:1 84:1 111:1 124:1 143:1 155:1 171:1 188:1 207:1 217:1 237:1 340:1 367:1 476:1 527:1 603:1 651:1 716:1 783:1 857:1 
-0.010555198082569238 1:1 8:1 9:1 16:1 19:1 24:1 27:1 31:1 35:1 40:1 43:1 46:1 52:1 77:1 84:1 111:1 124:1 143:1 155:1 171:1 188:1 207:1 218:1 237:1 340:1 367:1 476:1 527:1 603:1 651:1 716:1 783:1 858:1 
0.050000000000000003 1:1 8:1 9:1 16:1 19:1 24:1 27:1 31:1 35:1 40:1 43:1 47:1 52:1 77:1 84:1 111:1 124:1 143:1 155:1 171:1 188:1 207:1 219:1 237:1 340:1 367:1 476:1 527:1 603:1 651:1 716:1 783:1 859:1 
0.050000000000000003 1:1 8:1 9:1 16:1 19:1 24:1 27:1 31:1 35:1 40:1 44:1 47:1 52:1 77:1 84:1 111:1 124:1 143:1 155:1 171:1 188:1 208:1 223:1 237:1 340:1 367:1 476:1 527:1 603:1 651:1 716:1 784:1 863:1 
0.050000000000000003 1:1 8:1 10:1 16:1 19:1 24:1 27:1 31:1 35:1 38:1 41:1 45:1 52:1 78:1 88:1 111:1 124:1 143:1 155:1 171:1 186:1 197:1 209:1 238:1 344:1 383:1 476:1 527:1 603:1 651:1 714:1 773:1 817:1 
0.050000000000000003 1:1 8:1 10:1 16:1 19:1 24:1 27:1 31:1 35:1 38:1 41:1 46:1 52:1 78:1 88:1 111:1 124:1 143:1 155:1 171:1 186:1 197:1 210:1 238:1 344:1 383:1 476:1 527:1 603:1 651:1 714:1 773:1 818:1 
-0.050000000000000003 1:1 8:1 10:1 16:1 19:1 24:1 27:1 31:1 35:1 38:1 41:1 47:1 52:1 78:1 88:1 111:1 124:1 143:1 155:1 171:1 186:1 197:1 211:1 238:1 344:1 383:1 476:1 527:1 603:1 651:1 714:1 773:1 819:1 
0.050000000000000003 1:1 8:1 10:1 16:1 19:1 24:1 27:1 31:1 35:1 38:1 41:1 48:1 52:1 78:1 88:1 111:1 124:1 143:1 155:1 171:1 186:1 197:1 212:1 238:1 344:1 383:1 476:1 527:1 603:1 651:1 714:1 773:1 820:1 
0.050000000000000003 1:1 8:1 10:1 16:1 19:1 24:1 27:1 31:1 35:1 38:1 42:1 45:1 52:1 78:1 88:1 111:1 124:1 143:1 155:1 171:1 186:1 198:1 213:1 238:1 344:1 383:1 476:1 527:1 603:1 651:1 714:1 774:1 821:1 
-0.050000000000000003 1:1 8:1 10:1 16:1 19:1 24:1 27:1 31:1 35:1 38:1 42:1 48:1 52:1 78:1 88:1 111:1 124:1 143:1 155:1 171:1 186:1 198:1 216:1 238:1 344:1 383:1 476:1 527:1 603:1 651:1 714:1 774:1 824:1 
-0.050000000000000003 1:1 8:1 10:1 16:1 19:1 24:1 27:1 31:1 35:1 38:1 43:1 45:1 52:1 78:1 88:1 111:1 124:1 143:1 155:1 171:1 186:1 199:1 217:1 238:1 344:1 383:1 476:1 527:1 603:1 651:1 714:1 775:1 825:1 
-0.050000000000000003 1:1 8:1 10:1 16:1 19:1 24:1 27:1 31:1 35:1 38:1 43:1 46:1 52:1 78:1 88:1 111:1 124:1 143:1 155:1 171:1 186:1 199:1 218:1 238:1 344:1 383:1 476:1 527:1 603:1 651:1 714:1 775:1 826:1 
-0.050000000000000003 1:1 8:1 10:1 16:1 19:1 24:1 27:1 31:1 35:1 38:1 43:1 47:1 52:1 78:1 88:1 111:1 124:1 143:1 155:1 171:1 186:1 199:1 219:1 238:1 344:1 383:1 476:1 527:1 603:1 651:1 714:1 775:1 827:1 
-0.050000000000000003 1:1 8:1 10:1 16:1 19:1 24:1 27:1 31:1 35:1 38:1 43:1 48:1 52:1 78:1 88:1 111:1 124:1 143:1 155:1 171:1 186:1 199:1 220:1 238:1 344:1 383:1 476:1 527:1 603:1 651:1 714:1 775:1 828:1 
-0.050000000000000003 1:1 8:1 10:1 16:1 19:1 24:1 27:1 31:1 35:1 38:1 44:1 46:1 52:1 78:1 88:1 111:1 124:1 143:1 155:1 171:1 186:1 200:1 222:1 238:1 344:1 383:1 476:1 527:1 603:1 651:1 714:1 776:1 830:1 
-0.050000000000000003 1:1 8:1 10:1 16:1 19:1 24:1 27:1 31:1 35:1 38:1 44:1 47:1 52:1 78:1 88:1 111:1 124:1 143:1 155:1 171:1 186:1 200:1 223:1 238:1 344:1 383:1 476:1 527:1 603:1 651:1 714:1 776:1 831:1 
0.050000000000000003 1:1 8:1 10:1 16:1 19:1 24:1 27:1 31:1 35:1 40:1 41:1 45:1 52:1 78:1 88:1 111:1 124:1 143:1 155:1 171:1 188:1 205:1 209:1 238:1 344:1 383:1 476:1 527:1 603:1 651:1 716:1 781:1 849:1 
-0.050000000000000003 1:1 8:1 10:1 16:1 19:1 24:1 27:1 31:1 35:1 40:1 41:1 46:1 52:1 78:1 88:1 111:1 124:1 143:1 155:1 171:1 188:1 205:1 210:1 238:1 344:1 383:1 476:1 527:1 603:1 651:1 716:1 781:1 850:1 
-0.050000000000000003 1:1 8:1 10:1 16:1 19:1 24:1 27:1 31:1 35:1 40:1 41:1 48:1 52:1 78:1 88:1 111:1 124:1 143:1 155:1 171:1 188:1 205:1 212:1 238:1 344:1 383:1 476:1 527:1 603:1 651:1 716:1 781:1 852:1 
0.050000000000000003 1:1 8:1 10:1 16:1 19:1 24:1 27:1 31:1 35:1 40:1 42:1 45:1 52:1 78:1 88:1 111:1 124:1 143:1 155:1 171:1 188:1 206:1 213:1 238:1 344:1 383:1 476:1 527:1 603:1 651:1 716:1 782:1 853:1 
-0.050000000000000003 1:1 8:1 10:1 16:1 19:1 24:1 27:1 31:1 35:1 40:1 42:1 46:1 52:1 78:1 88:1 111:1 124:1 143:1 155:1 171:1 188:1 206:1 214:1 238:1 344:1 383:1 476:1 527:1 603:1 651:1 716:1 782:1 854:1 
0.028913907346876589 1:1 8:1 10:1 16:1 19:1 24:1 27:1 31:1 35:1 40:1 42:1 48:1 52:1 78:1 88:1 111:1 124:1 143:1 155:1 171:1 188:1 206:1 216:1 238:1 344:1 383:1 476:1 527:1 603:1 651:1 716:1 782:1 856:1 
0.050000000000000003 1:1 8:1 10:1 16:1 19:1 24:1 27:1 31:1 35:1 40:1 43:1 46:1 52:1 78:1 88:1 111:1 124:1 143:1 155:1 171:1 188:1 207:1 218:1 238:1 344:1 383:1 476:1 527:1 603:1 651:1 716:1 783:1 858:1 
0.050000000000000003 1:1 8:1 10:1 16:1 19:1 24:1 27:1 31:1 35:1 40:1 43:1 47:1 52:1 78:1 88:1 111:1 124:1 143:1 155:1 171:1 188:1 207:1 219:1 238:1 344:1 383:1 476:1 527:1 603:1 651:1 716:1 783:1 859:1 
0.050000000000000003 1:1 8:1 10:1 16:1 19:1 24:1 27:1 31:1 35:1 40:1 43:1 48:1 52:1 78:1 88:1 111:1 124:1 143:1 155:1 171:1 188:1 207:1 220:1 238:1 344:1 383:1 476:1 527:1 603:1 651:1 716:1 783:1 860:1 
-0.050000000000000003 1:1 8:1 10:1 16:1 19:1 24:1 27:1 31:1 35:1 40:1 44:1 45:1 52:1 78:1 88:1 111:1 124:1 143:1 155:1 171:1 188:1 208:1 221:1 238:1 344:1 383:1 476:1 527:1 603:1 651:1 716:1 784:1 861:1 
0.050000000000000003 1:1 8:1 10:1 16:1 19:1 24:1 27:1 31:1 35:1 40:1 44:1 46:1 52:1 78:1 88:1 111:1 124:1 143:1 155:1 171:1 188:1 208:1 222:1 238:1 344:1 383:1 476:1 527:1 603:1 651:1 716:1 784:1 862:1 
0.050000000000000003 1:1 8:1 10:1 16:1 19:1 24:1 27:1 31:1 35:1 40:1 44:1 47:1 52:1 78:1 88:1 111:1 124:1 143:1 155:1 171:1 188:1 208:1 223:1 238:1 344:1 383:1 476:1 527:1 603:1 651:1 716:1 784:1 863:1 
0.050000000000000003 1:1 8:1 10:1 16:1 19:1 24:1 27:1 31:1 35:1 40:1 44:1 48:1 52:1 78:1 88:1 111:1 124:1 143:1 155:1 171:1 188:1 208:1 224:1 238:1 344:1 383:1 476:1 527:1 603:1 651:1 716:1 784:1 864:1 
0.026091743464988909 1:1 8:1 12:1 16:1 19:1 24:1 27:1 31:1 35:1 37:1 41:1 45:1 52:1 80:1 96:1 111:1 124:1 143:1 155:1 171:1 185:1 193:1 209:1 240:1 352:1 415:1 476:1 527:1 603:1 651:1 713:1 769:1 801:1 
0.050000000000000003 1:1 8:1 12:1 16:1 19:1 24:1 27:1 31:1 35:1 37:1 41:1 46:1 52:1 80:1 96:1 111:1 124:1 143:1 155:1 171:1 185:1 193:1 210:1 240:1 352:1 415:1 476:1 527:1 603:1 651:1 713:1 769:1 802:1 
-0.050000000000000003 1:1 8:1 12:1 16:1 19:1 24:1 27:1 31:1 35:1 37:1 41:1 47:1 52:1 80:1 96:1 111:1 124:1 143:1 155:1 171:1 185:1 193:1 211:1 240:1 352:1 415:1 476:1 527:1 603:1 651:1 713:1 769:1 803:1 
0.050000000000000003 1:1 8:1 12:1 16:1 19:1 24:1 27:1 31:1 35:1 37:1 42:1 45:1 52:1 80:1 96:1 111:1 124:1 143:1 155:1 171:1 185:1 194:1 213:1 240:1 352:1 415:1 476:1 527:1 603:1 651:1 713:1 770:1 805:1 
-0.050000000000000003 1:1 8:1 12:1 16:1 19:1 24:1 27:1 31:1 35:1 37:1 42:1 46:1 52:1 80:1 96:1 111:1 124:1 143:1 155:1 171:1 185:1 194:1 214:1 240:1 352:1 415:1 476:1 527:1 603:1 651:1 713:1 770:1 806:1 
0.050000000000000003 1:1 8:1 12:1 16:1 19:1 24:1 27:1 31:1 35:1 37:1 43:1 45:1 52:1 80:1 96:1 111:1 124:1 143:1 155:1 171:1 185:1 195:1 217:1 240:1 352:1 415:1 476:1 527:1 603:1 651:1 713:1 771:1 809:1 
-0.050000000000000003 1:1 8:1 12:1 16:1 19:1 24:1 27:1 31:1 35:1 37:1 43:1 46:1 52:1 80:1 96:1 111:1 124:1 143:1 155:1 171:1 185:1 195:1 218:1 240:1 352:1 415:1 476:1 527:1 603:1 651:1 713:1 771:1 810:1 
-0.023191933996096478 1:1 8:1 12:1 16:1 19:1 24:1 27:1 31:1 35:1 37:1 43:1 47:1 52:1 80:1 96:1 111:1 124:1 143:1 155:1 171:1 185:1 195:1 219:1 240:1 352:1 415:1 476:1 527:1 603:1 651:1 713:1 771:1 811:1 
0.050000000000000003 1:1 8:1 12:1 16:1 19:1 24:1 27:1 31:1 35:1 37:1 43:1 48:1 52:1 80:1 96:1 111:1 124:1 143:1 155:1 171:1 185:1 195:1 220:1 240:1 352:1 415:1 476:1 527:1 603:1 651:1 713:1 771:1 812:1 
0.050000000000000003 1:1 8:1 12:1 16:1 19:1 24:1 27:1 31:1 35:1 37:1 44:1 47:1 52:1 80:1 96:1 111:1 124:1 143:1 155:1 171:1 185:1 196:1 223:1 240:1 352:1 415:1 476:1 527:1 603:1 651:1 713:1 772:1 815:1 
0.050000000000000003 1:1 8:1 12:1 16:1 19:1 24:1 27:1 31:1 35:1 37:1 44:1 48:1 52:1 80:1 96:1 111:1 124:1 143:1 155:1 171:1 185:1 196:1 224:1 240:1 352:1 415:1 476:1 527:1 603:1 651:1 713:1 772:1 816:1 
-0.050000000000000003 1:1 8:1 12:1 16:1 19:1 24:1 27:1 31:1 35:1 38:1 41:1 45:1 52:1 80:1 96:1 111:1 124:1 143:1 155:1 171:1 186:1 197:1 209:1 240:1 352:1 415:1 476:1 527:1 603:1 651:1 714:1 773:1 817:1 
-0.050000000000000003 1:1 8:1 12:1 16:1 19:1 24:1 27:1 31:1 35:1 38:1 41:1 46:1 52:1 80:1 96:1 111:1 124:1 143:1 155:1 171:1 186:1 197:1 210:1 240:1 352:1 415:1 476:1 527:1 603:1 651:1 714:1 773:1 818:1 
-0.050000000000000003 1:1 8:1 12:1 16:1 19:1 24:1 27:1 31:1 35:1 38:1 41:1 47:1 52:1 80:1 96:1 111:1 124:1 143:1 155:1 171:1 186:1 197:1 211:1 240:1 352:1 415:1 476:1 527:1 603:1 651:1 714:1 773:1 819:1 
-0.050000000000000003 1:1 8:1 12:1 16:1 19:1 24:1 27:1 31:1 35:1 38:1 42:1 45:1 52:1 80:1 96:1 111:1 124:1 143:1 155:1 171:1 186:1 198:1 213:1 240:1 352:1 415:1 476:1 527:1 603:1 651:1 714:1 774:1 821:1 
0.050000000000000003 1:1 8:1 12:1 16:1 19:1 24:1 27:1 31:1 35:1 38:1 42:1 48:1 52:1 80:1 96:1 111:1 124:1 143:1 155:1 171:1 186:1 198:1 216:1 240:1 352:1 415:1 476:1 527:1 603:1 651:1 714:1 774:1 824:1 
-0.050000000000000003 1:1 8:1 12:1 16:1 19:1 24:1 27:1 31:1 35:1 38:1 43:1 45:1 52:1 80:1 96:1 111:1 124:1 143:1 155:1 171:1 186:1 199:1 217:1 240:1 352:1 415:1 476:1 527:1 603:1 651:1 714:1 775:1 825:1 
-0.01331912069691623 1:1 8:1 12:1 16:1 19:1 24:1 27:1 31:1 35:1 38:1 43:1 46:1 52:1 80:1 96:1 111:1 124:1 143:1 155:1 171:1 186:1 199:1 218:1 240:1 352:1 415:1 476:1 527:1 603:1 651:1 714:1 775:1 826:1 
0.050000000000000003 1:1 8:1 12:1 16:1 19:1 24:1 27:1 31:1 35:1 38:1 43:1 47:1 52:1 80:1 96:1 111:1 124:1 143:1 155:1 171:1 186:1 199:1 219:1 240:1 352:1 415:1 476:1 527:1 603:1 651:1 714:1 775:1 827:1 
0.050000000000000003 1:1 8:1 12:1 16:1 19:1 24:1 27:1 31:1 35:1 38:1 44:1 47:1 52:1 80:1 96:1 111:1 124:1 143:1 155:1 171:1 186:1 200:1 223:1 240:1 352:1 415:1 476:1 527:1 603:1 651:1 714:1 776:1 831:1 
0.050000000000000003 1:1 8:1 12:1 16:1 19:1 24:1 27:1 31:1 35:1 38:1 44:1 48:1 52:1 80:1 96:1 111:1 124:1 143:1 155:1 171:1 186:1 200:1 224:1 240:1 352:1 415:1 476:1 527:1 603:1 651:1 714:1 776:1 832:1 
0.050000000000000003 1:1 8:1 12:1 16:1 19:1 24:1 27:1 31:1 35:1 40:1 41:1 46:1 52:1 80:1 96:1 111:1 124:1 143:1 155:1 171:1 188:1 205:1 210:1 240:1 352:1 415:1 476:1 527:1 603:1 651:1 716:1 781:1 850:1 
-0.050000000000000003 1:1 8:1 12:1 16:1 19:1 24:1 27:1 31:1 35:1 40:1 41:1 48:1 52:1 80:1 96:1 111:1 124:1 143:1 155:1 171:1 188:1 205:1 212:1 240:1 352:1 415:1 476:1 527:1 603:1 651:1 716:1 781:1 852:1 
-0.050000000000000003 1:1 8:1 12:1 16:1 19:1 24:1 27:1 31:1 35:1 40:1 42:1 46:1 52:1 80:1 96:1 111:1 124:1 143:1 155:1 171:1 188:1 206:1 214:1 240:1 352:1 415:1 476:1 527:1 603:1 651:1 716:1 782:1 854:1 
0.050000000000000003 1:1 8:1 12:1 16:1 19:1 24:1 27:1 31:1 35:1 40:1 42:1 48:1 52:1 80:1 96:1 111:1 124:1 143:1 155:1 171:1 188:1 206:1 216:1 240:1 352:1 415:1 476:1 527:1 603:1 651:1 716:1 782:1 856:1 
0.0097223237946577317 1:1 8:1 12:1 16:1 19:1 24:1 27:1 31:1 35:1 40:1 43:1 45:1 52:1 80:1 96:1 111:1 124:1 143:1 155:1 171:1 188:1 207:1 217:1 240:1 352:1 415:1 476:1 527:1 603:1 651:1 716:1 783:1 857:1 
-0.050000000000000003 1:1 8:1 12:1 16:1 19:1 24:1 27:1 31:1 35:1 40:1 43:1 47:1 52:1 80:1 96:1 111:1 124:1 143:1 155:1 171:1 188:1 207:1 219:1 240:1 352:1 415:1 476:1 527:1 603:1 651:1 716:1 783:1 859:1 
-0.050000000000000003 1:1 8:1 12:1 16:1 19:1 24:1 27:1 31:1 35:1 40:1 43:1 48:1 52:1 80:1 96:1 111:1 124:1 143:1 155:1 171:1 188:1 207:1 220:1 240:1 352:1 415:1 476:1 527:1 603:1 651:1 716:1 783:1 860:1 
0.050000000000000003 1:1 8:1 12:1 16:1 19:1 24:1 27:1 31:1 35:1 40:1 44:1 45:1 52:1 80:1 96:1 111:1 124:1 143:1 155:1 171:1 188:1 208:1 221:1 240:1 352:1 415:1 476:1 527:1 603:1 651:1 716:1 784:1 861:1 
0.050000000000000003 1:1 8:1 12:1 16:1 19:1 24:1 27:1 31:1 35:1 40:1 44:1 46:1 52:1 80:1 96:1 111:1 124:1 143:1 155:1 171:1 188:1 208:1 222:1 240:1 352:1 415:1 476:1 527:1 603:1 651:1 716:1 784:1 862:1 
-0.050000000000000003 1:1 8:1 12:1 16:1 19:1 24:1 27:1 31:1 35:1 40:1 44:1 47:1 52:1 80:1 96:1 111:1 124:1 143:1 155:1 171:1 188:1 208:1 223:1 240:1 352:1 415:1 476:1 527:1 603:1 651:1 716:1 784:1 863:1 
-0.050000000000000003 1:1 8:1 12:1 16:1 19:1 24:1 27:1 31:1 35:1 40:1 44:1 48:1 52:1 80:1 96:1 111:1 124:1 143:1 155:1 171:1 188:1 208:1 224:1 240:1 352:1 415:1 476:1 527:1 603:1 651:1 716:1 784:1 864:1 
0.050000000000000003 2:1 5:1 9:1 16:1 19:1 24:1 27:1 31:1 35:1 40:1 41:1 47:1 53:1 65:1 84:1 111:1 124:1 143:1 155:1 171:1 188:1 205:1 211:1 241:1 292:1 367:1 476:1 527:1 603:1 651:1 716:1 781:1 851:1 
0.050000000000000003 2:1 5:1 9:1 16:1 19:1 24:1 27:1 31:1 35:1 40:1 41:1 48:1 53:1 65:1 84:1 111:1 124:1 143:1 155:1 171:1 188:1 205:1 212:1 241:1 292:1 367:1 476:1 527:1 603:1 651:1 716:1 781:1 852:1 
-0.050000000000000003 2:1 5:1 9:1 16:1 19:1 24:1 27:1 31:1 35:1 40:1 43:1 45:1 53:1 65:1 84:1 111:1 124:1 143:1 155:1 171:1 188:1 207:1 217:1 241:1 292:1 367:1 476:1 527:1 603:1 651:1 716:1 783:1 857:1 
-0.050000000000000003 2:1 5:1 9:1 16:1 19:1 24:1 27:1 31:1 35:1 40:1 43:1 46:1 53:1 65:1 84:1 111:1 124:1 143:1 155:1 171:1 188:1 207:1 218:1 241:1 292:1 367:1 476:1 527:1 603:1 651:1 716:1 783:1 858:1 
-0.050000000000000003 2:1 5:1 9:1 16:1 19:1 24:1 27:1 31:1 35:1 40:1 43:1 48:1 53:1 65:1 84:1 111:1 124:1 143:1 155:1 171:1 188:1 207:1 220:1 241:1 292:1 367:1 476:1 527:1 603:1 651:1 716:1 783:1 860:1 
0.050000000000000003 2:1 5:1 9:1 16:1 19:1 24:1 27:1 31:1 35:1 40:1 44:1 45:1 53:1 65:1 84:1 111:1 124:1 143:1 155:1 171:1 188:1 208:1 221:1 241:1 292:1 367:1 476:1 527:1 603:1 651:1 716:1 784:1 861:1 
-0.020457674465373762 2:1 5:1 9:1 16:1 19:1 24:1 27:1 31:1 35:1 40:1 44:1 47:1 53:1 65:1 84:1 111:1 124:1 143:1 155:1 171:1 188:1 208:1 223:1 241:1 292:1 367:1 476:1 527:1 603:1 651:1 716:1 784:1 863:1 
0.050000000000000003 2:1 5:1 9:1 16:1 19:1 24:1 27:1 31:1 35:1 40:1 44:1 48:1 53:1 65:1 84:1 111:1 124:1 143:1 155:1 171:1 188:1 208:1 224:1 241:1 292:1 367:1 476:1 527:1 603:1 651:1 716:1 784:1 864:1 
0.050000000000000003 2:1 5:1 10:1 16:1 19:1 24:1 27:1 31:1 35:1 38:1 41:1 45:1 53:1 66:1 88:1 111:1 124:1 143:1 155:1 171:1 186:1 197:1 209:1 242:1 296:1 383:1 476:1 527:1 603:1 651:1 714:1 773:1 817:1 
-0.050000000000000003 2:1 5:1 10:1 16:1 19:1 24:1 27:1 31:1 35:1 38:1 41:1 46:1 53:1 66:1 88:1 111:1 124:1 143:1 155:1 171:1 186:1 197:1 210:1 242:1 296:1 383:1 476:1 527:1 603:1 651:1 714:1 773:1 818:1 
-0.050000000000000003 2:1 5:1 10:1 16:1 19:1 24:1 27:1 31:1 35:1 38:1 41:1 47:1 53:1 66:1 88:1 111:1 124:1 143:1 155:1 171:1 186:1 197:1 211:1 242:1 296:1 383:1 476:1 527:1 603:1 651:1 714:1 773:1 819:1 
0.050000000000000003 2:1 5:1 10:1 16:1 19:1 24:1 27:1 31:1 35:1 38:1 41:1 48:1 53:1 66:1 88:1 111:1 124:1 143:1 155:1 171:1 186:1 197:1 212:1 242:1 296:1 383:1 476:1 527:1 603:1 651:1 714:1 773:1 820:1 
0.050000000000000003 2:1 5:1 10:1 16:1 19:1 24:1 27:1 31:1 35:1 38:1 43:1 45:1 53:1 66:1 88:1 111:1 124:1 143:1 155:1 171:1 186:1 199:1 217:1 242:1 296:1 383:1 476:1 527:1 603:1 651:1 714:1 775:1 825:1 
0.050000000000000003 2:1 5:1 10:1 16:1 19:1 24:1 27:1 31:1 35:1 40:1 41:1 45:1 53:1 66:1 88:1 111:1 124:1 143:1 155:1 171:1 188:1 205:1 209:1 242:1 296:1 383:1 476:1 527:1 603:1 651:1 716:1 781:1 849:1 
0.050000000000000003 2:1 5:1 10:1 16:1 19:1 24:1 27:1 31:1 35:1 40:1 41:1 47:1 53:1 66:1 88:1 111:1 124:1 143:1 155:1 171:1 188:1 205:1 211:1 242:1 296:1 383:1 476:1 527:1 603:1 651:1 716:1 781:1 851:1 
-0.050000000000000003 2:1 5:1 10:1 16:1 19:1 24:1 27:1 31:1 35:1 40:1 43:1 45:1 53:1 66:1 88:1 111:1 124:1 143:1 155:1 171:1 188:1 207:1 217:1 242:1 296:1 383:1 476:1 527:1 603:1 651:1 716:1 783:1 857:1 
-0.050000000000000003 2:1 5:1 10:1 16:1 19:1 24:1 27:1 31:1 35:1 40:1 43:1 46:1 53:1 66:1 88:1 111:1 124:1 143:1 155:1 171:1 188:1 207:1 218:1 242:1 296:1 383:1 476:1 527:1 603:1 651:1 716:1 783:1 858:1 
0.006221297352518404 2:1 5:1 10:1 16:1 19:1 24:1 27:1 31:1 35:1 40:1 43:1 47:1 53:1 66:1 88:1 111:1 124:1 143:1 155:1 171:1 188:1 207:1 219:1 242:1 296:1 383:1 476:1 527:1 603:1 651:1 716:1 783:1 859:1 
-0.050000000000000003 2:1 5:1 10:1 16:1 19:1 24:1 27:1 31:1 35:1 40:1 43:1 48:1 53:1 66:1 88:1 111:1 124:1 143:1 155:1 171:1 188:1 207:1 220:1 242:1 296:1 383:1 476:1 527:1 603:1 651:1 716:1 783:1 860:1 
-0.050000000000000003 2:1 5:1 10:1 16:1 19:1 24:1 27:1 31:1 35:1 40:1 44:1 45:1 53:1 66:1 88:1 111:1 124:1 143:1 155:1 171:1 188:1 208:1 221:1 242:1 296:1 383:1 476:1 527:1 603:1 651:1 716:1 784:1 861:1 
0.050000000000000003 2:1 5:1 10:1 16:1 19:1 24:1 27:1 31:1 35:1 40:1 44:1 46:1 53:1 66:1 88:1 111:1 124:1 143:1 155:1 171:1 188:1 208:1 222:1 242:1 296:1 383:1 476:1 527:1 603:1 651:1 716:1 784:1 862:1 
-0.050000000000000003 2:1 5:1 10:1 16:1 19:1 24:1 27:1 31:1 35:1 40:1 44:1 47:1 53:1 66:1 88:1 111:1 124:1 143:1 155:1 171:1 188:1 208:1 223:1 242:1 296:1 383:1 476:1 527:1 603:1 651:1 716:1 784:1 863:1 
0.050000000000000003 2:1 5:1 10:1 16:1 19:1 24:1 27:1 31:1 35:1 40:1 44:1 48:1 53:1 66:1 88:1 111:1 124:1 143:1 155:1 171:1 188:1 208:1 224:1 242:1 296:1 383:1 476:1 527:1 603:1 651:1 716:1 784:1 864:1 
-0.050000000000000003 2:1 5:1 12:1 16:1 19:1 24:1 27:1 31:1 35:1 37:1 41:1 45:1 53:1 68:1 96:1 111:1 124:1 143:1 155:1 171:1 185:1 193:1 209:1 244:1 304:1 415:1 476:1 527:1 603:1 651:1 713:1 769:1 801:1 
-0.050000000000000003 2:1 5:1 12:1 16:1 19:1 24:1 27:1 31:1 35:1 37:1 41:1 46:1 53:1 68:1 96:1 111:1 124:1 143:1 155:1 171:1 185:1 193:1 210:1 244:1 304:1 415:1 476:1 527:1 603:1 651:1 713:1 769:1 802:1 
0.040327437151685915 2:1 5:1 12:1 16:1 19:1 24:1 27:1 31:1 35:1 37:1 41:1 47:1 53:1 68:1 96:1 111:1 124:1 143:1 155:1 171:1 185:1 193:1 211:1 244:1 304:1 415:1 476:1 527:1 603:1 651:1 713:1 769:1 803:1 
-0.050000000000000003 2:1 5:1 12:1 16:1 19:1 24:1 27:1 31:1 35:1 37:1 44:1 47:1 53:1 68:1 96:1 111:1 124:1 143:1 155:1 171:1 185:1 196:1 223:1 244:1 304:1 415:1 476:1 527:1 603:1 651:1 713:1 772:1 815:1 
0.050000000000000003 2:1 5:1 12:1 16:1 19:1 24:1 27:1 31:1 35:1 37:1 44:1 48:1 53:1 68:1 96:1 111:1 124:1 143:1 155:1 171:1 185:1 196:1 224:1 244:1 304:1 415:1 476:1 527:1 603:1 651:1 713:1 772:1 816:1 
-0.050000000000000003 2:1 5:1 12:1 16:1 19:1 24:1 27:1 31:1 35:1 38:1 41:1 47:1 53:1 68:1 96:1 111:1 124:1 143:1 155:1 171:1 186:1 197:1 211:1 244:1 304:1 415:1 476:1 527:1 603:1 651:1 714:1 773:1 819:1 
0.050000000000000003 2:1 5:1 12:1 16:1 19:1 24:1 27:1 31:1 35:1 38:1 43:1 46:1 53:1 68:1 96:1 111:1 124:1 143:1 155:1 171:1 186:1 199:1 218:1 244:1 304:1 415:1 476:1 527:1 603:1 651:1 714:1 775:1 826:1 
0.050000000000000003 2:1 5:1 12:1 16:1 19:1 24:1 27:1 31:1 35:1 40:1 41:1 45:1 53:1 68:1 96:1 111:1 124:1 143:1 155:1 171:1 188:1 205:1 209:1 244:1 304:1 415:1 476:1 527:1 603:1 651:1 716:1 781:1 849:1 
0.050000000000000003 2:1 5:1 12:1 16:1 19:1 24:1 27:1 31:1 35:1 40:1 41:1 46:1 53:1 68:1 96:1 111:1 124:1 143:1 155:1 171:1 188:1 205:1 210:1 244:1 304:1 415:1 476:1 527:1 603:1 651:1 716:1 781:1 850:1 
0.050000000000000003 2:1 5:1 12:1 16:1 19:1 24:1 27:1 31:1 35:1 40:1 41:1 47:1 53:1 68:1 96:1 111:1 124:1 143:1 155:1 171:1 188:1 205:1 211:1 244:1 304:1 415:1 476:1 527:1 603:1 651:1 716:1 781:1 851:1 
0.050000000000000003 2:1 5:1 12:1 16:1 19:1 24:1 27:1 31:1 35:1 40:1 41:1 48:1 53:1 68:1 96:1 111:1 124:1 143:1 155:1 171:1 188:1 205:1 212:1 244:1 304:1 415:1 476:1 527:1 603:1 651:1 716:1 781:1 852:1 
-0.050000000000000003 2:1 5:1 12:1 16:1 19:1 24:1 27:1 31:1 35:1 40:1 43:1 45:1 53:1 68:1 96:1 111:1 124:1 143:1 155:1 171:1 188:1 207:1 217:1 244:1 304:1 415:1 476:1 527:1 603:1 651:1 716:1 783:1 857:1 
-0.050000000000000003 2:1 5:1 12:1 16:1 19:1 24:1 27:1 31:1 35:1 40:1 43:1 47:1 53:1 68:1 96:1 111:1 124:1 143:1 155:1 171:1 188:1 207:1 219:1 244:1 304:1 415:1 476:1 527:1 603:1 651:1 716:1 783:1 859:1 
-0.050000000000000003 2:1 5:1 12:1 16:1 19:1 24:1 27:1 31:1 35:1 40:1 44:1 47:1 53:1 68:1 96:1 111:1 124:1 143:1 155:1 171:1 188:1 208:1 223:1 244:1 304:1 415:1 476:1 527:1 603:1 651:1 716:1 784:1 863:1 
-0.050000000000000003 2:1 5:1 12:1 16:1 19:1 24:1 27:1 31:1 35:1 40:1 44:1 48:1 53:1 68:1 96:1 111:1 124:1 143:1 155:1 171:1 188:1 208:1 224:1 244:1 304:1 415:1 476:1 527:1 603:1 651:1 716:1 784:1 864:1 
0.050000000000000003 2:1 6:1 9:1 16:1 19:1 24:1 27:1 31:1 35:1 40:1 41:1 45:1 54:1 69:1 84:1 111:1 124:1 143:1 155:1 171:1 188:1 205:1 209:1 245:1 308:1 367:1 476:1 527:1 603:1 651:1 716:1 781:1 849:1 
0.050000000000000003 2:1 6:1 9:1 16:1 19:1 24:1 27:1 31:1 35:1 40:1 41:1 46:1 54:1 69:1 84:1 111:1 124:1 143:1 155:1 171:1 188:1 205:1 210:1 245:1 308:1 367:1 476:1 527:1 603:1 651:1 716:1 781:1 850:1 
-0.050000000000000003 2:1 6:1 9:1 16:1 19:1 24:1 27:1 31:1 35:1 40:1 41:1 47:1 54:1 69:1 84:1 111:1 124:1 143:1 155:1 171:1 188:1 205:1 211:1 245:1 308:1 367:1 476:1 527:1 603:1 651:1 716:1 781:1 851:1 
-0.050000000000000003 2:1 6:1 9:1 16:1 19:1 24:1 27:1 31:1 35:1 40:1 43:1 45:1 54:1 69:1 84:1 111:1 124:1 143:1 155:1 171:1 188:1 207:1 217:1 245:1 308:1 367:1 476:1 527:1 603:1 651:1 716:1 783:1 857:1 
0.033531596293436397 2:1 6:1 9:1 16:1 19:1 24:1 27:1 31:1 35:1 40:1 43:1 46:1 54:1 69:1 84:1 111:1 124:1 143:1 155:1 171:1 188:1 207:1 218:1 245:1 308:1 367:1 476:1 527:1 603:1 651:1 716:1 783:1 858:1 
-0.050000000000000003 2:1 6:1 9:1 16:1 19:1 24:1 27:1 31:1 35:1 40:1 43:1 47:1 54:1 69:1 84:1 111:1 124:1 143:1 155:1 171:1 188:1 207:1 219:1 245:1 308:1 367:1 476:1 527:1 603:1 651:1 716:1 783:1 859:1 
-0.050000000000000003 2:1 6:1 9:1 16:1 19:1 24:1 27:1 31:1 35:1 40:1 43:1 48:1 54:1 69:1 84:1 111:1 124:1 143:1 155:1 171:1 188:1 207:1 220:1 245:1 308:1 367:1 476:1 527:1 603:1 651:1 716:1 783:1 860:1 
0.050000000000000003 2:1 6:1 9:1 16:1 19:1 24:1 27:1 31:1 35:1 40:1 44:1 45:1 54:1 69:1 84:1 111:1 124:1 143:1 155:1 171:1 188:1 208:1 221:1 245:1 308:1 367:1 476:1 527:1 603:1 651:1 716:1 784:1 861:1 
0.050000000000000003 2:1 6:1 9:1 16:1 19:1 24:1 27:1 31:1 35:1 40:1 44:1 47:1 54:1 69:1 84:1 111:1 124:1 143:1 155:1 171:1 188:1 208:1 223:1 245:1 308:1 367:1 476:1 527:1 603:1 651:1 716:1 784:1 863:1 
-0.050000000000000003 2:1 6:1 9:1 16:1 19:1 24:1 27:1 31:1 35:1 40:1 44:1 48:1 54:1 69:1 84:1 111:1 124:1 143:1 155:1 171:1 188:1 208:1 224:1 245:1 308:1 367:1 476:1 527:1 603:1 651:1 716:1 784:1 864:1 
0.050000000000000003 2:1 6:1 10:1 16:1 19:1 24:1 27:1 31:1 35:1 38:1 41:1 45:1 54:1 70:1 88:1 111:1 124:1 143:1 155:1 171:1 186:1 197:1 209:1 246:1 312:1 383:1 476:1 527:1 603:1 651:1 714:1 773:1 817:1 
-0.050000000000000003 2:1 6:1 10:1 16:1 19:1 24:1 27:1 31:1 35:1 38:1 41:1 46:1 54:1 70:1 88:1 111:1 124:1 143:1 155:1 171:1 186:1 197:1 210:1 246:1 312:1 383:1 476:1 527:1 603:1 651:1 714:1 773:1 818:1 
0.035473356589139887 2:1 6:1 10:1 16:1 19:1 24:1 27:1 31:1 35:1 38:1 41:1 47:1 54:1 70:1 88:1 111:1 124:1 143:1 155:1 171:1 186:1 197:1 211:1 246:1 312:1 383:1 476:1 527:1 603:1 651:1 714:1 773:1 819:1 
-0.050000000000000003 2:1 6:1 10:1 16:1 19:1 24:1 27:1 31:1 35:1 38:1 43:1 45:1 54:1 70:1 88:1 111:1 124:1 143:1 155:1 171:1 186:1 199:1 217:1 246:1 312:1 383:1 476:1 527:1 603:1 651:1 714:1 775:1 825:1 
0.050000000000000003 2:1 6:1 10:1 16:1 19:1 24:1 27:1 31:1 35:1 38:1 43:1 46:1 54:1 70:1 88:1 111:1 124:1 143:1 155:1 171:1 186:1 199:1 218:1 246:1 312:1 383:1 476:1 527:1 603:1 651:1 714:1 775:1 826:1 
-0.050000000000000003 2:1 6:1 10:1 16:1 19:1 24:1 27:1 31:1 35:1 38:1 43:1 47:1 54:1 70:1 88:1 111:1 124:1 143:1 155:1 171:1 186:1 199:1 219:1 246:1 312:1 383:1 476:1 527:1 603:1 651:1 714:1 775:1 827:1 
-0.050000000000000003 2:1 6:1 10:1 16:1 19:1 24:1 27:1 31:1 35:1 40:1 41:1 45:1 54:1 70:1 88:1 111:1 124:1 143:1 155:1 171:1 188:1 205:1 209:1 246:1 312:1 383:1 476:1 527:1 603:1 651:1 716:1 781:1 849:1 
-0.050000000000000003 2:1 6:1 10:1 16:1 19:1 24:1 27:1 31:1 35:1 40:1 41:1 46:1 54:1 70:1 88:1 111:1 124:1 143:1 155:1 171:1 188:1 205:1 210:1 246:1 312:1 383:1 476:1 527:1 603:1 651:1 716:1 781:1 850:1 
-0.050000000000000003 2:1 6:1 10:1 16:1 19:1 24:1 27:1 31:1 35:1 40:1 41:1 47:1 54:1 70:1 88:1 111:1 124:1 143:1 155:1 171:1 188:1 205:1 211:1 246:1 312:1 383:1 476:1 527:1 603:1 651:1 716:1 781:1 851:1 
0.050000000000000003 2:1 6:1 10:1 16:1 19:1 24:1 27:1 31:1 35:1 40:1 43:1 45:1 54:1 70:1 88:1 111:1 124:1 143:1 155:1 171:1 188:1 207:1 217:1 246:1 312:1 383:1 476:1 527:1 603:1 651:1 716:1 783:1 857:1 
0.050000000000000003 2:1 6:1 10:1 16:1 19:1 24:1 27:1 31:1 35:1 40:1 43:1 46:1 54:1 70:1 88:1 111:1 124:1 143:1 155:1 171:1 188:1 207:1 218:1 246:1 312:1 383:1 476:1 527:1 603:1 651:1 716:1 783:1 858:1 
0.050000000000000003 2:1 6:1 10:1 16:1 19:1 24:1 27:1 31:1 35:1 40:1 43:1 47:1 54:1 70:1 88:1 111:1 124:1 143:1 155:1 171:1 188:1 207:1 219:1 246:1 312:1 383:1 476:1 527:1 603:1 651:1 716:1 783:1 859:1 
-0.050000000000000003 2:1 6:1 10:1 16:1 19:1 24:1 27:1 31:1 35:1 40:1 43:1 48:1 54:1 70:1 88:1 111:1 124:1 143:1 155:1 171:1 188:1 207:1 220:1 246:1 312:1 383:1 476:1 527:1 603:1 651:1 716:1 783:1 860:1 
0.050000000000000003 2:1 6:1 10:1 16:1 19:1 24:1 27:1 31:1 35:1 40:1 44:1 45:1 54:1 70:1 88:1 111:1 124:1 143:1 155:1 171:1 188:1 208:1 221:1 246:1 312:1 383:1 476:1 527:1 603:1 651:1 716:1 784:1 861:1 
0.050000000000000003 2:1 6:1 10:1 16:1 19:1 24:1 27:1 31:1 35:1 40:1 44:1 46:1 54:1 70:1 88:1 111:1 124:1 143:1 155:1 171:1 188:1 208:1 222:1 246:1 312:1 383:1 476:1 527:1 603:1 651:1 716:1 784:1 862:1 
7.9482964246644196e-05 2:1 6:1 10:1 16:1 19:1 24:1 27:1 31:1 35:1 40:1 44:1 47:1 54:1 70:1 88:1 111:1 124:1 143:1 155:1 171:1 188:1 208:1 223:1 246:1 312:1 383:1 476:1 527:1 603:1 651:1 716:1 784:1 863:1 
-0.050000000000000003 2:1 6:1 10:1 16:1 19:1 24:1 27:1 31:1 35:1 40:1 44:1 48:1 54:1 70:1 88:1 111:1 124:1 143:1 155:1 171:1 188:1 208:1 224:1 246:1 312:1 383:1 476:1 527:1 603:1 651:1 716:1 784:1 864:1 
0.050000000000000003 2:1 6:1 12:1 16:1 19:1 24:1 27:1 31:1 35:1 37:1 41:1 45:1 54:1 72:1 96:1 111:1 124:1 143:1 155:1 171:1 185:1 193:1 209:1 248:1 320:1 415:1 476:1 527:1 603:1 651:1 713:1 769:1 801:1 
-0.050000000000000003 2:1 6:1 12:1 16:1 19:1 24:1 27:1 31:1 35:1 37:1 41:1 47:1 54:1 72:1 96:1 111:1 124:1 143:1 155:1 171:1 185:1 193:1 211:1 248:1 320:1 415:1 476:1 527:1 603:1 651:1 713:1 769:1 803:1 
0.050000000000000003 2:1 6:1 12:1 16:1 19:1 24:1 27:1 31:1 35:1 37:1 41:1 48:1 54:1 72:1 96:1 111:1 124:1 143:1 155:1 171:1 185:1 193:1 212:1 248:1 320:1 415:1 476:1 527:1 603:1 651:1 713:1 769:1 804:1 
-0.050000000000000003 2:1 6:1 12:1 16:1 19:1 24:1 27:1 31:1 35:1 37:1 42:1 48:1 54:1 72:1 96:1 111:1 124:1 143:1 155:1 171:1 185:1 194:1 216:1 248:1 320:1 415:1 476:1 527:1 603:1 651:1 713:1 770:1 808:1 
0.050000000000000003 2:1 6:1 12:1 16:1 19:1 24:1 27:1 31:1 35:1 37:1 43:1 45:1 54:1 72:1 96:1 111:1 124:1 143:1 155:1 171:1 185:1 195:1 217:1 248:1 320:1 415:1 476:1 527:1 603:1 651:1 713:1 771:1 809:1 
0.050000000000000003 2:1 6:1 12:1 16:1 19:1 24:1 27:1 31:1 35:1 37:1 43:1 46:1 54:1 72:1 96:1 111:1 124:1 143:1 155:1 171:1 185:1 195:1 218:1 248:1 320:1 415:1 476:1 527:1 603:1 651:1 713:1 771:1 810:1 
0.0034097296422631409 2:1 6:1 12:1 16:1 19:1 24:1 27:1 31:1 35:1 37:1 43:1 48:1 54:1 72:1 96:1 111:1 124:1 143:1 155:1 171:1 185:1 195:1 220:1 248:1 320:1 415:1 476:1 527:1 603:1 651:1 713:1 771:1 812:1 
-0.050000000000000003 2:1 6:1 12:1 16:1 19:1 24:1 27:1 31:1 35:1 37:1 44:1 46:1 54:1 72:1 96:1 111:1 124:1 143:1 155:1 171:1 185:1 196:1 222:1 248:1 320:1 415:1 476:1 527:1 603:1 651:1 713:1 772:1 814:1 
-0.050000000000000003 2:1 6:1 12:1 16:1 19:1 24:1 27:1 31:1 35:1 37:1 44:1 47:1 54:1 72:1 96:1 111:1 124:1 143:1 155:1 171:1 185:1 196:1 223:1 248:1 320:1 415:1 476:1 527:1 603:1 651:1 713:1 772:1 815:1 
-0.050000000000000003 2:1 6:1 12:1 16:1 19:1 24:1 27:1 31:1 35:1 37:1 44:1 48:1 54:1 72:1 96:1 111:1 124:1 143:1 155:1 171:1 185:1 196:1 224:1 248:1 320:1 415:1 476:1 527:1 603:1 651:1 713:1 772:1 816:1 
0.050000000000000003 2:1 6:1 12:1 16:1 19:1 24:1 27:1 31:1 35:1 38:1 41:1 46:1 54:1 72:1 96:1 111:1 124:1 143:1 155:1 171:1 186:1 197:1 210:1 248:1 320:1 415:1 476:1 527:1 603:1 651:1 714:1 773:1 818:1 
0.050000000000000003 2:1 6:1 12:1 16:1 19:1 24:1 27:1 31:1 35:1 38:1 41:1 47:1 54:1 72:1 96:1 111:1 124:1 143:1 155:1 171:1 186:1 197:1 211:1 248:1 320:1 415:1 476:1 527:1 603:1 651:1 714:1 773:1 819:1 
-0.050000000000000003 2:1 6:1 12:1 16:1 19:1 24:1 27:1 31:1 35:1 38:1 41:1 48:1 54:1 72:1 96:1 111:1 124:1 143:1 155:1 171:1 186:1 197:1 212:1 248:1 320:1 415:1 476:1 527:1 603:1 651:1 714:1 773:1 820:1 
-0.050000000000000003 2:1 6:1 12:1 16:1 19:1 24:1 27:1 31:1 35:1 38:1 42:1 45:1 54:1 72:1 96:1 111:1 124:1 143:1 155:1 171:1 186:1 198:1 213:1 248:1 320:1 415:1 476:1 527:1 603:1 651:1 714:1 774:1 821:1 
0.050000000000000003 2:1 6:1 12:1 16:1 19:1 24:1 27:1 31:1 35:1 38:1 42:1 48:1 54:1 72:1 96:1 111:1 124:1 143:1 155:1 171:1 186:1 198:1 216:1 248:1 320:1 415:1 476:1 527:1 603:1 651:1 714:1 774:1 824:1 
-0.050000000000000003 2:1 6:1 12:1 16:1 19:1 24:1 27:1 31:1 35:1 38:1 43:1 46:1 54:1 72:1 96:1 111:1 124:1 143:1 155:1 171:1 186:1 199:1 218:1 248:1 320:1 415:1 476:1 527:1 603:1 651:1 714:1 775:1 826:1 
0.050000000000000003 2:1 6:1 12:1 16:1 19:1 24:1 27:1 31:1 35:1 38:1 43:1 47:1 54:1 72:1 96:1 111:1 124:1 143:1 155:1 171:1 186:1 199:1 219:1 248:1 320:1 415:1 476:1 527:1 603:1 651:1 714:1 775:1 827:1 
-0.050000000000000003 2:1 6:1 12:1 16:1 19:1 24:1 27:1 31:1 35:1 38:1 44:1 45:1 54:1 72:1 96:1 111:1 124:1 143:1 155:1 171:1 186:1 200:1 221:1 248:1 320:1 415:1 476:1 527:1 603:1 651:1 714:1 776:1 829:1 
-0.050000000000000003 2:1 6:1 12:1 16:1 19:1 24:1 27:1 31:1 35:1 38:1 44:1 46:1 54:1 72:1 96:1 111:1 124:1 143:1 155:1 171:1 186:1 200:1 222:1 248:1 320:1 415:1 476:1 527:1 603:1 651:1 714:1 776:1 830:1 
0.050000000000000003 2:1 6:1 12:1 16:1 19:1 24:1 27:1 31:1 35:1 38:1 44:1 47:1 54:1 72:1 96:1 111:1 124:1 143:1 155:1 171:1 186:1 200:1 223:1 248:1 320:1 415:1 476:1 527:1 603:1 651:1 714:1 776:1 831:1 
-0.050000000000000003 2:1 6:1 12:1 16:1 19:1 24:1 27:1 31:1 35:1 38:1 44:1 48:1 54:1 72:1 96:1 111:1 124:1 143:1 155:1 171:1 186:1 200:1 224:1 248:1 320:1 415:1 476:1 527:1 603:1 651:1 714:1 776:1 832:1 
0.050000000000000003 2:1 6:1 12:1 16:1 19:1 24:1 27:1 31:1 35:1 40:1 41:1 45:1 54:1 72:1 96:1 111:1 124:1 143:1 155:1 171:1 188:1 205:1 209:1 248:1 320:1 415:1 476:1 527:1 603:1 651:1 716:1 781:1 849:1 
0.050000000000000003 2:1 6:1 12:1 16:1 19:1 24:1 27:1 31:1 35:1 40:1 41:1 47:1 54:1 72:1 96:1 111:1 124:1 143:1 155:1 171:1 188:1 205:1 211:1 248:1 320:1 415:1 476:1 527:1 603:1 651:1 716:1 781:1 851:1 
-0.050000000000000003 2:1 6:1 12:1 16:1 19:1 24:1 27:1 31:1 35:1 40:1 42:1 45:1 54:1 72:1 96:1 111:1 124:1 143:1 155:1 171:1 188:1 206:1 213:1 248:1 320:1 415:1 476:1 527:1 603:1 651:1 716:1 782:1 853:1 
0.050000000000000003 2:1 6:1 12:1 16:1 19:1 24:1 27:1 31:1 35:1 40:1 42:1 46:1 54:1 72:1 96:1 111:1 124:1 143:1 155:1 171:1 188:1 206:1 214:1 248:1 320:1 415:1 476:1 527:1 603:1 651:1 716:1 782:1 854:1 
-0.0026773504033195073 2:1 6:1 12:1 16:1 19:1 24:1 27:1 31:1 35:1 40:1 42:1 48:1 54:1 72:1 96:1 111:1 124:1 143:1 155:1 171:1 188:1 206:1 216:1 248:1 320:1 415:1 476:1 527:1 603:1 651:1 716:1 782:1 856:1 
-0.050000000000000003 2:1 6:1 12:1 16:1 19:1 24:1 27:1 31:1 35:1 40:1 43:1 45:1 54:1 72:1 96:1 111:1 124:1 143:1 155:1 171:1 188:1 207:1 217:1 248:1 320:1 415:1 476:1 527:1 603:1 651:1 716:1 783:1 857:1 
0.050000000000000003 2:1 6:1 12:1 16:1 19:1 24:1 27:1 31:1 35:1 40:1 43:1 46:1 54:1 72:1 96:1 111:1 124:1 143:1 155:1 171:1 188:1 207:1 218:1 248:1 320:1 415:1 476:1 527:1 603:1 651:1 716:1 783:1 858:1 
-0.050000000000000003 2:1 6:1 12:1 16:1 19:1 24:1 27:1 31:1 35:1 40:1 43:1 48:1 54:1 72:1 96:1 111:1 124:1 143:1 155:1 171:1 188:1 207:1 220:1 248:1 320:1 415:1 476:1 527:1 603:1 651:1 716:1 783:1 860:1 
0.050000000000000003 2:1 6:1 12:1 16:1 19:1 24:1 27:1 31:1 35:1 40:1 44:1 48:1 54:1 72:1 96:1 111:1 124:1 143:1 155:1 171:1 188:1 208:1 224:1 248:1 320:1 415:1 476:1 527:1 603:1 651:1 716:1 784:1 864:1 
0.028184418218301359 2:1 7:1 9:1 16:1 19:1 24:1 27:1 31:1 35:1 40:1 43:1 45:1 55:1 73:1 84:1 111:1 124:1 143:1 155:1 171:1 188:1 207:1 217:1 249:1 324:1 367:1 476:1 527:1 603:1 651:1 716:1 783:1 857:1 
0.050000000000000003 2:1 7:1 9:1 16:1 19:1 24:1 27:1 31:1 35:1 40:1 43:1 46:1 55:1 73:1 84:1 111:1 124:1 143:1 155:1 171:1 188:1 207:1 218:1 249:1 324:1 367:1 476:1 527:1 603:1 651:1 716:1 783:1 858:1 
0.050000000000000003 2:1 7:1 9:1 16:1 19:1 24:1 27:1 31:1 35:1 40:1 43:1 47:1 55:1 73:1 84:1 111:1 124:1 143:1 155:1 171:1 188:1 207:1 219:1 249:1 324:1 367:1 476:1 527:1 603:1 651:1 716:1 783:1 859:1 
-0.050000000000000003 2:1 7:1 9:1 16:1 19:1 24:1 27:1 31:1 35:1 40:1 44:1 47:1 55:1 73:1 84:1 111:1 124:1 143:1 155:1 171:1 188:1 208:1 223:1 249:1 324:1 367:1 476:1 527:1 603:1 651:1 716:1 784:1 863:1 
-0.050000000000000003 2:1 7:1 10:1 16:1 19:1 24:1 27:1 31:1 35:1 38:1 41:1 45:1 55:1 74:1 88:1 111:1 124:1 143:1 155:1 171:1 186:1 197:1 209:1 250:1 328:1 383:1 476:1 527:1 603:1 651:1 714:1 773:1 817:1 
-0.050000000000000003 2:1 7:1 10:1 16:1 19:1 24:1 27:1 31:1 35:1 38:1 41:1 47:1 55:1 74:1 88:1 111:1 124:1 143:1 155:1 171:1 186:1 197:1 211:1 250:1 328:1 383:1 476:1 527:1 603:1 651:1 714:1 773:1 819:1 
-0.050000000000000003 2:1 7:1 10:1 16:1 19:1 24:1 27:1 31:1 35:1 38:1 42:1 45:1 55:1 74:1 88:1 111:1 124:1 143:1 155:1 171:1 186:1 198:1 213:1 250:1 328:1 383:1 476:1 527:1 603:1 651:1 714:1 774:1 821:1 
0.050000000000000003 2:1 7:1 10:1 16:1 19:1 24:1 27:1 31:1 35:1 38:1 42:1 46:1 55:1 74:1 88:1 111:1 124:1 143:1 155:1 171:1 186:1 198:1 214:1 250:1 328:1 383:1 476:1 527:1 603:1 651:1 714:1 774:1 822:1 
0.050000000000000003 2:1 7:1 10:1 16:1 19:1 24:1 27:1 31:1 35:1 38:1 42:1 48:1 55:1 74:1 88:1 111:1 124:1 143:1 155:1 171:1 186:1 198:1 216:1 250:1 328:1 383:1 476:1 527:1 603:1 651:1 714:1 774:1 824:1 
-0.050000000000000003 2:1 7:1 10:1 16:1 19:1 24:1 27:1 31:1 35:1 38:1 43:1 46:1 55:1 74:1 88:1 111:1 124:1 143:1 155:1 171:1 186:1 199:1 218:1 250:1 328:1 383:1 476:1 527:1 603:1 651:1 714:1 775:1 826:1 
0.050000000000000003 2:1 7:1 10:1 16:1 19:1 24:1 27:1 31:1 35:1 38:1 43:1 47:1 55:1 74:1 88:1 111:1 124:1 143:1 155:1 171:1 186:1 199:1 219:1 250:1 328:1 383:1 476:1 527:1 603:1 651:1 714:1 775:1 827:1 
-0.0047886123944843985 2:1 7:1 10:1 16:1 19:1 24:1 27:1 31:1 35:1 38:1 44:1 45:1 55:1 74:1 88:1 111:1 124:1 143:1 155:1 171:1 186:1 200:1 221:1 250:1 328:1 383:1 476:1 527:1 603:1 651:1 714:1 776:1 829:1 
-0.050000000000000003 2:1 7:1 10:1 16:1 19:1 24:1 27:1 31:1 35:1 38:1 44:1 48:1 55:1 74:1 88:1 111:1 124:1 143:1 155:1 171:1 186:1 200:1 224:1 250:1 328:1 383:1 476:1 527:1 603:1 651:1 714:1 776:1 832:1 
0.050000000000000003 2:1 7:1 10:1 16:1 19:1 24:1 27:1 31:1 35:1 40:1 41:1 48:1 55:1 74:1 88:1 111:1 124:1 143:1 155:1 171:1 188:1 205:1 212:1 250:1 328:1 383:1 476:1 527:1 603:1 651:1 716:1 781:1 852:1 
0.050000000000000003 2:1 7:1 10:1 16:1 19:1 24:1 27:1 31:1 35:1 40:1 42:1 47:1 55:1 74:1 88:1 111:1 124:1 143:1 155:1 171:1 188:1 206:1 215:1 250:1 328:1 383:1 476:1 527:1 603:1 651:1 716:1 782:1 855:1 
-0.050000000000000003 2:1 7:1 10:1 16:1 19:1 24:1 27:1 31:1 35:1 40:1 42:1 48:1 55:1 74:1 88:1 111:1 124:1 143:1 155:1 171:1 188:1 206:1 216:1 250:1 328:1 383:1 476:1 527:1 603:1 651:1 716:1 782:1 856:1 
-0.050000000000000003 2:1 7:1 10:1 16:1 19:1 24:1 27:1 31:1 35:1 40:1 43:1 45:1 55:1 74:1 88:1 111:1 124:1 143:1 155:1 171:1 188:1 207:1 217:1 250:1 328:1 383:1 476:1 527:1 603:1 651:1 716:1 783:1 857:1 
0.050000000000000003 2:1 7:1 10:1 16:1 19:1 24:1 27:1 31:1 35:1 40:1 43:1 46:1 55:1 74:1 88:1 111:1 124:1 143:1 155:1 171:1 188:1 207:1 218:1 250:1 328:1 383:1 476:1 527:1 603:1 651:1 716:1 783:1 858:1 
0.050000000000000003 2:1 7:1 10:1 16:1 19:1 24:1 27:1 31:1 35:1 40:1 43:1 47:1 55:1 74:1 88:1 111:1 124:1 143:1 155:1 171:1 188:1 207:1 219:1 250:1 328:1 383:1 476:1 527:1 603:1 651:1 716:1 783:1 859:1 
-0.050000000000000003 2:1 7:1 10:1 16:1 19:1 24:1 27:1 31:1 35:1 40:1 43:1 48:1 55:1 74:1 88:1 111:1 124:1 143:1 155:1 171:1 188:1 207:1 220:1 250:1 328:1 383:1 476:1 527:1 603:1 651:1 716:1 783:1 860:1 
0.050000000000000003 2:1 7:1 10:1 16:1 19:1 24:1 27:1 31:1 35:1 40:1 44:1 46:1 55:1 74:1 88:1 111:1 124:1 143:1 155:1 171:1 188:1 208:1 222:1 250:1 328:1 383:1 476:1 527:1 603:1 651:1 716:1 784:1 862:1 
-0.050000000000000003 2:1 7:1 10:1 16:1 19:1 24:1 27:1 31:1 35:1 40:1 44:1 48:1 55:1 74:1 88:1 111:1 124:1 143:1 155:1 171:1 188:1 208:1 224:1 250:1 328:1 383:1 476:1 527:1 603:1 651:1 716:1 784:1 864:1 
-0.050000000000000003 2:1 7:1 12:1 16:1 19:1 24:1 27:1 31:1 35:1 37:1 41:1 47:1 55:1 76:1 96:1 111:1 124:1 143:1 155:1 171:1 185:1 193:1 211:1 252:1 336:1 415:1 476:1 527:1 603:1 651:1 713:1 769:1 803:1 
0.050000000000000003 2:1 7:1 12:1 16:1 19:1 24:1 27:1 31:1 35:1 37:1 42:1 45:1 55:1 76:1 96:1 111:1 124:1 143:1 155:1 171:1 185:1 194:1 213:1 252:1 336:1 415:1 476:1 527:1 603:1 651:1 713:1 770:1 805:1 
-0.050000000000000003 2:1 7:1 12:1 16:1 19:1 24:1 27:1 31:1 35:1 37:1 43:1 47:1 55:1 76:1 96:1 111:1 124:1 143:1 155:1 171:1 185:1 195:1 219:1 252:1 336:1 415:1 476:1 527:1 603:1 651:1 713:1 771:1 811:1 
0.050000000000000003 2:1 7:1 12:1 16:1 19:1 24:1 27:1 31:1 35:1 37:1 44:1 46:1 55:1 76:1 96:1 111:1 124:1 143:1 155:1 171:1 185:1 196:1 222:1 252:1 336:1 415:1 476:1 527:1 603:1 651:1 713:1 772:1 814:1 
-0.050000000000000003 2:1 7:1 12:1 16:1 19:1 24:1 27:1 31:1 35:1 37:1 44:1 47:1 55:1 76:1 96:1 111:1 124:1 143:1 155:1 171:1 185:1 196:1 223:1 252:1 336:1 415:1 476:1 527:1 603:1 651:1 713:1 772:1 815:1 
0.041045613022750012 2:1 7:1 12:1 16:1 19:1 24:1 27:1 31:1 35:1 38:1 41:1 45:1 55:1 76:1 96:1 111:1 124:1 143:1 155:1 171:1 186:1 197:1 209:1 252:1 336:1 415:1 476:1 527:1 603:1 651:1 714:1 773:1 817:1 
0.050000000000000003 2:1 7:1 12:1 16:1 19:1 24:1 27:1 31:1 35:1 38:1 41:1 47:1 55:1 76:1 96:1 111:1 124:1 143:1 155:1 171:1 186:1 197:1 211:1 252:1 336:1 415:1 476:1 527:1 603:1 651:1 714:1 773:1 819:1 
-0.050000000000000003 2:1 7:1 12:1 16:1 19:1 24:1 27:1 31:1 35:1 38:1 43:1 46:1 55:1 76:1 96:1 111:1 124:1 143:1 155:1 171:1 186:1 199:1 218:1 252:1 336:1 415:1 476:1 527:1 603:1 651:1 714:1 775:1 826:1 
-0.050000000000000003 2:1 7:1 12:1 16:1 19:1 24:1 27:1 31:1 35:1 38:1 43:1 47:1 55:1 76:1 96:1 111:1 124:1 143:1 155:1 171:1 186:1 199:1 219:1 252:1 336:1 415:1 476:1 527:1 603:1 651:1 714:1 775:1 827:1 
0.050000000000000003 2:1 7:1 12:1 16:1 19:1 24:1 27:1 31:1 35:1 38:1 44:1 47:1 55:1 76:1 96:1 111:1 124:1 143:1 155:1 171:1 186:1 200:1 223:1 252:1 336:1 415:1 476:1 527:1 603:1 651:1 714:1 776:1 831:1 
0.050000000000000003 2:1 7:1 12:1 16:1 19:1 24:1 27:1 31:1 35:1 40:1 41:1 45:1 55:1 76:1 96:1 111:1 124:1 143:1 155:1 171:1 188:1 205:1 209:1 252:1 336:1 415:1 476:1 527:1 603:1 651:1 716:1 781:1 849:1 
-0.050000000000000003 2:1 7:1 12:1 16:1 19:1 24:1 27:1 31:1 35:1 40:1 43:1 46:1 55:1 76:1 96:1 111:1 124:1 143:1 155:1 171:1 188:1 207:1 218:1 252:1 336:1 415:1 476:1 527:1 603:1 651:1 716:1 783:1 858:1 
0.0092593335471486248 2:1 7:1 12:1 16:1 19:1 24:1 27:1 31:1 35:1 40:1 43:1 47:1 55:1 76:1 96:1 111:1 124:1 143:1 155:1 171:1 188:1 207:1 219:1 252:1 336:1 415:1 476:1 527:1 603:1 651:1 716:1 783:1 859:1 
-0.050000000000000003 2:1 7:1 12:1 16:1 19:1 24:1 27:1 31:1 35:1 40:1 44:1 46:1 55:1 76:1 96:1 111:1 124:1 143:1 155:1 171:1 188:1 208:1 222:1 252:1 336:1 415:1 476:1 527:1 603:1 651:1 716:1 784:1 862:1 
0.050000000000000003 2:1 7:1 12:1 16:1 19:1 24:1 27:1 31:1 35:1 40:1 44:1 48:1 55:1 76:1 96:1 111:1 124:1 143:1 155:1 171:1 188:1 208:1 224:1 252:1 336:1 415:1 476:1 527:1 603:1 651:1 716:1 784:1 864:1 
0.050000000000000003 2:1 8:1 9:1 16:1 19:1 24:1 27:1 31:1 35:1 40:1 41:1 45:1 56:1 77:1 84:1 111:1 124:1 143:1 155:1 171:1 188:1 205:1 209:1 253:1 340:1 367:1 476:1 527:1 603:1 651:1 716:1 781:1 849:1 
0.050000000000000003 2:1 8:1 9:1 16:1 19:1 24:1 27:1 31:1 35:1 40:1 43:1 45:1 56:1 77:1 84:1 111:1 124:1 143:1 155:1 171:1 188:1 207:1 217:1 253:1 340:1 367:1 476:1 527:1 603:1 651:1 716:1 783:1 857:1 
0.023400209730507458 2:1 8:1 9:1 16:1 19:1 24:1 27:1 31:1 35:1 40:1 43:1 46:1 56:1 77:1 84:1 111:1 124:1 143:1 155:1 171:1 188:1 207:1 218:1 253:1 340:1 367:1 476:1 527:1 603:1 651:1 716:1 783:1 858:1 
-0.050000000000000003 2:1 8:1 9:1 16:1 19:1 24:1 27:1 31:1 35:1 40:1 44:1 46:1 56:1 77:1 84:1 111:1 124:1 143:1 155:1 171:1 188:1 208:1 222:1 253:1 340:1 367:1 476:1 527:1 603:1 651:1 716:1 784:1 862:1 
0.050000000000000003 2:1 8:1 10:1 16:1 19:1 24:1 27:1 31:1 35:1 38:1 41:1 45:1 56:1 78:1 88:1 111:1 124:1 143:1 155:1 171:1 186:1 197:1 209:1 254:1 344:1 383:1 476:1 527:1 603:1 651:1 714:1 773:1 817:1 
0.050000000000000003 2:1 8:1 10:1 16:1 19:1 24:1 27:1 31:1 35:1 38:1 41:1 46:1 56:1 78:1 88:1 111:1 124:1 143:1 155:1 171:1 186:1 197:1 210:1 254:1 344:1 383:1 476:1 527:1 603:1 651:1 714:1 773:1 818:1 
-0.0086921910750701863 2:1 8:1 10:1 16:1 19:1 24:1 27:1 31:1 35:1 38:1 41:1 47:1 56:1 78:1 88:1 111:1 124:1 143:1 155:1 171:1 186:1 197:1 211:1 254:1 344:1 383:1 476:1 527:1 603:1 651:1 714:1 773:1 819:1 
-0.050000000000000003 2:1 8:1 10:1 16:1 19:1 24:1 27:1 31:1 35:1 38:1 41:1 48:1 56:1 78:1 88:1 111:1 124:1 143:1 155:1 171:1 186:1 197:1 212:1 254:1 344:1 383:1 476:1 527:1 603:1 651:1 714:1 773:1 820:1 
0.050000000000000003 2:1 8:1 10:1 16:1 19:1 24:1 27:1 31:1 35:1 38:1 42:1 45:1 56:1 78:1 88:1 111:1 124:1 143:1 155:1 171:1 186:1 198:1 213:1 254:1 344:1 383:1 476:1 527:1 603:1 651:1 714:1 774:1 821:1 
0.050000000000000003 2:1 8:1 10:1 16:1 19:1 24:1 27:1 31:1 35:1 38:1 42:1 46:1 56:1 78:1 88:1 111:1 124:1 143:1 155:1 171:1 186:1 198:1 214:1 254:1 344:1 383:1 476:1 527:1 603:1 651:1 714:1 774:1 822:1 
-0.050000000000000003 2:1 8:1 10:1 16:1 19:1 24:1 27:1 31:1 35:1 38:1 42:1 47:1 56:1 78:1 88:1 111:1 124:1 143:1 155:1 171:1 186:1 198:1 215:1 254:1 344:1 383:1 476:1 527:1 603:1 651:1 714:1 774:1 823:1 
-0.050000000000000003 2:1 8:1 10:1 16:1 19:1 24:1 27:1 31:1 35:1 38:1 42:1 48:1 56:1 78:1 88:1 111:1 124:1 143:1 155:1 171:1 186:1 198:1 216:1 254:1 344:1 383:1 476:1 527:1 603:1 651:1 714:1 774:1 824:1 
-0.050000000000000003 2:1 8:1 10:1 16:1 19:1 24:1 27:1 31:1 35:1 38:1 43:1 45:1 56:1 78:1 88:1 111:1 124:1 143:1 155:1 171:1 186:1 199:1 217:1 254:1 344:1 383:1 476:1 527:1 603:1 651:1 714:1 775:1 825:1 
-0.050000000000000003 2:1 8:1 10:1 16:1 19:1 24:1 27:1 31:1 35:1 38:1 43:1 48:1 56:1 78:1 88:1 111:1 124:1 143:1 155:1 171:1 186:1 199:1 220:1 254:1 344:1 383:1 476:1 527:1 603:1 651:1 714:1 775:1 828:1 
0.050000000000000003 2:1 8:1 10:1 16:1 19:1 24:1 27:1 31:1 35:1 38:1 44:1 45:1 56:1 78:1 88:1 111:1 124:1 143:1 155:1 171:1 186:1 200:1 221:1 254:1 344:1 383:1 476:1 527:1 603:1 651:1 714:1 776:1 829:1 
-0.050000000000000003 2:1 8:1 10:1 16:1 19:1 24:1 27:1 31:1 35:1 38:1 44:1 46:1 56:1 78:1 88:1 111:1 124:1 143:1 155:1 171:1 186:1 200:1 222:1 254:1 344:1 383:1 476:1 527:1 603:1 651:1 714:1 776:1 830:1 
0.050000000000000003 2:1 8:1 10:1 16:1 19:1 24:1 27:1 31:1 35:1 38:1 44:1 47:1 56:1 78:1 88:1 111:1 124:1 143:1 155:1 171:1 186:1 200:1 223:1 254:1 344:1 383:1 476:1 527:1 603:1 651:1 714:1 776:1 831:1 
-0.050000000000000003 2:1 8:1 10:1 16:1 19:1 24:1 27:1 31:1 35:1 38:1 44:1 48:1 56:1 78:1 88:1 111:1 124:1 143:1 155:1 171:1 186:1 200:1 224:1 254:1 344:1 383:1 476:1 527:1 603:1 651:1 714:1 776:1 832:1 
-0.050000000000000003 2:1 8:1 10:1 16:1 19:1 24:1 27:1 31:1 35:1 40:1 41:1 45:1 56:1 78:1 88:1 111:1 124:1 143:1 155:1 171:1 188:1 205:1 209:1 254:1 344:1 383:1 476:1 527:1 603:1 651:1 716:1 781:1 849:1 
-0.050000000000000003 2:1 8:1 10:1 16:1 19:1 24:1 27:1 31:1 35:1 40:1 41:1 46:1 56:1 78:1 88:1 111:1 124:1 143:1 155:1 171:1 188:1 205:1 210:1 254:1 344:1 383:1 476:1 527:1 603:1 651:1 716:1 781:1 850:1 
0.050000000000000003 2:1 8:1 10:1 16:1 19:1 24:1 27:1 31:1 35:1 40:1 41:1 47:1 56:1 78:1 88:1 111:1 124:1 143:1 155:1 171:1 188:1 205:1 211:1 254:1 344:1 383:1 476:1 527:1 603:1 651:1 716:1 781:1 851:1 
-0.050000000000000003 2:1 8:1 10:1 16:1 19:1 24:1 27:1 31:1 35:1 40:1 42:1 45:1 56:1 78:1 88:1 111:1 124:1 143:1 155:1 171:1 188:1 206:1 213:1 254:1 344:1 383:1 476:1 527:1 603:1 651:1 716:1 782:1 853:1 
-0.050000000000000003 2:1 8:1 10:1 16:1 19:1 24:1 27:1 31:1 35:1 40:1 42:1 46:1 56:1 78:1 88:1 111:1 124:1 143:1 155:1 171:1 188:1 206:1 214:1 254:1 344:1 383:1 476:1 527:1 603:1 651:1 716:1 782:1 854:1 
-0.015679705015589847 2:1 8:1 10:1 16:1 19:1 24:1 27:1 31:1 35:1 40:1 42:1 48:1 56:1 78:1 88:1 111:1 124:1 143:1 155:1 171:1 188:1 206:1 216:1 254:1 344:1 383:1 476:1 527:1 603:1 651:1 716:1 782:1 856:1 
-0.016384770403053701 2:1 8:1 10:1 16:1 19:1 24:1 27:1 31:1 35:1 40:1 43:1 45:1 56:1 78:1 88:1 111:1 124:1 143:1 155:1 171:1 188:1 207:1 217:1 254:1 344:1 383:1 476:1 527:1 603:1 651:1 716:1 783:1 857:1 
0.050000000000000003 2:1 8:1 10:1 16:1 19:1 24:1 27:1 31:1 35:1 40:1 43:1 46:1 56:1 78:1 88:1 111:1 124:1 143:1 155:1 171:1 188:1 207:1 218:1 254:1 344:1 383:1 476:1 527:1 603:1 651:1 716:1 783:1 858:1 
0.050000000000000003 2:1 8:1 10:1 16:1 19:1 24:1 27:1 31:1 35:1 40:1 43:1 47:1 56:1 78:1 88:1 111:1 124:1 143:1 155:1 171:1 188:1 207:1 219:1 254:1 344:1 383:1 476:1 527:1 603:1 651:1 716:1 783:1 859:1 
0.050000000000000003 2:1 8:1 10:1 16:1 19:1 24:1 27:1 31:1 35:1 40:1 43:1 48:1 56:1 78:1 88:1 111:1 124:1 143:1 155:1 171:1 188:1 207:1 220:1 254:1 344:1 383:1 476:1 527:1 603:1 651:1 716:1 783:1 860:1 
0.050000000000000003 2:1 8:1 10:1 16:1 19:1 24:1 27:1 31:1 35:1 40:1 44:1 48:1 56:1 78:1 88:1 111:1 124:1 143:1 155:1 171:1 188:1 208:1 224:1 254:1 344:1 383:1 476:1 527:1 603:1 651:1 716:1 784:1 864:1 
-0.050000000000000003 2:1 8:1 12:1 16:1 19:1 24:1 27:1 31:1 35:1 37:1 41:1 45:1 56:1 80:1 96:1 111:1 124:1 143:1 155:1 171:1 185:1 193:1 209:1 256:1 352:1 415:1 476:1 527:1 603:1 651:1 713:1 769:1 801:1 
0.050000000000000003 2:1 8:1 12:1 16:1 19:1 24:1 27:1 31:1 35:1 37:1 41:1 47:1 56:1 80:1 96:1 111:1 124:1 143:1 155:1 171:1 185:1 193:1 211:1 256:1 352:1 415:1 476:1 527:1 603:1 651:1 713:1 769:1 803:1 
0.050000000000000003 2:1 8:1 12:1 16:1 19:1 24:1 27:1 31:1 35:1 37:1 41:1 48:1 56:1 80:1 96:1 111:1 124:1 143:1 155:1 171:1 185:1 193:1 212:1 256:1 352:1 415:1 476:1 527:1 603:1 651:1 713:1 769:1 804:1 
0.050000000000000003 2:1 8:1 12:1 16:1 19:1 24:1 27:1 31:1 35:1 37:1 42:1 48:1 56:1 80:1 96:1 111:1 124:1 143:1 155:1 171:1 185:1 194:1 216:1 256:1 352:1 415:1 476:1 527:1 603:1 651:1 713:1 770:1 808:1 
-0.050000000000000003 2:1 8:1 12:1 16:1 19:1 24:1 27:1 31:1 35:1 37:1 43:1 46:1 56:1 80:1 96:1 111:1 124:1 143:1 155:1 171:1 185:1 195:1 218:1 256:1 352:1 415:1 476:1 527:1 603:1 651:1 713:1 771:1 810:1 
-0.050000000000000003 2:1 8:1 12:1 16:1 19:1 24:1 27:1 31:1 35:1 37:1 43:1 47:1 56:1 80:1 96:1 111:1 124:1 143:1 155:1 171:1 185:1 195:1 219:1 256:1 352:1 415:1 476:1 527:1 603:1 651:1 713:1 771:1 811:1 
0.050000000000000003 2:1 8:1 12:1 16:1 19:1 24:1 27:1 31:1 35:1 37:1 44:1 45:1 56:1 80:1 96:1 111:1 124:1 143:1 155:1 171:1 185:1 196:1 221:1 256:1 352:1 415:1 476:1 527:1 603:1 651:1 713:1 772:1 813:1 
-0.050000000000000003 2:1 8:1 12:1 16:1 19:1 24:1 27:1 31:1 35:1 37:1 44:1 46:1 56:1 80:1 96:1 111:1 124:1 143:1 155:1 171:1 185:1 196:1 222:1 256:1 352:1 415:1 476:1 527:1 603:1 651:1 713:1 772:1 814:1 
-0.050000000000000003 2:1 8:1 12:1 16:1 19:1 24:1 27:1 31:1 35:1 37:1 44:1 47:1 56:1 80:1 96:1 111:1 124:1 143:1 155:1 171:1 185:1 196:1 223:1 256:1 352:1 415:1 476:1 527:1 603:1 651:1 713:1 772:1 815:1 
0.050000000000000003 2:1 8:1 12:1 16:1 19:1 24:1 27:1 31:1 35:1 37:1 44:1 48:1 56:1 80:1 96:1 111:1 124:1 143:1 155:1 171:1 185:1 196:1 224:1 256:1 352:1 415:1 476:1 527:1 603:1 651:1 713:1 772:1 816:1 
-0.050000000000000003 2:1 8:1 12:1 16:1 19:1 24:1 27:1 31:1 35:1 38:1 41:1 46:1 56:1 80:1 96:1 111:1 124:1 143:1 155:1 171:1 186:1 197:1 210:1 256:1 352:1 415:1 476:1 527:1 603:1 651:1 714:1 773:1 818:1 
-0.050000000000000003 2:1 8:1 12:1 16:1 19:1 24:1 27:1 31:1 35:1 38:1 41:1 47:1 56:1 80:1 96:1 111:1 124:1 143:1 155:1 171:1 186:1 197:1 211:1 256:1 352:1 415:1 476:1 527:1 603:1 651:1 714:1 773:1 819:1 
0.050000000000000003 2:1 8:1 12:1 16:1 19:1 24:1 27:1 31:1 35:1 38:1 41:1 48:1 56:1 80:1 96:1 111:1 124:1 143:1 155:1 171:1 186:1 197:1 212:1 256:1 352:1 415:1 476:1 527:1 603:1 651:1 714:1 773:1 820:1 
0.050000000000000003 2:1 8:1 12:1 16:1 19:1 24:1 27:1 31:1 35:1 38:1 42:1 45:1 56:1 80:1 96:1 111:1 124:1 143:1 155:1 171:1 186:1 198:1 213:1 256:1 352:1 415:1 476:1 527:1 603:1 651:1 714:1 774:1 821:1 
-0.043464430153669076 2:1 8:1 12:1 16:1 19:1 24:1 27:1 31:1 35:1 38:1 42:1 46:1 56:1 80:1 96:1 111:1 124:1 143:1 155:1 171:1 186:1 198:1 214:1 256:1 352:1 415:1 476:1 527:1 603:1 651:1 714:1 774:1 822:1 
0.050000000000000003 2:1 8:1 12:1 16:1 19:1 24:1 27:1 31:1 35:1 38:1 42:1 47:1 56:1 80:1 96:1 111:1 124:1 143:1 155:1 171:1 186:1 198:1 215:1 256:1 352:1 415:1 476:1 527:1 603:1 651:1 714:1 774:1 823:1 
-0.050000000000000003 2:1 8:1 12:1 16:1 19:1 24:1 27:1 31:1 35:1 38:1 42:1 48:1 56:1 80:1 96:1 111:1 124:1 143:1 155:1 171:1 186:1 198:1 216:1 256:1 352:1 415:1 476:1 527:1 603:1 651:1 714:1 774:1 824:1 
0.037790053200245664 2:1 8:1 12:1 16:1 19:1 24:1 27:1 31:1 35:1 38:1 43:1 45:1 56:1 80:1 96:1 111:1 124:1 143:1 155:1 171:1 186:1 199:1 217:1 256:1 352:1 415:1 476:1 527:1 603:1 651:1 714:1 775:1 825:1 
-0.050000000000000003 2:1 8:1 12:1 16:1 19:1 24:1 27:1 31:1 35:1 38:1 43:1 47:1 56:1 80:1 96:1 111:1 124:1 143:1 155:1 171:1 186:1 199:1 219:1 256:1 352:1 415:1 476:1 527:1 603:1 651:1 714:1 775:1 827:1 
-0.050000000000000003 2:1 8:1 12:1 16:1 19:1 24:1 27:1 31:1 35:1 38:1 43:1 48:1 56:1 80:1 96:1 111:1 124:1 143:1 155:1 171:1 186:1 199:1 220:1 256:1 352:1 415:1 476:1 527:1 603:1 651:1 714:1 775:1 828:1 
-0.050000000000000003 2:1 8:1 12:1 16:1 19:1 24:1 27:1 31:1 35:1 38:1 44:1 46:1 56:1 80:1 96:1 111:1 124:1 143:1 155:1 171:1 186:1 200:1 222:1 256:1 352:1 415:1 476:1 527:1 603:1 651:1 714:1 776:1 830:1 
0.050000000000000003 2:1 8:1 12:1 16:1 19:1 24:1 27:1 31:1 35:1 38:1 44:1 48:1 56:1 80:1 96:1 111:1 124:1 143:1 155:1 171:1 186:1 200:1 224:1 256:1 352:1 415:1 476:1 527:1 603:1 651:1 714:1 776:1 832:1 
0.050000000000000003 2:1 8:1 12:1 16:1 19:1 24:1 27:1 31:1 35:1 40:1 41:1 45:1 56:1 80:1 96:1 111:1 124:1 143:1 155:1 171:1 188:1 205:1 209:1 256:1 352:1 415:1 476:1 527:1 603:1 651:1 716:1 781:1 849:1 
0.050000000000000003 2:1 8:1 12:1 16:1 19:1 24:1 27:1 31:1 35:1 40:1 41:1 47:1 56:1 80:1 96:1 111:1 124:1 143:1 155:1 171:1 188:1 205:1 211:1 256:1 352:1 415:1 476:1 527:1 603:1 651:1 716:1 781:1 851:1 
-0.050000000000000003 2:1 8:1 12:1 16:1 19:1 24:1 27:1 31:1 35:1 40:1 41:1 48:1 56:1 80:1 96:1 111:1 124:1 143:1 155:1 171:1 188:1 205:1 212:1 256:1 352:1 415:1 476:1 527:1 603:1 651:1 716:1 781:1 852:1 
-0.050000000000000003 2:1 8:1 12:1 16:1 19:1 24:1 27:1 31:1 35:1 40:1 42:1 45:1 56:1 80:1 96:1 111:1 124:1 143:1 155:1 171:1 188:1 206:1 213:1 256:1 352:1 415:1 476:1 527:1 603:1 651:1 716:1 782:1 853:1 
0.050000000000000003 2:1 8:1 12:1 16:1 19:1 24:1 27:1 31:1 35:1 40:1 42:1 46:1 56:1 80:1 96:1 111:1 124:1 143:1 155:1 171:1 188:1 206:1 214:1 256:1 352:1 415:1 476:1 527:1 603:1 651:1 716:1 782:1 854:1 
0.050000000000000003 2:1 8:1 12:1 16:1 19:1 24:1 27:1 31:1 35:1 40:1 42:1 48:1 56:1 80:1 96:1 111:1 124:1 143:1 155:1 171:1 188:1 206:1 216:1 256:1 352:1 415:1 476:1 527:1 603:1 651:1 716:1 782:1 856:1 
0.050000000000000003 2:1 8:1 12:1 16:1 19:1 24:1 27:1 31:1 35:1 40:1 43:1 45:1 56:1 80:1 96:1 111:1 124:1 143:1 155:1 171:1 188:1 207:1 217:1 256:1 352:1 415:1 476:1 527:1 603:1 651:1 716:1 783:1 857:1 
0.050000000000000003 2:1 8:1 12:1 16:1 19:1 24:1 27:1 31:1 35:1 40:1 43:1 46:1 56:1 80:1 96:1 111:1 124:1 143:1 155:1 171:1 188:1 207:1 218:1 256:1 352:1 415:1 476:1 527:1 603:1 651:1 716:1 783:1 858:1 
-0.050000000000000003 2:1 8:1 12:1 16:1 19:1 24:1 27:1 31:1 35:1 40:1 43:1 48:1 56:1 80:1 96:1 111:1 124:1 143:1 155:1 171:1 188:1 207:1 220:1 256:1 352:1 415:1 476:1 527:1 603:1 651:1 716:1 783:1 860:1 
-0.050000000000000003 2:1 8:1 12:1 16:1 19:1 24:1 27:1 31:1 35:1 40:1 44:1 45:1 56:1 80:1 96:1 111:1 124:1 143:1 155:1 171:1 188:1 208:1 221:1 256:1 352:1 415:1 476:1 527:1 603:1 651:1 716:1 784:1 861:1 
0.050000000000000003 2:1 8:1 12:1 16:1 19:1 24:1 27:1 31:1 35:1 40:1 44:1 46:1 56:1 80:1 96:1 111:1 124:1 143:1 155:1 171:1 188:1 208:1 222:1 256:1 352:1 415:1 476:1 527:1 603:1 651:1 716:1 784:1 862:1 
-0.046890908789305415 2:1 8:1 12:1 16:1 19:1 24:1 27:1 31:1 35:1 40:1 44:1 48:1 56:1 80:1 96:1 111:1 124:1 143:1 155:1 171:1 188:1 208:1 224:1 256:1 352:1 415:1 476:1 527:1 603:1 651:1 716:1 784:1 864:1 
-0.050000000000000003 3:1 5:1 9:1 16:1 19:1 24:1 27:1 31:1 35:1 40:1 41:1 45:1 57:1 65:1 84:1 111:1 124:1 143:1 155:1 171:1 188:1 205:1 209:1 257:1 292:1 367:1 476:1 527:1 603:1 651:1 716:1 781:1 849:1 
-0.050000000000000003 3:1 5:1 9:1 16:1 19:1 24:1 27:1 31:1 35:1 40:1 41:1 47:1 57:1 65:1 84:1 111:1 124:1 143:1 155:1 171:1 188:1 205:1 211:1 257:1 292:1 367:1 476:1 527:1 603:1 651:1 716:1 781:1 851:1 
0.050000000000000003 3:1 5:1 9:1 16:1 19:1 24:1 27:1 31:1 35:1 40:1 41:1 48:1 57:1 65:1 84:1 111:1 124:1 143:1 155:1 171:1 188:1 205:1 212:1 257:1 292:1 367:1 476:1 527:1 603:1 651:1 716:1 781:1 852:1 
0.050000000000000003 3:1 5:1 9:1 16:1 19:1 24:1 27:1 31:1 35:1 40:1 43:1 45:1 57:1 65:1 84:1 111:1 124:1 143:1 155:1 171:1 188:1 207:1 217:1 257:1 292:1 367:1 476:1 527:1 603:1 651:1 716:1 783:1 857:1 
0.050000000000000003 3:1 5:1 9:1 16:1 19:1 24:1 27:1 31:1 35:1 40:1 43:1 47:1 57:1 65:1 84:1 111:1 124:1 143:1 155:1 171:1 188:1 207:1 219:1 257:1 292:1 367:1 476:1 527:1 603:1 651:1 716:1 783:1 859:1 
-0.050000000000000003 3:1 5:1 9:1 16:1 19:1 24:1 27:1 31:1 35:1 40:1 43:1 48:1 57:1 65:1 84:1 111:1 124:1 143:1 155:1 171:1 188:1 207:1 220:1 257:1 292:1 367:1 476:1 527:1 603:1 651:1 716:1 783:1 860:1 
-0.050000000000000003 3:1 5:1 9:1 16:1 19:1 24:1 27:1 31:1 35:1 40:1 44:1 45:1 57:1 65:1 84:1 111:1 124:1 143:1 155:1 171:1 188:1 208:1 221:1 257:1 292:1 367:1 476:1 527:1 603:1 651:1 716:1 784:1 861:1 
0.050000000000000003 3:1 5:1 9:1 16:1 19:1 24:1 27:1 31:1 35:1 40:1 44:1 47:1 57:1 65:1 84:1 111:1 124:1 143:1 155:1 171:1 188:1 208:1 223:1 257:1 292:1 367:1 476:1 527:1 603:1 651:1 716:1 784:1 863:1 
-0.050000000000000003 3:1 5:1 9:1 16:1 19:1 24:1 27:1 31:1 35:1 40:1 44:1 48:1 57:1 65:1 84:1 111:1 124:1 143:1 155:1 171:1 188:1 208:1 224:1 257:1 292:1 367:1 476:1 527:1 603:1 651:1 716:1 784:1 864:1 
0.050000000000000003 3:1 5:1 10:1 16:1 19:1 24:1 27:1 31:1 35:1 38:1 41:1 45:1 57:1 66:1 88:1 111:1 124:1 143:1 155:1 171:1 186:1 197:1 209:1 258:1 296:1 383:1 476:1 527:1 603:1 651:1 714:1 773:1 817:1 
-0.050000000000000003 3:1 5:1 10:1 16:1 19:1 24:1 27:1 31:1 35:1 38:1 41:1 46:1 57:1 66:1 88:1 111:1 124:1 143:1 155:1 171:1 186:1 197:1 210:1 258:1 296:1 383:1 476:1 527:1 603:1 651:1 714:1 773:1 818:1 
-0.050000000000000003 3:1 5:1 10:1 16:1 19:1 24:1 27:1 31:1 35:1 38:1 41:1 47:1 57:1 66:1 88:1 111:1 124:1 143:1 155:1 171:1 186:1 197:1 211:1 258:1 296:1 383:1 476:1 527:1 603:1 651:1 714:1 773:1 819:1 
-0.0030518796550611741 3:1 5:1 10:1 16:1 19:1 24:1 27:1 31:1 35:1 38:1 41:1 48:1 57:1 66:1 88:1 111:1 124:1 143:1 155:1 171:1 186:1 197:1 212:1 258:1 296:1 383:1 476:1 527:1 603:1 651:1 714:1 773:1 820:1 
0.050000000000000003 3:1 5:1 10:1 16:1 19:1 24:1 27:1 31:1 35:1 38:1 43:1 45:1 57:1 66:1 88:1 111:1 124:1 143:1 155:1 171:1 186:1 199:1 217:1 258:1 296:1 383:1 476:1 527:1 603:1 651:1 714:1 775:1 825:1 
0.050000000000000003 3:1 5:1 10:1 16:1 19:1 24:1 27:1 31:1 35:1 38:1 43:1 46:1 57:1 66:1 88:1 111:1 124:1 143:1 155:1 171:1 186:1 199:1 218:1 258:1 296:1 383:1 476:1 527:1 603:1 651:1 714:1 775:1 826:1 
0.050000000000000003 3:1 5:1 10:1 16:1 19:1 24:1 27:1 31:1 35:1 38:1 43:1 47:1 57:1 66:1 88:1 111:1 124:1 143:1 155:1 171:1 186:1 199:1 219:1 258:1 296:1 383:1 476:1 527:1 603:1 651:1 714:1 775:1 827:1 
-0.050000000000000003 3:1 5:1 10:1 16:1 19:1 24:1 27:1 31:1 35:1 40:1 41:1 45:1 57:1 66:1 88:1 111:1 124:1 143:1 155:1 171:1 188:1 205:1 209:1 258:1 296:1 383:1 476:1 527:1 603:1 651:1 716:1 781:1 849:1 
-0.050000000000000003 3:1 5:1 10:1 16:1 19:1 24:1 27:1 31:1 35:1 40:1 41:1 46:1 57:1 66:1 88:1 111:1 124:1 143:1 155:1 171:1 188:1 205:1 210:1 258:1 296:1 383:1 476:1 527:1 603:1 651:1 716:1 781:1 850:1 
0.050000000000000003 3:1 5:1 10:1 16:1 19:1 24:1 27:1 31:1 35:1 40:1 41:1 47:1 57:1 66:1 88:1 111:1 124:1 143:1 155:1 171:1 188:1 205:1 211:1 258:1 296:1 383:1 476:1 527:1 603:1 651:1 716:1 781:1 851:1 
-0.050000000000000003 3:1 5:1 10:1 16:1 19:1 24:1 27:1 31:1 35:1 40:1 41:1 48:1 57:1 66:1 88:1 111:1 124:1 143:1 155:1 171:1 188:1 205:1 212:1 258:1 296:1 383:1 476:1 527:1 603:1 651:1 716:1 781:1 852:1 
0.050000000000000003 3:1 5:1 10:1 16:1 19:1 24:1 27:1 31:1 35:1 40:1 43:1 45:1 57:1 66:1 88:1 111:1 124:1 143:1 155:1 171:1 188:1 207:1 217:1 258:1 296:1 383:1 476:1 527:1 603:1 651:1 716:1 783:1 857:1 
-0.050000000000000003 3:1 5:1 10:1 16:1 19:1 24:1 27:1 31:1 35:1 40:1 43:1 46:1 57:1 66:1 88:1 111:1 124:1 143:1 155:1 171:1 188:1 207:1 218:1 258:1 296:1 383:1 476:1 527:1 603:1 651:1 716:1 783:1 858:1 
-0.050000000000000003 3:1 5:1 10:1 16:1 19:1 24:1 27:1 31:1 35:1 40:1 43:1 47:1 57:1 66:1 88:1 111:1 124:1 143:1 155:1 171:1 188:1 207:1 219:1 258:1 296:1 383:1 476:1 527:1 603:1 651:1 716:1 783:1 859:1 
0.050000000000000003 3:1 5:1 10:1 16:1 19:1 24:1 27:1 31:1 35:1 40:1 43:1 48:1 57:1 66:1 88:1 111:1 124:1 143:1 155:1 171:1 188:1 207:1 220:1 258:1 296:1 383:1 476:1 527:1 603:1 651:1 716:1 783:1 860:1 
-0.050000000000000003 3:1 5:1 10:1 16:1 19:1 24:1 27:1 31:1 35:1 40:1 44:1 45:1 57:1 66:1 88:1 111:1 124:1 143:1 155:1 171:1 188:1 208:1 221:1 258:1 296:1 383:1 476:1 527:1 603:1 651:1 716:1 784:1 861:1 
0.050000000000000003 3:1 5:1 10:1 16:1 19:1 24:1 27:1 31:1 35:1 40:1 44:1 48:1 57:1 66:1 88:1 111:1 124:1 143:1 155:1 171:1 188:1 208:1 224:1 258:1 296:1 383:1 476:1 527:1 603:1 651:1 716:1 784:1 864:1 
0.050000000000000003 3:1 5:1 12:1 16:1 19:1 24:1 27:1 31:1 35:1 37:1 41:1 46:1 57:1 68:1 96:1 111:1 124:1 143:1 155:1 171:1 185:1 193:1 210:1 260:1 304:1 415:1 476:1 527:1 603:1 651:1 713:1 769:1 802:1 
0.050000000000000003 3:1 5:1 12:1 16:1 19:1 24:1 27:1 31:1 35:1 37:1 41:1 48:1 57:1 68:1 96:1 111:1 124:1 143:1 155:1 171:1 185:1 193:1 212:1 260:1 304:1 415:1 476:1 527:1 603:1 651:1 713:1 769:1 804:1 
-0.032917159390178682 3:1 5:1 12:1 16:1 19:1 24:1 27:1 31:1 35:1 37:1 44:1 45:1 57:1 68:1 96:1 111:1 124:1 143:1 155:1 171:1 185:1 196:1 221:1 260:1 304:1 415:1 476:1 527:1 603:1 651:1 713:1 772:1 813:1 
0.050000000000000003 3:1 5:1 12:1 16:1 19:1 24:1 27:1 31:1 35:1 37:1 44:1 46:1 57:1 68:1 96:1 111:1 124:1 143:1 155:1 171:1 185:1 196:1 222:1 260:1 304:1 415:1 476:1 527:1 603:1 651:1 713:1 772:1 814:1 
-0.050000000000000003 3:1 5:1 12:1 16:1 19:1 24:1 27:1 31:1 35:1 37:1 44:1 47:1 57:1 68:1 96:1 111:1 124:1 143:1 155:1 171:1 185:1 196:1 223:1 260:1 304:1 415:1 476:1 527:1 603:1 651:1 713:1 772:1 815:1 
0.035220974144423156 3:1 5:1 12:1 16:1 19:1 24:1 27:1 31:1 35:1 38:1 41:1 45:1 57:1 68:1 96:1 111:1 124:1 143:1 155:1 171:1 186:1 197:1 209:1 260:1 304:1 415:1 476:1 527:1 603:1 651:1 714:1 773:1 817:1 
0.050000000000000003 3:1 5:1 12:1 16:1 19:1 24:1 27:1 31:1 35:1 38:1 41:1 46:1 57:1 68:1 96:1 111:1 124:1 143:1 155:1 171:1 186:1 197:1 210:1 260:1 304:1 415:1 476:1 527:1 603:1 651:1 714:1 773:1 818:1 
0.050000000000000003 3:1 5:1 12:1 16:1 19:1 24:1 27:1 31:1 35:1 38:1 41:1 47:1 57:1 68:1 96:1 111:1 124:1 143:1 155:1 171:1 186:1 197:1 211:1 260:1 304:1 415:1 476:1 527:1 603:1 651:1 714:1 773:1 819:1 
-0.050000000000000003 3:1 5:1 12:1 16:1 19:1 24:1 27:1 31:1 35:1 38:1 41:1 48:1 57:1 68:1 96:1 111:1 124:1 143:1 155:1 171:1 186:1 197:1 212:1 260:1 304:1 415:1 476:1 527:1 603:1 651:1 714:1 773:1 820:1 
0.032918342739498535 3:1 5:1 12:1 16:1 19:1 24:1 27:1 31:1 35:1 38:1 43:1 47:1 57:1 68:1 96:1 111:1 124:1 143:1 155:1 171:1 186:1 199:1 219:1 260:1 304:1 415:1 476:1 527:1 603:1 651:1 714:1 775:1 827:1 
-0.050000000000000003 3:1 5:1 12:1 16:1 19:1 24:1 27:1 31:1 35:1 40:1 41:1 45:1 57:1 68:1 96:1 111:1 124:1 143:1 155:1 171:1 188:1 205:1 209:1 260:1 304:1 415:1 476:1 527:1 603:1 651:1 716:1 781:1 849:1 
0.050000000000000003 3:1 5:1 12:1 16:1 19:1 24:1 27:1 31:1 35:1 40:1 41:1 47:1 57:1 68:1 96:1 111:1 124:1 143:1 155:1 171:1 188:1 205:1 211:1 260:1 304:1 415:1 476:1 527:1 603:1 651:1 716:1 781:1 851:1 
-0.050000000000000003 3:1 5:1 12:1 16:1 19:1 24:1 27:1 31:1 35:1 40:1 41:1 48:1 57:1 68:1 96:1 111:1 124:1 143:1 155:1 171:1 188:1 205:1 212:1 260:1 304:1 415:1 476:1 527:1 603:1 651:1 716:1 781:1 852:1 
0.050000000000000003 3:1 5:1 12:1 16:1 19:1 24:1 27:1 31:1 35:1 40:1 43:1 45:1 57:1 68:1 96:1 111:1 124:1 143:1 155:1 171:1 188:1 207:1 217:1 260:1 304:1 415:1 476:1 527:1 603:1 651:1 716:1 783:1 857:1 
-0.050000000000000003 3:1 5:1 12:1 16:1 19:1 24:1 27:1 31:1 35:1 40:1 43:1 46:1 57:1 68:1 96:1 111:1 124:1 143:1 155:1 171:1 188:1 207:1 218:1 260:1 304:1 415:1 476:1 527:1 603:1 651:1 716:1 783:1 858:1 
-0.050000000000000003 3:1 5:1 12:1 16:1 19:1 24:1 27:1 31:1 35:1 40:1 43:1 47:1 57:1 68:1 96:1 111:1 124:1 143:1 155:1 171:1 188:1 207:1 219:1 260:1 304:1 415:1 476:1 527:1 603:1 651:1 716:1 783:1 859:1 
0.050000000000000003 3:1 5:1 12:1 16:1 19:1 24:1 27:1 31:1 35:1 40:1 43:1 48:1 57:1 68:1 96:1 111:1 124:1 143:1 155:1 171:1 188:1 207:1 220:1 260:1 304:1 415:1 476:1 527:1 603:1 651:1 716:1 783:1 860:1 
-0.050000000000000003 3:1 5:1 12:1 16:1 19:1 24:1 27:1 31:1 35:1 40:1 44:1 45:1 57:1 68:1 96:1 111:1 124:1 143:1 155:1 171:1 188:1 208:1 221:1 260:1 304:1 415:1 476:1 527:1 603:1 651:1 716:1 784:1 861:1 
-0.050000000000000003 3:1 5:1 12:1 16:1 19:1 24:1 27:1 31:1 35:1 40:1 44:1 46:1 57:1 68:1 96:1 111:1 124:1 143:1 155:1 171:1 188:1 208:1 222:1 260:1 304:1 415:1 476:1 527:1 603:1 651:1 716:1 784:1 862:1 
0.050000000000000003 3:1 5:1 12:1 16:1 19:1 24:1 27:1 31:1 35:1 40:1 44:1 47:1 57:1 68:1 96:1 111:1 124:1 143:1 155:1 171:1 188:1 208:1 223:1 260:1 304:1 415:1 476:1 527:1 603:1 651:1 716:1 784:1 863:1 
-0.050000000000000003 3:1 5:1 12:1 16:1 19:1 24:1 27:1 31:1 35:1 40:1 44:1 48:1 57:1 68:1 96:1 111:1 124:1 143:1 155:1 171:1 188:1 208:1 224:1 260:1 304:1 415:1 476:1 527:1 603:1 651:1 716:1 784:1 864:1 
-0.050000000000000003 3:1 6:1 9:1 16:1 19:1 24:1 27:1 31:1 35:1 40:1 41:1 45:1 58:1 69:1 84:1 111:1 124:1 143:1 155:1 171:1 188:1 205:1 209:1 261:1 308:1 367:1 476:1 527:1 603:1 651:1 716:1 781:1 849:1 
-0.050000000000000003 3:1 6:1 9:1 16:1 19:1 24:1 27:1 31:1 35:1 40:1 41:1 48:1 58:1 69:1 84:1 111:1 124:1 143:1 155:1 171:1 188:1 205:1 212:1 261:1 308:1 367:1 476:1 527:1 603:1 651:1 716:1 781:1 852:1 
-0.015657765085370364 3:1 6:1 9:1 16:1 19:1 24:1 27:1 31:1 35:1 40:1 43:1 45:1 58:1 69:1 84:1 111:1 124:1 143:1 155:1 171:1 188:1 207:1 217:1 261:1 308:1 367:1 476:1 527:1 603:1 651:1 716:1 783:1 857:1 
-0.050000000000000003 3:1 6:1 9:1 16:1 19:1 24:1 27:1 31:1 35:1 40:1 43:1 46:1 58:1 69:1 84:1 111:1 124:1 143:1 155:1 171:1 188:1 207:1 218:1 261:1 308:1 367:1 476:1 527:1 603:1 651:1 716:1 783:1 858:1 
-0.020800407658609164 3:1 6:1 9:1 16:1 19:1 24:1 27:1 31:1 35:1 40:1 43:1 48:1 58:1 69:1 84:1 111:1 124:1 143:1 155:1 171:1 188:1 207:1 220:1 261:1 308:1 367:1 476:1 527:1 603:1 651:1 716:1 783:1 860:1 
0.050000000000000003 3:1 6:1 9:1 16:1 19:1 24:1 27:1 31:1 35:1 40:1 44:1 45:1 58:1 69:1 84:1 111:1 124:1 143:1 155:1 171:1 188:1 208:1 221:1 261:1 308:1 367:1 476:1 527:1 603:1 651:1 716:1 784:1 861:1 
0.050000000000000003 3:1 6:1 9:1 16:1 19:1 24:1 27:1 31:1 35:1 40:1 44:1 46:1 58:1 69:1 84:1 111:1 124:1 143:1 155:1 171:1 188:1 208:1 222:1 261:1 308:1 367:1 476:1 527:1 603:1 651:1 716:1 784:1 862:1 
0.050000000000000003 3:1 6:1 9:1 16:1 19:1 24:1 27:1 31:1 35:1 40:1 44:1 48:1 58:1 69:1 84:1 111:1 124:1 143:1 155:1 171:1 188:1 208:1 224:1 261:1 308:1 367:1 476:1 527:1 603:1 651:1 716:1 784:1 864:1 
0.050000000000000003 3:1 6:1 10:1 16:1 19:1 24:1 27:1 31:1 35:1 38:1 41:1 45:1 58:1 70:1 88:1 111:1 124:1 143:1 155:1 171:1 186:1 197:1 209:1 262:1 312:1 383:1 476:1 527:1 603:1 651:1 714:1 773:1 817:1 
0.050000000000000003 3:1 6:1 10:1 16:1 19:1 24:1 27:1 31:1 35:1 38:1 41:1 46:1 58:1 70:1 88:1 111:1 124:1 143:1 155:1 171:1 186:1 197:1 210:1 262:1 312:1 383:1 476:1 527:1 603:1 651:1 714:1 773:1 818:1 
0.050000000000000003 3:1 6:1 10:1 16:1 19:1 24:1 27:1 31:1 35:1 38:1 41:1 47:1 58:1 70:1 88:1 111:1 124:1 143:1 155:1 171:1 186:1 197:1 211:1 262:1 312:1 383:1 476:1 527:1 603:1 651:1 714:1 773:1 819:1 
-0.050000000000000003 3:1 6:1 10:1 16:1 19:1 24:1 27:1 31:1 35:1 38:1 41:1 48:1 58:1 70:1 88:1 111:1 124:1 143:1 155:1 171:1 186:1 197:1 212:1 262:1 312:1 383:1 476:1 527:1 603:1 651:1 714:1 773:1 820:1 
0.050000000000000003 3:1 6:1 10:1 16:1 19:1 24:1 27:1 31:1 35:1 38:1 43:1 45:1 58:1 70:1 88:1 111:1 124:1 143:1 155:1 171:1 186:1 199:1 217:1 262:1 312:1 383:1 476:1 527:1 603:1 651:1 714:1 775:1 825:1 
-0.050000000000000003 3:1 6:1 10:1 16:1 19:1 24:1 27:1 31:1 35:1 38:1 43:1 46:1 58:1 70:1 88:1 111:1 124:1 143:1 155:1 171:1 186:1 199:1 218:1 262:1 312:1 383:1 476:1 527:1 603:1 651:1 714:1 775:1 826:1 
-0.050000000000000003 3:1 6:1 10:1 16:1 19:1 24:1 27:1 31:1 35:1 38:1 43:1 47:1 58:1 70:1 88:1 111:1 124:1 143:1 155:1 171:1 186:1 199:1 219:1 262:1 312:1 383:1 476:1 527:1 603:1 651:1 714:1 775:1 827:1 
-0.050000000000000003 3:1 6:1 10:1 16:1 19:1 24:1 27:1 31:1 35:1 38:1 43:1 48:1 58:1 70:1 88:1 111:1 124:1 143:1 155:1 171:1 186:1 199:1 220:1 262:1 312:1 383:1 476:1 527:1 603:1 651:1 714:1 775:1 828:1 
0.050000000000000003 3:1 6:1 10:1 16:1 19:1 24:1 27:1 31:1 35:1 40:1 41:1 45:1 58:1 70:1 88:1 111:1 124:1 143:1 155:1 171:1 188:1 205:1 209:1 262:1 312:1 383:1 476:1 527:1 603:1 651:1 716:1 781:1 849:1 
-0.050000000000000003 3:1 6:1 10:1 16:1 19:1 24:1 27:1 31:1 35:1 40:1 41:1 46:1 58:1 70:1 88:1 111:1 124:1 143:1 155:1 171:1 188:1 205:1 210:1 262:1 312:1 383:1 476:1 527:1 603:1 651:1 716:1 781:1 850:1 
-0.050000000000000003 3:1 6:1 10:1 16:1 19:1 24:1 27:1 31:1 35:1 40:1 43:1 45:1 58:1 70:1 88:1 111:1 124:1 143:1 155:1 171:1 188:1 207:1 217:1 262:1 312:1 383:1 476:1 527:1 603:1 651:1 716:1 783:1 857:1 
0.050000000000000003 3:1 6:1 10:1 16:1 19:1 24:1 27:1 31:1 35:1 40:1 43:1 46:1 58:1 70:1 88:1 111:1 124:1 143:1 155:1 171:1 188:1 207:1 218:1 262:1 312:1 383:1 476:1 527:1 603:1 651:1 716:1 783:1 858:1 
0.050000000000000003 3:1 6:1 10:1 16:1 19:1 24:1 27:1 31:1 35:1 40:1 43:1 47:1 58:1 70:1 88:1 111:1 124:1 143:1 155:1 171:1 188:1 207:1 219:1 262:1 312:1 383:1 476:1 527:1 603:1 651:1 716:1 783:1 859:1 
-0.022792152585289261 3:1 6:1 10:1 16:1 19:1 24:1 27:1 31:1 35:1 40:1 43:1 48:1 58:1 70:1 88:1 111:1 124:1 143:1 155:1 171:1 188:1 207:1 220:1 262:1 312:1 383:1 476:1 527:1 603:1 651:1 716:1 783:1 860:1 
0.050000000000000003 3:1 6:1 10:1 16:1 19:1 24:1 27:1 31:1 35:1 40:1 44:1 45:1 58:1 70:1 88:1 111:1 124:1 143:1 155:1 171:1 188:1 208:1 221:1 262:1 312:1 383:1 476:1 527:1 603:1 651:1 716:1 784:1 861:1 
-0.050000000000000003 3:1 6:1 10:1 16:1 19:1 24:1 27:1 31:1 35:1 40:1 44:1 46:1 58:1 70:1 88:1 111:1 124:1 143:1 155:1 171:1 188:1 208:1 222:1 262:1 312:1 383:1 476:1 527:1 603:1 651:1 716:1 784:1 862:1 
0.050000000000000003 3:1 6:1 10:1 16:1 19:1 24:1 27:1 31:1 35:1 40:1 44:1 47:1 58:1 70:1 88:1 111:1 124:1 143:1 155:1 171:1 188:1 208:1 223:1 262:1 312:1 383:1 476:1 527:1 603:1 651:1 716:1 784:1 863:1 
-0.050000000000000003 3:1 6:1 10:1 16:1 19:1 24:1 27:1 31:1 35:1 40:1 44:1 48:1 58:1 70:1 88:1 111:1 124:1 143:1 155:1 171:1 188:1 208:1 224:1 262:1 312:1 383:1 476:1 527:1 603:1 651:1 716:1 784:1 864:1 
-0.050000000000000003 3:1 6:1 12:1 16:1 19:1 24:1 27:1 31:1 35:1 37:1 41:1 45:1 58:1 72:1 96:1 111:1 124:1 143:1 155:1 171:1 185:1 193:1 209:1 264:1 320:1 415:1 476:1 527:1 603:1 651:1 713:1 769:1 801:1 
-0.020231351438427022 3:1 6:1 12:1 16:1 19:1 24:1 27:1 31:1 35:1 37:1 41:1 46:1 58:1 72:1 96:1 111:1 124:1 143:1 155:1 171:1 185:1 193:1 210:1 264:1 320:1 415:1 476:1 527:1 603:1 651:1 713:1 769:1 802:1 
0.050000000000000003 3:1 6:1 12:1 16:1 19:1 24:1 27:1 31:1 35:1 37:1 41:1 47:1 58:1 72:1 96:1 111:1 124:1 143:1 155:1 171:1 185:1 193:1 211:1 264:1 320:1 415:1 476:1 527:1 603:1 651:1 713:1 769:1 803:1 
0.027524201966366152 3:1 6:1 12:1 16:1 19:1 24:1 27:1 31:1 35:1 37:1 41:1 48:1 58:1 72:1 96:1 111:1 124:1 143:1 155:1 171:1 185:1 193:1 212:1 264:1 320:1 415:1 476:1 527:1 603:1 651:1 713:1 769:1 804:1 
0.050000000000000003 3:1 6:1 12:1 16:1 19:1 24:1 27:1 31:1 35:1 37:1 42:1 45:1 58:1 72:1 96:1 111:1 124:1 143:1 155:1 171:1 185:1 194:1 213:1 264:1 320:1 415:1 476:1 527:1 603:1 651:1 713:1 770:1 805:1 
-0.050000000000000003 3:1 6:1 12:1 16:1 19:1 24:1 27:1 31:1 35:1 37:1 43:1 45:1 58:1 72:1 96:1 111:1 124:1 143:1 155:1 171:1 185:1 195:1 217:1 264:1 320:1 415:1 476:1 527:1 603:1 651:1 713:1 771:1 809:1 
-0.050000000000000003 3:1 6:1 12:1 16:1 19:1 24:1 27:1 31:1 35:1 37:1 43:1 46:1 58:1 72:1 96:1 111:1 124:1 143:1 155:1 171:1 185:1 195:1 218:1 264:1 320:1 415:1 476:1 527:1 603:1 651:1 713:1 771:1 810:1 
-0.050000000000000003 3:1 6:1 12:1 16:1 19:1 24:1 27:1 31:1 35:1 37:1 43:1 47:1 58:1 72:1 96:1 111:1 124:1 143:1 155:1 171:1 185:1 195:1 219:1 264:1 320:1 415:1 476:1 527:1 603:1 651:1 713:1 771:1 811:1 
0.050000000000000003 3:1 6:1 12:1 16:1 19:1 24:1 27:1 31:1 35:1 37:1 43:1 48:1 58:1 72:1 96:1 111:1 124:1 143:1 155:1 171:1 185:1 195:1 220:1 264:1 320:1 415:1 476:1 527:1 603:1 651:1 713:1 771:1 812:1 
0.050000000000000003 3:1 6:1 12:1 16:1 19:1 24:1 27:1 31:1 35:1 37:1 44:1 46:1 58:1 72:1 96:1 111:1 124:1 143:1 155:1 171:1 185:1 196:1 222:1 264:1 320:1 415:1 476:1 527:1 603:1 651:1 713:1 772:1 814:1 
0.050000000000000003 3:1 6:1 12:1 16:1 19:1 24:1 27:1 31:1 35:1 37:1 44:1 48:1 58:1 72:1 96:1 111:1 124:1 143:1 155:1 171:1 185:1 196:1 224:1 264:1 320:1 415:1 476:1 527:1 603:1 651:1 713:1 772:1 816:1 
0.018056532935455984 3:1 6:1 12:1 16:1 19:1 24:1 27:1 31:1 35:1 38:1 41:1 45:1 58:1 72:1 96:1 111:1 124:1 143:1 155:1 171:1 186:1 197:1 209:1 264:1 320:1 415:1 476:1 527:1 603:1 651:1 714:1 773:1 817:1 
0.050000000000000003 3:1 6:1 12:1 16:1 19:1 24:1 27:1 31:1 35:1 38:1 41:1 47:1 58:1 72:1 96:1 111:1 124:1 143:1 155:1 171:1 186:1 197:1 211:1 264:1 320:1 415:1 476:1 527:1 603:1 651:1 714:1 773:1 819:1 
