svm_type epsilon_svr
kernel_type linear
nr_class 2
total_sv 1258
rho 0.19796983854639419
probA 0.15524806364844221
SV
0.0040288106771548052 1:1 5:1 9:1 13:1 17:1 22:1 25:1 32:1 35:1 40:1 43:1 47:1 50:1 56:1 60:1 64:1 68:1 69:1 76:1 77:1 81:1 97:1 113:1 129:1 146:1 165:1 180:1 207:1 220:1 239:1 251:1 266:1 280:1 304:1 320:1 336:1 349:1 356:1 381:1 385:1 449:1 513:1 578:1 645:1 724:1 783:1 892:1 943:1 1019:1 1066:1 1128:1 1184:1 1280:1 1344:1 1405:1 1460:1 1485:1 
0.01 1:1 5:1 9:1 13:1 18:1 24:1 26:1 32:1 35:1 40:1 43:1 47:1 50:1 56:1 60:1 62:1 66:1 72:1 76:1 79:1 81:1 97:1 113:1 130:1 152:1 174:1 184:1 207:1 220:1 239:1 251:1 266:1 280:1 304:1 318:1 326:1 344:1 368:1 383:1 385:1 449:1 514:1 584:1 670:1 760:1 799:1 892:1 943:1 1019:1 1066:1 1128:1 1184:1 1278:1 1334:1 1368:1 1440:1 1535:1 
-0.01 1:1 5:1 9:1 13:1 19:1 21:1 25:1 32:1 35:1 40:1 43:1 47:1 50:1 56:1 60:1 61:1 67:1 72:1 76:1 78:1 81:1 97:1 113:1 131:1 153:1 161:1 180:1 207:1 220:1 239:1 251:1 266:1 280:1 304:1 317:1 323:1 348:1 368:1 382:1 385:1 449:1 515:1 585:1 673:1 708:1 783:1 892:1 943:1 1019:1 1066:1 1128:1 1184:1 1277:1 1331:1 1356:1 1456:1 1534:1 
-0.01 1:1 5:1 9:1 13:1 19:1 21:1 26:1 32:1 35:1 40:1 43:1 47:1 50:1 56:1 60:1 61:1 65:1 72:1 75:1 77:1 81:1 97:1 113:1 131:1 153:1 162:1 184:1 207:1 220:1 239:1 251:1 266:1 280:1 304:1 317:1 321:1 340:1 367:1 377:1 385:1 449:1 515:1 585:1 674:1 712:1 799:1 892:1 943:1 1019:1 1066:1 1128:1 1184:1 1277:1 1329:1 1348:1 1423:1 1529:1 
0.01 1:1 5:1 9:1 13:1 19:1 21:1 26:1 32:1 35:1 40:1 43:1 47:1 50:1 56:1 60:1 64:1 67:1 71:1 76:1 78:1 81:1 97:1 113:1 131:1 153:1 162:1 184:1 207:1 220:1 239:1 251:1 266:1 280:1 304:1 320:1 335:1 347:1 364:1 382:1 385:1 449:1 515:1 585:1 674:1 712:1 799:1 892:1 943:1 1019:1 1066:1 1128:1 1184:1 1280:1 1343:1 1403:1 1452:1 1518:1 
0.01 1:1 5:1 9:1 13:1 19:1 24:1 28:1 32:1 35:1 40:1 43:1 47:1 50:1 54:1 58:1 63:1 67:1 69:1 76:1 80:1 81:1 97:1 113:1 131:1 156:1 176:1 192:1 207:1 220:1 239:1 251:1 266:1 278:1 294:1 311:1 331:1 345:1 356:1 384:1 385:1 449:1 515:1 588:1 688:1 768:1 831:1 892:1 943:1 1019:1 1066:1 1126:1 1174:1 1239:1 1307:1 1385:1 1444:1 1488:1 
-0.01 1:1 5:1 9:1 13:1 20:1 21:1 28:1 32:1 35:1 40:1 43:1 47:1 50:1 54:1 60:1 64:1 68:1 70:1 73:1 80:1 81:1 97:1 113:1 132:1 157:1 164:1 192:1 207:1 220:1 239:1 251:1 266:1 278:1 296:1 320:1 336:1 350:1 357:1 372:1 385:1 449:1 516:1 589:1 692:1 720:1 831:1 892:1 943:1 1019:1 1066:1 1126:1 1176:1 1248:1 1344:1 1406:1 1461:1 1492:1 
0.00073768064174975663 1:1 5:1 9:1 13:1 20:1 21:1 28:1 32:1 35:1 40:1 43:1 47:1 50:1 56:1 59:1 61:1 68:1 72:1 76:1 77:1 81:1 97:1 113:1 132:1 157:1 164:1 192:1 207:1 220:1 239:1 251:1 266:1 280:1 303:1 313:1 324:1 352:1 368:1 381:1 385:1 449:1 516:1 589:1 692:1 720:1 831:1 892:1 943:1 1019:1 1066:1 1128:1 1183:1 1273:1 1316:1 1360:1 1472:1 1533:1 
0.01 1:1 5:1 9:1 14:1 17:1 22:1 25:1 32:1 35:1 40:1 43:1 47:1 50:1 56:1 60:1 63:1 65:1 71:1 74:1 77:1 81:1 97:1 114:1 133:1 146:1 165:1 180:1 207:1 220:1 239:1 251:1 266:1 280:1 304:1 319:1 329:1 339:1 362:1 373:1 385:1 450:1 517:1 594:1 645:1 724:1 783:1 892:1 943:1 1019:1 1066:1 1128:1 1184:1 1279:1 1337:1 1379:1 1418:1 1509:1 
0.0081222390316632084 1:1 5:1 9:1 14:1 17:1 24:1 28:1 32:1 35:1 40:1 43:1 47:1 50:1 53:1 59:1 61:1 65:1 72:1 73:1 77:1 81:1 97:1 114:1 133:1 148:1 176:1 192:1 207:1 220:1 239:1 251:1 266:1 277:1 291:1 313:1 321:1 340:1 365:1 369:1 385:1 450:1 517:1 596:1 656:1 768:1 831:1 892:1 943:1 1019:1 1066:1 1125:1 1171:1 1225:1 1313:1 1348:1 1421:1 1521:1 
-0.01 1:1 5:1 9:1 14:1 17:1 24:1 28:1 32:1 35:1 40:1 43:1 47:1 50:1 56:1 57:1 61:1 65:1 69:1 75:1 77:1 81:1 97:1 114:1 133:1 148:1 176:1 192:1 207:1 220:1 239:1 251:1 266:1 280:1 301:1 305:1 321:1 337:1 355:1 377:1 385:1 450:1 517:1 596:1 656:1 768:1 831:1 892:1 943:1 1019:1 1066:1 1128:1 1181:1 1265:1 1281:1 1345:1 1411:1 1481:1 
0.01 1:1 5:1 9:1 14:1 18:1 24:1 28:1 32:1 35:1 40:1 43:1 47:1 50:1 56:1 60:1 64:1 68:1 71:1 75:1 78:1 81:1 97:1 114:1 134:1 152:1 176:1 192:1 207:1 220:1 239:1 251:1 266:1 280:1 304:1 320:1 336:1 351:1 363:1 378:1 385:1 450:1 518:1 600:1 672:1 768:1 831:1 892:1 943:1 1019:1 1066:1 1128:1 1184:1 1280:1 1344:1 1407:1 1467:1 1514:1 
-0.01 1:1 5:1 9:1 14:1 20:1 22:1 26:1 32:1 35:1 40:1 43:1 47:1 50:1 56:1 60:1 64:1 68:1 70:1 75:1 79:1 81:1 97:1 114:1 136:1 158:1 166:1 184:1 207:1 220:1 239:1 251:1 266:1 280:1 304:1 320:1 336:1 350:1 359:1 379:1 385:1 450:1 520:1 606:1 694:1 728:1 799:1 892:1 943:1 1019:1 1066:1 1128:1 1184:1 1280:1 1344:1 1406:1 1463:1 1499:1 
0.0097552402556373673 1:1 5:1 9:1 14:1 20:1 24:1 28:1 32:1 35:1 40:1 43:1 47:1 50:1 54:1 57:1 63:1 65:1 70:1 73:1 77:1 81:1 97:1 114:1 136:1 160:1 176:1 192:1 207:1 220:1 239:1 251:1 266:1 278:1 293:1 307:1 329:1 338:1 357:1 369:1 385:1 450:1 520:1 608:1 704:1 768:1 831:1 892:1 943:1 1019:1 1066:1 1126:1 1173:1 1235:1 1289:1 1378:1 1413:1 1489:1 
-0.01 1:1 5:1 9:1 15:1 17:1 24:1 28:1 32:1 35:1 40:1 43:1 47:1 50:1 54:1 60:1 62:1 66:1 72:1 76:1 80:1 81:1 97:1 115:1 137:1 148:1 176:1 192:1 207:1 220:1 239:1 251:1 266:1 278:1 296:1 318:1 326:1 344:1 368:1 384:1 385:1 451:1 521:1 612:1 656:1 768:1 831:1 892:1 943:1 1019:1 1066:1 1126:1 1176:1 1246:1 1334:1 1368:1 1440:1 1536:1 
0.0034781504956448448 1:1 5:1 9:1 15:1 18:1 24:1 26:1 32:1 35:1 40:1 43:1 47:1 50:1 56:1 57:1 62:1 68:1 71:1 76:1 78:1 81:1 97:1 115:1 138:1 152:1 174:1 184:1 207:1 220:1 239:1 251:1 266:1 280:1 301:1 306:1 328:1 351:1 364:1 382:1 385:1 451:1 522:1 616:1 670:1 760:1 799:1 892:1 943:1 1019:1 1066:1 1128:1 1181:1 1266:1 1288:1 1375:1 1468:1 1518:1 
0.01 1:1 5:1 9:1 16:1 17:1 21:1 25:1 32:1 35:1 40:1 43:1 47:1 50:1 56:1 60:1 61:1 65:1 69:1 76:1 80:1 81:1 97:1 116:1 141:1 145:1 161:1 180:1 207:1 220:1 239:1 251:1 266:1 280:1 304:1 317:1 321:1 337:1 356:1 384:1 385:1 452:1 525:1 625:1 641:1 708:1 783:1 892:1 943:1 1019:1 1066:1 1128:1 1184:1 1277:1 1329:1 1345:1 1412:1 1488:1 
0.01 1:1 5:1 9:1 16:1 17:1 24:1 28:1 32:1 35:1 40:1 43:1 47:1 50:1 56:1 60:1 64:1 65:1 69:1 75:1 80:1 81:1 97:1 116:1 141:1 148:1 176:1 192:1 207:1 220:1 239:1 251:1 266:1 280:1 304:1 320:1 333:1 337:1 355:1 380:1 385:1 452:1 525:1 628:1 656:1 768:1 831:1 892:1 943:1 1019:1 1066:1 1128:1 1184:1 1280:1 1341:1 1393:1 1411:1 1484:1 
0.01 1:1 5:1 9:1 16:1 17:1 24:1 28:1 32:1 35:1 40:1 43:1 47:1 50:1 56:1 60:1 64:1 65:1 72:1 74:1 78:1 81:1 97:1 116:1 141:1 148:1 176:1 192:1 207:1 220:1 239:1 251:1 266:1 280:1 304:1 320:1 333:1 340:1 366:1 374:1 385:1 452:1 525:1 628:1 656:1 768:1 831:1 892:1 943:1 1019:1 1066:1 1128:1 1184:1 1280:1 1341:1 1396:1 1422:1 1526:1 
0.01 1:1 5:1 9:1 16:1 17:1 24:1 28:1 32:1 35:1 40:1 43:1 47:1 50:1 56:1 60:1 64:1 68:1 70:1 73:1 77:1 81:1 97:1 116:1 141:1 148:1 176:1 192:1 207:1 220:1 239:1 251:1 266:1 280:1 304:1 320:1 336:1 350:1 357:1 369:1 385:1 452:1 525:1 628:1 656:1 768:1 831:1 892:1 943:1 1019:1 1066:1 1128:1 1184:1 1280:1 1344:1 1406:1 1461:1 1489:1 
-0.01 1:1 5:1 9:1 16:1 18:1 21:1 26:1 32:1 35:1 40:1 43:1 47:1 50:1 56:1 60:1 62:1 66:1 70:1 73:1 79:1 81:1 97:1 116:1 142:1 149:1 162:1 184:1 207:1 220:1 239:1 251:1 266:1 280:1 304:1 318:1 326:1 342:1 357:1 371:1 385:1 452:1 526:1 629:1 658:1 712:1 799:1 892:1 943:1 1019:1 1066:1 1128:1 1184:1 1278:1 1334:1 1366:1 1429:1 1491:1 
0.01 1:1 5:1 9:1 16:1 18:1 22:1 25:1 32:1 35:1 40:1 43:1 47:1 50:1 56:1 57:1 61:1 65:1 69:1 76:1 79:1 81:1 97:1 116:1 142:1 150:1 165:1 180:1 207:1 220:1 239:1 251:1 266:1 280:1 301:1 305:1 321:1 337:1 356:1 383:1 385:1 452:1 526:1 630:1 661:1 724:1 783:1 892:1 943:1 1019:1 1066:1 1128:1 1181:1 1265:1 1281:1 1345:1 1412:1 1487:1 
0.01 1:1 5:1 9:1 16:1 18:1 24:1 26:1 32:1 35:1 40:1 43:1 47:1 50:1 56:1 60:1 62:1 65:1 72:1 76:1 77:1 81:1 97:1 116:1 142:1 152:1 174:1 184:1 207:1 220:1 239:1 251:1 266:1 280:1 304:1 318:1 325:1 340:1 368:1 381:1 385:1 452:1 526:1 632:1 670:1 760:1 799:1 892:1 943:1 1019:1 1066:1 1128:1 1184:1 1278:1 1333:1 1364:1 1424:1 1533:1 
-0.01 1:1 5:1 9:1 16:1 19:1 21:1 28:1 32:1 35:1 40:1 43:1 47:1 50:1 53:1 57:1 62:1 65:1 70:1 73:1 80:1 81:1 97:1 116:1 143:1 153:1 164:1 192:1 207:1 220:1 239:1 251:1 266:1 277:1 289:1 306:1 325:1 338:1 357:1 372:1 385:1 452:1 527:1 633:1 676:1 720:1 831:1 892:1 943:1 1019:1 1066:1 1125:1 1169:1 1218:1 1285:1 1362:1 1413:1 1492:1 
-0.01 1:1 5:1 9:1 16:1 19:1 22:1 26:1 32:1 35:1 40:1 43:1 47:1 50:1 56:1 60:1 61:1 68:1 71:1 76:1 79:1 81:1 97:1 116:1 143:1 154:1 166:1 184:1 207:1 220:1 239:1 251:1 266:1 280:1 304:1 317:1 324:1 351:1 364:1 383:1 385:1 452:1 527:1 634:1 678:1 728:1 799:1 892:1 943:1 1019:1 1066:1 1128:1 1184:1 1277:1 1332:1 1359:1 1468:1 1519:1 
0.01 1:1 5:1 9:1 16:1 19:1 22:1 28:1 32:1 35:1 40:1 43:1 47:1 50:1 56:1 59:1 63:1 66:1 70:1 73:1 78:1 81:1 97:1 116:1 143:1 154:1 168:1 192:1 207:1 220:1 239:1 251:1 266:1 280:1 303:1 315:1 330:1 342:1 357:1 370:1 385:1 452:1 527:1 634:1 680:1 736:1 831:1 892:1 943:1 1019:1 1066:1 1128:1 1183:1 1275:1 1322:1 1382:1 1429:1 1490:1 
-0.0015631311003240546 1:1 5:1 9:1 16:1 19:1 24:1 28:1 32:1 35:1 40:1 43:1 47:1 50:1 56:1 59:1 63:1 67:1 72:1 76:1 80:1 81:1 97:1 116:1 143:1 156:1 176:1 192:1 207:1 220:1 239:1 251:1 266:1 280:1 303:1 315:1 331:1 348:1 368:1 384:1 385:1 452:1 527:1 636:1 688:1 768:1 831:1 892:1 943:1 1019:1 1066:1 1128:1 1183:1 1275:1 1323:1 1388:1 1456:1 1536:1 
-0.01 1:1 5:1 9:1 16:1 20:1 22:1 28:1 32:1 35:1 40:1 43:1 47:1 50:1 56:1 59:1 61:1 67:1 69:1 74:1 77:1 81:1 97:1 116:1 144:1 158:1 168:1 192:1 207:1 220:1 239:1 251:1 266:1 280:1 303:1 313:1 323:1 345:1 354:1 373:1 385:1 452:1 528:1 638:1 696:1 736:1 831:1 892:1 943:1 1019:1 1066:1 1128:1 1183:1 1273:1 1315:1 1353:1 1442:1 1477:1 
-0.01 1:1 5:1 9:1 16:1 20:1 22:1 28:1 32:1 35:1 40:1 43:1 47:1 50:1 56:1 60:1 63:1 66:1 70:1 73:1 80:1 81:1 97:1 116:1 144:1 158:1 168:1 192:1 207:1 220:1 239:1 251:1 266:1 280:1 304:1 319:1 330:1 342:1 357:1 372:1 385:1 452:1 528:1 638:1 696:1 736:1 831:1 892:1 943:1 1019:1 1066:1 1128:1 1184:1 1279:1 1338:1 1382:1 1429:1 1492:1 
-0.01 1:1 5:1 9:1 16:1 20:1 23:1 26:1 32:1 35:1 40:1 43:1 47:1 50:1 56:1 60:1 64:1 67:1 70:1 74:1 77:1 81:1 97:1 116:1 144:1 159:1 170:1 184:1 207:1 220:1 239:1 251:1 266:1 280:1 304:1 320:1 335:1 346:1 358:1 373:1 385:1 452:1 528:1 639:1 698:1 744:1 799:1 892:1 943:1 1019:1 1066:1 1128:1 1184:1 1280:1 1343:1 1402:1 1446:1 1493:1 
-0.01 1:1 5:1 9:1 16:1 20:1 24:1 28:1 32:1 35:1 40:1 43:1 47:1 50:1 53:1 57:1 64:1 67:1 69:1 73:1 77:1 81:1 97:1 116:1 144:1 160:1 176:1 192:1 207:1 220:1 239:1 251:1 266:1 277:1 289:1 308:1 335:1 345:1 353:1 369:1 385:1 452:1 528:1 640:1 704:1 768:1 831:1 892:1 943:1 1019:1 1066:1 1125:1 1169:1 1220:1 1295:1 1401:1 1441:1 1473:1 
0.0094638645942855173 1:1 5:1 9:1 16:1 20:1 24:1 28:1 32:1 35:1 40:1 43:1 47:1 50:1 54:1 57:1 62:1 67:1 69:1 73:1 79:1 81:1 97:1 116:1 144:1 160:1 176:1 192:1 207:1 220:1 239:1 251:1 266:1 278:1 293:1 306:1 327:1 345:1 353:1 371:1 385:1 452:1 528:1 640:1 704:1 768:1 831:1 892:1 943:1 1019:1 1066:1 1126:1 1173:1 1234:1 1287:1 1369:1 1441:1 1475:1 
-0.01 1:1 5:1 9:1 16:1 20:1 24:1 28:1 32:1 35:1 40:1 43:1 47:1 50:1 56:1 59:1 61:1 65:1 70:1 73:1 80:1 81:1 97:1 116:1 144:1 160:1 176:1 192:1 207:1 220:1 239:1 251:1 266:1 280:1 303:1 313:1 321:1 338:1 357:1 372:1 385:1 452:1 528:1 640:1 704:1 768:1 831:1 892:1 943:1 1019:1 1066:1 1128:1 1183:1 1273:1 1313:1 1346:1 1413:1 1492:1 
0.01 1:1 5:1 10:1 13:1 17:1 21:1 25:1 32:1 35:1 40:1 43:1 47:1 50:1 56:1 60:1 62:1 68:1 71:1 76:1 79:1 81:1 98:1 117:1 129:1 145:1 161:1 180:1 207:1 220:1 239:1 251:1 266:1 280:1 304:1 318:1 328:1 351:1 364:1 383:1 386:1 453:1 529:1 577:1 641:1 708:1 783:1 892:1 943:1 1019:1 1066:1 1128:1 1184:1 1278:1 1336:1 1375:1 1468:1 1519:1 
-0.01 1:1 5:1 10:1 13:1 18:1 22:1 26:1 32:1 35:1 40:1 43:1 47:1 50:1 56:1 60:1 62:1 68:1 71:1 75:1 78:1 81:1 98:1 117:1 130:1 150:1 166:1 184:1 207:1 220:1 239:1 251:1 266:1 280:1 304:1 318:1 328:1 351:1 363:1 378:1 386:1 453:1 530:1 582:1 662:1 728:1 799:1 892:1 943:1 1019:1 1066:1 1128:1 1184:1 1278:1 1336:1 1375:1 1467:1 1514:1 
-0.01 1:1 5:1 10:1 13:1 18:1 22:1 28:1 32:1 35:1 40:1 43:1 47:1 50:1 54:1 58:1 63:1 65:1 71:1 74:1 78:1 81:1 98:1 117:1 130:1 150:1 168:1 192:1 207:1 220:1 239:1 251:1 266:1 278:1 294:1 311:1 329:1 339:1 362:1 374:1 386:1 453:1 530:1 582:1 664:1 736:1 831:1 892:1 943:1 1019:1 1066:1 1126:1 1174:1 1239:1 1305:1 1379:1 1418:1 1510:1 
0.01 1:1 5:1 10:1 13:1 18:1 24:1 28:1 32:1 35:1 40:1 43:1 47:1 50:1 56:1 59:1 64:1 68:1 71:1 75:1 79:1 81:1 98:1 117:1 130:1 152:1 176:1 192:1 207:1 220:1 239:1 251:1 266:1 280:1 303:1 316:1 336:1 351:1 363:1 379:1 386:1 453:1 530:1 584:1 672:1 768:1 831:1 892:1 943:1 1019:1 1066:1 1128:1 1183:1 1276:1 1328:1 1407:1 1467:1 1515:1 
-0.01 1:1 5:1 10:1 13:1 20:1 21:1 25:1 32:1 35:1 40:1 43:1 47:1 50:1 56:1 57:1 64:1 65:1 72:1 76:1 80:1 81:1 98:1 117:1 132:1 157:1 161:1 180:1 207:1 220:1 239:1 251:1 266:1 280:1 301:1 308:1 333:1 340:1 368:1 384:1 386:1 453:1 532:1 589:1 689:1 708:1 783:1 892:1 943:1 1019:1 1066:1 1128:1 1181:1 1268:1 1293:1 1396:1 1424:1 1536:1 
0.0008674620765703469 1:1 5:1 10:1 13:1 20:1 22:1 26:1 32:1 35:1 40:1 43:1 47:1 50:1 56:1 60:1 62:1 68:1 71:1 74:1 77:1 81:1 98:1 117:1 132:1 158:1 166:1 184:1 207:1 220:1 239:1 251:1 266:1 280:1 304:1 318:1 328:1 351:1 362:1 373:1 386:1 453:1 532:1 590:1 694:1 728:1 799:1 892:1 943:1 1019:1 1066:1 1128:1 1184:1 1278:1 1336:1 1375:1 1466:1 1509:1 
0.01 1:1 5:1 10:1 14:1 17:1 24:1 28:1 32:1 35:1 40:1 43:1 47:1 50:1 54:1 58:1 61:1 65:1 71:1 76:1 79:1 81:1 98:1 118:1 133:1 148:1 176:1 192:1 207:1 220:1 239:1 251:1 266:1 278:1 294:1 309:1 321:1 339:1 364:1 383:1 386:1 454:1 533:1 596:1 656:1 768:1 831:1 892:1 943:1 1019:1 1066:1 1126:1 1174:1 1237:1 1297:1 1347:1 1420:1 1519:1 
-0.01 1:1 5:1 10:1 14:1 18:1 21:1 28:1 32:1 35:1 40:1 43:1 47:1 50:1 56:1 60:1 62:1 66:1 72:1 74:1 78:1 81:1 98:1 118:1 134:1 149:1 164:1 192:1 207:1 220:1 239:1 251:1 266:1 280:1 304:1 318:1 326:1 344:1 366:1 374:1 386:1 454:1 534:1 597:1 660:1 720:1 831:1 892:1 943:1 1019:1 1066:1 1128:1 1184:1 1278:1 1334:1 1368:1 1438:1 1526:1 
0.01 1:1 5:1 10:1 14:1 19:1 23:1 28:1 32:1 35:1 40:1 43:1 47:1 50:1 54:1 58:1 64:1 66:1 71:1 73:1 79:1 81:1 98:1 118:1 135:1 155:1 172:1 192:1 207:1 220:1 239:1 251:1 266:1 278:1 294:1 312:1 334:1 343:1 361:1 371:1 386:1 454:1 535:1 603:1 684:1 752:1 831:1 892:1 943:1 1019:1 1066:1 1126:1 1174:1 1240:1 1310:1 1399:1 1433:1 1507:1 
0.0081744761230062371 1:1 5:1 10:1 14:1 20:1 21:1 28:1 32:1 35:1 40:1 43:1 47:1 50:1 56:1 59:1 61:1 65:1 69:1 74:1 77:1 81:1 98:1 118:1 136:1 157:1 164:1 192:1 207:1 220:1 239:1 251:1 266:1 280:1 303:1 313:1 321:1 337:1 354:1 373:1 386:1 454:1 536:1 605:1 692:1 720:1 831:1 892:1 943:1 1019:1 1066:1 1128:1 1183:1 1273:1 1313:1 1345:1 1410:1 1477:1 
-0.01 1:1 5:1 10:1 15:1 17:1 23:1 28:1 32:1 35:1 40:1 43:1 47:1 50:1 56:1 59:1 61:1 67:1 71:1 73:1 78:1 81:1 98:1 119:1 137:1 147:1 172:1 192:1 207:1 220:1 239:1 251:1 266:1 280:1 303:1 313:1 323:1 347:1 361:1 370:1 386:1 455:1 537:1 611:1 652:1 752:1 831:1 892:1 943:1 1019:1 1066:1 1128:1 1183:1 1273:1 1315:1 1355:1 1449:1 1506:1 
-0.01 1:1 5:1 10:1 16:1 17:1 23:1 28:1 32:1 35:1 40:1 43:1 47:1 50:1 54:1 57:1 61:1 65:1 71:1 74:1 80:1 81:1 98:1 120:1 141:1 147:1 172:1 192:1 207:1 220:1 239:1 251:1 266:1 278:1 293:1 305:1 321:1 339:1 362:1 376:1 386:1 456:1 541:1 627:1 652:1 752:1 831:1 892:1 943:1 1019:1 1066:1 1126:1 1173:1 1233:1 1281:1 1347:1 1418:1 1512:1 
-0.01 1:1 5:1 10:1 16:1 19:1 21:1 26:1 32:1 35:1 40:1 43:1 47:1 50:1 56:1 60:1 64:1 66:1 69:1 76:1 79:1 81:1 98:1 120:1 143:1 153:1 162:1 184:1 207:1 220:1 239:1 251:1 266:1 280:1 304:1 320:1 334:1 341:1 356:1 383:1 386:1 456:1 543:1 633:1 674:1 712:1 799:1 892:1 943:1 1019:1 1066:1 1128:1 1184:1 1280:1 1342:1 1397:1 1428:1 1487:1 
0.01 1:1 5:1 10:1 16:1 20:1 24:1 28:1 32:1 35:1 40:1 43:1 47:1 50:1 53:1 57:1 61:1 68:1 70:1 76:1 78:1 81:1 98:1 120:1 144:1 160:1 176:1 192:1 207:1 220:1 239:1 251:1 266:1 277:1 289:1 305:1 324:1 350:1 360:1 382:1 386:1 456:1 544:1 640:1 704:1 768:1 831:1 892:1 943:1 1019:1 1066:1 1125:1 1169:1 1217:1 1284:1 1358:1 1464:1 1502:1 
-0.01 1:1 5:1 11:1 13:1 17:1 24:1 28:1 32:1 35:1 40:1 43:1 47:1 50:1 56:1 57:1 62:1 66:1 72:1 76:1 80:1 81:1 99:1 121:1 129:1 148:1 176:1 192:1 207:1 220:1 239:1 251:1 266:1 280:1 301:1 306:1 326:1 344:1 368:1 384:1 387:1 457:1 545:1 580:1 656:1 768:1 831:1 892:1 943:1 1019:1 1066:1 1128:1 1181:1 1266:1 1286:1 1368:1 1440:1 1536:1 
-0.01 1:1 5:1 11:1 13:1 18:1 21:1 26:1 32:1 35:1 40:1 43:1 47:1 50:1 56:1 60:1 63:1 65:1 69:1 76:1 79:1 81:1 99:1 121:1 130:1 149:1 162:1 184:1 207:1 220:1 239:1 251:1 266:1 280:1 304:1 319:1 329:1 337:1 356:1 383:1 387:1 457:1 546:1 581:1 658:1 712:1 799:1 892:1 943:1 1019:1 1066:1 1128:1 1184:1 1279:1 1337:1 1377:1 1412:1 1487:1 
0.0094442246890729994 1:1 5:1 11:1 13:1 18:1 22:1 28:1 32:1 35:1 40:1 43:1 47:1 50:1 56:1 58:1 61:1 68:1 70:1 76:1 80:1 81:1 99:1 121:1 130:1 150:1 168:1 192:1 207:1 220:1 239:1 251:1 266:1 280:1 302:1 309:1 324:1 350:1 360:1 384:1 387:1 457:1 546:1 582:1 664:1 736:1 831:1 892:1 943:1 1019:1 1066:1 1128:1 1182:1 1269:1 1300:1 1358:1 1464:1 1504:1 
0.0085218858235087472 1:1 5:1 11:1 13:1 19:1 21:1 28:1 32:1 35:1 40:1 43:1 47:1 50:1 53:1 60:1 63:1 65:1 72:1 76:1 77:1 81:1 99:1 121:1 131:1 153:1 164:1 192:1 207:1 220:1 239:1 251:1 266:1 277:1 292:1 319:1 329:1 340:1 368:1 381:1 387:1 457:1 547:1 585:1 676:1 720:1 831:1 892:1 943:1 1019:1 1066:1 1125:1 1172:1 1231:1 1337:1 1380:1 1424:1 1533:1 
0.01 1:1 5:1 11:1 13:1 19:1 24:1 25:1 32:1 35:1 40:1 43:1 47:1 50:1 56:1 60:1 64:1 67:1 70:1 74:1 80:1 81:1 99:1 121:1 131:1 156:1 173:1 180:1 207:1 220:1 239:1 251:1 266:1 280:1 304:1 320:1 335:1 346:1 358:1 376:1 387:1 457:1 547:1 588:1 685:1 756:1 783:1 892:1 943:1 1019:1 1066:1 1128:1 1184:1 1280:1 1343:1 1402:1 1446:1 1496:1 
-0.002815252848183146 1:1 5:1 11:1 13:1 20:1 22:1 28:1 32:1 35:1 40:1 43:1 47:1 50:1 56:1 59:1 62:1 66:1 72:1 74:1 80:1 81:1 99:1 121:1 132:1 158:1 168:1 192:1 207:1 220:1 239:1 251:1 266:1 280:1 303:1 314:1 326:1 344:1 366:1 376:1 387:1 457:1 548:1 590:1 696:1 736:1 831:1 892:1 943:1 1019:1 1066:1 1128:1 1183:1 1274:1 1318:1 1368:1 1438:1 1528:1 
-0.01 1:1 5:1 11:1 14:1 17:1 23:1 26:1 32:1 35:1 40:1 43:1 47:1 50:1 56:1 57:1 63:1 65:1 71:1 73:1 80:1 81:1 99:1 122:1 133:1 147:1 170:1 184:1 207:1 220:1 239:1 251:1 266:1 280:1 301:1 307:1 329:1 339:1 361:1 372:1 387:1 458:1 549:1 595:1 650:1 744:1 799:1 892:1 943:1 1019:1 1066:1 1128:1 1181:1 1267:1 1289:1 1379:1 1417:1 1508:1 
0.01 1:1 5:1 11:1 14:1 18:1 22:1 28:1 32:1 35:1 40:1 43:1 47:1 50:1 54:1 60:1 63:1 67:1 69:1 73:1 79:1 81:1 99:1 122:1 134:1 150:1 168:1 192:1 207:1 220:1 239:1 251:1 266:1 278:1 296:1 319:1 331:1 345:1 353:1 371:1 387:1 458:1 550:1 598:1 664:1 736:1 831:1 892:1 943:1 1019:1 1066:1 1126:1 1176:1 1247:1 1339:1 1385:1 1441:1 1475:1 
-0.01 1:1 5:1 11:1 14:1 19:1 23:1 25:1 32:1 35:1 40:1 43:1 47:1 50:1 56:1 60:1 61:1 65:1 69:1 75:1 77:1 81:1 99:1 122:1 135:1 155:1 169:1 180:1 207:1 220:1 239:1 251:1 266:1 280:1 304:1 317:1 321:1 337:1 355:1 377:1 387:1 458:1 551:1 603:1 681:1 740:1 783:1 892:1 943:1 1019:1 1066:1 1128:1 1184:1 1277:1 1329:1 1345:1 1411:1 1481:1 
-0.0059345610191211453 1:1 5:1 11:1 15:1 17:1 23:1 28:1 32:1 35:1 40:1 43:1 47:1 50:1 53:1 57:1 64:1 68:1 72:1 73:1 77:1 81:1 99:1 123:1 137:1 147:1 172:1 192:1 207:1 220:1 239:1 251:1 266:1 277:1 289:1 308:1 336:1 352:1 365:1 369:1 387:1 459:1 553:1 611:1 652:1 752:1 831:1 892:1 943:1 1019:1 1066:1 1125:1 1169:1 1220:1 1296:1 1408:1 1469:1 1521:1 
0.0089802301093386393 1:1 5:1 11:1 15:1 18:1 21:1 28:1 32:1 35:1 40:1 43:1 47:1 50:1 56:1 60:1 62:1 66:1 72:1 76:1 78:1 81:1 99:1 123:1 138:1 149:1 164:1 192:1 207:1 220:1 239:1 251:1 266:1 280:1 304:1 318:1 326:1 344:1 368:1 382:1 387:1 459:1 554:1 613:1 660:1 720:1 831:1 892:1 943:1 1019:1 1066:1 1128:1 1184:1 1278:1 1334:1 1368:1 1440:1 1534:1 
-0.0036395885878382959 1:1 5:1 11:1 15:1 18:1 23:1 28:1 32:1 35:1 40:1 43:1 47:1 50:1 53:1 60:1 62:1 65:1 71:1 76:1 80:1 81:1 99:1 123:1 138:1 151:1 172:1 192:1 207:1 220:1 239:1 251:1 266:1 277:1 292:1 318:1 325:1 339:1 364:1 384:1 387:1 459:1 554:1 615:1 668:1 752:1 831:1 892:1 943:1 1019:1 1066:1 1125:1 1172:1 1230:1 1333:1 1363:1 1420:1 1520:1 
0.01 1:1 5:1 11:1 15:1 18:1 24:1 26:1 32:1 35:1 40:1 43:1 47:1 50:1 56:1 57:1 63:1 67:1 72:1 73:1 77:1 81:1 99:1 123:1 138:1 152:1 174:1 184:1 207:1 220:1 239:1 251:1 266:1 280:1 301:1 307:1 331:1 348:1 365:1 369:1 387:1 459:1 554:1 616:1 670:1 760:1 799:1 892:1 943:1 1019:1 1066:1 1128:1 1181:1 1267:1 1291:1 1388:1 1453:1 1521:1 
0.01 1:1 5:1 11:1 15:1 19:1 24:1 26:1 32:1 35:1 40:1 43:1 47:1 50:1 56:1 60:1 62:1 68:1 70:1 76:1 80:1 81:1 99:1 123:1 139:1 156:1 174:1 184:1 207:1 220:1 239:1 251:1 266:1 280:1 304:1 318:1 328:1 350:1 360:1 384:1 387:1 459:1 555:1 620:1 686:1 760:1 799:1 892:1 943:1 1019:1 1066:1 1128:1 1184:1 1278:1 1336:1 1374:1 1464:1 1504:1 
-0.01 1:1 5:1 11:1 15:1 19:1 24:1 28:1 32:1 35:1 40:1 43:1 47:1 50:1 56:1 60:1 63:1 65:1 72:1 76:1 79:1 81:1 99:1 123:1 139:1 156:1 176:1 192:1 207:1 220:1 239:1 251:1 266:1 280:1 304:1 319:1 329:1 340:1 368:1 383:1 387:1 459:1 555:1 620:1 688:1 768:1 831:1 892:1 943:1 1019:1 1066:1 1128:1 1184:1 1279:1 1337:1 1380:1 1424:1 1535:1 
0.0039234830738157575 1:1 5:1 11:1 16:1 17:1 22:1 28:1 32:1 35:1 40:1 43:1 47:1 50:1 56:1 59:1 63:1 68:1 71:1 76:1 80:1 81:1 99:1 124:1 141:1 146:1 168:1 192:1 207:1 220:1 239:1 251:1 266:1 280:1 303:1 315:1 332:1 351:1 364:1 384:1 387:1 460:1 557:1 626:1 648:1 736:1 831:1 892:1 943:1 1019:1 1066:1 1128:1 1183:1 1275:1 1324:1 1391:1 1468:1 1520:1 
-0.01 1:1 5:1 11:1 16:1 18:1 21:1 28:1 32:1 35:1 40:1 43:1 47:1 50:1 56:1 57:1 64:1 67:1 72:1 75:1 77:1 81:1 99:1 124:1 142:1 149:1 164:1 192:1 207:1 220:1 239:1 251:1 266:1 280:1 301:1 308:1 335:1 348:1 367:1 377:1 387:1 460:1 558:1 629:1 660:1 720:1 831:1 892:1 943:1 1019:1 1066:1 1128:1 1181:1 1268:1 1295:1 1404:1 1455:1 1529:1 
-0.01 1:1 5:1 11:1 16:1 18:1 22:1 28:1 32:1 35:1 40:1 43:1 47:1 50:1 56:1 59:1 64:1 66:1 69:1 76:1 79:1 81:1 99:1 124:1 142:1 150:1 168:1 192:1 207:1 220:1 239:1 251:1 266:1 280:1 303:1 316:1 334:1 341:1 356:1 383:1 387:1 460:1 558:1 630:1 664:1 736:1 831:1 892:1 943:1 1019:1 1066:1 1128:1 1183:1 1276:1 1326:1 1397:1 1428:1 1487:1 
-0.01 1:1 5:1 11:1 16:1 18:1 24:1 28:1 32:1 35:1 40:1 43:1 47:1 50:1 54:1 60:1 64:1 67:1 71:1 73:1 80:1 81:1 99:1 124:1 142:1 152:1 176:1 192:1 207:1 220:1 239:1 251:1 266:1 278:1 296:1 320:1 335:1 347:1 361:1 372:1 387:1 460:1 558:1 632:1 672:1 768:1 831:1 892:1 943:1 1019:1 1066:1 1126:1 1176:1 1248:1 1343:1 1403:1 1449:1 1508:1 
0.01 1:1 5:1 11:1 16:1 18:1 24:1 28:1 32:1 35:1 40:1 43:1 47:1 50:1 56:1 57:1 64:1 65:1 72:1 76:1 80:1 81:1 99:1 124:1 142:1 152:1 176:1 192:1 207:1 220:1 239:1 251:1 266:1 280:1 301:1 308:1 333:1 340:1 368:1 384:1 387:1 460:1 558:1 632:1 672:1 768:1 831:1 892:1 943:1 1019:1 1066:1 1128:1 1181:1 1268:1 1293:1 1396:1 1424:1 1536:1 
-0.01 1:1 5:1 11:1 16:1 19:1 24:1 28:1 32:1 35:1 40:1 43:1 47:1 50:1 56:1 59:1 63:1 67:1 70:1 76:1 80:1 81:1 99:1 124:1 143:1 156:1 176:1 192:1 207:1 220:1 239:1 251:1 266:1 280:1 303:1 315:1 331:1 346:1 360:1 384:1 387:1 460:1 559:1 636:1 688:1 768:1 831:1 892:1 943:1 1019:1 1066:1 1128:1 1183:1 1275:1 1323:1 1386:1 1448:1 1504:1 
-0.01 1:1 5:1 11:1 16:1 19:1 24:1 28:1 32:1 35:1 40:1 43:1 47:1 50:1 56:1 60:1 64:1 65:1 71:1 73:1 77:1 81:1 99:1 124:1 143:1 156:1 176:1 192:1 207:1 220:1 239:1 251:1 266:1 280:1 304:1 320:1 333:1 339:1 361:1 369:1 387:1 460:1 559:1 636:1 688:1 768:1 831:1 892:1 943:1 1019:1 1066:1 1128:1 1184:1 1280:1 1341:1 1395:1 1417:1 1505:1 
-0.0040544680393060284 1:1 5:1 11:1 16:1 20:1 21:1 28:1 32:1 35:1 40:1 43:1 47:1 50:1 56:1 58:1 64:1 66:1 69:1 74:1 77:1 81:1 99:1 124:1 144:1 157:1 164:1 192:1 207:1 220:1 239:1 251:1 266:1 280:1 302:1 312:1 334:1 341:1 354:1 373:1 387:1 460:1 560:1 637:1 692:1 720:1 831:1 892:1 943:1 1019:1 1066:1 1128:1 1182:1 1272:1 1310:1 1397:1 1426:1 1477:1 
0.01 1:1 5:1 11:1 16:1 20:1 22:1 26:1 32:1 35:1 40:1 43:1 47:1 50:1 56:1 60:1 64:1 65:1 71:1 74:1 78:1 81:1 99:1 124:1 144:1 158:1 166:1 184:1 207:1 220:1 239:1 251:1 266:1 280:1 304:1 320:1 333:1 339:1 362:1 374:1 387:1 460:1 560:1 638:1 694:1 728:1 799:1 892:1 943:1 1019:1 1066:1 1128:1 1184:1 1280:1 1341:1 1395:1 1418:1 1510:1 
0.01 1:1 5:1 11:1 16:1 20:1 22:1 28:1 32:1 35:1 40:1 43:1 47:1 50:1 56:1 60:1 64:1 68:1 72:1 74:1 78:1 81:1 99:1 124:1 144:1 158:1 168:1 192:1 207:1 220:1 239:1 251:1 266:1 280:1 304:1 320:1 336:1 352:1 366:1 374:1 387:1 460:1 560:1 638:1 696:1 736:1 831:1 892:1 943:1 1019:1 1066:1 1128:1 1184:1 1280:1 1344:1 1408:1 1470:1 1526:1 
0.01 1:1 5:1 12:1 13:1 18:1 22:1 26:1 32:1 35:1 40:1 43:1 47:1 50:1 56:1 57:1 64:1 65:1 71:1 73:1 77:1 81:1 100:1 125:1 130:1 150:1 166:1 184:1 207:1 220:1 239:1 251:1 266:1 280:1 301:1 308:1 333:1 339:1 361:1 369:1 388:1 461:1 562:1 582:1 662:1 728:1 799:1 892:1 943:1 1019:1 1066:1 1128:1 1181:1 1268:1 1293:1 1395:1 1417:1 1505:1 
0.01 1:1 5:1 12:1 13:1 18:1 24:1 25:1 32:1 35:1 40:1 43:1 47:1 50:1 56:1 60:1 63:1 68:1 70:1 74:1 80:1 81:1 100:1 125:1 130:1 152:1 173:1 180:1 207:1 220:1 239:1 251:1 266:1 280:1 304:1 319:1 332:1 350:1 358:1 376:1 388:1 461:1 562:1 584:1 669:1 756:1 783:1 892:1 943:1 1019:1 1066:1 1128:1 1184:1 1279:1 1340:1 1390:1 1462:1 1496:1 
-0.01 1:1 5:1 12:1 13:1 18:1 24:1 26:1 32:1 35:1 40:1 43:1 47:1 50:1 56:1 57:1 64:1 68:1 69:1 76:1 80:1 81:1 100:1 125:1 130:1 152:1 174:1 184:1 207:1 220:1 239:1 251:1 266:1 280:1 301:1 308:1 336:1 349:1 356:1 384:1 388:1 461:1 562:1 584:1 670:1 760:1 799:1 892:1 943:1 1019:1 1066:1 1128:1 1181:1 1268:1 1296:1 1405:1 1460:1 1488:1 
-0.01 1:1 5:1 12:1 13:1 19:1 24:1 26:1 32:1 35:1 40:1 43:1 47:1 50:1 56:1 60:1 62:1 65:1 71:1 75:1 79:1 81:1 100:1 125:1 131:1 156:1 174:1 184:1 207:1 220:1 239:1 251:1 266:1 280:1 304:1 318:1 325:1 339:1 363:1 379:1 388:1 461:1 563:1 588:1 686:1 760:1 799:1 892:1 943:1 1019:1 1066:1 1128:1 1184:1 1278:1 1333:1 1363:1 1419:1 1515:1 
0.01 1:1 5:1 12:1 13:1 19:1 24:1 28:1 32:1 35:1 40:1 43:1 47:1 50:1 53:1 60:1 64:1 68:1 72:1 74:1 77:1 81:1 100:1 125:1 131:1 156:1 176:1 192:1 207:1 220:1 239:1 251:1 266:1 277:1 292:1 320:1 336:1 352:1 366:1 373:1 388:1 461:1 563:1 588:1 688:1 768:1 831:1 892:1 943:1 1019:1 1066:1 1125:1 1172:1 1232:1 1344:1 1408:1 1470:1 1525:1 
-0.0090277905661807368 1:1 5:1 12:1 13:1 20:1 21:1 25:1 32:1 35:1 40:1 43:1 47:1 50:1 56:1 60:1 64:1 68:1 71:1 75:1 77:1 81:1 100:1 125:1 132:1 157:1 161:1 180:1 207:1 220:1 239:1 251:1 266:1 280:1 304:1 320:1 336:1 351:1 363:1 377:1 388:1 461:1 564:1 589:1 689:1 708:1 783:1 892:1 943:1 1019:1 1066:1 1128:1 1184:1 1280:1 1344:1 1407:1 1467:1 1513:1 
-0.0045940700645056131 1:1 5:1 12:1 13:1 20:1 22:1 28:1 32:1 35:1 40:1 43:1 47:1 50:1 56:1 59:1 61:1 67:1 72:1 76:1 80:1 81:1 100:1 125:1 132:1 158:1 168:1 192:1 207:1 220:1 239:1 251:1 266:1 280:1 303:1 313:1 323:1 348:1 368:1 384:1 388:1 461:1 564:1 590:1 696:1 736:1 831:1 892:1 943:1 1019:1 1066:1 1128:1 1183:1 1273:1 1315:1 1356:1 1456:1 1536:1 
0.01 1:1 5:1 12:1 13:1 20:1 23:1 26:1 32:1 35:1 40:1 43:1 47:1 50:1 56:1 57:1 64:1 67:1 72:1 73:1 77:1 81:1 100:1 125:1 132:1 159:1 170:1 184:1 207:1 220:1 239:1 251:1 266:1 280:1 301:1 308:1 335:1 348:1 365:1 369:1 388:1 461:1 564:1 591:1 698:1 744:1 799:1 892:1 943:1 1019:1 1066:1 1128:1 1181:1 1268:1 1295:1 1404:1 1453:1 1521:1 
-0.01 1:1 5:1 12:1 14:1 17:1 21:1 26:1 32:1 35:1 40:1 43:1 47:1 50:1 56:1 60:1 63:1 68:1 70:1 73:1 80:1 81:1 100:1 126:1 133:1 145:1 162:1 184:1 207:1 220:1 239:1 251:1 266:1 280:1 304:1 319:1 332:1 350:1 357:1 372:1 388:1 462:1 565:1 593:1 642:1 712:1 799:1 892:1 943:1 1019:1 1066:1 1128:1 1184:1 1279:1 1340:1 1390:1 1461:1 1492:1 
-0.01 1:1 5:1 12:1 15:1 17:1 24:1 26:1 32:1 35:1 40:1 43:1 47:1 50:1 56:1 57:1 61:1 66:1 69:1 76:1 79:1 81:1 100:1 127:1 137:1 148:1 174:1 184:1 207:1 220:1 239:1 251:1 266:1 280:1 301:1 305:1 322:1 341:1 356:1 383:1 388:1 463:1 569:1 612:1 654:1 760:1 799:1 892:1 943:1 1019:1 1066:1 1128:1 1181:1 1265:1 1282:1 1349:1 1428:1 1487:1 
0.01 1:1 5:1 12:1 15:1 18:1 22:1 26:1 32:1 35:1 40:1 43:1 47:1 50:1 56:1 60:1 62:1 68:1 69:1 76:1 80:1 81:1 100:1 127:1 138:1 150:1 166:1 184:1 207:1 220:1 239:1 251:1 266:1 280:1 304:1 318:1 328:1 349:1 356:1 384:1 388:1 463:1 570:1 614:1 662:1 728:1 799:1 892:1 943:1 1019:1 1066:1 1128:1 1184:1 1278:1 1336:1 1373:1 1460:1 1488:1 
-0.01 1:1 5:1 12:1 15:1 18:1 24:1 26:1 32:1 35:1 40:1 43:1 47:1 50:1 56:1 57:1 62:1 65:1 71:1 75:1 79:1 81:1 100:1 127:1 138:1 152:1 174:1 184:1 207:1 220:1 239:1 251:1 266:1 280:1 301:1 306:1 325:1 339:1 363:1 379:1 388:1 463:1 570:1 616:1 670:1 760:1 799:1 892:1 943:1 1019:1 1066:1 1128:1 1181:1 1266:1 1285:1 1363:1 1419:1 1515:1 
0.0065818647316718106 1:1 5:1 12:1 15:1 18:1 24:1 26:1 32:1 35:1 40:1 43:1 47:1 50:1 56:1 60:1 64:1 66:1 69:1 75:1 78:1 81:1 100:1 127:1 138:1 152:1 174:1 184:1 207:1 220:1 239:1 251:1 266:1 280:1 304:1 320:1 334:1 341:1 355:1 378:1 388:1 463:1 570:1 616:1 670:1 760:1 799:1 892:1 943:1 1019:1 1066:1 1128:1 1184:1 1280:1 1342:1 1397:1 1427:1 1482:1 
0.01 1:1 5:1 12:1 15:1 18:1 24:1 26:1 32:1 35:1 40:1 43:1 47:1 50:1 56:1 60:1 64:1 68:1 70:1 73:1 79:1 81:1 100:1 127:1 138:1 152:1 174:1 184:1 207:1 220:1 239:1 251:1 266:1 280:1 304:1 320:1 336:1 350:1 357:1 371:1 388:1 463:1 570:1 616:1 670:1 760:1 799:1 892:1 943:1 1019:1 1066:1 1128:1 1184:1 1280:1 1344:1 1406:1 1461:1 1491:1 
0.01 1:1 5:1 12:1 15:1 19:1 21:1 25:1 32:1 35:1 40:1 43:1 47:1 50:1 56:1 57:1 63:1 65:1 69:1 75:1 80:1 81:1 100:1 127:1 139:1 153:1 161:1 180:1 207:1 220:1 239:1 251:1 266:1 280:1 301:1 307:1 329:1 337:1 355:1 380:1 388:1 463:1 571:1 617:1 673:1 708:1 783:1 892:1 943:1 1019:1 1066:1 1128:1 1181:1 1267:1 1289:1 1377:1 1411:1 1484:1 
-0.01 1:1 5:1 12:1 15:1 19:1 22:1 26:1 32:1 35:1 40:1 43:1 47:1 50:1 56:1 57:1 61:1 66:1 69:1 74:1 80:1 81:1 100:1 127:1 139:1 154:1 166:1 184:1 207:1 220:1 239:1 251:1 266:1 280:1 301:1 305:1 322:1 341:1 354:1 376:1 388:1 463:1 571:1 618:1 678:1 728:1 799:1 892:1 943:1 1019:1 1066:1 1128:1 1181:1 1265:1 1282:1 1349:1 1426:1 1480:1 
0.01 1:1 5:1 12:1 15:1 19:1 22:1 28:1 32:1 35:1 40:1 43:1 47:1 50:1 56:1 60:1 62:1 65:1 71:1 75:1 79:1 81:1 100:1 127:1 139:1 154:1 168:1 192:1 207:1 220:1 239:1 251:1 266:1 280:1 304:1 318:1 325:1 339:1 363:1 379:1 388:1 463:1 571:1 618:1 680:1 736:1 831:1 892:1 943:1 1019:1 1066:1 1128:1 1184:1 1278:1 1333:1 1363:1 1419:1 1515:1 
-0.01 1:1 5:1 12:1 16:1 18:1 22:1 28:1 32:1 35:1 40:1 43:1 47:1 50:1 56:1 60:1 61:1 67:1 69:1 75:1 79:1 81:1 100:1 128:1 142:1 150:1 168:1 192:1 207:1 220:1 239:1 251:1 266:1 280:1 304:1 317:1 323:1 345:1 355:1 379:1 388:1 464:1 574:1 630:1 664:1 736:1 831:1 892:1 943:1 1019:1 1066:1 1128:1 1184:1 1277:1 1331:1 1353:1 1443:1 1483:1 
0.0026298319900323903 1:1 5:1 12:1 16:1 18:1 22:1 28:1 32:1 35:1 40:1 43:1 47:1 50:1 56:1 60:1 63:1 68:1 69:1 74:1 77:1 81:1 100:1 128:1 142:1 150:1 168:1 192:1 207:1 220:1 239:1 251:1 266:1 280:1 304:1 319:1 332:1 349:1 354:1 373:1 388:1 464:1 574:1 630:1 664:1 736:1 831:1 892:1 943:1 1019:1 1066:1 1128:1 1184:1 1279:1 1340:1 1389:1 1458:1 1477:1 
-0.01 1:1 5:1 12:1 16:1 18:1 24:1 26:1 32:1 35:1 40:1 43:1 47:1 50:1 56:1 60:1 62:1 66:1 70:1 76:1 80:1 81:1 100:1 128:1 142:1 152:1 174:1 184:1 207:1 220:1 239:1 251:1 266:1 280:1 304:1 318:1 326:1 342:1 360:1 384:1 388:1 464:1 574:1 632:1 670:1 760:1 799:1 892:1 943:1 1019:1 1066:1 1128:1 1184:1 1278:1 1334:1 1366:1 1432:1 1504:1 
0.01 1:1 5:1 12:1 16:1 20:1 21:1 28:1 32:1 35:1 40:1 43:1 47:1 50:1 53:1 57:1 61:1 67:1 72:1 74:1 77:1 81:1 100:1 128:1 144:1 157:1 164:1 192:1 207:1 220:1 239:1 251:1 266:1 277:1 289:1 305:1 323:1 348:1 366:1 373:1 388:1 464:1 576:1 637:1 692:1 720:1 831:1 892:1 943:1 1019:1 1066:1 1125:1 1169:1 1217:1 1283:1 1356:1 1454:1 1525:1 
-0.0066079171318740972 1:1 6:1 9:1 13:1 18:1 21:1 28:1 32:1 35:1 40:1 43:1 47:1 50:1 56:1 59:1 64:1 66:1 72:1 74:1 79:1 82:1 101:1 113:1 130:1 149:1 164:1 192:1 207:1 220:1 239:1 251:1 266:1 280:1 303:1 316:1 334:1 344:1 366:1 375:1 389:1 465:1 514:1 581:1 660:1 720:1 831:1 892:1 943:1 1019:1 1066:1 1128:1 1183:1 1276:1 1326:1 1400:1 1438:1 1527:1 
-0.009950086479328631 1:1 6:1 9:1 13:1 19:1 24:1 28:1 32:1 35:1 40:1 43:1 47:1 50:1 54:1 59:1 61:1 66:1 70:1 76:1 79:1 82:1 101:1 113:1 131:1 156:1 176:1 192:1 207:1 220:1 239:1 251:1 266:1 278:1 295:1 313:1 322:1 342:1 360:1 383:1 389:1 465:1 515:1 588:1 688:1 768:1 831:1 892:1 943:1 1019:1 1066:1 1126:1 1175:1 1241:1 1314:1 1350:1 1432:1 1503:1 
-0.01 1:1 6:1 9:1 14:1 17:1 23:1 26:1 32:1 35:1 40:1 43:1 47:1 50:1 56:1 60:1 63:1 65:1 72:1 74:1 80:1 82:1 101:1 114:1 133:1 147:1 170:1 184:1 207:1 220:1 239:1 251:1 266:1 280:1 304:1 319:1 329:1 340:1 366:1 376:1 389:1 466:1 517:1 595:1 650:1 744:1 799:1 892:1 943:1 1019:1 1066:1 1128:1 1184:1 1279:1 1337:1 1380:1 1422:1 1528:1 
-0.0056725128008586279 1:1 6:1 9:1 14:1 17:1 24:1 28:1 32:1 35:1 40:1 43:1 47:1 50:1 54:1 57:1 63:1 66:1 72:1 76:1 80:1 82:1 101:1 114:1 133:1 148:1 176:1 192:1 207:1 220:1 239:1 251:1 266:1 278:1 293:1 307:1 330:1 344:1 368:1 384:1 389:1 466:1 517:1 596:1 656:1 768:1 831:1 892:1 943:1 1019:1 1066:1 1126:1 1173:1 1235:1 1290:1 1384:1 1440:1 1536:1 
0.01 1:1 6:1 9:1 14:1 18:1 22:1 28:1 32:1 35:1 40:1 43:1 47:1 50:1 54:1 60:1 63:1 65:1 70:1 74:1 80:1 82:1 101:1 114:1 134:1 150:1 168:1 192:1 207:1 220:1 239:1 251:1 266:1 278:1 296:1 319:1 329:1 338:1 358:1 376:1 389:1 466:1 518:1 598:1 664:1 736:1 831:1 892:1 943:1 1019:1 1066:1 1126:1 1176:1 1247:1 1337:1 1378:1 1414:1 1496:1 
0.01 1:1 6:1 9:1 14:1 18:1 22:1 28:1 32:1 35:1 40:1 43:1 47:1 50:1 56:1 60:1 61:1 68:1 72:1 73:1 77:1 82:1 101:1 114:1 134:1 150:1 168:1 192:1 207:1 220:1 239:1 251:1 266:1 280:1 304:1 317:1 324:1 352:1 365:1 369:1 389:1 466:1 518:1 598:1 664:1 736:1 831:1 892:1 943:1 1019:1 1066:1 1128:1 1184:1 1277:1 1332:1 1360:1 1469:1 1521:1 
-0.01 1:1 6:1 9:1 14:1 18:1 24:1 28:1 32:1 35:1 40:1 43:1 47:1 50:1 56:1 57:1 62:1 67:1 72:1 73:1 80:1 82:1 101:1 114:1 134:1 152:1 176:1 192:1 207:1 220:1 239:1 251:1 266:1 280:1 301:1 306:1 327:1 348:1 365:1 372:1 389:1 466:1 518:1 600:1 672:1 768:1 831:1 892:1 943:1 1019:1 1066:1 1128:1 1181:1 1266:1 1287:1 1372:1 1453:1 1524:1 
0.01 1:1 6:1 9:1 15:1 18:1 21:1 25:1 32:1 35:1 40:1 43:1 47:1 50:1 56:1 60:1 62:1 66:1 69:1 74:1 78:1 82:1 101:1 115:1 138:1 149:1 161:1 180:1 207:1 220:1 239:1 251:1 266:1 280:1 304:1 318:1 326:1 341:1 354:1 374:1 389:1 467:1 522:1 613:1 657:1 708:1 783:1 892:1 943:1 1019:1 1066:1 1128:1 1184:1 1278:1 1334:1 1365:1 1426:1 1478:1 
-0.01 1:1 6:1 9:1 15:1 18:1 22:1 26:1 32:1 35:1 40:1 43:1 47:1 50:1 56:1 60:1 63:1 67:1 69:1 73:1 79:1 82:1 101:1 115:1 138:1 150:1 166:1 184:1 207:1 220:1 239:1 251:1 266:1 280:1 304:1 319:1 331:1 345:1 353:1 371:1 389:1 467:1 522:1 614:1 662:1 728:1 799:1 892:1 943:1 1019:1 1066:1 1128:1 1184:1 1279:1 1339:1 1385:1 1441:1 1475:1 
0.01 1:1 6:1 9:1 15:1 18:1 22:1 28:1 32:1 35:1 40:1 43:1 47:1 50:1 54:1 57:1 62:1 66:1 69:1 76:1 78:1 82:1 101:1 115:1 138:1 150:1 168:1 192:1 207:1 220:1 239:1 251:1 266:1 278:1 293:1 306:1 326:1 341:1 356:1 382:1 389:1 467:1 522:1 614:1 664:1 736:1 831:1 892:1 943:1 1019:1 1066:1 1126:1 1173:1 1234:1 1286:1 1365:1 1428:1 1486:1 
0.0010259478008709493 1:1 6:1 9:1 15:1 18:1 24:1 26:1 32:1 35:1 40:1 43:1 47:1 50:1 56:1 57:1 64:1 65:1 69:1 76:1 80:1 82:1 101:1 115:1 138:1 152:1 174:1 184:1 207:1 220:1 239:1 251:1 266:1 280:1 301:1 308:1 333:1 337:1 356:1 384:1 389:1 467:1 522:1 616:1 670:1 760:1 799:1 892:1 943:1 1019:1 1066:1 1128:1 1181:1 1268:1 1293:1 1393:1 1412:1 1488:1 
0.01 1:1 6:1 9:1 15:1 18:1 24:1 28:1 32:1 35:1 40:1 43:1 47:1 50:1 56:1 59:1 62:1 68:1 70:1 76:1 79:1 82:1 101:1 115:1 138:1 152:1 176:1 192:1 207:1 220:1 239:1 251:1 266:1 280:1 303:1 314:1 328:1 350:1 360:1 383:1 389:1 467:1 522:1 616:1 672:1 768:1 831:1 892:1 943:1 1019:1 1066:1 1128:1 1183:1 1274:1 1320:1 1374:1 1464:1 1503:1 
-0.0073292212744807302 1:1 6:1 9:1 15:1 19:1 22:1 28:1 32:1 35:1 40:1 43:1 47:1 50:1 54:1 60:1 62:1 66:1 70:1 74:1 79:1 82:1 101:1 115:1 139:1 154:1 168:1 192:1 207:1 220:1 239:1 251:1 266:1 278:1 296:1 318:1 326:1 342:1 358:1 375:1 389:1 467:1 523:1 618:1 680:1 736:1 831:1 892:1 943:1 1019:1 1066:1 1126:1 1176:1 1246:1 1334:1 1366:1 1430:1 1495:1 
0.01 1:1 6:1 9:1 15:1 19:1 22:1 28:1 32:1 35:1 40:1 43:1 47:1 50:1 54:1 60:1 63:1 65:1 72:1 75:1 78:1 82:1 101:1 115:1 139:1 154:1 168:1 192:1 207:1 220:1 239:1 251:1 266:1 278:1 296:1 319:1 329:1 340:1 367:1 378:1 389:1 467:1 523:1 618:1 680:1 736:1 831:1 892:1 943:1 1019:1 1066:1 1126:1 1176:1 1247:1 1337:1 1380:1 1423:1 1530:1 
0.0012296341234549427 1:1 6:1 9:1 15:1 20:1 24:1 28:1 32:1 35:1 40:1 43:1 47:1 50:1 54:1 57:1 63:1 65:1 69:1 74:1 78:1 82:1 101:1 115:1 140:1 160:1 176:1 192:1 207:1 220:1 239:1 251:1 266:1 278:1 293:1 307:1 329:1 337:1 354:1 374:1 389:1 467:1 524:1 624:1 704:1 768:1 831:1 892:1 943:1 1019:1 1066:1 1126:1 1173:1 1235:1 1289:1 1377:1 1410:1 1478:1 
0.01 1:1 6:1 9:1 16:1 18:1 21:1 26:1 32:1 35:1 40:1 43:1 47:1 50:1 56:1 60:1 63:1 68:1 70:1 74:1 80:1 82:1 101:1 116:1 142:1 149:1 162:1 184:1 207:1 220:1 239:1 251:1 266:1 280:1 304:1 319:1 332:1 350:1 358:1 376:1 389:1 468:1 526:1 629:1 658:1 712:1 799:1 892:1 943:1 1019:1 1066:1 1128:1 1184:1 1279:1 1340:1 1390:1 1462:1 1496:1 
0.0003037105796935261 1:1 6:1 9:1 16:1 19:1 24:1 26:1 32:1 35:1 40:1 43:1 47:1 50:1 56:1 60:1 64:1 66:1 71:1 74:1 79:1 82:1 101:1 116:1 143:1 156:1 174:1 184:1 207:1 220:1 239:1 251:1 266:1 280:1 304:1 320:1 334:1 343:1 362:1 375:1 389:1 468:1 527:1 636:1 686:1 760:1 799:1 892:1 943:1 1019:1 1066:1 1128:1 1184:1 1280:1 1342:1 1399:1 1434:1 1511:1 
-0.01 1:1 6:1 9:1 16:1 20:1 22:1 28:1 32:1 35:1 40:1 43:1 47:1 50:1 54:1 58:1 64:1 65:1 72:1 74:1 77:1 82:1 101:1 116:1 144:1 158:1 168:1 192:1 207:1 220:1 239:1 251:1 266:1 278:1 294:1 312:1 333:1 340:1 366:1 373:1 389:1 468:1 528:1 638:1 696:1 736:1 831:1 892:1 943:1 1019:1 1066:1 1126:1 1174:1 1240:1 1309:1 1396:1 1422:1 1525:1 
-0.01 1:1 6:1 9:1 16:1 20:1 22:1 28:1 32:1 35:1 40:1 43:1 47:1 50:1 54:1 60:1 64:1 68:1 69:1 76:1 78:1 82:1 101:1 116:1 144:1 158:1 168:1 192:1 207:1 220:1 239:1 251:1 266:1 278:1 296:1 320:1 336:1 349:1 356:1 382:1 389:1 468:1 528:1 638:1 696:1 736:1 831:1 892:1 943:1 1019:1 1066:1 1126:1 1176:1 1248:1 1344:1 1405:1 1460:1 1486:1 
-0.01 1:1 6:1 9:1 16:1 20:1 24:1 26:1 32:1 35:1 40:1 43:1 47:1 50:1 56:1 60:1 64:1 68:1 72:1 75:1 80:1 82:1 101:1 116:1 144:1 160:1 174:1 184:1 207:1 220:1 239:1 251:1 266:1 280:1 304:1 320:1 336:1 352:1 367:1 380:1 389:1 468:1 528:1 640:1 702:1 760:1 799:1 892:1 943:1 1019:1 1066:1 1128:1 1184:1 1280:1 1344:1 1408:1 1471:1 1532:1 
0.01 1:1 6:1 9:1 16:1 20:1 24:1 28:1 32:1 35:1 40:1 43:1 47:1 50:1 53:1 60:1 61:1 66:1 70:1 73:1 79:1 82:1 101:1 116:1 144:1 160:1 176:1 192:1 207:1 220:1 239:1 251:1 266:1 277:1 292:1 317:1 322:1 342:1 357:1 371:1 389:1 468:1 528:1 640:1 704:1 768:1 831:1 892:1 943:1 1019:1 1066:1 1125:1 1172:1 1229:1 1330:1 1350:1 1429:1 1491:1 
0.01 1:1 6:1 10:1 13:1 17:1 22:1 26:1 32:1 35:1 40:1 43:1 47:1 50:1 56:1 60:1 64:1 68:1 69:1 74:1 80:1 82:1 102:1 117:1 129:1 146:1 166:1 184:1 207:1 220:1 239:1 251:1 266:1 280:1 304:1 320:1 336:1 349:1 354:1 376:1 390:1 469:1 529:1 578:1 646:1 728:1 799:1 892:1 943:1 1019:1 1066:1 1128:1 1184:1 1280:1 1344:1 1405:1 1458:1 1480:1 
-0.01 1:1 6:1 10:1 13:1 17:1 23:1 28:1 32:1 35:1 40:1 43:1 47:1 50:1 53:1 58:1 64:1 67:1 72:1 74:1 77:1 82:1 102:1 117:1 129:1 147:1 172:1 192:1 207:1 220:1 239:1 251:1 266:1 277:1 290:1 312:1 335:1 348:1 366:1 373:1 390:1 469:1 529:1 579:1 652:1 752:1 831:1 892:1 943:1 1019:1 1066:1 1125:1 1170:1 1224:1 1311:1 1404:1 1454:1 1525:1 
0.0045010142091709126 1:1 6:1 10:1 13:1 17:1 23:1 28:1 32:1 35:1 40:1 43:1 47:1 50:1 56:1 57:1 62:1 65:1 72:1 76:1 80:1 82:1 102:1 117:1 129:1 147:1 172:1 192:1 207:1 220:1 239:1 251:1 266:1 280:1 301:1 306:1 325:1 340:1 368:1 384:1 390:1 469:1 529:1 579:1 652:1 752:1 831:1 892:1 943:1 1019:1 1066:1 1128:1 1181:1 1266:1 1285:1 1364:1 1424:1 1536:1 
0.01 1:1 6:1 10:1 13:1 19:1 23:1 26:1 32:1 35:1 40:1 43:1 47:1 50:1 56:1 60:1 64:1 67:1 69:1 75:1 79:1 82:1 102:1 117:1 131:1 155:1 170:1 184:1 207:1 220:1 239:1 251:1 266:1 280:1 304:1 320:1 335:1 345:1 355:1 379:1 390:1 469:1 531:1 587:1 682:1 744:1 799:1 892:1 943:1 1019:1 1066:1 1128:1 1184:1 1280:1 1343:1 1401:1 1443:1 1483:1 
0.0095162955003368199 1:1 6:1 10:1 13:1 20:1 24:1 28:1 32:1 35:1 40:1 43:1 47:1 50:1 54:1 58:1 63:1 66:1 72:1 73:1 80:1 82:1 102:1 117:1 132:1 160:1 176:1 192:1 207:1 220:1 239:1 251:1 266:1 278:1 294:1 311:1 330:1 344:1 365:1 372:1 390:1 469:1 532:1 592:1 704:1 768:1 831:1 892:1 943:1 1019:1 1066:1 1126:1 1174:1 1239:1 1306:1 1384:1 1437:1 1524:1 
0.01 1:1 6:1 10:1 14:1 17:1 22:1 25:1 32:1 35:1 40:1 43:1 47:1 50:1 56:1 60:1 62:1 68:1 70:1 74:1 77:1 82:1 102:1 118:1 133:1 146:1 165:1 180:1 207:1 220:1 239:1 251:1 266:1 280:1 304:1 318:1 328:1 350:1 358:1 373:1 390:1 470:1 533:1 594:1 645:1 724:1 783:1 892:1 943:1 1019:1 1066:1 1128:1 1184:1 1278:1 1336:1 1374:1 1462:1 1493:1 
0.01 1:1 6:1 10:1 14:1 17:1 23:1 28:1 32:1 35:1 40:1 43:1 47:1 50:1 56:1 60:1 64:1 67:1 69:1 75:1 79:1 82:1 102:1 118:1 133:1 147:1 172:1 192:1 207:1 220:1 239:1 251:1 266:1 280:1 304:1 320:1 335:1 345:1 355:1 379:1 390:1 470:1 533:1 595:1 652:1 752:1 831:1 892:1 943:1 1019:1 1066:1 1128:1 1184:1 1280:1 1343:1 1401:1 1443:1 1483:1 
0.01 1:1 6:1 10:1 15:1 19:1 22:1 26:1 32:1 35:1 40:1 43:1 47:1 50:1 56:1 60:1 64:1 67:1 72:1 76:1 79:1 82:1 102:1 119:1 139:1 154:1 166:1 184:1 207:1 220:1 239:1 251:1 266:1 280:1 304:1 320:1 335:1 348:1 368:1 383:1 390:1 471:1 539:1 618:1 678:1 728:1 799:1 892:1 943:1 1019:1 1066:1 1128:1 1184:1 1280:1 1343:1 1404:1 1456:1 1535:1 
0.01 1:1 6:1 10:1 16:1 17:1 24:1 28:1 32:1 35:1 40:1 43:1 47:1 50:1 53:1 57:1 63:1 68:1 71:1 75:1 78:1 82:1 102:1 120:1 141:1 148:1 176:1 192:1 207:1 220:1 239:1 251:1 266:1 277:1 289:1 307:1 332:1 351:1 363:1 378:1 390:1 472:1 541:1 628:1 656:1 768:1 831:1 892:1 943:1 1019:1 1066:1 1125:1 1169:1 1219:1 1292:1 1391:1 1467:1 1514:1 
-0.01 1:1 6:1 10:1 16:1 18:1 23:1 28:1 32:1 35:1 40:1 43:1 47:1 50:1 53:1 57:1 63:1 67:1 71:1 73:1 79:1 82:1 102:1 120:1 142:1 151:1 172:1 192:1 207:1 220:1 239:1 251:1 266:1 277:1 289:1 307:1 331:1 347:1 361:1 371:1 390:1 472:1 542:1 631:1 668:1 752:1 831:1 892:1 943:1 1019:1 1066:1 1125:1 1169:1 1219:1 1291:1 1387:1 1449:1 1507:1 
-0.01 1:1 6:1 10:1 16:1 20:1 22:1 26:1 32:1 35:1 40:1 43:1 47:1 50:1 56:1 60:1 63:1 66:1 71:1 73:1 77:1 82:1 102:1 120:1 144:1 158:1 166:1 184:1 207:1 220:1 239:1 251:1 266:1 280:1 304:1 319:1 330:1 343:1 361:1 369:1 390:1 472:1 544:1 638:1 694:1 728:1 799:1 892:1 943:1 1019:1 1066:1 1128:1 1184:1 1279:1 1338:1 1383:1 1433:1 1505:1 
-0.01 1:1 6:1 10:1 16:1 20:1 23:1 26:1 32:1 35:1 40:1 43:1 47:1 50:1 56:1 60:1 61:1 67:1 71:1 73:1 80:1 82:1 102:1 120:1 144:1 159:1 170:1 184:1 207:1 220:1 239:1 251:1 266:1 280:1 304:1 317:1 323:1 347:1 361:1 372:1 390:1 472:1 544:1 639:1 698:1 744:1 799:1 892:1 943:1 1019:1 1066:1 1128:1 1184:1 1277:1 1331:1 1355:1 1449:1 1508:1 
-0.01 1:1 6:1 10:1 16:1 20:1 23:1 28:1 32:1 35:1 40:1 43:1 47:1 50:1 54:1 58:1 61:1 67:1 69:1 73:1 79:1 82:1 102:1 120:1 144:1 159:1 172:1 192:1 207:1 220:1 239:1 251:1 266:1 278:1 294:1 309:1 323:1 345:1 353:1 371:1 390:1 472:1 544:1 639:1 700:1 752:1 831:1 892:1 943:1 1019:1 1066:1 1126:1 1174:1 1237:1 1299:1 1353:1 1441:1 1475:1 
-0.01 1:1 6:1 11:1 16:1 19:1 23:1 25:1 32:1 35:1 40:1 43:1 47:1 50:1 56:1 60:1 63:1 68:1 70:1 73:1 78:1 82:1 103:1 124:1 143:1 155:1 169:1 180:1 207:1 220:1 239:1 251:1 266:1 280:1 304:1 319:1 332:1 350:1 357:1 370:1 391:1 476:1 559:1 635:1 681:1 740:1 783:1 892:1 943:1 1019:1 1066:1 1128:1 1184:1 1279:1 1340:1 1390:1 1461:1 1490:1 
-0.01 1:1 6:1 11:1 16:1 20:1 24:1 25:1 32:1 35:1 40:1 43:1 47:1 50:1 56:1 60:1 61:1 65:1 69:1 76:1 78:1 82:1 103:1 124:1 144:1 160:1 173:1 180:1 207:1 220:1 239:1 251:1 266:1 280:1 304:1 317:1 321:1 337:1 356:1 382:1 391:1 476:1 560:1 640:1 701:1 756:1 783:1 892:1 943:1 1019:1 1066:1 1128:1 1184:1 1277:1 1329:1 1345:1 1412:1 1486:1 
-0.01 1:1 6:1 12:1 13:1 17:1 21:1 28:1 32:1 35:1 40:1 43:1 47:1 50:1 56:1 57:1 64:1 68:1 70:1 74:1 77:1 82:1 104:1 125:1 129:1 145:1 164:1 192:1 207:1 220:1 239:1 251:1 266:1 280:1 301:1 308:1 336:1 350:1 358:1 373:1 392:1 477:1 561:1 577:1 644:1 720:1 831:1 892:1 943:1 1019:1 1066:1 1128:1 1181:1 1268:1 1296:1 1406:1 1462:1 1493:1 
-0.01 1:1 6:1 12:1 13:1 19:1 21:1 28:1 32:1 35:1 40:1 43:1 47:1 50:1 56:1 59:1 62:1 65:1 71:1 73:1 79:1 82:1 104:1 125:1 131:1 153:1 164:1 192:1 207:1 220:1 239:1 251:1 266:1 280:1 303:1 314:1 325:1 339:1 361:1 371:1 392:1 477:1 563:1 585:1 676:1 720:1 831:1 892:1 943:1 1019:1 1066:1 1128:1 1183:1 1274:1 1317:1 1363:1 1417:1 1507:1 
0.0030929984255505306 1:1 6:1 12:1 13:1 19:1 24:1 28:1 32:1 35:1 40:1 43:1 47:1 50:1 54:1 59:1 63:1 67:1 72:1 75:1 80:1 82:1 104:1 125:1 131:1 156:1 176:1 192:1 207:1 220:1 239:1 251:1 266:1 278:1 295:1 315:1 331:1 348:1 367:1 380:1 392:1 477:1 563:1 588:1 688:1 768:1 831:1 892:1 943:1 1019:1 1066:1 1126:1 1175:1 1243:1 1323:1 1388:1 1455:1 1532:1 
-0.01 1:1 6:1 12:1 13:1 20:1 23:1 25:1 32:1 35:1 40:1 43:1 47:1 50:1 56:1 57:1 63:1 67:1 72:1 75:1 80:1 82:1 104:1 125:1 132:1 159:1 169:1 180:1 207:1 220:1 239:1 251:1 266:1 280:1 301:1 307:1 331:1 348:1 367:1 380:1 392:1 477:1 564:1 591:1 697:1 740:1 783:1 892:1 943:1 1019:1 1066:1 1128:1 1181:1 1267:1 1291:1 1388:1 1455:1 1532:1 
0.01 1:1 6:1 12:1 13:1 20:1 24:1 26:1 32:1 35:1 40:1 43:1 47:1 50:1 56:1 60:1 64:1 68:1 72:1 73:1 77:1 82:1 104:1 125:1 132:1 160:1 174:1 184:1 207:1 220:1 239:1 251:1 266:1 280:1 304:1 320:1 336:1 352:1 365:1 369:1 392:1 477:1 564:1 592:1 702:1 760:1 799:1 892:1 943:1 1019:1 1066:1 1128:1 1184:1 1280:1 1344:1 1408:1 1469:1 1521:1 
0.0093395613659081108 1:1 6:1 12:1 14:1 17:1 22:1 28:1 32:1 35:1 40:1 43:1 47:1 50:1 53:1 60:1 62:1 68:1 70:1 73:1 80:1 82:1 104:1 126:1 133:1 146:1 168:1 192:1 207:1 220:1 239:1 251:1 266:1 277:1 292:1 318:1 328:1 350:1 357:1 372:1 392:1 478:1 565:1 594:1 648:1 736:1 831:1 892:1 943:1 1019:1 1066:1 1125:1 1172:1 1230:1 1336:1 1374:1 1461:1 1492:1 
-0.01 1:1 6:1 12:1 14:1 17:1 23:1 25:1 32:1 35:1 40:1 43:1 47:1 50:1 56:1 60:1 62:1 65:1 72:1 74:1 80:1 82:1 104:1 126:1 133:1 147:1 169:1 180:1 207:1 220:1 239:1 251:1 266:1 280:1 304:1 318:1 325:1 340:1 366:1 376:1 392:1 478:1 565:1 595:1 649:1 740:1 783:1 892:1 943:1 1019:1 1066:1 1128:1 1184:1 1278:1 1333:1 1364:1 1422:1 1528:1 
0.01 1:1 6:1 12:1 14:1 17:1 23:1 28:1 32:1 35:1 40:1 43:1 47:1 50:1 53:1 59:1 63:1 67:1 72:1 75:1 78:1 82:1 104:1 126:1 133:1 147:1 172:1 192:1 207:1 220:1 239:1 251:1 266:1 277:1 291:1 315:1 331:1 348:1 367:1 378:1 392:1 478:1 565:1 595:1 652:1 752:1 831:1 892:1 943:1 1019:1 1066:1 1125:1 1171:1 1227:1 1323:1 1388:1 1455:1 1530:1 
0.01 1:1 6:1 12:1 14:1 17:1 24:1 28:1 32:1 35:1 40:1 43:1 47:1 50:1 56:1 59:1 61:1 65:1 70:1 73:1 77:1 82:1 104:1 126:1 133:1 148:1 176:1 192:1 207:1 220:1 239:1 251:1 266:1 280:1 303:1 313:1 321:1 338:1 357:1 369:1 392:1 478:1 565:1 596:1 656:1 768:1 831:1 892:1 943:1 1019:1 1066:1 1128:1 1183:1 1273:1 1313:1 1346:1 1413:1 1489:1 
-0.01 1:1 6:1 12:1 14:1 18:1 24:1 28:1 32:1 35:1 40:1 43:1 47:1 50:1 53:1 59:1 62:1 65:1 71:1 73:1 78:1 82:1 104:1 126:1 134:1 152:1 176:1 192:1 207:1 220:1 239:1 251:1 266:1 277:1 291:1 314:1 325:1 339:1 361:1 370:1 392:1 478:1 566:1 600:1 672:1 768:1 831:1 892:1 943:1 1019:1 1066:1 1125:1 1171:1 1226:1 1317:1 1363:1 1417:1 1506:1 
0.01 1:1 6:1 12:1 14:1 20:1 22:1 28:1 32:1 35:1 40:1 43:1 47:1 50:1 54:1 58:1 61:1 68:1 69:1 73:1 77:1 82:1 104:1 126:1 136:1 158:1 168:1 192:1 207:1 220:1 239:1 251:1 266:1 278:1 294:1 309:1 324:1 349:1 353:1 369:1 392:1 478:1 568:1 606:1 696:1 736:1 831:1 892:1 943:1 1019:1 1066:1 1126:1 1174:1 1237:1 1300:1 1357:1 1457:1 1473:1 
0.0061539551343598323 1:1 6:1 12:1 14:1 20:1 23:1 26:1 32:1 35:1 40:1 43:1 47:1 50:1 56:1 60:1 64:1 68:1 70:1 74:1 78:1 82:1 104:1 126:1 136:1 159:1 170:1 184:1 207:1 220:1 239:1 251:1 266:1 280:1 304:1 320:1 336:1 350:1 358:1 374:1 392:1 478:1 568:1 607:1 698:1 744:1 799:1 892:1 943:1 1019:1 1066:1 1128:1 1184:1 1280:1 1344:1 1406:1 1462:1 1494:1 
0.01 1:1 6:1 12:1 16:1 17:1 21:1 28:1 32:1 35:1 40:1 43:1 47:1 50:1 56:1 57:1 61:1 66:1 70:1 76:1 78:1 82:1 104:1 128:1 141:1 145:1 164:1 192:1 207:1 220:1 239:1 251:1 266:1 280:1 301:1 305:1 322:1 342:1 360:1 382:1 392:1 480:1 573:1 625:1 644:1 720:1 831:1 892:1 943:1 1019:1 1066:1 1128:1 1181:1 1265:1 1282:1 1350:1 1432:1 1502:1 
-0.01 1:1 6:1 12:1 16:1 18:1 22:1 28:1 32:1 35:1 40:1 43:1 47:1 50:1 53:1 57:1 64:1 67:1 72:1 73:1 79:1 82:1 104:1 128:1 142:1 150:1 168:1 192:1 207:1 220:1 239:1 251:1 266:1 277:1 289:1 308:1 335:1 348:1 365:1 371:1 392:1 480:1 574:1 630:1 664:1 736:1 831:1 892:1 943:1 1019:1 1066:1 1125:1 1169:1 1220:1 1295:1 1404:1 1453:1 1523:1 
-0.01 1:1 6:1 12:1 16:1 18:1 24:1 26:1 32:1 35:1 40:1 43:1 47:1 50:1 56:1 60:1 62:1 66:1 69:1 74:1 78:1 82:1 104:1 128:1 142:1 152:1 174:1 184:1 207:1 220:1 239:1 251:1 266:1 280:1 304:1 318:1 326:1 341:1 354:1 374:1 392:1 480:1 574:1 632:1 670:1 760:1 799:1 892:1 943:1 1019:1 1066:1 1128:1 1184:1 1278:1 1334:1 1365:1 1426:1 1478:1 
0.01 1:1 6:1 12:1 16:1 19:1 22:1 25:1 32:1 35:1 40:1 43:1 47:1 50:1 56:1 60:1 64:1 68:1 70:1 76:1 78:1 82:1 104:1 128:1 143:1 154:1 165:1 180:1 207:1 220:1 239:1 251:1 266:1 280:1 304:1 320:1 336:1 350:1 360:1 382:1 392:1 480:1 575:1 634:1 677:1 724:1 783:1 892:1 943:1 1019:1 1066:1 1128:1 1184:1 1280:1 1344:1 1406:1 1464:1 1502:1 
-0.01 1:1 6:1 12:1 16:1 19:1 22:1 26:1 32:1 35:1 40:1 43:1 47:1 50:1 56:1 57:1 63:1 66:1 72:1 73:1 77:1 82:1 104:1 128:1 143:1 154:1 166:1 184:1 207:1 220:1 239:1 251:1 266:1 280:1 301:1 307:1 330:1 344:1 365:1 369:1 392:1 480:1 575:1 634:1 678:1 728:1 799:1 892:1 943:1 1019:1 1066:1 1128:1 1181:1 1267:1 1290:1 1384:1 1437:1 1521:1 
-0.0016951637708699399 1:1 6:1 12:1 16:1 19:1 22:1 26:1 32:1 35:1 40:1 43:1 47:1 50:1 56:1 60:1 62:1 66:1 69:1 74:1 78:1 82:1 104:1 128:1 143:1 154:1 166:1 184:1 207:1 220:1 239:1 251:1 266:1 280:1 304:1 318:1 326:1 341:1 354:1 374:1 392:1 480:1 575:1 634:1 678:1 728:1 799:1 892:1 943:1 1019:1 1066:1 1128:1 1184:1 1278:1 1334:1 1365:1 1426:1 1478:1 
-0.0069352166548868844 1:1 6:1 12:1 16:1 20:1 21:1 25:1 32:1 35:1 40:1 43:1 47:1 50:1 56:1 57:1 63:1 65:1 71:1 76:1 79:1 82:1 104:1 128:1 144:1 157:1 161:1 180:1 207:1 220:1 239:1 251:1 266:1 280:1 301:1 307:1 329:1 339:1 364:1 383:1 392:1 480:1 576:1 637:1 689:1 708:1 783:1 892:1 943:1 1019:1 1066:1 1128:1 1181:1 1267:1 1289:1 1379:1 1420:1 1519:1 
-0.01 1:1 6:1 12:1 16:1 20:1 22:1 28:1 32:1 35:1 40:1 43:1 47:1 50:1 54:1 57:1 64:1 68:1 71:1 74:1 80:1 82:1 104:1 128:1 144:1 158:1 168:1 192:1 207:1 220:1 239:1 251:1 266:1 278:1 293:1 308:1 336:1 351:1 362:1 376:1 392:1 480:1 576:1 638:1 696:1 736:1 831:1 892:1 943:1 1019:1 1066:1 1126:1 1173:1 1236:1 1296:1 1407:1 1466:1 1512:1 
0.01 1:1 6:1 12:1 16:1 20:1 24:1 28:1 32:1 35:1 40:1 43:1 47:1 50:1 56:1 60:1 61:1 66:1 70:1 73:1 79:1 82:1 104:1 128:1 144:1 160:1 176:1 192:1 207:1 220:1 239:1 251:1 266:1 280:1 304:1 317:1 322:1 342:1 357:1 371:1 392:1 480:1 576:1 640:1 704:1 768:1 831:1 892:1 943:1 1019:1 1066:1 1128:1 1184:1 1277:1 1330:1 1350:1 1429:1 1491:1 
-0.01 1:1 7:1 9:1 13:1 17:1 23:1 25:1 32:1 35:1 40:1 43:1 47:1 50:1 56:1 60:1 61:1 65:1 71:1 76:1 80:1 83:1 105:1 113:1 129:1 147:1 169:1 180:1 207:1 220:1 239:1 251:1 266:1 280:1 304:1 317:1 321:1 339:1 364:1 384:1 393:1 481:1 513:1 579:1 649:1 740:1 783:1 892:1 943:1 1019:1 1066:1 1128:1 1184:1 1277:1 1329:1 1347:1 1420:1 1520:1 
-0.01 1:1 7:1 9:1 13:1 18:1 22:1 25:1 32:1 35:1 40:1 43:1 47:1 50:1 56:1 57:1 63:1 68:1 72:1 76:1 78:1 83:1 105:1 113:1 130:1 150:1 165:1 180:1 207:1 220:1 239:1 251:1 266:1 280:1 301:1 307:1 332:1 352:1 368:1 382:1 393:1 481:1 514:1 582:1 661:1 724:1 783:1 892:1 943:1 1019:1 1066:1 1128:1 1181:1 1267:1 1292:1 1392:1 1472:1 1534:1 
0.009343268213707347 1:1 7:1 9:1 13:1 18:1 22:1 28:1 32:1 35:1 40:1 43:1 47:1 50:1 56:1 59:1 62:1 66:1 70:1 73:1 79:1 83:1 105:1 113:1 130:1 150:1 168:1 192:1 207:1 220:1 239:1 251:1 266:1 280:1 303:1 314:1 326:1 342:1 357:1 371:1 393:1 481:1 514:1 582:1 664:1 736:1 831:1 892:1 943:1 1019:1 1066:1 1128:1 1183:1 1274:1 1318:1 1366:1 1429:1 1491:1 
-0.0071988888653716845 1:1 7:1 9:1 13:1 19:1 22:1 26:1 32:1 35:1 40:1 43:1 47:1 50:1 56:1 57:1 62:1 68:1 70:1 76:1 80:1 83:1 105:1 113:1 131:1 154:1 166:1 184:1 207:1 220:1 239:1 251:1 266:1 280:1 301:1 306:1 328:1 350:1 360:1 384:1 393:1 481:1 515:1 586:1 678:1 728:1 799:1 892:1 943:1 1019:1 1066:1 1128:1 1181:1 1266:1 1288:1 1374:1 1464:1 1504:1 
-0.0046401817219769758 1:1 7:1 9:1 13:1 19:1 24:1 28:1 32:1 35:1 40:1 43:1 47:1 50:1 56:1 60:1 64:1 66:1 72:1 76:1 80:1 83:1 105:1 113:1 131:1 156:1 176:1 192:1 207:1 220:1 239:1 251:1 266:1 280:1 304:1 320:1 334:1 344:1 368:1 384:1 393:1 481:1 515:1 588:1 688:1 768:1 831:1 892:1 943:1 1019:1 1066:1 1128:1 1184:1 1280:1 1342:1 1400:1 1440:1 1536:1 
0.01 1:1 7:1 9:1 14:1 17:1 23:1 28:1 32:1 35:1 40:1 43:1 47:1 50:1 54:1 57:1 61:1 65:1 72:1 75:1 79:1 83:1 105:1 114:1 133:1 147:1 172:1 192:1 207:1 220:1 239:1 251:1 266:1 278:1 293:1 305:1 321:1 340:1 367:1 379:1 393:1 482:1 517:1 595:1 652:1 752:1 831:1 892:1 943:1 1019:1 1066:1 1126:1 1173:1 1233:1 1281:1 1348:1 1423:1 1531:1 
-0.0067940505074510415 1:1 7:1 9:1 14:1 18:1 21:1 28:1 32:1 35:1 40:1 43:1 47:1 50:1 56:1 57:1 62:1 68:1 71:1 74:1 77:1 83:1 105:1 114:1 134:1 149:1 164:1 192:1 207:1 220:1 239:1 251:1 266:1 280:1 301:1 306:1 328:1 351:1 362:1 373:1 393:1 482:1 518:1 597:1 660:1 720:1 831:1 892:1 943:1 1019:1 1066:1 1128:1 1181:1 1266:1 1288:1 1375:1 1466:1 1509:1 
0.01 1:1 7:1 9:1 14:1 18:1 24:1 28:1 32:1 35:1 40:1 43:1 47:1 50:1 53:1 59:1 62:1 65:1 69:1 73:1 77:1 83:1 105:1 114:1 134:1 152:1 176:1 192:1 207:1 220:1 239:1 251:1 266:1 277:1 291:1 314:1 325:1 337:1 353:1 369:1 393:1 482:1 518:1 600:1 672:1 768:1 831:1 892:1 943:1 1019:1 1066:1 1125:1 1171:1 1226:1 1317:1 1361:1 1409:1 1473:1 
-0.01 1:1 7:1 9:1 14:1 20:1 23:1 26:1 32:1 35:1 40:1 43:1 47:1 50:1 56:1 60:1 62:1 65:1 71:1 73:1 77:1 83:1 105:1 114:1 136:1 159:1 170:1 184:1 207:1 220:1 239:1 251:1 266:1 280:1 304:1 318:1 325:1 339:1 361:1 369:1 393:1 482:1 520:1 607:1 698:1 744:1 799:1 892:1 943:1 1019:1 1066:1 1128:1 1184:1 1278:1 1333:1 1363:1 1417:1 1505:1 
-0.01 1:1 7:1 9:1 15:1 17:1 24:1 28:1 32:1 35:1 40:1 43:1 47:1 50:1 56:1 60:1 64:1 66:1 70:1 73:1 80:1 83:1 105:1 115:1 137:1 148:1 176:1 192:1 207:1 220:1 239:1 251:1 266:1 280:1 304:1 320:1 334:1 342:1 357:1 372:1 393:1 483:1 521:1 612:1 656:1 768:1 831:1 892:1 943:1 1019:1 1066:1 1128:1 1184:1 1280:1 1342:1 1398:1 1429:1 1492:1 
-0.01 1:1 7:1 9:1 15:1 18:1 22:1 25:1 32:1 35:1 40:1 43:1 47:1 50:1 56:1 57:1 61:1 67:1 72:1 73:1 77:1 83:1 105:1 115:1 138:1 150:1 165:1 180:1 207:1 220:1 239:1 251:1 266:1 280:1 301:1 305:1 323:1 348:1 365:1 369:1 393:1 483:1 522:1 614:1 661:1 724:1 783:1 892:1 943:1 1019:1 1066:1 1128:1 1181:1 1265:1 1283:1 1356:1 1453:1 1521:1 
-0.01 1:1 7:1 9:1 15:1 18:1 24:1 28:1 32:1 35:1 40:1 43:1 47:1 50:1 54:1 57:1 64:1 67:1 71:1 74:1 77:1 83:1 105:1 115:1 138:1 152:1 176:1 192:1 207:1 220:1 239:1 251:1 266:1 278:1 293:1 308:1 335:1 347:1 362:1 373:1 393:1 483:1 522:1 616:1 672:1 768:1 831:1 892:1 943:1 1019:1 1066:1 1126:1 1173:1 1236:1 1295:1 1403:1 1450:1 1509:1 
-0.0064445263168843867 1:1 7:1 9:1 15:1 19:1 21:1 28:1 32:1 35:1 40:1 43:1 47:1 50:1 56:1 58:1 62:1 66:1 72:1 75:1 77:1 83:1 105:1 115:1 139:1 153:1 164:1 192:1 207:1 220:1 239:1 251:1 266:1 280:1 302:1 310:1 326:1 344:1 367:1 377:1 393:1 483:1 523:1 617:1 676:1 720:1 831:1 892:1 943:1 1019:1 1066:1 1128:1 1182:1 1270:1 1302:1 1368:1 1439:1 1529:1 
0.01 1:1 7:1 9:1 15:1 19:1 24:1 28:1 32:1 35:1 40:1 43:1 47:1 50:1 56:1 59:1 63:1 65:1 71:1 76:1 77:1 83:1 105:1 115:1 139:1 156:1 176:1 192:1 207:1 220:1 239:1 251:1 266:1 280:1 303:1 315:1 329:1 339:1 364:1 381:1 393:1 483:1 523:1 620:1 688:1 768:1 831:1 892:1 943:1 1019:1 1066:1 1128:1 1183:1 1275:1 1321:1 1379:1 1420:1 1517:1 
-0.01 1:1 7:1 9:1 15:1 20:1 21:1 25:1 32:1 35:1 40:1 43:1 47:1 50:1 56:1 60:1 64:1 67:1 72:1 73:1 77:1 83:1 105:1 115:1 140:1 157:1 161:1 180:1 207:1 220:1 239:1 251:1 266:1 280:1 304:1 320:1 335:1 348:1 365:1 369:1 393:1 483:1 524:1 621:1 689:1 708:1 783:1 892:1 943:1 1019:1 1066:1 1128:1 1184:1 1280:1 1343:1 1404:1 1453:1 1521:1 
-0.01 1:1 7:1 9:1 16:1 17:1 22:1 25:1 32:1 35:1 40:1 43:1 47:1 50:1 56:1 60:1 61:1 67:1 72:1 73:1 78:1 83:1 105:1 116:1 141:1 146:1 165:1 180:1 207:1 220:1 239:1 251:1 266:1 280:1 304:1 317:1 323:1 348:1 365:1 370:1 393:1 484:1 525:1 626:1 645:1 724:1 783:1 892:1 943:1 1019:1 1066:1 1128:1 1184:1 1277:1 1331:1 1356:1 1453:1 1522:1 
0.01 1:1 7:1 9:1 16:1 18:1 24:1 26:1 32:1 35:1 40:1 43:1 47:1 50:1 56:1 60:1 63:1 68:1 71:1 76:1 79:1 83:1 105:1 116:1 142:1 152:1 174:1 184:1 207:1 220:1 239:1 251:1 266:1 280:1 304:1 319:1 332:1 351:1 364:1 383:1 393:1 484:1 526:1 632:1 670:1 760:1 799:1 892:1 943:1 1019:1 1066:1 1128:1 1184:1 1279:1 1340:1 1391:1 1468:1 1519:1 
0.01 1:1 7:1 9:1 16:1 19:1 21:1 25:1 32:1 35:1 40:1 43:1 47:1 50:1 56:1 60:1 63:1 66:1 70:1 73:1 80:1 83:1 105:1 116:1 143:1 153:1 161:1 180:1 207:1 220:1 239:1 251:1 266:1 280:1 304:1 319:1 330:1 342:1 357:1 372:1 393:1 484:1 527:1 633:1 673:1 708:1 783:1 892:1 943:1 1019:1 1066:1 1128:1 1184:1 1279:1 1338:1 1382:1 1429:1 1492:1 
0.01 1:1 7:1 9:1 16:1 19:1 22:1 25:1 32:1 35:1 40:1 43:1 47:1 50:1 56:1 60:1 64:1 65:1 69:1 73:1 77:1 83:1 105:1 116:1 143:1 154:1 165:1 180:1 207:1 220:1 239:1 251:1 266:1 280:1 304:1 320:1 333:1 337:1 353:1 369:1 393:1 484:1 527:1 634:1 677:1 724:1 783:1 892:1 943:1 1019:1 1066:1 1128:1 1184:1 1280:1 1341:1 1393:1 1409:1 1473:1 
0.01 1:1 7:1 9:1 16:1 19:1 24:1 28:1 32:1 35:1 40:1 43:1 47:1 50:1 56:1 60:1 61:1 66:1 69:1 73:1 78:1 83:1 105:1 116:1 143:1 156:1 176:1 192:1 207:1 220:1 239:1 251:1 266:1 280:1 304:1 317:1 322:1 341:1 353:1 370:1 393:1 484:1 527:1 636:1 688:1 768:1 831:1 892:1 943:1 1019:1 1066:1 1128:1 1184:1 1277:1 1330:1 1349:1 1425:1 1474:1 
0.01 1:1 7:1 9:1 16:1 20:1 23:1 28:1 32:1 35:1 40:1 43:1 47:1 50:1 56:1 60:1 64:1 68:1 71:1 75:1 80:1 83:1 105:1 116:1 144:1 159:1 172:1 192:1 207:1 220:1 239:1 251:1 266:1 280:1 304:1 320:1 336:1 351:1 363:1 380:1 393:1 484:1 528:1 639:1 700:1 752:1 831:1 892:1 943:1 1019:1 1066:1 1128:1 1184:1 1280:1 1344:1 1407:1 1467:1 1516:1 
0.01 1:1 7:1 9:1 16:1 20:1 24:1 28:1 32:1 35:1 40:1 43:1 47:1 50:1 53:1 57:1 61:1 65:1 69:1 76:1 79:1 83:1 105:1 116:1 144:1 160:1 176:1 192:1 207:1 220:1 239:1 251:1 266:1 277:1 289:1 305:1 321:1 337:1 356:1 383:1 393:1 484:1 528:1 640:1 704:1 768:1 831:1 892:1 943:1 1019:1 1066:1 1125:1 1169:1 1217:1 1281:1 1345:1 1412:1 1487:1 
-0.01 1:1 7:1 10:1 13:1 17:1 24:1 28:1 32:1 35:1 40:1 43:1 47:1 50:1 54:1 58:1 62:1 67:1 71:1 73:1 77:1 83:1 106:1 117:1 129:1 148:1 176:1 192:1 207:1 220:1 239:1 251:1 266:1 278:1 294:1 310:1 327:1 347:1 361:1 369:1 394:1 485:1 529:1 580:1 656:1 768:1 831:1 892:1 943:1 1019:1 1066:1 1126:1 1174:1 1238:1 1303:1 1371:1 1449:1 1505:1 
0.01 1:1 7:1 10:1 13:1 18:1 24:1 28:1 32:1 35:1 40:1 43:1 47:1 50:1 56:1 60:1 62:1 66:1 69:1 74:1 79:1 83:1 106:1 117:1 130:1 152:1 176:1 192:1 207:1 220:1 239:1 251:1 266:1 280:1 304:1 318:1 326:1 341:1 354:1 375:1 394:1 485:1 530:1 584:1 672:1 768:1 831:1 892:1 943:1 1019:1 1066:1 1128:1 1184:1 1278:1 1334:1 1365:1 1426:1 1479:1 
0.0096499681912298844 1:1 7:1 10:1 13:1 19:1 22:1 26:1 32:1 35:1 40:1 43:1 47:1 50:1 56:1 60:1 61:1 67:1 70:1 76:1 78:1 83:1 106:1 117:1 131:1 154:1 166:1 184:1 207:1 220:1 239:1 251:1 266:1 280:1 304:1 317:1 323:1 346:1 360:1 382:1 394:1 485:1 531:1 586:1 678:1 728:1 799:1 892:1 943:1 1019:1 1066:1 1128:1 1184:1 1277:1 1331:1 1354:1 1448:1 1502:1 
-0.01 1:1 7:1 10:1 13:1 19:1 22:1 28:1 32:1 35:1 40:1 43:1 47:1 50:1 54:1 58:1 63:1 68:1 72:1 75:1 78:1 83:1 106:1 117:1 131:1 154:1 168:1 192:1 207:1 220:1 239:1 251:1 266:1 278:1 294:1 311:1 332:1 352:1 367:1 378:1 394:1 485:1 531:1 586:1 680:1 736:1 831:1 892:1 943:1 1019:1 1066:1 1126:1 1174:1 1239:1 1308:1 1392:1 1471:1 1530:1 
-0.01 1:1 7:1 10:1 13:1 20:1 21:1 26:1 32:1 35:1 40:1 43:1 47:1 50:1 56:1 60:1 62:1 66:1 72:1 76:1 80:1 83:1 106:1 117:1 132:1 157:1 162:1 184:1 207:1 220:1 239:1 251:1 266:1 280:1 304:1 318:1 326:1 344:1 368:1 384:1 394:1 485:1 532:1 589:1 690:1 712:1 799:1 892:1 943:1 1019:1 1066:1 1128:1 1184:1 1278:1 1334:1 1368:1 1440:1 1536:1 
0.01 1:1 7:1 10:1 13:1 20:1 24:1 28:1 32:1 35:1 40:1 43:1 47:1 50:1 54:1 57:1 63:1 65:1 71:1 74:1 77:1 83:1 106:1 117:1 132:1 160:1 176:1 192:1 207:1 220:1 239:1 251:1 266:1 278:1 293:1 307:1 329:1 339:1 362:1 373:1 394:1 485:1 532:1 592:1 704:1 768:1 831:1 892:1 943:1 1019:1 1066:1 1126:1 1173:1 1235:1 1289:1 1379:1 1418:1 1509:1 
0.01 1:1 7:1 10:1 14:1 17:1 22:1 25:1 32:1 35:1 40:1 43:1 47:1 50:1 56:1 57:1 62:1 65:1 71:1 76:1 79:1 83:1 106:1 118:1 133:1 146:1 165:1 180:1 207:1 220:1 239:1 251:1 266:1 280:1 301:1 306:1 325:1 339:1 364:1 383:1 394:1 486:1 533:1 594:1 645:1 724:1 783:1 892:1 943:1 1019:1 1066:1 1128:1 1181:1 1266:1 1285:1 1363:1 1420:1 1519:1 
0.0040817616710654009 1:1 7:1 10:1 14:1 17:1 23:1 28:1 32:1 35:1 40:1 43:1 47:1 50:1 56:1 57:1 61:1 66:1 72:1 76:1 79:1 83:1 106:1 118:1 133:1 147:1 172:1 192:1 207:1 220:1 239:1 251:1 266:1 280:1 301:1 305:1 322:1 344:1 368:1 383:1 394:1 486:1 533:1 595:1 652:1 752:1 831:1 892:1 943:1 1019:1 1066:1 1128:1 1181:1 1265:1 1282:1 1352:1 1440:1 1535:1 
-0.01 1:1 7:1 10:1 14:1 17:1 24:1 25:1 32:1 35:1 40:1 43:1 47:1 50:1 56:1 57:1 63:1 68:1 71:1 74:1 80:1 83:1 106:1 118:1 133:1 148:1 173:1 180:1 207:1 220:1 239:1 251:1 266:1 280:1 301:1 307:1 332:1 351:1 362:1 376:1 394:1 486:1 533:1 596:1 653:1 756:1 783:1 892:1 943:1 1019:1 1066:1 1128:1 1181:1 1267:1 1292:1 1391:1 1466:1 1512:1 
-0.01 1:1 7:1 10:1 14:1 20:1 22:1 28:1 32:1 35:1 40:1 43:1 47:1 50:1 56:1 59:1 62:1 66:1 69:1 76:1 77:1 83:1 106:1 118:1 136:1 158:1 168:1 192:1 207:1 220:1 239:1 251:1 266:1 280:1 303:1 314:1 326:1 341:1 356:1 381:1 394:1 486:1 536:1 606:1 696:1 736:1 831:1 892:1 943:1 1019:1 1066:1 1128:1 1183:1 1274:1 1318:1 1365:1 1428:1 1485:1 
-0.0093250609518361859 1:1 7:1 10:1 14:1 20:1 23:1 28:1 32:1 35:1 40:1 43:1 47:1 50:1 54:1 58:1 64:1 65:1 71:1 74:1 80:1 83:1 106:1 118:1 136:1 159:1 172:1 192:1 207:1 220:1 239:1 251:1 266:1 278:1 294:1 312:1 333:1 339:1 362:1 376:1 394:1 486:1 536:1 607:1 700:1 752:1 831:1 892:1 943:1 1019:1 1066:1 1126:1 1174:1 1240:1 1309:1 1395:1 1418:1 1512:1 
-0.0094329652155420423 1:1 7:1 10:1 14:1 20:1 24:1 28:1 32:1 35:1 40:1 43:1 47:1 50:1 56:1 59:1 61:1 65:1 72:1 73:1 80:1 83:1 106:1 118:1 136:1 160:1 176:1 192:1 207:1 220:1 239:1 251:1 266:1 280:1 303:1 313:1 321:1 340:1 365:1 372:1 394:1 486:1 536:1 608:1 704:1 768:1 831:1 892:1 943:1 1019:1 1066:1 1128:1 1183:1 1273:1 1313:1 1348:1 1421:1 1524:1 
-0.0010227060918669491 1:1 7:1 10:1 14:1 20:1 24:1 28:1 32:1 35:1 40:1 43:1 47:1 50:1 56:1 59:1 64:1 68:1 72:1 75:1 80:1 83:1 106:1 118:1 136:1 160:1 176:1 192:1 207:1 220:1 239:1 251:1 266:1 280:1 303:1 316:1 336:1 352:1 367:1 380:1 394:1 486:1 536:1 608:1 704:1 768:1 831:1 892:1 943:1 1019:1 1066:1 1128:1 1183:1 1276:1 1328:1 1408:1 1471:1 1532:1 
-0.01 1:1 7:1 10:1 15:1 18:1 23:1 28:1 32:1 35:1 40:1 43:1 47:1 50:1 56:1 58:1 61:1 67:1 71:1 76:1 78:1 83:1 106:1 119:1 138:1 151:1 172:1 192:1 207:1 220:1 239:1 251:1 266:1 280:1 302:1 309:1 323:1 347:1 364:1 382:1 394:1 487:1 538:1 615:1 668:1 752:1 831:1 892:1 943:1 1019:1 1066:1 1128:1 1182:1 1269:1 1299:1 1355:1 1452:1 1518:1 
0.01 1:1 7:1 10:1 15:1 18:1 24:1 28:1 32:1 35:1 40:1 43:1 47:1 50:1 54:1 60:1 61:1 68:1 71:1 75:1 80:1 83:1 106:1 119:1 138:1 152:1 176:1 192:1 207:1 220:1 239:1 251:1 266:1 278:1 296:1 317:1 324:1 351:1 363:1 380:1 394:1 487:1 538:1 616:1 672:1 768:1 831:1 892:1 943:1 1019:1 1066:1 1126:1 1176:1 1245:1 1332:1 1359:1 1467:1 1516:1 
-0.01 1:1 7:1 10:1 16:1 17:1 24:1 25:1 32:1 35:1 40:1 43:1 47:1 50:1 56:1 57:1 64:1 68:1 69:1 73:1 79:1 83:1 106:1 120:1 141:1 148:1 173:1 180:1 207:1 220:1 239:1 251:1 266:1 280:1 301:1 308:1 336:1 349:1 353:1 371:1 394:1 488:1 541:1 628:1 653:1 756:1 783:1 892:1 943:1 1019:1 1066:1 1128:1 1181:1 1268:1 1296:1 1405:1 1457:1 1475:1 
0.01 1:1 7:1 10:1 16:1 17:1 24:1 28:1 32:1 35:1 40:1 43:1 47:1 50:1 54:1 57:1 62:1 65:1 70:1 75:1 77:1 83:1 106:1 120:1 141:1 148:1 176:1 192:1 207:1 220:1 239:1 251:1 266:1 278:1 293:1 306:1 325:1 338:1 359:1 377:1 394:1 488:1 541:1 628:1 656:1 768:1 831:1 892:1 943:1 1019:1 1066:1 1126:1 1173:1 1234:1 1285:1 1362:1 1415:1 1497:1 
0.01 1:1 7:1 10:1 16:1 17:1 24:1 28:1 32:1 35:1 40:1 43:1 47:1 50:1 54:1 60:1 62:1 65:1 71:1 75:1 78:1 83:1 106:1 120:1 141:1 148:1 176:1 192:1 207:1 220:1 239:1 251:1 266:1 278:1 296:1 318:1 325:1 339:1 363:1 378:1 394:1 488:1 541:1 628:1 656:1 768:1 831:1 892:1 943:1 1019:1 1066:1 1126:1 1176:1 1246:1 1333:1 1363:1 1419:1 1514:1 
-0.0029024785802037739 1:1 7:1 10:1 16:1 18:1 22:1 25:1 32:1 35:1 40:1 43:1 47:1 50:1 56:1 57:1 62:1 68:1 71:1 73:1 78:1 83:1 106:1 120:1 142:1 150:1 165:1 180:1 207:1 220:1 239:1 251:1 266:1 280:1 301:1 306:1 328:1 351:1 361:1 370:1 394:1 488:1 542:1 630:1 661:1 724:1 783:1 892:1 943:1 1019:1 1066:1 1128:1 1181:1 1266:1 1288:1 1375:1 1465:1 1506:1 
0.01 1:1 7:1 10:1 16:1 18:1 22:1 28:1 32:1 35:1 40:1 43:1 47:1 50:1 56:1 57:1 63:1 65:1 71:1 75:1 80:1 83:1 106:1 120:1 142:1 150:1 168:1 192:1 207:1 220:1 239:1 251:1 266:1 280:1 301:1 307:1 329:1 339:1 363:1 380:1 394:1 488:1 542:1 630:1 664:1 736:1 831:1 892:1 943:1 1019:1 1066:1 1128:1 1181:1 1267:1 1289:1 1379:1 1419:1 1516:1 
0.01 1:1 7:1 10:1 16:1 18:1 24:1 28:1 32:1 35:1 40:1 43:1 47:1 50:1 56:1 57:1 62:1 68:1 72:1 74:1 78:1 83:1 106:1 120:1 142:1 152:1 176:1 192:1 207:1 220:1 239:1 251:1 266:1 280:1 301:1 306:1 328:1 352:1 366:1 374:1 394:1 488:1 542:1 632:1 672:1 768:1 831:1 892:1 943:1 1019:1 1066:1 1128:1 1181:1 1266:1 1288:1 1376:1 1470:1 1526:1 
-0.01 1:1 7:1 10:1 16:1 19:1 23:1 26:1 32:1 35:1 40:1 43:1 47:1 50:1 56:1 60:1 64:1 68:1 72:1 73:1 77:1 83:1 106:1 120:1 143:1 155:1 170:1 184:1 207:1 220:1 239:1 251:1 266:1 280:1 304:1 320:1 336:1 352:1 365:1 369:1 394:1 488:1 543:1 635:1 682:1 744:1 799:1 892:1 943:1 1019:1 1066:1 1128:1 1184:1 1280:1 1344:1 1408:1 1469:1 1521:1 
0.01 1:1 7:1 10:1 16:1 19:1 23:1 28:1 32:1 35:1 40:1 43:1 47:1 50:1 56:1 60:1 61:1 68:1 72:1 76:1 80:1 83:1 106:1 120:1 143:1 155:1 172:1 192:1 207:1 220:1 239:1 251:1 266:1 280:1 304:1 317:1 324:1 352:1 368:1 384:1 394:1 488:1 543:1 635:1 684:1 752:1 831:1 892:1 943:1 1019:1 1066:1 1128:1 1184:1 1277:1 1332:1 1360:1 1472:1 1536:1 
-0.01 1:1 7:1 10:1 16:1 19:1 24:1 28:1 32:1 35:1 40:1 43:1 47:1 50:1 56:1 58:1 64:1 68:1 69:1 76:1 80:1 83:1 106:1 120:1 143:1 156:1 176:1 192:1 207:1 220:1 239:1 251:1 266:1 280:1 302:1 312:1 336:1 349:1 356:1 384:1 394:1 488:1 543:1 636:1 688:1 768:1 831:1 892:1 943:1 1019:1 1066:1 1128:1 1182:1 1272:1 1312:1 1405:1 1460:1 1488:1 
0.01 1:1 7:1 10:1 16:1 20:1 21:1 25:1 32:1 35:1 40:1 43:1 47:1 50:1 56:1 60:1 62:1 68:1 72:1 73:1 77:1 83:1 106:1 120:1 144:1 157:1 161:1 180:1 207:1 220:1 239:1 251:1 266:1 280:1 304:1 318:1 328:1 352:1 365:1 369:1 394:1 488:1 544:1 637:1 689:1 708:1 783:1 892:1 943:1 1019:1 1066:1 1128:1 1184:1 1278:1 1336:1 1376:1 1469:1 1521:1 
0.01 1:1 7:1 10:1 16:1 20:1 23:1 26:1 32:1 35:1 40:1 43:1 47:1 50:1 56:1 60:1 62:1 68:1 71:1 75:1 78:1 83:1 106:1 120:1 144:1 159:1 170:1 184:1 207:1 220:1 239:1 251:1 266:1 280:1 304:1 318:1 328:1 351:1 363:1 378:1 394:1 488:1 544:1 639:1 698:1 744:1 799:1 892:1 943:1 1019:1 1066:1 1128:1 1184:1 1278:1 1336:1 1375:1 1467:1 1514:1 
-0.01 1:1 7:1 10:1 16:1 20:1 23:1 28:1 32:1 35:1 40:1 43:1 47:1 50:1 56:1 58:1 64:1 67:1 69:1 76:1 78:1 83:1 106:1 120:1 144:1 159:1 172:1 192:1 207:1 220:1 239:1 251:1 266:1 280:1 302:1 312:1 335:1 345:1 356:1 382:1 394:1 488:1 544:1 639:1 700:1 752:1 831:1 892:1 943:1 1019:1 1066:1 1128:1 1182:1 1272:1 1311:1 1401:1 1444:1 1486:1 
-0.0038019670207134577 1:1 7:1 11:1 13:1 17:1 21:1 26:1 32:1 35:1 40:1 43:1 47:1 50:1 56:1 60:1 62:1 68:1 69:1 76:1 78:1 83:1 107:1 121:1 129:1 145:1 162:1 184:1 207:1 220:1 239:1 251:1 266:1 280:1 304:1 318:1 328:1 349:1 356:1 382:1 395:1 489:1 545:1 577:1 642:1 712:1 799:1 892:1 943:1 1019:1 1066:1 1128:1 1184:1 1278:1 1336:1 1373:1 1460:1 1486:1 
-0.01 1:1 7:1 11:1 13:1 17:1 21:1 28:1 32:1 35:1 40:1 43:1 47:1 50:1 54:1 57:1 61:1 65:1 69:1 73:1 80:1 83:1 107:1 121:1 129:1 145:1 164:1 192:1 207:1 220:1 239:1 251:1 266:1 278:1 293:1 305:1 321:1 337:1 353:1 372:1 395:1 489:1 545:1 577:1 644:1 720:1 831:1 892:1 943:1 1019:1 1066:1 1126:1 1173:1 1233:1 1281:1 1345:1 1409:1 1476:1 
0.0010218322307801013 1:1 7:1 11:1 13:1 17:1 21:1 28:1 32:1 35:1 40:1 43:1 47:1 50:1 56:1 60:1 63:1 67:1 70:1 76:1 77:1 83:1 107:1 121:1 129:1 145:1 164:1 192:1 207:1 220:1 239:1 251:1 266:1 280:1 304:1 319:1 331:1 346:1 360:1 381:1 395:1 489:1 545:1 577:1 644:1 720:1 831:1 892:1 943:1 1019:1 1066:1 1128:1 1184:1 1279:1 1339:1 1386:1 1448:1 1501:1 
0.01 1:1 7:1 11:1 13:1 17:1 22:1 25:1 32:1 35:1 40:1 43:1 47:1 50:1 56:1 60:1 61:1 67:1 70:1 75:1 80:1 83:1 107:1 121:1 129:1 146:1 165:1 180:1 207:1 220:1 239:1 251:1 266:1 280:1 304:1 317:1 323:1 346:1 359:1 380:1 395:1 489:1 545:1 578:1 645:1 724:1 783:1 892:1 943:1 1019:1 1066:1 1128:1 1184:1 1277:1 1331:1 1354:1 1447:1 1500:1 
-0.01 1:1 7:1 11:1 13:1 17:1 22:1 28:1 32:1 35:1 40:1 43:1 47:1 50:1 54:1 60:1 63:1 68:1 70:1 76:1 80:1 83:1 107:1 121:1 129:1 146:1 168:1 192:1 207:1 220:1 239:1 251:1 266:1 278:1 296:1 319:1 332:1 350:1 360:1 384:1 395:1 489:1 545:1 578:1 648:1 736:1 831:1 892:1 943:1 1019:1 1066:1 1126:1 1176:1 1247:1 1340:1 1390:1 1464:1 1504:1 
-0.01 1:1 7:1 11:1 13:1 17:1 23:1 26:1 32:1 35:1 40:1 43:1 47:1 50:1 56:1 57:1 61:1 65:1 72:1 73:1 77:1 83:1 107:1 121:1 129:1 147:1 170:1 184:1 207:1 220:1 239:1 251:1 266:1 280:1 301:1 305:1 321:1 340:1 365:1 369:1 395:1 489:1 545:1 579:1 650:1 744:1 799:1 892:1 943:1 1019:1 1066:1 1128:1 1181:1 1265:1 1281:1 1348:1 1421:1 1521:1 
0.0057828961020162306 1:1 7:1 11:1 13:1 17:1 23:1 26:1 32:1 35:1 40:1 43:1 47:1 50:1 56:1 60:1 62:1 66:1 71:1 75:1 78:1 83:1 107:1 121:1 129:1 147:1 170:1 184:1 207:1 220:1 239:1 251:1 266:1 280:1 304:1 318:1 326:1 343:1 363:1 378:1 395:1 489:1 545:1 579:1 650:1 744:1 799:1 892:1 943:1 1019:1 1066:1 1128:1 1184:1 1278:1 1334:1 1367:1 1435:1 1514:1 
0.01 1:1 7:1 11:1 13:1 17:1 23:1 28:1 32:1 35:1 40:1 43:1 47:1 50:1 53:1 59:1 61:1 66:1 72:1 75:1 80:1 83:1 107:1 121:1 129:1 147:1 172:1 192:1 207:1 220:1 239:1 251:1 266:1 277:1 291:1 313:1 322:1 344:1 367:1 380:1 395:1 489:1 545:1 579:1 652:1 752:1 831:1 892:1 943:1 1019:1 1066:1 1125:1 1171:1 1225:1 1314:1 1352:1 1439:1 1532:1 
0.01 1:1 7:1 11:1 13:1 17:1 23:1 28:1 32:1 35:1 40:1 43:1 47:1 50:1 54:1 57:1 61:1 65:1 69:1 76:1 80:1 83:1 107:1 121:1 129:1 147:1 172:1 192:1 207:1 220:1 239:1 251:1 266:1 278:1 293:1 305:1 321:1 337:1 356:1 384:1 395:1 489:1 545:1 579:1 652:1 752:1 831:1 892:1 943:1 1019:1 1066:1 1126:1 1173:1 1233:1 1281:1 1345:1 1412:1 1488:1 
-0.01 1:1 7:1 11:1 13:1 17:1 23:1 28:1 32:1 35:1 40:1 43:1 47:1 50:1 56:1 57:1 62:1 67:1 70:1 74:1 77:1 83:1 107:1 121:1 129:1 147:1 172:1 192:1 207:1 220:1 239:1 251:1 266:1 280:1 301:1 306:1 327:1 346:1 358:1 373:1 395:1 489:1 545:1 579:1 652:1 752:1 831:1 892:1 943:1 1019:1 1066:1 1128:1 1181:1 1266:1 1287:1 1370:1 1446:1 1493:1 
-0.01 1:1 7:1 11:1 13:1 17:1 23:1 28:1 32:1 35:1 40:1 43:1 47:1 50:1 56:1 57:1 64:1 67:1 72:1 75:1 77:1 83:1 107:1 121:1 129:1 147:1 172:1 192:1 207:1 220:1 239:1 251:1 266:1 280:1 301:1 308:1 335:1 348:1 367:1 377:1 395:1 489:1 545:1 579:1 652:1 752:1 831:1 892:1 943:1 1019:1 1066:1 1128:1 1181:1 1268:1 1295:1 1404:1 1455:1 1529:1 
0.01 1:1 7:1 11:1 13:1 18:1 21:1 26:1 32:1 35:1 40:1 43:1 47:1 50:1 56:1 57:1 62:1 66:1 70:1 73:1 78:1 83:1 107:1 121:1 130:1 149:1 162:1 184:1 207:1 220:1 239:1 251:1 266:1 280:1 301:1 306:1 326:1 342:1 357:1 370:1 395:1 489:1 546:1 581:1 658:1 712:1 799:1 892:1 943:1 1019:1 1066:1 1128:1 1181:1 1266:1 1286:1 1366:1 1429:1 1490:1 
-0.0020520096216953975 1:1 7:1 11:1 13:1 18:1 24:1 28:1 32:1 35:1 40:1 43:1 47:1 50:1 56:1 59:1 61:1 66:1 72:1 75:1 79:1 83:1 107:1 121:1 130:1 152:1 176:1 192:1 207:1 220:1 239:1 251:1 266:1 280:1 303:1 313:1 322:1 344:1 367:1 379:1 395:1 489:1 546:1 584:1 672:1 768:1 831:1 892:1 943:1 1019:1 1066:1 1128:1 1183:1 1273:1 1314:1 1352:1 1439:1 1531:1 
0.0094431126645965115 1:1 7:1 11:1 13:1 19:1 23:1 25:1 32:1 35:1 40:1 43:1 47:1 50:1 56:1 60:1 61:1 66:1 70:1 73:1 79:1 83:1 107:1 121:1 131:1 155:1 169:1 180:1 207:1 220:1 239:1 251:1 266:1 280:1 304:1 317:1 322:1 342:1 357:1 371:1 395:1 489:1 547:1 587:1 681:1 740:1 783:1 892:1 943:1 1019:1 1066:1 1128:1 1184:1 1277:1 1330:1 1350:1 1429:1 1491:1 
-0.01 1:1 7:1 11:1 13:1 19:1 23:1 25:1 32:1 35:1 40:1 43:1 47:1 50:1 56:1 60:1 63:1 68:1 69:1 76:1 79:1 83:1 107:1 121:1 131:1 155:1 169:1 180:1 207:1 220:1 239:1 251:1 266:1 280:1 304:1 319:1 332:1 349:1 356:1 383:1 395:1 489:1 547:1 587:1 681:1 740:1 783:1 892:1 943:1 1019:1 1066:1 1128:1 1184:1 1279:1 1340:1 1389:1 1460:1 1487:1 
-0.00024808969405600879 1:1 7:1 11:1 13:1 19:1 23:1 26:1 32:1 35:1 40:1 43:1 47:1 50:1 56:1 57:1 62:1 65:1 71:1 74:1 78:1 83:1 107:1 121:1 131:1 155:1 170:1 184:1 207:1 220:1 239:1 251:1 266:1 280:1 301:1 306:1 325:1 339:1 362:1 374:1 395:1 489:1 547:1 587:1 682:1 744:1 799:1 892:1 943:1 1019:1 1066:1 1128:1 1181:1 1266:1 1285:1 1363:1 1418:1 1510:1 
-0.01 1:1 7:1 11:1 13:1 19:1 23:1 26:1 32:1 35:1 40:1 43:1 47:1 50:1 56:1 57:1 62:1 66:1 72:1 74:1 79:1 83:1 107:1 121:1 131:1 155:1 170:1 184:1 207:1 220:1 239:1 251:1 266:1 280:1 301:1 306:1 326:1 344:1 366:1 375:1 395:1 489:1 547:1 587:1 682:1 744:1 799:1 892:1 943:1 1019:1 1066:1 1128:1 1181:1 1266:1 1286:1 1368:1 1438:1 1527:1 
-0.0063467151631697938 1:1 7:1 11:1 13:1 19:1 23:1 26:1 32:1 35:1 40:1 43:1 47:1 50:1 56:1 57:1 63:1 65:1 72:1 76:1 80:1 83:1 107:1 121:1 131:1 155:1 170:1 184:1 207:1 220:1 239:1 251:1 266:1 280:1 301:1 307:1 329:1 340:1 368:1 384:1 395:1 489:1 547:1 587:1 682:1 744:1 799:1 892:1 943:1 1019:1 1066:1 1128:1 1181:1 1267:1 1289:1 1380:1 1424:1 1536:1 
-0.0036467289392809392 1:1 7:1 11:1 13:1 20:1 21:1 26:1 32:1 35:1 40:1 43:1 47:1 50:1 56:1 60:1 63:1 68:1 72:1 76:1 80:1 83:1 107:1 121:1 132:1 157:1 162:1 184:1 207:1 220:1 239:1 251:1 266:1 280:1 304:1 319:1 332:1 352:1 368:1 384:1 395:1 489:1 548:1 589:1 690:1 712:1 799:1 892:1 943:1 1019:1 1066:1 1128:1 1184:1 1279:1 1340:1 1392:1 1472:1 1536:1 
0.0024099962461848054 1:1 7:1 11:1 13:1 20:1 23:1 28:1 32:1 35:1 40:1 43:1 47:1 50:1 56:1 59:1 63:1 65:1 69:1 73:1 79:1 83:1 107:1 121:1 132:1 159:1 172:1 192:1 207:1 220:1 239:1 251:1 266:1 280:1 303:1 315:1 329:1 337:1 353:1 371:1 395:1 489:1 548:1 591:1 700:1 752:1 831:1 892:1 943:1 1019:1 1066:1 1128:1 1183:1 1275:1 1321:1 1377:1 1409:1 1475:1 
0.01 1:1 7:1 11:1 13:1 20:1 24:1 28:1 32:1 35:1 40:1 43:1 47:1 50:1 54:1 59:1 62:1 65:1 72:1 76:1 77:1 83:1 107:1 121:1 132:1 160:1 176:1 192:1 207:1 220:1 239:1 251:1 266:1 278:1 295:1 314:1 325:1 340:1 368:1 381:1 395:1 489:1 548:1 592:1 704:1 768:1 831:1 892:1 943:1 1019:1 1066:1 1126:1 1175:1 1242:1 1317:1 1364:1 1424:1 1533:1 
-0.01 1:1 7:1 11:1 14:1 17:1 23:1 25:1 32:1 35:1 40:1 43:1 47:1 50:1 56:1 60:1 63:1 66:1 69:1 73:1 78:1 83:1 107:1 122:1 133:1 147:1 169:1 180:1 207:1 220:1 239:1 251:1 266:1 280:1 304:1 319:1 330:1 341:1 353:1 370:1 395:1 490:1 549:1 595:1 649:1 740:1 783:1 892:1 943:1 1019:1 1066:1 1128:1 1184:1 1279:1 1338:1 1381:1 1425:1 1474:1 
-0.01 1:1 7:1 11:1 14:1 17:1 23:1 28:1 32:1 35:1 40:1 43:1 47:1 50:1 56:1 59:1 62:1 66:1 69:1 76:1 78:1 83:1 107:1 122:1 133:1 147:1 172:1 192:1 207:1 220:1 239:1 251:1 266:1 280:1 303:1 314:1 326:1 341:1 356:1 382:1 395:1 490:1 549:1 595:1 652:1 752:1 831:1 892:1 943:1 1019:1 1066:1 1128:1 1183:1 1274:1 1318:1 1365:1 1428:1 1486:1 
-0.01 1:1 7:1 11:1 14:1 20:1 22:1 28:1 32:1 35:1 40:1 43:1 47:1 50:1 56:1 57:1 62:1 65:1 70:1 73:1 77:1 83:1 107:1 122:1 136:1 158:1 168:1 192:1 207:1 220:1 239:1 251:1 266:1 280:1 301:1 306:1 325:1 338:1 357:1 369:1 395:1 490:1 552:1 606:1 696:1 736:1 831:1 892:1 943:1 1019:1 1066:1 1128:1 1181:1 1266:1 1285:1 1362:1 1413:1 1489:1 
-0.01 1:1 7:1 11:1 14:1 20:1 23:1 28:1 32:1 35:1 40:1 43:1 47:1 50:1 54:1 57:1 63:1 67:1 71:1 76:1 77:1 83:1 107:1 122:1 136:1 159:1 172:1 192:1 207:1 220:1 239:1 251:1 266:1 278:1 293:1 307:1 331:1 347:1 364:1 381:1 395:1 490:1 552:1 607:1 700:1 752:1 831:1 892:1 943:1 1019:1 1066:1 1126:1 1173:1 1235:1 1291:1 1387:1 1452:1 1517:1 
-0.01 1:1 7:1 11:1 14:1 20:1 23:1 28:1 32:1 35:1 40:1 43:1 47:1 50:1 54:1 59:1 64:1 68:1 70:1 75:1 80:1 83:1 107:1 122:1 136:1 159:1 172:1 192:1 207:1 220:1 239:1 251:1 266:1 278:1 295:1 316:1 336:1 350:1 359:1 380:1 395:1 490:1 552:1 607:1 700:1 752:1 831:1 892:1 943:1 1019:1 1066:1 1126:1 1175:1 1244:1 1328:1 1406:1 1463:1 1500:1 
0.01 1:1 7:1 11:1 14:1 20:1 24:1 28:1 32:1 35:1 40:1 43:1 47:1 50:1 56:1 60:1 62:1 68:1 71:1 74:1 77:1 83:1 107:1 122:1 136:1 160:1 176:1 192:1 207:1 220:1 239:1 251:1 266:1 280:1 304:1 318:1 328:1 351:1 362:1 373:1 395:1 490:1 552:1 608:1 704:1 768:1 831:1 892:1 943:1 1019:1 1066:1 1128:1 1184:1 1278:1 1336:1 1375:1 1466:1 1509:1 
0.01 1:1 7:1 11:1 15:1 17:1 21:1 25:1 32:1 35:1 40:1 43:1 47:1 50:1 56:1 57:1 61:1 66:1 70:1 76:1 78:1 83:1 107:1 123:1 137:1 145:1 161:1 180:1 207:1 220:1 239:1 251:1 266:1 280:1 301:1 305:1 322:1 342:1 360:1 382:1 395:1 491:1 553:1 609:1 641:1 708:1 783:1 892:1 943:1 1019:1 1066:1 1128:1 1181:1 1265:1 1282:1 1350:1 1432:1 1502:1 
0.01 1:1 7:1 11:1 15:1 17:1 22:1 28:1 32:1 35:1 40:1 43:1 47:1 50:1 56:1 60:1 63:1 67:1 71:1 76:1 80:1 83:1 107:1 123:1 137:1 146:1 168:1 192:1 207:1 220:1 239:1 251:1 266:1 280:1 304:1 319:1 331:1 347:1 364:1 384:1 395:1 491:1 553:1 610:1 648:1 736:1 831:1 892:1 943:1 1019:1 1066:1 1128:1 1184:1 1279:1 1339:1 1387:1 1452:1 1520:1 
-0.0050782959040508212 1:1 7:1 11:1 15:1 17:1 23:1 28:1 32:1 35:1 40:1 43:1 47:1 50:1 54:1 57:1 61:1 67:1 70:1 76:1 78:1 83:1 107:1 123:1 137:1 147:1 172:1 192:1 207:1 220:1 239:1 251:1 266:1 278:1 293:1 305:1 323:1 346:1 360:1 382:1 395:1 491:1 553:1 611:1 652:1 752:1 831:1 892:1 943:1 1019:1 1066:1 1126:1 1173:1 1233:1 1283:1 1354:1 1448:1 1502:1 
0.01 1:1 7:1 11:1 15:1 18:1 21:1 26:1 32:1 35:1 40:1 43:1 47:1 50:1 56:1 60:1 64:1 67:1 70:1 73:1 80:1 83:1 107:1 123:1 138:1 149:1 162:1 184:1 207:1 220:1 239:1 251:1 266:1 280:1 304:1 320:1 335:1 346:1 357:1 372:1 395:1 491:1 554:1 613:1 658:1 712:1 799:1 892:1 943:1 1019:1 1066:1 1128:1 1184:1 1280:1 1343:1 1402:1 1445:1 1492:1 
-0.00976096615127677 1:1 7:1 11:1 15:1 18:1 24:1 28:1 32:1 35:1 40:1 43:1 47:1 50:1 56:1 58:1 63:1 66:1 72:1 76:1 79:1 83:1 107:1 123:1 138:1 152:1 176:1 192:1 207:1 220:1 239:1 251:1 266:1 280:1 302:1 311:1 330:1 344:1 368:1 383:1 395:1 491:1 554:1 616:1 672:1 768:1 831:1 892:1 943:1 1019:1 1066:1 1128:1 1182:1 1271:1 1306:1 1384:1 1440:1 1535:1 
-0.01 1:1 7:1 11:1 15:1 19:1 21:1 26:1 32:1 35:1 40:1 43:1 47:1 50:1 56:1 60:1 64:1 67:1 71:1 74:1 80:1 83:1 107:1 123:1 139:1 153:1 162:1 184:1 207:1 220:1 239:1 251:1 266:1 280:1 304:1 320:1 335:1 347:1 362:1 376:1 395:1 491:1 555:1 617:1 674:1 712:1 799:1 892:1 943:1 1019:1 1066:1 1128:1 1184:1 1280:1 1343:1 1403:1 1450:1 1512:1 
0.01 1:1 7:1 11:1 15:1 19:1 24:1 28:1 32:1 35:1 40:1 43:1 47:1 50:1 54:1 58:1 61:1 68:1 69:1 73:1 77:1 83:1 107:1 123:1 139:1 156:1 176:1 192:1 207:1 220:1 239:1 251:1 266:1 278:1 294:1 309:1 324:1 349:1 353:1 369:1 395:1 491:1 555:1 620:1 688:1 768:1 831:1 892:1 943:1 1019:1 1066:1 1126:1 1174:1 1237:1 1300:1 1357:1 1457:1 1473:1 
0.01 1:1 7:1 11:1 15:1 19:1 24:1 28:1 32:1 35:1 40:1 43:1 47:1 50:1 56:1 59:1 64:1 67:1 69:1 75:1 79:1 83:1 107:1 123:1 139:1 156:1 176:1 192:1 207:1 220:1 239:1 251:1 266:1 280:1 303:1 316:1 335:1 345:1 355:1 379:1 395:1 491:1 555:1 620:1 688:1 768:1 831:1 892:1 943:1 1019:1 1066:1 1128:1 1183:1 1276:1 1327:1 1401:1 1443:1 1483:1 
-0.0032725690574605401 1:1 7:1 11:1 16:1 18:1 21:1 28:1 32:1 35:1 40:1 43:1 47:1 50:1 56:1 60:1 63:1 67:1 70:1 76:1 79:1 83:1 107:1 124:1 142:1 149:1 164:1 192:1 207:1 220:1 239:1 251:1 266:1 280:1 304:1 319:1 331:1 346:1 360:1 383:1 395:1 492:1 558:1 629:1 660:1 720:1 831:1 892:1 943:1 1019:1 1066:1 1128:1 1184:1 1279:1 1339:1 1386:1 1448:1 1503:1 
0.01 1:1 7:1 11:1 16:1 18:1 22:1 28:1 32:1 35:1 40:1 43:1 47:1 50:1 54:1 60:1 62:1 66:1 69:1 76:1 78:1 83:1 107:1 124:1 142:1 150:1 168:1 192:1 207:1 220:1 239:1 251:1 266:1 278:1 296:1 318:1 326:1 341:1 356:1 382:1 395:1 492:1 558:1 630:1 664:1 736:1 831:1 892:1 943:1 1019:1 1066:1 1126:1 1176:1 1246:1 1334:1 1365:1 1428:1 1486:1 
0.01 1:1 7:1 11:1 16:1 19:1 21:1 28:1 32:1 35:1 40:1 43:1 47:1 50:1 53:1 57:1 63:1 67:1 71:1 73:1 78:1 83:1 107:1 124:1 143:1 153:1 164:1 192:1 207:1 220:1 239:1 251:1 266:1 277:1 289:1 307:1 331:1 347:1 361:1 370:1 395:1 492:1 559:1 633:1 676:1 720:1 831:1 892:1 943:1 1019:1 1066:1 1125:1 1169:1 1219:1 1291:1 1387:1 1449:1 1506:1 
-0.01 1:1 7:1 11:1 16:1 19:1 23:1 28:1 32:1 35:1 40:1 43:1 47:1 50:1 54:1 57:1 62:1 68:1 71:1 76:1 79:1 83:1 107:1 124:1 143:1 155:1 172:1 192:1 207:1 220:1 239:1 251:1 266:1 278:1 293:1 306:1 328:1 351:1 364:1 383:1 395:1 492:1 559:1 635:1 684:1 752:1 831:1 892:1 943:1 1019:1 1066:1 1126:1 1173:1 1234:1 1288:1 1375:1 1468:1 1519:1 
0.0055759649461697086 1:1 7:1 11:1 16:1 20:1 23:1 28:1 32:1 35:1 40:1 43:1 47:1 50:1 56:1 58:1 62:1 67:1 69:1 75:1 79:1 83:1 107:1 124:1 144:1 159:1 172:1 192:1 207:1 220:1 239:1 251:1 266:1 280:1 302:1 310:1 327:1 345:1 355:1 379:1 395:1 492:1 560:1 639:1 700:1 752:1 831:1 892:1 943:1 1019:1 1066:1 1128:1 1182:1 1270:1 1303:1 1369:1 1443:1 1483:1 
0.01 1:1 7:1 11:1 16:1 20:1 24:1 28:1 32:1 35:1 40:1 43:1 47:1 50:1 56:1 59:1 63:1 65:1 72:1 75:1 80:1 83:1 107:1 124:1 144:1 160:1 176:1 192:1 207:1 220:1 239:1 251:1 266:1 280:1 303:1 315:1 329:1 340:1 367:1 380:1 395:1 492:1 560:1 640:1 704:1 768:1 831:1 892:1 943:1 1019:1 1066:1 1128:1 1183:1 1275:1 1321:1 1380:1 1423:1 1532:1 
-0.01 1:1 7:1 12:1 13:1 17:1 24:1 26:1 32:1 35:1 40:1 43:1 47:1 50:1 56:1 60:1 64:1 66:1 72:1 76:1 77:1 83:1 108:1 125:1 129:1 148:1 174:1 184:1 207:1 220:1 239:1 251:1 266:1 280:1 304:1 320:1 334:1 344:1 368:1 381:1 396:1 493:1 561:1 580:1 654:1 760:1 799:1 892:1 943:1 1019:1 1066:1 1128:1 1184:1 1280:1 1342:1 1400:1 1440:1 1533:1 
-0.01 1:1 7:1 12:1 13:1 17:1 24:1 28:1 32:1 35:1 40:1 43:1 47:1 50:1 56:1 57:1 64:1 67:1 72:1 76:1 80:1 83:1 108:1 125:1 129:1 148:1 176:1 192:1 207:1 220:1 239:1 251:1 266:1 280:1 301:1 308:1 335:1 348:1 368:1 384:1 396:1 493:1 561:1 580:1 656:1 768:1 831:1 892:1 943:1 1019:1 1066:1 1128:1 1181:1 1268:1 1295:1 1404:1 1456:1 1536:1 
0.0058405459947572071 1:1 7:1 12:1 13:1 20:1 22:1 28:1 32:1 35:1 40:1 43:1 47:1 50:1 56:1 59:1 64:1 66:1 72:1 75:1 80:1 83:1 108:1 125:1 132:1 158:1 168:1 192:1 207:1 220:1 239:1 251:1 266:1 280:1 303:1 316:1 334:1 344:1 367:1 380:1 396:1 493:1 564:1 590:1 696:1 736:1 831:1 892:1 943:1 1019:1 1066:1 1128:1 1183:1 1276:1 1326:1 1400:1 1439:1 1532:1 
0.01 1:1 7:1 12:1 14:1 17:1 23:1 25:1 32:1 35:1 40:1 43:1 47:1 50:1 56:1 60:1 62:1 66:1 71:1 74:1 78:1 83:1 108:1 126:1 133:1 147:1 169:1 180:1 207:1 220:1 239:1 251:1 266:1 280:1 304:1 318:1 326:1 343:1 362:1 374:1 396:1 494:1 565:1 595:1 649:1 740:1 783:1 892:1 943:1 1019:1 1066:1 1128:1 1184:1 1278:1 1334:1 1367:1 1434:1 1510:1 
0.01 1:1 7:1 12:1 14:1 18:1 21:1 28:1 32:1 35:1 40:1 43:1 47:1 50:1 56:1 59:1 62:1 68:1 69:1 76:1 78:1 83:1 108:1 126:1 134:1 149:1 164:1 192:1 207:1 220:1 239:1 251:1 266:1 280:1 303:1 314:1 328:1 349:1 356:1 382:1 396:1 494:1 566:1 597:1 660:1 720:1 831:1 892:1 943:1 1019:1 1066:1 1128:1 1183:1 1274:1 1320:1 1373:1 1460:1 1486:1 
-0.008886244969768942 1:1 7:1 12:1 14:1 20:1 22:1 28:1 32:1 35:1 40:1 43:1 47:1 50:1 53:1 57:1 62:1 65:1 72:1 74:1 80:1 83:1 108:1 126:1 136:1 158:1 168:1 192:1 207:1 220:1 239:1 251:1 266:1 277:1 289:1 306:1 325:1 340:1 366:1 376:1 396:1 494:1 568:1 606:1 696:1 736:1 831:1 892:1 943:1 1019:1 1066:1 1125:1 1169:1 1218:1 1285:1 1364:1 1422:1 1528:1 
0.01 1:1 7:1 12:1 15:1 20:1 24:1 28:1 32:1 35:1 40:1 43:1 47:1 50:1 56:1 57:1 61:1 66:1 69:1 74:1 80:1 83:1 108:1 127:1 140:1 160:1 176:1 192:1 207:1 220:1 239:1 251:1 266:1 280:1 301:1 305:1 322:1 341:1 354:1 376:1 396:1 495:1 572:1 624:1 704:1 768:1 831:1 892:1 943:1 1019:1 1066:1 1128:1 1181:1 1265:1 1282:1 1349:1 1426:1 1480:1 
0.01 1:1 7:1 12:1 16:1 17:1 22:1 25:1 32:1 35:1 40:1 43:1 47:1 50:1 56:1 57:1 63:1 68:1 71:1 75:1 78:1 83:1 108:1 128:1 141:1 146:1 165:1 180:1 207:1 220:1 239:1 251:1 266:1 280:1 301:1 307:1 332:1 351:1 363:1 378:1 396:1 496:1 573:1 626:1 645:1 724:1 783:1 892:1 943:1 1019:1 1066:1 1128:1 1181:1 1267:1 1292:1 1391:1 1467:1 1514:1 
-0.01 1:1 7:1 12:1 16:1 17:1 24:1 25:1 32:1 35:1 40:1 43:1 47:1 50:1 56:1 57:1 63:1 65:1 69:1 73:1 77:1 83:1 108:1 128:1 141:1 148:1 173:1 180:1 207:1 220:1 239:1 251:1 266:1 280:1 301:1 307:1 329:1 337:1 353:1 369:1 396:1 496:1 573:1 628:1 653:1 756:1 783:1 892:1 943:1 1019:1 1066:1 1128:1 1181:1 1267:1 1289:1 1377:1 1409:1 1473:1 
0.01 1:1 7:1 12:1 16:1 17:1 24:1 28:1 32:1 35:1 40:1 43:1 47:1 50:1 56:1 58:1 64:1 66:1 72:1 75:1 77:1 83:1 108:1 128:1 141:1 148:1 176:1 192:1 207:1 220:1 239:1 251:1 266:1 280:1 302:1 312:1 334:1 344:1 367:1 377:1 396:1 496:1 573:1 628:1 656:1 768:1 831:1 892:1 943:1 1019:1 1066:1 1128:1 1182:1 1272:1 1310:1 1400:1 1439:1 1529:1 
-0.01 1:1 7:1 12:1 16:1 18:1 24:1 28:1 32:1 35:1 40:1 43:1 47:1 50:1 54:1 60:1 63:1 67:1 69:1 76:1 80:1 83:1 108:1 128:1 142:1 152:1 176:1 192:1 207:1 220:1 239:1 251:1 266:1 278:1 296:1 319:1 331:1 345:1 356:1 384:1 396:1 496:1 574:1 632:1 672:1 768:1 831:1 892:1 943:1 1019:1 1066:1 1126:1 1176:1 1247:1 1339:1 1385:1 1444:1 1488:1 
0.01 1:1 7:1 12:1 16:1 18:1 24:1 28:1 32:1 35:1 40:1 43:1 47:1 50:1 56:1 60:1 64:1 68:1 72:1 76:1 77:1 83:1 108:1 128:1 142:1 152:1 176:1 192:1 207:1 220:1 239:1 251:1 266:1 280:1 304:1 320:1 336:1 352:1 368:1 381:1 396:1 496:1 574:1 632:1 672:1 768:1 831:1 892:1 943:1 1019:1 1066:1 1128:1 1184:1 1280:1 1344:1 1408:1 1472:1 1533:1 
0.0029774383389650871 1:1 7:1 12:1 16:1 19:1 22:1 28:1 32:1 35:1 40:1 43:1 47:1 50:1 56:1 59:1 63:1 67:1 69:1 76:1 80:1 83:1 108:1 128:1 143:1 154:1 168:1 192:1 207:1 220:1 239:1 251:1 266:1 280:1 303:1 315:1 331:1 345:1 356:1 384:1 396:1 496:1 575:1 634:1 680:1 736:1 831:1 892:1 943:1 1019:1 1066:1 1128:1 1183:1 1275:1 1323:1 1385:1 1444:1 1488:1 
-0.01 1:1 7:1 12:1 16:1 19:1 23:1 25:1 32:1 35:1 40:1 43:1 47:1 50:1 56:1 57:1 64:1 65:1 69:1 73:1 77:1 83:1 108:1 128:1 143:1 155:1 169:1 180:1 207:1 220:1 239:1 251:1 266:1 280:1 301:1 308:1 333:1 337:1 353:1 369:1 396:1 496:1 575:1 635:1 681:1 740:1 783:1 892:1 943:1 1019:1 1066:1 1128:1 1181:1 1268:1 1293:1 1393:1 1409:1 1473:1 
0.01 1:1 7:1 12:1 16:1 19:1 24:1 26:1 32:1 35:1 40:1 43:1 47:1 50:1 56:1 60:1 62:1 66:1 69:1 76:1 79:1 83:1 108:1 128:1 143:1 156:1 174:1 184:1 207:1 220:1 239:1 251:1 266:1 280:1 304:1 318:1 326:1 341:1 356:1 383:1 396:1 496:1 575:1 636:1 686:1 760:1 799:1 892:1 943:1 1019:1 1066:1 1128:1 1184:1 1278:1 1334:1 1365:1 1428:1 1487:1 
-0.01 1:1 8:1 9:1 13:1 17:1 21:1 25:1 32:1 35:1 40:1 43:1 47:1 50:1 56:1 60:1 63:1 66:1 70:1 73:1 77:1 84:1 109:1 113:1 129:1 145:1 161:1 180:1 207:1 220:1 239:1 251:1 266:1 280:1 304:1 319:1 330:1 342:1 357:1 369:1 397:1 497:1 513:1 577:1 641:1 708:1 783:1 892:1 943:1 1019:1 1066:1 1128:1 1184:1 1279:1 1338:1 1382:1 1429:1 1489:1 
-0.01 1:1 8:1 9:1 13:1 17:1 24:1 28:1 32:1 35:1 40:1 43:1 47:1 50:1 54:1 58:1 64:1 67:1 72:1 74:1 80:1 84:1 109:1 113:1 129:1 148:1 176:1 192:1 207:1 220:1 239:1 251:1 266:1 278:1 294:1 312:1 335:1 348:1 366:1 376:1 397:1 497:1 513:1 580:1 656:1 768:1 831:1 892:1 943:1 1019:1 1066:1 1126:1 1174:1 1240:1 1311:1 1404:1 1454:1 1528:1 
-0.01 1:1 8:1 9:1 13:1 20:1 22:1 28:1 32:1 35:1 40:1 43:1 47:1 50:1 56:1 57:1 61:1 68:1 72:1 76:1 79:1 84:1 109:1 113:1 132:1 158:1 168:1 192:1 207:1 220:1 239:1 251:1 266:1 280:1 301:1 305:1 324:1 352:1 368:1 383:1 397:1 497:1 516:1 590:1 696:1 736:1 831:1 892:1 943:1 1019:1 1066:1 1128:1 1181:1 1265:1 1284:1 1360:1 1472:1 1535:1 
-0.01 1:1 8:1 9:1 14:1 18:1 21:1 28:1 32:1 35:1 40:1 43:1 47:1 50:1 54:1 59:1 64:1 66:1 72:1 75:1 79:1 84:1 109:1 114:1 134:1 149:1 164:1 192:1 207:1 220:1 239:1 251:1 266:1 278:1 295:1 316:1 334:1 344:1 367:1 379:1 397:1 498:1 518:1 597:1 660:1 720:1 831:1 892:1 943:1 1019:1 1066:1 1126:1 1175:1 1244:1 1326:1 1400:1 1439:1 1531:1 
-0.0014621847929793647 1:1 8:1 9:1 15:1 17:1 23:1 25:1 32:1 35:1 40:1 43:1 47:1 50:1 56:1 60:1 62:1 66:1 72:1 73:1 79:1 84:1 109:1 115:1 137:1 147:1 169:1 180:1 207:1 220:1 239:1 251:1 266:1 280:1 304:1 318:1 326:1 344:1 365:1 371:1 397:1 499:1 521:1 611:1 649:1 740:1 783:1 892:1 943:1 1019:1 1066:1 1128:1 1184:1 1278:1 1334:1 1368:1 1437:1 1523:1 
0.0084346844640686893 1:1 8:1 9:1 15:1 17:1 23:1 28:1 32:1 35:1 40:1 43:1 47:1 50:1 53:1 57:1 61:1 65:1 72:1 75:1 77:1 84:1 109:1 115:1 137:1 147:1 172:1 192:1 207:1 220:1 239:1 251:1 266:1 277:1 289:1 305:1 321:1 340:1 367:1 377:1 397:1 499:1 521:1 611:1 652:1 752:1 831:1 892:1 943:1 1019:1 1066:1 1125:1 1169:1 1217:1 1281:1 1348:1 1423:1 1529:1 
-0.01 1:1 8:1 9:1 15:1 18:1 22:1 25:1 32:1 35:1 40:1 43:1 47:1 50:1 56:1 57:1 61:1 68:1 72:1 75:1 80:1 84:1 109:1 115:1 138:1 150:1 165:1 180:1 207:1 220:1 239:1 251:1 266:1 280:1 301:1 305:1 324:1 352:1 367:1 380:1 397:1 499:1 522:1 614:1 661:1 724:1 783:1 892:1 943:1 1019:1 1066:1 1128:1 1181:1 1265:1 1284:1 1360:1 1471:1 1532:1 
0.01 1:1 8:1 9:1 15:1 18:1 24:1 28:1 32:1 35:1 40:1 43:1 47:1 50:1 53:1 60:1 64:1 68:1 72:1 74:1 78:1 84:1 109:1 115:1 138:1 152:1 176:1 192:1 207:1 220:1 239:1 251:1 266:1 277:1 292:1 320:1 336:1 352:1 366:1 374:1 397:1 499:1 522:1 616:1 672:1 768:1 831:1 892:1 943:1 1019:1 1066:1 1125:1 1172:1 1232:1 1344:1 1408:1 1470:1 1526:1 
0.01 1:1 8:1 9:1 15:1 19:1 24:1 28:1 32:1 35:1 40:1 43:1 47:1 50:1 54:1 60:1 61:1 67:1 71:1 73:1 79:1 84:1 109:1 115:1 139:1 156:1 176:1 192:1 207:1 220:1 239:1 251:1 266:1 278:1 296:1 317:1 323:1 347:1 361:1 371:1 397:1 499:1 523:1 620:1 688:1 768:1 831:1 892:1 943:1 1019:1 1066:1 1126:1 1176:1 1245:1 1331:1 1355:1 1449:1 1507:1 
0.01 1:1 8:1 9:1 15:1 20:1 21:1 28:1 32:1 35:1 40:1 43:1 47:1 50:1 54:1 58:1 64:1 67:1 72:1 75:1 79:1 84:1 109:1 115:1 140:1 157:1 164:1 192:1 207:1 220:1 239:1 251:1 266:1 278:1 294:1 312:1 335:1 348:1 367:1 379:1 397:1 499:1 524:1 621:1 692:1 720:1 831:1 892:1 943:1 1019:1 1066:1 1126:1 1174:1 1240:1 1311:1 1404:1 1455:1 1531:1 
0.0053084554642289367 1:1 8:1 9:1 16:1 19:1 24:1 28:1 32:1 35:1 40:1 43:1 47:1 50:1 56:1 57:1 62:1 65:1 72:1 73:1 78:1 84:1 109:1 116:1 143:1 156:1 176:1 192:1 207:1 220:1 239:1 251:1 266:1 280:1 301:1 306:1 325:1 340:1 365:1 370:1 397:1 500:1 527:1 636:1 688:1 768:1 831:1 892:1 943:1 1019:1 1066:1 1128:1 1181:1 1266:1 1285:1 1364:1 1421:1 1522:1 
0.01 1:1 8:1 9:1 16:1 20:1 23:1 28:1 32:1 35:1 40:1 43:1 47:1 50:1 54:1 60:1 63:1 65:1 72:1 73:1 77:1 84:1 109:1 116:1 144:1 159:1 172:1 192:1 207:1 220:1 239:1 251:1 266:1 278:1 296:1 319:1 329:1 340:1 365:1 369:1 397:1 500:1 528:1 639:1 700:1 752:1 831:1 892:1 943:1 1019:1 1066:1 1126:1 1176:1 1247:1 1337:1 1380:1 1421:1 1521:1 
-0.01 1:1 8:1 9:1 16:1 20:1 23:1 28:1 32:1 35:1 40:1 43:1 47:1 50:1 56:1 59:1 63:1 65:1 71:1 76:1 80:1 84:1 109:1 116:1 144:1 159:1 172:1 192:1 207:1 220:1 239:1 251:1 266:1 280:1 303:1 315:1 329:1 339:1 364:1 384:1 397:1 500:1 528:1 639:1 700:1 752:1 831:1 892:1 943:1 1019:1 1066:1 1128:1 1183:1 1275:1 1321:1 1379:1 1420:1 1520:1 
0.01 1:1 8:1 9:1 16:1 20:1 24:1 28:1 32:1 35:1 40:1 43:1 47:1 50:1 54:1 57:1 62:1 65:1 70:1 73:1 77:1 84:1 109:1 116:1 144:1 160:1 176:1 192:1 207:1 220:1 239:1 251:1 266:1 278:1 293:1 306:1 325:1 338:1 357:1 369:1 397:1 500:1 528:1 640:1 704:1 768:1 831:1 892:1 943:1 1019:1 1066:1 1126:1 1173:1 1234:1 1285:1 1362:1 1413:1 1489:1 
-0.0026615235905544559 1:1 8:1 10:1 13:1 17:1 23:1 26:1 32:1 35:1 40:1 43:1 47:1 50:1 56:1 60:1 63:1 66:1 70:1 73:1 78:1 84:1 110:1 117:1 129:1 147:1 170:1 184:1 207:1 220:1 239:1 251:1 266:1 280:1 304:1 319:1 330:1 342:1 357:1 370:1 398:1 501:1 529:1 579:1 650:1 744:1 799:1 892:1 943:1 1019:1 1066:1 1128:1 1184:1 1279:1 1338:1 1382:1 1429:1 1490:1 
0.01 1:1 8:1 10:1 13:1 19:1 24:1 28:1 32:1 35:1 40:1 43:1 47:1 50:1 56:1 60:1 61:1 68:1 72:1 75:1 79:1 84:1 110:1 117:1 131:1 156:1 176:1 192:1 207:1 220:1 239:1 251:1 266:1 280:1 304:1 317:1 324:1 352:1 367:1 379:1 398:1 501:1 531:1 588:1 688:1 768:1 831:1 892:1 943:1 1019:1 1066:1 1128:1 1184:1 1277:1 1332:1 1360:1 1471:1 1531:1 
0.01 1:1 8:1 10:1 13:1 20:1 24:1 28:1 32:1 35:1 40:1 43:1 47:1 50:1 56:1 59:1 64:1 67:1 69:1 75:1 78:1 84:1 110:1 117:1 132:1 160:1 176:1 192:1 207:1 220:1 239:1 251:1 266:1 280:1 303:1 316:1 335:1 345:1 355:1 378:1 398:1 501:1 532:1 592:1 704:1 768:1 831:1 892:1 943:1 1019:1 1066:1 1128:1 1183:1 1276:1 1327:1 1401:1 1443:1 1482:1 
0.001260075983032249 1:1 8:1 10:1 14:1 18:1 21:1 28:1 32:1 35:1 40:1 43:1 47:1 50:1 53:1 58:1 61:1 65:1 69:1 74:1 79:1 84:1 110:1 118:1 134:1 149:1 164:1 192:1 207:1 220:1 239:1 251:1 266:1 277:1 290:1 309:1 321:1 337:1 354:1 375:1 398:1 502:1 534:1 597:1 660:1 720:1 831:1 892:1 943:1 1019:1 1066:1 1125:1 1170:1 1221:1 1297:1 1345:1 1410:1 1479:1 
0.006221470437707763 1:1 8:1 10:1 14:1 20:1 23:1 26:1 32:1 35:1 40:1 43:1 47:1 50:1 56:1 57:1 61:1 67:1 70:1 76:1 79:1 84:1 110:1 118:1 136:1 159:1 170:1 184:1 207:1 220:1 239:1 251:1 266:1 280:1 301:1 305:1 323:1 346:1 360:1 383:1 398:1 502:1 536:1 607:1 698:1 744:1 799:1 892:1 943:1 1019:1 1066:1 1128:1 1181:1 1265:1 1283:1 1354:1 1448:1 1503:1 
0.0010225133838313832 1:1 8:1 10:1 14:1 20:1 23:1 28:1 32:1 35:1 40:1 43:1 47:1 50:1 54:1 58:1 64:1 67:1 70:1 74:1 78:1 84:1 110:1 118:1 136:1 159:1 172:1 192:1 207:1 220:1 239:1 251:1 266:1 278:1 294:1 312:1 335:1 346:1 358:1 374:1 398:1 502:1 536:1 607:1 700:1 752:1 831:1 892:1 943:1 1019:1 1066:1 1126:1 1174:1 1240:1 1311:1 1402:1 1446:1 1494:1 
0.0057836659232743245 1:1 8:1 10:1 16:1 18:1 21:1 28:1 32:1 35:1 40:1 43:1 47:1 50:1 56:1 59:1 62:1 68:1 70:1 75:1 80:1 84:1 110:1 120:1 142:1 149:1 164:1 192:1 207:1 220:1 239:1 251:1 266:1 280:1 303:1 314:1 328:1 350:1 359:1 380:1 398:1 504:1 542:1 629:1 660:1 720:1 831:1 892:1 943:1 1019:1 1066:1 1128:1 1183:1 1274:1 1320:1 1374:1 1463:1 1500:1 
-0.01 1:1 8:1 10:1 16:1 20:1 23:1 28:1 32:1 35:1 40:1 43:1 47:1 50:1 54:1 58:1 64:1 67:1 70:1 74:1 77:1 84:1 110:1 120:1 144:1 159:1 172:1 192:1 207:1 220:1 239:1 251:1 266:1 278:1 294:1 312:1 335:1 346:1 358:1 373:1 398:1 504:1 544:1 639:1 700:1 752:1 831:1 892:1 943:1 1019:1 1066:1 1126:1 1174:1 1240:1 1311:1 1402:1 1446:1 1493:1 
0.01 1:1 8:1 11:1 13:1 17:1 21:1 26:1 32:1 35:1 40:1 43:1 47:1 50:1 56:1 60:1 63:1 65:1 71:1 75:1 79:1 84:1 111:1 121:1 129:1 145:1 162:1 184:1 207:1 220:1 239:1 251:1 266:1 280:1 304:1 319:1 329:1 339:1 363:1 379:1 399:1 505:1 545:1 577:1 642:1 712:1 799:1 892:1 943:1 1019:1 1066:1 1128:1 1184:1 1279:1 1337:1 1379:1 1419:1 1515:1 
-0.01 1:1 8:1 11:1 13:1 17:1 22:1 28:1 32:1 35:1 40:1 43:1 47:1 50:1 53:1 58:1 64:1 66:1 69:1 73:1 77:1 84:1 111:1 121:1 129:1 146:1 168:1 192:1 207:1 220:1 239:1 251:1 266:1 277:1 290:1 312:1 334:1 341:1 353:1 369:1 399:1 505:1 545:1 578:1 648:1 736:1 831:1 892:1 943:1 1019:1 1066:1 1125:1 1170:1 1224:1 1310:1 1397:1 1425:1 1473:1 
0.01 1:1 8:1 11:1 13:1 18:1 24:1 28:1 32:1 35:1 40:1 43:1 47:1 50:1 54:1 57:1 61:1 66:1 70:1 73:1 80:1 84:1 111:1 121:1 130:1 152:1 176:1 192:1 207:1 220:1 239:1 251:1 266:1 278:1 293:1 305:1 322:1 342:1 357:1 372:1 399:1 505:1 546:1 584:1 672:1 768:1 831:1 892:1 943:1 1019:1 1066:1 1126:1 1173:1 1233:1 1282:1 1350:1 1429:1 1492:1 
-0.01 1:1 8:1 11:1 13:1 20:1 21:1 28:1 32:1 35:1 40:1 43:1 47:1 50:1 54:1 60:1 62:1 65:1 72:1 75:1 79:1 84:1 111:1 121:1 132:1 157:1 164:1 192:1 207:1 220:1 239:1 251:1 266:1 278:1 296:1 318:1 325:1 340:1 367:1 379:1 399:1 505:1 548:1 589:1 692:1 720:1 831:1 892:1 943:1 1019:1 1066:1 1126:1 1176:1 1246:1 1333:1 1364:1 1423:1 1531:1 
-0.01 1:1 8:1 11:1 13:1 20:1 24:1 28:1 32:1 35:1 40:1 43:1 47:1 50:1 53:1 59:1 61:1 68:1 71:1 73:1 79:1 84:1 111:1 121:1 132:1 160:1 176:1 192:1 207:1 220:1 239:1 251:1 266:1 277:1 291:1 313:1 324:1 351:1 361:1 371:1 399:1 505:1 548:1 592:1 704:1 768:1 831:1 892:1 943:1 1019:1 1066:1 1125:1 1171:1 1225:1 1316:1 1359:1 1465:1 1507:1 
-0.0054099608170111368 1:1 8:1 11:1 14:1 17:1 23:1 28:1 32:1 35:1 40:1 43:1 47:1 50:1 53:1 57:1 62:1 67:1 72:1 75:1 77:1 84:1 111:1 122:1 133:1 147:1 172:1 192:1 207:1 220:1 239:1 251:1 266:1 277:1 289:1 306:1 327:1 348:1 367:1 377:1 399:1 506:1 549:1 595:1 652:1 752:1 831:1 892:1 943:1 1019:1 1066:1 1125:1 1169:1 1218:1 1287:1 1372:1 1455:1 1529:1 
0.01 1:1 8:1 11:1 14:1 18:1 22:1 28:1 32:1 35:1 40:1 43:1 47:1 50:1 56:1 60:1 64:1 68:1 72:1 73:1 77:1 84:1 111:1 122:1 134:1 150:1 168:1 192:1 207:1 220:1 239:1 251:1 266:1 280:1 304:1 320:1 336:1 352:1 365:1 369:1 399:1 506:1 550:1 598:1 664:1 736:1 831:1 892:1 943:1 1019:1 1066:1 1128:1 1184:1 1280:1 1344:1 1408:1 1469:1 1521:1 
-0.01 1:1 8:1 11:1 14:1 20:1 22:1 28:1 32:1 35:1 40:1 43:1 47:1 50:1 53:1 59:1 62:1 65:1 71:1 75:1 80:1 84:1 111:1 122:1 136:1 158:1 168:1 192:1 207:1 220:1 239:1 251:1 266:1 277:1 291:1 314:1 325:1 339:1 363:1 380:1 399:1 506:1 552:1 606:1 696:1 736:1 831:1 892:1 943:1 1019:1 1066:1 1125:1 1171:1 1226:1 1317:1 1363:1 1419:1 1516:1 
0.01 1:1 8:1 11:1 14:1 20:1 22:1 28:1 32:1 35:1 40:1 43:1 47:1 50:1 54:1 60:1 61:1 65:1 71:1 76:1 79:1 84:1 111:1 122:1 136:1 158:1 168:1 192:1 207:1 220:1 239:1 251:1 266:1 278:1 296:1 317:1 321:1 339:1 364:1 383:1 399:1 506:1 552:1 606:1 696:1 736:1 831:1 892:1 943:1 1019:1 1066:1 1126:1 1176:1 1245:1 1329:1 1347:1 1420:1 1519:1 
0.01 1:1 8:1 11:1 15:1 17:1 22:1 28:1 32:1 35:1 40:1 43:1 47:1 50:1 56:1 58:1 61:1 65:1 69:1 74:1 77:1 84:1 111:1 123:1 137:1 146:1 168:1 192:1 207:1 220:1 239:1 251:1 266:1 280:1 302:1 309:1 321:1 337:1 354:1 373:1 399:1 507:1 553:1 610:1 648:1 736:1 831:1 892:1 943:1 1019:1 1066:1 1128:1 1182:1 1269:1 1297:1 1345:1 1410:1 1477:1 
-0.01 1:1 8:1 11:1 15:1 17:1 22:1 28:1 32:1 35:1 40:1 43:1 47:1 50:1 56:1 60:1 64:1 68:1 70:1 74:1 77:1 84:1 111:1 123:1 137:1 146:1 168:1 192:1 207:1 220:1 239:1 251:1 266:1 280:1 304:1 320:1 336:1 350:1 358:1 373:1 399:1 507:1 553:1 610:1 648:1 736:1 831:1 892:1 943:1 1019:1 1066:1 1128:1 1184:1 1280:1 1344:1 1406:1 1462:1 1493:1 
0.0090457674300719187 1:1 8:1 11:1 15:1 17:1 24:1 26:1 32:1 35:1 40:1 43:1 47:1 50:1 56:1 60:1 64:1 65:1 72:1 75:1 78:1 84:1 111:1 123:1 137:1 148:1 174:1 184:1 207:1 220:1 239:1 251:1 266:1 280:1 304:1 320:1 333:1 340:1 367:1 378:1 399:1 507:1 553:1 612:1 654:1 760:1 799:1 892:1 943:1 1019:1 1066:1 1128:1 1184:1 1280:1 1341:1 1396:1 1423:1 1530:1 
0.01 1:1 8:1 11:1 15:1 18:1 24:1 28:1 32:1 35:1 40:1 43:1 47:1 50:1 56:1 58:1 61:1 67:1 71:1 74:1 77:1 84:1 111:1 123:1 138:1 152:1 176:1 192:1 207:1 220:1 239:1 251:1 266:1 280:1 302:1 309:1 323:1 347:1 362:1 373:1 399:1 507:1 554:1 616:1 672:1 768:1 831:1 892:1 943:1 1019:1 1066:1 1128:1 1182:1 1269:1 1299:1 1355:1 1450:1 1509:1 
-0.01 1:1 8:1 11:1 15:1 20:1 24:1 28:1 32:1 35:1 40:1 43:1 47:1 50:1 53:1 58:1 64:1 66:1 72:1 74:1 78:1 84:1 111:1 123:1 140:1 160:1 176:1 192:1 207:1 220:1 239:1 251:1 266:1 277:1 290:1 312:1 334:1 344:1 366:1 374:1 399:1 507:1 556:1 624:1 704:1 768:1 831:1 892:1 943:1 1019:1 1066:1 1125:1 1170:1 1224:1 1310:1 1400:1 1438:1 1526:1 
-0.01 1:1 8:1 11:1 16:1 17:1 21:1 26:1 32:1 35:1 40:1 43:1 47:1 50:1 56:1 60:1 64:1 67:1 71:1 74:1 77:1 84:1 111:1 124:1 141:1 145:1 162:1 184:1 207:1 220:1 239:1 251:1 266:1 280:1 304:1 320:1 335:1 347:1 362:1 373:1 399:1 508:1 557:1 625:1 642:1 712:1 799:1 892:1 943:1 1019:1 1066:1 1128:1 1184:1 1280:1 1343:1 1403:1 1450:1 1509:1 
0.01 1:1 8:1 11:1 16:1 18:1 22:1 28:1 32:1 35:1 40:1 43:1 47:1 50:1 54:1 60:1 63:1 66:1 71:1 76:1 80:1 84:1 111:1 124:1 142:1 150:1 168:1 192:1 207:1 220:1 239:1 251:1 266:1 278:1 296:1 319:1 330:1 343:1 364:1 384:1 399:1 508:1 558:1 630:1 664:1 736:1 831:1 892:1 943:1 1019:1 1066:1 1126:1 1176:1 1247:1 1338:1 1383:1 1436:1 1520:1 
0.01 1:1 8:1 11:1 16:1 19:1 22:1 28:1 32:1 35:1 40:1 43:1 47:1 50:1 54:1 60:1 62:1 67:1 72:1 76:1 79:1 84:1 111:1 124:1 143:1 154:1 168:1 192:1 207:1 220:1 239:1 251:1 266:1 278:1 296:1 318:1 327:1 348:1 368:1 383:1 399:1 508:1 559:1 634:1 680:1 736:1 831:1 892:1 943:1 1019:1 1066:1 1126:1 1176:1 1246:1 1335:1 1372:1 1456:1 1535:1 
-0.01 1:1 8:1 11:1 16:1 19:1 24:1 28:1 32:1 35:1 40:1 43:1 47:1 50:1 54:1 57:1 61:1 66:1 72:1 75:1 79:1 84:1 111:1 124:1 143:1 156:1 176:1 192:1 207:1 220:1 239:1 251:1 266:1 278:1 293:1 305:1 322:1 344:1 367:1 379:1 399:1 508:1 559:1 636:1 688:1 768:1 831:1 892:1 943:1 1019:1 1066:1 1126:1 1173:1 1233:1 1282:1 1352:1 1439:1 1531:1 
