svm_type epsilon_svr
kernel_type linear
nr_class 2
total_sv 479
rho 0.20616836978393058
probA 0.12951905410548942
SV
0.10000000000000001 1:1 5:1 9:1 16:1 19:1 24:1 27:1 31:1 34:1 40:1 41:1 45:1 49:1 65:1 84:1 111:1 124:1 143:1 155:1 170:1 184:1 205:1 209:1 225:1 292:1 367:1 476:1 527:1 603:1 650:1 712:1 765:1 849:1 
-0.10000000000000001 1:1 5:1 9:1 16:1 19:1 24:1 27:1 31:1 34:1 40:1 41:1 46:1 49:1 65:1 84:1 111:1 124:1 143:1 155:1 170:1 184:1 205:1 210:1 225:1 292:1 367:1 476:1 527:1 603:1 650:1 712:1 765:1 850:1 
-0.10000000000000001 1:1 5:1 9:1 16:1 19:1 24:1 27:1 31:1 34:1 40:1 41:1 48:1 49:1 65:1 84:1 111:1 124:1 143:1 155:1 170:1 184:1 205:1 212:1 225:1 292:1 367:1 476:1 527:1 603:1 650:1 712:1 765:1 852:1 
0.10000000000000001 1:1 5:1 9:1 16:1 19:1 24:1 27:1 31:1 34:1 40:1 44:1 45:1 49:1 65:1 84:1 111:1 124:1 143:1 155:1 170:1 184:1 208:1 221:1 225:1 292:1 367:1 476:1 527:1 603:1 650:1 712:1 768:1 861:1 
0.10000000000000001 1:1 5:1 9:1 16:1 19:1 24:1 27:1 31:1 34:1 40:1 44:1 46:1 49:1 65:1 84:1 111:1 124:1 143:1 155:1 170:1 184:1 208:1 222:1 225:1 292:1 367:1 476:1 527:1 603:1 650:1 712:1 768:1 862:1 
-0.10000000000000001 1:1 5:1 9:1 16:1 19:1 24:1 27:1 31:1 34:1 40:1 44:1 47:1 49:1 65:1 84:1 111:1 124:1 143:1 155:1 170:1 184:1 208:1 223:1 225:1 292:1 367:1 476:1 527:1 603:1 650:1 712:1 768:1 863:1 
0.076958603717604823 1:1 5:1 10:1 16:1 19:1 24:1 27:1 31:1 34:1 40:1 41:1 45:1 49:1 66:1 88:1 111:1 124:1 143:1 155:1 170:1 184:1 205:1 209:1 226:1 296:1 383:1 476:1 527:1 603:1 650:1 712:1 765:1 849:1 
0.10000000000000001 1:1 5:1 10:1 16:1 19:1 24:1 27:1 31:1 34:1 40:1 44:1 45:1 49:1 66:1 88:1 111:1 124:1 143:1 155:1 170:1 184:1 208:1 221:1 226:1 296:1 383:1 476:1 527:1 603:1 650:1 712:1 768:1 861:1 
-0.10000000000000001 1:1 5:1 10:1 16:1 19:1 24:1 27:1 31:1 34:1 40:1 44:1 46:1 49:1 66:1 88:1 111:1 124:1 143:1 155:1 170:1 184:1 208:1 222:1 226:1 296:1 383:1 476:1 527:1 603:1 650:1 712:1 768:1 862:1 
-0.10000000000000001 1:1 5:1 10:1 16:1 19:1 24:1 27:1 31:1 34:1 40:1 44:1 47:1 49:1 66:1 88:1 111:1 124:1 143:1 155:1 170:1 184:1 208:1 223:1 226:1 296:1 383:1 476:1 527:1 603:1 650:1 712:1 768:1 863:1 
0.10000000000000001 1:1 5:1 12:1 16:1 19:1 24:1 27:1 31:1 34:1 37:1 41:1 45:1 49:1 68:1 96:1 111:1 124:1 143:1 155:1 170:1 181:1 193:1 209:1 228:1 304:1 415:1 476:1 527:1 603:1 650:1 709:1 753:1 801:1 
-0.10000000000000001 1:1 5:1 12:1 16:1 19:1 24:1 27:1 31:1 34:1 37:1 41:1 47:1 49:1 68:1 96:1 111:1 124:1 143:1 155:1 170:1 181:1 193:1 211:1 228:1 304:1 415:1 476:1 527:1 603:1 650:1 709:1 753:1 803:1 
-0.10000000000000001 1:1 5:1 12:1 16:1 19:1 24:1 27:1 31:1 34:1 37:1 43:1 45:1 49:1 68:1 96:1 111:1 124:1 143:1 155:1 170:1 181:1 195:1 217:1 228:1 304:1 415:1 476:1 527:1 603:1 650:1 709:1 755:1 809:1 
-0.10000000000000001 1:1 5:1 12:1 16:1 19:1 24:1 27:1 31:1 34:1 37:1 43:1 47:1 49:1 68:1 96:1 111:1 124:1 143:1 155:1 170:1 181:1 195:1 219:1 228:1 304:1 415:1 476:1 527:1 603:1 650:1 709:1 755:1 811:1 
-0.10000000000000001 1:1 5:1 12:1 16:1 19:1 24:1 27:1 31:1 34:1 37:1 44:1 46:1 49:1 68:1 96:1 111:1 124:1 143:1 155:1 170:1 181:1 196:1 222:1 228:1 304:1 415:1 476:1 527:1 603:1 650:1 709:1 756:1 814:1 
-0.067941758691240778 1:1 5:1 12:1 16:1 19:1 24:1 27:1 31:1 34:1 38:1 41:1 45:1 49:1 68:1 96:1 111:1 124:1 143:1 155:1 170:1 182:1 197:1 209:1 228:1 304:1 415:1 476:1 527:1 603:1 650:1 710:1 757:1 817:1 
0.10000000000000001 1:1 5:1 12:1 16:1 19:1 24:1 27:1 31:1 34:1 38:1 41:1 48:1 49:1 68:1 96:1 111:1 124:1 143:1 155:1 170:1 182:1 197:1 212:1 228:1 304:1 415:1 476:1 527:1 603:1 650:1 710:1 757:1 820:1 
-0.10000000000000001 1:1 5:1 12:1 16:1 19:1 24:1 27:1 31:1 34:1 38:1 42:1 48:1 49:1 68:1 96:1 111:1 124:1 143:1 155:1 170:1 182:1 198:1 216:1 228:1 304:1 415:1 476:1 527:1 603:1 650:1 710:1 758:1 824:1 
-0.10000000000000001 1:1 5:1 12:1 16:1 19:1 24:1 27:1 31:1 34:1 38:1 44:1 48:1 49:1 68:1 96:1 111:1 124:1 143:1 155:1 170:1 182:1 200:1 224:1 228:1 304:1 415:1 476:1 527:1 603:1 650:1 710:1 760:1 832:1 
0.10000000000000001 1:1 5:1 12:1 16:1 19:1 24:1 27:1 31:1 34:1 40:1 41:1 45:1 49:1 68:1 96:1 111:1 124:1 143:1 155:1 170:1 184:1 205:1 209:1 228:1 304:1 415:1 476:1 527:1 603:1 650:1 712:1 765:1 849:1 
0.10000000000000001 1:1 5:1 12:1 16:1 19:1 24:1 27:1 31:1 34:1 40:1 41:1 48:1 49:1 68:1 96:1 111:1 124:1 143:1 155:1 170:1 184:1 205:1 212:1 228:1 304:1 415:1 476:1 527:1 603:1 650:1 712:1 765:1 852:1 
0.10000000000000001 1:1 5:1 12:1 16:1 19:1 24:1 27:1 31:1 34:1 40:1 42:1 46:1 49:1 68:1 96:1 111:1 124:1 143:1 155:1 170:1 184:1 206:1 214:1 228:1 304:1 415:1 476:1 527:1 603:1 650:1 712:1 766:1 854:1 
0.10000000000000001 1:1 5:1 12:1 16:1 19:1 24:1 27:1 31:1 34:1 40:1 43:1 47:1 49:1 68:1 96:1 111:1 124:1 143:1 155:1 170:1 184:1 207:1 219:1 228:1 304:1 415:1 476:1 527:1 603:1 650:1 712:1 767:1 859:1 
-0.049458857108677347 1:1 5:1 12:1 16:1 19:1 24:1 27:1 31:1 34:1 40:1 44:1 45:1 49:1 68:1 96:1 111:1 124:1 143:1 155:1 170:1 184:1 208:1 221:1 228:1 304:1 415:1 476:1 527:1 603:1 650:1 712:1 768:1 861:1 
0.10000000000000001 1:1 5:1 12:1 16:1 19:1 24:1 27:1 31:1 34:1 40:1 44:1 47:1 49:1 68:1 96:1 111:1 124:1 143:1 155:1 170:1 184:1 208:1 223:1 228:1 304:1 415:1 476:1 527:1 603:1 650:1 712:1 768:1 863:1 
0.10000000000000001 1:1 6:1 9:1 16:1 19:1 24:1 27:1 31:1 34:1 40:1 41:1 46:1 50:1 69:1 84:1 111:1 124:1 143:1 155:1 170:1 184:1 205:1 210:1 229:1 308:1 367:1 476:1 527:1 603:1 650:1 712:1 765:1 850:1 
0.10000000000000001 1:1 6:1 9:1 16:1 19:1 24:1 27:1 31:1 34:1 40:1 41:1 47:1 50:1 69:1 84:1 111:1 124:1 143:1 155:1 170:1 184:1 205:1 211:1 229:1 308:1 367:1 476:1 527:1 603:1 650:1 712:1 765:1 851:1 
-0.10000000000000001 1:1 6:1 9:1 16:1 19:1 24:1 27:1 31:1 34:1 40:1 41:1 48:1 50:1 69:1 84:1 111:1 124:1 143:1 155:1 170:1 184:1 205:1 212:1 229:1 308:1 367:1 476:1 527:1 603:1 650:1 712:1 765:1 852:1 
-0.10000000000000001 1:1 6:1 9:1 16:1 19:1 24:1 27:1 31:1 34:1 40:1 44:1 45:1 50:1 69:1 84:1 111:1 124:1 143:1 155:1 170:1 184:1 208:1 221:1 229:1 308:1 367:1 476:1 527:1 603:1 650:1 712:1 768:1 861:1 
0.10000000000000001 1:1 6:1 9:1 16:1 19:1 24:1 27:1 31:1 34:1 40:1 44:1 46:1 50:1 69:1 84:1 111:1 124:1 143:1 155:1 170:1 184:1 208:1 222:1 229:1 308:1 367:1 476:1 527:1 603:1 650:1 712:1 768:1 862:1 
-0.10000000000000001 1:1 6:1 9:1 16:1 19:1 24:1 27:1 31:1 34:1 40:1 44:1 47:1 50:1 69:1 84:1 111:1 124:1 143:1 155:1 170:1 184:1 208:1 223:1 229:1 308:1 367:1 476:1 527:1 603:1 650:1 712:1 768:1 863:1 
0.10000000000000001 1:1 6:1 9:1 16:1 19:1 24:1 27:1 31:1 34:1 40:1 44:1 48:1 50:1 69:1 84:1 111:1 124:1 143:1 155:1 170:1 184:1 208:1 224:1 229:1 308:1 367:1 476:1 527:1 603:1 650:1 712:1 768:1 864:1 
-0.10000000000000001 1:1 6:1 10:1 16:1 19:1 24:1 27:1 31:1 34:1 40:1 41:1 45:1 50:1 70:1 88:1 111:1 124:1 143:1 155:1 170:1 184:1 205:1 209:1 230:1 312:1 383:1 476:1 527:1 603:1 650:1 712:1 765:1 849:1 
-0.095068766392417403 1:1 6:1 10:1 16:1 19:1 24:1 27:1 31:1 34:1 40:1 41:1 47:1 50:1 70:1 88:1 111:1 124:1 143:1 155:1 170:1 184:1 205:1 211:1 230:1 312:1 383:1 476:1 527:1 603:1 650:1 712:1 765:1 851:1 
-8.7160914076941931e-05 1:1 6:1 10:1 16:1 19:1 24:1 27:1 31:1 34:1 40:1 41:1 48:1 50:1 70:1 88:1 111:1 124:1 143:1 155:1 170:1 184:1 205:1 212:1 230:1 312:1 383:1 476:1 527:1 603:1 650:1 712:1 765:1 852:1 
0.10000000000000001 1:1 6:1 10:1 16:1 19:1 24:1 27:1 31:1 34:1 40:1 44:1 47:1 50:1 70:1 88:1 111:1 124:1 143:1 155:1 170:1 184:1 208:1 223:1 230:1 312:1 383:1 476:1 527:1 603:1 650:1 712:1 768:1 863:1 
0.10000000000000001 1:1 6:1 10:1 16:1 19:1 24:1 27:1 31:1 34:1 40:1 44:1 48:1 50:1 70:1 88:1 111:1 124:1 143:1 155:1 170:1 184:1 208:1 224:1 230:1 312:1 383:1 476:1 527:1 603:1 650:1 712:1 768:1 864:1 
-0.10000000000000001 1:1 6:1 12:1 16:1 19:1 24:1 27:1 31:1 34:1 37:1 41:1 45:1 50:1 72:1 96:1 111:1 124:1 143:1 155:1 170:1 181:1 193:1 209:1 232:1 320:1 415:1 476:1 527:1 603:1 650:1 709:1 753:1 801:1 
-0.10000000000000001 1:1 6:1 12:1 16:1 19:1 24:1 27:1 31:1 34:1 37:1 42:1 45:1 50:1 72:1 96:1 111:1 124:1 143:1 155:1 170:1 181:1 194:1 213:1 232:1 320:1 415:1 476:1 527:1 603:1 650:1 709:1 754:1 805:1 
-0.10000000000000001 1:1 6:1 12:1 16:1 19:1 24:1 27:1 31:1 34:1 37:1 42:1 46:1 50:1 72:1 96:1 111:1 124:1 143:1 155:1 170:1 181:1 194:1 214:1 232:1 320:1 415:1 476:1 527:1 603:1 650:1 709:1 754:1 806:1 
-0.10000000000000001 1:1 6:1 12:1 16:1 19:1 24:1 27:1 31:1 34:1 37:1 42:1 48:1 50:1 72:1 96:1 111:1 124:1 143:1 155:1 170:1 181:1 194:1 216:1 232:1 320:1 415:1 476:1 527:1 603:1 650:1 709:1 754:1 808:1 
-0.008060536897443361 1:1 6:1 12:1 16:1 19:1 24:1 27:1 31:1 34:1 37:1 44:1 45:1 50:1 72:1 96:1 111:1 124:1 143:1 155:1 170:1 181:1 196:1 221:1 232:1 320:1 415:1 476:1 527:1 603:1 650:1 709:1 756:1 813:1 
0.10000000000000001 1:1 6:1 12:1 16:1 19:1 24:1 27:1 31:1 34:1 37:1 44:1 48:1 50:1 72:1 96:1 111:1 124:1 143:1 155:1 170:1 181:1 196:1 224:1 232:1 320:1 415:1 476:1 527:1 603:1 650:1 709:1 756:1 816:1 
-0.10000000000000001 1:1 6:1 12:1 16:1 19:1 24:1 27:1 31:1 34:1 38:1 41:1 45:1 50:1 72:1 96:1 111:1 124:1 143:1 155:1 170:1 182:1 197:1 209:1 232:1 320:1 415:1 476:1 527:1 603:1 650:1 710:1 757:1 817:1 
0.10000000000000001 1:1 6:1 12:1 16:1 19:1 24:1 27:1 31:1 34:1 38:1 41:1 46:1 50:1 72:1 96:1 111:1 124:1 143:1 155:1 170:1 182:1 197:1 210:1 232:1 320:1 415:1 476:1 527:1 603:1 650:1 710:1 757:1 818:1 
0.10000000000000001 1:1 6:1 12:1 16:1 19:1 24:1 27:1 31:1 34:1 38:1 41:1 47:1 50:1 72:1 96:1 111:1 124:1 143:1 155:1 170:1 182:1 197:1 211:1 232:1 320:1 415:1 476:1 527:1 603:1 650:1 710:1 757:1 819:1 
0.10000000000000001 1:1 6:1 12:1 16:1 19:1 24:1 27:1 31:1 34:1 38:1 43:1 47:1 50:1 72:1 96:1 111:1 124:1 143:1 155:1 170:1 182:1 199:1 219:1 232:1 320:1 415:1 476:1 527:1 603:1 650:1 710:1 759:1 827:1 
-0.10000000000000001 1:1 6:1 12:1 16:1 19:1 24:1 27:1 31:1 34:1 38:1 44:1 46:1 50:1 72:1 96:1 111:1 124:1 143:1 155:1 170:1 182:1 200:1 222:1 232:1 320:1 415:1 476:1 527:1 603:1 650:1 710:1 760:1 830:1 
-0.10000000000000001 1:1 6:1 12:1 16:1 19:1 24:1 27:1 31:1 34:1 38:1 44:1 47:1 50:1 72:1 96:1 111:1 124:1 143:1 155:1 170:1 182:1 200:1 223:1 232:1 320:1 415:1 476:1 527:1 603:1 650:1 710:1 760:1 831:1 
-0.059078180644099157 1:1 6:1 12:1 16:1 19:1 24:1 27:1 31:1 34:1 40:1 41:1 45:1 50:1 72:1 96:1 111:1 124:1 143:1 155:1 170:1 184:1 205:1 209:1 232:1 320:1 415:1 476:1 527:1 603:1 650:1 712:1 765:1 849:1 
-0.10000000000000001 1:1 6:1 12:1 16:1 19:1 24:1 27:1 31:1 34:1 40:1 42:1 47:1 50:1 72:1 96:1 111:1 124:1 143:1 155:1 170:1 184:1 206:1 215:1 232:1 320:1 415:1 476:1 527:1 603:1 650:1 712:1 766:1 855:1 
-0.10000000000000001 1:1 6:1 12:1 16:1 19:1 24:1 27:1 31:1 34:1 40:1 42:1 48:1 50:1 72:1 96:1 111:1 124:1 143:1 155:1 170:1 184:1 206:1 216:1 232:1 320:1 415:1 476:1 527:1 603:1 650:1 712:1 766:1 856:1 
0.10000000000000001 1:1 6:1 12:1 16:1 19:1 24:1 27:1 31:1 34:1 40:1 43:1 45:1 50:1 72:1 96:1 111:1 124:1 143:1 155:1 170:1 184:1 207:1 217:1 232:1 320:1 415:1 476:1 527:1 603:1 650:1 712:1 767:1 857:1 
0.10000000000000001 1:1 6:1 12:1 16:1 19:1 24:1 27:1 31:1 34:1 40:1 43:1 47:1 50:1 72:1 96:1 111:1 124:1 143:1 155:1 170:1 184:1 207:1 219:1 232:1 320:1 415:1 476:1 527:1 603:1 650:1 712:1 767:1 859:1 
0.10000000000000001 1:1 6:1 12:1 16:1 19:1 24:1 27:1 31:1 34:1 40:1 43:1 48:1 50:1 72:1 96:1 111:1 124:1 143:1 155:1 170:1 184:1 207:1 220:1 232:1 320:1 415:1 476:1 527:1 603:1 650:1 712:1 767:1 860:1 
0.10000000000000001 1:1 6:1 12:1 16:1 19:1 24:1 27:1 31:1 34:1 40:1 44:1 45:1 50:1 72:1 96:1 111:1 124:1 143:1 155:1 170:1 184:1 208:1 221:1 232:1 320:1 415:1 476:1 527:1 603:1 650:1 712:1 768:1 861:1 
0.10000000000000001 1:1 6:1 12:1 16:1 19:1 24:1 27:1 31:1 34:1 40:1 44:1 47:1 50:1 72:1 96:1 111:1 124:1 143:1 155:1 170:1 184:1 208:1 223:1 232:1 320:1 415:1 476:1 527:1 603:1 650:1 712:1 768:1 863:1 
0.047592409892371394 1:1 7:1 9:1 16:1 19:1 24:1 27:1 31:1 34:1 40:1 41:1 45:1 51:1 73:1 84:1 111:1 124:1 143:1 155:1 170:1 184:1 205:1 209:1 233:1 324:1 367:1 476:1 527:1 603:1 650:1 712:1 765:1 849:1 
-0.10000000000000001 1:1 7:1 9:1 16:1 19:1 24:1 27:1 31:1 34:1 40:1 41:1 48:1 51:1 73:1 84:1 111:1 124:1 143:1 155:1 170:1 184:1 205:1 212:1 233:1 324:1 367:1 476:1 527:1 603:1 650:1 712:1 765:1 852:1 
-0.09101554481074392 1:1 7:1 9:1 16:1 19:1 24:1 27:1 31:1 34:1 40:1 44:1 46:1 51:1 73:1 84:1 111:1 124:1 143:1 155:1 170:1 184:1 208:1 222:1 233:1 324:1 367:1 476:1 527:1 603:1 650:1 712:1 768:1 862:1 
0.065371090743517324 1:1 7:1 9:1 16:1 19:1 24:1 27:1 31:1 34:1 40:1 44:1 48:1 51:1 73:1 84:1 111:1 124:1 143:1 155:1 170:1 184:1 208:1 224:1 233:1 324:1 367:1 476:1 527:1 603:1 650:1 712:1 768:1 864:1 
-0.10000000000000001 1:1 7:1 10:1 16:1 19:1 24:1 27:1 31:1 34:1 40:1 41:1 45:1 51:1 74:1 88:1 111:1 124:1 143:1 155:1 170:1 184:1 205:1 209:1 234:1 328:1 383:1 476:1 527:1 603:1 650:1 712:1 765:1 849:1 
0.10000000000000001 1:1 7:1 10:1 16:1 19:1 24:1 27:1 31:1 34:1 40:1 41:1 46:1 51:1 74:1 88:1 111:1 124:1 143:1 155:1 170:1 184:1 205:1 210:1 234:1 328:1 383:1 476:1 527:1 603:1 650:1 712:1 765:1 850:1 
0.10000000000000001 1:1 7:1 10:1 16:1 19:1 24:1 27:1 31:1 34:1 40:1 41:1 48:1 51:1 74:1 88:1 111:1 124:1 143:1 155:1 170:1 184:1 205:1 212:1 234:1 328:1 383:1 476:1 527:1 603:1 650:1 712:1 765:1 852:1 
-0.055802320369191666 1:1 7:1 10:1 16:1 19:1 24:1 27:1 31:1 34:1 40:1 44:1 46:1 51:1 74:1 88:1 111:1 124:1 143:1 155:1 170:1 184:1 208:1 222:1 234:1 328:1 383:1 476:1 527:1 603:1 650:1 712:1 768:1 862:1 
-0.10000000000000001 1:1 7:1 10:1 16:1 19:1 24:1 27:1 31:1 34:1 40:1 44:1 47:1 51:1 74:1 88:1 111:1 124:1 143:1 155:1 170:1 184:1 208:1 223:1 234:1 328:1 383:1 476:1 527:1 603:1 650:1 712:1 768:1 863:1 
0.10000000000000001 1:1 7:1 10:1 16:1 19:1 24:1 27:1 31:1 34:1 40:1 44:1 48:1 51:1 74:1 88:1 111:1 124:1 143:1 155:1 170:1 184:1 208:1 224:1 234:1 328:1 383:1 476:1 527:1 603:1 650:1 712:1 768:1 864:1 
0.10000000000000001 1:1 7:1 12:1 16:1 19:1 24:1 27:1 31:1 34:1 37:1 41:1 45:1 51:1 76:1 96:1 111:1 124:1 143:1 155:1 170:1 181:1 193:1 209:1 236:1 336:1 415:1 476:1 527:1 603:1 650:1 709:1 753:1 801:1 
-0.10000000000000001 1:1 7:1 12:1 16:1 19:1 24:1 27:1 31:1 34:1 37:1 41:1 46:1 51:1 76:1 96:1 111:1 124:1 143:1 155:1 170:1 181:1 193:1 210:1 236:1 336:1 415:1 476:1 527:1 603:1 650:1 709:1 753:1 802:1 
0.10000000000000001 1:1 7:1 12:1 16:1 19:1 24:1 27:1 31:1 34:1 37:1 41:1 48:1 51:1 76:1 96:1 111:1 124:1 143:1 155:1 170:1 181:1 193:1 212:1 236:1 336:1 415:1 476:1 527:1 603:1 650:1 709:1 753:1 804:1 
-0.10000000000000001 1:1 7:1 12:1 16:1 19:1 24:1 27:1 31:1 34:1 37:1 42:1 48:1 51:1 76:1 96:1 111:1 124:1 143:1 155:1 170:1 181:1 194:1 216:1 236:1 336:1 415:1 476:1 527:1 603:1 650:1 709:1 754:1 808:1 
0.10000000000000001 1:1 7:1 12:1 16:1 19:1 24:1 27:1 31:1 34:1 37:1 43:1 45:1 51:1 76:1 96:1 111:1 124:1 143:1 155:1 170:1 181:1 195:1 217:1 236:1 336:1 415:1 476:1 527:1 603:1 650:1 709:1 755:1 809:1 
0.10000000000000001 1:1 7:1 12:1 16:1 19:1 24:1 27:1 31:1 34:1 37:1 43:1 46:1 51:1 76:1 96:1 111:1 124:1 143:1 155:1 170:1 181:1 195:1 218:1 236:1 336:1 415:1 476:1 527:1 603:1 650:1 709:1 755:1 810:1 
0.10000000000000001 1:1 7:1 12:1 16:1 19:1 24:1 27:1 31:1 34:1 37:1 43:1 47:1 51:1 76:1 96:1 111:1 124:1 143:1 155:1 170:1 181:1 195:1 219:1 236:1 336:1 415:1 476:1 527:1 603:1 650:1 709:1 755:1 811:1 
0.10000000000000001 1:1 7:1 12:1 16:1 19:1 24:1 27:1 31:1 34:1 38:1 41:1 45:1 51:1 76:1 96:1 111:1 124:1 143:1 155:1 170:1 182:1 197:1 209:1 236:1 336:1 415:1 476:1 527:1 603:1 650:1 710:1 757:1 817:1 
0.10000000000000001 1:1 7:1 12:1 16:1 19:1 24:1 27:1 31:1 34:1 38:1 41:1 46:1 51:1 76:1 96:1 111:1 124:1 143:1 155:1 170:1 182:1 197:1 210:1 236:1 336:1 415:1 476:1 527:1 603:1 650:1 710:1 757:1 818:1 
-0.10000000000000001 1:1 7:1 12:1 16:1 19:1 24:1 27:1 31:1 34:1 38:1 41:1 47:1 51:1 76:1 96:1 111:1 124:1 143:1 155:1 170:1 182:1 197:1 211:1 236:1 336:1 415:1 476:1 527:1 603:1 650:1 710:1 757:1 819:1 
-0.083817879747626778 1:1 7:1 12:1 16:1 19:1 24:1 27:1 31:1 34:1 38:1 44:1 45:1 51:1 76:1 96:1 111:1 124:1 143:1 155:1 170:1 182:1 200:1 221:1 236:1 336:1 415:1 476:1 527:1 603:1 650:1 710:1 760:1 829:1 
0.10000000000000001 1:1 7:1 12:1 16:1 19:1 24:1 27:1 31:1 34:1 38:1 44:1 47:1 51:1 76:1 96:1 111:1 124:1 143:1 155:1 170:1 182:1 200:1 223:1 236:1 336:1 415:1 476:1 527:1 603:1 650:1 710:1 760:1 831:1 
0.10000000000000001 1:1 7:1 12:1 16:1 19:1 24:1 27:1 31:1 34:1 40:1 41:1 45:1 51:1 76:1 96:1 111:1 124:1 143:1 155:1 170:1 184:1 205:1 209:1 236:1 336:1 415:1 476:1 527:1 603:1 650:1 712:1 765:1 849:1 
0.10000000000000001 1:1 7:1 12:1 16:1 19:1 24:1 27:1 31:1 34:1 40:1 41:1 46:1 51:1 76:1 96:1 111:1 124:1 143:1 155:1 170:1 184:1 205:1 210:1 236:1 336:1 415:1 476:1 527:1 603:1 650:1 712:1 765:1 850:1 
-0.10000000000000001 1:1 7:1 12:1 16:1 19:1 24:1 27:1 31:1 34:1 40:1 41:1 48:1 51:1 76:1 96:1 111:1 124:1 143:1 155:1 170:1 184:1 205:1 212:1 236:1 336:1 415:1 476:1 527:1 603:1 650:1 712:1 765:1 852:1 
-0.028249610562010929 1:1 7:1 12:1 16:1 19:1 24:1 27:1 31:1 34:1 40:1 42:1 46:1 51:1 76:1 96:1 111:1 124:1 143:1 155:1 170:1 184:1 206:1 214:1 236:1 336:1 415:1 476:1 527:1 603:1 650:1 712:1 766:1 854:1 
-0.10000000000000001 1:1 7:1 12:1 16:1 19:1 24:1 27:1 31:1 34:1 40:1 42:1 47:1 51:1 76:1 96:1 111:1 124:1 143:1 155:1 170:1 184:1 206:1 215:1 236:1 336:1 415:1 476:1 527:1 603:1 650:1 712:1 766:1 855:1 
-0.10000000000000001 1:1 7:1 12:1 16:1 19:1 24:1 27:1 31:1 34:1 40:1 43:1 45:1 51:1 76:1 96:1 111:1 124:1 143:1 155:1 170:1 184:1 207:1 217:1 236:1 336:1 415:1 476:1 527:1 603:1 650:1 712:1 767:1 857:1 
-0.10000000000000001 1:1 7:1 12:1 16:1 19:1 24:1 27:1 31:1 34:1 40:1 43:1 46:1 51:1 76:1 96:1 111:1 124:1 143:1 155:1 170:1 184:1 207:1 218:1 236:1 336:1 415:1 476:1 527:1 603:1 650:1 712:1 767:1 858:1 
-0.060219233219058352 1:1 7:1 12:1 16:1 19:1 24:1 27:1 31:1 34:1 40:1 43:1 48:1 51:1 76:1 96:1 111:1 124:1 143:1 155:1 170:1 184:1 207:1 220:1 236:1 336:1 415:1 476:1 527:1 603:1 650:1 712:1 767:1 860:1 
-0.10000000000000001 1:1 7:1 12:1 16:1 19:1 24:1 27:1 31:1 34:1 40:1 44:1 45:1 51:1 76:1 96:1 111:1 124:1 143:1 155:1 170:1 184:1 208:1 221:1 236:1 336:1 415:1 476:1 527:1 603:1 650:1 712:1 768:1 861:1 
0.10000000000000001 1:1 7:1 12:1 16:1 19:1 24:1 27:1 31:1 34:1 40:1 44:1 46:1 51:1 76:1 96:1 111:1 124:1 143:1 155:1 170:1 184:1 208:1 222:1 236:1 336:1 415:1 476:1 527:1 603:1 650:1 712:1 768:1 862:1 
-0.10000000000000001 1:1 7:1 12:1 16:1 19:1 24:1 27:1 31:1 34:1 40:1 44:1 47:1 51:1 76:1 96:1 111:1 124:1 143:1 155:1 170:1 184:1 208:1 223:1 236:1 336:1 415:1 476:1 527:1 603:1 650:1 712:1 768:1 863:1 
-0.10000000000000001 1:1 8:1 9:1 16:1 19:1 24:1 27:1 31:1 34:1 40:1 41:1 47:1 52:1 77:1 84:1 111:1 124:1 143:1 155:1 170:1 184:1 205:1 211:1 237:1 340:1 367:1 476:1 527:1 603:1 650:1 712:1 765:1 851:1 
-0.10000000000000001 1:1 8:1 9:1 16:1 19:1 24:1 27:1 31:1 34:1 40:1 41:1 48:1 52:1 77:1 84:1 111:1 124:1 143:1 155:1 170:1 184:1 205:1 212:1 237:1 340:1 367:1 476:1 527:1 603:1 650:1 712:1 765:1 852:1 
-0.010423423295857406 1:1 8:1 9:1 16:1 19:1 24:1 27:1 31:1 34:1 40:1 44:1 45:1 52:1 77:1 84:1 111:1 124:1 143:1 155:1 170:1 184:1 208:1 221:1 237:1 340:1 367:1 476:1 527:1 603:1 650:1 712:1 768:1 861:1 
0.10000000000000001 1:1 8:1 9:1 16:1 19:1 24:1 27:1 31:1 34:1 40:1 44:1 46:1 52:1 77:1 84:1 111:1 124:1 143:1 155:1 170:1 184:1 208:1 222:1 237:1 340:1 367:1 476:1 527:1 603:1 650:1 712:1 768:1 862:1 
0.10000000000000001 1:1 8:1 9:1 16:1 19:1 24:1 27:1 31:1 34:1 40:1 44:1 48:1 52:1 77:1 84:1 111:1 124:1 143:1 155:1 170:1 184:1 208:1 224:1 237:1 340:1 367:1 476:1 527:1 603:1 650:1 712:1 768:1 864:1 
0.10000000000000001 1:1 8:1 10:1 16:1 19:1 24:1 27:1 31:1 34:1 40:1 41:1 47:1 52:1 78:1 88:1 111:1 124:1 143:1 155:1 170:1 184:1 205:1 211:1 238:1 344:1 383:1 476:1 527:1 603:1 650:1 712:1 765:1 851:1 
-0.10000000000000001 1:1 8:1 10:1 16:1 19:1 24:1 27:1 31:1 34:1 40:1 41:1 48:1 52:1 78:1 88:1 111:1 124:1 143:1 155:1 170:1 184:1 205:1 212:1 238:1 344:1 383:1 476:1 527:1 603:1 650:1 712:1 765:1 852:1 
-0.10000000000000001 1:1 8:1 10:1 16:1 19:1 24:1 27:1 31:1 34:1 40:1 44:1 45:1 52:1 78:1 88:1 111:1 124:1 143:1 155:1 170:1 184:1 208:1 221:1 238:1 344:1 383:1 476:1 527:1 603:1 650:1 712:1 768:1 861:1 
0.065020620986014979 1:1 8:1 10:1 16:1 19:1 24:1 27:1 31:1 34:1 40:1 44:1 48:1 52:1 78:1 88:1 111:1 124:1 143:1 155:1 170:1 184:1 208:1 224:1 238:1 344:1 383:1 476:1 527:1 603:1 650:1 712:1 768:1 864:1 
-0.10000000000000001 1:1 8:1 12:1 16:1 19:1 24:1 27:1 31:1 34:1 37:1 41:1 45:1 52:1 80:1 96:1 111:1 124:1 143:1 155:1 170:1 181:1 193:1 209:1 240:1 352:1 415:1 476:1 527:1 603:1 650:1 709:1 753:1 801:1 
0.082180982529753782 1:1 8:1 12:1 16:1 19:1 24:1 27:1 31:1 34:1 37:1 41:1 46:1 52:1 80:1 96:1 111:1 124:1 143:1 155:1 170:1 181:1 193:1 210:1 240:1 352:1 415:1 476:1 527:1 603:1 650:1 709:1 753:1 802:1 
0.10000000000000001 1:1 8:1 12:1 16:1 19:1 24:1 27:1 31:1 34:1 37:1 41:1 47:1 52:1 80:1 96:1 111:1 124:1 143:1 155:1 170:1 181:1 193:1 211:1 240:1 352:1 415:1 476:1 527:1 603:1 650:1 709:1 753:1 803:1 
-0.10000000000000001 1:1 8:1 12:1 16:1 19:1 24:1 27:1 31:1 34:1 37:1 42:1 48:1 52:1 80:1 96:1 111:1 124:1 143:1 155:1 170:1 181:1 194:1 216:1 240:1 352:1 415:1 476:1 527:1 603:1 650:1 709:1 754:1 808:1 
0.10000000000000001 1:1 8:1 12:1 16:1 19:1 24:1 27:1 31:1 34:1 37:1 43:1 45:1 52:1 80:1 96:1 111:1 124:1 143:1 155:1 170:1 181:1 195:1 217:1 240:1 352:1 415:1 476:1 527:1 603:1 650:1 709:1 755:1 809:1 
0.10000000000000001 1:1 8:1 12:1 16:1 19:1 24:1 27:1 31:1 34:1 37:1 43:1 48:1 52:1 80:1 96:1 111:1 124:1 143:1 155:1 170:1 181:1 195:1 220:1 240:1 352:1 415:1 476:1 527:1 603:1 650:1 709:1 755:1 812:1 
-0.092568757483299832 1:1 8:1 12:1 16:1 19:1 24:1 27:1 31:1 34:1 37:1 44:1 48:1 52:1 80:1 96:1 111:1 124:1 143:1 155:1 170:1 181:1 196:1 224:1 240:1 352:1 415:1 476:1 527:1 603:1 650:1 709:1 756:1 816:1 
-0.10000000000000001 1:1 8:1 12:1 16:1 19:1 24:1 27:1 31:1 34:1 38:1 41:1 46:1 52:1 80:1 96:1 111:1 124:1 143:1 155:1 170:1 182:1 197:1 210:1 240:1 352:1 415:1 476:1 527:1 603:1 650:1 710:1 757:1 818:1 
0.10000000000000001 1:1 8:1 12:1 16:1 19:1 24:1 27:1 31:1 34:1 38:1 41:1 48:1 52:1 80:1 96:1 111:1 124:1 143:1 155:1 170:1 182:1 197:1 212:1 240:1 352:1 415:1 476:1 527:1 603:1 650:1 710:1 757:1 820:1 
0.038762673198494656 1:1 8:1 12:1 16:1 19:1 24:1 27:1 31:1 34:1 38:1 42:1 45:1 52:1 80:1 96:1 111:1 124:1 143:1 155:1 170:1 182:1 198:1 213:1 240:1 352:1 415:1 476:1 527:1 603:1 650:1 710:1 758:1 821:1 
-0.0045114410827958792 1:1 8:1 12:1 16:1 19:1 24:1 27:1 31:1 34:1 38:1 42:1 46:1 52:1 80:1 96:1 111:1 124:1 143:1 155:1 170:1 182:1 198:1 214:1 240:1 352:1 415:1 476:1 527:1 603:1 650:1 710:1 758:1 822:1 
-0.10000000000000001 1:1 8:1 12:1 16:1 19:1 24:1 27:1 31:1 34:1 38:1 42:1 48:1 52:1 80:1 96:1 111:1 124:1 143:1 155:1 170:1 182:1 198:1 216:1 240:1 352:1 415:1 476:1 527:1 603:1 650:1 710:1 758:1 824:1 
-0.00020534610443755674 1:1 8:1 12:1 16:1 19:1 24:1 27:1 31:1 34:1 38:1 44:1 47:1 52:1 80:1 96:1 111:1 124:1 143:1 155:1 170:1 182:1 200:1 223:1 240:1 352:1 415:1 476:1 527:1 603:1 650:1 710:1 760:1 831:1 
0.10000000000000001 1:1 8:1 12:1 16:1 19:1 24:1 27:1 31:1 34:1 38:1 44:1 48:1 52:1 80:1 96:1 111:1 124:1 143:1 155:1 170:1 182:1 200:1 224:1 240:1 352:1 415:1 476:1 527:1 603:1 650:1 710:1 760:1 832:1 
-0.10000000000000001 1:1 8:1 12:1 16:1 19:1 24:1 27:1 31:1 34:1 40:1 41:1 46:1 52:1 80:1 96:1 111:1 124:1 143:1 155:1 170:1 184:1 205:1 210:1 240:1 352:1 415:1 476:1 527:1 603:1 650:1 712:1 765:1 850:1 
0.10000000000000001 1:1 8:1 12:1 16:1 19:1 24:1 27:1 31:1 34:1 40:1 41:1 47:1 52:1 80:1 96:1 111:1 124:1 143:1 155:1 170:1 184:1 205:1 211:1 240:1 352:1 415:1 476:1 527:1 603:1 650:1 712:1 765:1 851:1 
-0.10000000000000001 1:1 8:1 12:1 16:1 19:1 24:1 27:1 31:1 34:1 40:1 42:1 45:1 52:1 80:1 96:1 111:1 124:1 143:1 155:1 170:1 184:1 206:1 213:1 240:1 352:1 415:1 476:1 527:1 603:1 650:1 712:1 766:1 853:1 
0.10000000000000001 1:1 8:1 12:1 16:1 19:1 24:1 27:1 31:1 34:1 40:1 42:1 47:1 52:1 80:1 96:1 111:1 124:1 143:1 155:1 170:1 184:1 206:1 215:1 240:1 352:1 415:1 476:1 527:1 603:1 650:1 712:1 766:1 855:1 
-0.10000000000000001 1:1 8:1 12:1 16:1 19:1 24:1 27:1 31:1 34:1 40:1 43:1 47:1 52:1 80:1 96:1 111:1 124:1 143:1 155:1 170:1 184:1 207:1 219:1 240:1 352:1 415:1 476:1 527:1 603:1 650:1 712:1 767:1 859:1 
-0.10000000000000001 1:1 8:1 12:1 16:1 19:1 24:1 27:1 31:1 34:1 40:1 43:1 48:1 52:1 80:1 96:1 111:1 124:1 143:1 155:1 170:1 184:1 207:1 220:1 240:1 352:1 415:1 476:1 527:1 603:1 650:1 712:1 767:1 860:1 
0.10000000000000001 1:1 8:1 12:1 16:1 19:1 24:1 27:1 31:1 34:1 40:1 44:1 45:1 52:1 80:1 96:1 111:1 124:1 143:1 155:1 170:1 184:1 208:1 221:1 240:1 352:1 415:1 476:1 527:1 603:1 650:1 712:1 768:1 861:1 
-0.10000000000000001 1:1 8:1 12:1 16:1 19:1 24:1 27:1 31:1 34:1 40:1 44:1 47:1 52:1 80:1 96:1 111:1 124:1 143:1 155:1 170:1 184:1 208:1 223:1 240:1 352:1 415:1 476:1 527:1 603:1 650:1 712:1 768:1 863:1 
0.10000000000000001 1:1 8:1 12:1 16:1 19:1 24:1 27:1 31:1 34:1 40:1 44:1 48:1 52:1 80:1 96:1 111:1 124:1 143:1 155:1 170:1 184:1 208:1 224:1 240:1 352:1 415:1 476:1 527:1 603:1 650:1 712:1 768:1 864:1 
-0.10000000000000001 2:1 5:1 9:1 16:1 19:1 24:1 27:1 31:1 34:1 40:1 41:1 45:1 53:1 65:1 84:1 111:1 124:1 143:1 155:1 170:1 184:1 205:1 209:1 241:1 292:1 367:1 476:1 527:1 603:1 650:1 712:1 765:1 849:1 
-0.002261702955451219 2:1 5:1 9:1 16:1 19:1 24:1 27:1 31:1 34:1 40:1 41:1 47:1 53:1 65:1 84:1 111:1 124:1 143:1 155:1 170:1 184:1 205:1 211:1 241:1 292:1 367:1 476:1 527:1 603:1 650:1 712:1 765:1 851:1 
-0.10000000000000001 2:1 5:1 9:1 16:1 19:1 24:1 27:1 31:1 34:1 40:1 41:1 48:1 53:1 65:1 84:1 111:1 124:1 143:1 155:1 170:1 184:1 205:1 212:1 241:1 292:1 367:1 476:1 527:1 603:1 650:1 712:1 765:1 852:1 
0.10000000000000001 2:1 5:1 9:1 16:1 19:1 24:1 27:1 31:1 34:1 40:1 44:1 47:1 53:1 65:1 84:1 111:1 124:1 143:1 155:1 170:1 184:1 208:1 223:1 241:1 292:1 367:1 476:1 527:1 603:1 650:1 712:1 768:1 863:1 
0.10000000000000001 2:1 5:1 9:1 16:1 19:1 24:1 27:1 31:1 34:1 40:1 44:1 48:1 53:1 65:1 84:1 111:1 124:1 143:1 155:1 170:1 184:1 208:1 224:1 241:1 292:1 367:1 476:1 527:1 603:1 650:1 712:1 768:1 864:1 
-0.10000000000000001 2:1 5:1 10:1 16:1 19:1 24:1 27:1 31:1 34:1 40:1 41:1 45:1 53:1 66:1 88:1 111:1 124:1 143:1 155:1 170:1 184:1 205:1 209:1 242:1 296:1 383:1 476:1 527:1 603:1 650:1 712:1 765:1 849:1 
0.10000000000000001 2:1 5:1 10:1 16:1 19:1 24:1 27:1 31:1 34:1 40:1 41:1 46:1 53:1 66:1 88:1 111:1 124:1 143:1 155:1 170:1 184:1 205:1 210:1 242:1 296:1 383:1 476:1 527:1 603:1 650:1 712:1 765:1 850:1 
-0.026338684916573006 2:1 5:1 12:1 16:1 19:1 24:1 27:1 31:1 34:1 37:1 41:1 45:1 53:1 68:1 96:1 111:1 124:1 143:1 155:1 170:1 181:1 193:1 209:1 244:1 304:1 415:1 476:1 527:1 603:1 650:1 709:1 753:1 801:1 
0.10000000000000001 2:1 5:1 12:1 16:1 19:1 24:1 27:1 31:1 34:1 37:1 41:1 47:1 53:1 68:1 96:1 111:1 124:1 143:1 155:1 170:1 181:1 193:1 211:1 244:1 304:1 415:1 476:1 527:1 603:1 650:1 709:1 753:1 803:1 
0.10000000000000001 2:1 5:1 12:1 16:1 19:1 24:1 27:1 31:1 34:1 37:1 42:1 46:1 53:1 68:1 96:1 111:1 124:1 143:1 155:1 170:1 181:1 194:1 214:1 244:1 304:1 415:1 476:1 527:1 603:1 650:1 709:1 754:1 806:1 
-0.10000000000000001 2:1 5:1 12:1 16:1 19:1 24:1 27:1 31:1 34:1 37:1 42:1 48:1 53:1 68:1 96:1 111:1 124:1 143:1 155:1 170:1 181:1 194:1 216:1 244:1 304:1 415:1 476:1 527:1 603:1 650:1 709:1 754:1 808:1 
0.10000000000000001 2:1 5:1 12:1 16:1 19:1 24:1 27:1 31:1 34:1 37:1 43:1 45:1 53:1 68:1 96:1 111:1 124:1 143:1 155:1 170:1 181:1 195:1 217:1 244:1 304:1 415:1 476:1 527:1 603:1 650:1 709:1 755:1 809:1 
0.073377380240311166 2:1 5:1 12:1 16:1 19:1 24:1 27:1 31:1 34:1 37:1 43:1 46:1 53:1 68:1 96:1 111:1 124:1 143:1 155:1 170:1 181:1 195:1 218:1 244:1 304:1 415:1 476:1 527:1 603:1 650:1 709:1 755:1 810:1 
0.10000000000000001 2:1 5:1 12:1 16:1 19:1 24:1 27:1 31:1 34:1 37:1 43:1 48:1 53:1 68:1 96:1 111:1 124:1 143:1 155:1 170:1 181:1 195:1 220:1 244:1 304:1 415:1 476:1 527:1 603:1 650:1 709:1 755:1 812:1 
0.10000000000000001 2:1 5:1 12:1 16:1 19:1 24:1 27:1 31:1 34:1 37:1 44:1 46:1 53:1 68:1 96:1 111:1 124:1 143:1 155:1 170:1 181:1 196:1 222:1 244:1 304:1 415:1 476:1 527:1 603:1 650:1 709:1 756:1 814:1 
0.030499649364045096 2:1 5:1 12:1 16:1 19:1 24:1 27:1 31:1 34:1 38:1 41:1 48:1 53:1 68:1 96:1 111:1 124:1 143:1 155:1 170:1 182:1 197:1 212:1 244:1 304:1 415:1 476:1 527:1 603:1 650:1 710:1 757:1 820:1 
0.037013373868695201 2:1 5:1 12:1 16:1 19:1 24:1 27:1 31:1 34:1 38:1 43:1 47:1 53:1 68:1 96:1 111:1 124:1 143:1 155:1 170:1 182:1 199:1 219:1 244:1 304:1 415:1 476:1 527:1 603:1 650:1 710:1 759:1 827:1 
-0.080948925887869033 2:1 5:1 12:1 16:1 19:1 24:1 27:1 31:1 34:1 38:1 43:1 48:1 53:1 68:1 96:1 111:1 124:1 143:1 155:1 170:1 182:1 199:1 220:1 244:1 304:1 415:1 476:1 527:1 603:1 650:1 710:1 759:1 828:1 
0.10000000000000001 2:1 5:1 12:1 16:1 19:1 24:1 27:1 31:1 34:1 38:1 44:1 45:1 53:1 68:1 96:1 111:1 124:1 143:1 155:1 170:1 182:1 200:1 221:1 244:1 304:1 415:1 476:1 527:1 603:1 650:1 710:1 760:1 829:1 
-0.10000000000000001 2:1 5:1 12:1 16:1 19:1 24:1 27:1 31:1 34:1 40:1 41:1 46:1 53:1 68:1 96:1 111:1 124:1 143:1 155:1 170:1 184:1 205:1 210:1 244:1 304:1 415:1 476:1 527:1 603:1 650:1 712:1 765:1 850:1 
-0.10000000000000001 2:1 5:1 12:1 16:1 19:1 24:1 27:1 31:1 34:1 40:1 41:1 48:1 53:1 68:1 96:1 111:1 124:1 143:1 155:1 170:1 184:1 205:1 212:1 244:1 304:1 415:1 476:1 527:1 603:1 650:1 712:1 765:1 852:1 
-0.10000000000000001 2:1 5:1 12:1 16:1 19:1 24:1 27:1 31:1 34:1 40:1 42:1 45:1 53:1 68:1 96:1 111:1 124:1 143:1 155:1 170:1 184:1 206:1 213:1 244:1 304:1 415:1 476:1 527:1 603:1 650:1 712:1 766:1 853:1 
0.10000000000000001 2:1 5:1 12:1 16:1 19:1 24:1 27:1 31:1 34:1 40:1 42:1 48:1 53:1 68:1 96:1 111:1 124:1 143:1 155:1 170:1 184:1 206:1 216:1 244:1 304:1 415:1 476:1 527:1 603:1 650:1 712:1 766:1 856:1 
-0.035177250830892202 2:1 5:1 12:1 16:1 19:1 24:1 27:1 31:1 34:1 40:1 43:1 45:1 53:1 68:1 96:1 111:1 124:1 143:1 155:1 170:1 184:1 207:1 217:1 244:1 304:1 415:1 476:1 527:1 603:1 650:1 712:1 767:1 857:1 
-0.10000000000000001 2:1 5:1 12:1 16:1 19:1 24:1 27:1 31:1 34:1 40:1 43:1 47:1 53:1 68:1 96:1 111:1 124:1 143:1 155:1 170:1 184:1 207:1 219:1 244:1 304:1 415:1 476:1 527:1 603:1 650:1 712:1 767:1 859:1 
-0.10000000000000001 2:1 5:1 12:1 16:1 19:1 24:1 27:1 31:1 34:1 40:1 43:1 48:1 53:1 68:1 96:1 111:1 124:1 143:1 155:1 170:1 184:1 207:1 220:1 244:1 304:1 415:1 476:1 527:1 603:1 650:1 712:1 767:1 860:1 
-0.10000000000000001 2:1 5:1 12:1 16:1 19:1 24:1 27:1 31:1 34:1 40:1 44:1 45:1 53:1 68:1 96:1 111:1 124:1 143:1 155:1 170:1 184:1 208:1 221:1 244:1 304:1 415:1 476:1 527:1 603:1 650:1 712:1 768:1 861:1 
-0.10000000000000001 2:1 6:1 9:1 16:1 19:1 24:1 27:1 31:1 34:1 40:1 41:1 46:1 54:1 69:1 84:1 111:1 124:1 143:1 155:1 170:1 184:1 205:1 210:1 245:1 308:1 367:1 476:1 527:1 603:1 650:1 712:1 765:1 850:1 
0.10000000000000001 2:1 6:1 9:1 16:1 19:1 24:1 27:1 31:1 34:1 40:1 41:1 48:1 54:1 69:1 84:1 111:1 124:1 143:1 155:1 170:1 184:1 205:1 212:1 245:1 308:1 367:1 476:1 527:1 603:1 650:1 712:1 765:1 852:1 
-0.10000000000000001 2:1 6:1 9:1 16:1 19:1 24:1 27:1 31:1 34:1 40:1 44:1 45:1 54:1 69:1 84:1 111:1 124:1 143:1 155:1 170:1 184:1 208:1 221:1 245:1 308:1 367:1 476:1 527:1 603:1 650:1 712:1 768:1 861:1 
0.10000000000000001 2:1 6:1 9:1 16:1 19:1 24:1 27:1 31:1 34:1 40:1 44:1 46:1 54:1 69:1 84:1 111:1 124:1 143:1 155:1 170:1 184:1 208:1 222:1 245:1 308:1 367:1 476:1 527:1 603:1 650:1 712:1 768:1 862:1 
-0.098481867346278021 2:1 6:1 9:1 16:1 19:1 24:1 27:1 31:1 34:1 40:1 44:1 48:1 54:1 69:1 84:1 111:1 124:1 143:1 155:1 170:1 184:1 208:1 224:1 245:1 308:1 367:1 476:1 527:1 603:1 650:1 712:1 768:1 864:1 
0.10000000000000001 2:1 6:1 10:1 16:1 19:1 24:1 27:1 31:1 34:1 40:1 41:1 48:1 54:1 70:1 88:1 111:1 124:1 143:1 155:1 170:1 184:1 205:1 212:1 246:1 312:1 383:1 476:1 527:1 603:1 650:1 712:1 765:1 852:1 
0.051980619871271685 2:1 6:1 10:1 16:1 19:1 24:1 27:1 31:1 34:1 40:1 44:1 45:1 54:1 70:1 88:1 111:1 124:1 143:1 155:1 170:1 184:1 208:1 221:1 246:1 312:1 383:1 476:1 527:1 603:1 650:1 712:1 768:1 861:1 
-0.10000000000000001 2:1 6:1 10:1 16:1 19:1 24:1 27:1 31:1 34:1 40:1 44:1 46:1 54:1 70:1 88:1 111:1 124:1 143:1 155:1 170:1 184:1 208:1 222:1 246:1 312:1 383:1 476:1 527:1 603:1 650:1 712:1 768:1 862:1 
0.10000000000000001 2:1 6:1 12:1 16:1 19:1 24:1 27:1 31:1 34:1 37:1 41:1 45:1 54:1 72:1 96:1 111:1 124:1 143:1 155:1 170:1 181:1 193:1 209:1 248:1 320:1 415:1 476:1 527:1 603:1 650:1 709:1 753:1 801:1 
-0.10000000000000001 2:1 6:1 12:1 16:1 19:1 24:1 27:1 31:1 34:1 37:1 41:1 47:1 54:1 72:1 96:1 111:1 124:1 143:1 155:1 170:1 181:1 193:1 211:1 248:1 320:1 415:1 476:1 527:1 603:1 650:1 709:1 753:1 803:1 
-0.10000000000000001 2:1 6:1 12:1 16:1 19:1 24:1 27:1 31:1 34:1 37:1 41:1 48:1 54:1 72:1 96:1 111:1 124:1 143:1 155:1 170:1 181:1 193:1 212:1 248:1 320:1 415:1 476:1 527:1 603:1 650:1 709:1 753:1 804:1 
0.10000000000000001 2:1 6:1 12:1 16:1 19:1 24:1 27:1 31:1 34:1 37:1 42:1 48:1 54:1 72:1 96:1 111:1 124:1 143:1 155:1 170:1 181:1 194:1 216:1 248:1 320:1 415:1 476:1 527:1 603:1 650:1 709:1 754:1 808:1 
-0.016562875703585788 2:1 6:1 12:1 16:1 19:1 24:1 27:1 31:1 34:1 37:1 43:1 47:1 54:1 72:1 96:1 111:1 124:1 143:1 155:1 170:1 181:1 195:1 219:1 248:1 320:1 415:1 476:1 527:1 603:1 650:1 709:1 755:1 811:1 
0.10000000000000001 2:1 6:1 12:1 16:1 19:1 24:1 27:1 31:1 34:1 37:1 44:1 46:1 54:1 72:1 96:1 111:1 124:1 143:1 155:1 170:1 181:1 196:1 222:1 248:1 320:1 415:1 476:1 527:1 603:1 650:1 709:1 756:1 814:1 
-0.10000000000000001 2:1 6:1 12:1 16:1 19:1 24:1 27:1 31:1 34:1 37:1 44:1 48:1 54:1 72:1 96:1 111:1 124:1 143:1 155:1 170:1 181:1 196:1 224:1 248:1 320:1 415:1 476:1 527:1 603:1 650:1 709:1 756:1 816:1 
-0.10000000000000001 2:1 6:1 12:1 16:1 19:1 24:1 27:1 31:1 34:1 38:1 41:1 45:1 54:1 72:1 96:1 111:1 124:1 143:1 155:1 170:1 182:1 197:1 209:1 248:1 320:1 415:1 476:1 527:1 603:1 650:1 710:1 757:1 817:1 
-0.10000000000000001 2:1 6:1 12:1 16:1 19:1 24:1 27:1 31:1 34:1 38:1 42:1 45:1 54:1 72:1 96:1 111:1 124:1 143:1 155:1 170:1 182:1 198:1 213:1 248:1 320:1 415:1 476:1 527:1 603:1 650:1 710:1 758:1 821:1 
-0.10000000000000001 2:1 6:1 12:1 16:1 19:1 24:1 27:1 31:1 34:1 38:1 42:1 47:1 54:1 72:1 96:1 111:1 124:1 143:1 155:1 170:1 182:1 198:1 215:1 248:1 320:1 415:1 476:1 527:1 603:1 650:1 710:1 758:1 823:1 
-0.10000000000000001 2:1 6:1 12:1 16:1 19:1 24:1 27:1 31:1 34:1 38:1 42:1 48:1 54:1 72:1 96:1 111:1 124:1 143:1 155:1 170:1 182:1 198:1 216:1 248:1 320:1 415:1 476:1 527:1 603:1 650:1 710:1 758:1 824:1 
-0.0091866580372676684 2:1 6:1 12:1 16:1 19:1 24:1 27:1 31:1 34:1 38:1 43:1 45:1 54:1 72:1 96:1 111:1 124:1 143:1 155:1 170:1 182:1 199:1 217:1 248:1 320:1 415:1 476:1 527:1 603:1 650:1 710:1 759:1 825:1 
-0.10000000000000001 2:1 6:1 12:1 16:1 19:1 24:1 27:1 31:1 34:1 38:1 43:1 46:1 54:1 72:1 96:1 111:1 124:1 143:1 155:1 170:1 182:1 199:1 218:1 248:1 320:1 415:1 476:1 527:1 603:1 650:1 710:1 759:1 826:1 
0.10000000000000001 2:1 6:1 12:1 16:1 19:1 24:1 27:1 31:1 34:1 38:1 43:1 48:1 54:1 72:1 96:1 111:1 124:1 143:1 155:1 170:1 182:1 199:1 220:1 248:1 320:1 415:1 476:1 527:1 603:1 650:1 710:1 759:1 828:1 
0.10000000000000001 2:1 6:1 12:1 16:1 19:1 24:1 27:1 31:1 34:1 38:1 44:1 45:1 54:1 72:1 96:1 111:1 124:1 143:1 155:1 170:1 182:1 200:1 221:1 248:1 320:1 415:1 476:1 527:1 603:1 650:1 710:1 760:1 829:1 
0.10000000000000001 2:1 6:1 12:1 16:1 19:1 24:1 27:1 31:1 34:1 38:1 44:1 47:1 54:1 72:1 96:1 111:1 124:1 143:1 155:1 170:1 182:1 200:1 223:1 248:1 320:1 415:1 476:1 527:1 603:1 650:1 710:1 760:1 831:1 
-0.10000000000000001 2:1 6:1 12:1 16:1 19:1 24:1 27:1 31:1 34:1 40:1 41:1 46:1 54:1 72:1 96:1 111:1 124:1 143:1 155:1 170:1 184:1 205:1 210:1 248:1 320:1 415:1 476:1 527:1 603:1 650:1 712:1 765:1 850:1 
0.10000000000000001 2:1 6:1 12:1 16:1 19:1 24:1 27:1 31:1 34:1 40:1 41:1 47:1 54:1 72:1 96:1 111:1 124:1 143:1 155:1 170:1 184:1 205:1 211:1 248:1 320:1 415:1 476:1 527:1 603:1 650:1 712:1 765:1 851:1 
0.10000000000000001 2:1 6:1 12:1 16:1 19:1 24:1 27:1 31:1 34:1 40:1 41:1 48:1 54:1 72:1 96:1 111:1 124:1 143:1 155:1 170:1 184:1 205:1 212:1 248:1 320:1 415:1 476:1 527:1 603:1 650:1 712:1 765:1 852:1 
0.10000000000000001 2:1 6:1 12:1 16:1 19:1 24:1 27:1 31:1 34:1 40:1 42:1 46:1 54:1 72:1 96:1 111:1 124:1 143:1 155:1 170:1 184:1 206:1 214:1 248:1 320:1 415:1 476:1 527:1 603:1 650:1 712:1 766:1 854:1 
0.10000000000000001 2:1 6:1 12:1 16:1 19:1 24:1 27:1 31:1 34:1 40:1 43:1 46:1 54:1 72:1 96:1 111:1 124:1 143:1 155:1 170:1 184:1 207:1 218:1 248:1 320:1 415:1 476:1 527:1 603:1 650:1 712:1 767:1 858:1 
-0.039496270909369448 2:1 6:1 12:1 16:1 19:1 24:1 27:1 31:1 34:1 40:1 43:1 47:1 54:1 72:1 96:1 111:1 124:1 143:1 155:1 170:1 184:1 207:1 219:1 248:1 320:1 415:1 476:1 527:1 603:1 650:1 712:1 767:1 859:1 
-0.10000000000000001 2:1 6:1 12:1 16:1 19:1 24:1 27:1 31:1 34:1 40:1 43:1 48:1 54:1 72:1 96:1 111:1 124:1 143:1 155:1 170:1 184:1 207:1 220:1 248:1 320:1 415:1 476:1 527:1 603:1 650:1 712:1 767:1 860:1 
-0.10000000000000001 2:1 6:1 12:1 16:1 19:1 24:1 27:1 31:1 34:1 40:1 44:1 46:1 54:1 72:1 96:1 111:1 124:1 143:1 155:1 170:1 184:1 208:1 222:1 248:1 320:1 415:1 476:1 527:1 603:1 650:1 712:1 768:1 862:1 
0.10000000000000001 2:1 6:1 12:1 16:1 19:1 24:1 27:1 31:1 34:1 40:1 44:1 47:1 54:1 72:1 96:1 111:1 124:1 143:1 155:1 170:1 184:1 208:1 223:1 248:1 320:1 415:1 476:1 527:1 603:1 650:1 712:1 768:1 863:1 
0.077764377230616272 2:1 6:1 12:1 16:1 19:1 24:1 27:1 31:1 34:1 40:1 44:1 48:1 54:1 72:1 96:1 111:1 124:1 143:1 155:1 170:1 184:1 208:1 224:1 248:1 320:1 415:1 476:1 527:1 603:1 650:1 712:1 768:1 864:1 
0.10000000000000001 2:1 7:1 9:1 16:1 19:1 24:1 27:1 31:1 34:1 40:1 41:1 47:1 55:1 73:1 84:1 111:1 124:1 143:1 155:1 170:1 184:1 205:1 211:1 249:1 324:1 367:1 476:1 527:1 603:1 650:1 712:1 765:1 851:1 
-0.10000000000000001 2:1 7:1 10:1 16:1 19:1 24:1 27:1 31:1 34:1 40:1 41:1 47:1 55:1 74:1 88:1 111:1 124:1 143:1 155:1 170:1 184:1 205:1 211:1 250:1 328:1 383:1 476:1 527:1 603:1 650:1 712:1 765:1 851:1 
0.10000000000000001 2:1 7:1 10:1 16:1 19:1 24:1 27:1 31:1 34:1 40:1 44:1 45:1 55:1 74:1 88:1 111:1 124:1 143:1 155:1 170:1 184:1 208:1 221:1 250:1 328:1 383:1 476:1 527:1 603:1 650:1 712:1 768:1 861:1 
-0.10000000000000001 2:1 7:1 10:1 16:1 19:1 24:1 27:1 31:1 34:1 40:1 44:1 46:1 55:1 74:1 88:1 111:1 124:1 143:1 155:1 170:1 184:1 208:1 222:1 250:1 328:1 383:1 476:1 527:1 603:1 650:1 712:1 768:1 862:1 
0.02165957543273694 2:1 7:1 10:1 16:1 19:1 24:1 27:1 31:1 34:1 40:1 44:1 48:1 55:1 74:1 88:1 111:1 124:1 143:1 155:1 170:1 184:1 208:1 224:1 250:1 328:1 383:1 476:1 527:1 603:1 650:1 712:1 768:1 864:1 
-0.10000000000000001 2:1 7:1 12:1 16:1 19:1 24:1 27:1 31:1 34:1 37:1 41:1 47:1 55:1 76:1 96:1 111:1 124:1 143:1 155:1 170:1 181:1 193:1 211:1 252:1 336:1 415:1 476:1 527:1 603:1 650:1 709:1 753:1 803:1 
-0.092691579194363105 2:1 7:1 12:1 16:1 19:1 24:1 27:1 31:1 34:1 37:1 44:1 46:1 55:1 76:1 96:1 111:1 124:1 143:1 155:1 170:1 181:1 196:1 222:1 252:1 336:1 415:1 476:1 527:1 603:1 650:1 709:1 756:1 814:1 
0.10000000000000001 2:1 7:1 12:1 16:1 19:1 24:1 27:1 31:1 34:1 38:1 42:1 45:1 55:1 76:1 96:1 111:1 124:1 143:1 155:1 170:1 182:1 198:1 213:1 252:1 336:1 415:1 476:1 527:1 603:1 650:1 710:1 758:1 821:1 
0.10000000000000001 2:1 7:1 12:1 16:1 19:1 24:1 27:1 31:1 34:1 38:1 42:1 48:1 55:1 76:1 96:1 111:1 124:1 143:1 155:1 170:1 182:1 198:1 216:1 252:1 336:1 415:1 476:1 527:1 603:1 650:1 710:1 758:1 824:1 
0.10000000000000001 2:1 7:1 12:1 16:1 19:1 24:1 27:1 31:1 34:1 38:1 44:1 48:1 55:1 76:1 96:1 111:1 124:1 143:1 155:1 170:1 182:1 200:1 224:1 252:1 336:1 415:1 476:1 527:1 603:1 650:1 710:1 760:1 832:1 
-0.10000000000000001 2:1 7:1 12:1 16:1 19:1 24:1 27:1 31:1 34:1 40:1 41:1 45:1 55:1 76:1 96:1 111:1 124:1 143:1 155:1 170:1 184:1 205:1 209:1 252:1 336:1 415:1 476:1 527:1 603:1 650:1 712:1 765:1 849:1 
0.10000000000000001 2:1 7:1 12:1 16:1 19:1 24:1 27:1 31:1 34:1 40:1 41:1 46:1 55:1 76:1 96:1 111:1 124:1 143:1 155:1 170:1 184:1 205:1 210:1 252:1 336:1 415:1 476:1 527:1 603:1 650:1 712:1 765:1 850:1 
-0.10000000000000001 2:1 7:1 12:1 16:1 19:1 24:1 27:1 31:1 34:1 40:1 42:1 45:1 55:1 76:1 96:1 111:1 124:1 143:1 155:1 170:1 184:1 206:1 213:1 252:1 336:1 415:1 476:1 527:1 603:1 650:1 712:1 766:1 853:1 
-0.10000000000000001 2:1 7:1 12:1 16:1 19:1 24:1 27:1 31:1 34:1 40:1 43:1 48:1 55:1 76:1 96:1 111:1 124:1 143:1 155:1 170:1 184:1 207:1 220:1 252:1 336:1 415:1 476:1 527:1 603:1 650:1 712:1 767:1 860:1 
0.068137478988162248 2:1 7:1 12:1 16:1 19:1 24:1 27:1 31:1 34:1 40:1 44:1 48:1 55:1 76:1 96:1 111:1 124:1 143:1 155:1 170:1 184:1 208:1 224:1 252:1 336:1 415:1 476:1 527:1 603:1 650:1 712:1 768:1 864:1 
-0.10000000000000001 2:1 8:1 9:1 16:1 19:1 24:1 27:1 31:1 34:1 40:1 41:1 48:1 56:1 77:1 84:1 111:1 124:1 143:1 155:1 170:1 184:1 205:1 212:1 253:1 340:1 367:1 476:1 527:1 603:1 650:1 712:1 765:1 852:1 
0.083890752708369876 2:1 8:1 9:1 16:1 19:1 24:1 27:1 31:1 34:1 40:1 44:1 46:1 56:1 77:1 84:1 111:1 124:1 143:1 155:1 170:1 184:1 208:1 222:1 253:1 340:1 367:1 476:1 527:1 603:1 650:1 712:1 768:1 862:1 
0.10000000000000001 2:1 8:1 9:1 16:1 19:1 24:1 27:1 31:1 34:1 40:1 44:1 47:1 56:1 77:1 84:1 111:1 124:1 143:1 155:1 170:1 184:1 208:1 223:1 253:1 340:1 367:1 476:1 527:1 603:1 650:1 712:1 768:1 863:1 
-0.10000000000000001 2:1 8:1 9:1 16:1 19:1 24:1 27:1 31:1 34:1 40:1 44:1 48:1 56:1 77:1 84:1 111:1 124:1 143:1 155:1 170:1 184:1 208:1 224:1 253:1 340:1 367:1 476:1 527:1 603:1 650:1 712:1 768:1 864:1 
0.005459550120145186 2:1 8:1 10:1 16:1 19:1 24:1 27:1 31:1 34:1 40:1 41:1 46:1 56:1 78:1 88:1 111:1 124:1 143:1 155:1 170:1 184:1 205:1 210:1 254:1 344:1 383:1 476:1 527:1 603:1 650:1 712:1 765:1 850:1 
0.10000000000000001 2:1 8:1 10:1 16:1 19:1 24:1 27:1 31:1 34:1 40:1 44:1 47:1 56:1 78:1 88:1 111:1 124:1 143:1 155:1 170:1 184:1 208:1 223:1 254:1 344:1 383:1 476:1 527:1 603:1 650:1 712:1 768:1 863:1 
-0.10000000000000001 2:1 8:1 10:1 16:1 19:1 24:1 27:1 31:1 34:1 40:1 44:1 48:1 56:1 78:1 88:1 111:1 124:1 143:1 155:1 170:1 184:1 208:1 224:1 254:1 344:1 383:1 476:1 527:1 603:1 650:1 712:1 768:1 864:1 
-0.10000000000000001 2:1 8:1 12:1 16:1 19:1 24:1 27:1 31:1 34:1 37:1 41:1 45:1 56:1 80:1 96:1 111:1 124:1 143:1 155:1 170:1 181:1 193:1 209:1 256:1 352:1 415:1 476:1 527:1 603:1 650:1 709:1 753:1 801:1 
0.10000000000000001 2:1 8:1 12:1 16:1 19:1 24:1 27:1 31:1 34:1 37:1 41:1 47:1 56:1 80:1 96:1 111:1 124:1 143:1 155:1 170:1 181:1 193:1 211:1 256:1 352:1 415:1 476:1 527:1 603:1 650:1 709:1 753:1 803:1 
0.071303628291364926 2:1 8:1 12:1 16:1 19:1 24:1 27:1 31:1 34:1 37:1 42:1 45:1 56:1 80:1 96:1 111:1 124:1 143:1 155:1 170:1 181:1 194:1 213:1 256:1 352:1 415:1 476:1 527:1 603:1 650:1 709:1 754:1 805:1 
-0.10000000000000001 2:1 8:1 12:1 16:1 19:1 24:1 27:1 31:1 34:1 37:1 43:1 45:1 56:1 80:1 96:1 111:1 124:1 143:1 155:1 170:1 181:1 195:1 217:1 256:1 352:1 415:1 476:1 527:1 603:1 650:1 709:1 755:1 809:1 
-0.10000000000000001 2:1 8:1 12:1 16:1 19:1 24:1 27:1 31:1 34:1 37:1 43:1 46:1 56:1 80:1 96:1 111:1 124:1 143:1 155:1 170:1 181:1 195:1 218:1 256:1 352:1 415:1 476:1 527:1 603:1 650:1 709:1 755:1 810:1 
-0.10000000000000001 2:1 8:1 12:1 16:1 19:1 24:1 27:1 31:1 34:1 37:1 43:1 47:1 56:1 80:1 96:1 111:1 124:1 143:1 155:1 170:1 181:1 195:1 219:1 256:1 352:1 415:1 476:1 527:1 603:1 650:1 709:1 755:1 811:1 
0.10000000000000001 2:1 8:1 12:1 16:1 19:1 24:1 27:1 31:1 34:1 37:1 44:1 48:1 56:1 80:1 96:1 111:1 124:1 143:1 155:1 170:1 181:1 196:1 224:1 256:1 352:1 415:1 476:1 527:1 603:1 650:1 709:1 756:1 816:1 
0.10000000000000001 2:1 8:1 12:1 16:1 19:1 24:1 27:1 31:1 34:1 38:1 41:1 45:1 56:1 80:1 96:1 111:1 124:1 143:1 155:1 170:1 182:1 197:1 209:1 256:1 352:1 415:1 476:1 527:1 603:1 650:1 710:1 757:1 817:1 
0.10000000000000001 2:1 8:1 12:1 16:1 19:1 24:1 27:1 31:1 34:1 38:1 41:1 47:1 56:1 80:1 96:1 111:1 124:1 143:1 155:1 170:1 182:1 197:1 211:1 256:1 352:1 415:1 476:1 527:1 603:1 650:1 710:1 757:1 819:1 
-0.10000000000000001 2:1 8:1 12:1 16:1 19:1 24:1 27:1 31:1 34:1 38:1 42:1 47:1 56:1 80:1 96:1 111:1 124:1 143:1 155:1 170:1 182:1 198:1 215:1 256:1 352:1 415:1 476:1 527:1 603:1 650:1 710:1 758:1 823:1 
0.10000000000000001 2:1 8:1 12:1 16:1 19:1 24:1 27:1 31:1 34:1 38:1 44:1 45:1 56:1 80:1 96:1 111:1 124:1 143:1 155:1 170:1 182:1 200:1 221:1 256:1 352:1 415:1 476:1 527:1 603:1 650:1 710:1 760:1 829:1 
-0.10000000000000001 2:1 8:1 12:1 16:1 19:1 24:1 27:1 31:1 34:1 38:1 44:1 47:1 56:1 80:1 96:1 111:1 124:1 143:1 155:1 170:1 182:1 200:1 223:1 256:1 352:1 415:1 476:1 527:1 603:1 650:1 710:1 760:1 831:1 
-0.10000000000000001 2:1 8:1 12:1 16:1 19:1 24:1 27:1 31:1 34:1 40:1 41:1 45:1 56:1 80:1 96:1 111:1 124:1 143:1 155:1 170:1 184:1 205:1 209:1 256:1 352:1 415:1 476:1 527:1 603:1 650:1 712:1 765:1 849:1 
-0.099034703086359227 2:1 8:1 12:1 16:1 19:1 24:1 27:1 31:1 34:1 40:1 41:1 47:1 56:1 80:1 96:1 111:1 124:1 143:1 155:1 170:1 184:1 205:1 211:1 256:1 352:1 415:1 476:1 527:1 603:1 650:1 712:1 765:1 851:1 
0.10000000000000001 2:1 8:1 12:1 16:1 19:1 24:1 27:1 31:1 34:1 40:1 41:1 48:1 56:1 80:1 96:1 111:1 124:1 143:1 155:1 170:1 184:1 205:1 212:1 256:1 352:1 415:1 476:1 527:1 603:1 650:1 712:1 765:1 852:1 
0.10000000000000001 2:1 8:1 12:1 16:1 19:1 24:1 27:1 31:1 34:1 40:1 42:1 45:1 56:1 80:1 96:1 111:1 124:1 143:1 155:1 170:1 184:1 206:1 213:1 256:1 352:1 415:1 476:1 527:1 603:1 650:1 712:1 766:1 853:1 
0.052973226998119856 2:1 8:1 12:1 16:1 19:1 24:1 27:1 31:1 34:1 40:1 42:1 47:1 56:1 80:1 96:1 111:1 124:1 143:1 155:1 170:1 184:1 206:1 215:1 256:1 352:1 415:1 476:1 527:1 603:1 650:1 712:1 766:1 855:1 
-0.10000000000000001 2:1 8:1 12:1 16:1 19:1 24:1 27:1 31:1 34:1 40:1 43:1 45:1 56:1 80:1 96:1 111:1 124:1 143:1 155:1 170:1 184:1 207:1 217:1 256:1 352:1 415:1 476:1 527:1 603:1 650:1 712:1 767:1 857:1 
-0.10000000000000001 2:1 8:1 12:1 16:1 19:1 24:1 27:1 31:1 34:1 40:1 43:1 47:1 56:1 80:1 96:1 111:1 124:1 143:1 155:1 170:1 184:1 207:1 219:1 256:1 352:1 415:1 476:1 527:1 603:1 650:1 712:1 767:1 859:1 
0.10000000000000001 2:1 8:1 12:1 16:1 19:1 24:1 27:1 31:1 34:1 40:1 43:1 48:1 56:1 80:1 96:1 111:1 124:1 143:1 155:1 170:1 184:1 207:1 220:1 256:1 352:1 415:1 476:1 527:1 603:1 650:1 712:1 767:1 860:1 
0.10000000000000001 2:1 8:1 12:1 16:1 19:1 24:1 27:1 31:1 34:1 40:1 44:1 46:1 56:1 80:1 96:1 111:1 124:1 143:1 155:1 170:1 184:1 208:1 222:1 256:1 352:1 415:1 476:1 527:1 603:1 650:1 712:1 768:1 862:1 
-0.10000000000000001 2:1 8:1 12:1 16:1 19:1 24:1 27:1 31:1 34:1 40:1 44:1 47:1 56:1 80:1 96:1 111:1 124:1 143:1 155:1 170:1 184:1 208:1 223:1 256:1 352:1 415:1 476:1 527:1 603:1 650:1 712:1 768:1 863:1 
0.10000000000000001 2:1 8:1 12:1 16:1 19:1 24:1 27:1 31:1 34:1 40:1 44:1 48:1 56:1 80:1 96:1 111:1 124:1 143:1 155:1 170:1 184:1 208:1 224:1 256:1 352:1 415:1 476:1 527:1 603:1 650:1 712:1 768:1 864:1 
-0.0010526854905744329 3:1 5:1 9:1 16:1 19:1 24:1 27:1 31:1 34:1 40:1 41:1 46:1 57:1 65:1 84:1 111:1 124:1 143:1 155:1 170:1 184:1 205:1 210:1 257:1 292:1 367:1 476:1 527:1 603:1 650:1 712:1 765:1 850:1 
0.10000000000000001 3:1 5:1 9:1 16:1 19:1 24:1 27:1 31:1 34:1 40:1 41:1 47:1 57:1 65:1 84:1 111:1 124:1 143:1 155:1 170:1 184:1 205:1 211:1 257:1 292:1 367:1 476:1 527:1 603:1 650:1 712:1 765:1 851:1 
0.10000000000000001 3:1 5:1 9:1 16:1 19:1 24:1 27:1 31:1 34:1 40:1 44:1 45:1 57:1 65:1 84:1 111:1 124:1 143:1 155:1 170:1 184:1 208:1 221:1 257:1 292:1 367:1 476:1 527:1 603:1 650:1 712:1 768:1 861:1 
-0.10000000000000001 3:1 5:1 9:1 16:1 19:1 24:1 27:1 31:1 34:1 40:1 44:1 47:1 57:1 65:1 84:1 111:1 124:1 143:1 155:1 170:1 184:1 208:1 223:1 257:1 292:1 367:1 476:1 527:1 603:1 650:1 712:1 768:1 863:1 
-0.10000000000000001 3:1 5:1 9:1 16:1 19:1 24:1 27:1 31:1 34:1 40:1 44:1 48:1 57:1 65:1 84:1 111:1 124:1 143:1 155:1 170:1 184:1 208:1 224:1 257:1 292:1 367:1 476:1 527:1 603:1 650:1 712:1 768:1 864:1 
-0.10000000000000001 3:1 5:1 10:1 16:1 19:1 24:1 27:1 31:1 34:1 40:1 41:1 47:1 57:1 66:1 88:1 111:1 124:1 143:1 155:1 170:1 184:1 205:1 211:1 258:1 296:1 383:1 476:1 527:1 603:1 650:1 712:1 765:1 851:1 
0.10000000000000001 3:1 5:1 10:1 16:1 19:1 24:1 27:1 31:1 34:1 40:1 44:1 45:1 57:1 66:1 88:1 111:1 124:1 143:1 155:1 170:1 184:1 208:1 221:1 258:1 296:1 383:1 476:1 527:1 603:1 650:1 712:1 768:1 861:1 
-0.028403192579884076 3:1 5:1 10:1 16:1 19:1 24:1 27:1 31:1 34:1 40:1 44:1 46:1 57:1 66:1 88:1 111:1 124:1 143:1 155:1 170:1 184:1 208:1 222:1 258:1 296:1 383:1 476:1 527:1 603:1 650:1 712:1 768:1 862:1 
-0.10000000000000001 3:1 5:1 12:1 16:1 19:1 24:1 27:1 31:1 34:1 37:1 41:1 45:1 57:1 68:1 96:1 111:1 124:1 143:1 155:1 170:1 181:1 193:1 209:1 260:1 304:1 415:1 476:1 527:1 603:1 650:1 709:1 753:1 801:1 
0.10000000000000001 3:1 5:1 12:1 16:1 19:1 24:1 27:1 31:1 34:1 37:1 41:1 47:1 57:1 68:1 96:1 111:1 124:1 143:1 155:1 170:1 181:1 193:1 211:1 260:1 304:1 415:1 476:1 527:1 603:1 650:1 709:1 753:1 803:1 
0.10000000000000001 3:1 5:1 12:1 16:1 19:1 24:1 27:1 31:1 34:1 37:1 42:1 46:1 57:1 68:1 96:1 111:1 124:1 143:1 155:1 170:1 181:1 194:1 214:1 260:1 304:1 415:1 476:1 527:1 603:1 650:1 709:1 754:1 806:1 
0.10000000000000001 3:1 5:1 12:1 16:1 19:1 24:1 27:1 31:1 34:1 37:1 43:1 46:1 57:1 68:1 96:1 111:1 124:1 143:1 155:1 170:1 181:1 195:1 218:1 260:1 304:1 415:1 476:1 527:1 603:1 650:1 709:1 755:1 810:1 
-0.035821638986150359 3:1 5:1 12:1 16:1 19:1 24:1 27:1 31:1 34:1 37:1 43:1 48:1 57:1 68:1 96:1 111:1 124:1 143:1 155:1 170:1 181:1 195:1 220:1 260:1 304:1 415:1 476:1 527:1 603:1 650:1 709:1 755:1 812:1 
0.10000000000000001 3:1 5:1 12:1 16:1 19:1 24:1 27:1 31:1 34:1 37:1 44:1 47:1 57:1 68:1 96:1 111:1 124:1 143:1 155:1 170:1 181:1 196:1 223:1 260:1 304:1 415:1 476:1 527:1 603:1 650:1 709:1 756:1 815:1 
-0.10000000000000001 3:1 5:1 12:1 16:1 19:1 24:1 27:1 31:1 34:1 38:1 41:1 48:1 57:1 68:1 96:1 111:1 124:1 143:1 155:1 170:1 182:1 197:1 212:1 260:1 304:1 415:1 476:1 527:1 603:1 650:1 710:1 757:1 820:1 
0.018243962186280813 3:1 5:1 12:1 16:1 19:1 24:1 27:1 31:1 34:1 38:1 43:1 47:1 57:1 68:1 96:1 111:1 124:1 143:1 155:1 170:1 182:1 199:1 219:1 260:1 304:1 415:1 476:1 527:1 603:1 650:1 710:1 759:1 827:1 
0.069214495732221382 3:1 5:1 12:1 16:1 19:1 24:1 27:1 31:1 34:1 38:1 44:1 46:1 57:1 68:1 96:1 111:1 124:1 143:1 155:1 170:1 182:1 200:1 222:1 260:1 304:1 415:1 476:1 527:1 603:1 650:1 710:1 760:1 830:1 
0.10000000000000001 3:1 5:1 12:1 16:1 19:1 24:1 27:1 31:1 34:1 38:1 44:1 47:1 57:1 68:1 96:1 111:1 124:1 143:1 155:1 170:1 182:1 200:1 223:1 260:1 304:1 415:1 476:1 527:1 603:1 650:1 710:1 760:1 831:1 
-0.035621143003542952 3:1 5:1 12:1 16:1 19:1 24:1 27:1 31:1 34:1 40:1 41:1 46:1 57:1 68:1 96:1 111:1 124:1 143:1 155:1 170:1 184:1 205:1 210:1 260:1 304:1 415:1 476:1 527:1 603:1 650:1 712:1 765:1 850:1 
-0.10000000000000001 3:1 5:1 12:1 16:1 19:1 24:1 27:1 31:1 34:1 40:1 42:1 46:1 57:1 68:1 96:1 111:1 124:1 143:1 155:1 170:1 184:1 206:1 214:1 260:1 304:1 415:1 476:1 527:1 603:1 650:1 712:1 766:1 854:1 
0.10000000000000001 3:1 5:1 12:1 16:1 19:1 24:1 27:1 31:1 34:1 40:1 42:1 48:1 57:1 68:1 96:1 111:1 124:1 143:1 155:1 170:1 184:1 206:1 216:1 260:1 304:1 415:1 476:1 527:1 603:1 650:1 712:1 766:1 856:1 
0.10000000000000001 3:1 5:1 12:1 16:1 19:1 24:1 27:1 31:1 34:1 40:1 43:1 45:1 57:1 68:1 96:1 111:1 124:1 143:1 155:1 170:1 184:1 207:1 217:1 260:1 304:1 415:1 476:1 527:1 603:1 650:1 712:1 767:1 857:1 
-0.10000000000000001 3:1 5:1 12:1 16:1 19:1 24:1 27:1 31:1 34:1 40:1 43:1 46:1 57:1 68:1 96:1 111:1 124:1 143:1 155:1 170:1 184:1 207:1 218:1 260:1 304:1 415:1 476:1 527:1 603:1 650:1 712:1 767:1 858:1 
-0.10000000000000001 3:1 5:1 12:1 16:1 19:1 24:1 27:1 31:1 34:1 40:1 43:1 48:1 57:1 68:1 96:1 111:1 124:1 143:1 155:1 170:1 184:1 207:1 220:1 260:1 304:1 415:1 476:1 527:1 603:1 650:1 712:1 767:1 860:1 
-0.10000000000000001 3:1 5:1 12:1 16:1 19:1 24:1 27:1 31:1 34:1 40:1 44:1 45:1 57:1 68:1 96:1 111:1 124:1 143:1 155:1 170:1 184:1 208:1 221:1 260:1 304:1 415:1 476:1 527:1 603:1 650:1 712:1 768:1 861:1 
-0.10000000000000001 3:1 5:1 12:1 16:1 19:1 24:1 27:1 31:1 34:1 40:1 44:1 46:1 57:1 68:1 96:1 111:1 124:1 143:1 155:1 170:1 184:1 208:1 222:1 260:1 304:1 415:1 476:1 527:1 603:1 650:1 712:1 768:1 862:1 
0.10000000000000001 3:1 6:1 9:1 16:1 19:1 24:1 27:1 31:1 34:1 40:1 41:1 48:1 58:1 69:1 84:1 111:1 124:1 143:1 155:1 170:1 184:1 205:1 212:1 261:1 308:1 367:1 476:1 527:1 603:1 650:1 712:1 765:1 852:1 
-0.084474125058820154 3:1 6:1 9:1 16:1 19:1 24:1 27:1 31:1 34:1 40:1 44:1 47:1 58:1 69:1 84:1 111:1 124:1 143:1 155:1 170:1 184:1 208:1 223:1 261:1 308:1 367:1 476:1 527:1 603:1 650:1 712:1 768:1 863:1 
-0.10000000000000001 3:1 6:1 10:1 16:1 19:1 24:1 27:1 31:1 34:1 40:1 41:1 46:1 58:1 70:1 88:1 111:1 124:1 143:1 155:1 170:1 184:1 205:1 210:1 262:1 312:1 383:1 476:1 527:1 603:1 650:1 712:1 765:1 850:1 
0.06767999255218099 3:1 6:1 10:1 16:1 19:1 24:1 27:1 31:1 34:1 40:1 41:1 47:1 58:1 70:1 88:1 111:1 124:1 143:1 155:1 170:1 184:1 205:1 211:1 262:1 312:1 383:1 476:1 527:1 603:1 650:1 712:1 765:1 851:1 
-0.079806359608724509 3:1 6:1 12:1 16:1 19:1 24:1 27:1 31:1 34:1 37:1 41:1 47:1 58:1 72:1 96:1 111:1 124:1 143:1 155:1 170:1 181:1 193:1 211:1 264:1 320:1 415:1 476:1 527:1 603:1 650:1 709:1 753:1 803:1 
0.10000000000000001 3:1 6:1 12:1 16:1 19:1 24:1 27:1 31:1 34:1 37:1 42:1 48:1 58:1 72:1 96:1 111:1 124:1 143:1 155:1 170:1 181:1 194:1 216:1 264:1 320:1 415:1 476:1 527:1 603:1 650:1 709:1 754:1 808:1 
0.10000000000000001 3:1 6:1 12:1 16:1 19:1 24:1 27:1 31:1 34:1 37:1 43:1 46:1 58:1 72:1 96:1 111:1 124:1 143:1 155:1 170:1 181:1 195:1 218:1 264:1 320:1 415:1 476:1 527:1 603:1 650:1 709:1 755:1 810:1 
0.10000000000000001 3:1 6:1 12:1 16:1 19:1 24:1 27:1 31:1 34:1 37:1 43:1 47:1 58:1 72:1 96:1 111:1 124:1 143:1 155:1 170:1 181:1 195:1 219:1 264:1 320:1 415:1 476:1 527:1 603:1 650:1 709:1 755:1 811:1 
-0.10000000000000001 3:1 6:1 12:1 16:1 19:1 24:1 27:1 31:1 34:1 38:1 41:1 45:1 58:1 72:1 96:1 111:1 124:1 143:1 155:1 170:1 182:1 197:1 209:1 264:1 320:1 415:1 476:1 527:1 603:1 650:1 710:1 757:1 817:1 
-0.10000000000000001 3:1 6:1 12:1 16:1 19:1 24:1 27:1 31:1 34:1 38:1 41:1 46:1 58:1 72:1 96:1 111:1 124:1 143:1 155:1 170:1 182:1 197:1 210:1 264:1 320:1 415:1 476:1 527:1 603:1 650:1 710:1 757:1 818:1 
-0.10000000000000001 3:1 6:1 12:1 16:1 19:1 24:1 27:1 31:1 34:1 38:1 42:1 46:1 58:1 72:1 96:1 111:1 124:1 143:1 155:1 170:1 182:1 198:1 214:1 264:1 320:1 415:1 476:1 527:1 603:1 650:1 710:1 758:1 822:1 
-0.10000000000000001 3:1 6:1 12:1 16:1 19:1 24:1 27:1 31:1 34:1 38:1 42:1 47:1 58:1 72:1 96:1 111:1 124:1 143:1 155:1 170:1 182:1 198:1 215:1 264:1 320:1 415:1 476:1 527:1 603:1 650:1 710:1 758:1 823:1 
0.059699389473538964 3:1 6:1 12:1 16:1 19:1 24:1 27:1 31:1 34:1 38:1 43:1 46:1 58:1 72:1 96:1 111:1 124:1 143:1 155:1 170:1 182:1 199:1 218:1 264:1 320:1 415:1 476:1 527:1 603:1 650:1 710:1 759:1 826:1 
-0.10000000000000001 3:1 6:1 12:1 16:1 19:1 24:1 27:1 31:1 34:1 38:1 44:1 45:1 58:1 72:1 96:1 111:1 124:1 143:1 155:1 170:1 182:1 200:1 221:1 264:1 320:1 415:1 476:1 527:1 603:1 650:1 710:1 760:1 829:1 
-0.10000000000000001 3:1 6:1 12:1 16:1 19:1 24:1 27:1 31:1 34:1 38:1 44:1 48:1 58:1 72:1 96:1 111:1 124:1 143:1 155:1 170:1 182:1 200:1 224:1 264:1 320:1 415:1 476:1 527:1 603:1 650:1 710:1 760:1 832:1 
0.10000000000000001 3:1 6:1 12:1 16:1 19:1 24:1 27:1 31:1 34:1 40:1 41:1 45:1 58:1 72:1 96:1 111:1 124:1 143:1 155:1 170:1 184:1 205:1 209:1 264:1 320:1 415:1 476:1 527:1 603:1 650:1 712:1 765:1 849:1 
0.10000000000000001 3:1 6:1 12:1 16:1 19:1 24:1 27:1 31:1 34:1 40:1 41:1 46:1 58:1 72:1 96:1 111:1 124:1 143:1 155:1 170:1 184:1 205:1 210:1 264:1 320:1 415:1 476:1 527:1 603:1 650:1 712:1 765:1 850:1 
0.045534561488043371 3:1 6:1 12:1 16:1 19:1 24:1 27:1 31:1 34:1 40:1 41:1 47:1 58:1 72:1 96:1 111:1 124:1 143:1 155:1 170:1 184:1 205:1 211:1 264:1 320:1 415:1 476:1 527:1 603:1 650:1 712:1 765:1 851:1 
-0.0020459143386449192 3:1 6:1 12:1 16:1 19:1 24:1 27:1 31:1 34:1 40:1 42:1 45:1 58:1 72:1 96:1 111:1 124:1 143:1 155:1 170:1 184:1 206:1 213:1 264:1 320:1 415:1 476:1 527:1 603:1 650:1 712:1 766:1 853:1 
-0.10000000000000001 3:1 6:1 12:1 16:1 19:1 24:1 27:1 31:1 34:1 40:1 43:1 46:1 58:1 72:1 96:1 111:1 124:1 143:1 155:1 170:1 184:1 207:1 218:1 264:1 320:1 415:1 476:1 527:1 603:1 650:1 712:1 767:1 858:1 
0.10000000000000001 3:1 6:1 12:1 16:1 19:1 24:1 27:1 31:1 34:1 40:1 43:1 47:1 58:1 72:1 96:1 111:1 124:1 143:1 155:1 170:1 184:1 207:1 219:1 264:1 320:1 415:1 476:1 527:1 603:1 650:1 712:1 767:1 859:1 
0.10000000000000001 3:1 6:1 12:1 16:1 19:1 24:1 27:1 31:1 34:1 40:1 43:1 48:1 58:1 72:1 96:1 111:1 124:1 143:1 155:1 170:1 184:1 207:1 220:1 264:1 320:1 415:1 476:1 527:1 603:1 650:1 712:1 767:1 860:1 
-0.10000000000000001 3:1 6:1 12:1 16:1 19:1 24:1 27:1 31:1 34:1 40:1 44:1 45:1 58:1 72:1 96:1 111:1 124:1 143:1 155:1 170:1 184:1 208:1 221:1 264:1 320:1 415:1 476:1 527:1 603:1 650:1 712:1 768:1 861:1 
0.087790180963030318 3:1 6:1 12:1 16:1 19:1 24:1 27:1 31:1 34:1 40:1 44:1 46:1 58:1 72:1 96:1 111:1 124:1 143:1 155:1 170:1 184:1 208:1 222:1 264:1 320:1 415:1 476:1 527:1 603:1 650:1 712:1 768:1 862:1 
0.10000000000000001 3:1 6:1 12:1 16:1 19:1 24:1 27:1 31:1 34:1 40:1 44:1 47:1 58:1 72:1 96:1 111:1 124:1 143:1 155:1 170:1 184:1 208:1 223:1 264:1 320:1 415:1 476:1 527:1 603:1 650:1 712:1 768:1 863:1 
-0.10000000000000001 3:1 6:1 12:1 16:1 19:1 24:1 27:1 31:1 34:1 40:1 44:1 48:1 58:1 72:1 96:1 111:1 124:1 143:1 155:1 170:1 184:1 208:1 224:1 264:1 320:1 415:1 476:1 527:1 603:1 650:1 712:1 768:1 864:1 
0.10000000000000001 3:1 7:1 9:1 16:1 19:1 24:1 27:1 31:1 34:1 40:1 41:1 46:1 59:1 73:1 84:1 111:1 124:1 143:1 155:1 170:1 184:1 205:1 210:1 265:1 324:1 367:1 476:1 527:1 603:1 650:1 712:1 765:1 850:1 
-0.10000000000000001 3:1 7:1 9:1 16:1 19:1 24:1 27:1 31:1 34:1 40:1 41:1 48:1 59:1 73:1 84:1 111:1 124:1 143:1 155:1 170:1 184:1 205:1 212:1 265:1 324:1 367:1 476:1 527:1 603:1 650:1 712:1 765:1 852:1 
-0.10000000000000001 3:1 7:1 9:1 16:1 19:1 24:1 27:1 31:1 34:1 40:1 44:1 45:1 59:1 73:1 84:1 111:1 124:1 143:1 155:1 170:1 184:1 208:1 221:1 265:1 324:1 367:1 476:1 527:1 603:1 650:1 712:1 768:1 861:1 
0.10000000000000001 3:1 7:1 9:1 16:1 19:1 24:1 27:1 31:1 34:1 40:1 44:1 46:1 59:1 73:1 84:1 111:1 124:1 143:1 155:1 170:1 184:1 208:1 222:1 265:1 324:1 367:1 476:1 527:1 603:1 650:1 712:1 768:1 862:1 
-0.10000000000000001 3:1 7:1 9:1 16:1 19:1 24:1 27:1 31:1 34:1 40:1 44:1 47:1 59:1 73:1 84:1 111:1 124:1 143:1 155:1 170:1 184:1 208:1 223:1 265:1 324:1 367:1 476:1 527:1 603:1 650:1 712:1 768:1 863:1 
0.045046895742206682 3:1 7:1 9:1 16:1 19:1 24:1 27:1 31:1 34:1 40:1 44:1 48:1 59:1 73:1 84:1 111:1 124:1 143:1 155:1 170:1 184:1 208:1 224:1 265:1 324:1 367:1 476:1 527:1 603:1 650:1 712:1 768:1 864:1 
0.10000000000000001 3:1 7:1 10:1 16:1 19:1 24:1 27:1 31:1 34:1 40:1 41:1 45:1 59:1 74:1 88:1 111:1 124:1 143:1 155:1 170:1 184:1 205:1 209:1 266:1 328:1 383:1 476:1 527:1 603:1 650:1 712:1 765:1 849:1 
-0.10000000000000001 3:1 7:1 10:1 16:1 19:1 24:1 27:1 31:1 34:1 40:1 41:1 46:1 59:1 74:1 88:1 111:1 124:1 143:1 155:1 170:1 184:1 205:1 210:1 266:1 328:1 383:1 476:1 527:1 603:1 650:1 712:1 765:1 850:1 
-0.10000000000000001 3:1 7:1 10:1 16:1 19:1 24:1 27:1 31:1 34:1 40:1 41:1 47:1 59:1 74:1 88:1 111:1 124:1 143:1 155:1 170:1 184:1 205:1 211:1 266:1 328:1 383:1 476:1 527:1 603:1 650:1 712:1 765:1 851:1 
-0.10000000000000001 3:1 7:1 10:1 16:1 19:1 24:1 27:1 31:1 34:1 40:1 44:1 45:1 59:1 74:1 88:1 111:1 124:1 143:1 155:1 170:1 184:1 208:1 221:1 266:1 328:1 383:1 476:1 527:1 603:1 650:1 712:1 768:1 861:1 
0.10000000000000001 3:1 7:1 10:1 16:1 19:1 24:1 27:1 31:1 34:1 40:1 44:1 46:1 59:1 74:1 88:1 111:1 124:1 143:1 155:1 170:1 184:1 208:1 222:1 266:1 328:1 383:1 476:1 527:1 603:1 650:1 712:1 768:1 862:1 
0.10000000000000001 3:1 7:1 10:1 16:1 19:1 24:1 27:1 31:1 34:1 40:1 44:1 47:1 59:1 74:1 88:1 111:1 124:1 143:1 155:1 170:1 184:1 208:1 223:1 266:1 328:1 383:1 476:1 527:1 603:1 650:1 712:1 768:1 863:1 
0.041702096739028985 3:1 7:1 10:1 16:1 19:1 24:1 27:1 31:1 34:1 40:1 44:1 48:1 59:1 74:1 88:1 111:1 124:1 143:1 155:1 170:1 184:1 208:1 224:1 266:1 328:1 383:1 476:1 527:1 603:1 650:1 712:1 768:1 864:1 
-0.10000000000000001 3:1 7:1 12:1 16:1 19:1 24:1 27:1 31:1 34:1 37:1 43:1 46:1 59:1 76:1 96:1 111:1 124:1 143:1 155:1 170:1 181:1 195:1 218:1 268:1 336:1 415:1 476:1 527:1 603:1 650:1 709:1 755:1 810:1 
-0.10000000000000001 3:1 7:1 12:1 16:1 19:1 24:1 27:1 31:1 34:1 38:1 41:1 47:1 59:1 76:1 96:1 111:1 124:1 143:1 155:1 170:1 182:1 197:1 211:1 268:1 336:1 415:1 476:1 527:1 603:1 650:1 710:1 757:1 819:1 
-0.10000000000000001 3:1 7:1 12:1 16:1 19:1 24:1 27:1 31:1 34:1 38:1 41:1 48:1 59:1 76:1 96:1 111:1 124:1 143:1 155:1 170:1 182:1 197:1 212:1 268:1 336:1 415:1 476:1 527:1 603:1 650:1 710:1 757:1 820:1 
0.10000000000000001 3:1 7:1 12:1 16:1 19:1 24:1 27:1 31:1 34:1 38:1 42:1 48:1 59:1 76:1 96:1 111:1 124:1 143:1 155:1 170:1 182:1 198:1 216:1 268:1 336:1 415:1 476:1 527:1 603:1 650:1 710:1 758:1 824:1 
-0.069380833530515246 3:1 7:1 12:1 16:1 19:1 24:1 27:1 31:1 34:1 38:1 43:1 47:1 59:1 76:1 96:1 111:1 124:1 143:1 155:1 170:1 182:1 199:1 219:1 268:1 336:1 415:1 476:1 527:1 603:1 650:1 710:1 759:1 827:1 
0.10000000000000001 3:1 7:1 12:1 16:1 19:1 24:1 27:1 31:1 34:1 38:1 44:1 47:1 59:1 76:1 96:1 111:1 124:1 143:1 155:1 170:1 182:1 200:1 223:1 268:1 336:1 415:1 476:1 527:1 603:1 650:1 710:1 760:1 831:1 
-0.10000000000000001 3:1 7:1 12:1 16:1 19:1 24:1 27:1 31:1 34:1 40:1 41:1 47:1 59:1 76:1 96:1 111:1 124:1 143:1 155:1 170:1 184:1 205:1 211:1 268:1 336:1 415:1 476:1 527:1 603:1 650:1 712:1 765:1 851:1 
0.10000000000000001 3:1 7:1 12:1 16:1 19:1 24:1 27:1 31:1 34:1 40:1 42:1 48:1 59:1 76:1 96:1 111:1 124:1 143:1 155:1 170:1 184:1 206:1 216:1 268:1 336:1 415:1 476:1 527:1 603:1 650:1 712:1 766:1 856:1 
-0.10000000000000001 3:1 7:1 12:1 16:1 19:1 24:1 27:1 31:1 34:1 40:1 43:1 45:1 59:1 76:1 96:1 111:1 124:1 143:1 155:1 170:1 184:1 207:1 217:1 268:1 336:1 415:1 476:1 527:1 603:1 650:1 712:1 767:1 857:1 
0.10000000000000001 3:1 7:1 12:1 16:1 19:1 24:1 27:1 31:1 34:1 40:1 43:1 48:1 59:1 76:1 96:1 111:1 124:1 143:1 155:1 170:1 184:1 207:1 220:1 268:1 336:1 415:1 476:1 527:1 603:1 650:1 712:1 767:1 860:1 
0.10000000000000001 3:1 7:1 12:1 16:1 19:1 24:1 27:1 31:1 34:1 40:1 44:1 45:1 59:1 76:1 96:1 111:1 124:1 143:1 155:1 170:1 184:1 208:1 221:1 268:1 336:1 415:1 476:1 527:1 603:1 650:1 712:1 768:1 861:1 
-0.10000000000000001 3:1 7:1 12:1 16:1 19:1 24:1 27:1 31:1 34:1 40:1 44:1 46:1 59:1 76:1 96:1 111:1 124:1 143:1 155:1 170:1 184:1 208:1 222:1 268:1 336:1 415:1 476:1 527:1 603:1 650:1 712:1 768:1 862:1 
0.10000000000000001 3:1 7:1 12:1 16:1 19:1 24:1 27:1 31:1 34:1 40:1 44:1 47:1 59:1 76:1 96:1 111:1 124:1 143:1 155:1 170:1 184:1 208:1 223:1 268:1 336:1 415:1 476:1 527:1 603:1 650:1 712:1 768:1 863:1 
0.10000000000000001 3:1 7:1 12:1 16:1 19:1 24:1 27:1 31:1 34:1 40:1 44:1 48:1 59:1 76:1 96:1 111:1 124:1 143:1 155:1 170:1 184:1 208:1 224:1 268:1 336:1 415:1 476:1 527:1 603:1 650:1 712:1 768:1 864:1 
0.10000000000000001 3:1 8:1 9:1 16:1 19:1 24:1 27:1 31:1 34:1 40:1 41:1 46:1 60:1 77:1 84:1 111:1 124:1 143:1 155:1 170:1 184:1 205:1 210:1 269:1 340:1 367:1 476:1 527:1 603:1 650:1 712:1 765:1 850:1 
-0.085581771872999826 3:1 8:1 9:1 16:1 19:1 24:1 27:1 31:1 34:1 40:1 44:1 48:1 60:1 77:1 84:1 111:1 124:1 143:1 155:1 170:1 184:1 208:1 224:1 269:1 340:1 367:1 476:1 527:1 603:1 650:1 712:1 768:1 864:1 
0.10000000000000001 3:1 8:1 10:1 16:1 19:1 24:1 27:1 31:1 34:1 40:1 41:1 45:1 60:1 78:1 88:1 111:1 124:1 143:1 155:1 170:1 184:1 205:1 209:1 270:1 344:1 383:1 476:1 527:1 603:1 650:1 712:1 765:1 849:1 
-0.10000000000000001 3:1 8:1 10:1 16:1 19:1 24:1 27:1 31:1 34:1 40:1 41:1 46:1 60:1 78:1 88:1 111:1 124:1 143:1 155:1 170:1 184:1 205:1 210:1 270:1 344:1 383:1 476:1 527:1 603:1 650:1 712:1 765:1 850:1 
0.10000000000000001 3:1 8:1 10:1 16:1 19:1 24:1 27:1 31:1 34:1 40:1 41:1 47:1 60:1 78:1 88:1 111:1 124:1 143:1 155:1 170:1 184:1 205:1 211:1 270:1 344:1 383:1 476:1 527:1 603:1 650:1 712:1 765:1 851:1 
-0.10000000000000001 3:1 8:1 10:1 16:1 19:1 24:1 27:1 31:1 34:1 40:1 41:1 48:1 60:1 78:1 88:1 111:1 124:1 143:1 155:1 170:1 184:1 205:1 212:1 270:1 344:1 383:1 476:1 527:1 603:1 650:1 712:1 765:1 852:1 
0.10000000000000001 3:1 8:1 10:1 16:1 19:1 24:1 27:1 31:1 34:1 40:1 44:1 45:1 60:1 78:1 88:1 111:1 124:1 143:1 155:1 170:1 184:1 208:1 221:1 270:1 344:1 383:1 476:1 527:1 603:1 650:1 712:1 768:1 861:1 
0.017436509527738425 3:1 8:1 10:1 16:1 19:1 24:1 27:1 31:1 34:1 40:1 44:1 47:1 60:1 78:1 88:1 111:1 124:1 143:1 155:1 170:1 184:1 208:1 223:1 270:1 344:1 383:1 476:1 527:1 603:1 650:1 712:1 768:1 863:1 
-0.10000000000000001 3:1 8:1 10:1 16:1 19:1 24:1 27:1 31:1 34:1 40:1 44:1 48:1 60:1 78:1 88:1 111:1 124:1 143:1 155:1 170:1 184:1 208:1 224:1 270:1 344:1 383:1 476:1 527:1 603:1 650:1 712:1 768:1 864:1 
0.10000000000000001 3:1 8:1 12:1 16:1 19:1 24:1 27:1 31:1 34:1 37:1 43:1 47:1 60:1 80:1 96:1 111:1 124:1 143:1 155:1 170:1 181:1 195:1 219:1 272:1 352:1 415:1 476:1 527:1 603:1 650:1 709:1 755:1 811:1 
-0.10000000000000001 3:1 8:1 12:1 16:1 19:1 24:1 27:1 31:1 34:1 37:1 43:1 48:1 60:1 80:1 96:1 111:1 124:1 143:1 155:1 170:1 181:1 195:1 220:1 272:1 352:1 415:1 476:1 527:1 603:1 650:1 709:1 755:1 812:1 
-0.10000000000000001 3:1 8:1 12:1 16:1 19:1 24:1 27:1 31:1 34:1 37:1 44:1 47:1 60:1 80:1 96:1 111:1 124:1 143:1 155:1 170:1 181:1 196:1 223:1 272:1 352:1 415:1 476:1 527:1 603:1 650:1 709:1 756:1 815:1 
0.10000000000000001 3:1 8:1 12:1 16:1 19:1 24:1 27:1 31:1 34:1 37:1 44:1 48:1 60:1 80:1 96:1 111:1 124:1 143:1 155:1 170:1 181:1 196:1 224:1 272:1 352:1 415:1 476:1 527:1 603:1 650:1 709:1 756:1 816:1 
-0.098873412440478425 3:1 8:1 12:1 16:1 19:1 24:1 27:1 31:1 34:1 38:1 41:1 45:1 60:1 80:1 96:1 111:1 124:1 143:1 155:1 170:1 182:1 197:1 209:1 272:1 352:1 415:1 476:1 527:1 603:1 650:1 710:1 757:1 817:1 
-0.10000000000000001 3:1 8:1 12:1 16:1 19:1 24:1 27:1 31:1 34:1 38:1 41:1 46:1 60:1 80:1 96:1 111:1 124:1 143:1 155:1 170:1 182:1 197:1 210:1 272:1 352:1 415:1 476:1 527:1 603:1 650:1 710:1 757:1 818:1 
0.10000000000000001 3:1 8:1 12:1 16:1 19:1 24:1 27:1 31:1 34:1 38:1 41:1 47:1 60:1 80:1 96:1 111:1 124:1 143:1 155:1 170:1 182:1 197:1 211:1 272:1 352:1 415:1 476:1 527:1 603:1 650:1 710:1 757:1 819:1 
-0.10000000000000001 3:1 8:1 12:1 16:1 19:1 24:1 27:1 31:1 34:1 38:1 41:1 48:1 60:1 80:1 96:1 111:1 124:1 143:1 155:1 170:1 182:1 197:1 212:1 272:1 352:1 415:1 476:1 527:1 603:1 650:1 710:1 757:1 820:1 
0.10000000000000001 3:1 8:1 12:1 16:1 19:1 24:1 27:1 31:1 34:1 38:1 42:1 45:1 60:1 80:1 96:1 111:1 124:1 143:1 155:1 170:1 182:1 198:1 213:1 272:1 352:1 415:1 476:1 527:1 603:1 650:1 710:1 758:1 821:1 
-0.10000000000000001 3:1 8:1 12:1 16:1 19:1 24:1 27:1 31:1 34:1 38:1 42:1 46:1 60:1 80:1 96:1 111:1 124:1 143:1 155:1 170:1 182:1 198:1 214:1 272:1 352:1 415:1 476:1 527:1 603:1 650:1 710:1 758:1 822:1 
0.10000000000000001 3:1 8:1 12:1 16:1 19:1 24:1 27:1 31:1 34:1 38:1 42:1 47:1 60:1 80:1 96:1 111:1 124:1 143:1 155:1 170:1 182:1 198:1 215:1 272:1 352:1 415:1 476:1 527:1 603:1 650:1 710:1 758:1 823:1 
-0.10000000000000001 3:1 8:1 12:1 16:1 19:1 24:1 27:1 31:1 34:1 38:1 43:1 46:1 60:1 80:1 96:1 111:1 124:1 143:1 155:1 170:1 182:1 199:1 218:1 272:1 352:1 415:1 476:1 527:1 603:1 650:1 710:1 759:1 826:1 
0.10000000000000001 3:1 8:1 12:1 16:1 19:1 24:1 27:1 31:1 34:1 38:1 44:1 45:1 60:1 80:1 96:1 111:1 124:1 143:1 155:1 170:1 182:1 200:1 221:1 272:1 352:1 415:1 476:1 527:1 603:1 650:1 710:1 760:1 829:1 
-0.10000000000000001 3:1 8:1 12:1 16:1 19:1 24:1 27:1 31:1 34:1 38:1 44:1 47:1 60:1 80:1 96:1 111:1 124:1 143:1 155:1 170:1 182:1 200:1 223:1 272:1 352:1 415:1 476:1 527:1 603:1 650:1 710:1 760:1 831:1 
0.10000000000000001 3:1 8:1 12:1 16:1 19:1 24:1 27:1 31:1 34:1 38:1 44:1 48:1 60:1 80:1 96:1 111:1 124:1 143:1 155:1 170:1 182:1 200:1 224:1 272:1 352:1 415:1 476:1 527:1 603:1 650:1 710:1 760:1 832:1 
-0.10000000000000001 3:1 8:1 12:1 16:1 19:1 24:1 27:1 31:1 34:1 40:1 41:1 45:1 60:1 80:1 96:1 111:1 124:1 143:1 155:1 170:1 184:1 205:1 209:1 272:1 352:1 415:1 476:1 527:1 603:1 650:1 712:1 765:1 849:1 
0.10000000000000001 3:1 8:1 12:1 16:1 19:1 24:1 27:1 31:1 34:1 40:1 41:1 46:1 60:1 80:1 96:1 111:1 124:1 143:1 155:1 170:1 184:1 205:1 210:1 272:1 352:1 415:1 476:1 527:1 603:1 650:1 712:1 765:1 850:1 
-0.10000000000000001 3:1 8:1 12:1 16:1 19:1 24:1 27:1 31:1 34:1 40:1 41:1 47:1 60:1 80:1 96:1 111:1 124:1 143:1 155:1 170:1 184:1 205:1 211:1 272:1 352:1 415:1 476:1 527:1 603:1 650:1 712:1 765:1 851:1 
-0.10000000000000001 3:1 8:1 12:1 16:1 19:1 24:1 27:1 31:1 34:1 40:1 41:1 48:1 60:1 80:1 96:1 111:1 124:1 143:1 155:1 170:1 184:1 205:1 212:1 272:1 352:1 415:1 476:1 527:1 603:1 650:1 712:1 765:1 852:1 
0.10000000000000001 3:1 8:1 12:1 16:1 19:1 24:1 27:1 31:1 34:1 40:1 42:1 46:1 60:1 80:1 96:1 111:1 124:1 143:1 155:1 170:1 184:1 206:1 214:1 272:1 352:1 415:1 476:1 527:1 603:1 650:1 712:1 766:1 854:1 
0.10000000000000001 3:1 8:1 12:1 16:1 19:1 24:1 27:1 31:1 34:1 40:1 43:1 46:1 60:1 80:1 96:1 111:1 124:1 143:1 155:1 170:1 184:1 207:1 218:1 272:1 352:1 415:1 476:1 527:1 603:1 650:1 712:1 767:1 858:1 
0.10000000000000001 3:1 8:1 12:1 16:1 19:1 24:1 27:1 31:1 34:1 40:1 43:1 47:1 60:1 80:1 96:1 111:1 124:1 143:1 155:1 170:1 184:1 207:1 219:1 272:1 352:1 415:1 476:1 527:1 603:1 650:1 712:1 767:1 859:1 
0.10000000000000001 3:1 8:1 12:1 16:1 19:1 24:1 27:1 31:1 34:1 40:1 43:1 48:1 60:1 80:1 96:1 111:1 124:1 143:1 155:1 170:1 184:1 207:1 220:1 272:1 352:1 415:1 476:1 527:1 603:1 650:1 712:1 767:1 860:1 
0.10000000000000001 3:1 8:1 12:1 16:1 19:1 24:1 27:1 31:1 34:1 40:1 44:1 45:1 60:1 80:1 96:1 111:1 124:1 143:1 155:1 170:1 184:1 208:1 221:1 272:1 352:1 415:1 476:1 527:1 603:1 650:1 712:1 768:1 861:1 
-0.10000000000000001 3:1 8:1 12:1 16:1 19:1 24:1 27:1 31:1 34:1 40:1 44:1 46:1 60:1 80:1 96:1 111:1 124:1 143:1 155:1 170:1 184:1 208:1 222:1 272:1 352:1 415:1 476:1 527:1 603:1 650:1 712:1 768:1 862:1 
-0.10000000000000001 3:1 8:1 12:1 16:1 19:1 24:1 27:1 31:1 34:1 40:1 44:1 48:1 60:1 80:1 96:1 111:1 124:1 143:1 155:1 170:1 184:1 208:1 224:1 272:1 352:1 415:1 476:1 527:1 603:1 650:1 712:1 768:1 864:1 
0.10000000000000001 4:1 5:1 9:1 16:1 19:1 24:1 27:1 31:1 34:1 40:1 41:1 45:1 61:1 65:1 84:1 111:1 124:1 143:1 155:1 170:1 184:1 205:1 209:1 273:1 292:1 367:1 476:1 527:1 603:1 650:1 712:1 765:1 849:1 
0.10000000000000001 4:1 5:1 9:1 16:1 19:1 24:1 27:1 31:1 34:1 40:1 41:1 48:1 61:1 65:1 84:1 111:1 124:1 143:1 155:1 170:1 184:1 205:1 212:1 273:1 292:1 367:1 476:1 527:1 603:1 650:1 712:1 765:1 852:1 
-0.10000000000000001 4:1 5:1 9:1 16:1 19:1 24:1 27:1 31:1 34:1 40:1 44:1 45:1 61:1 65:1 84:1 111:1 124:1 143:1 155:1 170:1 184:1 208:1 221:1 273:1 292:1 367:1 476:1 527:1 603:1 650:1 712:1 768:1 861:1 
0.028921058506955623 4:1 5:1 9:1 16:1 19:1 24:1 27:1 31:1 34:1 40:1 44:1 46:1 61:1 65:1 84:1 111:1 124:1 143:1 155:1 170:1 184:1 208:1 222:1 273:1 292:1 367:1 476:1 527:1 603:1 650:1 712:1 768:1 862:1 
-0.10000000000000001 4:1 5:1 9:1 16:1 19:1 24:1 27:1 31:1 34:1 40:1 44:1 48:1 61:1 65:1 84:1 111:1 124:1 143:1 155:1 170:1 184:1 208:1 224:1 273:1 292:1 367:1 476:1 527:1 603:1 650:1 712:1 768:1 864:1 
0.10000000000000001 4:1 5:1 10:1 16:1 19:1 24:1 27:1 31:1 34:1 40:1 41:1 46:1 61:1 66:1 88:1 111:1 124:1 143:1 155:1 170:1 184:1 205:1 210:1 274:1 296:1 383:1 476:1 527:1 603:1 650:1 712:1 765:1 850:1 
0.10000000000000001 4:1 5:1 10:1 16:1 19:1 24:1 27:1 31:1 34:1 40:1 41:1 48:1 61:1 66:1 88:1 111:1 124:1 143:1 155:1 170:1 184:1 205:1 212:1 274:1 296:1 383:1 476:1 527:1 603:1 650:1 712:1 765:1 852:1 
-0.10000000000000001 4:1 5:1 10:1 16:1 19:1 24:1 27:1 31:1 34:1 40:1 44:1 45:1 61:1 66:1 88:1 111:1 124:1 143:1 155:1 170:1 184:1 208:1 221:1 274:1 296:1 383:1 476:1 527:1 603:1 650:1 712:1 768:1 861:1 
-0.10000000000000001 4:1 5:1 10:1 16:1 19:1 24:1 27:1 31:1 34:1 40:1 44:1 46:1 61:1 66:1 88:1 111:1 124:1 143:1 155:1 170:1 184:1 208:1 222:1 274:1 296:1 383:1 476:1 527:1 603:1 650:1 712:1 768:1 862:1 
-0.10000000000000001 4:1 5:1 10:1 16:1 19:1 24:1 27:1 31:1 34:1 40:1 44:1 47:1 61:1 66:1 88:1 111:1 124:1 143:1 155:1 170:1 184:1 208:1 223:1 274:1 296:1 383:1 476:1 527:1 603:1 650:1 712:1 768:1 863:1 
0.090949337307059189 4:1 5:1 10:1 16:1 19:1 24:1 27:1 31:1 34:1 40:1 44:1 48:1 61:1 66:1 88:1 111:1 124:1 143:1 155:1 170:1 184:1 208:1 224:1 274:1 296:1 383:1 476:1 527:1 603:1 650:1 712:1 768:1 864:1 
0.10000000000000001 4:1 5:1 12:1 16:1 19:1 24:1 27:1 31:1 34:1 37:1 41:1 45:1 61:1 68:1 96:1 111:1 124:1 143:1 155:1 170:1 181:1 193:1 209:1 276:1 304:1 415:1 476:1 527:1 603:1 650:1 709:1 753:1 801:1 
-0.10000000000000001 4:1 5:1 12:1 16:1 19:1 24:1 27:1 31:1 34:1 37:1 41:1 46:1 61:1 68:1 96:1 111:1 124:1 143:1 155:1 170:1 181:1 193:1 210:1 276:1 304:1 415:1 476:1 527:1 603:1 650:1 709:1 753:1 802:1 
-0.085366562875257346 4:1 5:1 12:1 16:1 19:1 24:1 27:1 31:1 34:1 37:1 41:1 48:1 61:1 68:1 96:1 111:1 124:1 143:1 155:1 170:1 181:1 193:1 212:1 276:1 304:1 415:1 476:1 527:1 603:1 650:1 709:1 753:1 804:1 
-0.0064422933598565994 4:1 5:1 12:1 16:1 19:1 24:1 27:1 31:1 34:1 37:1 43:1 45:1 61:1 68:1 96:1 111:1 124:1 143:1 155:1 170:1 181:1 195:1 217:1 276:1 304:1 415:1 476:1 527:1 603:1 650:1 709:1 755:1 809:1 
0.10000000000000001 4:1 5:1 12:1 16:1 19:1 24:1 27:1 31:1 34:1 38:1 41:1 46:1 61:1 68:1 96:1 111:1 124:1 143:1 155:1 170:1 182:1 197:1 210:1 276:1 304:1 415:1 476:1 527:1 603:1 650:1 710:1 757:1 818:1 
0.10000000000000001 4:1 5:1 12:1 16:1 19:1 24:1 27:1 31:1 34:1 38:1 41:1 48:1 61:1 68:1 96:1 111:1 124:1 143:1 155:1 170:1 182:1 197:1 212:1 276:1 304:1 415:1 476:1 527:1 603:1 650:1 710:1 757:1 820:1 
0.10000000000000001 4:1 5:1 12:1 16:1 19:1 24:1 27:1 31:1 34:1 38:1 42:1 48:1 61:1 68:1 96:1 111:1 124:1 143:1 155:1 170:1 182:1 198:1 216:1 276:1 304:1 415:1 476:1 527:1 603:1 650:1 710:1 758:1 824:1 
-0.10000000000000001 4:1 5:1 12:1 16:1 19:1 24:1 27:1 31:1 34:1 38:1 44:1 46:1 61:1 68:1 96:1 111:1 124:1 143:1 155:1 170:1 182:1 200:1 222:1 276:1 304:1 415:1 476:1 527:1 603:1 650:1 710:1 760:1 830:1 
-0.0080117764761146529 4:1 5:1 12:1 16:1 19:1 24:1 27:1 31:1 34:1 38:1 44:1 47:1 61:1 68:1 96:1 111:1 124:1 143:1 155:1 170:1 182:1 200:1 223:1 276:1 304:1 415:1 476:1 527:1 603:1 650:1 710:1 760:1 831:1 
-0.10000000000000001 4:1 5:1 12:1 16:1 19:1 24:1 27:1 31:1 34:1 38:1 44:1 48:1 61:1 68:1 96:1 111:1 124:1 143:1 155:1 170:1 182:1 200:1 224:1 276:1 304:1 415:1 476:1 527:1 603:1 650:1 710:1 760:1 832:1 
0.10000000000000001 4:1 5:1 12:1 16:1 19:1 24:1 27:1 31:1 34:1 40:1 41:1 47:1 61:1 68:1 96:1 111:1 124:1 143:1 155:1 170:1 184:1 205:1 211:1 276:1 304:1 415:1 476:1 527:1 603:1 650:1 712:1 765:1 851:1 
-0.10000000000000001 4:1 5:1 12:1 16:1 19:1 24:1 27:1 31:1 34:1 40:1 42:1 46:1 61:1 68:1 96:1 111:1 124:1 143:1 155:1 170:1 184:1 206:1 214:1 276:1 304:1 415:1 476:1 527:1 603:1 650:1 712:1 766:1 854:1 
-0.090957872933210768 4:1 5:1 12:1 16:1 19:1 24:1 27:1 31:1 34:1 40:1 42:1 48:1 61:1 68:1 96:1 111:1 124:1 143:1 155:1 170:1 184:1 206:1 216:1 276:1 304:1 415:1 476:1 527:1 603:1 650:1 712:1 766:1 856:1 
0.10000000000000001 4:1 5:1 12:1 16:1 19:1 24:1 27:1 31:1 34:1 40:1 43:1 45:1 61:1 68:1 96:1 111:1 124:1 143:1 155:1 170:1 184:1 207:1 217:1 276:1 304:1 415:1 476:1 527:1 603:1 650:1 712:1 767:1 857:1 
-0.10000000000000001 4:1 5:1 12:1 16:1 19:1 24:1 27:1 31:1 34:1 40:1 44:1 45:1 61:1 68:1 96:1 111:1 124:1 143:1 155:1 170:1 184:1 208:1 221:1 276:1 304:1 415:1 476:1 527:1 603:1 650:1 712:1 768:1 861:1 
0.10000000000000001 4:1 5:1 12:1 16:1 19:1 24:1 27:1 31:1 34:1 40:1 44:1 46:1 61:1 68:1 96:1 111:1 124:1 143:1 155:1 170:1 184:1 208:1 222:1 276:1 304:1 415:1 476:1 527:1 603:1 650:1 712:1 768:1 862:1 
-0.10000000000000001 4:1 6:1 9:1 16:1 19:1 24:1 27:1 31:1 34:1 40:1 41:1 45:1 62:1 69:1 84:1 111:1 124:1 143:1 155:1 170:1 184:1 205:1 209:1 277:1 308:1 367:1 476:1 527:1 603:1 650:1 712:1 765:1 849:1 
0.10000000000000001 4:1 6:1 9:1 16:1 19:1 24:1 27:1 31:1 34:1 40:1 41:1 47:1 62:1 69:1 84:1 111:1 124:1 143:1 155:1 170:1 184:1 205:1 211:1 277:1 308:1 367:1 476:1 527:1 603:1 650:1 712:1 765:1 851:1 
-0.061443154220344208 4:1 6:1 9:1 16:1 19:1 24:1 27:1 31:1 34:1 40:1 44:1 45:1 62:1 69:1 84:1 111:1 124:1 143:1 155:1 170:1 184:1 208:1 221:1 277:1 308:1 367:1 476:1 527:1 603:1 650:1 712:1 768:1 861:1 
-0.10000000000000001 4:1 6:1 9:1 16:1 19:1 24:1 27:1 31:1 34:1 40:1 44:1 47:1 62:1 69:1 84:1 111:1 124:1 143:1 155:1 170:1 184:1 208:1 223:1 277:1 308:1 367:1 476:1 527:1 603:1 650:1 712:1 768:1 863:1 
0.10000000000000001 4:1 6:1 9:1 16:1 19:1 24:1 27:1 31:1 34:1 40:1 44:1 48:1 62:1 69:1 84:1 111:1 124:1 143:1 155:1 170:1 184:1 208:1 224:1 277:1 308:1 367:1 476:1 527:1 603:1 650:1 712:1 768:1 864:1 
-0.10000000000000001 4:1 6:1 10:1 16:1 19:1 24:1 27:1 31:1 34:1 40:1 41:1 45:1 62:1 70:1 88:1 111:1 124:1 143:1 155:1 170:1 184:1 205:1 209:1 278:1 312:1 383:1 476:1 527:1 603:1 650:1 712:1 765:1 849:1 
0.10000000000000001 4:1 6:1 10:1 16:1 19:1 24:1 27:1 31:1 34:1 40:1 41:1 46:1 62:1 70:1 88:1 111:1 124:1 143:1 155:1 170:1 184:1 205:1 210:1 278:1 312:1 383:1 476:1 527:1 603:1 650:1 712:1 765:1 850:1 
-0.10000000000000001 4:1 6:1 10:1 16:1 19:1 24:1 27:1 31:1 34:1 40:1 41:1 47:1 62:1 70:1 88:1 111:1 124:1 143:1 155:1 170:1 184:1 205:1 211:1 278:1 312:1 383:1 476:1 527:1 603:1 650:1 712:1 765:1 851:1 
0.10000000000000001 4:1 6:1 10:1 16:1 19:1 24:1 27:1 31:1 34:1 40:1 41:1 48:1 62:1 70:1 88:1 111:1 124:1 143:1 155:1 170:1 184:1 205:1 212:1 278:1 312:1 383:1 476:1 527:1 603:1 650:1 712:1 765:1 852:1 
0.10000000000000001 4:1 6:1 10:1 16:1 19:1 24:1 27:1 31:1 34:1 40:1 44:1 45:1 62:1 70:1 88:1 111:1 124:1 143:1 155:1 170:1 184:1 208:1 221:1 278:1 312:1 383:1 476:1 527:1 603:1 650:1 712:1 768:1 861:1 
-0.0020059508441462094 4:1 6:1 10:1 16:1 19:1 24:1 27:1 31:1 34:1 40:1 44:1 47:1 62:1 70:1 88:1 111:1 124:1 143:1 155:1 170:1 184:1 208:1 223:1 278:1 312:1 383:1 476:1 527:1 603:1 650:1 712:1 768:1 863:1 
-0.10000000000000001 4:1 6:1 10:1 16:1 19:1 24:1 27:1 31:1 34:1 40:1 44:1 48:1 62:1 70:1 88:1 111:1 124:1 143:1 155:1 170:1 184:1 208:1 224:1 278:1 312:1 383:1 476:1 527:1 603:1 650:1 712:1 768:1 864:1 
-0.057165454959963787 4:1 6:1 12:1 16:1 19:1 24:1 27:1 31:1 34:1 37:1 41:1 46:1 62:1 72:1 96:1 111:1 124:1 143:1 155:1 170:1 181:1 193:1 210:1 280:1 320:1 415:1 476:1 527:1 603:1 650:1 709:1 753:1 802:1 
-0.10000000000000001 4:1 6:1 12:1 16:1 19:1 24:1 27:1 31:1 34:1 37:1 43:1 46:1 62:1 72:1 96:1 111:1 124:1 143:1 155:1 170:1 181:1 195:1 218:1 280:1 320:1 415:1 476:1 527:1 603:1 650:1 709:1 755:1 810:1 
0.10000000000000001 4:1 6:1 12:1 16:1 19:1 24:1 27:1 31:1 34:1 37:1 44:1 45:1 62:1 72:1 96:1 111:1 124:1 143:1 155:1 170:1 181:1 196:1 221:1 280:1 320:1 415:1 476:1 527:1 603:1 650:1 709:1 756:1 813:1 
0.045557987727311414 4:1 6:1 12:1 16:1 19:1 24:1 27:1 31:1 34:1 37:1 44:1 48:1 62:1 72:1 96:1 111:1 124:1 143:1 155:1 170:1 181:1 196:1 224:1 280:1 320:1 415:1 476:1 527:1 603:1 650:1 709:1 756:1 816:1 
0.10000000000000001 4:1 6:1 12:1 16:1 19:1 24:1 27:1 31:1 34:1 38:1 41:1 45:1 62:1 72:1 96:1 111:1 124:1 143:1 155:1 170:1 182:1 197:1 209:1 280:1 320:1 415:1 476:1 527:1 603:1 650:1 710:1 757:1 817:1 
0.077938877190319 4:1 6:1 12:1 16:1 19:1 24:1 27:1 31:1 34:1 38:1 41:1 46:1 62:1 72:1 96:1 111:1 124:1 143:1 155:1 170:1 182:1 197:1 210:1 280:1 320:1 415:1 476:1 527:1 603:1 650:1 710:1 757:1 818:1 
-0.092590471356213663 4:1 6:1 12:1 16:1 19:1 24:1 27:1 31:1 34:1 38:1 41:1 47:1 62:1 72:1 96:1 111:1 124:1 143:1 155:1 170:1 182:1 197:1 211:1 280:1 320:1 415:1 476:1 527:1 603:1 650:1 710:1 757:1 819:1 
-0.10000000000000001 4:1 6:1 12:1 16:1 19:1 24:1 27:1 31:1 34:1 38:1 41:1 48:1 62:1 72:1 96:1 111:1 124:1 143:1 155:1 170:1 182:1 197:1 212:1 280:1 320:1 415:1 476:1 527:1 603:1 650:1 710:1 757:1 820:1 
0.10000000000000001 4:1 6:1 12:1 16:1 19:1 24:1 27:1 31:1 34:1 38:1 42:1 46:1 62:1 72:1 96:1 111:1 124:1 143:1 155:1 170:1 182:1 198:1 214:1 280:1 320:1 415:1 476:1 527:1 603:1 650:1 710:1 758:1 822:1 
0.10000000000000001 4:1 6:1 12:1 16:1 19:1 24:1 27:1 31:1 34:1 38:1 42:1 47:1 62:1 72:1 96:1 111:1 124:1 143:1 155:1 170:1 182:1 198:1 215:1 280:1 320:1 415:1 476:1 527:1 603:1 650:1 710:1 758:1 823:1 
0.10000000000000001 4:1 6:1 12:1 16:1 19:1 24:1 27:1 31:1 34:1 38:1 43:1 46:1 62:1 72:1 96:1 111:1 124:1 143:1 155:1 170:1 182:1 199:1 218:1 280:1 320:1 415:1 476:1 527:1 603:1 650:1 710:1 759:1 826:1 
-0.10000000000000001 4:1 6:1 12:1 16:1 19:1 24:1 27:1 31:1 34:1 38:1 43:1 47:1 62:1 72:1 96:1 111:1 124:1 143:1 155:1 170:1 182:1 199:1 219:1 280:1 320:1 415:1 476:1 527:1 603:1 650:1 710:1 759:1 827:1 
-0.10000000000000001 4:1 6:1 12:1 16:1 19:1 24:1 27:1 31:1 34:1 38:1 44:1 45:1 62:1 72:1 96:1 111:1 124:1 143:1 155:1 170:1 182:1 200:1 221:1 280:1 320:1 415:1 476:1 527:1 603:1 650:1 710:1 760:1 829:1 
-0.10000000000000001 4:1 6:1 12:1 16:1 19:1 24:1 27:1 31:1 34:1 38:1 44:1 46:1 62:1 72:1 96:1 111:1 124:1 143:1 155:1 170:1 182:1 200:1 222:1 280:1 320:1 415:1 476:1 527:1 603:1 650:1 710:1 760:1 830:1 
-0.025522532866629494 4:1 6:1 12:1 16:1 19:1 24:1 27:1 31:1 34:1 38:1 44:1 48:1 62:1 72:1 96:1 111:1 124:1 143:1 155:1 170:1 182:1 200:1 224:1 280:1 320:1 415:1 476:1 527:1 603:1 650:1 710:1 760:1 832:1 
0.10000000000000001 4:1 6:1 12:1 16:1 19:1 24:1 27:1 31:1 34:1 40:1 41:1 45:1 62:1 72:1 96:1 111:1 124:1 143:1 155:1 170:1 184:1 205:1 209:1 280:1 320:1 415:1 476:1 527:1 603:1 650:1 712:1 765:1 849:1 
-0.10000000000000001 4:1 6:1 12:1 16:1 19:1 24:1 27:1 31:1 34:1 40:1 41:1 46:1 62:1 72:1 96:1 111:1 124:1 143:1 155:1 170:1 184:1 205:1 210:1 280:1 320:1 415:1 476:1 527:1 603:1 650:1 712:1 765:1 850:1 
-0.10000000000000001 4:1 6:1 12:1 16:1 19:1 24:1 27:1 31:1 34:1 40:1 41:1 48:1 62:1 72:1 96:1 111:1 124:1 143:1 155:1 170:1 184:1 205:1 212:1 280:1 320:1 415:1 476:1 527:1 603:1 650:1 712:1 765:1 852:1 
-0.070603328979309363 4:1 6:1 12:1 16:1 19:1 24:1 27:1 31:1 34:1 40:1 42:1 48:1 62:1 72:1 96:1 111:1 124:1 143:1 155:1 170:1 184:1 206:1 216:1 280:1 320:1 415:1 476:1 527:1 603:1 650:1 712:1 766:1 856:1 
0.10000000000000001 4:1 6:1 12:1 16:1 19:1 24:1 27:1 31:1 34:1 40:1 43:1 46:1 62:1 72:1 96:1 111:1 124:1 143:1 155:1 170:1 184:1 207:1 218:1 280:1 320:1 415:1 476:1 527:1 603:1 650:1 712:1 767:1 858:1 
-0.10000000000000001 4:1 6:1 12:1 16:1 19:1 24:1 27:1 31:1 34:1 40:1 43:1 47:1 62:1 72:1 96:1 111:1 124:1 143:1 155:1 170:1 184:1 207:1 219:1 280:1 320:1 415:1 476:1 527:1 603:1 650:1 712:1 767:1 859:1 
0.10000000000000001 4:1 6:1 12:1 16:1 19:1 24:1 27:1 31:1 34:1 40:1 44:1 45:1 62:1 72:1 96:1 111:1 124:1 143:1 155:1 170:1 184:1 208:1 221:1 280:1 320:1 415:1 476:1 527:1 603:1 650:1 712:1 768:1 861:1 
0.10000000000000001 4:1 6:1 12:1 16:1 19:1 24:1 27:1 31:1 34:1 40:1 44:1 46:1 62:1 72:1 96:1 111:1 124:1 143:1 155:1 170:1 184:1 208:1 222:1 280:1 320:1 415:1 476:1 527:1 603:1 650:1 712:1 768:1 862:1 
0.078132540107363993 4:1 6:1 12:1 16:1 19:1 24:1 27:1 31:1 34:1 40:1 44:1 47:1 62:1 72:1 96:1 111:1 124:1 143:1 155:1 170:1 184:1 208:1 223:1 280:1 320:1 415:1 476:1 527:1 603:1 650:1 712:1 768:1 863:1 
0.10000000000000001 4:1 7:1 9:1 16:1 19:1 24:1 27:1 31:1 34:1 40:1 41:1 46:1 63:1 73:1 84:1 111:1 124:1 143:1 155:1 170:1 184:1 205:1 210:1 281:1 324:1 367:1 476:1 527:1 603:1 650:1 712:1 765:1 850:1 
-0.10000000000000001 4:1 7:1 9:1 16:1 19:1 24:1 27:1 31:1 34:1 40:1 41:1 47:1 63:1 73:1 84:1 111:1 124:1 143:1 155:1 170:1 184:1 205:1 211:1 281:1 324:1 367:1 476:1 527:1 603:1 650:1 712:1 765:1 851:1 
-0.028676781021476961 4:1 7:1 9:1 16:1 19:1 24:1 27:1 31:1 34:1 40:1 44:1 45:1 63:1 73:1 84:1 111:1 124:1 143:1 155:1 170:1 184:1 208:1 221:1 281:1 324:1 367:1 476:1 527:1 603:1 650:1 712:1 768:1 861:1 
-0.10000000000000001 4:1 7:1 9:1 16:1 19:1 24:1 27:1 31:1 34:1 40:1 44:1 46:1 63:1 73:1 84:1 111:1 124:1 143:1 155:1 170:1 184:1 208:1 222:1 281:1 324:1 367:1 476:1 527:1 603:1 650:1 712:1 768:1 862:1 
0.10000000000000001 4:1 7:1 9:1 16:1 19:1 24:1 27:1 31:1 34:1 40:1 44:1 47:1 63:1 73:1 84:1 111:1 124:1 143:1 155:1 170:1 184:1 208:1 223:1 281:1 324:1 367:1 476:1 527:1 603:1 650:1 712:1 768:1 863:1 
0.028448255213041618 4:1 7:1 9:1 16:1 19:1 24:1 27:1 31:1 34:1 40:1 44:1 48:1 63:1 73:1 84:1 111:1 124:1 143:1 155:1 170:1 184:1 208:1 224:1 281:1 324:1 367:1 476:1 527:1 603:1 650:1 712:1 768:1 864:1 
-0.10000000000000001 4:1 7:1 10:1 16:1 19:1 24:1 27:1 31:1 34:1 40:1 41:1 45:1 63:1 74:1 88:1 111:1 124:1 143:1 155:1 170:1 184:1 205:1 209:1 282:1 328:1 383:1 476:1 527:1 603:1 650:1 712:1 765:1 849:1 
-0.10000000000000001 4:1 7:1 10:1 16:1 19:1 24:1 27:1 31:1 34:1 40:1 41:1 47:1 63:1 74:1 88:1 111:1 124:1 143:1 155:1 170:1 184:1 205:1 211:1 282:1 328:1 383:1 476:1 527:1 603:1 650:1 712:1 765:1 851:1 
0.10000000000000001 4:1 7:1 10:1 16:1 19:1 24:1 27:1 31:1 34:1 40:1 41:1 48:1 63:1 74:1 88:1 111:1 124:1 143:1 155:1 170:1 184:1 205:1 212:1 282:1 328:1 383:1 476:1 527:1 603:1 650:1 712:1 765:1 852:1 
0.079938424490655843 4:1 7:1 10:1 16:1 19:1 24:1 27:1 31:1 34:1 40:1 44:1 45:1 63:1 74:1 88:1 111:1 124:1 143:1 155:1 170:1 184:1 208:1 221:1 282:1 328:1 383:1 476:1 527:1 603:1 650:1 712:1 768:1 861:1 
0.10000000000000001 4:1 7:1 10:1 16:1 19:1 24:1 27:1 31:1 34:1 40:1 44:1 46:1 63:1 74:1 88:1 111:1 124:1 143:1 155:1 170:1 184:1 208:1 222:1 282:1 328:1 383:1 476:1 527:1 603:1 650:1 712:1 768:1 862:1 
-0.10000000000000001 4:1 7:1 10:1 16:1 19:1 24:1 27:1 31:1 34:1 40:1 44:1 47:1 63:1 74:1 88:1 111:1 124:1 143:1 155:1 170:1 184:1 208:1 223:1 282:1 328:1 383:1 476:1 527:1 603:1 650:1 712:1 768:1 863:1 
0.10000000000000001 4:1 7:1 12:1 16:1 19:1 24:1 27:1 31:1 34:1 37:1 41:1 45:1 63:1 76:1 96:1 111:1 124:1 143:1 155:1 170:1 181:1 193:1 209:1 284:1 336:1 415:1 476:1 527:1 603:1 650:1 709:1 753:1 801:1 
0.10000000000000001 4:1 7:1 12:1 16:1 19:1 24:1 27:1 31:1 34:1 37:1 41:1 46:1 63:1 76:1 96:1 111:1 124:1 143:1 155:1 170:1 181:1 193:1 210:1 284:1 336:1 415:1 476:1 527:1 603:1 650:1 709:1 753:1 802:1 
0.10000000000000001 4:1 7:1 12:1 16:1 19:1 24:1 27:1 31:1 34:1 37:1 42:1 48:1 63:1 76:1 96:1 111:1 124:1 143:1 155:1 170:1 181:1 194:1 216:1 284:1 336:1 415:1 476:1 527:1 603:1 650:1 709:1 754:1 808:1 
-0.10000000000000001 4:1 7:1 12:1 16:1 19:1 24:1 27:1 31:1 34:1 37:1 44:1 47:1 63:1 76:1 96:1 111:1 124:1 143:1 155:1 170:1 181:1 196:1 223:1 284:1 336:1 415:1 476:1 527:1 603:1 650:1 709:1 756:1 815:1 
-0.10000000000000001 4:1 7:1 12:1 16:1 19:1 24:1 27:1 31:1 34:1 38:1 41:1 47:1 63:1 76:1 96:1 111:1 124:1 143:1 155:1 170:1 182:1 197:1 211:1 284:1 336:1 415:1 476:1 527:1 603:1 650:1 710:1 757:1 819:1 
-0.10000000000000001 4:1 7:1 12:1 16:1 19:1 24:1 27:1 31:1 34:1 38:1 42:1 45:1 63:1 76:1 96:1 111:1 124:1 143:1 155:1 170:1 182:1 198:1 213:1 284:1 336:1 415:1 476:1 527:1 603:1 650:1 710:1 758:1 821:1 
-0.10000000000000001 4:1 7:1 12:1 16:1 19:1 24:1 27:1 31:1 34:1 38:1 42:1 46:1 63:1 76:1 96:1 111:1 124:1 143:1 155:1 170:1 182:1 198:1 214:1 284:1 336:1 415:1 476:1 527:1 603:1 650:1 710:1 758:1 822:1 
-0.01402223340608021 4:1 7:1 12:1 16:1 19:1 24:1 27:1 31:1 34:1 38:1 42:1 48:1 63:1 76:1 96:1 111:1 124:1 143:1 155:1 170:1 182:1 198:1 216:1 284:1 336:1 415:1 476:1 527:1 603:1 650:1 710:1 758:1 824:1 
0.10000000000000001 4:1 7:1 12:1 16:1 19:1 24:1 27:1 31:1 34:1 38:1 43:1 46:1 63:1 76:1 96:1 111:1 124:1 143:1 155:1 170:1 182:1 199:1 218:1 284:1 336:1 415:1 476:1 527:1 603:1 650:1 710:1 759:1 826:1 
-0.10000000000000001 4:1 7:1 12:1 16:1 19:1 24:1 27:1 31:1 34:1 38:1 43:1 48:1 63:1 76:1 96:1 111:1 124:1 143:1 155:1 170:1 182:1 199:1 220:1 284:1 336:1 415:1 476:1 527:1 603:1 650:1 710:1 759:1 828:1 
0.10000000000000001 4:1 7:1 12:1 16:1 19:1 24:1 27:1 31:1 34:1 38:1 44:1 46:1 63:1 76:1 96:1 111:1 124:1 143:1 155:1 170:1 182:1 200:1 222:1 284:1 336:1 415:1 476:1 527:1 603:1 650:1 710:1 760:1 830:1 
-0.10000000000000001 4:1 7:1 12:1 16:1 19:1 24:1 27:1 31:1 34:1 40:1 41:1 45:1 63:1 76:1 96:1 111:1 124:1 143:1 155:1 170:1 184:1 205:1 209:1 284:1 336:1 415:1 476:1 527:1 603:1 650:1 712:1 765:1 849:1 
-0.10000000000000001 4:1 7:1 12:1 16:1 19:1 24:1 27:1 31:1 34:1 40:1 41:1 46:1 63:1 76:1 96:1 111:1 124:1 143:1 155:1 170:1 184:1 205:1 210:1 284:1 336:1 415:1 476:1 527:1 603:1 650:1 712:1 765:1 850:1 
0.10000000000000001 4:1 7:1 12:1 16:1 19:1 24:1 27:1 31:1 34:1 40:1 41:1 47:1 63:1 76:1 96:1 111:1 124:1 143:1 155:1 170:1 184:1 205:1 211:1 284:1 336:1 415:1 476:1 527:1 603:1 650:1 712:1 765:1 851:1 
0.10000000000000001 4:1 7:1 12:1 16:1 19:1 24:1 27:1 31:1 34:1 40:1 41:1 48:1 63:1 76:1 96:1 111:1 124:1 143:1 155:1 170:1 184:1 205:1 212:1 284:1 336:1 415:1 476:1 527:1 603:1 650:1 712:1 765:1 852:1 
0.051280858657436035 4:1 7:1 12:1 16:1 19:1 24:1 27:1 31:1 34:1 40:1 42:1 46:1 63:1 76:1 96:1 111:1 124:1 143:1 155:1 170:1 184:1 206:1 214:1 284:1 336:1 415:1 476:1 527:1 603:1 650:1 712:1 766:1 854:1 
-0.10000000000000001 4:1 7:1 12:1 16:1 19:1 24:1 27:1 31:1 34:1 40:1 42:1 48:1 63:1 76:1 96:1 111:1 124:1 143:1 155:1 170:1 184:1 206:1 216:1 284:1 336:1 415:1 476:1 527:1 603:1 650:1 712:1 766:1 856:1 
0.10000000000000001 4:1 7:1 12:1 16:1 19:1 24:1 27:1 31:1 34:1 40:1 43:1 48:1 63:1 76:1 96:1 111:1 124:1 143:1 155:1 170:1 184:1 207:1 220:1 284:1 336:1 415:1 476:1 527:1 603:1 650:1 712:1 767:1 860:1 
0.04859171131449333 4:1 7:1 12:1 16:1 19:1 24:1 27:1 31:1 34:1 40:1 44:1 45:1 63:1 76:1 96:1 111:1 124:1 143:1 155:1 170:1 184:1 208:1 221:1 284:1 336:1 415:1 476:1 527:1 603:1 650:1 712:1 768:1 861:1 
-0.10000000000000001 4:1 7:1 12:1 16:1 19:1 24:1 27:1 31:1 34:1 40:1 44:1 46:1 63:1 76:1 96:1 111:1 124:1 143:1 155:1 170:1 184:1 208:1 222:1 284:1 336:1 415:1 476:1 527:1 603:1 650:1 712:1 768:1 862:1 
0.10000000000000001 4:1 8:1 9:1 16:1 19:1 24:1 27:1 31:1 34:1 40:1 41:1 45:1 64:1 77:1 84:1 111:1 124:1 143:1 155:1 170:1 184:1 205:1 209:1 285:1 340:1 367:1 476:1 527:1 603:1 650:1 712:1 765:1 849:1 
0.10000000000000001 4:1 8:1 9:1 16:1 19:1 24:1 27:1 31:1 34:1 40:1 41:1 47:1 64:1 77:1 84:1 111:1 124:1 143:1 155:1 170:1 184:1 205:1 211:1 285:1 340:1 367:1 476:1 527:1 603:1 650:1 712:1 765:1 851:1 
-0.10000000000000001 4:1 8:1 9:1 16:1 19:1 24:1 27:1 31:1 34:1 40:1 44:1 45:1 64:1 77:1 84:1 111:1 124:1 143:1 155:1 170:1 184:1 208:1 221:1 285:1 340:1 367:1 476:1 527:1 603:1 650:1 712:1 768:1 861:1 
-0.01499212419058342 4:1 8:1 9:1 16:1 19:1 24:1 27:1 31:1 34:1 40:1 44:1 46:1 64:1 77:1 84:1 111:1 124:1 143:1 155:1 170:1 184:1 208:1 222:1 285:1 340:1 367:1 476:1 527:1 603:1 650:1 712:1 768:1 862:1 
-0.10000000000000001 4:1 8:1 9:1 16:1 19:1 24:1 27:1 31:1 34:1 40:1 44:1 47:1 64:1 77:1 84:1 111:1 124:1 143:1 155:1 170:1 184:1 208:1 223:1 285:1 340:1 367:1 476:1 527:1 603:1 650:1 712:1 768:1 863:1 
0.10000000000000001 4:1 8:1 10:1 16:1 19:1 24:1 27:1 31:1 34:1 40:1 41:1 45:1 64:1 78:1 88:1 111:1 124:1 143:1 155:1 170:1 184:1 205:1 209:1 286:1 344:1 383:1 476:1 527:1 603:1 650:1 712:1 765:1 849:1 
-0.10000000000000001 4:1 8:1 10:1 16:1 19:1 24:1 27:1 31:1 34:1 40:1 41:1 46:1 64:1 78:1 88:1 111:1 124:1 143:1 155:1 170:1 184:1 205:1 210:1 286:1 344:1 383:1 476:1 527:1 603:1 650:1 712:1 765:1 850:1 
0.10000000000000001 4:1 8:1 10:1 16:1 19:1 24:1 27:1 31:1 34:1 40:1 41:1 48:1 64:1 78:1 88:1 111:1 124:1 143:1 155:1 170:1 184:1 205:1 212:1 286:1 344:1 383:1 476:1 527:1 603:1 650:1 712:1 765:1 852:1 
0.10000000000000001 4:1 8:1 10:1 16:1 19:1 24:1 27:1 31:1 34:1 40:1 44:1 45:1 64:1 78:1 88:1 111:1 124:1 143:1 155:1 170:1 184:1 208:1 221:1 286:1 344:1 383:1 476:1 527:1 603:1 650:1 712:1 768:1 861:1 
-0.042899881406277207 4:1 8:1 10:1 16:1 19:1 24:1 27:1 31:1 34:1 40:1 44:1 46:1 64:1 78:1 88:1 111:1 124:1 143:1 155:1 170:1 184:1 208:1 222:1 286:1 344:1 383:1 476:1 527:1 603:1 650:1 712:1 768:1 862:1 
-0.10000000000000001 4:1 8:1 10:1 16:1 19:1 24:1 27:1 31:1 34:1 40:1 44:1 48:1 64:1 78:1 88:1 111:1 124:1 143:1 155:1 170:1 184:1 208:1 224:1 286:1 344:1 383:1 476:1 527:1 603:1 650:1 712:1 768:1 864:1 
0.10000000000000001 4:1 8:1 12:1 16:1 19:1 24:1 27:1 31:1 34:1 37:1 41:1 48:1 64:1 80:1 96:1 111:1 124:1 143:1 155:1 170:1 181:1 193:1 212:1 288:1 352:1 415:1 476:1 527:1 603:1 650:1 709:1 753:1 804:1 
0.10000000000000001 4:1 8:1 12:1 16:1 19:1 24:1 27:1 31:1 34:1 37:1 42:1 45:1 64:1 80:1 96:1 111:1 124:1 143:1 155:1 170:1 181:1 194:1 213:1 288:1 352:1 415:1 476:1 527:1 603:1 650:1 709:1 754:1 805:1 
-0.10000000000000001 4:1 8:1 12:1 16:1 19:1 24:1 27:1 31:1 34:1 37:1 42:1 46:1 64:1 80:1 96:1 111:1 124:1 143:1 155:1 170:1 181:1 194:1 214:1 288:1 352:1 415:1 476:1 527:1 603:1 650:1 709:1 754:1 806:1 
-0.10000000000000001 4:1 8:1 12:1 16:1 19:1 24:1 27:1 31:1 34:1 37:1 43:1 45:1 64:1 80:1 96:1 111:1 124:1 143:1 155:1 170:1 181:1 195:1 217:1 288:1 352:1 415:1 476:1 527:1 603:1 650:1 709:1 755:1 809:1 
-0.10000000000000001 4:1 8:1 12:1 16:1 19:1 24:1 27:1 31:1 34:1 37:1 43:1 46:1 64:1 80:1 96:1 111:1 124:1 143:1 155:1 170:1 181:1 195:1 218:1 288:1 352:1 415:1 476:1 527:1 603:1 650:1 709:1 755:1 810:1 
-0.10000000000000001 4:1 8:1 12:1 16:1 19:1 24:1 27:1 31:1 34:1 37:1 43:1 47:1 64:1 80:1 96:1 111:1 124:1 143:1 155:1 170:1 181:1 195:1 219:1 288:1 352:1 415:1 476:1 527:1 603:1 650:1 709:1 755:1 811:1 
-0.10000000000000001 4:1 8:1 12:1 16:1 19:1 24:1 27:1 31:1 34:1 37:1 43:1 48:1 64:1 80:1 96:1 111:1 124:1 143:1 155:1 170:1 181:1 195:1 220:1 288:1 352:1 415:1 476:1 527:1 603:1 650:1 709:1 755:1 812:1 
-0.10000000000000001 4:1 8:1 12:1 16:1 19:1 24:1 27:1 31:1 34:1 37:1 44:1 46:1 64:1 80:1 96:1 111:1 124:1 143:1 155:1 170:1 181:1 196:1 222:1 288:1 352:1 415:1 476:1 527:1 603:1 650:1 709:1 756:1 814:1 
0.093887117918783125 4:1 8:1 12:1 16:1 19:1 24:1 27:1 31:1 34:1 37:1 44:1 47:1 64:1 80:1 96:1 111:1 124:1 143:1 155:1 170:1 181:1 196:1 223:1 288:1 352:1 415:1 476:1 527:1 603:1 650:1 709:1 756:1 815:1 
-0.10000000000000001 4:1 8:1 12:1 16:1 19:1 24:1 27:1 31:1 34:1 37:1 44:1 48:1 64:1 80:1 96:1 111:1 124:1 143:1 155:1 170:1 181:1 196:1 224:1 288:1 352:1 415:1 476:1 527:1 603:1 650:1 709:1 756:1 816:1 
0.10000000000000001 4:1 8:1 12:1 16:1 19:1 24:1 27:1 31:1 34:1 38:1 41:1 45:1 64:1 80:1 96:1 111:1 124:1 143:1 155:1 170:1 182:1 197:1 209:1 288:1 352:1 415:1 476:1 527:1 603:1 650:1 710:1 757:1 817:1 
0.10000000000000001 4:1 8:1 12:1 16:1 19:1 24:1 27:1 31:1 34:1 38:1 41:1 46:1 64:1 80:1 96:1 111:1 124:1 143:1 155:1 170:1 182:1 197:1 210:1 288:1 352:1 415:1 476:1 527:1 603:1 650:1 710:1 757:1 818:1 
0.10000000000000001 4:1 8:1 12:1 16:1 19:1 24:1 27:1 31:1 34:1 38:1 41:1 47:1 64:1 80:1 96:1 111:1 124:1 143:1 155:1 170:1 182:1 197:1 211:1 288:1 352:1 415:1 476:1 527:1 603:1 650:1 710:1 757:1 819:1 
0.10000000000000001 4:1 8:1 12:1 16:1 19:1 24:1 27:1 31:1 34:1 38:1 42:1 46:1 64:1 80:1 96:1 111:1 124:1 143:1 155:1 170:1 182:1 198:1 214:1 288:1 352:1 415:1 476:1 527:1 603:1 650:1 710:1 758:1 822:1 
0.097050734800012167 4:1 8:1 12:1 16:1 19:1 24:1 27:1 31:1 34:1 38:1 42:1 47:1 64:1 80:1 96:1 111:1 124:1 143:1 155:1 170:1 182:1 198:1 215:1 288:1 352:1 415:1 476:1 527:1 603:1 650:1 710:1 758:1 823:1 
0.10000000000000001 4:1 8:1 12:1 16:1 19:1 24:1 27:1 31:1 34:1 38:1 43:1 46:1 64:1 80:1 96:1 111:1 124:1 143:1 155:1 170:1 182:1 199:1 218:1 288:1 352:1 415:1 476:1 527:1 603:1 650:1 710:1 759:1 826:1 
-0.10000000000000001 4:1 8:1 12:1 16:1 19:1 24:1 27:1 31:1 34:1 38:1 44:1 45:1 64:1 80:1 96:1 111:1 124:1 143:1 155:1 170:1 182:1 200:1 221:1 288:1 352:1 415:1 476:1 527:1 603:1 650:1 710:1 760:1 829:1 
0.10000000000000001 4:1 8:1 12:1 16:1 19:1 24:1 27:1 31:1 34:1 38:1 44:1 46:1 64:1 80:1 96:1 111:1 124:1 143:1 155:1 170:1 182:1 200:1 222:1 288:1 352:1 415:1 476:1 527:1 603:1 650:1 710:1 760:1 830:1 
-0.00031235314763971536 4:1 8:1 12:1 16:1 19:1 24:1 27:1 31:1 34:1 38:1 44:1 47:1 64:1 80:1 96:1 111:1 124:1 143:1 155:1 170:1 182:1 200:1 223:1 288:1 352:1 415:1 476:1 527:1 603:1 650:1 710:1 760:1 831:1 
-0.10000000000000001 4:1 8:1 12:1 16:1 19:1 24:1 27:1 31:1 34:1 38:1 44:1 48:1 64:1 80:1 96:1 111:1 124:1 143:1 155:1 170:1 182:1 200:1 224:1 288:1 352:1 415:1 476:1 527:1 603:1 650:1 710:1 760:1 832:1 
0.10000000000000001 4:1 8:1 12:1 16:1 19:1 24:1 27:1 31:1 34:1 40:1 41:1 45:1 64:1 80:1 96:1 111:1 124:1 143:1 155:1 170:1 184:1 205:1 209:1 288:1 352:1 415:1 476:1 527:1 603:1 650:1 712:1 765:1 849:1 
-0.10000000000000001 4:1 8:1 12:1 16:1 19:1 24:1 27:1 31:1 34:1 40:1 41:1 46:1 64:1 80:1 96:1 111:1 124:1 143:1 155:1 170:1 184:1 205:1 210:1 288:1 352:1 415:1 476:1 527:1 603:1 650:1 712:1 765:1 850:1 
-0.094227796674871661 4:1 8:1 12:1 16:1 19:1 24:1 27:1 31:1 34:1 40:1 41:1 47:1 64:1 80:1 96:1 111:1 124:1 143:1 155:1 170:1 184:1 205:1 211:1 288:1 352:1 415:1 476:1 527:1 603:1 650:1 712:1 765:1 851:1 
0.10000000000000001 4:1 8:1 12:1 16:1 19:1 24:1 27:1 31:1 34:1 40:1 42:1 45:1 64:1 80:1 96:1 111:1 124:1 143:1 155:1 170:1 184:1 206:1 213:1 288:1 352:1 415:1 476:1 527:1 603:1 650:1 712:1 766:1 853:1 
-0.10000000000000001 4:1 8:1 12:1 16:1 19:1 24:1 27:1 31:1 34:1 40:1 42:1 46:1 64:1 80:1 96:1 111:1 124:1 143:1 155:1 170:1 184:1 206:1 214:1 288:1 352:1 415:1 476:1 527:1 603:1 650:1 712:1 766:1 854:1 
0.10000000000000001 4:1 8:1 12:1 16:1 19:1 24:1 27:1 31:1 34:1 40:1 42:1 48:1 64:1 80:1 96:1 111:1 124:1 143:1 155:1 170:1 184:1 206:1 216:1 288:1 352:1 415:1 476:1 527:1 603:1 650:1 712:1 766:1 856:1 
-0.10000000000000001 4:1 8:1 12:1 16:1 19:1 24:1 27:1 31:1 34:1 40:1 43:1 46:1 64:1 80:1 96:1 111:1 124:1 143:1 155:1 170:1 184:1 207:1 218:1 288:1 352:1 415:1 476:1 527:1 603:1 650:1 712:1 767:1 858:1 
0.10000000000000001 4:1 8:1 12:1 16:1 19:1 24:1 27:1 31:1 34:1 40:1 43:1 47:1 64:1 80:1 96:1 111:1 124:1 143:1 155:1 170:1 184:1 207:1 219:1 288:1 352:1 415:1 476:1 527:1 603:1 650:1 712:1 767:1 859:1 
-0.10000000000000001 4:1 8:1 12:1 16:1 19:1 24:1 27:1 31:1 34:1 40:1 44:1 45:1 64:1 80:1 96:1 111:1 124:1 143:1 155:1 170:1 184:1 208:1 221:1 288:1 352:1 415:1 476:1 527:1 603:1 650:1 712:1 768:1 861:1 
0.10000000000000001 4:1 8:1 12:1 16:1 19:1 24:1 27:1 31:1 34:1 40:1 44:1 47:1 64:1 80:1 96:1 111:1 124:1 143:1 155:1 170:1 184:1 208:1 223:1 288:1 352:1 415:1 476:1 527:1 603:1 650:1 712:1 768:1 863:1 
-0.10000000000000001 4:1 8:1 12:1 16:1 19:1 24:1 27:1 31:1 34:1 40:1 44:1 48:1 64:1 80:1 96:1 111:1 124:1 143:1 155:1 170:1 184:1 208:1 224:1 288:1 352:1 415:1 476:1 527:1 603:1 650:1 712:1 768:1 864:1 
